{"Layers":[{"ClassName":"Layer","Content":{"biases":[-0.169550478,-0.03987476,-0.070142366,-0.00399561459,-0.0177117754,-0.01987539,-0.008290165,0.00666525029,-0.172018036,-0.150818855,-0.08228763,0.00717508467,-0.04879931],"useBias":true}},{"ClassName":"ActivationLayer","Content":{"biases":[-0.0128051927,-0.006994109,-0.0169594958,-0.0196827352,-0.00361375231,0.06019313,-0.0151163861,-0.0267488286,0.018912442,-0.0217637364,-0.003125617,-0.0326275043,-0.0198916811,-0.0528240725,0.0009961072,-0.0004791196,0.00355979567,0.0598564446,-0.008819883,-0.00519236457,0.0206489675,0.00583580974,-0.08885495,0.03709205,0.009615181,0.0171248131,0.01143494,-0.00365843065,-0.0290465876,0.07028463,0.005764196,-0.0120443217,0.0336285755,-0.0294033345,0.008101009,-0.07495803,0.0126684941,0.0292940941,0.00038512412,-0.06907938,-0.0292352531,-0.0149999373,-0.0224159472,0.0016947675,0.0139459372,0.007693293,0.0261224248,0.07087987,0.074034445,-0.00988457,0.0332805365,0.0268600341,0.05511772,0.004473632,-0.0196481738,-0.0181953423,0.0005502226,0.04041187,0.0571432,-0.0102292057,-0.0199276786,-0.0157335475,0.0273181871,0.00939940847,0.07244652,0.003564325,0.0340691879,-0.0458357856,-0.03628707,-0.009542496,-0.009071221,0.034850847,-0.0290200654,0.03868348,0.0209185276,-0.00841752,0.004798191,0.0114931595,0.00875539053,0.018519247,0.01614822,0.0242466778,-0.007041585,-0.0275244452,-0.0115168346,-0.0008800804,0.0311485045,-0.0315000564,-0.0307859778,-0.0382933132,0.0291699935,0.0214858,0.0249022525,-0.00192365609,-0.02101232,0.007604056,-0.009046131,-0.0172383115,0.0310175288,-0.02202521,-0.003243762,0.0343104973,0.025792947,0.00201786845,-0.0151123414,0.0517308265,-0.03617018,-0.0654156655,-0.00285359076,0.0814017,-0.03656149,-0.008874165,-0.014905097,0.026592128,0.0273722932,0.07519488,-0.0353073776,0.0217124373,0.043623887,-0.00578393275,0.0320113041,-0.03391635,0.0176300257,0.009178789,-0.0713671446,0.0136220148,0.0428691767,0.029713003],"useBias":true,"func":2}},{"ClassName":"ActivationLayer","Content":{"biases":[-0.00738343224,-0.04419875,-0.29442957,-0.0025501356,-0.100246072,-0.0171978325,-0.156386763,-0.165560916,0.206205919,-0.0485720523,0.133505434,-0.00426046,0.2663893,0.0353846774,-0.05556778,0.07815613,0.123236693,-0.241773188,-0.0532783046,0.201218456,-0.0662373751,-0.13972877,-0.0208171476,-0.108476125,0.2972202,0.008194815,-0.00330151059,-0.148500577,-0.06837588,-0.184748113,0.0168713853,0.260276228,-0.0550511181,-0.029092513,-0.201773226,-0.10395734,0.021806471,-0.004264297,0.07318418,0.187672138,0.184166953,-0.0731219649,0.0162307061,0.0474281572,0.0134994378,0.29224363,-0.123835281,-0.0569701046,-0.121669687,0.265834659,0.0144355483,-0.09468487,0.08076327,0.229722142,-0.125302359,0.02571993,0.120105617,0.0185052361,-0.01959282,-0.17414467,0.0965069458,-0.222574234,-0.09875805,0.319660217,0.05338616,-0.137804523,-0.177813262,-0.108176954,-0.0583681054,-0.081768,-0.0576128028,0.08473939,0.18508321,0.0480371,0.066221036,-0.25128445,-0.102617629,0.0509801954,0.1507811,-0.0787947848,-0.0334292278,-0.14408277,-0.01043873,0.00203089416,0.05760117,-0.0203897748,0.101892374,0.09584768,-0.07867415,-0.0232176483,0.112930559,-0.0591079034,0.000851663,-0.06670471,0.0334752835,0.0571144819,0.007333473,-0.286025524,0.038999863,-0.3481324,0.152817518,-0.0381387174,-0.151923284,0.08181721,-0.113487676,0.0269444864,-0.012932322,0.198659942,-0.12737529,-0.0127584469,0.0118501494,-0.09826887,-0.0238185972,0.207887784,0.124887139,0.06364501,0.0920558,-0.05209346,-0.0278768688,-0.176328242,-0.0138877733,0.00189051335,0.179545209,-0.019275872,-0.0108559364,-0.21321784,-0.03505426,0.03688267],"useBias":true,"func":2}},{"ClassName":"ActivationLayer","Content":{"biases":[0.0987819359,-0.07826278,0.388002157,-0.3327613,-0.285992175,-0.394996226,0.4642684,-0.0607513972,0.290257752,0.319024622,-0.09348965,0.110354908,0.386845648,-0.243615523,0.0821495354,0.153892443,-0.197579429,0.218960375,-0.128985479,-0.28629005,0.142218053,-0.00468595373,-0.2900945,0.0924481153,0.0445551164,0.0185591243,-0.0245870017,-0.224075869,0.082397446,-0.06317991,-0.434598327,0.209508777,-0.265519351,-0.00572333531,-0.018290922,-0.3180596,-0.194989458,0.3151734,0.104907088,0.009754238,-0.2154881,-0.032301873,0.04823733,-0.3767381,-0.3220003,-0.166864529,0.08673951,0.08568227,-0.0538619943,-0.381668836,0.03505817,-0.08912071,0.103729859,0.3336893,-0.186478734,0.3870486,-0.1884528,-0.0644981861,0.020562619,0.317028373,-0.157895252,0.330487877,-0.03690046,0.04832639],"useBias":true,"func":2}},{"ClassName":"ActivationLayer","Content":{"biases":[-0.254931867,0.0789327249,-0.133483946,-0.0472036563,-0.3669538,-0.113932185,0.807563543,-0.266544819,-0.01477111,-0.331011474,-0.271808445,-0.176322535,0.442810744,-0.5827486,1.41111135,-0.180237874],"useBias":true,"func":6}}],"Weights":[{"ClassName":"DenseWeightMatrix","Content":{"matrix":[[0.046036046,-0.0121277384,-0.0550306551,0.0515378155,0.00639834628,-0.0198096428,-0.0379567444,-0.0147815356,-0.008584427,-0.0263857152,-0.03574689,0.0158658586,-0.005470049],[0.0346031375,0.1311583,0.0267226,-0.0275379959,-0.04174996,-0.035201095,0.0110721216,0.0114212455,0.05107545,0.0450249873,0.101200417,0.07422885,-0.00604886468],[-0.0361864939,0.06055493,-0.09027234,0.0128901685,-0.00113904662,-0.0297542885,-0.006135362,0.07842233,0.01749487,0.035944812,0.00327236834,0.0560894571,-0.0617016181],[0.0422350653,0.126996189,-0.04824442,-0.0273114033,0.0005588121,-0.0328350663,0.05356364,0.00203697151,0.07681877,0.104434028,0.100597143,-0.0590788573,-0.0158962756],[-0.0705648959,-0.07668549,0.04262726,0.03164732,0.004946966,0.02671063,-0.0225500539,-0.0219871663,-0.0682557449,-0.08551373,-0.105538,0.03903204,0.00125972007],[-0.1208571,0.0604787357,-0.0680696145,-0.02619506,-0.0211795624,-0.07813957,-0.06515611,0.117058568,-0.171429977,-0.107169442,-0.117312349,0.100733764,-0.139670223],[0.00609612744,0.091559425,0.004863122,-0.0198786426,-0.01209903,-0.0271165445,0.03027857,0.0377450138,0.07422325,0.09628289,0.111486144,-0.0450362749,-0.01349103],[0.0212940779,0.148429587,0.0135955317,-0.0204930231,-0.0336829945,-0.01233264,-0.01862587,0.0329831466,0.0559290759,0.0590106733,0.1042246,0.065669626,-0.009457971],[-0.024575742,0.0193257462,-0.0529611856,0.08855952,-0.0134670679,-0.01093442,-0.00586810429,0.0498111881,0.0187313035,0.028702233,0.0268012956,0.11510542,-0.05740159],[-0.009854461,0.0254061446,-0.0347702168,0.00830963,-0.010622072,-0.020585129,-0.043230854,0.0209393241,0.0440616459,0.0427574664,0.0217115544,-0.0212063882,-0.008668126],[-0.0142511791,-0.09036591,-0.015671758,-0.003887727,0.0230290871,0.0210927073,0.0180395152,-0.016137097,-0.0239330176,-0.0214952175,-0.0572694242,-0.0394045971,0.0132880444],[0.0179567989,0.155732125,0.008478075,-0.047868304,-0.0218461659,-0.0136253973,0.0290542953,0.0286065713,0.132451981,0.146763325,0.177392408,-0.05945963,-0.00348970923],[0.0279181134,0.0108854054,0.01794377,-0.01367472,-0.0159991123,0.0262875482,0.0109361056,0.0242718738,0.0472902432,0.0431083441,0.0675118,-0.0279557966,-0.00324237929],[0.0317091234,-0.0504804775,0.03865073,-0.0232463926,0.008751644,-0.0236434061,-0.0243187,-0.07473681,0.0968302041,0.0707110241,0.0407368764,0.0562198162,-0.03065463],[0.08740498,0.0897194743,0.02426158,-0.04123791,-0.02979301,-0.0320023447,-0.0335110575,-0.002958296,0.04567821,0.04558671,0.0862112939,0.08991782,-0.0328398831],[0.00183339126,0.079785,-0.0520979427,-0.03457564,-0.0116653917,-0.0180772785,0.0300267842,0.04429984,0.00489070453,0.0235694852,0.0315994024,0.0124351149,-0.0221714266],[-0.101277046,-0.0228671655,-0.0215181056,-0.00706287753,0.0154032065,0.0052829315,0.01489949,-0.0298030525,-0.0133619756,-0.00256629148,-0.0213565156,-0.0115088476,0.0119681954],[-0.0820606649,0.08599036,-0.03335134,0.0252211634,-0.00341318175,-0.0358178876,0.0170666538,0.09217226,-0.187471256,-0.114620358,-0.08466022,-0.0349077769,-0.100350931],[0.00615823828,0.09054599,0.00322928932,-0.0212204121,-0.0113062421,-0.02935088,0.0228597764,0.0322289281,0.08037892,0.09408181,0.120812833,-0.0451456942,-0.009872541],[0.009079315,-0.06499316,0.0846753,0.032764852,-0.008954436,0.0446239933,0.00246867375,-0.0574004464,0.0417959653,0.0158429332,0.04220663,-0.04776373,0.0485588647],[-0.0150110824,0.0595960729,-0.04879594,0.0387457944,-0.0002938888,0.0300337765,0.0325839259,0.0411867648,-0.04180196,-0.0279206447,-0.01168578,-0.0655005351,0.0149673754],[0.00308447075,-0.00926982,0.00151474425,0.000476132234,0.004401928,-0.004087947,-0.008592513,-0.00193373777,-0.00486015668,-0.0043302183,-0.0115797194,0.0113338847,-0.00248465431],[0.00772158848,-0.00240173726,-0.03186952,-0.01881457,0.0796417,-0.0238205846,-0.018830182,0.02417567,0.09893646,0.08203552,0.0071092383,-0.00925799552,0.020899225],[-0.07411995,-0.066806,-0.019040525,0.0245152619,0.0253209546,0.009111365,0.0319045857,-0.0379584432,-0.0436112136,-0.035059832,-0.04918415,-0.0688878447,0.0126906689],[-0.0388823822,-0.135874212,0.0332830548,0.03312969,0.0104216542,0.0110593876,-0.05330804,-0.0146846864,-0.08271427,-0.105161346,-0.131584108,0.044523336,0.00819604],[-0.07141771,0.00777390227,0.0213269237,-0.07018698,-0.0366691574,0.0124926008,0.0406642,0.0138243372,0.00439081574,0.0229894742,0.0499747768,-0.0350930728,0.000297036575],[-0.0430904664,0.0210556444,0.00308793783,0.00147084193,0.0110885054,-0.0142504023,-0.00136551191,0.004193825,-0.06910949,-0.0526707433,-0.0461223833,0.0106452173,0.0113408994],[-0.0327621177,0.0264465939,0.04671242,-0.032001242,-0.00618455652,0.0194785316,0.0106952842,0.02983138,0.02872427,0.0350487046,0.0498680249,-0.0218510088,0.01161913],[0.09191047,0.0144234654,0.009218723,0.0199729074,0.000889792049,0.0113773886,-0.0208986029,0.0609614067,0.0308171622,0.0145975808,0.0223438349,-0.0245427955,-0.0130689023],[-0.05328215,0.0903803,-0.06569373,0.0439337455,-0.00990985148,-0.0321409777,0.008855822,0.0873416,-0.136032775,-0.0843671858,-0.05999505,-0.04943979,-0.005632192],[-0.06590916,-0.07604962,-0.0223085824,0.0239160731,0.02442426,0.0260408688,0.03827476,-0.0101723326,-0.0421736352,-0.0392873622,-0.07213064,-0.07846874,0.0245838854],[-0.0199035853,-0.08972943,-0.0171123166,0.0195209719,0.0510411151,0.0115639176,-0.0046570464,-0.009232886,-0.010730627,-0.0162041746,-0.0654345453,-0.0619700179,0.0139213894],[-0.0286807828,0.04544967,0.0550937541,0.051410336,-0.008254634,0.009140706,-0.005778836,-0.0197629631,-0.03528832,-0.0367685333,0.000535660947,0.008145668,-0.00493596774],[0.04627973,0.171102151,-0.0170181468,-0.011821229,0.0346792452,0.009975068,0.101918519,0.08481303,0.079046756,0.0958247259,0.103914224,-0.0526242442,0.0118002081],[-0.0154715888,-0.215462744,0.0232004374,0.130485788,0.05519907,0.1094463,0.009494351,0.0009824672,0.00809568,-0.04911182,-0.0163760725,0.0558515042,0.0233614836],[-0.00237652939,-0.008736807,-0.0631487146,-0.04852872,0.0256790575,-0.00146995508,-0.0148379458,0.0006612015,0.0617590323,0.0540573969,-0.0280189123,0.004199779,0.0109938113],[-0.00543636829,-0.070325695,0.000788328063,0.0161164384,0.007160081,0.0104147065,-0.0140735805,-0.0373419076,-0.0548323728,-0.06875482,-0.08473028,0.0352449119,0.00311538554],[-0.0216810927,0.0334988758,0.04133948,0.008240605,-0.0459639169,0.0256323069,0.00649503572,-0.0296431854,-0.05158336,-0.04885406,0.00820514,0.0111991679,-0.00176722952],[-0.07209159,-0.0110099688,0.000321757252,-0.005339419,0.0107510509,0.00709478231,0.0264600944,0.0119080823,-0.0175354257,-0.005665066,-0.0150760608,0.024906313,0.0166909061],[0.110979632,0.0498951524,0.0201644823,0.0288244821,-0.01448942,-0.00974727,-0.03480095,0.0285395756,0.04158749,0.034565337,0.043906372,0.0431875624,-0.0172065459],[0.0238144,0.172675908,0.0189970769,-0.0522696637,-0.018558342,-0.0215434432,0.0177437123,0.0448636375,0.156511024,0.177515417,0.221269116,-0.06661054,-0.0287567731],[-0.00267340173,-0.0478188433,-0.0102681182,-0.00335974875,0.0134224594,0.0194188375,0.0145435771,-0.0112685235,-0.006434732,-0.006369186,-0.0209918283,-0.0301320963,0.00757640554],[0.0621405169,0.0439771935,0.0269638654,0.0179144777,-0.009059906,-0.0169895254,-0.03252915,0.02581676,0.03540819,0.0216951035,0.027707085,0.0339632742,-0.0210747551],[0.015701564,0.09163123,0.0172382146,0.0026860463,-0.0296512842,-0.0188368112,-0.0111300061,0.0142859248,0.02002652,0.0177406836,0.05344819,0.0359703675,-0.0133188339],[0.0217443742,-0.03083046,0.0296249371,-0.009868525,0.0102127511,0.01947512,0.02649094,-0.0148548353,-0.0502462946,-0.04507406,-0.0272818059,0.0135905156,0.00602827454],[-0.027455667,-0.08004256,0.00733937975,-0.0145098129,0.0300074145,0.01660885,-0.0104015889,-0.0046424116,-0.006016517,-0.0141387321,-0.0281366967,-0.01930139,0.0132059762],[-0.0623587333,0.0112819923,0.0605631955,-0.0443225019,-0.028337609,0.05684407,0.0403097,0.0553028546,0.00688988343,0.0227475911,0.0649918541,0.0073599047,0.026713457],[0.03955147,0.100036539,0.0378039964,-0.04170719,-0.0538826436,-0.03786835,0.014604941,-0.0289596468,-0.0233402643,-0.011502644,0.07607231,0.08949188,-0.009161991],[-0.09955594,0.1048556,-0.134362385,-0.0523908734,-0.041962143,-0.0536047369,0.00273319916,0.141181812,-0.19610332,-0.119129889,-0.07248675,0.104875788,-0.123908244],[0.0590545125,-0.008921895,0.00536082732,0.03886323,-0.00368955918,0.00485270331,-0.03230462,0.004964447,0.0526145,0.0300220829,0.0232850555,-0.009949791,-0.00388707616],[0.0392944366,0.100207306,0.04033883,-0.0455104,-0.0428560339,-0.0345918946,0.006108128,-0.038690947,-0.0179069266,-0.0035642588,0.06836538,0.0878031552,-0.0140967323],[-0.0481951274,-0.0148697915,-0.00337488786,-0.0369391777,0.0013058238,0.0150329247,0.0286330916,0.001842937,-0.0295366887,-0.0197102576,-0.000560999266,-0.00655491743,0.008630098],[-0.0670507,0.07028661,-0.02492375,0.01962764,-0.00699657854,-0.0277782585,0.00971119,0.07854376,-0.1611301,-0.09729838,-0.070993565,-0.0303323064,-0.08917133],[-0.02685009,-0.199138641,0.0007813103,0.0623563454,0.0803137049,0.0633662343,-0.0590269826,0.0146687515,-0.0258565042,-0.07601508,-0.0668164,-0.0575343072,-0.007131919],[0.0291455,0.04829782,0.0007678225,0.04870321,-0.0142103732,-0.0400480442,-0.05025921,0.00307778548,0.0457241833,0.03714879,0.0287884865,0.0147435414,-0.00244126515],[0.04055891,-0.00573003432,-0.06925085,0.06348554,0.0198899917,-0.0217811167,-0.0519932769,-0.0170646217,-0.0031754612,-0.0239012111,-0.045751635,0.01933675,-0.0241904445],[0.0184091777,-0.0290734954,-0.08949219,0.0163103752,0.00173130236,0.012860286,-0.0145933665,0.01551484,0.007921193,-0.00598841766,-0.0173031669,-0.03781073,0.000146722115],[-0.0253511537,-0.175465181,-0.0176028758,0.05451538,0.02075078,0.0208416432,-0.03478763,-0.03621924,-0.149689436,-0.1641038,-0.209030047,0.06687256,0.0148323346],[-0.022451384,0.04872574,-0.0414792076,0.0277930237,-0.00218796055,0.0315561257,0.0366549343,0.0760658458,-0.09959683,-0.06823188,-0.0363145024,-0.0549375042,0.0200752728],[0.09154932,0.00756284362,0.00142740831,0.00512558455,-0.0276324674,-0.01344326,-0.06004228,-0.0353516638,0.0374169,0.019703703,0.0319399536,-0.03318245,-0.0268258415],[-0.00177169859,-0.08377576,0.0353580229,-0.034973,0.009588602,-0.0440781564,-0.06499387,-0.06404023,0.03627477,0.0191498287,-0.009713501,0.08291703,-0.002404351],[0.07813217,0.146192938,0.00681481371,-0.0594582073,-0.05364615,-0.05997072,-0.0254760161,-0.00308993,0.05715876,0.06406934,0.10993728,0.0923744738,-0.03159502],[0.0403869264,0.049317535,0.06637614,-0.0622342378,-0.0665304139,-0.0195259377,0.009834969,-0.028463237,-0.02818041,-0.018035695,0.04868922,0.0697177052,-0.0214218665],[0.004297554,0.0802236348,0.0119982008,-0.00523194764,-0.0246693175,-0.02631262,-0.0175160114,0.00835309,0.018432023,0.0183011144,0.05672497,0.04746106,-0.006297028],[-0.08770832,0.0860369,-0.04959546,0.0308172163,-0.0354259424,-0.0440414622,0.020190699,0.102986455,-0.198726177,-0.11867512,-0.111168489,-0.03821787,-0.106326021],[0.0157349389,0.12868993,-0.0137092434,-0.0215548743,-0.036813,-0.0291870236,0.0144862551,-0.00491428841,0.0109692644,0.0276677925,0.0489769466,0.05052358,-0.0104676588],[-0.0689490438,-0.164695,0.03156395,0.07675081,-0.01831923,0.0280378945,-0.0354804844,-0.03811738,-0.07886084,-0.1153499,-0.120822467,0.0576229841,0.0142832175],[0.03577429,-0.0382220075,-0.0559204556,-0.0481010936,0.0100553017,-0.0117188757,0.0153475525,0.01991495,0.05004028,0.0447225831,-0.0054921424,-0.00430998066,0.0126818307],[0.0181029439,0.118235789,0.0256669,-0.007056018,-0.0129765859,-0.0276154913,-0.0121621517,0.012508275,0.0132984407,0.0112407049,0.020920787,0.0227986369,0.00150154694],[-0.0118300142,-0.07859361,-0.005509617,-0.146760866,0.07091112,0.0447723344,0.0348172151,-0.130403847,-0.0216731932,-0.0504657552,-0.05176863,-0.088958174,0.0977646],[0.0253166016,0.12066187,-0.0712534,0.0150236916,0.006779763,-0.0121737551,0.114709839,0.07061121,0.00217859,0.028406227,0.0420473851,-0.0463705063,-0.006877372],[-0.07743533,0.00235086633,-0.0564931445,-0.00177166867,0.00738922,0.0474344864,0.0232117418,-0.0161030237,-0.05923585,-0.041100055,-0.0297672041,0.013351799,0.009193644],[0.0360423736,-0.03605884,-0.0524728671,-0.04967943,0.0133190425,0.00011747548,0.0150173837,0.024686195,0.04458325,0.0349760056,0.008035979,-0.00604113,0.008929273],[-0.02672015,0.05622119,-0.034894418,0.0214656033,-0.000510796846,0.03337075,0.04479263,0.0683222562,-0.0863926858,-0.065331094,-0.02743855,-0.056629248,0.0119556542],[-0.02279827,0.0231119115,0.0352172963,0.002982503,-0.00713647855,0.01089266,0.008678548,-0.005913266,-0.0322761536,-0.0191898774,0.008344888,0.00576370861,0.00176828122],[-0.04283336,-0.07351276,-0.0467940159,-0.0292009171,0.0151848774,0.016501084,0.00735787675,-0.0149492351,-0.023664467,-0.009144711,-0.03267676,-0.008598295,0.0113137942],[-0.08070458,-0.06885345,-0.0287723355,-0.0164097063,0.0264343023,0.0275254529,0.0312668532,-0.0186436586,-0.0291253421,-0.0237532388,-0.050220035,-0.035964977,0.0240469947],[0.00451456662,0.07467069,0.01144469,-0.00248040422,-0.0255868,-0.0208602622,-0.01700544,0.01237635,0.0182509385,0.0150289964,0.05260593,0.044185333,-0.00643545249],[-0.00302680023,0.03689745,0.09989429,-0.03992862,-0.014141215,0.0057537877,0.05293335,0.04218813,0.04951601,0.0688600838,0.117846712,-0.0492270626,0.000907110749],[0.009379281,0.08053227,0.00707775634,0.156800047,-0.0744655952,-0.0418777727,-0.03848667,0.137875974,0.0240671355,0.0544699468,0.0671089962,0.0893657,-0.107493773],[-0.0482667945,-0.02142406,-0.0132705923,-0.0273661148,0.0118627353,0.009992321,0.0309819318,-0.004366618,-0.0221981127,-0.0150910355,-0.0110632153,-0.016209852,0.0135855954],[-0.0222458169,0.0542883463,-0.0519613922,0.0277619436,-0.009944234,0.0148931863,0.017509127,0.002951246,-0.0378970653,-0.01984873,-0.00352702849,-0.0805165544,-0.00126988057],[0.0732178241,0.009415997,-0.00119212153,0.00596669363,-0.008787371,-0.009093725,-0.02467383,-0.008560252,0.0163178071,0.00243411912,0.008481303,-0.0235622954,-0.01291631],[0.0303706788,0.166948915,-0.0203149579,-0.02907227,0.005941246,-0.00323405839,0.0580527261,0.0525502153,0.09454904,0.117453769,0.125651449,-0.050042145,0.00686568348],[0.06383933,0.01336012,-0.004099468,0.007291574,-0.00172305049,-0.00741536357,-0.01871604,-0.0205162577,0.008610223,0.0025157996,-0.009238179,-0.0146721872,-0.007686216],[-0.0159895755,-0.103813462,0.0326303951,0.0835660845,0.0132688526,0.06576609,0.006332057,-0.0147303417,-0.0236587971,-0.0470908135,-0.0410640351,0.0472642444,0.0121343564],[-0.08988091,-0.0069121,0.00468422426,-0.006840479,0.02013993,0.0146543467,0.0648269,0.0501342975,-0.0341199,-0.0176003668,-0.0190110169,0.031771563,0.0273976754],[0.02934265,-0.0288110338,-0.02592677,-0.0112818265,0.0249186512,-0.009039504,0.007214811,0.008435711,0.05972198,0.05111315,0.0117515149,0.0005314057,0.00692608533],[0.114790119,0.00258718338,0.04159938,0.0135173835,0.0171865951,0.0372326151,-0.0009774264,0.0139831807,0.0539529249,0.03049557,0.05077644,-0.0443897769,0.00277098222],[0.147572219,0.007543857,0.00615106151,0.056680657,-0.024196526,-0.017694205,-0.0617223047,0.06334233,0.08609485,0.0549515635,0.09510903,-0.0443812124,0.0008379483],[-0.0141379274,-0.160979033,-0.0184375513,0.0307997335,0.05683116,0.0248772539,0.0201729033,-0.0345376059,-0.05368633,-0.0626169443,-0.104455285,-0.06974318,0.03659396],[-0.009807013,-0.156614929,0.0326552577,0.118617475,0.020114962,0.086049825,-0.0047346293,0.0308923274,-0.0339440629,-0.0855293,-0.06548058,0.07728559,0.00153465208],[-0.06915105,-0.007454423,-0.007901986,0.0122320484,-0.000739642652,-0.0181686077,0.00499742758,-0.0363583043,-0.09345416,-0.08351223,-0.08795963,0.0329549536,-0.00106906414],[0.0142594017,-0.15112628,0.118179686,-0.0300589167,-0.0195017047,0.030886028,-0.004784256,-0.125485167,0.0459431447,0.00463386765,0.0234266222,0.03453689,0.0214632209],[0.118117794,0.0223568585,0.0217450336,-0.0296641514,-0.0343602821,-0.0265367348,-0.047999952,0.00520966342,0.0475140028,0.04543777,0.0582519732,0.0755296052,-0.03789503],[-0.0220677052,-0.0710067451,-0.00454042945,-0.0205561742,0.019320868,0.0191165879,0.025462985,-0.00301502319,-0.0241454579,-0.0176090468,-0.0299675129,-0.03454423,0.006272232],[-0.0119132726,-0.01008326,-0.122576796,0.0197540261,0.0164935868,0.0143600646,-0.02777545,0.0156329162,-0.00352529227,-0.0246237684,-0.05865713,-0.0451341569,-0.009516705],[0.0535960719,-0.0110201081,-0.01073834,-0.0007273459,7.753535E-05,-0.0062703453,-0.0144792581,0.0125902975,0.07096001,0.06345818,0.050443,-0.0236111525,-0.0215215441],[0.00184432231,-0.04903784,0.0128878336,0.01121104,0.00619549723,0.0182963125,0.00422397675,-0.024060512,-0.0390330926,-0.0480746143,-0.0479456075,0.0255823415,0.0114028091],[0.06632222,-0.0242208522,-0.05843661,-0.0591858849,0.002146205,-0.0316677168,-0.0110164667,0.0113209467,0.0623864532,0.05067954,0.03534955,0.0250502676,-0.04166042],[0.0797800347,0.006571242,-0.004088336,0.008583665,-0.0134016778,-0.0126799289,-0.0223803017,-0.00377549022,0.0118332319,0.00125435751,0.00352850882,-0.02345818,-0.0143699283],[-0.055591166,-0.161989689,0.04408616,0.04986149,0.00403449126,0.03335205,-0.0455744043,-0.00701405155,-0.09553779,-0.125114873,-0.141817346,0.0640777647,0.0130426669],[-0.0448375568,-0.119722486,-0.04542136,-0.030982513,0.004679849,0.0272654425,0.03210932,-0.03595431,-0.0310420245,-0.0269787554,-0.0431063436,-0.01767386,0.007411829],[0.07989665,0.007251303,-0.00352914864,0.007898598,-0.0103774462,-0.0064008534,-0.0264935941,-0.009440307,0.0113413306,0.00563545432,0.00470646843,-0.024486158,-0.0184311625],[0.0155733414,0.174852774,-0.0317363441,-0.126461178,-0.0298211779,-0.09050556,0.0263894,-0.0325130858,0.0280249976,0.07891824,0.0632237345,-0.06958873,-0.00496168528],[-0.08001974,0.0103308065,-0.07772579,0.024291547,-0.0148058441,-0.00816507451,0.0202195887,0.07604488,-0.08996208,-0.0569416732,-0.0327167921,0.06692927,-0.04689213],[0.06394592,0.0130317416,-0.006674024,0.07256373,0.0200313274,-0.0152097857,-0.0431171656,0.05981062,0.06466121,0.038446404,0.0251796134,-0.00503596244,0.00414002733],[0.0928933546,-0.06034552,0.104760557,0.014653082,0.0128781572,0.03250368,0.0158651173,-0.09324948,0.124829106,0.06737308,0.07006071,-0.09746095,0.106375426],[0.0408553854,-0.02453771,-0.07415381,0.048061844,0.0170407631,-0.04456636,-0.0452480763,-0.0625880063,-0.0297626536,-0.0359176621,-0.07553408,0.008122809,-0.0118282856],[-0.09772652,0.103408575,-0.062435288,0.04059656,-0.038045492,-0.0568099879,0.0220999811,0.108000092,-0.205173686,-0.120281242,-0.0909999,-0.0383020379,-0.09311955],[0.0170642063,0.152550042,0.0110195661,-0.0421262644,-0.02217515,-0.0188919771,0.0239139441,0.04065451,0.12654455,0.159797072,0.182343289,-0.05951538,-0.02695998],[0.06550958,0.00571988756,-0.0478055142,0.0494866259,0.0149903959,0.0004438235,-0.0535873733,0.0104317321,0.00237571425,-0.0146823786,-0.0229389854,0.0004314156,-0.00461138],[-0.0310791377,-0.174004331,-0.00115553872,0.026067907,0.07445299,0.03839482,-0.01752509,-0.000584364,-0.0453072973,-0.0486563928,-0.113565825,-0.08557561,0.0239347145],[-0.0257528778,-0.19888632,0.0415495858,0.118854031,0.02703316,0.06623303,-0.04495265,0.0217545368,-0.04456928,-0.09997703,-0.09282508,0.07692286,-0.00177911192],[-0.00866997149,-0.09839796,0.00609104335,0.0225247089,0.0341843553,0.0250611883,0.0124237,-0.0124929836,-0.0154502094,-0.010101364,-0.0250653662,-0.04102867,0.00353898713],[-0.112300679,0.0252055321,-0.02740309,-0.08530785,0.0102559747,0.00237080222,-0.004020778,-0.0201477762,-0.116152808,-0.08476815,-0.06753269,0.0193298347,-0.0111434972],[0.007554775,-0.009791895,-0.115135804,0.0505337,0.0263731983,-0.0130454889,-0.0550719872,-0.03425192,-0.037636824,-0.07263772,-0.116609171,0.0476064421,-0.00666559441],[-0.07558945,-0.009166319,0.00171543832,-0.007261423,0.008467989,0.007671468,0.0228578076,0.000256252039,-0.0124442279,-0.00281600282,-0.00687774131,0.02177322,0.0128771476],[-0.0332918279,0.05454102,-0.03988233,0.0228275415,-0.01420893,0.0242262743,0.0285111368,0.0687659457,-0.08791458,-0.06899634,-0.0324505158,-0.05662321,0.0249541663],[-0.03426966,-0.155874655,0.03042153,0.0878846645,0.0232954472,0.0384689,-0.0638883561,-0.0120196305,-0.00201282115,-0.0491774939,-0.03561875,0.03766266,0.00292338338],[-0.08877508,-0.0179205537,0.0150435,-0.020228127,-0.01989254,0.0197325479,0.0180381816,0.0168124586,-5.94379926E-05,0.0105277793,0.0337711759,0.00223688316,0.016519675],[0.102790959,0.1588984,-0.0503569841,-0.07413237,0.000162506956,-0.0202163849,0.0482167825,0.0502255149,0.0807371,0.106601611,0.1287748,-0.0617966168,-0.0163803734],[-0.0224545635,-0.122060589,-0.0211624522,0.0217647757,0.0318368077,0.0294756144,-0.00477704126,-0.004652338,-0.0351999067,-0.05349754,-0.08052192,-0.0652611554,0.00452205958],[-0.129571348,-0.217024729,-0.0121182371,-0.01191554,0.04884187,0.02586593,-0.08934139,-0.0206482168,-0.06648348,-0.08361323,-0.125390217,0.04060017,0.01567102],[0.0435303375,-0.0446188636,-0.0313818641,-0.017208796,0.03085147,-0.0129411109,0.0194358863,0.005643401,0.0880885944,0.07626742,0.014077384,-0.002090756,-0.00275357836],[-0.07320705,-0.0458573662,-0.0213570688,-0.0110070258,0.0354072228,0.007843422,0.0245011225,-0.01663712,-0.0359975547,-0.02970855,-0.047084704,-0.0427064374,0.0286306012],[-0.0201567765,0.03717642,0.04220806,0.008593275,-0.07114607,0.0250028037,0.0236072,-0.0315119922,-0.06533491,-0.0482837036,0.0260128733,0.008438628,0.007280903],[0.042792853,0.101676621,0.0506238639,-0.044972688,-0.05192595,-0.0189770721,0.0139334481,-0.0360095,-0.00969655,0.008878551,0.0729172453,0.09069499,0.0114286747]]}},{"ClassName":"DenseWeightMatrix","Content":{"matrix":[[-0.0111116,0.0107253678,0.0147841172,0.0335730053,-0.02296444,-0.002852695,0.0244137533,0.0226166882,0.0127365412,0.0161497518,-0.0108827585,0.0394793,0.013838606,-0.010301047,0.0164910816,0.00458090333,0.004939272,-0.0109161334,0.02450883,0.003279833,0.022164952,-0.002249148,0.013889079,-0.0145319114,-0.02892277,0.0118840095,-0.0158402454,0.014832356,-0.0124221267,0.00439914735,-0.0120237749,-0.00477929367,0.00364244473,0.0433940068,-0.022104172,0.000103299666,-0.0185317285,-0.008654686,0.0102291852,0.0145523641,0.0418506339,-0.00126138574,0.0074712676,0.0103333406,-0.0138483867,-0.004900908,0.0226097032,0.00454101851,-0.0156563036,0.001979574,0.00118046475,0.00133491238,-0.0110259745,-0.0164721534,0.0140967956,-0.0156232286,0.00900104549,-0.04043103,0.014795226,-0.0171963517,-0.0202437043,0.0198511668,-0.002132857,0.00538848573,-0.009967163,0.009750664,-0.0317131542,-0.00413285941,0.010566446,-0.0160510615,0.0203894377,0.00253276085,-0.0021463132,0.019355204,-0.004626007,-0.0125317154,-0.008065793,0.00895437,0.018553691,0.0195468,-0.00140237762,0.0225650948,-0.0110369977,0.0371550359,-0.0120010683,-0.01284639,0.0232924242,0.008864792,-0.0175279938,-0.01458463,-0.0250744019,-0.0217139833,-0.0271016359,-0.008774811,0.0194569547,-0.004759372,0.00147026009,0.0175453983,-0.0100398,0.01893046,-0.0189915169,-0.0340908431,-0.0176864583,-0.0197685342,0.0168166459,0.00314618647,0.00259052427,0.008866819,-0.0208897851,-0.0102818049,0.0383187,-0.0137014613,-0.0190965589,-0.0276946463,-0.009539431,-0.02056215,-0.0232188553,0.016687179,0.0156722721,-0.0161657762,0.0218758639,0.0424942449,-0.0113760922,-0.04511017,0.0081428485,-0.00781900249,-0.008554329,0.00374600617],[0.00441210624,-0.009511781,-0.0144733675,-0.0127538936,0.008726583,-0.036825683,-0.0102870464,-0.010831953,-0.008275405,-0.00106769742,0.00537544768,-0.0126004964,0.00125020661,0.0128021613,-0.014890708,-0.0116586089,-0.006742571,-0.02758856,-0.0077252565,0.0112486836,-0.01385367,-0.00225693081,0.013014473,0.0116990106,0.01042543,-0.008084411,-0.00129400054,-0.00158315932,0.008117778,-0.0198025052,0.0136429192,0.00440479442,-0.00585594727,-0.018451184,0.0222512465,0.0105741732,0.002169331,-0.009340036,-0.004184832,-3.76013559E-05,-0.0201172661,0.00305056013,-0.0036167556,-0.007747858,0.0011454093,0.00234774454,-0.0054336586,-0.0130418651,-0.03629383,0.00753550557,-0.0155907078,-0.000452779932,-0.0186744276,0.01533267,0.006878595,0.00533751771,0.006787091,0.01825218,-0.0143495137,0.0147397118,0.0146820731,-0.0162113979,-0.0138945905,-0.00691626035,-0.02797743,-0.01076279,0.017768776,0.0094597945,-0.0009231848,0.0195379723,-0.0187483523,-0.009608046,0.0109207314,-0.0165785067,0.00119358592,0.00274137151,0.00357070821,-0.005351863,-0.008051569,-0.02100839,0.000410840526,-0.0124145243,0.004346323,-0.0143366242,0.00268630986,0.0105272373,-0.01324156,0.004266437,0.013063103,0.02371217,0.00860124,0.01376473,0.002158864,0.02630863,-0.0110053327,0.00169827056,0.0101101343,-0.00378937344,0.00526436,-0.00672013871,0.00758357532,0.0182829853,0.00473270332,0.005404539,-0.01979189,-0.0183516163,0.00755391549,0.0261216667,0.00522418041,-0.0253646411,-0.0145677906,0.00918456,0.017507067,0.0197923668,0.006978961,-0.01945781,0.009291599,-0.00763182668,-0.0136236,0.0139757721,-0.00574979372,-0.0213709436,0.011530526,0.0222893581,0.0137589127,0.00539974263,-0.009609374,-0.0167266876],[0.00398188969,-0.00822106749,-0.00144417456,-0.006049152,0.00341999368,-0.0617555231,-0.00087040785,-0.0015706803,-0.00193741731,0.0138300229,-0.00117874518,0.00228974456,0.00467474665,0.0239298958,-0.009919619,-0.00467516,-0.0177205857,-0.0537165627,-0.00154494832,0.0179184061,-0.0145346578,-0.001346903,0.0432718731,-0.00248210272,0.00346787414,-0.0177439246,-0.0133837564,0.00529202772,0.0192251541,-0.0381850861,0.005065798,0.00544604566,-0.0142736686,-0.00643604435,0.0183187481,0.0233902372,-0.004784178,-0.0266956259,-0.008319282,0.023607567,-0.002831459,0.003828812,0.0119576082,-0.00156692415,-0.0144639257,-0.003102374,-0.0131780691,-0.02665867,-0.06590552,0.0141260521,-0.0257754885,-0.0107148085,-0.04103576,0.0206672512,0.0209426656,0.0104455221,0.0188354924,0.00531655876,-0.0271224659,0.0194671787,0.011189756,-0.0127745476,-0.0238927566,-0.003129812,-0.060192015,-0.009709263,0.009697106,0.0230511185,0.01835115,0.0146830138,-0.0181535985,-0.0225166362,0.01811927,-0.024455836,-0.0116888834,-0.0145437382,-0.009796372,4.865341E-06,-0.00587255461,-0.01784287,-0.0100204935,-0.0171818528,0.010651622,-0.002985884,0.00777423056,0.007116285,-0.0166811273,0.0225378629,0.0156697,0.04052002,-0.004531329,0.0110817589,-0.0181700122,0.03279994,0.00131649477,-0.00821712,0.0222709216,0.0124194724,-0.007901056,0.0171551853,0.0101517141,0.0140409032,-0.0183405075,0.006829488,-0.0155588239,-0.027374262,0.0281867124,0.0428336039,0.000260063156,-0.0601816624,0.00259547238,0.0126094334,0.0135140242,0.0174365863,-0.0005918696,-0.0520280078,0.016753966,-0.008443388,-0.023667451,0.0167628322,-0.0157474447,-0.010868242,0.009377619,0.0130612375,0.03440525,-0.008333242,-0.0313574038,-0.0263051726],[-0.009708729,0.0111594684,0.01518276,0.0289541371,-0.019235028,0.006500825,0.02101286,0.0204302911,0.0114089213,0.0157468263,-0.00996795,0.03205324,0.009686074,-0.009264482,0.01552713,0.00698187761,0.00494411262,-0.00350819039,0.0190829355,-0.000331564632,0.0215558261,-0.00205252622,0.008115323,-0.016363889,-0.0247367211,0.0115519324,-0.011796888,0.0130540729,-0.0133761885,0.00516747963,-0.0149946017,-0.00655793725,0.005248435,0.03869529,-0.0238663517,0.0007513411,-0.01244069,-0.004257862,0.0120450277,0.0134664383,0.0385564752,-0.0009238521,0.00763651635,0.0121276788,-0.0158987325,-0.00347926375,0.018509591,0.00741344877,-0.00314190355,0.00229504681,0.007136574,-0.0001657312,-0.00533338729,-0.01345554,0.008893796,-0.0112509187,0.006152453,-0.0380141847,0.0129868649,-0.020911077,-0.01853515,0.0205057543,0.00116980437,0.009205768,-0.0026487892,0.008859474,-0.027979888,-0.004163039,0.0100914417,-0.0157747436,0.0174510609,0.00551449647,-0.00375804957,0.0151451677,-0.006929034,-0.008933943,-0.012110943,0.00923861,0.0165099539,0.0207010526,-0.00167832,0.0227613486,-0.0110852942,0.0340154022,-0.008542374,-0.0128105748,0.0228272155,0.007416912,-0.0183836315,-0.0192861464,-0.0199835841,-0.0176036656,-0.0228814874,-0.009437512,0.0212327018,-0.006199532,0.00191145192,0.0154022519,-0.0121656917,0.0182977747,-0.01820798,-0.03327709,-0.0188484211,-0.01586686,0.0206167959,0.00429182267,-0.000107340114,-0.00162083108,-0.0186436065,-0.0002878742,0.03462945,-0.00897692051,-0.02285897,-0.0249921922,-0.00751562836,-0.0155224316,-0.0141384015,0.0153522771,0.0173485987,-0.0138205187,0.0204875749,0.0364463255,-0.0114755267,-0.0353430472,0.00453652348,-0.00703889644,-0.00611969177,0.009660004],[0.004772174,-0.00375298946,-0.00407586154,0.002708632,-0.00192475284,-0.03545762,0.00211890531,0.005263685,0.0017074768,0.010671135,-0.00348227751,3.1110274E-05,0.005285805,0.0164125375,0.00205564639,-0.00246954,-0.0191169754,-0.0308959819,0.00271368725,0.009495405,-0.006100653,0.00192164164,0.02335934,-0.008158966,0.00294860429,-0.01072654,-0.016000079,0.001323836,0.0161436982,-0.0203723572,-0.0046582045,-7.08587368E-06,-0.007707189,0.002802353,0.0109970151,0.008381206,-0.004472017,-0.01911363,-0.0108022727,0.0227381848,-0.00236917334,-0.00347357173,0.0138750914,0.000947047258,-0.00789273251,-0.00569551252,-0.00713689625,-0.0154838152,-0.0397477262,0.0109187085,-0.016308,-0.01148565,-0.0233004056,0.0140731093,0.0124468077,0.00562342675,0.0103303725,-0.000342264335,-0.0149550792,0.0149890361,0.007771743,-0.00424749963,-0.0125850225,0.00197969447,-0.03311522,-0.004582207,0.00311059575,0.0116617372,0.0100100553,0.00750969676,-0.00626386562,-0.0203736462,0.0114505459,-0.0116123892,-0.007521395,-0.0141815217,-0.0144957257,0.00243415846,-0.00442954944,-0.00630022446,-0.010477474,-0.009795148,0.009823069,0.00338051771,0.006918388,0.00176871475,-0.01345532,0.0124281552,0.009506468,0.0268652812,-0.00290595787,0.00367729925,-0.0170680974,0.018247623,0.008853015,-0.003448092,0.0124713257,0.0137664415,-0.00242613326,0.0130342869,0.00703743566,0.009598992,-0.0204284247,0.00572281051,-0.0109241121,-0.0134345433,0.0201664753,0.0270772781,0.00199017348,-0.0369073674,0.00296141882,0.007594202,0.00192687439,0.0132507533,-0.00121047813,-0.0331716239,0.00645812228,-0.0116633931,-0.01263776,0.0105793541,-0.00670047,-0.00273636961,0.00561843673,-0.00219443627,0.0221787132,-0.009460146,-0.0195119884,-0.0137255685],[0.004712845,0.000777608133,-0.00822281,0.005193477,-0.00734333973,-0.03559484,0.00270975288,0.00551977428,0.00348070054,0.00608937535,-0.00414040545,0.0039188806,0.0113488464,0.005375698,0.000106130581,0.000301588676,-0.0132664666,-0.0266866088,0.003414019,0.0102115069,-0.003279547,0.000260149,0.01963512,-0.00679977052,-0.002062177,-0.00499085756,-0.012469626,-0.000103144361,0.009477698,-0.0160587132,-0.00608482631,0.00203552376,-0.00578816049,0.006735779,0.00772605231,0.00355435326,-0.00301732961,-0.0153543381,-0.0102950111,0.023250768,0.00758016156,0.00109293591,0.0119098919,0.0062690475,-0.004854295,-0.003930757,1.01956921E-05,-0.008991686,-0.0368853249,0.009283154,-0.0105888229,-0.0114284521,-0.02108626,0.00566443,0.00633357372,0.00300113135,0.008413194,-0.00535155041,-0.0101412451,0.00816739351,0.00034377203,-0.00156468828,-0.0119962543,0.00396095449,-0.030162042,0.00124647445,0.0015974323,0.00579643855,0.00767029729,0.00365317985,-0.00302208075,-0.0158492047,0.00729816,-0.005214813,-0.00647332659,-0.0122786826,-0.0155123882,0.00685490947,0.000178580813,-0.003673737,-0.0106587326,-0.00355475978,0.006398939,0.00716939475,0.00660152966,0.000801848131,-0.00588354468,0.01182992,0.007471833,0.0186745133,-0.00610954175,0.005958596,-0.01823936,0.0161121115,0.0105447434,-0.004642049,0.00646234024,0.01492579,-0.003302751,0.0114639979,0.00452974951,0.000362096122,-0.0151018417,0.00342189055,-0.00485399645,-0.016859401,0.0159169324,0.0263061449,-0.00276382477,-0.0297801141,0.00774106756,0.00384538854,-0.00237925258,0.00681477552,-0.00178106211,-0.027515009,-0.003178348,-0.008661733,-0.007742037,0.00691158324,-0.0001407237,0.0067377626,0.0021552993,-0.008874756,0.0189025383,-0.0137859834,-0.0135114128,-0.00738389976],[0.005977638,0.0127565311,0.0141299516,0.00268246653,-0.006728632,0.0191578157,0.0009608037,0.02008518,0.008033578,0.003454405,-0.01724127,0.00676894933,-0.009250981,0.00131267484,0.0187672172,0.009813825,-0.007371799,0.0133382566,0.00306845247,-0.0162036754,0.00203487,-0.001884666,-0.00355825038,-0.012949436,-0.00284192176,-0.0019371052,0.000576459162,-0.001793885,0.00755977537,0.00326240226,-0.0137265138,-0.005561357,0.005632854,0.0083374735,-0.0170264188,5.36723528E-05,-0.00419556675,0.007613667,-0.00569028454,0.0135529395,0.006969964,-0.0118081691,0.00574170332,0.0152437547,-0.00287239184,-0.00644617528,-0.0104393456,0.009323488,0.0157924332,-0.00120706623,0.009638366,-0.009797645,0.007830037,-0.006837028,0.0042784214,0.0093524335,-0.00339839864,-0.010336197,0.00214056927,0.007871595,0.00136854593,0.019578604,0.008380338,0.016852716,0.0124014616,0.0109663522,-0.00520045636,-0.00615052972,0.0129265422,-0.0118287066,0.006042582,-0.00618642662,-0.007803116,-0.003036527,-0.00108961517,-0.00298596825,-0.0123815108,0.0115949865,-0.008065081,0.0114847766,-0.0114136674,0.006186771,0.00484038144,0.009693574,0.006533874,-0.0137313418,-0.00735202245,-0.00457873242,-0.00439640367,-0.00278278138,-0.0133661944,-0.009457974,0.00469440361,-0.0129266512,0.012989833,-0.0117155733,-0.00184428145,0.00131994521,-0.004570645,0.009222095,0.008807855,-0.00259586284,-0.015531647,0.009589636,0.01284385,0.00765867066,-0.000689178,-0.0195742287,0.01023842,0.005963038,0.00327573973,0.007955223,-0.0182061624,-0.007856954,-0.0189657621,0.00415439857,0.0105173662,-0.006598088,-0.0005883166,-0.005947669,-0.0149017479,0.00173494907,-0.0133395065,-0.00280075613,-0.004753924,-0.0154153621,-0.000623021333,0.0117742708],[0.0110096931,-0.003336512,0.004882976,-0.01824539,0.0120272478,0.002771018,-0.011541334,-0.000197469868,-0.00283025741,0.00223781937,-0.004698809,-0.01651471,-0.0113660842,0.0145577574,-0.0024403315,-0.00230105151,-0.0122523019,-0.00109230331,-0.00776535971,-0.008612914,-0.0127518494,0.00385502935,0.004325519,-0.00019599,0.0151458327,-0.01535424,0.004559328,-0.009888364,0.01377025,-0.0106913606,-0.00343666133,0.001167464,-0.006503697,-0.0177276134,0.00344839087,0.00688077463,0.00618649041,-0.003674593,-0.0120341424,0.005447636,-0.0147014493,-0.00443441235,0.00345512875,0.003090104,-0.00122586731,-0.0006483801,-0.0190891158,-0.006423386,-0.00301828864,0.002710885,-0.0020297803,-0.0103801321,-0.00151887233,0.009692056,0.00264329067,0.0123306559,0.001433341,0.0150865382,-0.015019997,0.0146881845,0.0193468,-0.00400407426,-0.00328413374,0.00329930917,-0.00426056469,-0.00152698718,0.0175108332,0.0042059375,0.005918513,0.00269712135,-0.0108281048,-0.0128284208,0.0034182,-0.0194841549,-0.005441996,0.003679197,-0.00197822833,0.004802023,-0.01829297,-0.004831502,-0.0111912135,-0.0154682081,0.0144812129,-0.0120336162,0.0126672983,0.0008148738,-0.0157151315,0.00118558959,0.00531701837,0.01432691,0.004280152,0.00628149463,0.0142910378,0.00645403937,0.00199548621,-0.00480070245,0.00290241046,-0.00303853117,0.00403905,0.00330970413,0.0147846146,0.0232066959,0.00096665544,0.01642951,-0.009579286,0.00018151525,0.006275661,-0.003822417,0.0169154685,-0.0130755343,-0.0170512982,0.0133412788,-0.00142200675,0.0160555523,-0.00253075617,-0.005186372,0.02460677,-0.01405666,-0.0191234089,0.006368737,-0.0212529469,-0.02363501,0.004536021,0.0232777018,0.0108285276,-0.00489314552,-0.0121470131,-0.00404982734],[-0.01575129,0.003738157,-0.0101083256,0.0141500449,-0.00601378642,0.0136835026,0.003860418,-0.005091685,-0.00112373184,-0.006661185,0.00646229135,0.0112793185,0.0116422186,-0.02483939,-0.000373531249,0.0041669053,0.0191306937,0.0181061327,0.0038378574,0.0112666348,0.0154572595,-0.00133522868,-0.02351974,0.003990443,-0.0136499228,0.0168186054,0.00178161869,0.00594471861,-0.0215953961,0.0173461065,0.00121037778,-0.00467188237,0.009629241,0.0186625812,-0.00230288133,-0.01783323,-0.0049661193,0.0114328749,0.0129384715,-0.0161216222,0.0130092558,0.00753284944,-0.00713983225,-0.00704443734,0.00982055,0.00431168452,0.0223614,0.0129706422,0.019682359,-0.008358532,0.00830785,0.0137541508,0.0149203045,-0.0124647208,-0.0127546955,-0.0205529258,-0.00479730638,-0.0158577953,0.02157662,-0.0237135831,-0.0208511911,0.00438048,0.009769149,-0.00407438539,0.0184012242,0.006454566,-0.01793116,-0.0131151052,-0.017546013,-0.008703915,0.0204348471,0.02004839,-0.0101048788,0.0216402318,0.00644283742,0.005730187,0.01202366,-0.00551058445,0.0217421018,0.00698013371,0.0100488476,0.0172457658,-0.0157386512,0.01152655,-0.0155920889,0.004972356,0.02569657,-0.00912208948,-0.008992708,-0.02639211,-0.00334428088,-0.007797897,-0.005190303,-0.0127983624,-0.00279230624,0.0115356212,-0.009551016,-0.005803449,0.003161836,-0.0133370943,-0.01962889,-0.0241833087,0.0112506822,-0.0156578273,0.0115542235,0.007454251,-0.021557508,-0.005063771,-0.0197510812,0.0252440516,0.0116067883,-0.0131180072,0.00108705682,-0.0167618711,0.007246311,0.022070704,-0.025663523,0.01749234,0.0240987074,-0.0103183277,0.025187077,0.02710121,-0.00485802768,-0.0225861669,-0.02388356,0.008923902,0.015793832,0.0155647],[0.00481080962,0.00200247788,0.0007316683,-0.005394848,0.00388356,-0.00170852453,-0.003712089,0.0030659074,0.00239662,0.003916138,-0.004843189,-0.00421535969,-0.00160841981,0.00762381544,0.00429794053,0.003891504,-0.008205726,-0.005804752,-0.00147621124,-0.00500464952,-0.00135279109,-0.00163191475,0.00310675637,-0.00306809344,0.004299376,-0.0047249347,-0.004028102,-0.00266945339,0.008629221,-0.003982734,-0.006429299,-0.00363570871,-0.000639568141,-0.00263437931,0.00294076,0.00246545253,-0.00168459315,-0.0006289315,-0.00739339134,0.009983325,-0.002277919,-0.002051362,0.008535834,0.00657032,-0.00334358285,-0.00296369544,-0.0072567407,-0.00190783711,-0.00209928048,0.003942747,0.003055969,-0.00861169,-0.00188857247,-0.000784529839,0.00207466586,0.0076873377,0.00111488765,0.00161806028,-0.003853319,0.00606272463,0.00312853185,0.00138024543,0.00146897242,0.004984055,-0.00406395644,0.004513787,0.005087904,0.000347944617,0.00308639533,0.002128878,-0.00113415311,-0.00682817958,-0.00211353716,-0.006570045,-0.000354241085,-0.00676888,-0.005643603,0.005389745,-0.004937937,-0.000355120283,-0.00757417129,-0.004411221,0.008767464,-2.5054127E-05,0.00835736748,-0.00334546738,-0.00688121468,0.0006708873,0.001069812,0.009340597,-0.006140098,0.003601869,-0.00177120289,2.46027466E-05,0.0069540306,-0.00457071746,0.000809628749,0.003975244,-0.00245772582,0.00412675738,0.0062273643,0.00519013545,-0.009485763,0.00490025943,-0.003593881,-0.0006253602,0.00594628742,0.0013902135,0.00718009053,-0.00456584524,-0.0006834179,0.00326510658,-0.00281083514,0.00232269079,-0.00602866337,-0.00506621832,0.008630364,-0.009036579,-0.00661695935,0.001393115,-0.00667853747,-0.00223441119,-0.003136895,0.000750104547,0.00264298846,-0.007010661,-0.00474824943,0.002417051],[-0.0110253589,0.00138209213,-0.00591623643,0.00490111625,-0.002581186,0.0265356489,0.00209020753,-0.00314730243,-0.00317040458,-0.0105402181,0.00345700118,2.00524046E-05,-0.002756938,-0.0206656512,0.00186359452,0.003509205,0.017198313,0.0277878232,-0.000615224242,-0.0008462664,0.0121526113,0.0003634559,-0.024395071,0.00561513333,-0.007377572,0.0160852671,0.008048622,8.828064E-05,-0.0193846114,0.0201182235,0.003614981,-0.00406539,0.0098056,0.006507211,-0.00720700342,-0.01051195,0.000253636274,0.0180448219,0.009256813,-0.02247823,0.004464901,0.00503859064,-0.014800325,-0.00418835226,0.008389557,0.006544239,0.0105207255,0.0118658682,0.0322352275,-0.009325788,0.0130077656,0.01077581,0.019087581,-0.014373336,-0.009902822,-0.0126365665,-0.006820797,-0.00437943731,0.0179250836,-0.0173409227,-0.0109285852,0.00397612853,0.0135126831,-0.00600540638,0.02583129,0.004455716,-0.008484644,-0.0125502292,-0.0146044763,-0.005820555,0.009762211,0.0220134966,-0.009573842,0.01626218,0.004566544,0.009515182,0.01462619,-0.00762282265,0.0126450118,0.009082508,0.0130474782,0.0112872068,-0.0094627915,0.00253292359,-0.008704281,-0.003819634,0.0168616064,-0.0117152687,-0.00699287327,-0.0279042963,0.005014811,-0.00676818565,0.005828832,-0.0176842213,-0.00576735474,0.00814533047,-0.009702718,-0.009636274,0.00194010825,-0.0148511482,-0.009913376,-0.0147596626,0.013102957,-0.0133424578,0.007271662,0.009917748,-0.0198472552,-0.0150257125,-0.00740179326,0.0299210027,0.00561442925,-0.0118975285,-0.00374453631,-0.0127292937,0.00170620345,0.0304155089,-0.0116716819,0.009537927,0.0152847227,-0.01236925,0.0169145633,0.012028805,-0.00380041148,-0.00775895733,-0.0223262534,0.01084693,0.02029034,0.0137544274],[-0.00938381,-0.0136272181,-0.00702006975,-0.00337133859,0.00154436356,0.00309576024,-0.0019056903,-0.0187389832,-0.0103258379,-0.00251205149,0.0197062846,-0.005318684,0.00254250038,-0.006423468,-0.01993265,-0.00488905748,0.0196180958,0.00308762956,-0.00073725055,0.00245750067,0.00326122437,-0.00236065919,-0.00359956548,0.0175675228,-0.00282358075,0.00597684225,0.00707174558,0.008892704,-0.0101763373,0.00375346723,0.01760908,0.006636739,-0.0119927945,-0.00591732748,0.006297264,0.0147607708,-0.00114531966,-0.001008649,0.012977913,-0.0285630822,-0.00246879482,0.0133839333,-0.0190366581,-0.01782434,0.00295833335,0.0128078638,0.00547748,-0.006862914,0.004409502,-0.00773866428,-0.00395518448,0.0134230508,0.004867744,0.000777251,-0.008912332,-0.00826131,0.0018362595,0.00345480931,0.004237887,-0.0124467537,-0.00519684469,-0.0180621669,-0.0006265936,-0.0146561833,0.002678027,-0.008129581,0.0002940802,0.00714464951,-0.0195432846,0.009194975,0.0017700576,0.0206570271,0.007580608,0.003846794,-0.00300357677,0.0229289327,0.0268728733,-0.0169405174,0.00310931331,-0.00733943842,0.0154210711,0.0006366156,-0.0127449129,-0.004064474,-0.0133139873,0.004977083,0.010799367,0.00353119266,-0.0036286,-0.014759236,0.0190200433,0.00524780573,0.00295109185,-0.00263748039,-0.0210701358,0.0171076171,0.00608565239,-0.008670981,0.00157258671,-0.008359755,-0.008501759,-0.001557552,0.0278347712,-0.006855509,0.00285003,0.00027034,-0.0178264733,0.000615962,-0.004044928,0.00408222154,0.0002073213,-0.007957563,0.0166473538,-0.00303398375,0.0120613324,0.0132600516,-0.004859115,0.008592729,0.00178264338,-0.00248585641,0.009684718,0.0007579783,0.008451523,0.009504217,-0.00446474832,0.0232662782,-0.000301611959,-0.008490707],[-0.00503350934,0.006084719,0.00199883152,0.00221410836,-0.000859234948,0.05151024,-0.00226304051,-0.0002737778,-0.00328437984,-0.0132352319,0.004539151,0.002443843,-0.00563418772,-0.0216572955,0.00783738,0.00757910265,0.0167983882,0.046128802,0.0006830527,-0.01152853,0.01261939,0.0029737,-0.035027992,0.004727065,-0.004916481,0.016889751,0.014877554,-0.00443814928,-0.0195853356,0.0310973879,-0.00239338144,-0.00343408179,0.0142482212,0.004956602,-0.0145444237,-0.0225842521,0.002537468,0.0256827623,0.008079001,-0.025420865,0.00322878314,-0.002359832,-0.0148470439,0.00168981939,0.0154367089,0.00177463191,0.013891018,0.02524163,0.05829302,-0.0133766318,0.0205497984,0.0119917756,0.03727105,-0.0224215,-0.01671488,-0.00896844,-0.0171254352,-0.003574154,0.0253998172,-0.0180998463,-0.0148235243,0.007348121,0.0208985284,0.0017831868,0.0502577163,0.009868972,-0.009075274,-0.020483,-0.01628908,-0.0104939621,0.0150093827,0.0231206659,-0.01563795,0.0183606911,0.008424499,0.0095285,0.009706647,-0.0008559548,0.0112647349,0.0152580794,0.0113774911,0.0132654114,-0.009877159,0.0020702905,-0.007271194,-0.004007708,0.0190540534,-0.01739761,-0.0115763824,-0.0357719623,-0.000270622259,-0.0101266978,0.0146293966,-0.0273117609,-0.00314225839,0.008311282,-0.02205671,-0.01225763,0.007695158,-0.0203238465,-0.008167318,-0.01196608,0.0148431705,-0.007986697,0.0132779218,0.0229817331,-0.025089113,-0.0350915752,-0.00377211254,0.0535070747,0.000832585734,-0.0123070413,-0.009183214,-0.0190662388,0.00315454649,0.0468158163,-0.0165669117,0.006895187,0.0227236226,-0.0145221632,0.0134286853,0.0127834324,-0.009867417,-0.0105331922,-0.03545512,0.007250539,0.02961992,0.0229154788],[-0.000328062422,-0.0153052406,-0.02292164,-0.012149292,0.00684252428,-0.03337853,-0.005679162,-0.0147708235,-0.00707958732,-0.0040108664,0.0145538552,-0.0146413315,0.00338776852,0.00588632468,-0.0190405175,-0.009968295,0.0007901923,-0.0240831636,-0.00835475,0.0233567357,-0.0103224823,0.00020947789,0.008165761,0.01310408,0.009912143,-0.0037665125,-0.00248819217,0.000664710242,0.00178935181,-0.010093757,0.0142994551,0.007742144,-0.008540401,-0.0111904973,0.02552614,-0.000869800861,0.005112195,-0.00587705057,-0.0007836434,-0.00421982072,-0.017749045,0.0103035457,-0.003361318,-0.009840502,0.00270107365,0.005125723,0.004756401,-0.007965756,-0.0335159823,0.00194169406,-0.0137469387,0.00497530075,-0.0189584643,0.0116433557,0.002989769,-0.000394114351,0.003932217,0.0184329078,-0.0112612154,0.00227835844,0.004000458,-0.02000311,-0.008443891,-0.0138134565,-0.0217404775,-0.013064824,0.0134463264,0.008012369,-0.0070218523,0.0144101493,-0.0140537266,0.00155612268,0.00518077658,-0.008634465,0.00254271622,0.001652684,0.00971417,-0.0118263718,0.000512482831,-0.01742128,0.00768577866,-0.009202433,0.00163511164,-0.0151054943,-0.002566191,0.0152293546,-0.00345847686,0.004026119,0.0114668282,0.0151890917,0.012426245,0.017670298,-0.00135689543,0.0194158386,-0.0139355371,0.0109055415,0.00163397647,-0.00626570825,0.009695789,-0.0126752909,-0.002367289,0.0127837844,0.0106869275,-0.0029066226,-0.0165570378,-0.012614483,0.00492965244,0.0299570672,-0.00357307447,-0.0182898827,-0.0115436986,0.00225419016,0.0190012436,0.015989447,0.0146923987,-0.0148158353,-0.00222053728,0.002548811,-0.00731897075,0.0134626692,0.006001733,-0.010554905,0.008800807,0.013279587,0.007541808,0.009226303,-0.000310249481,-0.0124563808],[8.57069463E-05,0.0167779569,0.015758371,0.01038258,-0.0105634024,0.010901873,0.008228737,0.0238312632,0.0104376748,0.00525785424,-0.016909495,0.01319462,-0.000741892436,-0.00284573738,0.0190895516,0.007279499,-0.0067357,0.005229482,0.008541207,-0.008317124,0.007244931,-0.001866245,0.002248795,-0.0189772956,-0.008984674,-0.0005675896,-0.002829648,-0.0007152697,-0.00143083744,0.00115564663,-0.0147600351,-0.009265008,0.0135684293,0.01732075,-0.014610474,-0.006951482,-0.00806699,0.00257786759,0.00338116358,0.02246395,0.0191357359,-0.0126778893,0.0117729222,0.0149913449,-0.00630167266,-0.0110423248,0.005431703,0.008430378,0.005743621,0.0007224865,0.009079171,-0.006172329,0.002067638,-0.006332277,0.008206374,-0.0004849134,-0.0015331083,-0.0187670644,0.00312555046,-0.00573397242,-0.0063055004,0.02371247,0.006307619,0.0138025908,0.00477459654,0.00960025,-0.0109653985,-0.007798293,0.01762518,-0.0149880415,0.0047124,-0.00219589,-0.00547943125,0.00290890154,-0.001292001,-0.0143440291,-0.0206346978,0.0179255754,0.00174578279,0.0125001138,-0.00593517954,0.00791541,-0.00351242418,0.0164279286,0.00126495771,-0.0112188281,0.007033316,-0.00235279975,-0.0105620483,-0.004822566,-0.0206422284,-0.0115886685,-0.008471463,-0.007513564,0.01721896,-0.009976193,-0.00214114436,0.00849999,-0.0038932513,0.0118702063,-0.005328713,-0.0135760978,-0.0238610972,-0.00426039938,0.009040595,0.005644086,0.008563384,-0.0100230128,-0.00247803237,0.003086205,0.0152526656,-0.00369800418,-0.02303111,-0.009427591,-0.0111682853,-0.006233902,-0.00377574214,0.00186458975,0.00432497,-0.007076667,0.00319749978,0.0147872884,-0.0112530561,-0.0157430954,-0.000877423969,-0.0132688684,0.0015409101,0.0116601465],[0.00486589829,-0.0157389026,-0.0289459582,-0.0163345113,0.0105007915,-0.0399266072,-0.0104691079,-0.0242196675,-0.0151985325,-0.0124400742,0.0135535328,-0.0215151068,0.00206454,0.004702601,-0.02766837,-0.01391021,0.000427365769,-0.01968645,-0.008784029,0.02030936,-0.009183258,-0.000644254,0.00717327232,0.0213555358,0.009696597,-0.0040125614,0.00275522051,-0.00367439026,0.007406533,-0.0144468993,0.0227540769,0.0112052923,-0.009993115,-0.0214951858,0.02891611,0.00271302834,0.00432007248,-0.005459754,-0.007251333,-0.016099669,-0.0242029727,0.00491685839,-0.0101276757,-0.0122477319,0.009128799,0.00329965283,-0.00566370273,-0.00932518952,-0.03172753,0.00216430333,-0.019468559,0.005197986,-0.0161083452,0.0155103868,0.000722630764,0.00351326517,0.00812661648,0.0262116678,-0.0105722332,0.0127673075,0.009885142,-0.03144125,-0.014073587,-0.0138375321,-0.019433599,-0.0128108142,0.0154603776,0.008215439,-0.0140294684,0.0231072269,-0.0137416758,-0.00228581112,0.0134133212,-0.009597403,0.00603323337,0.0104707684,0.0185700078,-0.0147137372,-0.002100537,-0.02649756,0.00740478048,-0.0146418065,0.00596547732,-0.0200704187,0.00123387773,0.0162503682,-0.0122618517,-0.00152108236,0.0238039121,0.0200990587,0.0195044614,0.0193456039,0.008958287,0.02025446,-0.0267262384,0.0133577706,0.005967432,-0.009131479,0.00833964348,-0.01707771,0.008151623,0.0147998473,0.018007528,0.009831377,-0.0206251573,-0.0183080435,0.00101253286,0.0323638655,0.00211444171,-0.0168164726,-0.0208928715,0.00366145326,0.0310299452,0.0221262965,0.0158949438,-0.00676348,0.0059869606,-0.00382204028,-0.00695664762,0.0152896214,-0.007297199,-0.0209466349,0.0131193781,0.0243366938,0.00673581939,0.0166604519,0.00282055349,-0.0192650221],[-0.004712534,0.008054802,0.00707625644,0.0109864315,-0.00561828259,0.042937085,0.00184648833,0.005826484,0.00701256841,-0.007130829,0.0009532713,0.008164695,0.0005970469,-0.0167360213,0.0125322929,0.006520002,0.009805549,0.0332348272,0.00446617045,-0.0118270908,0.0163951479,0.003203041,-0.025504997,-0.00372083741,-0.010588442,0.0155611895,0.00491445838,-0.0007121605,-0.0133650247,0.0268365685,-0.008110615,-0.00568945,0.0138874631,0.0136180157,-0.01816349,-0.0195223577,0.00172910735,0.0178172775,0.009595364,-0.0113144089,0.009825349,0.000161366988,-0.00331398286,0.001024235,0.00666451966,0.003431366,0.009312707,0.01931808,0.0459641851,-0.0105930092,0.0193204284,0.005348606,0.02989375,-0.0141130863,-0.0126226153,-0.00781961251,-0.0100274552,-0.0127435373,0.0214549527,-0.01867944,-0.0141859651,0.014900039,0.0185547173,0.0008094279,0.0391206443,0.006647952,-0.0163622051,-0.016499985,-0.00643624365,-0.0165032111,0.016672967,0.0132066673,-0.0108302655,0.0174780264,0.00329300086,0.0011475099,0.00285023684,0.0012727431,0.0113400249,0.0190539137,0.00485678669,0.0135285817,-0.010918065,0.008580573,-0.00608249335,-0.00320974481,0.01802341,-0.0100102946,-0.0169711486,-0.0333893523,-0.00322341523,-0.0114381341,0.004230423,-0.0236755665,0.00714591332,0.00164601486,-0.0170749426,-0.004039293,0.00368349417,-0.008435306,-0.011451317,-0.0139140012,0.006103545,-0.009151921,0.0154369073,0.0180732645,-0.0159112271,-0.0259365048,-0.005001216,0.03748444,0.0101708677,-0.0117363855,-0.0130042415,-0.0179464258,-0.00164085126,0.03321344,-0.0147462673,0.00780174928,0.017237952,-0.01567982,0.0122027071,0.0189760122,-0.00547460048,-0.0163602289,-0.02453129,0.003044474,0.0185718574,0.0152924331],[0.00575377746,-0.005630805,-0.0035617752,-0.00270188041,-2.87843541E-05,-0.05008891,-0.000419883872,0.00141984911,0.00062182697,0.0108262477,-0.00383649627,0.00237456756,0.00590845,0.0168637037,-0.006937588,-0.00501374947,-0.0160672367,-0.0438843966,0.00095841696,0.0122384336,-0.010868541,0.00114358461,0.0332638435,-0.00743603241,0.00419826666,-0.014348641,-0.0135165807,0.00436265767,0.0195175558,-0.02850681,0.00176472683,0.00655298634,-0.013104707,-0.00342724868,0.0126052406,0.01718158,-0.000395720184,-0.02333112,-0.00752700726,0.025534058,-0.00178601,0.002205124,0.0127958814,-0.0007956529,-0.0126745105,-0.002307186,-0.007102847,-0.0190965552,-0.0519151762,0.0132074421,-0.0218747128,-0.011830085,-0.03458526,0.0222820342,0.0150020951,0.00618915446,0.011789103,-0.000518538232,-0.020009296,0.0124739129,0.007310707,-0.006918987,-0.0180695876,0.0014267168,-0.0451938,-0.007972585,0.00634658756,0.0165141467,0.0120891938,0.006533797,-0.01278195,-0.022035053,0.0151529349,-0.0160001,-0.0106545826,-0.0139268544,-0.0112975752,0.001999289,-0.00300331763,-0.0124924714,-0.009545372,-0.0100413719,0.0054433113,-0.0016649795,0.009404837,0.008135754,-0.0138233695,0.0167869516,0.009158548,0.03009481,-0.00384409167,0.008828834,-0.0167077817,0.0232450571,0.00731503,-0.00700158533,0.0188452974,0.0148217976,-0.00464896951,0.0151592139,0.00845359452,0.0100193536,-0.01882938,0.009203877,-0.0113432957,-0.0220385566,0.0209193211,0.03597285,0.0009126616,-0.0477049,0.004241541,0.009754967,0.00605626823,0.0140130147,-0.00281678117,-0.0410528742,0.0117755644,-0.008975527,-0.0170292743,0.0117746852,-0.0120401457,-0.004054814,0.00453072041,0.00146592373,0.0271208584,-0.008542485,-0.026660623,-0.0181191284],[0.0106154913,0.00391253037,0.00499243941,-0.00617360929,-0.000132660964,-0.0142643563,-0.004077212,0.008772305,0.00393886771,0.0057930476,-0.008205048,-0.00163091091,-3.17488957E-05,0.0143660912,0.008433452,0.003196017,-0.0180650149,-0.0128399162,0.000964954437,-0.00225081388,-0.008797925,0.00313692144,0.012345558,-0.009641266,0.003026779,-0.008894293,-0.005621729,-0.00518107135,0.0163415223,-0.0103077479,-0.009070871,0.000254992046,-0.0034625472,-0.00558857433,0.0008544771,0.00325883017,-4.40640069E-05,-0.008024568,-0.00991791952,0.0203782916,-0.00418990245,-0.0102474261,0.0130227469,0.00690866634,-0.00232696719,-0.008178313,-0.009808366,-0.00518430537,-0.0175729934,0.009635659,-0.005199912,-0.0125149619,-0.0110531505,0.00634440361,0.009039661,0.0129684284,0.00420142664,0.005509598,-0.01083857,0.0145218065,0.0109864287,0.00289620622,-0.003722198,0.008941606,-0.016467547,0.00145449652,0.006732941,0.000209649079,0.0135562066,-0.00110226392,-0.008969941,-0.0181186926,0.003722353,-0.0105401026,-0.0018545927,-0.0111987563,-0.0164704882,0.00891048,-0.0127450787,-0.00360084535,-0.0146166561,-0.008226193,0.01429495,-0.00366389984,0.0128003266,-0.002526649,-0.017318815,0.005463621,0.00839091,0.0182757489,-0.005083391,0.004007823,-0.00140480418,0.00752235763,0.009315438,-0.0107213939,0.00177232549,0.009003823,-0.00307006319,0.0101535879,0.0133454213,0.0102562569,-0.0136946188,0.0139709078,-0.008146715,-0.005565865,0.0157728866,0.006303647,0.0113120591,-0.0188326389,-0.00662154052,0.007307033,-0.007206811,0.009744101,-0.00392971374,-0.0181921348,0.0137771852,-0.0152494637,-0.0117858155,0.007776134,-0.0136387749,-0.007899012,-0.000464269368,0.00489676651,0.0139085557,-0.0123102842,-0.0111293877,-0.004260122],[-0.0122911166,0.00259456038,-0.00223645777,0.009907469,-0.006741975,0.0226938371,0.006714441,0.00151012407,-0.000638780941,-0.008659252,0.00591630535,0.008030001,0.00370463263,-0.0182958767,0.00640675239,0.00374485343,0.0112498729,0.019959081,0.00139782554,0.00131708093,0.0158010926,-0.00351786916,-0.0215003155,0.00156568713,-0.0115574626,0.012452133,0.003677177,0.007056879,-0.0159440581,0.01802341,-0.00124174089,-0.0035883477,0.0115741631,0.0164678432,-0.0100009246,-0.0119133955,-0.00015873267,0.0133334231,0.009970118,-0.0137166483,0.0130417412,0.00141113077,-0.007789664,-0.00328496378,0.00722963549,0.00435634749,0.0132113174,0.0147443535,0.0245174672,-0.008030506,0.0133980839,0.00937781,0.0155589879,-0.01681594,-0.0129143829,-0.011991106,-0.009518074,-0.0116561027,0.0207613688,-0.0186826829,-0.0132403076,0.00390877947,0.0129733188,-0.00123160821,0.0243416559,0.0073424154,-0.0165975429,-0.01435454,-0.0102968635,-0.009237661,0.0143394293,0.0174644366,-0.0114468029,0.0193070248,0.0044253245,0.00487473048,0.008094633,-0.00433097174,0.0142274126,0.0136703551,0.00911893,0.013189679,-0.0131495828,0.0107387314,-0.00828611851,-0.00260342658,0.01934897,-0.009103323,-0.01087604,-0.0275829118,-0.00144357129,-0.005420432,-0.002325354,-0.0136788161,0.00184353429,0.00973457,-0.0139785651,-0.007182317,0.0005239982,-0.0106160007,-0.0140156159,-0.0189289041,0.00797526,-0.0137043344,0.0119058527,0.0101988735,-0.01876227,-0.01504174,-0.0113313589,0.0299537983,0.007554828,-0.009425597,-0.00694833323,-0.016795218,0.00333797652,0.0240738355,-0.0199964345,0.0131297717,0.0222746022,-0.0123212375,0.0188715048,0.01732926,-0.0020175064,-0.01616362,-0.0198251083,0.005176839,0.01565225,0.0136827948],[0.006852504,-0.0101962369,-0.0142417951,-0.0120165478,0.00604571,-0.04748083,-0.001970902,-0.00537695829,-0.009137774,0.004748064,0.00458470825,-0.00978542,0.00321036624,0.0196829829,-0.0125932693,-0.00550101325,-0.0104014864,-0.03472542,-0.00262895715,0.0130783021,-0.0170486514,-0.00105546531,0.02399043,0.00377394469,0.009053198,-0.01025745,-0.005292802,0.00284991437,0.011875649,-0.0259875245,0.0118422247,0.005536613,-0.0111723235,-0.01572159,0.0215974171,0.0157844182,0.002279162,-0.0162203126,-0.008236616,0.00631188648,-0.0159856137,0.004515617,0.003814153,-0.00184403243,-0.004101016,0.0011963282,-0.00592784025,-0.0151677467,-0.04851776,0.0108509641,-0.0168912131,-0.002190665,-0.0259869248,0.0163678024,0.0100759231,0.007138149,0.0102995709,0.0136666046,-0.0196118187,0.0137769831,0.0101486081,-0.0175103769,-0.0148739275,-0.003685944,-0.04022333,-0.006306499,0.0135541055,0.0151872328,0.006158103,0.0173232611,-0.0161374733,-0.0119776474,0.0109929619,-0.0157181323,-0.0036149153,-0.00178690662,0.000642124331,-0.0032645266,-0.00770423841,-0.0192615986,-0.001953908,-0.0167742968,0.008483181,-0.0130918045,0.00505933445,0.00579358824,-0.0159788746,0.01277442,0.0194064714,0.0268669426,0.002848,0.0157560986,-0.00263865455,0.0278929248,-0.009912025,-0.001876342,0.012037552,0.00365379127,-0.000825301162,-0.00034410556,0.009522383,0.015591885,-0.00248361146,0.005750726,-0.0142377336,-0.018082954,0.0166340172,0.03241563,-0.000414617,-0.03942549,-0.0105526736,0.008156984,0.0187104717,0.0178369116,0.006982002,-0.02978336,0.0110965446,-0.00666164327,-0.0143992128,0.0132785551,-0.00917368848,-0.0195492022,0.008201027,0.0156567153,0.0217703041,0.00281272153,-0.0114010712,-0.0155474208],[0.01143394,0.005979547,0.014966785,-0.005036841,0.005974708,0.0164074562,-0.00352111,0.006931916,0.00154584553,0.008865187,-0.00719457632,-0.00687760441,-0.0143807037,0.00507041533,0.006147619,0.004534478,-0.00508611137,0.0108337505,-0.005014882,-0.0170486216,-0.00453679869,0.0016975404,-0.002868735,-0.005844066,0.0049807434,-0.00942322,0.005387946,-0.00657009939,0.0110966964,-0.003363452,-0.008498046,-0.00263828,0.002907829,-0.0102521712,-0.008145463,0.0108708674,0.0065154247,0.0006002069,-0.009937562,0.00297883246,-0.00483838748,-0.00764335273,0.00135923922,0.0045009465,-0.00647085859,-0.000537583663,-0.0212462917,-0.000595236663,0.01545528,-0.000464197947,0.002730208,-0.00385322282,0.00621841149,0.00371367228,0.001920056,0.0151331965,-0.00144936284,0.00527790235,-0.005936972,0.008140015,0.007943563,0.008824471,0.0029571557,0.00406488264,0.0062055625,0.00657718023,0.006269199,-0.00224911957,0.009170673,-0.00370849064,-0.00433417736,-0.00687814,-0.000429426233,-0.006538041,-0.004203357,0.00543809868,-0.00529199652,0.00643500173,-0.0199753568,0.00143537379,-0.00483509852,-0.0045506116,0.00974537,-0.00287596881,0.009226908,-0.00324581447,-0.0118038272,0.00162939681,-0.00224572653,0.0002622403,0.00178231427,-0.004725118,0.0108528417,-0.00559522,0.00453633629,-0.0105351275,0.00221447321,0.00116362167,8.44592942E-05,0.007294786,0.0101781525,0.0117088566,0.00106895028,0.0118720364,0.000754412147,0.00408362551,0.00244290358,-0.0155445738,0.0194560979,0.0006982956,-0.009223746,0.0100186737,-0.00575737655,0.002672388,-0.008586077,0.00471517676,0.0226749871,-0.0111403912,-0.0108217867,0.000399261247,-0.0207866319,-0.0138281994,-0.004169763,0.0125874206,0.000625975546,-0.00651186239,-0.004913904,0.00520588],[-0.00104117789,0.0125215147,0.02339863,0.0126862675,-0.0123755382,0.0403256565,0.009068369,0.0145342322,0.00868566,0.00481668347,-0.01017461,0.0132689215,-0.00205359817,-0.00941519,0.01666606,0.009677073,0.00127054588,0.0281430427,0.010917319,-0.0232592225,0.013003692,0.00207801233,-0.0116706463,-0.0115450379,-0.013644401,0.0048622964,0.00178145268,-0.0023262524,-0.00322593353,0.018737603,-0.0134873837,-0.008449145,0.00761237,0.0156686213,-0.02571215,-0.002901788,-0.00748239551,0.00697775232,-0.0005415296,0.003439425,0.01795156,-0.00656815,0.00176488608,0.008296366,-0.006360264,-0.00357738556,-0.00294953468,0.0110596288,0.0409291759,-0.00230997684,0.0139794191,-0.00196469,0.02169504,-0.0132166678,-0.00485913735,-0.00297685456,-0.00620183162,-0.0180575941,0.0131892031,-0.00789861847,-0.00654082373,0.0238073226,0.0120199062,0.0104684187,0.0297644846,0.0126973083,-0.0137279676,-0.00528233964,0.005272275,-0.01848652,0.0182536654,0.00572229363,-0.007118138,0.007960322,-0.00388869829,-0.000860369357,-0.0115399621,0.0117605375,-0.00101553311,0.020649096,-0.002921985,0.01228128,-0.00337201147,0.0157111026,0.00228656363,-0.0160130039,0.004333286,-0.00591750443,-0.01445285,-0.0211031362,-0.0115833385,-0.0170154385,-0.00247393572,-0.0246785637,0.0117383692,-0.008077537,-0.00574651361,0.006458228,-0.008665447,0.009391391,-0.000262713525,-0.0165902581,-0.006803447,-6.69684159E-05,0.0187513381,0.0170156229,-0.006711347,-0.03441377,0.000368492649,0.02442438,0.0131744947,-0.00179436279,-0.0217306055,-0.0207028929,-0.0129311038,0.0161942225,-0.0019536505,0.0004566303,0.008229203,-0.0165634621,-0.00129239727,0.0183754377,-0.0105270175,-0.019296987,-0.005526176,-0.0064522163,0.00225688075,0.0155020561],[0.0092664035,0.00957815,0.007358261,-0.0009385597,0.00198242161,-0.003955778,-0.00030430028,0.01521259,0.00194286974,0.00458552036,-0.0119353775,-0.0027417196,-0.00230383,0.009788944,0.0106313685,0.002640542,-0.0138660083,-0.00224446622,-0.003571052,-0.005911058,-0.005922964,0.000696125557,0.00543497456,-0.0137683479,0.00610270025,-0.0127492864,-0.00299741747,-0.00614443235,0.0162367038,-0.006233004,-0.0118661448,-0.00274379971,0.00522001367,-0.0009174506,-0.002213126,-0.00050095754,0.00318587874,0.00149513,-0.015306687,0.01884299,-0.003587443,-0.008193168,0.0102772536,0.00873069,-0.00442548376,-0.00676277373,-0.01291373,0.0013265257,-0.00713297632,0.00563706644,0.00280532986,-0.0120601887,-0.003492581,0.00242531556,0.006696818,0.0131332772,-0.002784603,0.00195850618,-0.008881074,0.0156208659,0.009800393,0.0101992721,-0.0008703583,0.01197427,-0.00320574339,0.0057937447,0.00373397931,-0.0005921435,0.0139190983,-0.00141229283,-0.0007854364,-0.01691206,-0.000355880155,-0.0111002233,0.000643802632,-0.008561278,-0.01859205,0.0108059309,-0.01429606,0.00247739,-0.0118469708,-0.00486282539,0.01324981,0.00185762276,0.0131804375,-0.004264015,-0.0117750475,0.00122363772,0.002885357,0.0124605885,-0.00904773,0.0008288047,0.00369959767,0.0007386336,0.0143135814,-0.0105465762,-0.00208763,0.00497214962,-0.00114544306,0.007356561,0.0130817657,0.00645706244,-0.0149506936,0.0125140613,0.00135402021,-0.0022821126,0.0127805239,-0.00268780882,0.0121676475,-0.007211789,-0.00129016826,0.0112681286,-0.009026572,0.006255317,-0.0124424566,-0.00755170826,0.0148639111,-0.0138417939,-0.0102386586,0.00114549149,-0.0174382422,-0.0066000456,-0.00624301238,0.00363163347,0.008774031,-0.0149264326,-0.00443699537,0.000896975456],[-0.007249104,0.008275568,-0.008302737,0.008635166,-0.00288291182,0.034527868,0.00287143,-0.00253583142,-0.000663734041,-0.0117750093,0.006327732,0.00651235739,0.000152485838,-0.02537194,0.007365561,0.00215950073,0.0178448949,0.03274197,-0.000888917944,-0.0007147351,0.0121290721,0.000329276343,-0.0330465846,0.00537175,-0.008215904,0.0173287317,0.008352894,-0.00130929891,-0.0185192879,0.0271301419,-0.000907680253,-0.00279209623,0.0115278056,0.0114914505,-0.008516635,-0.0213880874,0.00128404156,0.0209071748,0.009989881,-0.0239382219,0.006452336,0.0014125366,-0.01238093,-0.00172696554,0.01358768,0.0034330592,0.0177975446,0.0238853861,0.04067284,-0.0100697074,0.020885881,0.0142255975,0.0271466561,-0.0234545227,-0.0165438466,-0.0140574025,-0.009925217,-0.010346815,0.0264619943,-0.0194249749,-0.0178048387,0.0074485424,0.0189881548,-0.004363104,0.03894165,0.006565718,-0.0145352464,-0.0168249458,-0.0151412468,-0.00748615,0.0162554011,0.0232069828,-0.0132599268,0.0200280882,0.00709992973,0.0116731375,0.0115083959,-0.00365968631,0.0156516377,0.010513247,0.00939798448,0.0132251335,-0.009813658,0.005922688,-0.0115079926,-0.00212881761,0.01952958,-0.01731253,-0.004910158,-0.0330184028,-0.003278918,-0.00626109354,0.008140884,-0.02094506,-0.00564948749,0.007514894,-0.01879926,-0.0106913177,0.00496682571,-0.0192977283,-0.0144103952,-0.02091804,0.0183703657,-0.0135299517,0.0111456951,0.0148761487,-0.022179503,-0.0213288441,-0.00862683449,0.0436073653,0.00359810167,-0.0107821524,-0.0049607195,-0.014664623,0.00454622833,0.04111704,-0.0214139856,0.012711552,0.02453007,-0.01409935,0.0198551677,0.0190111455,-0.008864097,-0.0142920231,-0.0327555947,0.008487617,0.0269897543,0.0205240268],[0.00202892558,0.0130421165,0.0210599322,0.0102550732,-0.00621418841,0.0387772322,0.003748102,0.0131262261,0.0100321742,0.007567392,-0.006891816,0.01284903,-0.002834189,-0.0124742333,0.0150963012,0.0122050419,0.00268739834,0.0308328234,0.008238115,-0.0224115625,0.013154597,0.00222408236,-0.0138377268,-0.00884926,-0.0100301625,0.006291294,0.0046061445,-0.004047595,-0.00196824432,0.0177042782,-0.0117656142,-0.00323628518,0.007629839,0.0111118928,-0.0264807232,-0.0007717432,-0.00735990331,0.009548238,0.00219073426,-0.0005299922,0.0162243824,-0.00610714359,-0.00112697354,0.008347639,-0.00559911365,-0.0052149063,-0.00363113964,0.009826474,0.040052,-0.0071795187,0.0145021137,-0.00302602025,0.0211787857,-0.012975242,-0.005286814,-0.0013661508,-0.00696211029,-0.0123043628,0.0136663252,-0.00368973217,-0.005948373,0.01622483,0.0118339891,0.0103770038,0.0321725756,0.00847529,-0.0141327986,-0.00590594066,0.00644229539,-0.0122909918,0.01659549,0.00256068725,-0.009044789,0.009561298,-0.00309322751,0.00369388238,-0.00733563257,0.00705912476,-0.00148416229,0.01427536,-0.00354957813,0.0104739,-0.0006917881,0.0134163136,0.00172246783,-0.0153704165,0.002239454,-0.005232981,-0.0157087017,-0.0199093875,-0.00580630451,-0.0180730727,0.003375445,-0.0255278014,0.0113316774,-0.00739085767,-0.001959404,0.00403052242,-0.00480157277,0.008056097,0.00114084082,-0.0118991928,-0.001786249,0.00214469479,0.0178218167,0.015308883,-0.00828406,-0.0342299677,0.006146359,0.0281592868,0.009506166,0.000362092658,-0.01935196,-0.0170810036,-0.009168165,0.0218919665,0.00403624866,-0.0013428753,0.009556696,-0.0173051935,-0.005871452,0.01181827,-0.0109727439,-0.011632001,-0.008285166,-0.00830784,0.00163789,0.013646327],[-0.00232461863,0.01745986,0.0179096237,0.0172909275,-0.009079954,0.0194674,0.010232727,0.0260954425,0.0133476369,0.009075006,-0.0167827625,0.01972282,-0.00244696834,-0.003754104,0.023221124,0.00777363637,-0.00317524513,0.0064494987,0.0111570116,-0.0131853987,0.011733734,-0.00165128417,0.0028712654,-0.0196542889,-0.012538977,0.00247887964,-0.006101631,0.004959065,-0.002854682,0.00680728769,-0.0192195009,-0.009590115,0.0132925678,0.0214468818,-0.0225416962,-0.00568362046,-0.007406274,0.00249682576,0.00723784929,0.0165559612,0.0216924213,-0.007632873,0.0110845855,0.01662928,-0.009968367,-0.0105121415,0.008245046,0.0130318515,0.0119243516,0.0004905743,0.0146880755,-0.00280998554,0.004984576,-0.0131754791,0.00580544863,-0.00204356015,-0.00502104172,-0.0215784479,0.008541486,-0.006794357,-0.006651585,0.0257812757,0.00513752038,0.0152538,0.004181415,0.0123287756,-0.013904877,-0.009542786,0.01444145,-0.0164435189,0.008334784,-0.000799430243,-0.011321838,0.00590254553,0.000226998978,-0.0134667493,-0.015602543,0.01476861,0.005856521,0.0180358663,-0.007358504,0.008818916,-0.00741554145,0.0170013644,-0.00393634662,-0.009574476,0.0134343589,-0.0006638383,-0.0151970182,-0.0136691434,-0.0260747168,-0.0139909443,-0.0056397696,-0.006616779,0.02362638,-0.0132377706,-0.00232880772,0.0089570675,-0.007459803,0.0120685091,-0.00752014946,-0.0152513953,-0.0256425552,-0.00681986474,0.0133353136,0.011171584,0.00271768356,-0.0146114239,-0.00528074568,0.004680006,0.0153184216,-0.0055289357,-0.0270940159,-0.0140307108,-0.01486117,-0.007497213,-0.00415169774,0.00585538568,0.007732997,-0.006835511,0.006230856,0.015938472,-0.0133523382,-0.0242238659,0.0007691449,-0.0153229982,-0.00277433381,0.0114468522],[0.0114971912,0.000602212851,0.00130868109,-0.00326781347,0.0009335637,-0.025026476,-0.00173075229,0.00423908466,0.00238838978,0.009114673,-0.00714570656,-0.00459805457,-0.000603383,0.0149464924,0.00356901856,-0.0009924386,-0.0174191277,-0.0224810913,0.00184817135,3.78502627E-05,-0.008414932,0.00147819181,0.0217899978,-0.00744722364,0.00420122454,-0.013665677,-0.0101704029,-0.00638241554,0.0191293024,-0.0179027934,-0.00148576626,-0.000624695444,-0.005105984,-0.008335974,0.00496846624,0.007061164,-0.00287538185,-0.013177041,-0.009414801,0.0178478137,-0.00543074729,-0.005324806,0.0103480453,0.00161562278,-0.00364794559,-0.00567167439,-0.0116098737,-0.009003056,-0.0304900371,0.0118627055,-0.01279099,-0.0101357251,-0.018869957,0.01387704,0.0126411673,0.0115567651,0.008176279,0.003860317,-0.01246892,0.0171680823,0.009909344,-0.000171661217,-0.009936561,0.00322550721,-0.02399945,-0.00112514908,0.011038796,0.0110784229,0.009355767,0.00305045466,-0.009143234,-0.0191910714,0.00851538,-0.015015767,-0.005489591,-0.0119513236,-0.0113100987,0.003918183,-0.0116224447,-0.009770792,-0.0100933667,-0.0123107312,0.0107756192,-0.00222754572,0.0122525441,-2.20695529E-05,-0.0172701329,0.009572486,0.00644773059,0.0257162265,-0.00136480818,0.00554494,-0.006856644,0.0139052691,0.00869863853,-0.005976029,0.0107007343,0.0117867887,-0.005415283,0.0150054311,0.0103527838,0.0145250941,-0.0156390369,0.0107525121,-0.0113849333,-0.0111809205,0.0176758934,0.0186079536,0.0077428394,-0.026805792,-0.00500354124,0.00845544,-5.91373064E-05,0.01082315,-0.00510635134,-0.0242896266,0.0108829262,-0.01231748,-0.0156416353,0.008979638,-0.0150984284,-0.0126636727,0.00225723186,0.007869874,0.02172739,-0.009431199,-0.0141214393,-0.0100505976],[0.00746883731,-0.0149180721,-0.009706096,-0.0245882571,0.017671613,-0.00366258924,-0.01583374,-0.0225709341,-0.01142911,-0.01350268,0.0119508654,-0.02829707,-0.008663961,0.0104489671,-0.0164893456,-0.00614562351,-0.00151727733,0.006716556,-0.0134783853,0.002722489,-0.014705563,-0.00041307733,-0.006781433,0.0106437718,0.0198384486,-0.008727156,0.00832526,-0.00732774567,0.008757456,-0.003953169,0.0138230445,0.00352405384,-0.004224244,-0.0304911081,0.0159245655,0.00434153341,0.0133834956,0.00546378037,-0.00917648152,-0.0180381443,-0.0309863538,0.005389719,-0.00718921656,-0.0105823027,0.0108833332,0.006863318,-0.0168510675,-0.00560411345,0.00209636963,-0.000271127617,-0.006800489,-0.00124909449,0.00567828538,0.00748158526,-0.0116342828,0.0109098842,-0.00520147849,0.0333314538,-0.0122534605,0.016182106,0.0142123662,-0.0209269132,-0.00206784229,-0.0123245232,0.00220720912,-0.00769144,0.0200299863,0.00710674841,-0.0110433633,0.0147734042,-0.0147451386,-0.00299511454,0.00360644842,-0.0123758316,0.00640866067,0.0156470053,0.0126131242,-0.0130969854,-0.0120521551,-0.016956158,0.00415543746,-0.01731425,0.006944739,-0.0248527527,0.00548086828,0.00778341,-0.0158196148,-0.008365259,0.0123834582,0.0142519474,0.01832543,0.0149717163,0.0167494621,0.006248859,-0.0197665263,0.00476469565,-0.00183184771,-0.0134556349,0.00521221,-0.0146618616,0.0116562881,0.0259730462,0.0199622717,0.0115749,-0.01467794,-0.00620295666,-0.00432386575,0.003482757,0.0173474848,-7.181135E-05,-0.0261928756,0.0109869437,0.0190891922,0.0208046325,0.009256948,0.0120652178,0.0162876714,-0.007327094,-0.0110987918,0.0118065858,-0.016749341,-0.0253988784,0.009483954,0.0320149735,-0.00732964044,0.006443261,0.00624694256,-0.005623376],[0.00392353442,-0.005663685,-0.00207533548,-0.00218046526,0.00117258041,-0.044532,0.0007277311,-0.001027754,-0.00072331744,0.00990963448,-0.004229833,-0.000412788067,0.00466931146,0.01907231,-0.005631273,-0.00309437513,-0.0155964065,-0.03412447,-0.0009899489,0.008738779,-0.0105025554,0.00178901141,0.0261919461,-0.00228256336,0.00230858615,-0.0153029189,-0.0112810237,-0.00132787018,0.0167108662,-0.02608748,0.003043375,0.000957901531,-0.0108358068,-0.00629786775,0.0141158756,0.0157641489,-0.000681226258,-0.0204511061,-0.00753524248,0.02152375,-0.006878858,-0.00255065528,0.0115820728,0.0005737125,-0.0108572748,-0.000550964265,-0.008780946,-0.01707608,-0.0446201824,0.0134928757,-0.01993626,-0.008377617,-0.0280318391,0.0149608562,0.0114682736,0.00708725071,0.0127080642,0.00515023852,-0.0180150457,0.0172116235,0.01253971,-0.010290402,-0.0185210817,0.0005906082,-0.04200358,-0.005865692,0.0100494511,0.0135366386,0.009669849,0.011237246,-0.0126896445,-0.0177864879,0.0125189871,-0.0189869981,-0.007256652,-0.0099284,-0.008822232,0.00180457509,-0.008576458,-0.0143676428,-0.00519275665,-0.0127574615,0.007363503,-0.00141867518,0.00563842244,0.006762346,-0.01596221,0.017266335,0.0116940765,0.0290884972,-0.0009862588,0.0101466412,-0.009756413,0.0206869747,0.00392674655,-0.004089389,0.0170025248,0.0132497661,-0.004552815,0.0141034955,0.008314281,0.0107035423,-0.0162463188,0.0106854616,-0.0110143069,-0.0197092,0.0212192442,0.030613482,0.001366726,-0.0446360745,-0.002481293,0.011876259,0.009540706,0.0127138253,0.00131847814,-0.034693595,0.0123747131,-0.0116381841,-0.0176010989,0.0121654747,-0.0109610334,-0.008774318,0.00350818643,0.008040632,0.0266838521,-0.00454660226,-0.020087149,-0.01826641],[0.0128104668,-0.01371549,-0.0111665092,-0.03633245,0.0261031277,0.00780327,-0.0219093338,-0.0232343879,-0.0136311427,-0.018217558,0.00900817849,-0.0393290445,-0.016907515,0.0135414852,-0.0141146136,-0.00547308847,-0.00331973284,0.0162343029,-0.0238223355,-0.007394291,-0.022418417,0.00147535442,-0.0119751878,0.012934058,0.0314981528,-0.0166097414,0.0171169862,-0.0150517048,0.0130488584,-0.00128960435,0.0117686559,0.00671269558,-0.00637378125,-0.0447933264,0.0214886647,-0.000768761558,0.0218640827,0.007280641,-0.0145129953,-0.01622208,-0.04226842,0.00203119079,-0.00694298372,-0.0127102621,0.0174349472,0.006505278,-0.0225287955,-0.00184786646,0.0191686489,-0.00128528941,-0.00402751239,-0.00120210717,0.0149952248,0.0165998079,-0.0149781378,0.0181897059,-0.009774025,0.0413367823,-0.0126363114,0.0178324189,0.0215612166,-0.02051054,0.003215238,-0.0100525543,0.0133095272,-0.008844199,0.0352399237,0.00293573458,-0.009551889,0.0204515643,-0.0237053446,-0.00296924869,-0.00128538487,-0.0204989444,0.009394949,0.009887904,0.012677514,-0.009393068,-0.02393803,-0.0195909813,0.000223633033,-0.0221732687,0.0139088938,-0.0391615629,0.0136785191,0.0109779071,-0.0224495642,-0.0112577742,0.0126692513,0.0103611853,0.0248780828,0.0206572376,0.0259180218,0.00816703,-0.0218813159,0.00495414529,-0.00572570832,-0.0166310668,0.0156857464,-0.0190272052,0.0219255015,0.04007753,0.0196219683,0.0232646968,-0.0223282445,-0.000494075764,-0.005780815,-0.009815964,0.0245909914,0.008702241,-0.03796459,0.0144967092,0.0184247158,0.0270648617,0.009436384,0.0249463264,0.0243819263,-0.0140825054,-0.0163815748,0.017563032,-0.02578988,-0.0421196632,0.009219605,0.0485433228,-0.007956583,0.00632488867,0.005876564,-0.00516625],[-0.01115416,0.00666646147,-0.00405914942,0.0105802286,-0.004147475,0.032200668,0.00120446912,-0.0023449657,-0.00256795716,-0.0127535686,0.006295849,0.00385325938,0.000113856309,-0.0253326539,0.00289532635,0.00150105916,0.0185381547,0.0277181845,0.00126488355,0.00138595887,0.0119423708,-0.0005446177,-0.0317529626,0.00308700255,-0.007330153,0.0155839054,0.0106017515,0.00116050313,-0.0183039866,0.0271517541,-0.00266896049,-0.00232397066,0.0118762795,0.0122683262,-0.007545077,-0.0185067542,0.00334339752,0.0204013642,0.01242411,-0.02074473,0.006964292,0.00533132255,-0.009245367,-0.00423608348,0.0114864567,-0.0001967024,0.0136273894,0.0216226913,0.03907536,-0.0139203845,0.0158638731,0.009853996,0.02445879,-0.0217599925,-0.0126454988,-0.015820425,-0.0133451838,-0.00687603373,0.0242366176,-0.02200325,-0.0160878841,0.006672416,0.0150114475,-0.00231361925,0.03395356,0.004703118,-0.0121291606,-0.01904454,-0.0178356189,-0.0104392953,0.0179669689,0.0241852,-0.0107880794,0.0221917182,0.00756347459,0.0090904925,0.01379552,-0.0069282623,0.01655062,0.0101184119,0.012657729,0.0164392442,-0.0107534593,0.007890801,-0.008131817,-0.00150286674,0.0214764662,-0.0172046684,-0.008812132,-0.03297375,-0.00237291,-0.007838822,0.006966667,-0.0206635538,-0.0002386683,0.00853933953,-0.0187308937,-0.0113958716,0.003913762,-0.015893925,-0.0136765148,-0.01742187,0.01698738,-0.0110044051,0.0121040139,0.0124061359,-0.0218948964,-0.018249074,-0.00771025755,0.0378566533,0.006753656,-0.00948943,-0.00402466254,-0.0171753783,0.00148643868,0.0368207656,-0.0206437036,0.0127439788,0.0217229016,-0.0155068263,0.021465065,0.0174267963,-0.00532780075,-0.0173118915,-0.03132745,0.00745705469,0.0262636468,0.0197435152],[0.00492798025,-0.00961746648,-0.004770231,-0.0162114259,0.008565704,-0.0246301163,-0.006566156,-0.006660198,-0.00333024072,0.0021994072,0.00297975913,-0.011013695,-0.0052639097,0.0142851193,-0.008563079,-0.006022169,-0.007192534,-0.0193640981,-0.00692663062,0.00329453545,-0.0113496529,0.000281093759,0.0141816614,0.00328146364,0.0129531305,-0.00886175,-0.00366646075,-0.004216257,0.012575997,-0.01739217,0.006374944,0.002723127,-0.009762918,-0.0203845557,0.0164616127,0.0105474768,0.005338517,-0.008950224,-0.00907548051,0.00494536152,-0.01821705,-0.000278340565,-0.00133128546,-8.522236E-05,-0.00283428864,-0.002126406,-0.0102275992,-0.0121540641,-0.0208042152,0.00718938,-0.0124493074,-0.00490903761,-0.0151118329,0.0131416833,0.00746715954,0.00771224266,0.00722914375,0.0177576989,-0.016643133,0.0136430245,0.0128552681,-0.0126824481,-0.0124336891,-0.00255260686,-0.0190466177,-0.00596090173,0.0169126112,0.0110757248,0.00468159234,0.01325815,-0.0161739513,-0.0136980526,0.007035365,-0.0192922577,-0.0005468726,0.00264593912,-0.00296035269,0.0002851308,-0.009576595,-0.0125402678,-0.004350768,-0.0149571691,0.0073124175,-0.016244607,0.00694442634,0.002862996,-0.0159779824,0.00220741518,0.0120506166,0.0228046514,0.0105459364,0.0118926056,0.00624456862,0.0162207279,-0.0038916152,-0.002257491,0.01013372,-0.000101878242,0.003076298,0.00021769559,0.0120505793,0.0190088134,-0.000953830662,0.01209024,-0.0116169481,-0.009444316,0.0136497654,0.0142931258,0.008496055,-0.0225151237,-0.0134254685,0.009173801,0.0120731043,0.0157126039,0.0020475646,-0.0166434534,0.01223309,-0.009509945,-0.0194009636,0.0131691955,-0.0117745278,-0.0192733556,0.008615158,0.0193956811,0.01693369,0.00216101785,-0.0105123846,-0.0112197716],[-0.009137266,0.009489237,0.01165426,0.0269211363,-0.01955835,-0.00623103557,0.0159588531,0.0184620768,0.0124178734,0.0137295974,-0.0103929238,0.0324198827,0.01296775,-0.0101342071,0.0124158068,0.006256264,0.004000463,-0.010480674,0.01971057,0.00297178747,0.0175215565,-0.00142371934,0.0128049105,-0.0109285405,-0.0219893567,0.0109544238,-0.0103827519,0.00792689249,-0.008225492,0.0006974913,-0.0102601033,-0.004033459,0.00441333326,0.0353999324,-0.018922111,0.0014053483,-0.0153140649,-0.00664090738,0.00719250739,0.0172794722,0.0349352881,-0.003930915,0.009011788,0.0113234809,-0.0108040525,-0.004899636,0.015397707,0.00417985441,-0.01173511,0.00334376073,0.00322386343,0.0009814235,-0.00697139464,-0.0125174271,0.0117968721,-0.0120264832,0.00702268863,-0.0323122777,0.0101764658,-0.01235157,-0.0182515979,0.0180685017,-0.0008663264,0.008134583,-0.0102363871,0.005910367,-0.025117144,-0.00249354588,0.0113191893,-0.0152455848,0.0177245252,0.00421438832,-0.00150182087,0.0138134426,-0.00662099663,-0.0134008452,-0.013953154,0.00752586825,0.0163864773,0.0124923773,0.00219554454,0.017600039,-0.009498638,0.0269338544,-0.007375237,-0.0107233077,0.0174558964,0.009244411,-0.0118364021,-0.009349236,-0.018867122,-0.01780686,-0.0226383284,-0.007911387,0.0139152482,-0.006699838,0.004996996,0.0134634245,-0.0109939268,0.0164068881,-0.016190052,-0.0286811013,-0.0218598135,-0.0146560036,0.0140867867,0.00294120144,0.000823084731,0.00765322428,-0.0198958348,-0.00598473335,0.0310268644,-0.00900109,-0.01294559,-0.0209507756,-0.005476102,-0.0183121078,-0.01935138,0.0127540193,0.013092543,-0.0131234489,0.0206466131,0.029184483,-0.00903713051,-0.0348628536,0.0107448632,-0.008667947,-0.00599502167,0.00534937857],[0.012108013,-0.00136893091,0.0101560922,-0.0118029108,0.004241331,-0.0204350222,-0.00524778571,0.00602138229,0.00502398424,0.009828502,-0.007281104,-0.00723825162,-0.00272133527,0.0232997183,-0.00164062344,0.000487037556,-0.0186454747,-0.0194948278,-0.00501464773,-0.00585124549,-0.0141844917,0.00185526884,0.0227662418,-0.00703132525,0.0101306112,-0.0173999276,-0.00503092725,-0.004646188,0.0198325049,-0.02137722,-0.00375461578,0.00224069087,-0.00706635369,-0.0148393465,0.007912541,0.0126521224,0.0006709151,-0.0140959118,-0.0137391957,0.0206571333,-0.009743562,-0.00827879,0.01087282,0.00379620376,-0.007076036,-0.00215490465,-0.0202009976,-0.0156146428,-0.02344672,0.009614723,-0.0128231123,-0.0135785108,-0.0161308888,0.0155472653,0.011944809,0.0141710509,0.00647632172,0.0103295622,-0.0182494689,0.0220305063,0.0152963707,-0.00259179878,-0.0150038,0.00523320632,-0.0221399721,-0.003211497,0.0127738258,0.009371266,0.0133672561,0.00399973337,-0.0181519557,-0.0209018271,0.01029716,-0.02418957,-0.006700311,-0.006218697,-0.011665483,0.00645699957,-0.01883117,-0.008582529,-0.0100118369,-0.017919505,0.0142789325,-0.005439942,0.0118647246,-0.004001286,-0.0219059251,0.0122639807,0.00709613273,0.0288337246,0.00230913912,0.00765108736,-0.001549861,0.016111346,0.00307676755,-0.0111499624,0.0123243881,0.00872215349,-0.00571719,0.017520437,0.01788833,0.0221868567,-0.0123377591,0.0164165981,-0.0120604057,-0.010108226,0.0225083232,0.009956379,0.0152120115,-0.0307202972,-0.009108719,0.0120267794,0.000551813166,0.015708534,-0.006528232,-0.0255739372,0.0208488125,-0.0141686881,-0.0230055824,0.0153480209,-0.0216301344,-0.019791862,0.00220995769,0.0145907281,0.0246300064,-0.0133886635,-0.02203465,-0.014340044],[0.009908669,-0.00657090545,0.00314004417,-0.0045856717,0.00191134261,-0.0329740159,0.0013406222,0.003916085,0.003097027,0.0118213184,-0.00643557543,-0.00156595663,0.0016404849,0.0200387985,-0.00141467992,-0.00101789029,-0.0172973517,-0.03281744,0.000205073884,0.00673800753,-0.009876363,0.00117633608,0.0262330435,-0.00352446223,0.006334951,-0.0148015162,-0.0106685758,-0.000371950038,0.0185134374,-0.0217992049,-0.00116706232,0.004742932,-0.00738385553,-0.00603253534,0.008554922,0.0146149416,-0.002592275,-0.01545646,-0.008045077,0.0226844363,-0.00172238878,-0.00196776562,0.0124035217,0.003366031,-0.0111420453,-0.005877509,-0.009820918,-0.0162564814,-0.0377238579,0.0115590841,-0.0129240584,-0.00948507152,-0.0229357071,0.01519241,0.0124603976,0.007774729,0.009477349,0.00561112259,-0.0150961448,0.0155827822,0.007855376,-0.005974667,-0.013893595,0.00358073413,-0.03319773,-0.0053364546,0.0106270807,0.0141308866,0.009156559,0.009298802,-0.0135878976,-0.01804779,0.009966506,-0.019925354,-0.00903134,-0.0109961079,-0.01175692,0.006278104,-0.0104736043,-0.0107992534,-0.0120111266,-0.0123188654,0.0115198875,-0.00415068772,0.007895002,0.00324324728,-0.01601181,0.0160271525,0.01082804,0.0297197253,-0.00291059213,0.004118868,-0.011404803,0.0174514465,0.00236256956,-0.00452874741,0.0160192139,0.00903998,-0.00238358951,0.0130283367,0.008447625,0.0122102341,-0.0162261985,0.0109978458,-0.0101015912,-0.0138448263,0.0207224358,0.0240020938,0.00642538071,-0.03460144,-0.002391033,0.0067319083,0.006129358,0.0134796016,0.00202720542,-0.0360519141,0.0145047363,-0.007636174,-0.01945437,0.0105115,-0.01082237,-0.0108161094,0.006552927,0.00690784259,0.0267779175,-0.0114363022,-0.02226769,-0.0168295726],[-0.0119870789,0.0139767136,0.0126615632,0.03453419,-0.02487535,0.00249407766,0.0216615759,0.0197750125,0.0135268308,0.01430585,-0.012370592,0.0367816538,0.0113646444,-0.009474577,0.0178763289,0.007765905,0.00436896272,-0.0113985417,0.0214163,0.003932048,0.0214822367,-1.89773145E-05,0.010669888,-0.0138712963,-0.0272621978,0.0109669315,-0.01190441,0.01213129,-0.0140683409,0.004576458,-0.0133369,-0.00581236463,0.00342971855,0.04163508,-0.0208086874,0.000249268574,-0.0180859044,-0.008101562,0.0128289815,0.01695552,0.0405075178,-0.00238220626,0.007470513,0.0120706763,-0.0133675607,-0.004146114,0.0186681766,0.004444409,-0.007904452,0.0005993194,0.00543195149,0.00523187639,-0.00680286,-0.0164916385,0.0139922127,-0.0137317833,0.00507741561,-0.03891814,0.017883515,-0.018747896,-0.02035205,0.0213837773,-0.000364500069,0.008021461,-0.0077973837,0.006769652,-0.0280509926,-0.00530247437,0.011429959,-0.0173889641,0.0159202255,0.002865754,-0.00293048588,0.0161167532,-0.00595891429,-0.009596738,-0.009444507,0.006723655,0.0176870544,0.0219532624,-0.00223681377,0.02310529,-0.0142697785,0.0352443159,-0.0116532445,-0.0127455927,0.0248108488,0.007530273,-0.0174071565,-0.01361534,-0.0230531227,-0.0194180012,-0.0235970877,-0.007008944,0.0218472257,-0.00583568774,0.004216468,0.0137001416,-0.009129302,0.0192272682,-0.01773283,-0.0353569724,-0.022502698,-0.0179098267,0.0186549462,0.00262550567,0.00126397051,0.0028789395,-0.0201465152,-0.00334006152,0.0354390778,-0.0125563117,-0.01951951,-0.02541929,-0.008150068,-0.0183324758,-0.0177478287,0.016344063,0.0143746911,-0.0137935141,0.02281155,0.0368028656,-0.00707783876,-0.04118957,0.00934911147,-0.00853122,-0.00626732456,0.004662501],[-0.0135860937,0.0146752326,0.0136492969,0.0363109373,-0.02540096,0.000484903634,0.0247127451,0.0216902327,0.012625929,0.01506889,-0.01085759,0.03842576,0.0172763728,-0.0158942938,0.01566129,0.008399101,0.00356619782,-0.0110213337,0.021758493,0.00670182239,0.02270665,-0.00390875945,0.00762086734,-0.0138297481,-0.0259033144,0.0140838195,-0.01714968,0.01225499,-0.0119213546,0.007991924,-0.01168217,-0.00421160739,0.00243701716,0.0412623361,-0.0222919,-0.00151699071,-0.0168213937,-0.004970084,0.0114212744,0.0152701819,0.03845598,-0.000795058848,0.00537487259,0.007132089,-0.0138111329,-0.00349067082,0.0184023362,0.00360370218,-0.0116931992,0.002966279,0.00300729019,0.002454099,-0.0109846629,-0.0196809676,0.009483866,-0.0163979046,0.00729066366,-0.04184787,0.0169783551,-0.01694303,-0.0208231583,0.0206305478,0.00122251792,0.00903795753,-0.009682602,0.0106887175,-0.0348928832,-0.00306867785,0.008157818,-0.01764212,0.02312983,0.004854032,0.000522410148,0.0176282,-0.00473870756,-0.006834405,-0.008065255,0.007835082,0.0207700916,0.021193197,-0.000674797164,0.0227322355,-0.0138613889,0.0352462679,-0.009747291,-0.009203759,0.0247249361,0.0118184462,-0.0158185624,-0.0172334388,-0.0229571536,-0.0230712686,-0.0285522249,-0.0108360564,0.01630339,-0.00467452453,0.00238713785,0.0158244073,-0.0115379533,0.01585771,-0.0181426983,-0.03835085,-0.0189520568,-0.0184062347,0.0179069,0.00170151354,0.0008089916,0.008274735,-0.0198550783,-0.007302328,0.03858618,-0.010574122,-0.0154557694,-0.0260591786,-0.00777349062,-0.018072255,-0.0223767459,0.0149167338,0.0173832867,-0.0198788345,0.02432708,0.04194345,-0.01068093,-0.04217086,0.00697597163,-0.008869654,-0.007963021,0.0072777695],[-0.007650569,0.0141925048,0.0163328238,0.0213561431,-0.0129017532,0.02293008,0.0118012335,0.0204733219,0.01157334,0.00699931057,-0.007963201,0.0223908667,0.00494238129,-0.011858372,0.0200464986,0.0115538742,0.00111812609,0.00646060053,0.0150131453,-0.00473596761,0.0144326426,-0.00282218657,-0.00284536323,-0.0164989233,-0.017503811,0.008689742,-0.0058678044,0.00648035575,-0.00901147,0.013465248,-0.0157523714,-0.008741727,0.007938905,0.0286262762,-0.0235930271,-0.007472148,-0.0111281425,-0.000863540161,0.009968066,0.0109905079,0.027523905,-0.00130736688,0.007255806,0.008942074,-0.007743425,-0.007156502,0.010832781,0.0117424987,0.0168313347,-0.002554028,0.0124158226,0.0008729294,0.00639163144,-0.0154468939,0.00322883646,-0.009868241,-0.0003238708,-0.0287241042,0.016497951,-0.017073134,-0.0146168182,0.0221957415,0.0062132813,0.00707393233,0.0105167506,0.0101164076,-0.0217763912,-0.00541748852,0.00197517732,-0.0195284747,0.0159235746,0.007483826,-0.007123625,0.0134304585,-0.00368002569,-0.004297867,-0.006770127,0.00495875068,0.0142138293,0.0211635511,0.000322573964,0.0163580347,-0.0100051388,0.0250363145,-0.007074297,-0.010534985,0.0146995839,0.00544377929,-0.0171011388,-0.0201518629,-0.0190892462,-0.0187106226,-0.0125507023,-0.0140576316,0.018985467,-0.00770585658,-0.00404909952,0.0120180417,-0.00724580372,0.010129543,-0.0128609473,-0.0262164529,-0.0128587391,-0.0120477322,0.0182410665,0.00916674547,-0.002424483,-0.0128681567,-0.009003415,0.0123120388,0.0220672842,-0.005611887,-0.0221087281,-0.0205886755,-0.007244248,0.00359525625,-0.0134162642,0.0110064689,0.01479857,-0.0151574668,0.0127671538,0.0286291111,-0.009547521,-0.0316409357,-0.0045517697,-0.0101169152,-0.00220068078,0.0112699028],[-0.004805891,0.008199121,0.0106593454,0.000475151581,-0.003459986,0.0582808666,0.00110515323,-0.00108149112,0.00473583,-0.006782841,0.00258837454,-0.0007581683,-0.007826122,-0.0190123841,0.008922769,0.00341255288,0.012774949,0.0479640774,-0.00196255767,-0.0223854855,0.0127869034,0.00387130049,-0.0291733313,0.00474261,-0.004468668,0.0135245416,0.0121110249,-0.0005092306,-0.0149255628,0.0277298857,-0.00601097429,-0.002930377,0.0136617115,0.00219329563,-0.0188382,-0.0141544277,0.00515476,0.0209984817,0.006347623,-0.0192410052,0.00125120825,-0.002150433,-0.0122968853,0.00346198236,0.0069100433,0.00412021251,0.00307505834,0.0191525482,0.06262832,-0.0147017855,0.0211315174,0.00715358043,0.039859008,-0.0160186216,-0.0146413967,-0.006849006,-0.0121757267,-0.003687229,0.0205414519,-0.0140204187,-0.01016022,0.009641437,0.0198411774,-0.000568437565,0.0524777472,0.00736979861,-0.006065799,-0.0172239542,-0.0108880345,-0.009486307,0.011982576,0.0179951712,-0.01399586,0.0141652683,0.008528911,0.01041204,0.00642671576,0.0001538508,0.00361655722,0.0158529785,0.008398,0.009926582,-0.005717838,0.001418664,-0.005416083,-0.007809472,0.0124639617,-0.0185569227,-0.0167519767,-0.0342447348,0.00367191364,-0.0141088031,0.0153187364,-0.031244766,0.00011633947,0.003367894,-0.0167746432,-0.0128770946,0.00239040959,-0.010743591,-0.007116695,-0.009451664,0.0166655257,-0.00557097327,0.0146634448,0.0240694284,-0.0232749581,-0.04437043,0.0006981696,0.0519512035,-0.00259009656,-0.009674044,-0.0111365719,-0.0168015249,-0.004598397,0.04083867,-0.006872888,0.006600068,0.0157743841,-0.0140861822,0.007534207,0.005579416,-0.00486518256,-0.00678994833,-0.0252037756,0.0049957037,0.0181855783,0.0184707977],[-0.007062074,0.00705940928,0.005737169,0.009532486,-0.00715969969,0.0445491821,0.00260237255,0.00177273375,0.00668397127,-0.0102293864,0.00149599276,0.005525646,-0.00183581642,-0.0213321727,0.012209422,0.00607749447,0.0103503494,0.03501277,0.00213453127,-0.007907112,0.015009704,-0.0013477304,-0.0300490875,-0.00224993285,-0.005655856,0.0156108141,0.00646874076,0.0017092895,-0.0178606864,0.0250488017,-0.004525593,-0.00599771924,0.0152032049,0.0148741277,-0.0163628031,-0.0177260935,0.00123389927,0.0153879495,0.007892642,-0.0132165011,0.0118026705,0.00173948333,-0.005336454,-0.00159167266,0.01068194,-0.00100279553,0.0112918019,0.0166264046,0.0474813767,-0.00853619352,0.0174266659,0.00700808549,0.03129889,-0.0155404834,-0.01577685,-0.009304898,-0.009291637,-0.0115512563,0.02504808,-0.0198597219,-0.012981439,0.0136327483,0.01655257,-0.00143861363,0.0417197943,0.0088934,-0.0123766959,-0.0178276077,-0.0106859244,-0.0143461451,0.0156562757,0.014312706,-0.0139783788,0.0200528521,0.007999289,0.00210194336,0.00155409263,-0.00289578782,0.0122078061,0.014853362,0.00264515751,0.015040325,-0.009812744,0.0100673838,-0.00761972647,-0.00209262781,0.0192413069,-0.013816433,-0.0160635747,-0.031389907,-0.0024774964,-0.0103584575,0.00225275126,-0.0225495622,0.00714162737,0.00201203325,-0.0185017735,-0.008281122,0.00627319328,-0.009697438,-0.0114727058,-0.0162425246,0.00699057244,-0.0123965535,0.0154172,0.0187493861,-0.0181622189,-0.02840724,-0.00492838,0.0430313,0.006570851,-0.0116387224,-0.0142994942,-0.0168326832,0.0014248637,0.0336118,-0.0167261045,0.00926713552,0.02214283,-0.0150384773,0.01415983,0.01857744,-0.008209176,-0.0207826942,-0.0285935625,0.000286978,0.0208591912,0.018276751],[-0.000406525971,0.01766464,0.0218330212,0.01767273,-0.009597424,0.03539636,0.008580209,0.0271928236,0.0155520374,0.0107524814,-0.01824949,0.0185024217,-0.00325061288,-0.00357367448,0.0252717752,0.009946357,0.0008844219,0.0170654934,0.0113285156,-0.0200204328,0.0117056882,0.00265595177,-0.006193072,-0.0193386246,-0.0120690418,0.00492576463,-0.003857191,0.00318914745,-0.00588022126,0.009710992,-0.0192148089,-0.0115144383,0.009366111,0.0224284418,-0.0254730415,-0.00371613842,-0.0046419,0.004143242,0.004831891,0.0183186047,0.0256372318,-0.0101599358,0.0104781985,0.0152416341,-0.007151396,-0.00619727839,0.00169291755,0.0136964563,0.0262331348,0.00017493013,0.0143068163,-0.002441503,0.01342465,-0.0154980114,0.00116602879,-0.00108172558,-0.00751160737,-0.0237389114,0.011275406,-0.0116162095,-0.006831745,0.0270876866,0.0100092236,0.01351425,0.015050835,0.0131640565,-0.0148541033,-0.0106172413,0.0122901015,-0.0201162621,0.0133268014,0.00106595806,-0.0091329515,0.004600613,-0.004339558,-0.0102116885,-0.01818611,0.0123215932,0.0006486396,0.0248524919,-0.00972672552,0.0110974275,-0.00670980848,0.01841547,-0.00495728,-0.0128483167,0.0113005321,0.00227259565,-0.020636363,-0.01876442,-0.0232135355,-0.0191650465,-0.00718545634,-0.0177014861,0.0231348816,-0.0128250858,-0.00573744532,0.006441625,-0.00613848632,0.01631664,-0.0104223834,-0.0178542249,-0.0209148247,-0.005566857,0.0176946353,0.0125052687,0.000212424275,-0.0270108916,-0.00212278822,0.0135548813,0.0204932354,-0.006754081,-0.0309822224,-0.0200634114,-0.0157093238,0.004742184,-0.002841553,0.006625801,0.008175871,-0.0115881748,0.00607815,0.0177224539,-0.0147508029,-0.0201664437,-0.00331390486,-0.0130253984,-0.003129243,0.0149585148],[-0.00718964962,0.0120877,0.0124637876,0.0274135917,-0.020790508,0.00472676428,0.0166630577,0.020296026,0.01411678,0.011471617,-0.009198383,0.0290237889,0.009241622,-0.0125817442,0.0170947257,0.00624087,0.003035549,-0.00603640033,0.01653299,0.000786318851,0.0196356829,-0.00132225116,0.006901719,-0.0163535215,-0.02430058,0.0135458829,-0.01009849,0.0108413035,-0.010535717,0.00158157817,-0.0118102133,-0.006493282,0.00635937927,0.0356859379,-0.023688117,-0.00182997016,-0.0174242686,-0.00426133955,0.0115276,0.015454757,0.03675055,-0.00288252532,0.009357362,0.0113158375,-0.0151715064,-0.002841234,0.0167590678,0.00638202764,-0.004197256,0.00223420723,0.00514636654,0.00344349188,-0.007931364,-0.0148147568,0.009393033,-0.0118201962,0.00666438555,-0.0369638875,0.014343733,-0.0199422613,-0.0200558938,0.0197109077,-0.000939337653,0.009766475,-0.004254789,0.0109670907,-0.0279677324,-0.00341535872,0.00999689,-0.0162460078,0.0164396055,0.0054548867,-0.000156418813,0.01774458,-0.004116123,-0.013816609,-0.008836535,0.009017351,0.0186978579,0.0183584131,-0.0006901437,0.0194362979,-0.009763431,0.03265245,-0.0130815981,-0.0126849748,0.0186553281,0.0103921955,-0.0151962712,-0.0159795675,-0.0216010269,-0.0166211445,-0.0218399558,-0.00669188146,0.0174292438,-0.005941648,0.00221678428,0.0158127174,-0.009414696,0.0165650249,-0.0147170415,-0.0296578184,-0.01926658,-0.0153800966,0.017815724,0.00344368513,0.00354698626,0.000597229635,-0.0163946822,-0.00379770831,0.029544387,-0.0102730989,-0.0193202514,-0.0212756414,-0.008110488,-0.0143548539,-0.01722355,0.0143862693,0.0129745333,-0.0124928039,0.0202122051,0.0356892571,-0.0122041563,-0.0392263,0.008272145,-0.006726983,-0.007908618,0.00518040266],[-0.000342739018,-0.0181354545,-0.0141818374,-0.0121952835,0.00590173248,-0.0175982974,-0.00728732767,-0.0212954711,