{"Layers":[{"ClassName":"Layer","Content":{"biases":[-0.136189148,-0.020999277,-0.0530005172,0.00147313089,-0.021688778,-0.01342375,-0.002531251,0.00245319935,-0.125656188,-0.113322146,-0.0423728,-0.00669126,-0.0439937934],"useBias":true}},{"ClassName":"ActivationLayer","Content":{"biases":[-0.0117734931,-0.00603442825,-0.0117502538,-0.007783813,-0.0164399352,0.0372404531,-0.00539921038,-0.0319590867,0.0255730953,-0.01486809,-0.002504907,-0.0167548861,-0.0160522386,-0.0410674438,0.00290252944,-0.000870621065,0.00569029432,0.0416618139,0.0002713711,-0.00361352973,0.01438559,0.0052110455,-0.07838751,0.0354735963,0.00149094872,0.0170605015,0.00313744228,0.000248133525,-0.0274589211,0.0558974,0.00325988722,-0.0137159107,0.02933099,-0.0173405278,0.00764109753,-0.06869356,0.00504550245,0.02118553,-0.00212161313,-0.07319284,-0.0109401615,-0.0164537486,-0.0243796222,-0.0003319432,0.00613638153,0.01169908,0.0323582254,0.06808334,0.0610781461,-0.00451192074,0.0304539241,0.026073955,0.0399748422,0.003255919,-0.0138971033,-0.0180584937,0.00351458439,0.0233026389,0.0459060669,-0.004832926,-0.01363551,-0.01525132,0.025777122,0.00929764,0.0536140352,-0.00414753566,0.0229867119,-0.04014877,-0.03809911,-0.0155789843,-0.00531050749,0.026624199,-0.0243475214,0.02847301,0.01604693,-0.008054581,0.00214403565,0.0113119315,0.0165443644,0.02512668,0.0155143077,0.0189665761,-0.00478315027,-0.0120360916,-0.0104823355,-0.00567560969,0.026570024,-0.020203067,-0.0239084288,-0.0341115557,0.0316118859,0.01508832,0.0137196863,-0.003515716,-0.0210900884,0.006885215,-0.0071329223,-0.004512607,0.0237795338,-0.0121570071,-0.00118181354,0.0216075,0.0278004464,0.004071124,-0.0102367178,0.0448536,-0.0358203,-0.0536933169,-0.008806151,0.06481814,-0.0226597954,-0.0118066417,-0.0137001779,0.01946239,0.029267041,0.07091633,-0.0452786721,0.0197880231,0.03334307,-0.00666236971,0.0329150073,-0.0235539638,0.0167566966,0.00515961135,-0.0602377057,0.0141259031,0.0358102769,0.0308983568],"useBias":true,"func":2}},{"ClassName":"ActivationLayer","Content":{"biases":[0.009884739,-0.046726685,-0.269904763,0.0156662371,-0.08520904,-0.007444065,-0.149360731,-0.156535253,0.187011808,-0.0449510328,0.117095143,-0.00454532076,0.24062562,0.0240867566,-0.0486362837,0.0607536063,0.111370414,-0.220796138,-0.04452237,0.186039239,-0.0621715225,-0.131330758,-0.009285414,-0.103347354,0.271872848,0.0179967228,0.00703155855,-0.134033591,-0.08310537,-0.167302459,-0.0008107433,0.237440348,-0.0503942631,-0.0140741514,-0.183417633,-0.0863275,0.04104582,0.01165077,0.08359619,0.173631772,0.1681713,-0.0586419478,0.0334818661,0.0398434475,-0.000749489933,0.2688081,-0.1166244,-0.0439366661,-0.112225793,0.2423491,0.006627498,-0.09365286,0.0934055448,0.214228675,-0.108292043,0.0167058557,0.107565291,0.0129846251,-0.0267401617,-0.157510862,0.0793657452,-0.202860162,-0.09049302,0.2962272,0.0505320877,-0.12445461,-0.1627376,-0.118372492,-0.0452776477,-0.06783719,-0.0502904579,0.07380158,0.1716708,0.0475632623,0.04990371,-0.2290952,-0.09112016,0.0361995436,0.131443158,-0.06502355,-0.0230188332,-0.128617927,0.006346112,-0.0118890963,0.04984099,-0.0227742586,0.09091897,0.08123126,-0.07743817,-0.0221600123,0.11551699,-0.04580883,-0.0126750246,-0.04755807,0.045553457,0.0414764434,-0.007152704,-0.267161638,0.0307279583,-0.3271914,0.1345215,-0.0267883483,-0.13272728,0.0703927055,-0.09389055,0.0143171819,-0.00241781329,0.180169642,-0.132058367,-0.00261732261,0.0298439,-0.08636395,-0.0103056123,0.187114537,0.122105196,0.0539603941,0.0890457556,-0.0495195,-0.0103298938,-0.161054835,-0.000383961276,0.0156533755,0.158646226,-0.0372724533,-0.0165144857,-0.19655025,-0.0251755,0.0222949553],"useBias":true,"func":2}},{"ClassName":"ActivationLayer","Content":{"biases":[0.08709152,-0.0624096,0.3752239,-0.309818149,-0.254512548,-0.3717477,0.43699652,-0.0526941232,0.2679269,0.291012883,-0.11129339,0.09425549,0.360650748,-0.217688218,0.06810754,0.127233282,-0.186285317,0.212026328,-0.1351933,-0.270097017,0.130631968,-0.013157323,-0.265643567,0.08100027,0.0309781339,0.0007049165,-0.0246195439,-0.2098724,0.06402468,-0.0447654948,-0.4193638,0.209962755,-0.2402648,-0.0235782415,-0.0328951664,-0.3116112,-0.183761165,0.295442015,0.09022463,0.0296591762,-0.200570032,-0.0461476855,0.0678195,-0.3581822,-0.300514251,-0.150213614,0.06739646,0.09917517,-0.03289603,-0.3738187,0.04607292,-0.0742841139,0.0915926248,0.3115004,-0.202342033,0.364323348,-0.177278787,-0.0502494574,0.00159369188,0.309044242,-0.135093063,0.317141771,-0.0160742532,0.05905359],"useBias":true,"func":2}},{"ClassName":"ActivationLayer","Content":{"biases":[-0.257079273,0.06159997,-0.130559742,-0.0481094047,-0.3606529,-0.123034477,0.7882267,-0.265783221,-0.0156151652,-0.3310343,-0.273381352,-0.165802,0.4760853,-0.5760397,1.39335477,-0.171793625],"useBias":true,"func":6}}],"Weights":[{"ClassName":"DenseWeightMatrix","Content":{"matrix":[[0.0529832952,0.00267812214,-0.0446351543,0.008827652,0.0117405374,-0.0139344977,-0.0286230166,-0.00432561,-0.0226716064,-0.0346729346,-0.0441107526,0.0336258672,0.00734732253],[0.0302399062,0.1417516,-0.0077928137,-0.00140507333,-0.08764461,0.0172931459,0.0470028073,0.007761038,0.0552180074,0.0303527173,0.10107559,0.0635365,0.0194974821],[-0.0163068771,0.04721416,-0.05617273,-0.0021894637,-0.0289203171,-0.004441099,-0.005581458,0.004343141,0.031067051,0.0402306132,0.03867005,-0.0179103632,-0.0132393716],[-0.00543524045,0.103160791,-0.01599094,-0.0119846556,-0.0102841547,-0.0292904489,0.01626313,0.0131034181,0.04825674,0.06802449,0.0896711946,-0.0547324419,-0.0376444459],[-0.05278968,-0.0714247748,-0.0048669,-0.0417123139,0.0294633135,0.0185047835,-0.00113679108,-0.0268979631,-0.0259210709,-0.0280208886,-0.08105823,-0.0152459973,0.0279248953],[-0.1278506,-0.0188918952,-0.04924154,-0.0132969981,-0.00689733541,-0.0270939749,-0.000219966561,-0.0475501828,-0.03537304,-0.0331704244,-0.0287390277,0.012703713,0.0139897838],[-0.0103296153,0.0686375,-0.0294061769,-0.007459236,-0.02485224,-0.0159241054,0.03206894,0.0325306021,0.05039221,0.06521449,0.08879227,-0.0209936574,-0.0391431376],[-0.012585151,0.114458151,-0.03036653,-0.0150407953,-0.0571637042,0.02504464,0.0694296658,0.0508706234,0.105593972,0.118072219,0.160069332,-0.0368107557,-0.02330818],[-0.0370830856,-0.00169581408,-0.0310172159,0.0103869969,-0.0149773732,0.00368889654,-0.0213087182,0.0159342661,0.00214672927,0.0075824433,0.0288447626,0.0817698,-0.008265403],[-0.0009956701,0.0195126813,-0.0627519861,0.011804021,-0.0162371621,-0.002136615,-0.0174295567,-0.00178416143,0.0254317075,0.0306416024,0.02202245,-0.0114728138,-0.009688322],[-0.0202790163,-0.103645951,-0.008474659,-0.033318907,0.03138428,0.02555534,-0.008816258,-0.0153835686,-0.03645879,-0.035070356,-0.08212686,-0.0201521982,0.0150512941],[-0.00968211051,0.109000377,-0.0289667416,-0.016739944,-0.05317794,0.008807281,0.0386576653,0.03100331,0.0961371139,0.0953798145,0.136238113,-0.0398555957,-0.0228711814],[0.0118773151,0.0155855836,-0.006802726,-0.0133795571,-0.027295962,0.01614763,0.04479317,0.03646923,0.0428369381,0.0476380959,0.07901567,-0.0227899626,-0.00767439138],[0.0366951,-0.0450368561,0.0604327172,0.01685809,0.0228438936,-0.0119593078,-0.00451758737,-0.0235468931,0.048392117,0.041256655,0.00389057165,0.08124739,0.00654095],[0.0919707641,0.08785459,0.008545792,0.0145109426,-0.04772647,0.0273453686,0.000112366833,0.0118664,0.0402256772,0.0288324952,0.07713812,0.09826487,-0.0299477689],[0.0396141335,0.119712614,-0.015119371,0.0336799249,-0.0511160046,0.00467197224,0.0324443169,0.04440529,0.0159918647,0.0326843634,0.0619807839,0.037278112,-0.0337074623],[-0.138313428,-0.0229080543,-0.008408312,0.02598886,0.0110945692,-0.005386483,0.002994315,-0.0484766737,-0.0241834186,-0.0131411795,-0.0347484238,-0.0207790732,0.00258305436],[-0.04602936,0.0496325456,0.00523729436,0.0039363564,-0.00403346447,0.00285462849,-0.0229617991,-0.01016329,-0.08577386,-0.07386483,-0.0279684812,-0.007053399,-0.0117961559],[-0.0118330438,0.06676919,-0.0318075158,-0.0111447992,-0.03753207,-0.00704611046,0.044376377,0.0229656547,0.06269876,0.06823545,0.106885292,-0.020228751,-0.0384685472],[0.009173362,-0.0259716138,0.00450936146,-0.00255916,0.007258707,0.009093283,0.0317714848,0.0139795961,0.0186169,0.0235179625,0.0282106139,0.004056236,0.0101665761],[-0.02510761,0.0546041653,-0.06610525,-0.0250996258,-0.0296222158,-0.00528488867,0.00288095279,0.00188231783,-0.0162490513,-0.005415475,0.0116485935,-0.108793914,0.00585012045],[0.00416046334,-0.0189008769,0.00283519924,-0.0009998826,0.00717137475,0.00178608415,-0.006167511,-0.00666244654,-0.004103703,-0.004371598,-0.0132854823,0.0057288534,-0.000210791681],[0.042810306,-0.00362962415,0.04250744,-0.08412861,0.108381562,-0.020459868,-0.0008313719,0.0391000025,0.100206353,0.08064431,0.0136066694,-0.102411635,0.0167777576],[-0.0723575,-0.0781322047,-0.016331777,-0.0126002654,0.02466336,-0.0223694909,0.006226055,-0.0484652556,-0.0457045771,-0.0299291778,-0.0481276326,-0.05561271,0.0175765771],[0.008012659,-0.085854955,0.03325458,0.0113308206,0.0273976028,0.008196369,-0.0362718776,-0.028915152,-0.0709029958,-0.08089464,-0.118534677,0.0224593822,0.04350629],[-0.0339233577,0.0401331224,0.0399427824,-0.0139058027,-0.0273490828,-0.005131631,0.02132175,0.008072679,0.00124627957,0.0116114048,0.04352246,-0.117050484,-0.00210495968],[-0.0492456332,0.0108036986,0.0248234831,0.00217979588,0.0198869761,-0.00303777726,-0.0226552058,-0.0240233559,-0.0487406738,-0.0472498946,-0.05641395,0.008813026,0.0186913945],[-0.011679709,0.0464856848,0.06482804,0.011414228,-0.0159108024,0.0101250531,0.008773831,0.0124858376,0.0199663714,0.0221442413,0.0429692827,0.0390697569,0.009184349],[0.102926552,0.0261748359,0.0109747676,-0.004584742,-4.504915E-05,0.016092902,-0.008804183,0.05080913,0.01340127,0.00591922272,-0.004456891,0.008657161,-0.0266459566],[-0.05092371,0.05540266,-0.06590304,-0.0200897213,-0.03320776,-0.00211399025,0.005771211,0.028739417,-0.0625897944,-0.0497109443,0.00440226775,-0.0872848555,-0.0147372978],[-0.0848494545,-0.09144875,-0.009821732,-0.0228923671,0.04443874,-0.0263086259,-0.004276181,-0.01564115,-0.03590735,-0.02511001,-0.06694653,-0.0804916,0.0209457111],[-0.0140624382,-0.102607138,-0.008181722,-0.01926715,0.07962071,-0.04214934,-0.04310764,-0.0316022635,0.00275669177,0.004541798,-0.0572861657,-0.0646693856,0.0237941239],[-0.05997959,0.04908009,0.04767915,0.0535674654,-0.005757179,0.00733032543,-0.034956757,-0.0302480981,-0.02979216,-0.0347870626,0.0009441579,0.0314557552,-0.01745928],[-0.00154512934,0.137741581,-0.01777889,-0.0192201752,-0.00395957427,-0.00293830037,0.0438280776,0.0358036347,0.0597048141,0.05803555,0.09360502,-0.07684676,-0.0370415524],[-0.036001306,-0.142895535,-0.008718155,0.05663226,0.0468629673,0.04504873,0.0282161515,0.00704275165,-0.0273597166,-0.0310035385,-0.0510122739,0.01724104,0.02882273],[-0.0104703289,0.00597011624,-0.08539648,-0.0678345338,0.0304274186,-0.002644107,-0.0183832813,-0.0178138074,0.0582983345,0.0485275351,-0.0477903076,-0.005116281,0.0331890956],[0.008021827,-0.05760161,0.0225954354,0.008882217,0.014701237,0.0103520807,-0.0135677075,-0.0283934958,-0.0376102254,-0.0473407842,-0.07572237,0.0196909681,0.020050887],[-0.0339175761,0.04679214,0.0326533467,-0.0207918137,-0.04132378,0.0349217281,0.0148058468,-0.0259612743,-0.037751846,-0.0411516763,0.007716531,0.0330126174,0.004978317],[-0.07136079,-0.0236379579,0.000297277584,-0.00445113424,0.00327645428,0.00218990538,0.004651014,0.0106945522,0.00208046869,0.009772781,0.00283933524,-0.0019668052,0.009058985],[0.126905471,0.0170905273,0.0416303352,0.0479551032,0.00723232236,0.001679908,-0.01783394,0.0181202944,0.07742217,0.06669291,0.06448045,0.0345076881,-0.00755593833],[-0.008874481,0.130908743,-0.0281082541,-0.0212208461,-0.05846317,0.017157292,0.04627799,0.04859749,0.111127168,0.115800522,0.167038023,-0.0393112674,-0.0165429357],[-0.00808141753,-0.0612809733,-0.00572742,-0.0187012069,0.01949604,0.01997676,-0.0038667575,-0.012494348,-0.0024562818,-0.003255156,-0.03070106,-0.009573241,0.00502123358],[0.03985788,0.00330798863,-0.00521530258,0.0329606757,0.0261056386,-0.041067645,-0.0120873014,0.0291721355,0.0584054776,0.0409708656,0.038665358,-0.007811239,-0.02565548],[0.01895399,0.106002368,0.00622273376,0.03281518,-0.03773416,-0.01573359,0.009898928,0.01990632,0.0354577973,0.035197,0.0749957561,0.0228490625,-0.0196313411],[0.008876631,-0.0289184079,0.0622511059,-0.00732924137,0.0146579482,0.0006522386,0.00619563553,0.00264414586,-0.0297056679,-0.0285939574,-0.0271726642,0.0171388444,0.0105725341],[-0.0575316548,-0.09757356,0.007161092,-0.02506966,0.04313712,0.00555053772,-0.042400036,-0.0345634259,-0.0282387137,-0.0456768163,-0.0608890466,-0.0493852831,0.0200497564],[0.001443332,0.0473248176,0.07605206,-0.0245193243,-0.0543511063,0.0251880717,0.0398399271,0.006258867,-0.0140021238,-0.004902378,0.0613371581,0.026243886,0.04995029],[0.009621765,0.09176929,-0.00142295787,0.009029395,-0.0816045552,0.0213063657,0.0504156835,0.0136084426,-0.0347271264,-0.03528333,0.06362128,0.104112051,-0.0237999633],[-0.0531878546,0.0548252948,-0.00107599678,-0.00106396014,-0.0564903021,0.0129126636,-0.00716208154,-0.0271341689,-0.109140068,-0.107317962,0.000349465263,0.004435649,-0.0156709347],[0.037380334,-0.01394045,0.0194693487,0.0195881855,-0.00339833717,0.00447662268,-0.00108619919,0.0167173427,0.0316632539,0.03181576,0.0240630228,0.0215615686,-0.007956753],[-0.0116594592,0.110631838,0.008666927,0.00126874272,-0.0540996864,0.018237194,0.03095281,-0.010851291,-0.0265324917,-0.0215956718,0.0551245734,0.0925772563,-0.02563491],[-0.0483913273,-0.00305857859,-0.008509097,-0.03920082,-0.008953298,0.0111281453,0.00639456045,0.00236401777,-0.0352601,-0.02830477,-0.00307331374,-0.008389701,0.00205206918],[-0.03522711,0.03594876,-0.0002022878,-0.0005706719,-0.0139209349,0.0143416682,-0.0116522191,-0.0180784315,-0.07638805,-0.0649124458,-0.0279973242,-0.003386605,-0.0115303611],[-0.0113925831,-0.106533758,0.0397058465,0.07355482,0.05031707,-0.00278913719,-0.0404487327,-0.005422144,-0.0544355,-0.0682452843,-0.0883960351,0.0222149082,0.0465934165],[-0.0144726941,0.0356459,-0.073767066,0.0133269578,-0.016701322,-0.00758018345,-0.0118151354,-0.0120634679,0.0396990925,0.0284621175,0.0330966562,-0.0304871909,0.00549366837],[0.0468325578,0.03174117,-0.0597543046,0.0160926022,0.045220688,-0.0183694288,-0.0378166772,0.005183439,-0.0146438619,-0.0263671912,-0.05955963,0.05672354,-0.03189],[0.03739631,-0.0351431631,-0.09120586,-0.009250549,0.0184007157,-0.008674366,-0.019502053,0.000631920353,-0.0013858903,-0.0153281456,-0.0211352818,-0.05349549,0.00163822423],[0.0168632064,-0.105453894,0.0379710458,0.00964195,0.0537730753,-0.0147110233,-0.06730323,-0.04395552,-0.109564833,-0.10914138,-0.1599231,0.0320685171,0.0511556379],[-0.0370444,0.0458365977,-0.06555897,-0.0177138671,-0.02224645,0.000114922943,0.005752425,0.0120317768,-0.05665451,-0.0373462252,-0.00147582183,-0.08990917,0.002810294],[0.08757157,0.0288124457,0.00136742147,0.00356527627,-0.00348708639,-0.000867327733,-0.00587795349,-0.0232165456,-0.00158420729,-0.0103866914,-0.00235796836,0.00164825341,-3.20877225E-05],[0.0134937093,-0.0610686429,0.06054156,0.00364100887,0.027307421,0.00112298224,-0.012767246,-0.0315718427,0.009807194,0.00382869737,-0.0310172588,0.08528822,0.027149573],[0.0236948747,0.163165525,0.007290584,0.0215785969,-0.0939581841,0.0165523253,0.009005116,0.0138448225,0.0608573854,0.0555962063,0.107990324,0.0806557238,-0.0388261154],[-0.0153007088,0.0402387045,0.0347636044,-0.053364072,-0.09645593,0.0101456475,0.0115623614,-0.020522099,-0.0425757356,-0.04749562,0.0233608,0.0491828881,-0.0315683074],[0.0146250073,0.091459915,0.003970146,0.0131081557,-0.04105773,-0.0164335165,0.0151618645,0.007559595,0.020122258,0.0201380365,0.0686809,0.0370591953,-0.0138490191],[-0.0432737023,0.0383433551,-0.004904155,-0.00578089664,-0.0385812633,0.0183208436,0.001467709,-0.0199878439,-0.08882476,-0.07319549,-0.05330778,-0.00635825051,-0.0203216448],[-0.0151726352,0.09902405,-0.118036285,-0.00115188712,-0.0669648,0.0132095851,0.08550574,0.0239745155,0.0545413233,0.07910955,0.09388754,-0.0394200757,-0.0560636073],[0.004761737,-0.09544957,0.0135755539,0.0103001026,0.0101168118,0.0235769916,-0.02535322,-0.0225244313,-0.0507649221,-0.06307561,-0.08397972,0.0497103259,0.0231645033],[0.0618819855,-0.04944386,-0.0522651672,-0.058003664,0.008539732,-0.008696603,0.04097075,0.0339669846,0.0463855937,0.04229897,-0.006244315,-0.0190901943,0.02456554],[0.0347710475,0.160754889,0.02471545,-0.0461295024,0.0003795759,-0.0399578363,0.006255712,0.014013757,0.0257247128,0.02744916,0.03987621,0.0061905277,0.006563704],[0.0347867869,-0.03183102,0.117944077,-0.0306182429,0.09189171,-0.0337375067,-0.04865809,-0.0259045549,-0.0115552656,-0.018671697,-0.0507366769,0.0575134,-0.01721959],[0.0492591038,0.168987364,-0.0274672881,0.05226758,-0.045177456,-0.0375379734,0.00203807116,0.0362804048,-0.00385629851,0.01006359,0.0566980951,-0.0211457331,-0.03100849],[-0.105020352,-0.0100857662,-0.0566259548,-0.02881344,0.00517766969,0.02943334,0.0136764292,-0.0151077732,-0.0343964361,-0.0200972874,-0.0232904758,0.0141175147,0.00621371251],[0.0594237819,-0.0503751934,-0.03440282,-0.05971093,0.0151141686,0.00861369,0.0494148768,0.03530838,0.0413659364,0.03061969,0.0115642073,-0.02557547,0.0237195846],[-0.0417476371,0.0533265769,-0.05938374,-0.0206965078,-0.02915221,-0.004977508,0.009937848,0.0266946629,-0.0470352322,-0.0364916027,0.007061359,-0.0849238,-0.0215781722],[-0.033297345,0.0272077844,0.0519090146,0.0193938147,-0.0121541852,0.00561266,0.0109070372,-0.008927478,-0.01624735,-0.002373211,0.0222218838,0.0210644528,0.00650623254],[-0.028390469,-0.0370548964,-0.08202378,-0.02920836,0.005196116,0.00587123,-0.0280533154,-0.0217639264,-0.03319065,-0.0143328011,-0.0455857553,0.0008666998,-0.009187748],[-0.0669412762,-0.0586085729,-0.03776009,-0.0261451155,0.0183576252,0.0378299244,0.00415420672,0.0134082232,-0.0310388189,-0.0209638476,-0.0579239763,0.0162245128,0.0192134473],[0.0164851453,0.08988711,0.005039551,0.0212541018,-0.04327931,-0.009397739,0.0128469234,0.01442843,0.022348335,0.0197103787,0.06936825,0.0269437358,-0.0100602433],[-0.0224292073,0.0352140777,0.0304422732,-0.00997232553,-0.03539048,2.1972899E-05,0.05860963,0.0198320467,0.02692008,0.0269575585,0.09723745,-0.09618408,0.009688098],[-0.0551654324,0.0122041879,-0.09190486,0.0416173674,-0.07820775,0.0230976939,0.03650362,0.0268765427,0.0106988251,0.019355936,0.063827835,-0.0555097125,-0.009642845],[-0.0504143164,-0.00473057665,-0.00440024259,-0.0289008729,0.008244708,0.00430039875,0.0137382075,-0.00703655276,-0.0294231474,-0.023899911,-0.0213290062,-0.00620505773,0.0101376157],[-0.02575164,0.05996372,-0.07480288,-0.0259757042,-0.0306066535,-0.00695954636,0.0008994553,-0.00799436,-0.0209670328,-0.0009212401,0.0116768526,-0.118429139,-0.0101000955],[0.07178473,0.02297953,-0.00164303882,0.00479913643,-0.00286401971,-0.005475231,-0.005028654,-0.008514298,-0.001263027,-0.01268811,-0.0104304133,0.00259139319,-0.00614292268],[0.0124952383,0.116740033,0.01052576,0.0388250053,-0.02061631,-0.0273068026,-0.009852495,0.0121485768,0.0515061654,0.0523054749,0.084550634,0.0122223785,-0.0344924442],[0.065800786,0.0218728129,-0.0007184309,0.00499161845,0.005534938,-0.00319853937,-0.01046765,-0.022166267,-0.000369848829,-0.00254831649,-0.0222980324,0.00456692232,-0.0032721865],[-0.0215578787,-0.103189863,0.00245437026,0.0399088338,0.03517977,0.0419438444,0.0150124067,0.0023838554,-0.0219164528,-0.0203437638,-0.0484293178,9.748604E-05,-0.007195101],[-0.08909019,-0.028752571,0.00272621377,-0.003884063,-0.00778281735,0.00027889348,0.0160007644,0.03197437,-0.0005420733,0.00905137,0.0177246444,-0.0042574,-0.001464413],[0.0465730429,-0.0292838011,-0.0473441966,0.0181477889,0.0203863531,0.0005796276,0.00517394952,0.007349649,0.030779941,0.0272637811,0.00752681866,-0.0474704467,0.00420346158],[0.0890315,0.0318549164,0.000162164652,0.008867107,0.03566345,0.0122439386,0.02838924,-0.008823712,0.0040801,-0.0022221976,-0.007565734,-0.0019457899,-0.00266625546],[0.157477215,0.04752886,0.0198795125,0.00495182537,0.0104136756,-0.009299471,0.00755801238,0.04972002,0.05460786,0.0429270864,0.05895354,-0.0007968826,-0.0200682636],[-0.0356479771,-0.114584446,0.05907554,0.06439842,0.0958595,-0.01831683,-0.1342111,0.0216065217,-0.08690312,-0.09186589,-0.137026161,0.012044318,0.121491991],[-0.030458549,-0.117344,-0.0112072611,0.0426982641,0.03339423,0.03432804,0.03928229,0.0020916725,-0.0253168624,-0.04085769,-0.05514147,0.0229773577,0.0237528849],[-0.04260735,0.00171959354,0.0114451759,0.004559685,0.009105461,-0.0168375,-0.0415851064,-0.0435179435,-0.06906805,-0.0632903,-0.07985531,0.00684899976,0.012421445],[0.0136214355,-0.125504628,0.005769924,-0.0708013251,0.0238913242,-0.009765268,0.041241724,-0.0121325636,0.0257364,0.0132140638,-0.005833624,-0.00380869419,0.0418277234],[0.1288982,-0.01853785,-0.0581989661,-0.0893108845,-0.0375315659,-0.00102523109,-0.0013470063,0.01630287,0.06712682,0.06821466,0.07876502,0.0356577821,-0.0593562275],[-0.0260141082,-0.0846703947,-0.00278040278,-0.0205178056,0.0329996124,-0.000397612457,-0.00687588425,-0.00853887852,-0.0332335681,-0.0258060768,-0.04466421,-0.0210337751,0.00119062467],[0.0048240507,-0.0287494455,-0.125054523,-0.0355771855,0.0473144241,-0.0314887948,-0.0459240749,-0.0101546124,-0.008864694,-0.02896702,-0.0677577853,-0.0578502938,-0.005493025],[0.0763670653,0.0122099034,-0.00228471775,0.0288390834,-0.02765515,-0.001356036,-0.01000873,0.0159807671,0.03578057,0.03688197,0.047789827,0.00284126261,-0.01201599],[-0.00132881769,-0.0592344627,0.0008336352,-0.01310049,0.00742863631,0.0117465742,0.0193567555,-0.0248868652,-0.0219776575,-0.0258733761,-0.04589315,-0.00310991961,0.0100533376],[0.09135992,-0.0204613619,-0.0474929623,-0.05604426,-0.0216970947,-0.01953547,-0.0118972855,0.0129686818,0.0554077439,0.0518488921,0.06328237,0.0388320237,-0.0470380038],[0.0778806359,0.02109299,-0.00501871249,0.00473518856,-0.009966748,-0.00943841,-0.000126677769,-0.000571751443,-0.00662061246,-0.0137077672,-0.0183611438,0.00251377327,-0.0100195641],[0.00769314356,-0.132415041,0.0237154625,0.0141996183,0.022932,0.00765944365,-0.03436476,-0.014856006,-0.063959755,-0.0725578144,-0.1113373,0.06966356,0.03564514],[-0.06645086,-0.0735439062,0.009008989,-0.09084703,-0.0194854811,0.0227329768,0.008001439,-0.03814383,-0.0570610575,-0.05479091,-0.06226874,0.0017248455,0.025713278],[0.0765261352,0.0229716748,-0.00377375819,0.00351266144,-0.00512074633,-0.00109803863,-0.00197620015,-0.008524308,-0.00715774437,-0.007099002,-0.016695017,0.00169338647,-0.0144874975],[0.0230710451,0.105573423,-0.00247877813,-0.0393525362,-0.04277368,-0.0330246873,-0.0233552568,0.003258226,0.03129916,0.03453329,0.05699903,-0.00291601964,-0.010083002],[-0.056816,-0.0128123937,-0.0675694048,-0.0109315878,-0.0231236815,0.0159263555,0.0169798564,0.030026773,-0.0500343852,-0.0471977927,0.0124572814,-0.008257024,-0.00343719963],[0.03478626,-0.02127982,-0.00377098657,0.0176391248,0.0354530439,-0.02029747,-0.00708482834,0.06320099,0.07259759,0.05741638,0.0285289548,-0.008127929,0.0168435853],[0.08583438,-0.0157718547,-0.00426219,-0.0109318187,0.0267685782,-0.0106320083,0.0291984659,0.0438581,0.0486507677,0.0364952944,0.0159162339,-0.0562802851,0.0114889452],[-0.00198925077,-0.04967674,-0.08550376,-0.0351794176,0.0457855538,-0.021308152,-0.0446121171,-0.0326170921,-0.0131295715,-0.009329825,-0.0695660338,-0.0330920033,-0.0167688541],[-0.0505053364,0.0525637865,-0.0005846267,-0.0008134908,-0.0463708527,0.015404352,0.0151067721,-0.00784313,-0.105682112,-0.09318209,-0.01414715,0.00116609409,-0.01885761],[-0.0136183146,0.08719863,-0.04395735,-0.0173597075,-0.05635963,0.0132732894,0.0906297,0.0329169855,0.09578351,0.123656817,0.14410013,-0.03391731,-0.07002824],[0.0118767386,-0.0114233689,-0.09167696,0.00556200556,0.03867911,0.0216177981,-0.0370019,0.0117552746,0.0003625888,-0.0116680292,-0.04312754,-0.0456572063,-0.013931199],[-0.011813038,-0.168557718,-0.00297391322,-0.00659903139,0.101889774,-0.00325907348,-0.0373265967,-0.0129509242,-0.0561443381,-0.04677426,-0.117333375,-0.116868317,0.05486681],[-0.0316695645,-0.129492924,0.00339889526,0.03147818,0.0435983874,0.0388867781,0.01199996,-0.00374609721,-0.0324134752,-0.04415427,-0.06659017,0.00423533842,0.00819657],[-0.00556730246,-0.093421936,0.017807018,0.0543841869,0.0164680779,0.0661674961,-0.007963952,-0.0171065275,-0.03131741,-0.0179507528,-0.03793586,-0.0412706956,-0.0123069966],[-0.08261438,0.08703996,0.00269402238,0.00128398708,-0.03381078,0.0151559068,-0.0103252269,-0.027962,-0.116119236,-0.106476031,-0.08251676,-0.00169318658,-0.0121908318],[0.01779259,-0.0109129883,-0.04176989,0.01469063,0.0518795252,-0.0173971057,-0.0744846761,-0.00501779467,-0.002207993,-0.02143773,-0.09339658,0.118865326,-0.0238929242],[-0.0744632855,-0.02329253,0.00227537,-0.00466238055,0.00458261231,0.00512469839,0.00500439666,0.00171087729,0.00449846871,0.009931201,0.0109344786,-0.00325543922,0.009430929],[-0.0469772443,0.0556401648,-0.0575223044,-0.0219746381,-0.03708397,-0.00375884864,0.009493023,0.0257239453,-0.0461448021,-0.0402620323,0.007915239,-0.08401784,-0.01478711],[-0.0244791042,-0.05517081,0.0605848134,-0.0100803608,0.0289989058,0.02320513,-0.004171456,-0.010856308,-0.0198602676,-0.0291256886,-0.04333415,0.0422421321,0.0239264667],[-0.0942322761,-0.0260198619,0.0177222323,0.00526505755,-0.0215026438,0.0118409013,0.0214693546,0.011602845,-0.002832776,0.007317378,0.0430730954,-0.0212853476,0.0257558133],[-0.00231193379,0.158715472,-0.0171673037,-0.0225680768,-0.0344703123,0.007899279,0.0557630658,0.0353480056,0.0563550144,0.06335905,0.107064955,-0.1036273,-0.0235479716],[-0.0276940521,-0.130849481,0.0202826485,0.008995601,0.06401493,-0.00306938635,-0.0253190789,-0.00467180973,-0.0346671045,-0.04731015,-0.07864856,-0.05209081,-0.006856388],[-0.0324744433,-0.131811708,0.0147765381,0.0175288487,0.0446737967,0.011570177,-0.07468405,-0.04270549,-0.08134898,-0.08445654,-0.152317628,0.09978147,0.00354303187],[0.06858063,-0.0530960634,-0.07253594,-0.00464455876,0.0116347028,-0.000114049952,-0.0123300953,-0.00278379722,0.07763853,0.06404918,0.0171847083,-0.07940679,-0.00528557831],[-0.1052147,-0.0270434991,-0.008852798,-0.0360051468,0.0531554334,-0.0159575846,-0.004180927,-0.0210626721,-0.0547542237,-0.0463663638,-0.06692014,-0.019276876,0.0233501028],[-0.0354023539,0.0529442132,0.03440562,-0.0337338261,-0.0809918,0.0226734411,0.0397123061,-0.0424230844,-0.060488347,-0.0450806357,0.0232526865,0.0333230123,0.0354681052],[0.007225873,0.09284256,0.0302501749,-0.0188506991,-0.07839349,0.0268314816,0.044417765,-0.0271727368,-0.03243366,-0.027238952,0.0463117361,0.0779846162,0.0273199]]}},{"ClassName":"DenseWeightMatrix","Content":{"matrix":[[-0.00460798,0.0143816248,0.0225252118,0.02141439,-0.0123851942,0.003142903,0.0163384862,0.0306565519,0.0158865843,0.0174528379,-0.0113913771,0.0307034031,0.0106383013,0.002578742,0.01817769,0.009429176,-0.00445844233,-0.0158187,0.0182524,0.00215972727,0.0119423466,-0.000134195856,0.009359892,-0.0155931739,-0.0217154231,0.0126627963,-0.0121972347,0.009657494,-0.007589698,0.00469928235,-0.0147836395,-0.0138846971,0.006546635,0.0284658223,-0.0125121586,-0.00411520246,-0.0115027558,-0.00401369063,0.007324691,0.0214495,0.0323911421,-0.002692489,0.0107138464,0.0120914094,-0.0143452659,-0.0125025287,0.0136016,0.009664227,-0.0126925716,0.004089622,0.00287389918,-0.0013783169,-0.0145895528,-0.0164577067,0.022261709,-0.0107456651,0.002119498,-0.0265331827,0.002084751,-0.0132891592,-0.0107071809,0.02029341,-0.0012363689,0.00307319756,-0.01869414,0.0256365743,-0.01849613,-0.00778391026,0.01462156,-0.0263924357,0.010288029,-0.003087661,-0.005291524,0.007991729,0.001294658,-0.0151283629,-0.008860784,0.008439549,0.0145261846,0.022573851,-0.00471041864,0.0116040036,-0.008438928,0.0175540484,-0.0104903374,-0.009011422,0.0217400547,0.00528565049,-0.0175069086,-0.00196947949,-0.039429456,-0.0120910481,-0.0180641562,-0.004265038,0.027982939,-0.00758907152,-0.0128876623,0.00719891069,-0.005217006,0.018856477,-0.0186340474,-0.0202559624,-0.0231616814,-0.0202185735,0.004905969,0.0119211022,0.0115874829,0.0124123087,-0.0121368822,-0.0136069823,0.0280232746,-0.006088051,-0.02505933,-0.009817043,-0.01443391,-0.0236013755,-0.0193320345,0.0163562447,0.005600418,-0.005361436,0.0226853658,0.0322943777,-0.0126999263,-0.0400677845,0.00709379045,-0.0113854045,-4.699736E-05,0.005687449],[0.00200829585,-0.01108947,-0.006857829,-0.00173852814,0.00592064252,-0.01089941,-0.008272718,-0.0137404958,-0.007913138,-0.002565949,0.009135556,-0.007303323,0.001155396,0.005965229,-0.0140259732,-0.0155270752,-0.005627543,-0.0123418337,-0.00654056063,0.0009828075,-0.0150607219,-0.00257935235,0.0207633823,0.00981764,0.004383662,-0.00827307347,-0.0005456092,-0.006046314,0.00623645261,-0.0125198131,0.0154827638,0.007879872,-0.008543154,-0.007098484,0.00795683451,0.0122014154,0.000428040745,-0.0115655418,-0.00167978194,0.00107805256,-0.0174076986,0.00386128249,-0.00121494045,-0.0123997042,0.00296733668,0.0072810445,-0.004683718,-0.0149302529,-0.0214556,0.004734191,-0.01817145,0.001547196,-0.00725576747,0.006303244,-0.0008343488,0.00279171,0.009304408,0.0115949707,-0.008759125,0.0134659009,0.0145489061,-0.01734647,-0.0165800638,-0.008494829,-0.009183035,-0.0150939012,0.0063955,0.0127083277,-0.00372173451,0.01823208,-0.0185348727,-0.00648285961,0.0164600071,-0.0135746039,-0.00170951919,6.789007E-05,0.00360034662,-0.00700162072,-0.00759065337,-0.01352899,0.0021338705,-0.0136019029,0.00258492259,-0.007223668,0.0006001857,0.008232312,-0.0121990694,0.0050758617,0.00942403451,0.0161258634,0.009134492,0.00205212436,-0.00130226137,0.02346556,-0.00701873424,0.00471679261,0.0126570463,-0.006041336,0.007414398,-0.0106761074,0.008083801,0.00667145662,0.0070740073,0.004634092,-0.009423569,-0.010633219,0.002530485,0.008196929,0.005856265,-0.009905741,-0.009477871,0.0102564823,0.0266705081,0.00646676077,0.0103467554,-0.02093913,0.007459276,-0.007860385,-0.0100644259,0.000536570267,-0.007365485,-0.0116634788,0.0128514962,0.01370802,0.01588626,0.007656052,-0.01649359,-0.0196755249],[-0.00180554,-0.009745317,0.00714735361,0.0021681143,0.00246032351,-0.02688179,-0.004982005,-0.0135706021,-0.00447823852,0.00388995581,0.008027802,0.00172396039,-5.62098321E-05,0.0214118287,-0.009303456,-0.00503515825,-0.0184045713,-0.02867012,-0.009076414,0.00719681848,-0.022061944,-0.0008183279,0.04683647,-0.00712442258,-0.000278838619,-0.0151661206,-0.00184189389,0.005273421,0.0204787012,-0.0317150019,0.00655390648,0.00813199,-0.0121299392,0.000545440649,-0.003462402,0.018759286,0.0013141369,-0.018403383,-0.005587128,0.0271677524,-0.008159708,0.00566527527,0.0150840152,-0.0103977015,-0.004957813,0.00248159142,-0.0123572238,-0.0287592784,-0.0459554568,0.00719862757,-0.0277738813,-0.008469463,-0.0230284259,0.00630142167,0.00672788825,0.00663769338,0.0109986868,0.00638001459,-0.028621465,0.0190357715,0.011803166,-0.0167072378,-0.0248799846,-0.00848261,-0.0367534235,-0.0143655241,-0.003043538,0.0209749434,0.0211735722,0.013026596,-0.0191430338,-0.019992372,0.0173521526,-0.0266039781,-0.00672356971,-0.0203264616,-0.006256116,-0.00499975774,-0.00149441441,-0.0114973234,-0.00724009844,-0.027368404,0.00965689,0.002137029,0.005392653,0.00450687343,-0.0154167246,0.013338916,0.01606361,0.0402986929,-0.00220953,-0.005527628,-0.013771032,0.0238650553,0.002000831,-0.004009651,0.009165435,0.00122728467,-0.00593944453,0.00186713785,0.009840829,0.00340449321,-0.018536415,0.00444523664,0.00256155618,-0.01839761,0.0249615721,0.0188639369,-0.00588664552,-0.0400715545,0.00127819739,0.0113884443,0.0284051429,-5.279175E-05,0.002437957,-0.0506442152,0.0134754237,-0.0068572727,-0.024763966,0.00363911549,-0.0189473722,-0.0009819499,0.0111062406,0.00477831066,0.0254075043,-0.00308142183,-0.0295856632,-0.0291282032],[-0.0030015735,0.0161669552,0.01804178,0.0175208114,-0.012876451,0.0003133379,0.0142332818,0.0256481729,0.01383763,0.017714072,-0.0120452782,0.0233577788,0.007537063,0.004266096,0.0168628283,0.01366613,-0.004327398,-0.0116565283,0.0131997513,0.00138591917,0.0143718589,-0.0009957176,-5.3608197E-05,-0.0184720214,-0.0185499378,0.01256235,-0.008626285,0.0118775545,-0.007738172,0.002532516,-0.0193733536,-0.0169838,0.01051232,0.0241187289,-0.0148845073,-0.00315755582,-0.0054085697,0.002159118,0.008833677,0.01971602,0.03100635,-0.00317422277,0.0102449153,0.01631223,-0.01827427,-0.0117416987,0.0117275,0.0136170285,-0.00522984751,0.007529644,0.0115554379,-0.00454920251,-0.0112680942,-0.0117901349,0.01785724,-0.00486910576,-0.00114620279,-0.0265834164,7.979676E-05,-0.0170155577,-0.0112603493,0.0225224886,0.003414693,0.010130452,-0.0154404966,0.02090924,-0.0156547483,-0.0093045,0.016244635,-0.02162955,0.0104900505,-0.00045636986,-0.009332433,0.00326768565,-0.0008632005,-0.009196338,-0.0151763549,0.01050024,0.0134182321,0.01971023,-0.00598286558,0.0154778743,-0.00769586163,0.0204038471,-0.00466263061,-0.0115382141,0.0199121684,0.00288069644,-0.0145317279,-0.00373243075,-0.0292229038,-0.008289639,-0.0151508376,-0.007795624,0.0271191448,-0.0113045732,-0.010614573,0.009318605,-0.0124890218,0.01861546,-0.0174013283,-0.021694148,-0.0255367272,-0.0142230792,0.01247182,0.005787369,0.0100539513,0.006037339,-0.0137440749,-0.00540725375,0.0256546121,-0.00171961566,-0.0321461372,-0.009289841,-0.0125376107,-0.0188261382,-0.0076256,0.0138639417,0.00913669448,-0.00164834026,0.0216278359,0.02552224,-0.0140866442,-0.0276841186,0.00139088428,-0.0102519421,0.00382219185,0.0144354543],[0.00102788815,-0.004492427,-0.00236854935,0.007854544,-0.005172216,-0.0173539687,0.0008633761,-0.002816852,0.002719479,0.006551282,0.00363297272,-0.00143584015,0.00377668161,0.0198058728,0.004452224,-0.00303521077,-0.02265001,-0.0186866112,0.000587064133,0.00447602663,-0.0122055961,0.00363721,0.0252381433,-0.0116850529,0.00031902123,-0.008204848,-0.0122895166,0.00298542855,0.0179076139,-0.0185086187,-0.00586009724,-0.0013051735,-0.008378336,0.00626233127,0.002088006,0.005351056,-0.0017605453,-0.0169120617,-0.0105902152,0.0253043137,-0.006701631,-0.003560606,0.0153922532,-0.00597380474,-0.003102343,-0.00320050772,-0.00375598622,-0.0155801326,-0.0294598453,0.007870875,-0.01780195,-0.0105614392,-0.0150235435,0.004401248,0.00620995043,0.0005956672,0.0061959154,5.939124E-05,-0.0188734513,0.0158492662,0.0111108264,-0.007521805,-0.0126370369,-0.001971153,-0.02256001,-0.007736902,-0.004557013,0.0121220425,0.008515818,0.00655681128,-0.00828892551,-0.0190010555,0.0136504658,-0.014790942,-0.00528412,-0.015797589,-0.0122129424,-0.00211502961,-0.000151458866,-0.00309588946,-0.008795384,-0.0185607541,0.009397631,0.00704783155,0.00491601,0.00147453044,-0.0136543578,0.008290414,0.0125800595,0.0296861175,6.07929032E-05,-0.005864395,-0.0159761384,0.0141231166,0.0102914628,0.00031756924,0.00343695213,0.009708404,-0.00139776058,0.00489206426,0.005663372,0.004819214,-0.0219634548,0.00343670812,-0.00195423537,-0.007185724,0.0194340628,0.0161030125,-0.00339268078,-0.0287310723,0.00195508613,0.00380126038,0.009166996,0.005197364,0.0016962284,-0.0339482352,0.00176357117,-0.01222304,-0.0159079265,0.00458964752,-0.00504431874,0.00301084062,0.00768863736,-0.009123909,0.0202372372,-0.005280689,-0.0184230879,-0.0144397467],[0.00274594547,-0.000831188634,-0.002651255,0.00717672426,-0.008459646,-0.0168401729,0.0004644788,3.214111E-05,0.007532212,0.004515491,0.00316822832,0.00147220085,0.0117613813,0.0066080126,-0.00119879749,0.000762343756,-0.014737688,-0.0162802339,0.00108502188,0.003549066,-0.00999612547,0.00206526648,0.0243596714,-0.00726760225,-0.00353247416,-0.00104008825,-0.009309584,-0.00172176526,0.0090023,-0.0123749282,-0.006070419,0.002897365,-0.009327865,0.00753590325,0.00146206992,0.00237723067,0.0004759691,-0.0162365027,-0.009899849,0.0259894785,0.006116433,0.004299038,0.0123674367,0.00115411764,-0.00324271549,-0.00040701867,0.0026335055,-0.009046245,-0.02477141,0.00668357871,-0.01265749,-0.0109056486,-0.0138864182,-0.002789759,0.00111959246,-0.00142322818,0.00628718641,-0.00383362034,-0.0148342447,0.006467786,0.00268841069,-0.006721427,-0.0147909084,-0.000385030784,-0.0220145527,0.002399836,-0.00148991018,0.00783869252,0.00366690313,-0.00258183782,-0.00706816139,-0.0144180739,0.0112141054,-0.008428194,-0.007138711,-0.0117171211,-0.0136012286,0.00314209075,0.004532367,0.00267721829,-0.009557705,-0.01144615,0.00441307062,0.00576502644,0.00448426744,0.0015355167,-0.00321173761,0.0122870244,0.00719814049,0.02049309,-0.00600148132,0.002290498,-0.01705198,0.0135143837,0.0137923649,-0.0015085371,-0.00132625946,0.0119337635,-0.00242086174,0.009249823,0.0022165603,-0.00298123132,-0.0139731467,0.0002662316,0.00174153654,-0.008562712,0.01628178,0.0156469233,-0.005627607,-0.0214195121,0.00691270176,0.001219574,0.00420419965,0.00358763477,0.00157433073,-0.0298362374,-0.009494834,-0.0079652,-0.0113315582,0.00235751574,0.00397387426,0.0113962675,0.005617384,-0.0154255126,0.0214395579,-0.0120347943,-0.0137041,-0.00822375249],[0.00467757974,0.0140293334,0.00198730268,0.000349833048,-0.01610363,-0.00130145159,-0.000159358009,0.0125390282,0.00556749571,0.0005573514,-0.0173420515,0.00747810351,-0.009340948,0.00693326024,0.01936719,0.008599941,-0.00725345034,0.00649472559,0.00271746586,-0.01009277,0.00262427633,-0.004551507,-0.00724563934,-0.0106151169,-0.00391376065,0.000547082047,0.00163161859,0.007865245,0.008909012,-0.00659463042,-0.0125853317,-0.00513317762,0.00669677928,0.00603049761,-0.0143152783,0.00298249745,-0.00545324851,0.01190328,-0.006189429,0.0114291618,0.006181703,-0.011880435,-0.00160898909,0.0146256164,0.000127224,-0.004310891,-0.004517963,0.0100500332,0.004883013,-0.00233112276,0.0103076324,-0.009139663,0.0009768852,-0.00205730484,0.00564237451,0.008482401,-0.004928733,-0.010844877,-0.0006305501,0.0111421375,0.00255720387,0.0209396649,0.009697951,0.01656836,0.00246143248,0.002740443,-0.00451880973,-0.00752733462,0.0140457777,-0.00241877465,0.00719022565,-0.00640713843,-0.0102763344,-0.006984469,0.00187778182,0.005616584,-0.009539455,0.009173483,-0.0072198743,-0.00123564829,-0.0108822836,0.009487228,0.00446476927,0.0166264176,0.006677472,-0.0157290343,-0.009845263,-0.00771209458,0.00143969664,0.000135530616,-0.0050601135,-0.009382547,0.00774157466,-0.0148360189,0.00408685952,-0.01203437,-0.00450431742,0.0049543865,-0.008798133,0.007247401,0.009659987,-0.00101116428,-0.0129139451,0.0109106582,0.014077343,-0.0033502283,-0.0062681,-0.0106483158,0.00357259321,-0.004131866,0.00101150211,0.00131910876,-0.0206606612,-0.009145274,-0.0215376262,0.007182382,0.0108254487,-0.006566549,-0.004120981,0.0005525812,-0.0165803581,-0.0002053721,-0.013826699,0.00140167843,-0.00722152973,-0.0138941854,0.00279139588,0.0131884888],[0.00617121859,-0.005401644,-0.007618298,-0.0125648621,0.00216528913,-0.006189893,-0.009448781,-0.0109435264,-0.008380252,-0.00259176618,-0.00322807231,-0.0123148495,-0.009650004,0.0100588277,-0.00312184542,-0.008048858,-0.0100383544,0.00413044076,-0.00578004867,-0.00375506538,-0.00725027453,0.00258828187,0.00123787124,0.0001716612,0.0102764154,-0.0154580893,0.006958627,-0.00206414261,0.0130549418,-0.0153664909,-0.00352744455,0.005854042,-0.005542013,-0.0104996506,-0.00402848842,0.005115443,0.00421019644,-0.000535108964,-0.0123097086,0.00312322332,-0.01023833,-0.00374832028,0.00023627888,0.0005427671,0.00459518423,0.004418283,-0.0101062637,-0.00960984547,-0.0129316691,0.0006021,-0.00291091483,-0.009984996,0.00137817673,0.008332555,-0.00264247414,0.00714891357,0.002164276,0.007861776,-0.009712365,0.0145214824,0.0165514722,-0.005157273,-0.004688079,0.0024055508,6.78040742E-05,-0.015073101,0.009597156,0.0009856343,0.00504819769,0.0126252957,-0.0054533896,-0.0110211251,0.00111605343,-0.0155682378,-0.00379781378,0.008691865,0.00159297872,0.00468315138,-0.0153097091,-0.0115819424,-0.0113156652,-0.0103766536,0.01567305,0.00354264979,0.0130874179,-0.00145956129,-0.0155507028,-0.00421956647,0.00879537,0.0105258515,0.01571455,-0.002110942,0.0131431278,0.00351724052,-0.00434634974,-0.00191341271,0.00271325046,0.0006961405,0.00239915051,-0.004364327,0.0152148586,0.01687776,0.006586888,0.01778026,-0.00195681979,-0.009234928,-0.000901983469,-0.00174968073,0.00637527369,-0.0145989181,-0.0139050633,0.00573798828,0.000785769953,0.00468031,0.000873937737,-0.0025514497,0.0227734111,-0.0146316923,-0.0167266447,0.0013789041,-0.0230849888,-0.0171024911,0.00682653533,0.0220966525,0.007340939,-0.0019258653,-0.0144695714,-0.00639659353],[-0.0110219922,0.00497093424,0.00617009448,0.006201426,0.00757860346,0.0216095764,0.00198136712,0.01066668,0.00499697542,0.004474731,0.000905875466,0.00805204,0.0106479516,-0.0262097046,-0.00259968266,0.0121371653,0.0195335671,0.0132232057,0.00488998927,0.00668685138,0.0155501431,0.0008217803,-0.0227410644,0.0061243074,-0.00797272,0.0164473318,-0.00278891833,-0.00313715963,-0.0235996041,0.02583518,0.0005650435,-0.0100103533,0.007308681,0.0132342055,0.008067257,-0.0159167014,-0.0074431044,0.004669166,0.013154828,-0.0171295553,0.0128111122,0.007439333,-0.004892388,-0.00216109538,-0.0003505432,-0.002120667,0.0123150535,0.0142535549,0.03098618,-0.00604937738,0.007509503,0.0136685371,0.0136328274,-0.007822102,-0.00282649742,-0.015979046,-0.00142210838,-0.0122545613,0.020654222,-0.0271099582,-0.02131587,0.006093951,0.009233959,-0.0005778619,0.0139390063,0.0247723833,-0.00762079,-0.0101880049,-0.0190997161,-0.0239940267,0.0209975261,0.01785825,-0.008036406,0.0205133986,0.000837634667,0.00396515,0.0106155863,-0.00242847786,0.0180865023,0.015784312,0.008020307,0.0174785219,-0.0172032043,-0.00395901827,-0.0169501733,0.0084758,0.0298382118,-0.0007593509,-0.01773673,-0.0250228178,-0.0178360548,0.002331241,-0.00366522488,-0.0136620542,0.00378902676,0.008623633,-0.003166038,-0.008242605,0.00478996336,-0.0007544266,-0.0223958455,-0.0151303811,0.00723688537,-0.0165676381,0.00140377821,0.0202403646,-0.0166874863,-0.005232934,-0.007687475,0.0259165466,0.0103518777,-0.00191678584,-0.00504860329,-0.00112888659,0.00313013536,0.018655723,-0.0206839535,0.0194126926,0.026021041,-0.0048410017,0.0288387127,0.0192497075,-0.006852948,-0.0207608,-0.01815944,0.004945093,0.013282354,0.0190932676],[0.00151740084,-0.0008578314,-0.00394884171,-0.004955429,0.00153622008,-0.00272976863,-0.0040784725,-0.00397575274,0.00151053106,0.00374160288,-0.0008269182,-0.003954021,-0.000395738374,0.008521201,0.002470853,0.002142847,-0.006397816,-0.00572145823,-0.00120004464,-0.00454142643,0.0005664819,-0.00318532926,0.004086838,-0.000151300672,0.00309996144,-0.00182103773,-0.004548718,0.00151839224,0.00761868432,-0.00598107232,-0.004951271,-0.00169594667,-0.00255554146,-0.00123361452,0.00296917628,0.004347878,-0.00321358955,-0.000374664785,-0.00637403876,0.00812952,-0.00155659835,0.00117441884,0.00642388267,0.00358142448,-0.00283186743,0.001033839,-0.00265956949,-0.00459327037,-0.00291150576,0.00236724922,0.00237512239,-0.00750298565,-0.000975042,-0.00165248965,-0.0007009818,0.00482870173,0.00229752786,-0.00017677834,-0.00276247342,0.00432012463,0.0016911471,-0.00254852977,0.0004132327,0.001974881,-0.00358392042,-4.32801025E-05,0.0034700036,0.00157176959,-0.00117970828,0.00652126828,-0.000102855141,-0.0041189664,-0.00162830739,-0.00642432645,3.86219181E-05,-0.00386716076,-0.00166121265,0.0024684018,-0.00128634693,-0.003550416,-0.005777225,-0.00358301448,0.008274495,0.00423370348,0.00753159169,-0.00389852142,-0.00532219652,0.000202063355,0.0008819622,0.008597374,-0.002092604,0.002781765,-0.00314240716,-0.000967225467,0.0042566373,-0.00139334367,0.000312406977,0.005958282,-0.00420963624,0.00292134867,0.004265568,0.003130307,-0.007199346,0.00232503726,-0.00216488587,-0.002071918,0.002350506,0.00191866665,0.00286002248,-0.00424639229,0.000859804044,-0.00245834142,0.00160596427,-0.00121665432,-0.00387457525,-0.00425609155,0.005983884,-0.008485515,-0.00689223967,0.0004007714,-0.004057269,0.00105839141,-0.000760011841,-0.00133988261,0.00254714652,-0.003872192,-0.006136384,0.0012570424],[-0.00772797735,0.00128409523,-0.00162470667,-0.00103825645,0.004366774,0.0187915154,0.00304260175,0.009123252,-0.001751044,-0.00392840663,-0.003763026,-0.00251022726,-0.00403823564,-0.0236928612,0.00112825271,0.007106234,0.01860682,0.0198898856,0.0008046061,0.000221791939,0.017032709,0.00118261983,-0.0259123556,0.008165055,-0.003601133,0.01544265,0.00256831013,-0.00508194137,-0.0215957165,0.0232044738,0.004155561,-0.00651718024,0.0102394475,0.00243618386,0.00199367572,-0.007398787,-0.00264503248,0.015168502,0.008140053,-0.0252963472,0.00627438957,0.00488968333,-0.01607095,0.00157959014,0.00100675714,0.00329814269,0.003338917,0.0112461066,0.0310936,-0.005869304,0.0136437025,0.009170253,0.01377235,-0.006905578,-0.0004045811,-0.00830864348,-0.00255008182,-0.002414926,0.02017845,-0.0187964,-0.0122574419,0.0066295336,0.0144590773,-0.003666642,0.0176181346,0.0127929281,0.00016135069,-0.0121767335,-0.0149975671,-0.0107200965,0.0101411594,0.02056726,-0.009830031,0.0181568358,-2.04551088E-05,0.008967325,0.0129415644,-0.00542108156,0.009252545,0.0124061815,0.0121946624,0.01594851,-0.008578322,-0.005979138,-0.00727971876,-0.00493608555,0.0181183387,-0.00643636752,-0.0116168475,-0.0292977169,-0.0006222699,0.00199265429,0.004502444,-0.0169589333,-0.00348370546,0.005165834,-0.00103758066,-0.00733632362,0.00124173053,-0.0052094846,-0.009273956,-0.008033995,0.0106089711,-0.0141495718,-0.00374250766,0.0111614252,-0.016388787,-0.007324526,0.00135417527,0.0246828,0.007074761,-0.006289735,-0.0122254668,-0.0008144503,-0.002598022,0.0299403127,-0.00556371827,0.008597296,0.0172173716,-0.00764458673,0.0187446345,0.00532780774,-0.005064453,-0.00302880327,-0.0189634636,0.00738914125,0.0197809674,0.0153247267],[-0.0051447,-0.009615631,-0.0009321835,-0.008540314,0.0134423887,0.0118150506,-0.00605311338,-0.00328734936,-0.009217338,-0.003187074,0.0114873908,-0.01115896,-0.00186783285,-0.013404428,-0.01754363,-0.0009530799,0.0212824773,0.008265237,-0.00452559534,-0.00252583437,0.005760173,-0.00269280816,-0.0106170876,0.0134991454,0.00263568945,-0.00147576572,0.01097686,0.00281730085,-0.008849001,0.0119298967,0.013897853,0.002905682,-0.00650873873,-0.008446548,0.00637567,0.0128557319,0.00031052198,0.002932289,0.0124202184,-0.0263590328,-0.005343811,0.009211784,-0.0125523452,-0.009843411,0.004022829,0.007640878,-0.004524007,-0.00415955065,0.008728234,-0.00706454,0.00143767812,0.009396653,0.0120973624,-0.000259495282,-0.009684809,-0.000438155141,-0.0013352856,0.006978002,0.009248089,-0.0133089488,-0.007995602,-0.0116683692,0.00621720869,-0.005994653,0.0104509611,0.002565556,0.006528482,-0.0003087054,-0.0146526191,0.004335833,0.004482259,0.0204506218,9.450285E-05,0.00779086,-0.00193633849,0.0161067937,0.0219129529,-0.009194755,-0.006427193,0.00178276841,0.0115184607,0.00135856029,-0.0117918365,-0.01130423,-0.0119559979,0.0038507455,0.01045736,-0.00106263615,-0.0101697929,-0.0208481587,0.009742167,0.0104902619,0.00629961072,-0.004965205,-0.0154544674,0.0140213938,0.009956194,-0.0173557159,0.007379279,-0.009642278,-0.0053183944,0.004481974,0.0228078775,-0.00283011887,0.0007419283,0.00549108256,-0.0156463515,-0.00457697734,0.006943969,0.0100312652,-0.00127188361,0.00255719922,0.009306634,0.0009117118,0.00478916476,0.01871772,0.0036972966,0.00535456231,0.005330722,-0.00374575984,0.005168162,-0.00427677948,0.000661757949,0.01660962,-0.0138602229,0.0184253976,0.00170527631,-0.00470946776],[-0.00105748558,0.004535386,0.00143570616,-0.00520919729,0.00400379626,0.0278392266,0.00102692633,0.0127879195,-0.00263263565,-0.00197554636,-0.0011878513,0.00594631257,-0.00216472661,-0.02175744,0.00505879335,0.0091732,0.0193679575,0.025810618,0.008255876,-0.00365047087,0.0206281673,0.00375971152,-0.0332626365,0.0115653351,-0.00280755642,0.0166312326,0.005099721,-0.00692600338,-0.0229768362,0.0281229485,-0.00100942119,-0.00279029249,0.0106178187,0.000336795783,0.0033881166,-0.0169536769,-0.00468506757,0.0169520173,0.00744952448,-0.03166127,0.009750549,-0.0026170318,-0.0192369167,0.008678251,0.00554026,-0.00233311579,0.01139638,0.0254830569,0.0449763,-0.009028892,0.0190275647,0.0119546158,0.02405149,-0.011139865,-0.0024262052,-0.00557195768,-0.008875038,-0.005177149,0.0290750563,-0.0199018158,-0.0190043729,0.007112541,0.0195860527,0.005054048,0.0311205536,0.0172490664,0.00106546585,-0.0162464362,-0.02000373,-0.0128420405,0.01522206,0.0224581342,-0.0123171955,0.0202506837,0.0008616048,0.0133055346,0.007559313,0.00217013946,0.0106499661,0.0147731211,0.0107710138,0.02271641,-0.01057029,-0.00512279756,-0.006659548,-0.00129706261,0.0216219835,-0.00581434229,-0.0156306066,-0.037387155,-0.006167903,0.004279907,0.00948746,-0.0190751124,-0.002929798,0.0065098824,-0.00916223,-0.00394612551,0.0067159296,-0.00576898828,-0.008691254,-0.003110234,0.014863098,-0.008017399,-0.00299464865,0.0196381062,-0.0219413545,-0.0165033061,0.003284729,0.0380172,0.00481626671,-0.008984667,-0.019016305,-0.003768674,0.00211599329,0.0439064726,-0.0148910973,0.006436846,0.0264373962,-0.004752627,0.0167451035,0.006437107,-0.0102283293,-0.00506801065,-0.0272433124,0.00325905741,0.0259872228,0.02314553],[-0.001561109,-0.0199748,-0.008717546,-0.005743886,0.009954518,-0.0015583582,-0.00142827129,-0.0103714587,-0.00328586088,0.0005969757,0.0189925153,-0.0117541812,0.00228182133,-0.002702637,-0.02109199,-0.0100573618,0.00347842742,-0.0105107008,-0.00591391139,0.013575729,-0.0106579587,0.00203809515,0.0185433086,0.012481642,0.006791763,-0.00389688532,-0.00468530832,-0.00657526171,-0.0010454834,0.00383493141,0.0161494948,0.012044305,-0.0156772211,-0.000559012464,0.0162062049,-0.0006355493,0.003291242,-0.011951305,0.00213077944,-0.00296322536,-0.01440654,0.0133389756,0.00138301472,-0.0120423241,-0.00216476712,0.00817528553,0.00255186041,-0.009320587,-0.015110109,-0.00175414584,-0.01745374,0.00732890237,-0.008942894,0.00468757,0.00051195,-0.00114861224,0.008572198,0.0141829867,-0.00632663444,-0.00300260237,0.0008368967,-0.0234435834,-0.0110881645,-0.0161742251,-0.00319557986,-0.0103732608,0.00604840275,0.0144644864,-0.0105867535,0.005006662,-0.0141899362,0.00695545366,0.0112053249,-0.004091733,-0.003518889,-0.00341996667,0.0104747061,-0.0139958635,0.00151914684,-0.004328742,0.0104767969,-0.009889984,-0.000206278521,-0.016183354,-0.00600079866,0.0144500649,0.000441119715,0.009863896,0.00266166148,0.007817182,0.007274162,0.0124034751,-0.00633226242,0.0160353836,-0.00700805243,0.01575065,0.005967576,-0.009951396,0.01343668,-0.0105050039,-0.00527836848,0.00507166376,0.0116709163,-0.00625715172,-0.009785033,0.00394153828,0.004740181,0.0118474234,0.0007331879,-0.00200321153,-0.00604667841,0.0073570027,0.0264995657,0.00974791,0.0187769,-0.0197938234,-0.00459277257,0.00577708241,-0.00198460114,0.00167963654,0.008204572,-0.00236877427,0.009072006,0.00494910451,0.0135457935,0.01021217,-0.008069516,-0.0150272725],[-0.000184710472,0.0178658534,0.0109696994,0.009267281,-0.0200108737,-0.00568978349,0.009043647,0.0170979574,0.00847709551,0.005058393,-0.0134422472,0.0136359707,0.0028764056,0.00607031258,0.0180485044,0.007495115,-0.01195708,-0.0035687515,0.0103851408,-0.00237082643,0.00484626926,-0.00330787827,0.00224553584,-0.0180356521,-0.0120858187,0.00264748977,-0.0040523503,0.004095486,0.001835952,-0.00713475235,-0.0131609645,-0.0115690334,0.01349062,0.0143635636,-0.009898986,-0.006031996,-0.009630499,0.00332109071,0.00322474958,0.0247960091,0.020563893,-0.0128772194,0.007904647,0.0114656733,-0.006697855,-0.0126607455,0.0104366131,0.00790178,-0.0039483523,0.0035653857,0.007701721,-0.006497686,-0.00683695124,-0.003403438,0.0135475351,-0.00262954179,-0.002458615,-0.0185165331,-0.00498470571,-0.00326951453,-0.00491946237,0.0225015469,0.00413482,0.009162435,-0.008369272,0.00610181363,-0.0108016636,-0.005133449,0.0183388386,-0.0128976628,0.003054853,-0.00374309253,-0.00205555744,-0.00435595075,2.05058177E-06,-0.00904658251,-0.0197584871,0.0154597107,0.005720387,0.00321158976,-0.00507343467,0.006100965,-0.0038554247,0.0187771227,0.00230491837,-0.01142869,0.005704117,-0.0017486352,-0.002037759,0.007712286,-0.01721805,-0.0115363225,-0.009824135,-0.008055963,0.0129867345,-0.009338789,-0.008082252,0.014042181,-0.008541855,0.0133248679,-0.006551537,-0.0142404893,-0.0229405686,-0.005099802,0.007989356,-0.00246411562,0.0127228275,0.00175675889,-0.007875882,-0.00595014775,0.0150067359,-0.009524757,-0.0240060259,-0.006258253,-0.008988341,-0.0103366869,-0.00757360365,0.0016758641,-0.0017629317,-0.00134434854,0.005569576,0.01530336,-0.00780718727,-0.016210949,0.002572676,-0.011182351,0.005288878,0.0109874858],[0.00217139884,-0.021383971,-0.0138755478,-0.009649479,0.0181436576,-0.000382872619,-0.006541879,-0.0210609864,-0.0124374488,-0.0102651864,0.0169914477,-0.0184354484,0.000101604135,-0.007992515,-0.03202737,-0.0195443835,0.007987877,0.000481500436,-0.00531554734,0.00580935,-0.00639412925,0.00146263407,0.02176831,0.0227228217,0.006559326,-0.0032484408,0.00116265356,-0.0119023742,0.00209853076,-0.00133592752,0.02825781,0.0205918234,-0.0178841222,-0.0116066737,0.0159204975,0.00507043861,0.0006168892,-0.01315143,-0.0036855,-0.0194766335,-0.0192852039,0.006560678,-0.006873406,-0.0154980309,0.006088318,0.0104274005,-0.008765969,-0.0118575413,-0.007558013,-0.00308667612,-0.02543214,0.00872142,-0.00110864721,0.009639491,-0.006180299,0.000666852749,0.0154351983,0.0203042813,-0.00179164624,0.007397525,0.008076576,-0.03769471,-0.0182166751,-0.01537354,0.006474111,-0.013189557,0.006198533,0.014875547,-0.0226842742,0.0169349518,-0.0152903721,0.0025872197,0.0235672239,-0.00224441616,-0.000743693,0.00693773571,0.0217643473,-0.0175852515,-8.66262344E-05,-0.0126470756,0.0108090788,-0.0150287692,0.00256149936,-0.021375224,-0.003734739,0.0148350922,-0.00753639266,0.0027230042,0.0130681694,0.004751327,0.0162123013,0.0118155079,0.00494063739,0.019583771,-0.0213294234,0.0211224128,0.0148396,-0.0122342221,0.0123593947,-0.0128002288,0.00631609838,0.00497332262,0.02174735,0.008779204,-0.0127603672,-0.00150573172,-0.00343319168,0.007734472,0.006883835,0.003440026,-0.0160700046,0.00563586,0.0442638621,0.0137355532,0.0221694466,-0.008317273,0.00389066525,4.350334E-05,0.001221338,-0.000131483248,-0.008233747,-0.0147142783,0.0152132325,0.0193440374,0.0127169332,0.02078214,-0.00762487156,-0.02428871],[3.93665468E-05,0.0106041608,0.00431027543,0.001922813,-0.00251228479,0.0182620957,0.00152972108,0.0145061938,0.0101905484,-0.0006453844,-0.004416272,0.007069096,0.00296867732,-0.0109359054,0.0124477232,0.0103352452,0.008070554,0.0131515628,0.008157467,-0.00503407558,0.0203882884,0.00429785671,-0.0296605937,-0.0005238023,-0.007970179,0.0163865611,-0.00122832623,0.000535438769,-0.01244254,0.0221897122,-0.009705374,-0.0107399775,0.0153176477,0.00446232548,-0.00225916272,-0.0186376572,-0.000354642427,0.0151333176,0.008541066,-0.0139437318,0.009941678,-0.0005527137,-0.005257585,0.006662408,-0.000469348015,-0.00134454237,0.00621237746,0.0224646591,0.033515323,-0.00629044371,0.0222938247,0.00308327726,0.0177654289,-0.00427090051,4.081344E-05,-0.00346609461,-0.007333535,-0.009997429,0.01886633,-0.0185000766,-0.01404873,0.01828296,0.0211983509,0.00295058149,0.0191515,0.0133069269,-0.00653720973,-0.0166619159,-0.00433064345,-0.0178499967,0.0159258749,0.008957183,-0.0107980045,0.0145406919,0.00127959438,0.00269772625,0.00161087816,0.004454257,0.01018909,0.0145536037,0.002654524,0.0167184919,-0.0110653918,0.00105651177,-0.00420494471,8.766458E-05,0.0183459911,-0.004237193,-0.0177423842,-0.029205557,-0.007575253,0.000879939063,0.003910118,-0.01830379,0.006707008,-0.00362435,-0.013885227,0.00117751746,0.00186117785,-0.000550095,-0.0125701148,-0.0024109378,0.00404499657,-0.008883254,0.00282098539,0.0119317332,-0.0101326145,-0.00677259546,-0.00118341332,0.0208311044,0.009804488,-0.0101286722,-0.0246114023,-0.00373269245,-0.00563228875,0.03217875,-0.01166991,0.006817781,0.0148099037,-0.005435795,0.0148345493,0.0102967666,-0.005827203,-0.00775408046,-0.021004973,0.0005349944,0.0205531921,0.0167312939],[0.00267302128,-0.00530439336,0.000216051631,0.00138402346,-0.00198288448,-0.0267151017,-0.004523656,-0.00779616227,-0.000124466242,0.00251190271,0.00214045751,0.000644062646,0.00294490554,0.01691164,-0.00575149152,-0.00505528552,-0.01832638,-0.02721745,-0.00433745654,0.004606471,-0.0190296825,0.00260688574,0.03428171,-0.0135278283,0.0025733863,-0.0130775785,-0.004658999,0.005759634,0.0227543022,-0.0247887745,0.00135610765,0.00739927171,-0.01197883,-0.00107897876,-0.00193955691,0.0128208818,0.00662262458,-0.0174463838,-0.00593599444,0.0308177974,-0.007534763,0.00295251026,0.0156580471,-0.007445627,-0.00573309837,0.001098502,-0.00413572229,-0.018017333,-0.0377306864,0.00944326,-0.0229242425,-0.0115454,-0.0235087182,0.0130453622,0.00442471169,0.00216389354,0.00348571781,0.000351346622,-0.0233726278,0.0114477426,0.009269066,-0.008706779,-0.0175856669,-0.001061884,-0.0289358255,-0.0111598046,-0.00196389388,0.0140118031,0.012812987,0.004324268,-0.014966649,-0.0210321955,0.0146490354,-0.0188453384,-0.006399487,-0.0180667639,-0.008805768,-0.00114704785,0.00125621434,-0.009787813,-0.007971692,-0.0190638378,0.00329409121,0.0007202232,0.008997644,0.008827324,-0.0136501743,0.008945483,0.0105110081,0.0311857648,-0.0023382355,-0.00228952919,-0.0126202693,0.0157655329,0.009860336,-0.00491789356,0.00737641053,0.007463807,-0.002614301,0.0024444533,0.008332885,0.003497674,-0.0207754076,0.009039852,0.00181053428,-0.0158403963,0.0186072122,0.0202419441,-0.00470741838,-0.0339491665,0.00259407586,0.00784358,0.0145883821,0.00209118985,-0.00186257111,-0.0395205058,0.009242565,-0.008754564,-0.0197722651,0.00279881386,-0.0138627887,0.00299228285,0.003944741,-0.00593253458,0.0203282312,-0.00493588438,-0.0246224087,-0.01790976],[0.005675375,0.00192322524,-0.00160160835,-0.00250450615,-0.009220956,-0.0156785753,-0.0035820473,-0.00337335956,0.00276971934,0.002433801,-0.000975962437,0.0018535672,0.00291748182,0.01759601,0.0085341325,0.000359565835,-0.0178578831,-0.0102525139,0.00280901021,-0.000206577053,-0.0110378917,0.00348205562,0.0152947726,-0.008939783,-0.002947137,-0.003923539,-0.003962195,0.00148084061,0.0159653574,-0.0151120052,-0.007743844,0.00411882065,-0.006743357,-0.00320144044,-0.004484374,0.00395269552,-0.0004568189,-0.007796859,-0.007537362,0.0191355143,-0.003456312,-0.009182744,0.009535536,-0.000121749406,0.002504637,-0.003460541,4.011987E-05,-0.006824012,-0.0209968239,0.0075291465,-0.00766626932,-0.009831271,-0.0110320924,0.00297262031,0.0042418763,0.00709996745,0.00444756448,0.00321155484,-0.0122760432,0.0140793128,0.0127765182,-0.0016160201,-0.00526232924,0.00467240158,-0.0167718753,-0.008114961,-5.52039819E-05,0.0007156752,0.0107714823,0.00371013372,-0.0109894536,-0.015485418,0.00706416648,-0.0114639495,5.53330574E-05,-0.006958981,-0.0127467373,0.00424182741,-0.007675605,-0.00941301,-0.0125317955,-0.00986098,0.0138571858,0.0037066,0.0113648148,-0.00293468288,-0.0179105084,0.00433127256,0.0131969852,0.0179583672,0.004092272,-0.00180276029,-0.00189587555,0.007894299,0.00423168344,-0.007214386,-0.00337712141,0.01189568,-0.005847389,0.00575950742,0.0121311713,0.004097109,-0.008704545,0.0130138071,-0.00257873768,-0.009271834,0.011169483,0.00476604234,0.002309688,-0.020428583,-0.006664005,-0.00285037747,-0.00145946641,0.00144892617,0.00208590762,-0.01867932,0.00784229,-0.0149887279,-0.0139641566,0.00530835427,-0.0111114066,-0.00177257857,0.00349711021,0.001265134,0.015395537,-0.006992886,-0.0123015493,-0.006724467],[-0.009019265,0.0031757406,0.006059751,0.00207663281,0.0002955181,0.0166939255,0.00843743049,0.0138314161,0.00230520125,-0.0008432997,0.00190668285,0.006196474,0.00389543385,-0.0160313435,0.00595905,0.009268092,0.009291931,0.008455074,0.00305036642,0.00110054761,0.0182597246,-0.00394928642,-0.0220815074,0.004405958,-0.00855089,0.0117002921,-0.001551736,0.004863629,-0.015716739,0.0204748567,-0.00154517568,-0.007819799,0.0111505585,0.010946935,1.82949079E-05,-0.008014167,-0.002213053,0.008832163,0.009015723,-0.0153802121,0.0150585268,-0.000333159958,-0.008029201,0.00144054042,-0.0015245754,-0.000387841457,0.005560395,0.0169028528,0.02401821,-0.004508293,0.0149950851,0.008035075,0.00841424149,-0.0124826552,-0.003173353,-0.00695501035,-0.008336016,-0.008700276,0.01970734,-0.01935088,-0.0120892953,0.00408602552,0.0142422328,0.00167658133,0.0140026417,0.0201254636,-0.008893899,-0.0131811919,-0.009375054,-0.0166446473,0.01316842,0.0144607518,-0.0109775458,0.0180764627,0.000744255551,0.004875911,0.006922837,-0.00237719156,0.0115553215,0.0176414978,0.00764623936,0.0142237488,-0.0139093921,0.0009370847,-0.006877297,-0.00237625279,0.0206270441,-0.00260076,-0.0154284,-0.0243224651,-0.0100066178,0.005308328,-0.00333912414,-0.01198294,0.005542521,0.007744501,-0.0106211575,-0.006724073,-0.00146599684,-0.000480587274,-0.0151967183,-0.0110516706,0.004861452,-0.014613606,0.00238526426,0.0143064363,-0.0139173884,-0.009222219,-0.00308969081,0.0248819478,0.00633155974,-0.00176984421,-0.0157069433,-0.004459859,-0.0002554547,0.0209356714,-0.016866494,0.013804473,0.0236786343,-0.00686206436,0.0219769087,0.00855868,-0.0019148587,-0.01179375,-0.014180352,0.00172973936,0.0147940284,0.0160135031],[0.00381161,-0.0144739887,-0.00575469248,-0.00159431738,0.004478087,-0.0159568675,0.00119771773,-0.009423508,-0.0107236914,0.0025370447,0.0120979128,-0.006583536,0.00267412351,0.0145052522,-0.0128511125,-0.00762623642,-0.008918016,-0.0140391253,-0.002124651,0.00144777319,-0.02059319,-0.0005171578,0.0328860842,0.00064759684,0.00372573617,-0.008513385,-0.0019971712,-0.000145679427,0.010158007,-0.017270986,0.0153555144,0.011149643,-0.0153594287,-0.005025721,0.004728257,0.017366223,0.003519504,-0.0173679069,-0.005872879,0.00689166458,-0.015324546,0.007567889,0.007432845,-0.007475664,-0.00111266377,0.008065779,-0.004913735,-0.0178664,-0.03167842,0.00661795726,-0.0201415531,0.00130213983,-0.0109699806,0.006519769,-0.000586923154,0.0034301884,0.0109915677,0.008355235,-0.015581321,0.0103792725,0.007589369,-0.0224788729,-0.0175888445,-0.00691739563,-0.0189640187,-0.008935413,0.0005610831,0.0191865787,0.003680358,0.0134981275,-0.0151916677,-0.00740382355,0.0152140409,-0.0115563693,-0.005962455,-0.00398387667,0.00305008865,-0.007221285,-0.00540465256,-0.009284436,0.00119484414,-0.02102033,0.006929426,-0.008683249,0.002211576,0.00205749529,-0.0145709161,0.0130756954,0.0174451284,0.0190086272,0.003332567,0.00430906331,-0.00374688813,0.0230709054,-0.00739761,0.00288846344,0.0105772056,-0.0005358518,0.000739674433,-0.00599062862,0.009381318,0.00324301119,0.000392621441,0.00348700187,9.447874E-05,-0.00597597845,0.0132452566,0.0112224184,-0.002754999,-0.0223566312,-0.007213871,0.00804636348,0.0329026245,0.00378960767,0.0125564476,-0.0311376676,0.007541494,-0.00475554867,-0.009978074,-0.0013003865,-0.0106521659,-0.009750385,0.010351276,0.00392621662,0.0225807633,0.007471733,-0.0150607936,-0.0183279123],[0.009323049,0.00780231738,0.002818506,-0.00283146068,-0.0009367341,-0.000675349147,-0.001268593,-0.0007494475,-0.00343525619,0.007168475,-0.008193546,-0.00448782835,-0.0150758214,0.002905233,0.00581768854,0.00145872019,-0.000859491,0.0105344327,-0.00462409342,-0.0118864924,0.0006949898,-0.000590223062,-0.009496273,-0.004844282,0.0021612565,-0.008599827,0.008855089,0.0041795685,0.0108596478,-0.0107893478,-0.008738095,-0.0009833949,0.008422078,-0.0101942476,-0.0102801984,0.0131148091,0.00628850376,0.00540823955,-0.0105881188,-0.00153545546,-0.00240718038,-0.00884681,-0.004667387,0.00385788479,-0.00354642561,0.00309805362,-0.0153673626,-0.00205087243,0.00563394232,-0.00267042639,0.00327613438,-0.0007014838,0.004886265,0.00738760969,-9.351379E-05,0.01477441,-0.00414350443,0.00163176726,-0.00312760449,0.00779442675,0.004897019,0.0114538195,0.004335799,0.00355449133,0.00299431,-0.0027075354,0.003972557,-0.008188776,0.0120375762,0.008292893,-0.00138012355,-0.005910725,-0.004972189,-0.00278439745,0.000204013122,0.012216121,-0.00288620475,0.007406283,-0.0212373324,-0.0109051578,-0.00211466639,0.00163416052,0.009846435,0.008723361,0.009082668,-0.00439853175,-0.012487011,-0.00346430158,-0.000162612079,-0.00365115725,0.0128328111,-0.009811661,0.0117256474,-0.00915618,-0.00456911046,-0.0113538615,0.00107439479,0.00564354332,-0.002713354,0.001589157,0.009338881,0.0112288808,0.00628395053,0.0120901838,0.00379739748,-0.00854845,-0.00366819324,-0.009539691,0.0119644348,-0.00458728848,-0.0089468,0.00274512358,-0.00681044,-0.00406572362,-0.009118366,0.010111792,0.0242717788,-0.0113283712,-0.0103537245,0.00260776747,-0.0228489116,-0.0142547106,-0.00503622973,0.01670594,-0.00596858561,-0.003691269,-0.00223506941,0.006624424],[0.001229259,0.01637476,0.007980563,0.00289249443,-0.0154960146,0.00459973468,0.00489704777,0.0128653515,0.005491625,0.0010208094,-0.0149587691,0.00744023453,-0.000738910865,-0.000400035235,0.0175874587,0.0102911731,-0.00198836275,0.01132723,0.008669529,-0.0109660449,0.0135597112,0.00124259293,-0.0246012826,-0.010263768,-0.009446798,0.00375771383,0.00334255956,0.00364661473,0.000559805252,0.00616152957,-0.0155993951,-0.01419466,0.01583085,0.003385401,-0.0115339961,-0.005608502,-0.00614541071,0.0134999482,-0.00556284,0.003556717,0.012533769,-0.008978576,-0.002732918,0.0120119685,-0.00369828,-0.007943628,-0.002083249,0.0138287963,0.01988307,0.00307757664,0.017671084,-0.00460017566,0.009476265,-0.003780902,-0.000958594144,-0.00170981861,-0.0121264821,-0.0108139236,0.007034219,-0.00323641137,-0.00309018744,0.0295154136,0.016159134,0.0128307231,0.009459683,0.01162478,-0.00189003593,-0.01167175,0.00979639,-0.0101580648,0.0187704377,0.001394885,-0.0156015037,0.00114488043,0.002436239,0.00328318262,-0.014737729,0.015658671,-0.00416967738,0.00731814653,-0.005102459,0.01350702,-0.000975230767,0.0137860468,0.00688970648,-0.0144794853,-0.0010064129,-0.0129093463,-0.00585618662,-0.0129439849,-0.00778034236,-0.00735836942,0.00148967362,-0.020349497,0.0040028845,-0.0133270491,-0.0114069488,0.00985143147,-0.011256109,0.00625925371,0.00264481734,-0.00603537634,-0.008403478,0.00318744336,0.008518381,0.000162539218,-0.004210296,-0.0132153649,-0.003580702,0.006094927,0.006379994,-0.00434413,-0.03242193,-0.0114020072,-0.01737606,0.02052417,0.0006883191,-0.00266979169,0.00164505024,-0.00230416213,-0.00226661,0.009440692,-0.0119496314,-0.009555733,-0.0103812348,-0.008055556,0.01139305,0.0193232317],[0.00363757764,0.00775455,-0.000558479864,0.00343364431,-0.006961642,-0.0124078048,0.00261226,0.00367895933,-0.00090989517,0.00329304254,-0.00559556624,0.0001916266,0.00121654826,0.012772359,0.008228607,-0.00195337343,-0.0111010745,-0.00267488114,-0.00297088875,-0.00232625869,-0.005931944,-0.00053145265,0.008459343,-0.0119002759,0.00243670866,-0.009741909,-0.002646515,0.00278178137,0.0158279911,-0.0129240258,-0.009096224,0.00163846242,0.00326702744,0.00173854781,-0.004038806,0.00240955153,0.002796735,0.00242321217,-0.0151565811,0.0154099762,-0.0023743175,-0.004447222,0.003158573,0.00141660124,-0.00310986675,-0.000478371949,-0.00308875553,-0.000786215533,-0.0133408783,0.00272035575,0.000731669832,-0.008344791,-0.005683098,0.003462345,0.003968902,0.007496319,-0.00295774918,-0.00128808815,-0.010762929,0.01603968,0.0111604752,0.00625251653,-0.00407740148,0.00742337247,-0.005567125,-0.005176873,-0.00176792056,0.00274842186,0.0106296083,0.00725131156,0.000424392958,-0.0150505472,0.00373520423,-0.0131993508,0.00213660533,-0.0007366082,-0.0146726817,0.0055516893,-0.0101452814,-0.005828274,-0.00761077926,-0.00373819517,0.0118434019,0.01171264,0.011425917,-0.00464470033,-0.009923585,0.00152381125,0.00549931172,0.01199611,0.00147869578,-0.00334432232,0.00378594385,2.48939541E-05,0.007740125,-0.006134291,-0.004904805,0.009481787,-0.004734798,0.005147583,0.0110431826,0.00137542048,-0.00898814,0.0102541028,0.007545487,-0.008323527,0.00723164156,-0.00130053784,0.00213573128,-0.0106774187,0.00114677742,0.00159461051,-0.00304392958,2.02501778E-05,-0.009070865,-0.00656925561,0.0101010082,-0.0123279374,-0.0127822207,-0.000299209438,-0.0156287663,-0.00234804675,-0.00238167448,0.00176138268,0.0122981453,-0.00956847,-0.00539772632,-0.00244381814],[-0.00283379923,0.00733759254,-0.000768271449,0.00199793768,0.006004634,0.025514856,0.00646771258,0.011898905,0.003995756,0.001590488,0.00190201134,0.008302711,0.00181195093,-0.02844517,0.004347969,0.00425426755,0.0207057521,0.0190631431,0.00399520155,0.000913137861,0.0177916326,0.00132034742,-0.03107861,0.0124578094,-0.00495668966,0.0185388532,-0.0008140328,-0.006265248,-0.0211576261,0.0319189876,0.00120152615,-0.00236493512,0.006244009,0.00718330825,0.00594443968,-0.0158916526,-0.004611015,0.0115306815,0.0109073706,-0.0302510746,0.0113893514,0.00203378079,-0.0152493054,0.00355487573,0.00126701035,-0.000309122726,0.0126394928,0.0242544711,0.0376852863,-0.00636719726,0.0201469921,0.0158394687,0.0198349,-0.01557371,-0.002926713,-0.0109198438,-0.00144431845,-0.0114533408,0.0307812747,-0.022657562,-0.0220835581,0.006726507,0.0173241775,-0.00380261,0.0280113649,0.0173202287,-0.00560361426,-0.0110688638,-0.0184225,-0.0160144269,0.01600608,0.0221928917,-0.008699581,0.0222381819,-0.0009803774,0.0160922669,0.0111185722,-0.001994754,0.01490357,0.0150379743,0.008290218,0.0197480284,-0.0109385327,-0.00518349558,-0.0133905075,-0.0005715543,0.0230703317,-0.0070488085,-0.0112187266,-0.0338955931,-0.0129262125,0.007489102,0.00561334752,-0.017813405,-0.004633259,0.00538263749,-0.00738944625,-0.00643785531,0.00352824153,-0.00346668717,-0.017892966,-0.01369281,0.0199099462,-0.0163629353,-0.00307720527,0.0200776551,-0.0173884183,-0.0112441191,0.00111706066,0.0364747681,0.0059471447,-0.00323637947,-0.0119803837,0.00292256335,0.00287352456,0.0379437841,-0.0197272133,0.0151474178,0.029660549,-0.007559762,0.0254347734,0.0122407805,-0.008333048,-0.0106931133,-0.0244105943,0.005616681,0.0230888017,0.02035419],[0.0047920323,0.0179950539,0.00413743127,0.000560652465,-0.00636835024,0.00299722352,-0.00207275,0.0121684624,0.00768499449,0.00486123,-0.0113332765,0.008465382,-0.0017741943,-0.006082858,0.0166256335,0.0131955994,0.001245628,0.0154149979,0.005208165,-0.009525956,0.0147863915,0.00148752879,-0.0271364991,-0.00774905272,-0.004352792,0.005853019,0.006743908,0.00158207514,0.00108754425,0.00424442533,-0.01398306,-0.00618509529,0.0169430878,-0.00130963267,-0.0139559945,-0.00320645329,-0.00652795471,0.01722632,-0.0008492458,-0.00134443608,0.0118269073,-0.00868130848,-0.005811648,0.0131268585,-0.0024036,-0.009481989,-0.00165689364,0.0124925571,0.0181664545,-0.004439349,0.0193334389,-0.006306432,0.008637238,-0.003651443,-0.0027179718,-0.00023740172,-0.0134463534,-0.004645457,0.00899628,0.00170965423,-0.00274464861,0.0201897845,0.0170127861,0.0139206853,0.0137649346,0.00448327744,-0.00377691165,-0.0136483824,0.0120534608,-9.486517E-05,0.0163436253,-0.00321313972,-0.0194034558,0.00471211923,0.00333954743,0.00822418649,-0.0101051945,0.009930618,-0.00425486127,-0.00169364456,-0.00630951254,0.0119894566,0.0023099985,0.01235787,0.005550765,-0.01396087,-0.0028884944,-0.0118053947,-0.009427858,-0.0144379474,-6.0358E-05,-0.009918141,0.008464565,-0.0207285527,0.004849933,-0.012451224,-0.00536222244,0.007345739,-0.00526678143,0.004707501,0.003941197,-0.0005836976,-0.00226795161,0.00573457032,0.007976888,-0.00308198878,-0.00740240049,-0.0136479251,0.003822424,0.0112882061,0.002566763,-0.00233677682,-0.029999923,-0.00822090451,-0.0120049529,0.0289203264,0.008581612,-0.00462996075,0.00447829254,-0.00457688048,-0.008444854,0.00118353975,-0.0137377251,0.0008588734,-0.0148899117,-0.01154669,0.009766734,0.0177459586],[-0.00157855789,0.0199790671,0.0107271885,0.0164153744,-0.01635627,-0.00273780036,0.0103785,0.0218703859,0.0112528978,0.009669394,-0.0152183892,0.0206956919,0.0003252735,0.00674497755,0.0235805735,0.009476585,-0.008997859,-0.007039489,0.0130716031,-0.006125261,0.0104658147,-0.00341713778,0.000251869438,-0.0185089651,-0.0154483188,0.005974756,-0.008044313,0.0120159024,0.00221275352,-0.0009547705,-0.0200068317,-0.0140290875,0.0150089385,0.01692042,-0.0166973956,-0.00538561353,-0.00769114,0.004778109,0.00685912976,0.0169446431,0.0213685036,-0.00695455,0.007337255,0.0158169046,-0.0112687983,-0.0148935225,0.0122229327,0.0151513983,-0.00188792357,0.004742683,0.0162414424,-0.00299643958,-0.006333297,-0.0117362244,0.0125030642,-0.00242195372,-0.008724028,-0.019223528,0.00095096993,-0.00210899557,-0.004589309,0.0255843922,0.00261243712,0.0125356959,-0.0154848285,0.0125394883,-0.0114232,-0.009516701,0.0161297526,-0.013649825,0.008021493,-0.00391814625,-0.01269638,-0.00170534849,0.004527793,-0.00831733,-0.0131745646,0.0122653646,0.0100232791,0.008271377,-0.008511422,0.006454615,-0.007691906,0.0167939384,-0.003497703,-0.007935,0.0125459582,-0.0009943574,-0.00555885164,-2.36000251E-05,-0.0265177563,-0.0114659779,-0.00368020823,-0.00507180067,0.021311529,-0.0159613658,-0.009400403,0.0131607316,-0.0133968238,0.0117567712,-0.007959292,-0.0128885061,-0.0272393413,-0.00704406668,0.0104060564,0.00218205363,0.00693890639,0.00206641247,-0.010318079,-0.008586768,0.0124157341,-0.009479144,-0.0318116881,-0.008233492,-0.0163476039,-0.0126050031,-0.00585553935,0.005700906,0.00179260352,0.00296468264,0.00863551348,0.0132591454,-0.011691601,-0.0254328046,0.00361526967,-0.0153441634,0.00159116485,0.010787867],[0.008552892,0.0009463651,-0.00476004137,0.00256731547,-0.0061903866,-0.0191831011,-0.00234608632,-0.007062206,0.0009944151,0.003256596,-0.00164967414,-0.004247908,-0.0006983257,0.0160196237,0.00607146835,-0.00381787051,-0.0187952742,-0.014649407,0.00134650443,-0.0009907808,-0.01146584,0.00156171247,0.0237814132,-0.0101688094,-0.000495672342,-0.0122189829,-0.006967023,-0.00392363453,0.0211700071,-0.0211427119,-0.00047345116,0.000125613427,-0.004431269,-0.00589598762,-0.00376880821,0.003776623,-0.00172773073,-0.009840167,-0.008248838,0.01841117,-0.007357884,-0.004760983,0.00924694,-0.005488414,0.00455049332,-0.00173801032,-0.00501553575,-0.008067284,-0.0302421134,0.00999186,-0.0143301748,-0.008150661,-0.0151979495,0.008222936,0.005613763,0.006797131,0.00591410743,0.00182010687,-0.0127606513,0.018551236,0.0111235855,-0.00168630516,-0.0101260049,-0.00073024584,-0.0173790846,-0.00839999,0.00474999426,0.011365125,0.00703965,0.00694723567,-0.009743078,-0.0169764441,0.009379531,-0.0168188363,-0.00257233065,-0.0120692141,-0.008149067,-0.000306514616,-0.007927842,-0.0141183371,-0.00780693535,-0.0173064638,0.0103553785,0.005558948,0.01236511,-0.000503815,-0.0187158864,0.005062326,0.0103141386,0.0265731663,0.005944952,-0.00254155579,-0.0066930633,0.0128113,0.00772556663,-0.0019744602,0.00440604147,0.0116628949,-0.00669635646,0.007918249,0.009725476,0.008921083,-0.0142997354,0.0101689855,-0.00381916785,-0.01348649,0.0137412287,0.0144487591,-0.0005434772,-0.02242051,-0.006048485,0.001163506,0.00662871869,-0.000191410581,-0.00222231518,-0.0223511122,0.00485567,-0.0125148026,-0.0182594061,0.00385944266,-0.01590074,-0.00736832758,0.0034993852,0.004133171,0.020175362,-0.0053166477,-0.0122093195,-0.0107604722],[0.00303710718,-0.0203903373,-0.009654244,-0.0174555983,0.0167346839,0.00421801675,-0.010675922,-0.0247596428,-0.0137315411,-0.014856617,0.0120217549,-0.023339849,-0.009696504,-0.001991955,-0.018944405,-0.0108311111,0.008226354,0.0162584726,-0.008663486,0.0006872283,-0.00587119,-0.00239929161,-0.00116430444,0.0105687371,0.0169750918,-0.0102671981,0.006904596,-0.00591271929,0.00169429753,-0.000107933352,0.0174513683,0.0105577363,-0.00573241152,-0.0183883216,0.008240062,0.009153486,0.009454738,0.00136538933,-0.00556781935,-0.0252976231,-0.0255187526,0.008174417,-0.008598549,-0.0111114793,0.0113300374,0.0136612989,-0.0140005071,-0.0102980556,0.005680738,-0.00580887962,-0.01050373,0.00197334262,0.0130330939,0.00692178635,-0.0207372289,0.008741885,0.00110654847,0.02612375,-0.000115334245,0.0112777147,0.00713837426,-0.0224929824,-0.00414333353,-0.0126672573,0.014362474,-0.0151092662,0.0114398263,0.0104249418,-0.01432635,0.0202568732,-0.009011026,0.00355136883,0.005596398,-0.0004150414,0.00225771917,0.0175062,0.0142460521,-0.0139946714,-0.0115926852,-0.01565934,0.009062165,-0.009062452,0.002580874,-0.0137482416,0.00124663673,0.005073646,-0.0110181412,-0.00703368941,0.00361030572,-0.002728116,0.02366452,0.009853308,0.0115825133,0.00492848735,-0.0250979476,0.007530519,0.010767065,-0.0113921063,0.004759093,-0.0146605866,0.008888672,0.0186464153,0.0242671669,0.009030426,-0.00978978,-0.00618924666,-0.0150865447,-0.004413163,0.01663876,0.005232807,-0.01874854,0.009135455,0.0238845255,0.0109001929,0.0123711275,0.0167033747,0.015850883,-0.00307863,-0.0006021181,0.00375208328,-0.0175867882,-0.016510617,0.009914541,0.0295443032,-0.008078159,0.008124777,-0.0011546897,-0.00806890149],[-0.000938370242,-0.006686192,0.000699160737,0.005277756,-0.001922916,-0.0230856314,-0.0009867565,-0.0107814921,-0.001856239,0.00280428585,0.0014481307,-0.0005235179,0.002877696,0.0179522671,-0.004135531,-0.00430427771,-0.0169522371,-0.0155922249,-0.00567037938,0.00147276127,-0.0152640166,0.00324591971,0.0271791276,-0.00597063638,-0.0016662837,-0.01495986,-0.00436972547,-0.002124531,0.0179395061,-0.0224544331,0.00359087274,0.001585969,-0.0102846045,-0.00122446171,0.000664762862,0.0125704166,0.004357959,-0.01622246,-0.00563650439,0.0258331541,-0.0116087869,-0.00279148947,0.0144183757,-0.005661627,-0.004277485,0.00479417248,-0.005217768,-0.0174099915,-0.03176951,0.0101501327,-0.022085,-0.006398653,-0.0157571547,0.0046888,-0.000432671455,0.002462967,0.00851639453,0.005171635,-0.0177575052,0.0176444985,0.0145950858,-0.0137143126,-0.0200131554,-0.002384891,-0.0261593629,-0.0107485261,0.0018381218,0.0115696946,0.008753373,0.01184571,-0.0134948939,-0.0147021925,0.0125411823,-0.0204910878,-0.00413783733,-0.0126502542,-0.00666681863,-0.001481489,-0.006134355,-0.0119105941,-0.00166498427,-0.019403182,0.00581719726,0.0043156934,0.00327621237,0.006965827,-0.01623277,0.012187873,0.0130458111,0.02743693,0.002595564,-4.253433E-05,-0.0065165814,0.01430562,0.005788832,0.000191454848,0.009583595,0.0082763005,-0.00267224666,0.00452665426,0.007798075,0.00245187012,-0.0169656388,0.0109579368,0.00152357318,-0.0146129848,0.0184403528,0.0154158967,-0.004892127,-0.03232256,-0.00412909547,0.009989898,0.02019092,-0.000385047,0.00505624572,-0.032315094,0.008837023,-0.0123454249,-0.01842931,0.00349467923,-0.0121092582,-0.0008452936,0.00324881962,0.00134659861,0.0221177712,6.596734E-05,-0.0184105635,-0.0200971887],[0.00667588366,-0.0181903634,-0.0179063864,-0.0239394456,0.0152540766,-0.000725003832,-0.0109314732,-0.0312558562,-0.0169112068,-0.01991901,0.00769202551,-0.0283855274,-0.0137451263,0.00168579188,-0.0143300379,-0.0104399035,0.007231288,0.0214613657,-0.0155538768,-0.006902436,-0.0108190747,-0.00145303924,-0.00637704,0.0128855389,0.0239580274,-0.0192950536,0.0129705183,-0.008583639,0.008624561,-0.0005384043,0.0141604068,0.0167380441,-0.0100480933,-0.0286465771,0.0113862688,0.003274863,0.0148716206,0.00160091848,-0.0137239918,-0.02397722,-0.0308506489,0.0033747924,-0.009779276,-0.01489509,0.01897242,0.0146488566,-0.0119605316,-0.00568948,0.01432519,-0.002054282,-0.006918831,0.00126781117,0.01874488,0.0158369672,-0.02261736,0.0141143864,-0.00287871924,0.0255277939,0.00189134933,0.0143469125,0.01119165,-0.0204583872,0.0030821,-0.0091604,0.0213125329,-0.02493937,0.02206577,0.005573748,-0.0122685563,0.0339246355,-0.0136131076,0.00197409512,-0.0002741666,-0.008633579,0.00592035754,0.0111773284,0.0152302235,-0.00827628,-0.0214163139,-0.023477396,0.00261518266,-0.009464768,0.0126339523,-0.01755016,0.01291568,0.005039671,-0.0203797854,-0.008712143,0.0111898184,-0.00300375279,0.0392416865,0.009410946,0.0145557541,0.00201790687,-0.03181536,0.00730483048,0.00744750677,-0.00397397764,0.0120636914,-0.0180742033,0.02261626,0.0273682587,0.0255586468,0.0251168329,-0.0120077906,-0.009985234,-0.015235371,-0.0110492744,0.016010344,0.009143211,-0.02553342,0.00654006423,0.023426462,0.00712434761,0.0135709085,0.0291488171,0.0200652685,-0.0123956911,-0.005765345,0.00663503,-0.02776713,-0.0303603187,0.008736525,0.0438415036,-0.006835663,0.009066588,-0.00416032,-0.00746575976],[-0.007885359,0.006290596,0.00497952756,0.00417391071,0.004629724,0.0237826463,0.00280708144,0.0121197039,0.000837443164,-0.00167535711,0.00127032446,0.00310746115,0.000854651153,-0.02799374,-0.0009555693,0.00401280634,0.02106609,0.0134684015,0.005793412,0.00348977,0.01638707,0.000136038434,-0.031413395,0.007942113,-0.00285243057,0.015350149,0.00375340343,-0.00333905034,-0.0202177353,0.0321995839,-0.002483421,-0.00294944877,0.008556869,0.00746586733,0.00653642043,-0.0136480685,-0.000221504321,0.013062451,0.0137525182,-0.0248120558,0.0106097385,0.00687323464,-0.009923229,0.0005933722,-8.845236E-05,-0.006378774,0.006070704,0.02258397,0.03750883,-0.0120067894,0.014433559,0.008763642,0.0172129981,-0.0142754121,0.00142785627,-0.0128676631,-0.008393185,-0.00512729,0.0269404314,-0.0257474,-0.0187299065,0.006870613,0.0131504759,2.92049845E-05,0.0225227848,0.0151971737,-0.0017689747,-0.0163443144,-0.0214215536,-0.0200834684,0.0188058373,0.0232972037,-0.006889295,0.0247453675,0.00114092056,0.0112934178,0.0138628744,-0.00603015255,0.0154669434,0.0143008456,0.0125227338,0.0232242364,-0.0115500158,-0.00275189779,-0.00763930753,1.83833654E-05,0.0252072383,-0.008936074,-0.01606951,-0.0335795,-0.0120126382,0.004660222,0.00542594073,-0.0181719847,0.0036401113,0.00613971753,-0.00971431,-0.00866166,0.00270776078,-0.0006708292,-0.0159824435,-0.008252342,0.0172184836,-0.0118456176,-0.00106019108,0.0164671484,-0.01698432,-0.008282437,0.00286493869,0.03000229,0.009201533,-0.00101981126,-0.011500217,-0.00129273732,-0.00224335748,0.0334921852,-0.0179974325,0.014405719,0.0249460377,-0.009682453,0.0268769618,0.009409195,-0.00437866244,-0.0145307882,-0.0248426888,0.00356386928,0.0242249686,0.0208903439],[0.000366534456,-0.0127515383,-0.006999894,-0.008576987,0.00280077732,-0.0139664542,-0.00464639161,-0.0140390377,-0.004784552,-0.002433639,0.007440316,-0.00662991544,-0.00635910733,0.00884964,-0.0073476797,-0.0106641715,-0.004780388,-0.008448997,-0.007261752,0.0005095405,-0.0100079523,-0.000272838719,0.0178407226,0.000305504684,0.008935858,-0.008355097,-0.002733981,-0.00405401736,0.0117671676,-0.01651148,0.007114578,0.006565229,-0.0114413453,-0.0122569194,0.00671338,0.009920563,0.0063759,-0.00809935853,-0.008352553,0.00580663467,-0.0175051074,0.000573393831,-0.00191929541,-0.00301617477,0.00172110065,0.00172433176,-0.00568453362,-0.0148172,-0.015205184,0.00469692051,-0.0149298878,-0.0034135608,-0.008406646,0.006578728,-0.0003348371,0.00343719125,0.009111501,0.0131777786,-0.0122675989,0.0119059952,0.0105406065,-0.0145359524,-0.0153416386,-0.00425396161,-0.00566065731,-0.0141266091,0.007455684,0.01209775,0.00334773515,0.0171699114,-0.0146668451,-0.0111505128,0.00774899451,-0.016969962,-0.000213605235,0.00305387843,-0.00314682419,-0.0005881196,-0.00718419068,-0.0101282373,-0.00294972234,-0.0153457634,0.00613356661,-0.007858319,0.0059238933,0.000570856151,-0.0158692524,-0.00148295413,0.0132873738,0.0165320262,0.0182291549,0.00299104745,0.00521434145,0.0138875842,-0.003490722,0.000484193559,0.0111174788,-0.000362036022,0.004880494,-0.006977281,0.0133000119,0.009591017,0.00142394635,0.0132246213,-0.00125937769,-0.008824798,0.00950392149,0.004802112,0.00380534539,-0.0143924821,-0.0102029135,0.00545551348,0.0202251133,0.0026355118,0.00561979227,-0.0157335289,0.00865000952,-0.00947148,-0.0184001438,0.00540457,-0.0135228895,-0.009733946,0.0103758685,0.0131330956,0.0166886635,0.00545484852,-0.0136982016,-0.0133234235],[-0.004097418,0.01264676,0.0174478889,0.0172686614,-0.0135805765,-0.00535854,0.00733744,0.0214654189,0.016564494,0.0144250011,-0.009748533,0.0252677836,0.0124048367,0.00236024871,0.0140466755,0.01120577,-0.00505568646,-0.0158266854,0.014251532,0.00280019827,0.00692365831,0.000908865768,0.009699277,-0.0119897565,-0.0161540937,0.0121114245,-0.00726124737,0.0024896143,-0.00150467735,-0.00157849537,-0.0131741688,-0.0118912626,0.006424491,0.022346979,-0.0128451837,-0.00167408981,-0.009090406,-0.002172733,0.00315685687,0.0254995711,0.0275339354,-0.00622479338,0.0130290817,0.0124346633,-0.0104173878,-0.0105735119,0.007987888,0.009477609,-0.0100173615,0.008267109,0.00646239473,-0.00232945126,-0.009981999,-0.0142284138,0.0184643,-0.008849819,0.000121029589,-0.02056062,-0.003511794,-0.00675800256,-0.0100725433,0.0188267045,0.0012440735,0.006803559,-0.0195229966,0.0154142017,-0.0155648524,-0.004136503,0.0144379139,-0.0244327281,0.009746937,-0.00106787879,-0.002935501,0.00120985764,-0.00293815928,-0.0159639847,-0.0173728559,0.005938309,0.0149958963,0.0131064914,0.000118230884,0.00611972576,-0.00657367846,0.0103884386,-0.00411283737,-0.008098437,0.0140931718,0.00743154576,-0.00709902868,0.00610252051,-0.0274628829,-0.0121235605,-0.0163606443,-0.0063312077,0.0199266225,-0.0103743253,-0.00747145,0.00677122874,-0.009804685,0.0169063676,-0.0152752213,-0.0190884117,-0.0280274265,-0.013401377,0.00706318161,0.008509193,0.009420845,0.0122650377,-0.0157610551,-0.008364523,0.0220859256,-0.003636846,-0.0151999993,-0.007862856,-0.00712677743,-0.0228870213,-0.01762052,0.0110647194,0.002584589,-0.005489945,0.0220015123,0.0189300552,-0.00952446647,-0.0307917725,0.0120049454,-0.0123767508,0.00187805772,0.008928774],[0.006740309,-0.00110862963,-0.001590166,-0.004549915,-0.007941434,-0.022665,-0.00527911168,-0.009006062,0.00180348649,0.000585506146,-0.00128542131,-0.004128234,-0.000277316663,0.025441261,-0.000506320153,-0.00361633487,-0.0193249229,-0.01200706,-0.007456252,-0.00323274964,-0.0164114647,0.000736449438,0.0226071626,-0.0104589313,0.004076421,-0.01685239,6.12048752E-05,0.00287237926,0.0211939886,-0.0295190942,-0.004192864,0.005247018,-0.00499394536,-0.009917122,-0.0009649184,0.009500424,0.00228731171,-0.008645034,-0.0143412836,0.0226635821,-0.0104085812,-0.008695007,0.009678874,-0.002984066,0.003578398,0.004731307,-0.0116189821,-0.0172748975,-0.0286768544,0.0066915066,-0.013519885,-0.0128120659,-0.0130976122,0.0097104,0.00145649444,0.007566087,0.00308120088,0.00660481257,-0.0178035852,0.0249128,0.0154247582,-0.00381235732,-0.016525628,0.002045534,-0.0164200012,-0.0169871,0.001632697,0.00621444033,0.012915126,0.01433422,-0.01935881,-0.01816825,0.00978397,-0.026550455,-0.00202237978,-0.003959124,-0.008773963,0.00335027766,-0.0152828293,-0.0164378285,-0.00720936526,-0.0215440691,0.01515851,0.009529209,0.0114886081,-0.00705662929,-0.02465332,0.00597346,0.0144065544,0.0289585963,0.0150718018,-0.00276340428,-0.002820425,0.0170738511,-0.00298350258,-0.008347723,0.00584687,0.009858804,-0.008102511,0.006889253,0.02016618,0.0138339633,-0.008328401,0.0179329086,-0.00148595369,-0.0196727347,0.0179013647,0.007249652,0.00383120216,-0.030590428,-0.008791005,0.00174064434,0.00778977433,0.000203290983,-0.0028770566,-0.0225571562,0.0152714308,-0.0147174094,-0.0261814054,0.011524207,-0.0242601149,-0.0109269312,0.00255518965,0.010207165,0.02032206,-0.0105874557,-0.02203194,-0.0165300872],[0.00718657672,-0.008006829,0.00192411826,0.00119841972,-0.00335973548,-0.01879419,0.000710844761,-0.00618618,0.00287169474,0.005317652,-0.00132400775,-0.00125589664,0.000176701273,0.0216150489,0.000892874,-0.002288199,-0.0195069164,-0.021214284,-0.00283571519,0.004127998,-0.01438719,0.00168083014,0.0273032412,-0.006470891,0.00321067148,-0.014157488,-0.00461556762,0.0022781936,0.02080707,-0.0215336122,-0.00173134112,0.00669470755,-0.00556710269,-0.00191061222,-0.00317633222,0.0117900223,0.0006026804,-0.009594342,-0.00673202844,0.0265919957,-0.00352948,-0.001364106,0.0139272045,-0.001964225,-0.00458801,-0.00306986971,-0.00439001434,-0.0165765546,-0.0314099081,0.008603816,-0.01231504,-0.007801993,-0.0145348273,0.00571041927,0.00314378343,0.0024365806,0.00477807969,0.00543251028,-0.0152418092,0.0162313264,0.008000601,-0.008243216,-0.0138693936,0.001176269,-0.0218279921,-0.0120529346,0.00311450334,0.0131536638,0.00780872768,0.0125459731,-0.0157311969,-0.0149159729,0.009229349,-0.0231727436,-0.00617349567,-0.0126718646,-0.009724769,0.004394795,-0.00769209955,-0.0111842956,-0.0112764109,-0.018507706,0.0121030333,0.001919866,0.006656328,0.00331362453,-0.0170491878,0.0111028664,0.0156424828,0.03094904,0.00186541409,-0.007226697,-0.0103867557,0.0132757388,0.0005035529,-0.0005478216,0.008600894,0.004103141,-0.0008175112,0.00187759241,0.007852115,0.00472507067,-0.0161486287,0.011360649,0.001131402,-0.0124151409,0.01794874,0.0141698308,-0.000385942,-0.0252721366,-0.00355900265,0.000375997566,0.0150180338,0.00131799048,0.00688623637,-0.0363368653,0.0111407219,-0.006436851,-0.02270176,0.00345876324,-0.0110492446,-0.00402099872,0.008054452,0.00126190216,0.0234522913,-0.009153896,-0.0214034524,-0.0186128151],[-0.00567901554,0.02036045,0.0168245472,0.0245895032,-0.0187274572,0.00217205868,0.0137719922,0.0251667742,0.0171183217,0.0148279415,-0.0144453179,0.0286350045,0.008727368,0.00460860226,0.0206338037,0.0149054211,-0.00615450926,-0.0199276675,0.0151784876,0.00553245,0.01188585,0.002590174,0.003299953,-0.0150941163,-0.0213007424,0.0114522045,-0.0075965384,0.007782003,-0.008435016,0.00351017062,-0.01718222,-0.0164497867,0.007304113,0.026946215,-0.0108343307,-0.00452684751,-0.012065988,-0.002580768,0.009882038,0.025058927,0.0321624242,-0.00526675768,0.0107184546,0.015389055,-0.0138718067,-0.0124581726,0.009486943,0.0100432755,-0.006791665,0.00423439872,0.009664567,0.00335174939,-0.0111481091,-0.0181988869,0.02409896,-0.008028625,-0.00383621571,-0.0261216648,0.00631644437,-0.0138517031,-0.0121146357,0.0234043412,0.00169811456,0.0077038235,-0.019519506,0.0198031459,-0.0151345544,-0.0105459429,0.0171926357,-0.02659176,0.005816592,-0.00395722827,-0.00754799647,0.003291526,0.000439450116,-0.0103576193,-0.0109511623,0.006010456,0.0141214244,0.0239623338,-0.00689009437,0.01340582,-0.0121302661,0.018518528,-0.00900101848,-0.0104698511,0.02260572,0.00269411947,-0.0137091884,0.00359980087,-0.0354040675,-0.0106191533,-0.0143882008,-0.00380558358,0.0301700458,-0.010421834,-0.009290375,0.00409108,-0.006348957,0.0190443248,-0.016084034,-0.02405147,-0.0303278472,-0.0167178251,0.009479832,0.00701005338,0.0117823547,0.008690981,-0.0132818986,-0.00655385759,0.02512758,-0.005440909,-0.0266326535,-0.008845035,-0.0131649124,-0.0213442538,-0.0118881222,0.0149327908,0.00359232724,-0.002360233,0.0240003653,0.025393378,-0.00743865,-0.03554599,0.00816328,-0.01252707,0.004352047,0.00756901968],[-0.008270926,0.0200817417,0.0207240712,0.0249596033,-0.0146505255,0.00680582272,0.0168760028,0.0313722156,0.01515171,0.0162891783,-0.0126026915,0.0290709231,0.0155498507,-0.00659023551,0.0166511144,0.015111668,-0.0058928756,-0.01706331,0.0144864116,0.007497603,0.0138366,-0.00276310532,0.000307063485,-0.014312746,-0.0165445171,0.0159464478,-0.0139918728,0.00604842976,-0.007433097,0.0100522172,-0.0141727617,-0.0126903867,0.005369746,0.025254352,-0.011666107,-0.00602706242,-0.009490752,0.000973994,0.009333932,0.0226716269,0.027463818,-0.00216759858,0.00769408373,0.00850671,-0.014636579,-0.0109182252,0.007018604,0.007849627,-0.008023714,0.00504007749,0.00529947365,0.000445662881,-0.0149462875,-0.0193123482,0.01562731,-0.0114163384,-0.0001272693,-0.0284720175,0.00613140548,-0.0132216839,-0.0120698838,0.0217881259,0.00344420341,0.009344407,-0.0191645,0.0279018022,-0.0219030883,-0.00680082245,0.0121754752,-0.027629612,0.0145431142,0.000265775656,-0.00199289224,0.00637796475,0.00123916857,-0.00730082858,-0.009457778,0.007756543,0.01742093,0.0238977652,-0.00351482979,0.0130774677,-0.0128783928,0.0142820617,-0.00741813,-0.00370853068,0.02417083,0.009649573,-0.0164317731,-0.006549141,-0.03718836,-0.0128452862,-0.0202536061,-0.00666836835,0.0231777262,-0.00754984235,-0.0101932762,0.004278135,-0.006968385,0.0151788006,-0.01780168,-0.0253608637,-0.0261705238,-0.0185601823,0.00495993672,0.009455145,0.009095597,0.0121808965,-0.010090501,-0.0100419577,0.0285131168,-0.0008241808,-0.0203605257,-0.00598279666,-0.0125988023,-0.0200740732,-0.0178107582,0.0140836556,0.009056499,-0.009682035,0.0267369244,0.0304442346,-0.0117917759,-0.0351398438,0.005405585,-0.0132737383,0.000467314676,0.010665074],[-0.00464311661,0.01744246,0.0155629991,0.01240086,-0.007841314,0.008297077,0.007025042,0.0270320568,0.0122717749,0.008856023,-0.009483062,0.0168378856,0.005621181,-0.00381133612,0.020649055,0.0173250511,-0.004820456,-0.00714890566,0.0138382465,0.00192493224,0.0121499747,-0.00380953145,-0.0106692966,-0.01570699,-0.0132330582,0.0108069032,-0.0052939,0.00769853173,-0.00518554449,0.0109887393,-0.0176886581,-0.015638601,0.0121096969,0.0174787547,-0.0130194053,-0.0104028936,-0.009889532,0.00148307451,0.008838173,0.0136039145,0.023073161,-0.00142760051,0.00714358,0.0113701774,-0.0101308245,-0.0146681024,0.006594436,0.0150332293,0.00762451626,0.0009896494,0.0148767428,-0.00105798279,-0.0016914343,-0.0111445067,0.0129383244,-0.00749751553,-0.00434935559,-0.02135765,0.0102691259,-0.0147642773,-0.012388749,0.02369608,0.00670100236,0.006317491,-0.00589099573,0.01911417,-0.0112536643,-0.00826244149,0.00368106156,-0.023580784,0.0122162281,0.00390360248,-0.0117542474,0.0067743184,0.0007366663,-0.0006573662,-0.006014757,0.00378981628,0.0154946661,0.017951861,-0.00096024666,0.0150438277,-0.009458712,0.0152436355,-0.00583410729,-0.008681408,0.0119396085,0.00460014446,-0.0145195015,-0.00749957049,-0.0262240879,-0.0101937009,-0.00769271562,-0.0107508069,0.0207078252,-0.012009968,-0.0106578143,0.0106155789,-0.008087445,0.0118736038,-0.0137683442,-0.0167431161,-0.0163457487,-0.0125516551,0.008792161,0.0056904084,0.00609621452,0.00109075452,-0.005395485,0.00259932876,0.01523811,-0.0005048049,-0.0301813837,-0.005505696,-0.0109029356,0.00293568312,-0.0124432147,0.0111426162,0.0106345275,-0.00429193676,0.0154577158,0.0199482646,-0.008930162,-0.0273169968,-0.007188724,-0.0129098669,0.00421468029,0.0126668522],[-0.0001424994,0.0129199363,-0.00108467531,-0.00872152951,-0.005754708,0.0220538061,0.0031563472,0.004257932,0.00504542328,-0.00174453878,-0.005869514,-0.00104951032,-0.00549549377,-0.0148894684,0.0106440736,0.00368677964,0.0111048147,0.02610289,0.0004840486,-0.0121658938,0.0181986149,0.00398193533,-0.0346066467,0.00792792,-0.001172377,0.0101961987,0.00474929158,0.00335590937,-0.0137383984,0.0159050226,-0.0097335875,-0.006290306,0.0177737679,-0.00619981624,-0.00133003853,-0.012440796,0.00258794264,0.0187566821,0.00149922667,-0.0204867553,0.002444734,-0.00515471026,-0.0153916609,0.0134972241,0.00188349024,-0.000984984,0.000726566534,0.0219551176,0.0430779345,-0.009254091,0.0254104976,0.00295681576,0.0250690654,-0.003651145,-0.004187362,-0.00217056,-0.008075549,-0.00283235777,0.0193961915,-0.009983225,-0.0101155071,0.0149772586,0.0234932,0.003937177,0.03099791,0.008242317,0.005562267,-0.0199287441,-0.008298664,9.721855E-06,0.01246679,0.0134167755,-0.0178495087,0.0118061351,0.008543536,0.012423791,0.00115623453,0.006123369,-0.00111541315,0.0045111333,0.004908899,0.0154745216,-0.001223927,1.26337836E-05,-0.0008417685,-0.00673048059,0.008327562,-0.0158281382,-0.0131157693,-0.0319406055,0.004757961,-0.00324925,0.0126267951,-0.02487069,-0.00300468924,-0.00313199637,-0.009772741,-0.00425968971,-0.0010221299,-0.00352820312,-0.004303087,0.000250319048,0.01590068,-0.00154741539,0.0007681153,0.008931118,-0.0212050043,-0.0228257068,0.003198181,0.03320842,-0.00385362585,-0.0101136584,-0.0253652986,-0.005883829,-0.009822254,0.0415725224,-0.0008054324,0.00307135121,0.0133085614,-0.001559184,0.00621678075,-0.004466154,-0.00731783,0.00369591033,-0.02201136,-0.00105616951,0.0180688426,0.02181539],[-0.00319100078,0.008568059,0.00596635,0.000742287142,-0.004787283,0.0224252529,0.004428075,0.0104956357,0.0110371187,-0.002061105,-0.00388237531,0.005061768,-2.248269E-05,-0.0182344727,0.0116062118,0.00997406,0.008783447,0.0151951732,0.006798026,-0.0008049772,0.0193434283,-0.00224898173,-0.03322751,0.00185754849,-0.00204889174,0.01636488,-0.0007753251,0.00343914656,-0.019040538,0.0208616573,-0.00426231371,-0.01064038,0.0149327116,0.00759451836,-0.0003136953,-0.0135109024,-0.002925199,0.008655658,0.00632295525,-0.01658104,0.0152735105,0.00210430752,-0.007874922,0.00298934639,0.002392172,-0.007919618,0.00790215,0.01725647,0.03631096,-0.00290485169,0.018261632,0.00548883528,0.0194151551,-0.00641011028,-0.00224018353,-0.00526715862,-0.00395496469,-0.0101173529,0.0247478,-0.02058456,-0.0130635221,0.0161116756,0.0168115236,-0.000332421158,0.0226578452,0.017906772,-0.00155789778,-0.0160023775,-0.0109096263,-0.017335292,0.0143799344,0.0103109078,-0.0130402474,0.0189154148,0.00584257,0.004390931,-0.0004429599,-0.00162865233,0.0114972116,0.0108959619,-0.000796314445,0.0198929,-0.009706248,0.00318304286,-0.006720384,0.00125485251,0.0204624441,-0.006959241,-0.0179649442,-0.0261859074,-0.00780212972,0.0021586637,-0.000747483864,-0.0169646926,0.008021148,-0.003260036,-0.0131329177,-0.003721646,0.00456316024,0.0012906061,-0.0128351087,-0.00656855432,0.005060148,-0.0138853351,0.003057068,0.0149889933,-0.0123412721,-0.0111486288,0.00027570434,0.0284215081,0.006641813,-0.00870857,-0.0266799219,-0.00193145464,-0.00144360971,0.0299191028,-0.0141288852,0.009187518,0.0226341989,-0.005681766,0.017774336,0.0105412472,-0.00934067,-0.0156542473,-0.0234727375,-0.003969681,0.0209834762,0.019923687],[0.00326500228,0.0227894429,0.00726131955,0.0139547046,-0.01738008,0.00110754266,0.005623315,0.024788253,0.0132247806,0.00956836,-0.0218709745,0.0163981654,-0.00131026586,0.008081048,0.0274664257,0.0129477838,-0.004617443,-0.000841250236,0.0110453814,-0.008605322,0.0111982422,0.00182003574,-0.0173241887,-0.01885774,-0.0120430263,0.006421691,-0.00368242315,0.01112614,-0.00111451827,-0.00276674144,-0.0216096472,-0.01916583,0.0141599672,0.0157604646,-0.01434575,-0.00457491353,-0.002384708,0.009296069,0.00153077522,0.0214011148,0.0242049135,-0.0128454566,0.00663524354,0.0179052241,-0.00479169656,-0.01241546,0.00339864776,0.0169789847,0.00519464351,0.00565864658,0.016623728,-0.003540245,-0.000442459219,-0.0113342972,0.008244406,0.00149896462,-0.0130696464,-0.01941492,0.00436219247,-0.00734647736,-0.00468094647,0.030024346,0.0109472815,0.0132534523,-0.009166324,0.0130322985,-0.008329328,-0.0156511832,0.0178726912,-0.01372081,0.0154595245,-0.0030751382,-0.0144428089,-0.00375944027,0.00106160878,-0.00531458249,-0.0197219849,0.0122901443,-0.000447098515,0.012017237,-0.0131526813,0.0108363545,-0.00500800833,0.0199252889,-0.00309947552,-0.0109492466,0.00770375645,0.0004261754,-0.0105534075,-0.00505366176,-0.02176859,-0.0143640777,-0.00404825853,-0.01768202,0.01737746,-0.0185771342,-0.01344458,0.009234774,-0.0102038011,0.0141190421,-0.0109497374,-0.0125481291,-0.02383833,-0.00381733757,0.0114171254,-0.003999602,0.00412408449,-0.00453789253,-0.00685833534,-0.00461733527,0.0177141316,-0.0109602688,-0.0420287251,-0.0133043956,-0.0204579383,0.004928284,-0.0009670692,0.005380717,0.00193339831,0.002424147,0.00746533228,0.0126389442,-0.0163561758,-0.0158604346,-0.00554939453,-0.0140713025,0.004556362,0.0167979728],[-4.95811837E-05,0.0172574036,0.0154944723,0.016898036,-0.0157855451,0.00100584514,0.008601526,0.025020048,0.0179829951,0.0113468152,-0.009700395,0.0201059952,0.00763465324,-0.000514920452,0.0197846945,0.0122760329,-0.00726439,-0.0143269254,0.0101299472,0.00256253616,0.0109686283,0.000281287765,-0.0009186605,-0.01896113,-0.0194602627,0.01590074,-0.00682727,0.007919983,-0.00366751337,-0.00210506283,-0.0149477953,-0.016560534,0.0108002918,0.0212215856,-0.0164582171,-0.006649571,-0.01291689,0.0020117024,0.008339563,0.0224745721,0.0295704957,-0.005690243,0.0129796648,0.0140019851,-0.0171906371,-0.00984149,0.00933651347,0.0124178147,-0.00541748153,0.007634998,0.008939519,0.0007841558,-0.0148677938,-0.0163250584,0.0177370459,-0.006819552,-0.000472347427,-0.0265295114,0.00201780233,-0.0160357021,-0.0133545687,0.0212132111,0.0005867014,0.0102481358,-0.01655726,0.02414488,-0.0179250427,-0.00691972859,0.014775577,-0.0236417782,0.008540844,-0.000220624119,-0.002583969,0.00684547238,0.00249168114,-0.0160728358,-0.009787061,0.009379801,0.0176154021,0.0180287622,-0.00454388047,0.009908921,-0.00596844638,0.0188212879,-0.0115753133,-0.0113580208,0.0142040337,0.007968886,-0.0096583,0.00040442383,-0.03193572,-0.008461616,