{"Layers":[{"ClassName":"Layer","Content":{"biases":[-0.0284183566,0.00667476142,-0.01645348,0.0159848649,-0.00166852016,-0.0008988393,0.006547462,-0.00278213387,-0.0330396555,-0.03521935,0.006425252,-0.00490485458,-0.012155043],"useBias":true}},{"ClassName":"ActivationLayer","Content":{"biases":[-0.0104598366,-0.00299851061,0.00127699343,0.0028662188,-0.0162312537,0.00710434234,0.000894165132,-0.0120260464,0.02354797,-0.00284479535,-0.007122112,-9.364109E-05,-0.0100716585,-0.01345892,0.0145462668,-0.00370693742,-0.00135923,0.0103239389,0.008151858,0.00301893079,-0.00119968993,0.009560891,-0.0202122442,0.0203778856,-0.01068329,0.006872997,-0.00273426413,0.003476414,-0.0161831975,0.0168635286,-0.005644772,-0.00044974382,0.0131949047,0.0006811135,-0.00251895352,-0.0241901856,-8.10825441E-05,-0.000788841455,-0.00106898719,-0.0398833975,0.009186346,-0.005919714,-0.00524691,0.00323322858,-0.00549986353,-0.00176588621,0.008699555,0.0347207151,0.00408083852,0.00349244056,0.009320749,0.006454217,0.0111928377,-0.0120454039,-0.00116216,-0.008468436,0.007522695,0.00423977664,0.01829782,-1.50696114E-05,-0.00500232959,-0.00473606959,-0.00367175159,0.008959108,0.0141365016,0.001632647,0.00483451644,-0.0182731822,-0.0149053028,-0.0101926764,-0.0112346783,0.0101425024,-0.00735341525,0.00243277149,0.005630424,-0.0134552484,-0.00340656866,0.009908513,0.006027194,0.0208769888,0.0050887987,0.0007742553,-0.00424031168,0.00169694982,0.000420473167,-0.00682608131,0.0237562638,-0.00245397259,-0.01030226,0.0039316453,0.007460557,-0.001395513,-0.0036413942,0.00171297137,-0.00725834,-0.005668599,0.006882668,0.0104162293,0.0194362216,0.00196351414,-0.00299769617,0.004545928,0.006433933,0.00380652235,-0.00168311736,0.0243330766,-0.006720921,-0.0303169265,0.000395426759,0.0157715585,-0.004971837,0.00193290215,-0.0124236848,0.00951327,0.0256247334,0.0135898683,-0.02247668,0.0166009,0.00532726943,-0.007938455,0.0166094135,-0.0117315259,0.00661123171,-0.0122973267,-0.0263929386,0.000297862367,0.004707558,0.00721406564],"useBias":true,"func":2}},{"ClassName":"ActivationLayer","Content":{"biases":[0.03346886,-0.0123980828,-0.101586051,0.0531160571,-0.010730844,0.0302207842,-0.0997701,-0.08836556,0.0754968,-0.028588213,0.02815162,-0.0177058931,0.0847130939,0.008233151,-0.03919629,0.008753328,0.02717706,-0.09350632,0.000281540066,0.105139911,-0.00100342778,-0.06106693,-0.007415217,-0.0529250354,0.132878736,0.0200496633,0.0306197833,-0.0613983274,-0.08573708,-0.0715550855,-0.01752707,0.101733215,-0.00185923139,-0.00364816934,-0.0709928051,0.0123665994,0.06626704,0.0406790748,0.08731477,0.0797194,0.0675179958,-0.0157845169,0.0539720878,0.0227466319,-0.0339447,0.129231781,-0.06568129,-0.04709826,-0.05084465,0.116312146,0.01245802,-0.0521112941,0.08426619,0.113938048,-0.0170245431,0.00548563758,0.0441344976,0.01616705,-0.00648510177,-0.06918801,0.0382315777,-0.09485478,-0.0283493,0.134228,0.0337549075,-0.0316927247,-0.0712528,-0.0862628,-0.0177900624,-0.0242749713,-0.03867935,0.05504488,0.08277338,0.03930437,0.03349371,-0.0857455954,-0.0563695431,0.0272340477,0.025877038,0.008893464,0.003880883,-0.0204405151,0.0190486033,-0.03899466,0.0336819775,-0.04056372,0.0145704933,0.0269687865,-0.0419641323,-0.0150501458,0.07951704,-0.00260291016,-0.011772654,-0.0111965621,0.0560495444,0.0385407135,-0.0267330874,-0.151504457,-0.01814366,-0.162459016,0.0152503736,0.00406225864,-0.0303513221,0.05870177,0.0113645112,0.00134429673,-0.0189193524,0.07789448,-0.09256521,0.0155032948,0.05072728,-0.0174893178,0.02750759,0.0607617162,0.0594374165,0.0287873913,0.06220569,-0.03536252,0.0150916055,-0.0705452,0.00141617528,0.0276213121,0.0277098212,-0.06975725,-0.0268004537,-0.09604205,0.0167797431,0.008766485],"useBias":true,"func":2}},{"ClassName":"ActivationLayer","Content":{"biases":[0.0841519758,0.0217817314,0.216891512,-0.128832981,-0.095611766,-0.19481042,0.2580404,-0.0750187039,0.155708611,0.1179128,-0.09419273,0.0418480858,0.1827221,-0.06753384,-0.0209580977,-0.0219238512,-0.08992656,0.102071635,-0.106665678,-0.112179749,-9.176655E-06,-0.0137622459,-0.121320553,0.0116602555,-0.0149367945,-0.08335443,-0.0432187468,-0.101247862,0.07496535,0.0113279549,-0.260827243,0.145480722,-0.06447387,-0.02022836,-0.0143135684,-0.237047955,-0.08988491,0.125618488,0.06689941,0.0394577459,-0.1065203,-0.0121246744,0.06800451,-0.242033347,-0.130189955,-0.05319261,0.04233053,0.0595773943,-0.0131363738,-0.234708235,0.0127343656,-0.0118200518,0.07525329,0.153204814,-0.1328585,0.185940713,-0.0573401824,-0.0213544369,-0.068063505,0.202759445,-0.016795652,0.202468574,0.0124408351,0.0366543159],"useBias":true,"func":2}},{"ClassName":"ActivationLayer","Content":{"biases":[-0.1442159,0.167255208,-0.004430559,0.0161901433,-0.236780748,0.0408172421,0.287858784,-0.163922936,0.116085358,-0.241560981,-0.148457631,-0.103134252,0.110782109,-0.4287657,0.752620041,-0.0203202069],"useBias":true,"func":6}}],"Weights":[{"ClassName":"DenseWeightMatrix","Content":{"matrix":[[0.101975627,-0.00427258341,-0.0177219063,0.006071752,-0.0317736045,-0.0204096045,-0.04986392,0.0350849554,-0.0165678617,-0.00200107321,-0.002237892,-0.00709232036,0.0385180749],[0.0533899441,0.07018237,0.03160883,0.0617941841,-0.0322351158,0.00137873623,-0.05136458,0.0104825506,0.081152536,-0.023971824,0.08482948,-0.0139604639,0.030538382],[0.0190560352,0.006116579,-0.111553185,0.009977752,-0.0316796973,-0.00970602,0.0268050022,0.0320811979,-0.00441356469,0.03883371,-0.0017302474,0.006368258,-0.06292413],[-0.0392746367,0.00936831348,0.00724859443,0.06561553,0.020886248,0.05276449,-0.0555677935,0.0488345176,0.00764056761,0.0376359634,0.0592138171,-0.0551297069,-0.0323827043],[-0.0741058663,-0.08053587,-0.0289547965,-0.0135111539,0.0163124148,0.0387378335,0.0156325735,-0.05979112,0.09974903,-0.00330865965,-0.05385406,0.0336194225,0.01885785],[-0.111386046,-0.09910912,-0.0466215871,-0.03787101,-0.0342850573,-0.06974214,0.0339452475,-0.0058121453,-0.05794017,-0.0473221,-0.0190880224,0.07136088,-0.113484055],[-0.01214747,-0.00106156082,0.0146234725,-0.009610396,-0.0455725342,-0.0103680277,0.039495308,0.0388179,-0.0461719446,0.0155599117,-0.0139641464,-0.0928173959,-0.012057377],[0.0201891921,0.09922166,-0.008467091,0.07027997,-0.05377494,-0.0558070764,0.013082956,0.0315901563,0.0200835783,0.07005086,0.0122404825,0.0285371952,0.0412813947],[-0.01640759,0.00776775042,-0.06333029,0.06879867,-0.00597902527,-0.06836739,-0.046025984,-0.008559514,-0.0478773974,-0.0208968166,0.0604843237,0.0155858295,-0.0994428],[0.0137965148,0.0141323917,-0.1474468,-0.0241615,0.0291996058,-0.0340740345,-0.0661339238,0.0254288446,0.007349484,0.0404844023,-0.008005509,-0.00279488671,0.0474722348],[-0.0505572,-0.08046708,-0.0124674309,-0.000135567258,-0.0369557962,0.0431779958,0.0102940788,0.004692571,0.06990495,0.0162691716,-0.030601833,0.0178664569,-0.0317342],[0.0459411927,0.07467604,0.0295965243,0.0611603931,-0.0306061152,0.0431114,-0.038914144,-0.0719937,0.0526007,0.00983898249,-0.0122399386,0.0002614296,0.0127182873],[-0.0201391429,0.010558581,0.104807191,-0.0351119749,-0.0430650227,0.00213693525,-0.00673075253,0.0463298634,-0.0177673511,-0.00338965957,0.0601695329,-0.0488507375,0.0164556168],[0.125217035,0.0210650321,-0.0173173063,0.00664566644,0.0355799235,0.04198688,0.0114139309,-0.07248866,-0.0106891738,0.0288389064,0.056617327,0.0186829641,0.05887416],[0.003612047,0.117582507,0.05052381,0.02347187,0.0003906604,-0.0116016576,0.00736678438,-0.016695857,0.0242302455,0.02843441,0.0194039159,-0.0275595859,-0.0507851355],[-0.06705112,0.0328819454,-0.010477351,0.0165849421,0.0220452137,-0.0658660755,0.0317476727,0.0707092956,-0.0239568576,0.00318872184,-0.01576411,-0.0391755253,-0.052350916],[-0.117065042,-0.0220123343,0.006593308,0.0171302557,0.0449950323,-0.04160116,-0.0319522731,-0.0103594391,-0.0573732853,-0.0494633876,-0.0440339856,0.003103155,-0.0329482071],[-0.0522310324,0.02779137,-0.08545449,0.04210298,-0.00402056,0.0445873439,-0.00180415926,0.015683841,-0.0419036075,-0.023064103,-0.0499863,-0.01567081,-0.1059814],[0.05980318,0.07469342,0.005156877,0.0150462016,-0.0239989031,0.005537366,-0.02183497,-0.0170706324,-0.05719512,-0.04569063,-0.0226128213,-0.0115979575,0.007587345],[0.0224223211,-0.0456117578,0.07878896,-0.0186399631,0.003984383,-0.026456831,0.04223032,0.00416635768,-0.06030393,0.026489621,0.0627034158,0.00315092225,0.07863201],[-0.0337168947,0.06635548,-0.100873753,-0.0151316607,-0.023040656,-0.032425493,-0.0255068466,-0.03930387,0.00419227546,-0.0266042668,0.03135955,0.07086687,0.00303101842],[-0.00137175061,0.04905819,0.03425963,-0.00466858,0.0107403435,0.0309741013,-0.0440405,0.0242652427,-0.0550809279,0.006530235,0.0210071374,0.053723596,-0.013609522],[0.0619334355,0.003893799,0.09882205,0.0117996233,0.04599512,0.0925489143,-0.009947756,-0.007755349,0.0924231,0.05481943,0.0158631466,-0.0332726426,0.0430130064],[-0.0506005436,-0.0530056767,-0.120662063,-0.00256777788,0.0566329621,0.0602092445,0.0170639865,-0.006055412,-0.112648338,-0.08871744,-0.0330194272,-0.0183387287,0.0428526774],[0.004852655,-0.009538156,-0.0579303764,-0.0826294944,-0.00629959861,0.0251794923,0.0137991859,0.0419222564,-0.00999132451,0.000487549958,-0.06447899,0.0419930629,0.0483712852],[-0.08339523,0.0332942121,0.035278067,-0.07712332,0.0221760049,0.009377011,-0.0326628163,0.05544866,0.0294000823,-0.04943489,-0.01998585,-0.0503205843,-0.03676467],[-0.0333616324,0.0110848611,-0.08124655,0.040736638,0.0569636039,0.0645972639,-0.0598668456,0.00259811128,-0.0422470048,-0.0079709,-0.0477078259,-0.02867022,-0.025098294],[-0.1003435,-0.0264188051,0.04281673,-0.0168955214,0.06481753,-0.0304217562,-0.0393589847,0.0152723659,0.0498071723,0.004847978,0.037273936,-0.0197406188,-0.002815685],[0.0773829445,-0.00938376,-0.0227299742,-0.056469433,-0.04551457,0.05737482,-0.028752666,0.006704225,0.08678052,0.09595013,-0.04357303,0.0474997573,0.0196679756],[-0.07267489,0.0195904914,-0.08445667,0.0710775,-0.107811481,-0.0133915851,-0.05859769,0.08649864,-0.05245975,-0.0108286869,0.04729011,0.0260208044,-0.122361518],[-0.009192318,-0.115539528,-0.0462003723,-0.0368369445,-0.01416752,-0.026093768,-0.0281650815,-0.037216004,-0.0338457823,-0.0548645966,0.0193332713,0.0156654865,0.00624241866],[0.07294823,-0.03641191,-0.0240442846,-0.00253645657,-0.002849498,-0.00330558186,-0.0615848564,-0.08292285,0.01670783,0.06128076,0.0188463926,0.01251649,0.0424898863],[-0.035571415,0.035742458,-0.00224519381,0.1026079,0.01787184,0.0482143275,0.00450490927,-0.07051556,-0.00322618242,-0.08658317,-0.07934956,0.05820082,0.0143714305],[0.0234627388,0.112423278,0.02444392,0.0001875726,0.02667075,0.0367121,-0.001842638,0.0203696713,0.022610303,-0.0303927679,0.02696343,-0.0393739529,-0.0394432247],[0.09268902,-0.0152582647,0.009873088,-0.0235517323,-0.0181510933,0.0448905379,-0.00145647756,0.00171520829,-0.05212107,-0.02460472,0.0127714686,0.0305205248,0.0341166742],[-0.0511389,0.03686475,-0.0112023074,-0.009776376,0.02129709,0.0453055,-0.012880736,-0.058528,0.0391168669,0.07624232,-0.06689393,0.0185287241,0.0575919338],[-0.0188628957,-0.0383783728,0.04319332,-0.0524921864,0.0381132476,-0.036913164,0.0285157468,-0.06697856,0.07237253,0.0231873319,0.00346926437,-0.0176031981,-0.0102755707],[-0.0801490247,0.0220302381,-0.09835222,0.0446818881,-0.0449037775,0.011751188,0.0166614521,0.000371968519,0.0243377313,-0.0630878,-0.04573486,0.06286183,-0.0322925933],[-0.0902570039,0.01995184,0.0254584886,-0.028179016,-0.0271230564,-0.00462066,0.05570733,0.049807854,-0.0346213244,0.0151163945,-0.05568138,-0.0407558978,0.0400929451],[0.129375085,-0.0304419715,0.06691388,0.00169879769,-0.08816266,0.0421626568,-0.0398588851,0.0263719056,0.147895873,0.110870354,0.09562573,-0.0181021933,0.0532708578],[0.0171922818,0.0786249042,-0.0107183112,0.06310904,-0.03164289,0.01336526,-0.0139021445,0.00295150629,0.01895995,0.015742166,0.0154419309,0.0578157343,-0.0267765913],[-0.06541113,-0.08431999,-0.0152981142,-0.00209934637,0.043475654,0.03437153,0.0369890258,0.0077904067,0.0539866127,0.0462853536,0.0558334626,0.0191550329,-0.0135684675],[0.0393864773,-0.06912778,0.06598324,-0.0560909063,-0.006617015,0.00379667734,-0.009202462,0.0138659412,0.06172973,-0.0114552425,0.07841242,0.0172616746,0.001231281],[0.0369975828,0.0516735353,-0.0610466525,-0.0257566031,-0.0176946986,0.0126957847,-0.0416654423,-0.037472114,-0.04682358,-0.0135602476,-0.03438541,-0.070595,0.0133627346],[0.004057666,-0.023333678,0.09306014,0.0118976366,-0.0122424737,0.00697609456,-0.0365329459,-0.00761925755,-0.0203686431,0.0230667535,-0.0120851835,-0.02677711,0.02576211],[-0.06540248,-0.0916596,0.0109991916,0.003190745,0.0443328656,-0.02130318,-0.0109624667,0.009905821,0.0554367825,-0.0178415459,0.04236523,0.07164376,0.0202312842],[-0.0292142984,0.01650379,0.06768852,0.0320538841,-0.04514075,-0.07436658,0.02203066,0.0968278944,-0.0655294955,-0.0426356159,0.0344068669,-0.010488593,0.0281999763],[-0.0346723534,0.03652625,0.0325280651,0.00489663,-0.09097189,-0.06361935,-0.02779141,0.0962475762,-0.0364724956,-0.08254446,0.0432119146,-0.08122605,-0.08385676],[-0.108404234,0.0173409972,-0.040976122,0.039508,-0.0585055165,0.0210369937,-0.04743643,0.0564935133,-0.0452890471,-0.05154617,0.02115369,0.0948829949,-0.0517867655],[-0.00370181981,0.0203349683,0.118372388,0.00658115139,0.00206014188,0.00611586636,0.006163387,0.0328417458,-0.0153340222,0.028158091,0.06620821,0.0231932625,-0.06772715],[0.0500904843,0.05730874,0.0172074679,-0.0673119649,0.03399977,-2.46717013E-06,-0.04449448,-0.00615660474,-0.0714019,-0.01888718,0.0229545012,0.0346144959,-0.0493926629],[-0.0463689379,0.0222358,-0.1225427,-0.0166271739,-0.02638951,0.04830519,-0.064492166,-0.000156787311,-0.05216568,-0.0667703152,0.03388896,0.00347750052,-0.060588602],[0.00675444,-0.0008663713,-0.0156737342,-0.0807767,0.06509073,-0.0179557744,0.040019758,-0.0131032644,-0.04244381,-0.01235107,0.04403867,-0.0169178024,-0.0162075218],[0.0145015046,-0.09543705,-0.00706353039,-0.000900978339,-0.07209953,-0.01586252,-0.028860582,-0.04313069,0.0454459675,-0.009324717,0.0360293165,0.0332964174,0.0502882972],[0.04049736,0.07466296,0.008938149,-0.00265336782,-0.04601638,-0.0263504628,0.00352501054,-0.0355259143,0.0103660645,-0.04936,-0.029027421,-0.000435413269,0.0270423666],[0.024535317,-0.0708938,-0.009647888,-0.08594272,0.06702592,0.0638504252,0.0254419334,-0.0169451013,0.03945109,0.0501100756,-0.009675747,-0.005299903,-0.02650121],[0.0906795338,0.01995176,-0.047183264,0.0108396,-0.009815103,0.03480633,-0.0120315747,0.0217826571,-0.0264222864,-0.0655125454,0.04628102,0.01902004,0.0342954062],[-0.05089612,-0.0608888455,-0.0117580267,-0.0455641,0.009828039,0.0552301556,-0.0259143617,0.0318033434,-0.0472848453,0.04022938,-0.00679879449,0.0166255683,0.03295682],[0.0598912425,0.0005501982,-0.07593029,-0.06405942,0.08337008,-0.07024786,0.00913347,0.0481285043,-0.09982268,-0.07303381,0.0285331644,0.02939214,0.015901329],[0.0407913,0.108269013,0.09766469,-0.007828406,0.03277909,0.023563128,-0.007709548,-0.0641765445,0.002940189,-0.008947188,0.0298209023,0.117582515,0.07287189],[0.0491261519,-0.0535648838,0.09191833,-0.0204307064,-0.0133325672,0.0176318549,0.04571023,-0.0616713,0.0406433865,0.00694308477,-0.01714814,0.01027994,0.0112178829],[0.0188281368,0.0948473,0.0177086536,-0.0214073639,-0.0405555032,0.01350753,-0.04940537,0.00317248772,-0.05428123,0.03880908,-0.0351623334,-0.004463336,-0.009778251],[-0.08255996,-0.06549409,0.0260103364,-0.002193253,-0.0325698,-0.0170061011,-0.060959857,-0.00029497256,0.0622337423,-0.04291828,0.0489945374,0.0597755462,-0.0777873],[0.07481145,0.07501729,0.01227114,0.02986656,-0.0244389959,-0.0153965866,0.0250993185,0.007473743,-0.0841104761,-0.0519448332,0.05101108,0.005265002,-0.0189765934],[-0.0841995552,-0.04216734,-0.03135561,0.0665259957,-0.0664297044,0.008670051,0.0528797172,0.04142967,-0.0299972277,0.0262174513,-0.0485157557,0.0539258458,-0.0613322742],[-0.05303226,0.04630589,-0.103897981,0.0131199379,-0.0670346,0.004174175,0.0315683559,0.05264759,0.03442572,-0.008967487,-0.016890157,0.007973486,0.0155940745],[-0.0491370372,-0.06166275,0.0292871576,0.0157406088,0.008689384,0.0187415183,-0.0266548339,0.0404778644,-0.02052015,-0.0200486183,-0.0116220219,0.08412614,0.03660009],[0.04868689,-0.029663289,0.0182495043,-0.12590313,0.00154757616,-0.03635541,-0.0348295122,0.0534026138,0.08519098,0.0689678639,0.00263760914,-0.0797602758,0.0085242],[-0.0472942926,0.06642382,-0.0204395242,-0.0149158174,0.05599129,0.04609378,0.0166257527,-0.02907068,0.0245393682,0.06073789,0.009655238,0.0208122469,0.0462221354],[0.04046725,0.0499127358,0.110235177,0.0475248136,0.0773017,0.0567992851,0.0273366738,-0.07087308,-0.02405014,-0.016705174,0.02667024,0.05918554,0.12144088],[-0.1291826,0.034687154,-0.0753364041,0.003428425,-0.04481661,-0.08152668,-0.0105108693,0.0604865476,-0.0187597983,0.0363983549,0.0545392148,-0.06445725,-0.06944594],[-0.01876964,0.03591615,-0.0248944331,0.08576294,0.000218238813,0.0117378421,0.0293980818,0.0248216614,-0.07069244,-0.0519094057,-0.0177898835,0.0263965148,-0.0135311624],[0.106078342,0.04304385,-0.009031503,0.0180059168,0.0228121635,0.03711821,0.0820148662,0.0172600541,-0.0269332882,-0.0205989853,0.0219282228,-0.0601980872,0.06153048],[-0.112125792,-0.0361756124,0.0299610514,-0.01056156,-0.00732315937,-0.014295958,-0.00727291964,0.0896916762,-0.0471916236,-0.01456813,-0.009519976,0.0505168438,-0.08745213],[0.0156512447,0.04114548,-0.0182719883,0.05202366,0.003558745,-0.00589859532,0.0005358575,-0.0640165,-0.0772286,-0.000107637825,-0.0205207281,-0.0006839026,-0.04226718],[0.0229050517,0.011621071,-0.153054655,-0.0279433466,0.0439149551,-0.00439542625,-0.0114794094,-0.00712149125,-0.005866148,0.06871539,-0.07536075,0.0172637254,-0.006847519],[-0.0577793755,-0.0521611422,-0.0141477427,-0.06373555,-0.05456671,0.0731604,-0.0305089988,0.0715431049,-0.0348779075,-0.024659086,-0.06838258,0.0160824731,0.0441529565],[0.0729269758,0.06276248,0.0143310819,0.0236805063,0.00678437343,-0.00765045546,0.0193269067,0.0283947587,-0.06402888,-0.025576191,0.0518217869,-0.00704204338,0.00369755831],[-0.048792135,-0.008396632,0.06350978,0.0805344358,-0.0497372448,0.0408650041,0.0319242664,0.051072143,-0.00372535014,-0.0455207452,0.00514791,0.00524713239,0.0348095335],[-0.107512392,0.0111793783,0.0135686509,0.004339961,-0.05515694,-0.05108876,0.05158195,0.08936814,-0.08850153,-0.00446338952,0.03363203,-0.0324329771,-0.0514301658],[-0.0798843354,0.03708186,0.007308984,-0.0199482385,-0.0212496016,-0.008823134,0.04175113,-0.0248770658,-0.0160512514,-0.03828089,-0.03559713,-0.04001762,0.04496059],[-0.02969992,0.06848448,-0.110542439,-0.03919388,0.0284302,-0.0260532424,-0.09687674,-0.00676937,-0.022749776,0.0647577,0.0558846556,0.0516009368,-0.09947366],[0.09516424,0.018328093,-0.0206024554,-0.0007537467,0.005697726,-0.03999758,-0.0381735824,0.003895645,0.0524262749,-0.0369094722,-0.00436806632,-0.001604739,0.0253516883],[-0.0196445975,0.02201359,-0.0549031645,-0.06475948,-0.03790027,0.006860519,0.007718331,-0.0315998048,0.0508871153,0.0128050335,0.05380374,-0.0424563,0.00762852468],[0.104616851,0.009075254,0.00164387957,0.0107389558,-0.0181603,-0.00445337873,0.005450513,-0.0601635426,0.0178146549,0.04988381,-0.04302011,0.00936508551,0.015596942],[-0.06388708,-0.04219624,-0.0274211746,-0.06338846,0.00643180031,0.06790137,-0.000905309163,-0.008060204,0.0003603046,0.0134993438,-0.0137983644,-0.008419088,-0.0669403747],[-0.004617152,0.03048606,-0.0310340784,0.0551984832,-0.0385734849,-0.0998978838,0.0626264662,0.09883306,-0.06619568,-0.03771784,-0.009841575,0.0299511012,-0.06916567],[-0.000199378424,0.004591363,0.06319323,-0.0298003945,0.0124449776,-0.00608203,0.07493208,-0.004390768,-0.002589228,0.0491325259,0.0618641,0.0252781175,0.0389213674],[0.115753509,-0.0201331675,-0.004865508,0.0482664555,0.078028664,0.025027331,0.08406252,-0.0783373863,-0.000281566725,-0.0116705773,-0.01146168,-0.0359030627,-0.003489893],[0.00081520353,-0.0156576186,0.152444512,0.0183732267,-0.0224265661,0.0415581539,-0.000502051844,0.07505171,0.0500590727,0.0142412055,0.0195816234,-0.007078363,0.00212311465],[0.05486943,-0.0605727,-0.0253885277,-0.009416715,0.004740456,-0.009972005,-0.031734135,-0.0203255415,0.005738554,-0.04133487,-0.0309494734,-0.0398707,0.05104284],[0.05429597,-0.06379567,0.0459468551,0.0103422282,-0.0527481921,0.0233520065,-0.01027423,0.0110428622,0.0517784,-0.05399798,-0.03939999,0.03187497,-0.0538726933],[-0.0213372558,0.00242423452,-0.09000011,0.0324185044,0.0466059,0.0277726352,0.00258639548,0.0168975759,-0.0457150675,0.0207947046,-0.0623924769,0.008479954,-0.08116741],[0.104744755,-0.0592812747,0.134458482,0.00195045467,-0.014505906,0.0242840275,-0.0166738536,0.06327537,0.0726739839,-0.0198699534,0.103534468,0.020185316,0.116510555],[0.03848829,0.03858006,0.101557225,0.00677933544,-0.0474046543,-0.0431681536,-0.0275359377,0.0172710177,0.07057808,0.0455275625,0.07256008,0.0196411014,-0.05136094],[-0.0217933673,-0.106496267,-0.03566717,-0.006721511,-0.0397515148,0.03242779,-0.0362311043,-0.00151547638,-0.03804382,-0.03157996,0.04903805,0.0189643446,0.0475175269],[0.0270856749,-0.0189936329,-0.07493699,0.02138011,-0.04918438,-0.009211321,-0.0436791033,-0.04260551,0.0115522668,-0.0181586668,-0.0538565367,0.008672659,0.04801091],[0.0619573332,0.0443108,0.0182761941,0.0624514967,-0.02389466,-0.0351374038,0.03312862,-0.0409650579,-0.066075556,-0.002772172,-0.0299425479,0.04528031,0.02427119],[0.007873751,0.003724758,-0.05196392,0.0849181339,-0.04449887,0.04676951,0.0311031435,-0.0257680379,0.0174183343,-0.00149128307,-0.06668278,-0.0585320368,-0.0153599158],[0.0355491675,0.102068357,0.0712842047,-0.007885156,0.0422271565,0.0136921229,-0.0291742738,0.00301174773,0.0591679178,0.0185156036,0.0510146134,0.06276979,0.007554208],[0.096294,0.0156691037,-0.005602702,0.007843138,-0.0644151643,-0.0367789939,0.040381562,-0.00357984519,0.0306117442,-0.02368756,-0.04876979,0.0001211791,0.032421235],[-0.0132164946,-0.0785702839,-0.00050901057,-0.02854223,-0.00334756775,-0.009683419,-0.0459650159,-0.0196853243,0.00240028044,0.0276744235,-0.032070972,0.0299555622,-0.0397653058],[-0.07178326,-0.0873039737,0.039210137,0.0109578967,-0.0462160669,0.008151713,0.0205647387,-0.00266946875,-0.05672379,-0.06594059,0.019079674,0.03089987,-0.05913777],[0.08266374,0.05065296,-0.0250637177,-0.0389280058,-0.0071752863,0.019018963,0.03842128,-0.0574675947,0.0220540874,0.0192045365,-0.0328835063,0.0238375776,-0.0514716469],[0.0301843751,-0.008071763,-0.0618160255,0.0202961788,0.00636222353,0.0104377139,0.044307407,0.0372899659,0.0356069468,0.0063783545,0.006041865,0.03993329,0.05768187],[-0.09319896,0.008051691,-0.07561154,0.0103900572,-0.0373922028,-0.1025264,0.00202170573,0.08559734,-0.09327334,-0.112772465,0.000898850965,0.0139532043,-0.0127374595],[0.05878678,0.0228602756,0.0725799352,-0.0423330329,0.0193743464,-0.0271546636,-0.0445859581,0.07558085,0.03421666,0.0215466022,0.0063535627,-0.0939347744,0.07692596],[0.09524717,-0.0239713676,0.07950248,-0.0563168935,-0.0449554026,-0.009117223,-0.006544629,0.0251511652,0.08703409,0.08157486,0.006743797,-0.0565565042,0.008967625],[0.045298,0.01138658,-0.015701307,-0.08417073,0.0214470085,0.0349647142,0.0266278069,-0.06519868,-0.0105084013,0.04353417,-0.05878706,0.04373887,0.00461305],[-0.0556068271,0.023481749,0.0243044253,0.0393883958,-0.027936453,-0.0139791751,0.0375911221,-0.00308265258,-0.09600038,-0.08828341,-0.0477592759,-0.05268374,-0.03932993],[0.000653509633,0.0398400053,-0.0382636748,-0.03432331,0.0525635369,-0.050822977,0.0366560444,0.0412554778,-0.0109486412,0.0590748265,-0.0311463084,0.07888932,-0.0352141447],[0.02051044,-0.07006572,-0.0503348671,0.0397456326,0.0197705943,0.06342154,0.0102789123,-0.0558788367,0.0482144654,0.06793637,0.0513517521,0.084619686,0.0263119955],[-0.00357506168,-0.114988737,0.0111226225,0.04526907,0.07092319,0.04518457,0.06520296,-0.0313077942,-0.0165296122,0.016879268,-0.03987867,-0.03285853,-0.00196338631],[0.0394311547,-0.01628208,-0.00402389141,-0.02096405,0.0364088267,0.04479233,-0.0247287322,0.002512472,0.0188134611,-0.0555981249,0.02119113,0.0430784039,0.0590364523],[0.0519618131,-0.0613879152,0.0107283546,0.003446023,-0.008471157,0.0199176725,-0.02524064,-0.0174273625,-0.09813508,-0.100313544,-0.0488930233,-0.00580714224,0.0185634755],[-0.0699669048,0.0371201672,-0.106051154,-0.0166054517,0.0204249229,0.00992311,-0.008444005,-0.07680825,0.000208128709,-0.08820329,-0.05934157,0.09456391,0.000190269755],[0.0260819066,-0.0110774254,-0.0897246748,-0.0458720624,0.0721906349,0.0303912,-0.02577863,-0.0547236167,0.07770314,0.06908912,0.0477504246,0.02183732,0.03550058],[-0.116861716,-0.026726231,-0.007387196,0.0253540128,0.0229245,0.0307354014,-0.00219991943,-0.029975513,-0.02304672,0.005659005,0.00260504871,-0.02301915,0.0448506065],[-0.108776458,-0.010894699,0.0367173329,-0.0145750279,-0.0781199262,-0.0483068563,0.00615760963,0.09960931,-0.01103735,-0.0436877571,-0.0207530987,-0.0278856158,-0.0529794767],[0.00541799469,-0.0176553242,0.158081323,0.03414576,0.0305097345,0.09774705,0.0445906147,0.0251199044,-0.0261503514,0.0218545,-0.003248751,0.0286649466,-0.04772512],[-0.0284429,-0.004696577,0.07737059,0.03996784,-0.0686437,-0.0579979531,0.0391283035,0.05084321,-0.09041862,-0.0390967056,0.0219567511,-0.008840969,0.0279135369],[0.022648083,0.06353177,0.0174402483,0.005163445,-0.06497167,-0.03154913,0.06970965,-0.0227533877,0.0350895077,0.0712551,0.0684991851,-0.0358162038,-0.05821894],[0.0455114841,-0.05309954,0.0137465317,-0.03455735,-0.007046684,-0.04492475,-0.0038553176,-0.0266770124,0.0508341864,-0.0514854826,-0.0447909161,0.07646447,0.01889457],[-0.0572201051,-0.08307427,-0.0185860675,-0.0171807464,0.042242147,-0.02125163,-0.0207442176,-0.0448186174,-0.02124782,0.004503879,-0.0291939825,0.05988338,0.0175361987],[0.133841157,-0.0217797644,0.0965218544,0.004214841,-0.03868333,-0.00536687858,0.07562208,0.0188454315,0.125460163,0.11814633,0.09922667,0.0147655858,0.09183295],[-0.04029545,-0.0580538921,-0.0363333,0.0177115574,0.03567153,-0.0312213879,-0.01038419,0.00090577954,-0.059394978,-0.0417128131,0.004745949,-0.0485619865,0.0500120632],[-0.04894997,0.04898972,0.07258095,0.0188156273,-0.0248912554,0.0430698581,0.07042454,-0.04715929,-0.06782863,-0.0660370737,0.002562915,0.0197261069,0.007747931],[-0.0189744718,0.0773537755,-0.0533929057,0.005716638,0.00412104931,0.0461400263,-0.027688086,-0.0170921013,-0.06866046,0.0220427,0.0293027833,0.0844783038,0.00362895778]]}},{"ClassName":"DenseWeightMatrix","Content":{"matrix":[[0.0147833433,-0.0228645727,0.0275658481,-0.00288654864,-0.0155589012,0.0266693234,0.0265213717,0.0157515276,0.0322764367,0.008689638,-0.02657474,0.0525543578,-0.0182775147,0.04333231,0.0516650453,-0.0249428637,0.009619993,0.001028811,0.04929787,-0.025646653,0.007816697,0.0248915274,0.05421505,-0.0117568476,-0.0300082117,-0.0301243663,-0.0327935852,0.0321062952,-0.0152937062,0.01317642,-0.0411605537,0.0140221268,0.0003708921,0.04859647,0.00268688938,-0.02846034,-0.008245059,-0.005713367,-0.051603727,-0.00670344057,0.0170781054,0.00630326942,-0.01653862,0.00423441874,0.03934436,-0.02254072,0.0465594046,0.0253233742,-0.0390390977,0.0151906488,-0.03461127,-0.0141312964,-0.00643465668,-0.0118852248,0.032402467,-0.0176171176,0.0346383676,0.0118843541,-0.003075594,0.0210520886,0.0276630372,-0.00303741149,-0.03362498,-0.0205422472,0.0255784579,0.009412239,-0.0105633559,-0.0381608531,0.0113926651,0.02233286,0.01574081,-0.0428998247,-0.01918825,0.0181407314,0.04555919,-0.04043652,0.0267556328,0.0233267322,-0.0398579538,0.00848921,-0.0388280451,0.0142921265,0.05234471,0.009211942,-0.004307791,-0.04263593,0.0107179368,-0.02932132,-0.0483625531,-0.0298309177,-0.039384447,-0.0196500067,-0.0126399109,0.0127101373,0.031155074,0.000189593731,-0.0311771836,0.0161333233,0.03546288,0.03956264,-0.007976598,0.0267548058,0.033093255,-0.019217886,-0.0425350741,0.0163962934,-0.00230021379,0.0252341256,0.01283394,-0.02657949,0.0240315236,-0.03884232,-0.0405855961,-0.0182871912,-0.05827563,-0.00262970175,-0.0511671081,0.0295854,-0.0205664579,0.00265279622,-0.0163852125,0.0617709346,-0.0314336233,-0.050392583,-0.0006551832,-0.0268670171,-0.008751549,-0.0227584466],[0.0210758634,0.0295097679,-0.007998608,0.03182023,-0.004486045,-0.03170672,-0.05167164,0.00561571866,0.00308396621,-0.002973068,0.003722201,0.0195479,0.0414996,-0.01743126,-0.00607686164,-0.0501970164,-0.04692108,-0.0517953038,-0.0119971009,-0.020637447,-0.0403060131,-0.03441569,-0.0231052879,0.0121311694,-0.021137137,0.0136233764,-0.018758392,-0.0193496849,-0.009884087,-0.028525386,0.04882627,-0.03058557,0.0380265042,-0.000203287651,0.0122391209,0.0232970174,-0.03144785,-0.026380457,0.0269775148,0.027442297,-0.0269941147,0.008381747,-0.012956812,-0.0248492584,0.000208232916,-0.005024637,-0.009845189,-0.007906479,-0.0311019365,0.04160558,-0.0218572244,0.0127681987,-0.006701021,-0.0142908758,0.002354592,-0.00151580328,0.0139524853,0.00686467765,0.01849457,0.0441022329,0.05666437,0.028099617,-0.0259093847,-0.0285058245,-0.00355229713,-0.0068276776,0.0160123054,0.000526258547,-0.0346213877,0.0435471833,-0.0277630277,-0.02541381,0.0496582,-0.0422110669,0.00841251,0.007492574,-0.0178497117,-0.0115976408,-0.0187689271,-0.0327415466,-0.0104335835,-0.0128257805,-0.01626944,0.0171472263,-0.0172689483,0.0350296274,-0.0123397317,0.00506341225,-0.00181837,0.01398012,-0.03178401,-0.0252928883,-0.0271681175,0.06786556,0.03134336,-0.0173297655,0.0133198611,-0.0196806882,0.0332453363,-0.0409082845,0.0085914135,-0.0135223027,0.0148154749,-0.0241421424,-0.0295967851,-0.0418420769,-0.03174278,0.0267701633,0.0221456438,0.0264757629,0.00552261341,0.05669092,0.02064172,0.0107191289,0.0154095208,-0.03879073,-0.00728017837,-0.03425649,-0.00105499139,-0.0304906014,0.0300619639,0.000500204857,0.03231905,0.008433631,0.0203659255,0.0025605096,-0.0349789672,-0.0339488126],[-0.005233522,0.0320418775,0.03840369,-0.0188002866,0.0195362754,-0.02636425,-0.0226809978,-0.043800734,-0.03914148,-0.0524995476,0.004682618,0.0519232079,-0.0377937555,-0.00553182373,-0.0131345829,0.0124578513,-0.0287959129,-0.043764174,-0.03919812,0.006239477,-0.008393523,0.003935195,0.0585099049,0.00531519949,-0.03072439,-0.02050269,0.029515598,0.00278887269,0.00070358807,-0.06782885,0.004400665,0.0431476533,0.00601624651,0.000279619562,-0.009751466,-0.006229129,-0.006488335,-0.0186803713,0.00664864341,0.0031671687,0.0268854685,0.0113130445,-0.0239103828,-0.005812589,0.0238924939,-0.0519425236,-0.05920223,-0.0392238423,0.0070914533,-0.005582479,-0.027098434,-0.0187069457,0.0360761732,-0.0314591378,0.0331128836,0.0162999425,0.03826393,0.00493489066,-0.0349225663,0.054903917,-0.00678996369,-0.0161960069,-0.0505324565,-0.02886185,-0.036528673,-0.04063462,-0.05564795,0.0463863,0.06040697,0.0452199765,-0.01677749,-0.0174290463,0.0524418242,-0.07128883,-0.0188435577,-0.0642295256,-0.00511952862,-0.0027852403,0.03417227,-0.0530908778,-0.0369511023,-0.051812537,0.04865371,-0.03079323,0.0166142844,-0.024240775,-0.02824284,0.0350760445,0.05081136,0.0490425155,-0.0321912542,-0.010014737,-0.0386637,0.0152469063,0.0308660176,-0.0311588757,-0.0153652383,-0.022040464,-0.0233346522,0.0320766754,0.0339135826,0.006005748,0.000213472289,-0.0242405348,0.03824265,-0.06890768,0.0164037,0.03352045,-0.0185089521,-0.003305577,0.0203808378,0.02347345,0.05136842,-0.0278539,-0.04662951,-0.0470970459,0.008710766,-0.00190140458,-0.04510758,0.020692734,-0.03938132,0.0307728127,0.02315319,0.0191231556,0.0162896086,-0.0110141141,-0.03867153,-0.05121868],[0.0009381849,-0.0286987629,0.008269613,0.00164505944,-0.00227298378,-0.00908312853,0.03624396,-0.0128985792,0.0187305342,0.0423307233,-0.00683259033,-0.000524773553,-0.01697806,0.041354686,-0.000447329425,0.01898648,0.01890109,0.0113032656,0.0185427684,-0.0102274986,0.0409116335,-0.0044791745,0.0138270035,-0.0175434034,-0.0262364559,-2.72283341E-06,-0.00865347,0.03301984,-0.0349058323,0.008932083,-0.0554394126,-0.0169806834,0.0140339853,0.0497180223,-0.019330848,-0.009188813,0.035022255,0.0214675665,-0.009048473,-0.0133108711,0.0302064288,0.005368498,-0.005746336,0.03645603,-0.0390907638,-0.011225977,0.0428053141,0.05650301,-0.00385498628,0.0389336571,0.0212855618,-0.034760166,-0.0112269223,0.0184477232,0.008909945,0.018086005,0.0335619636,-0.0190349147,-0.028517846,-0.0418553166,-0.004168693,-0.0208476447,-0.0185424127,0.03711189,0.01641734,-0.00420611724,-0.0161572881,-0.0220918432,0.021385897,0.04164354,-0.005925465,0.00121496071,-0.0250462964,-0.0106048035,0.006475781,0.0104551762,-0.0273349173,0.0263748746,0.00238858769,0.00758796372,-0.0246689953,0.0516769364,0.0296670068,0.0273156315,0.0280008633,-0.0450089425,0.0128931953,-0.0269053057,0.008002737,-0.0183571447,0.018435102,0.0222011842,-0.0184745044,-0.001346014,0.03332884,-0.0113066388,0.0220902879,0.0189076252,-0.0275092442,0.0352801569,-0.0203442518,-0.0315701924,0.000239242072,0.0130263167,0.0362934954,-0.0228950083,-0.0112021072,0.001916482,-0.0229221489,0.0425926745,0.0416212454,0.02403548,-0.06209253,-0.0100934273,-0.0170942526,-0.0398103036,0.03774931,0.0320547149,0.04646697,0.0163502824,0.02383032,0.0309913214,-0.0278741866,0.0253318585,-0.0250062048,0.0140751805,0.0123421093,0.03952322],[-0.0110767558,0.004959541,-0.03564321,0.03844787,-0.0133951157,0.03746407,0.0294689,0.005276938,-0.0393214077,0.0329744034,0.004313441,-0.0205497816,-0.0185471643,0.04290758,0.0400786251,0.0003681877,-0.05494998,0.00768457865,0.033805497,-0.019256914,0.00764688337,0.0387959927,0.000527482131,-0.05135533,0.0116330069,-0.0229542889,-0.0436915234,0.0270449612,0.0281141661,-0.009179095,-0.05013212,-0.03832435,-0.0163491257,0.05677654,0.04210119,0.0179714561,-0.0301281083,-0.0460447781,-0.0299303457,-0.0136569785,-0.041856207,-0.0473675169,-0.006929297,-0.0138186151,-0.006057771,-0.0419303253,-0.0129210623,-0.03778854,0.008173142,-0.009349815,-0.0332643874,-0.008043322,0.0349687375,-0.0256339274,0.0380761325,-0.0107979327,0.008019639,-0.0114680324,-0.02038543,0.0410310328,0.0357687846,-0.0134752179,0.00445983745,0.006034613,0.00212077936,-0.03359429,-0.0560425855,0.0291609,-0.007329977,0.0452565663,0.0139157446,-0.0242005214,0.0468454026,-0.005910252,-0.01889984,-0.0241089966,-0.0159257017,-0.0101948138,-0.01597281,0.0160806384,-0.0102122566,-0.0489380844,0.0251767747,0.0388528928,-0.0171040576,-0.04287927,-0.03627289,-0.0193925127,0.0209860336,0.0211153012,0.0356762521,-0.0419961438,-0.0576394647,0.0109408647,0.017122604,0.0409259051,0.009527366,0.009453426,-0.001008494,-0.0188840367,-0.022628149,0.0357692577,-0.04814025,-0.0321064927,-0.00666133966,0.0201846361,0.03623966,0.01844826,0.0230911076,-0.0261006989,0.0188157149,0.004912473,-0.0134181632,0.0306994841,-0.0265848786,0.00184320274,-0.01552375,-0.0489998758,-0.01851201,0.0261421055,0.0329650678,0.0345841274,0.0234044325,-0.0412603952,0.0315858237,0.0333388932,-0.0190929566,-0.00311772828],[0.021898808,0.0174227711,-0.04973958,-0.00104602647,-0.0501202755,-0.00272503472,-0.01584933,-0.0285886154,0.0196900461,0.0105049247,0.0110447332,-0.027280869,0.0288527347,-0.025397731,-0.0400373377,0.009037652,0.00252355868,-0.004670823,-0.00138740637,-0.0296662822,-0.0275828745,0.0253206827,0.0318074524,-0.00548642641,0.002215862,-0.00502984365,-0.0010652981,0.000399864861,-0.0282585379,-0.0235216636,-0.0430703834,0.0275260359,-0.0152831,0.0180093776,0.02982413,0.03265237,0.0221893713,-0.03605441,-0.0468371548,0.02835624,0.0396951325,0.0457330979,-0.0281355213,0.03713992,-0.0005058775,0.03230994,0.0298532844,-0.0301565714,0.000600288447,0.00335218036,-0.020867981,-0.0353221074,0.02380515,-0.04064996,-0.03228548,0.005519204,0.00225972966,-0.00312186917,-0.03555022,-0.0258631464,0.009136406,-0.035026025,-0.0372194164,0.0168773439,-0.0136003131,0.00749939773,0.03483845,-0.0219971053,-0.0252850987,-0.0006851126,-0.0244322624,-0.017487742,0.0162376445,-0.00395221869,-0.0312645957,-0.0122622866,-0.03772416,0.0438167676,-0.01626991,0.0311850477,-0.0353258066,-0.0334397145,-0.00669876626,0.0367611,-0.000188037913,-0.0310096443,0.026353538,0.014662494,-0.0351817,-0.0207887646,0.0342583,0.0465524048,-0.035183657,0.04590077,0.0279313438,0.0123724313,-0.0284100752,0.03757733,-0.0254604146,0.00582733843,-0.03443197,0.0111505762,0.03453254,-0.0429384969,0.0323222838,-0.0470919162,0.01655332,-0.0122785233,-0.008062517,-0.00654644333,0.0210309848,-0.009003168,-0.0283626951,0.03506328,-0.0229752176,0.00150415406,-0.0656277239,-0.02734331,-0.0424369276,0.03878043,0.06346756,0.0618016832,0.03193486,-0.0270305369,0.07622624,-0.04152792,-0.0201921016,0.0225989725],[-0.009136647,-0.02136063,-0.008676519,-0.0437128246,-0.0411641262,0.0338524319,-0.0268895943,0.0454430729,0.0123352353,-0.0108474093,-0.0362848267,-0.0128577854,-0.0432142541,0.0147741586,0.0349652432,0.00956076849,-0.000713151938,0.0300611332,-0.0259147678,-0.00438109273,-0.00351168425,-0.0362726375,0.04055575,0.0233668033,0.0096593285,0.03741183,0.0247690435,0.0242936853,0.0138805117,-0.0177723076,0.0350443162,0.03938199,-0.0463130251,0.0440990627,0.00382180163,0.0309597589,-0.022536071,0.0133485375,0.0210317243,0.03547504,-0.0412688553,-0.0154067539,-0.03188454,0.0241204519,0.00935648847,0.0123760728,-0.0119268373,0.0241846312,-0.0272206739,-0.0449242964,-0.0208967365,-0.01197555,-0.027064316,0.0229197983,0.03392173,0.03263482,0.0163917337,-0.0292555783,0.00367240771,0.0333100781,-0.00114978384,0.004603397,-0.007685637,0.048802983,-0.00651950063,0.0125070335,-0.0369495,0.0294329356,-0.02258719,-0.03791297,-0.004057958,0.03284482,0.000896837737,-0.0303805247,-0.0134761957,0.0586441047,0.04326618,-0.0341933258,-0.0125365844,0.026501473,-0.0132654868,0.0580799729,-0.03891049,0.0195652563,-0.0162600484,-0.0206342135,-0.0291721746,-0.01984955,0.0209912583,-0.0121088885,-0.006682511,0.0282688849,0.0295594987,-0.06414198,-0.0364952162,0.0222816579,0.0139674852,-0.04198444,-0.000950514,0.0005657007,0.03830754,0.00942819752,-0.03808843,0.0413887277,0.03507714,0.0422662869,-0.0522663034,-0.02071667,0.0365712941,-0.0479064845,-0.0335532837,0.03916258,0.0235198289,0.000559172942,-0.0671331137,-0.0211690459,0.028463278,0.009913314,0.00215963065,0.010169425,-0.0633507445,-0.0294384342,-0.04453569,0.0179386809,-0.0448606759,-0.0429884419,-0.007644119,0.00756827928],[-0.022792723,-0.01934773,-0.0212406032,-0.0292843673,0.0453961566,0.0414227322,-0.01921963,0.0326443575,-0.0585723072,0.00435081,-0.0271997042,-0.0291174669,-0.00588654028,-0.0200743023,-0.0373016037,-0.0360897332,-0.0355063751,0.05220157,0.0116722668,0.0130081372,0.0216686241,0.0211141855,-0.0222221557,0.0200334042,0.0221873261,-0.011721584,0.04536,-0.01973239,0.00732994126,-0.0207538176,-0.0224530734,-0.0008868675,-0.0273379851,0.0340156145,-0.0284894984,-0.0229187869,-0.0141473366,-0.0152238989,-0.00309410924,0.010562391,0.0381443426,-0.0007262486,0.0213501044,0.0302419718,-0.004612939,0.009647076,-0.005426617,-0.0236551259,-0.0446960852,-0.02327647,0.01745733,-0.0307136849,0.0185837056,-0.021567069,0.03076823,-0.0294377934,0.00424227,-0.04338836,-0.01030798,-0.0107865361,0.04144637,-0.0212109368,-0.02434788,-0.000210643484,0.00451413728,0.000713786168,-0.000503317162,-0.0325591564,-0.006722664,-0.0272294283,0.0115018934,0.00243990961,-0.005332173,-0.02654036,-0.04090506,0.07049516,0.05467751,0.02809114,0.0146167176,0.0165540334,-0.0495502427,-0.02365013,0.0376402,0.04059745,0.0255997628,0.009578303,0.0282349363,-0.03244499,0.0109130694,0.00203966466,-0.02711593,-0.0168868285,0.0537227169,-0.0177591816,0.0119209383,0.0213266313,-0.01898337,-0.0270292256,0.0325487778,-0.0353813544,0.009962605,0.0302584674,0.0481056534,0.03416023,-0.0157471932,0.03996044,-0.0182009451,0.0358825065,-0.006361914,-0.0536250547,-0.012975703,0.03926471,-0.0366180055,0.0340835452,0.02276226,-0.008066884,0.06308094,-0.0219206717,-0.0315510258,-0.03634487,-0.0130174831,-0.00672259554,0.03252869,0.0263662152,0.0188883133,0.008158588,-0.05827108,-0.008875221],[-0.032944385,0.0176640581,0.0035220373,-0.020149827,0.0196786672,-0.00145861541,-0.0364169143,-0.0488506481,0.02376394,0.0327791348,-0.0222241525,0.00172866019,0.0461784266,-0.05257567,-0.0271944,0.0578823164,0.0525542237,0.0247979518,-0.009601747,0.04553111,-0.0213500466,0.0145634366,-0.0396169722,-0.0109043811,-0.0164952911,-0.00576559547,-0.0341888741,-0.004117985,-0.0206244253,0.0156238759,-0.0186517313,-0.0551360846,0.00253291428,0.01195632,0.0356009081,-0.04965982,-0.0384143367,-0.030327443,-0.0196288917,-0.02999169,-0.0217001382,0.012226521,0.0123674283,-0.0293957181,0.03469162,0.005219729,0.0386246443,0.01304699,0.0246739425,0.0101955421,-0.03077426,0.0262282733,0.037072286,0.03867604,-0.0425706729,-0.0528517,0.03596203,-0.0169651359,0.0131020015,-0.0558136962,-0.02031285,0.0285405014,-0.02232041,0.0456722081,-0.0226099677,0.0398576371,0.000564232643,-0.00763152447,-0.0331358872,-0.0520091057,0.0740365,-0.01331452,-0.02907551,-0.0243135244,-0.002833407,-0.0158765167,0.02513985,0.0259063244,0.005238467,-0.0143554742,-0.0102921249,-0.004236897,-0.02558858,0.00631559966,-0.0429982245,0.04151133,0.06324537,0.0247497819,-0.0306870174,0.0126514956,-0.000139541531,-0.0196546819,-0.0101497229,0.00148521969,0.00372111471,0.0122966059,0.01592148,-0.0253567211,-0.00452605542,-0.0072548287,-0.0537113845,-0.01027584,-0.0173946619,0.0132844206,0.0158881228,0.0117255012,-0.0408659354,-0.0379565433,-0.0372281447,0.0331834033,-0.0293816552,-0.00170621392,0.0337461345,-0.008681735,0.024366064,-0.02328005,-0.0115003744,0.0444650836,0.0330121964,0.0308902115,0.03593945,0.0138503965,-0.0246314965,-0.0235997625,-0.02363422,-0.00139921275,-0.0310247578,0.0576201454],[-0.0161842313,-0.0177462623,-0.033970084,-0.04883692,0.04771407,0.0313472226,-0.03882868,-0.0302697476,0.008032802,0.0448194519,0.008335643,-0.0406388827,0.00154240732,0.0433484,0.00426831329,0.029505,-0.0162004288,-0.0317146145,-0.009933027,-0.04526578,0.0377416462,-0.03711446,0.0122132963,0.0262191836,0.0298952032,0.0146607421,-0.0333409868,0.0225298684,0.02503539,-0.0101466142,-0.03028686,-0.0256643146,-0.0152831217,0.00321907084,0.04458819,0.0427580178,-0.0391948745,0.0139265554,-0.0183636323,0.03125733,-0.00485488353,0.03467346,0.04407276,0.0288283248,-0.03929038,0.0221761689,-0.006631817,-0.0376550928,0.0291784685,0.003700691,0.0383716933,-0.0417747423,0.0160944145,-0.0365074463,-0.008337661,0.026921425,0.0130495392,-0.009316539,0.00586838,-0.0155651756,-0.01842202,-0.0381985568,0.0246170554,0.00392401,-0.00158567366,0.0321302,0.0297475737,-0.00113210606,-0.04420372,0.0447813757,0.0179289933,0.0145769464,-0.0337077454,-0.0188177545,0.008240653,-0.0322373956,0.0236744247,0.00763175869,0.0160906017,-0.003755779,-0.0222805068,-0.0103927087,0.0394374,0.0299076177,0.0346192643,-0.0312270913,0.005559227,-0.0142066171,-0.03354325,0.0286234282,-0.0437292568,0.0421651043,-0.0272275973,-0.0306102764,0.0265559349,0.0134467082,-0.00267795613,0.0261700377,-0.035408698,0.00725925434,-0.009242715,0.0138438689,-0.0421567559,-0.0305923615,-0.029006118,0.0230766833,-0.002686004,0.00203081826,0.021526916,0.0124390721,0.0267803781,-0.0336665958,0.0239295829,-0.0114357239,-0.036271777,0.00425319,0.0310780518,-0.04120961,-0.023885332,-0.00466159964,0.0186039358,0.0373515449,-0.0105592674,-0.0301717855,-0.0134252785,-0.00385270733,-0.0306956638,0.0312904269],[-0.035124097,-0.03458843,-0.0323419347,-0.013187171,-0.005326981,-0.0211064368,-0.005926693,0.01589763,0.0217288435,-0.0199279711,-0.0323864669,-0.0589719228,-0.0384239,-0.0557900071,0.0165891983,0.02805848,0.0220212266,0.0286513455,-0.03266351,0.0401821658,0.0339651927,0.0184457153,-0.0421555,0.0129783023,-0.01513304,0.0532951355,-0.04104051,-0.0427498,-0.04418766,0.0289092138,0.0308907423,-0.0366193838,0.04448226,-0.0206278227,-0.00334336632,-0.009044254,-0.004810289,0.0499428324,-0.0299971234,-0.0360367931,-0.0119429035,0.0350456573,-0.03859699,-0.0200800672,0.00110268814,0.0545222536,-0.020071106,-0.01978906,0.014744794,0.0324206278,0.00444453675,-0.01686104,-0.0182276275,0.0246803388,0.0143788485,-0.0289459471,0.0300550889,0.0235997178,0.0353943333,-0.0293388832,0.00641679,0.0134628136,0.02616703,-0.0413014255,-0.027675407,0.0230742581,0.0452299975,-0.0375464447,-0.0495088026,-0.0250160936,-0.01723175,0.02945968,-0.0310384184,0.008465971,-0.0321969651,-0.02106371,0.03650255,-0.04996608,0.03909073,0.0388584547,0.03682511,0.009210402,0.0202364065,-0.0211622342,0.0217142124,-0.03242313,0.0320645943,0.0124477381,-0.008302069,-0.02566479,0.042192582,-0.00303056114,-0.0128241461,-0.04107751,0.0160744078,0.00419437,0.0276503917,0.0145150768,-0.0223079789,-0.008301495,0.0252170041,-0.0133544607,-0.04005824,-0.0390711725,-0.0498330779,-0.01874122,-0.0219966918,0.02386451,-0.00441397075,-0.0151615543,0.03492748,-0.03630309,-0.03077809,0.0158778653,-0.000313213764,0.006719894,0.046328675,-0.028386075,-0.0053593074,-0.0407115,0.047458794,-0.0183303114,0.0102739073,0.007669407,-0.0184100736,-0.005365346,0.0287121087,0.01263208],[-0.0159312021,-0.00742334,-0.01106055,-0.0112323556,-0.00283174613,-0.03664139,-0.0466865338,0.03858539,0.0417271256,-0.03289794,0.0505461879,-0.03494836,0.03661337,-0.0142915519,-0.04640699,0.0215786211,0.0482889637,-0.03421154,-0.016971821,-0.0264377259,0.0305344351,-0.0268001016,-0.0476058945,0.026269706,-0.02844596,0.00172793039,0.01848917,0.0550682954,0.0340311937,0.004814389,0.0178427789,-0.04214836,-0.0240689963,-0.05116591,-0.0140330158,0.03977765,-0.0278104618,-0.00975194,0.0441572145,0.008264749,0.03342838,0.012438558,0.0206665918,-0.0433046073,0.0411408544,0.0289156288,-0.000891240663,0.003380212,-0.0151176071,0.0227852073,0.0327502042,-0.02083259,0.0346003,0.01603173,-0.0540543459,-0.0219828747,-0.0227204338,-0.008765943,-0.0005906791,-0.0325425155,-0.0371932946,-0.00276310113,0.06519797,0.00402871,-0.0177693721,0.0281953812,0.053158544,-0.03239137,-0.0231032651,0.03031351,0.0291534625,0.04432098,-0.0135502,-0.0114349714,-0.0146361077,0.0191829968,0.0279336888,-0.0207820032,-0.0131296813,-0.006560019,0.002729007,-0.02918604,-0.046713002,-0.0161450878,-0.0480040833,-0.000379810081,0.03899558,0.0319836251,-0.0361553058,-0.0324139968,0.0143566811,0.0481671467,-0.0259947162,-0.0326835662,0.009771581,0.0476429947,0.01426464,-0.03598504,0.0285384431,0.03181078,0.0117891729,0.0337589234,0.0153033156,0.0245602541,0.0381654166,-0.0316885822,-0.0497681648,0.0367460363,-0.01614783,-0.01965695,0.0256729759,-0.03285098,-0.01447333,-0.0151010342,0.00489792135,0.0185997747,0.00156735291,-0.023641238,-0.03248613,0.000225861411,0.0399325,-0.004727081,-0.0114341406,0.055990506,-0.04488231,0.042631533,-0.029552998,-0.03652012],[-3.64341358E-05,-0.04825314,0.0308997631,-0.042398,0.01957209,0.03391316,-0.0383710861,0.0170189776,-0.0192708857,0.0411246978,0.03737426,0.01775723,-0.010611441,0.0279725939,0.0169592332,0.0463096835,0.0150447534,0.0370332748,0.0176658481,0.00958477147,-0.000128672575,0.03279779,0.01839987,0.0299138259,0.008435113,0.037784,0.005557,-0.009155323,-0.0102213807,0.00701620243,0.009904352,-0.00337167573,0.014784582,-0.0348543972,-0.01171233,-0.02443338,-0.0126693062,0.0373993665,-0.0205695461,-0.04309523,-0.016909752,-0.0133275976,-0.02712064,0.019775521,0.0176472664,0.0315332934,0.0574506149,0.0528739952,0.048682455,0.00199057977,-0.0181462876,0.0203519,0.02580654,0.00221818662,-0.0109164882,0.0164154861,-0.04393957,0.0232717767,0.0458769947,-0.0340936221,-0.0424745157,-0.035512127,0.0431372821,0.0250892621,0.03423206,0.0490279347,0.0598861128,-0.03580536,-0.03314649,-0.0192062557,-0.005772892,0.009239205,-0.0402279161,-0.01858653,-0.0325108357,-0.0272714663,-0.01559349,0.005746949,0.0441529974,0.0580245443,0.0395537168,0.006198574,-0.0233329013,0.0176259764,0.007118693,0.03639977,0.06440922,0.02397992,-0.0425404161,-0.0225204956,-0.0298023056,-0.011223332,0.0200699512,-0.00268664164,-0.01898872,0.0308404025,-0.0291874483,0.0223774761,0.0194145273,-0.0550331026,0.0135917515,0.044974152,-0.0410234965,0.013962945,-0.030617008,0.05850438,-0.007519461,-0.0457374379,-0.0164504014,0.0234448817,0.01888598,-0.03509466,-0.0195188336,-0.0222702511,0.06077607,0.0378314778,-0.00307878572,-0.03816437,0.04475927,-0.0105246725,-0.0166166481,-0.012729072,-0.0290408861,0.008801479,-0.06705777,-0.0231840443,0.0273972955,0.0252211634],[0.03166995,-0.017994348,-0.0498226956,-0.01692725,-0.0337787569,-0.00990037,0.022132311,0.0186287072,0.0387826562,0.0240487158,0.04045725,-0.0186916068,-0.01097086,-0.0133414213,-0.0281417426,0.004617233,-0.006853462,-0.0405235663,0.006446374,0.0493864454,-0.04584495,0.008529114,0.00578662241,-0.01123134,0.007231839,-0.03584765,-0.0524603762,-0.00488973968,0.019798303,0.0438150577,-0.0112417294,0.011122793,-0.02848853,0.03309342,0.0253163651,-0.0507164821,-0.01213295,0.003645672,-0.02569972,0.0427823365,-0.0122164106,0.03378421,0.0179517344,0.0306485426,-0.0405248664,0.00531363674,0.0216639675,0.03654918,-0.02777654,-0.0132557023,-0.00747621,0.0132567063,-0.0404870659,-0.0147104822,0.0368503556,0.02234698,0.007923369,0.0390694626,-0.0388779677,-0.0104400711,-0.00480111362,0.0103455242,0.0329796746,-0.0368255,0.02614224,-0.04187457,0.037531767,0.0175107885,0.0207880065,0.008217306,-0.026732685,0.03219968,-0.02102213,-0.0476410538,0.00714736339,-0.0285444241,-0.0228410922,-0.0138002429,-0.0202945769,-0.03340271,0.0209652372,-0.0203740317,0.0472231656,-0.0136981821,-0.008571977,0.0124645792,-0.00574738439,0.02744621,-0.0128304595,0.01638969,0.004440129,0.0198140815,-0.0288642533,0.0276196711,0.0177575666,0.0204373933,-0.0369352549,-0.0177662428,0.0556453057,-0.0311751645,-0.03690235,0.0123357978,0.0177269466,-0.03791479,0.0106968833,0.00745168142,0.0201483537,0.02002152,-0.006305679,0.042511072,0.013653147,0.0298585538,-0.015727004,0.00468186568,0.0444313437,-0.05104121,-0.0119395833,0.0240021944,-0.0229678769,0.009937146,0.04696504,0.0329225324,-0.03316685,0.006079196,0.05696655,-0.00476981048,0.008358928,0.021806458],[-0.0109831486,0.0146716014,0.03924376,-0.0383662954,-0.0589876361,0.00571433268,0.028153209,0.00723435264,-0.0496232435,-0.0101414472,-0.0141200675,-0.02290286,-0.0094808,0.00708549,0.0228921976,-0.01861437,-0.0231702588,0.0390050076,0.02502005,0.00216607912,0.0187539849,-0.0316853151,0.020794563,-0.0490106642,-0.01701694,-0.0331039019,0.0179195125,-0.0258451384,-0.0106585668,-0.03750531,0.0134752924,0.0173923951,0.034777727,0.0334316865,0.03356452,-0.0004995786,-0.03342246,0.0176997911,0.03548555,0.03566581,0.028742,-0.0434377529,-0.0206741542,-0.003032632,-0.00351646915,-0.0425146744,0.03452457,-0.0189255551,-0.0130818272,-0.0155927734,-0.009377517,-0.0149282906,-0.00157452084,0.0372724719,0.0283314772,-0.00143498171,0.0172401424,-0.02626674,-0.0143338088,-0.0299767237,-0.027915854,0.0252996832,-0.00600076653,-0.0116626825,0.0217048638,-0.03115193,-0.0399786755,0.0404231362,0.0231330413,-0.028934123,-0.0261750128,0.0380038656,0.0535836928,-0.0256144442,-0.030045243,0.0166937038,-0.0424539037,0.0524002947,-0.0190770123,-0.033243522,0.0128222071,0.0395006,-0.0341145247,0.03666239,0.0212661363,-0.02090989,0.0177691523,-0.0238602646,0.00168769725,0.0135763315,0.0119311688,-0.008406836,-0.0366736837,-0.03455024,-0.03690443,0.0258598737,0.0290387552,0.04572856,-0.00258209836,0.0258393865,-0.0331171378,-0.0466306321,-0.0111745968,-0.009803696,-0.0026263434,-0.0133745531,0.047862228,-0.00740477536,0.0312395636,-0.009621667,0.0389347151,-0.04487752,-0.0452935621,0.0167016443,0.0113132475,0.00197030744,-0.0304162018,0.00276676542,-0.00537762139,-0.0272678155,-0.024846429,0.037792407,0.0184844974,0.01986298,-0.0144873634,0.00566346,0.03410977,0.0176935643],[0.04296428,0.035428647,-0.05595486,-0.0180264,0.0074221557,0.008505013,-0.0138436528,-0.0121274479,0.00800912548,-0.06414275,-0.0131788244,-0.0212154426,0.0276974328,-0.0174376741,-0.0616147257,-0.0546534471,0.01113066,-0.0308226924,0.0246711187,0.0283478517,0.0183522683,0.0238342248,0.0464599952,0.0176709443,-0.0473519973,0.0393202342,-0.04478826,0.0221077632,0.0269541126,-0.0550056137,0.0484655,0.0228362,-0.00855604652,-0.0379269756,-0.01183332,-0.020769136,-0.04487182,-0.0200716555,-0.0184783861,-0.0005684636,0.0279385429,-0.0216333866,0.0161861833,0.03500381,0.0119233588,-0.0150024425,-0.0374471061,0.0379850119,0.00118858321,0.0443499163,-0.05230054,0.00368809979,-0.0168939047,0.0214404482,0.0181299727,0.00256656227,0.0265196376,0.03048908,-0.0197094586,0.0169858132,0.0604962781,-0.0385632627,-0.02151012,-0.0186191723,0.0258428343,-0.00265824585,-0.000975279254,-0.0123361247,-0.0562207475,0.020389026,0.00577927753,-0.0346812233,0.0573598221,-0.04227112,0.0319301225,-0.04237116,0.0351567529,-0.03724056,0.0269158147,-0.0313599668,0.009005267,-0.05828333,0.00362983462,0.000156016933,-0.0274855327,0.0211241636,0.02686799,-0.0152599113,-0.00449088169,-0.011367619,-0.004701419,0.0010192513,0.004409987,0.06518444,-0.024209315,0.033877302,-0.0437148176,0.00471715257,-0.0241830181,0.006604024,-0.02086307,-0.035418272,-0.03558691,0.0175592229,-0.0203456357,-0.0264349934,0.0119607216,0.0130879581,-0.04248651,0.0296402946,-0.02965897,-0.0308537278,0.0482871644,0.0423117355,0.05881324,-0.0321808755,0.0163292177,0.03779246,-0.0008850523,0.0244855024,-0.009509632,-0.03232647,0.00408668676,0.04433917,0.05408741,0.0284082685,0.0263799,-0.04422955],[0.015652163,0.000549432,0.02252259,0.008748627,-0.006110392,0.02975464,-0.00744404458,0.0309378784,0.04395138,0.0132832834,0.00690314826,0.013785026,0.0155765479,0.0297712125,0.0335098319,0.0297915563,0.00290070428,0.005094171,0.0446713232,-0.0351540335,0.05127264,0.0373865776,-0.0001486538,0.01424494,-0.0446800627,0.0399443954,-0.0179943461,-0.00369892339,0.0154857,0.05780971,-0.0299664289,-0.0359200165,0.032599546,-0.00231878739,-0.0196475,-0.0411212444,0.0144497221,0.04067499,0.01790142,-0.0546982177,-0.03246318,0.00367598468,0.000852012832,-0.003668751,-0.0142230187,0.0439504646,0.004293452,0.0583017357,0.0326607153,-0.0392588042,0.043153815,-0.00336686824,0.0450943373,0.0258640945,0.0184287019,0.02619129,0.0187660735,-0.0212152284,0.0185937472,-0.0527999625,-0.026776094,0.0295351651,0.0455033332,0.00139192678,0.00765701151,-0.005797011,-0.0402375981,-0.0246201716,0.0482038781,-0.0418988466,0.006645643,-0.0198015589,0.0228735227,-0.0117468638,-0.02075985,-0.00734465057,0.009327861,0.0218916964,0.027207654,0.04850913,0.0225160662,-0.000375079369,-0.04915698,-0.00313086715,0.00573025038,0.02182444,0.04511676,0.0282216035,-0.0537742935,-0.06056106,0.0151197938,-0.008422689,0.021977894,-0.00118031166,-0.00477699377,-0.03216528,-0.0213527437,0.00850368,0.023206532,-0.0589355044,-0.0291758124,0.0379885733,0.00460422272,0.00809151,0.009594279,0.0117935147,0.02098678,0.0180256963,0.0104882838,-0.0267239343,0.04156013,-0.03877942,-0.025136238,-0.0269612242,0.00233603735,0.045578178,0.009793004,-0.0105308751,-0.0123985438,-0.03663986,-0.007906456,0.00735701527,0.01035265,0.032860782,-0.0267961472,0.03990699,0.0216745343,-0.0233898275],[0.0116754379,0.03372054,-0.0351549424,-0.0314313546,0.0008721302,-0.0494108126,-0.0117924316,-0.0156454314,-0.05236648,-0.05214,-0.0360251628,0.0252901558,-0.008460715,-0.0262134876,-0.039940048,-0.0129194288,-0.004395221,-0.0534212068,0.00248369831,-0.0201347843,-0.01630796,0.03349023,0.0299121588,-0.06466527,0.023840256,-0.0314661339,0.0260265656,0.0348775126,0.0582398921,-0.0294573531,0.00381327886,0.0533129424,-0.03256746,-0.009664217,0.00771680847,0.0198741127,0.0495664738,-0.03191454,0.0149502512,0.0336631462,-0.011801648,-0.000332236319,-0.0127360038,0.00147597922,-0.00416381424,-0.024826657,0.0193877257,0.008080502,0.00426197471,0.009193539,-0.0262460876,-0.0258067865,-0.0124537768,0.04279395,0.010582854,-0.0248459857,-0.0365452431,-0.0360736959,-0.0177319963,-0.0171509683,-0.00693140551,0.0208321474,-0.0160193928,0.0350173861,-0.01726939,-0.0467524827,-0.0436790735,0.0178931225,0.005663949,0.0047019,-0.0306148753,-0.0304299314,0.046807155,-0.0160482079,-0.01713759,-0.0485461466,0.0008303361,0.0186358131,0.04058348,-0.05959938,-0.0106532983,-0.00546737434,-0.03500863,-0.04531991,0.03907417,0.02379192,-0.0313733071,-0.0213105269,0.000887562754,-0.0102485549,-0.0123036671,0.009909391,-0.0272981357,-0.008733551,0.04632395,-0.0223921351,0.00859287847,0.005777488,-0.005027013,-0.0175664891,0.0129380086,-0.00190924993,-0.0286768153,0.0345520861,0.0284349788,-0.07147015,-0.003792083,0.06344644,0.005135121,0.000402337319,0.03179884,0.0071789124,-0.0194676425,-0.009212768,-0.0757090449,0.0140242791,0.00101975224,-0.0126180518,-0.0244340338,0.008847483,-0.0197060183,0.0610657036,-0.0420090146,-0.05000612,-0.00376193179,0.01564574,-0.0266004764,0.0190822519],[-0.005465482,0.0119869672,0.007576668,-0.0267539546,-0.020699773,0.0128608923,-0.0240631979,0.00123038574,-0.0136629883,0.0288983118,0.0215645712,0.0224501565,0.0240286458,0.0396966264,0.04243645,0.03094856,-0.03058248,0.01078717,0.04101641,-0.009935485,-0.03371227,0.0320645049,0.0368911251,-0.01725722,-0.0419019572,0.0363515951,0.0226996858,0.0256407224,0.007930591,-0.00133455743,-0.0286490414,0.0265532043,-0.0345677324,-0.00267592026,-0.0219545048,0.0384630635,-0.0108750137,-0.0117961066,0.0467558429,0.0121085765,-0.007159388,-0.048012875,0.001537219,-0.0146302832,0.0166807622,-0.0180713423,0.04083513,-0.0217681248,-0.0294663273,0.002257134,-0.0262674429,0.006524223,-0.0218226,-0.0265995022,0.03308272,0.0312873535,0.00980685,0.0219530873,-0.0181241818,-0.0124598937,0.0358251929,-0.0291037448,0.018030839,0.0162272677,-0.0462046042,-0.008299635,-0.0223746486,-0.05212704,0.0296554584,-0.0307268966,-0.0480831228,0.00139520667,0.02610596,0.0215744413,0.0199215841,-0.000262843154,-0.01679611,0.00337892724,-0.0354345,-0.0133259846,-0.0281717386,-0.0140401945,0.0270890668,-0.00381564023,0.0108358888,-0.01592532,-0.039487,-0.012116001,0.03758091,-0.0199389756,0.0132849477,0.00387011725,0.0281069856,0.005444881,-0.0322498567,-0.0105279153,-0.0400166176,0.0200267024,-0.0368339941,-0.0144244507,-0.001591282,-0.00590649759,0.0347361863,0.0153038288,-0.0275800768,0.021641288,0.0140239112,-0.0253892466,0.0251826122,-0.0424789,-0.0389517024,-0.0337166265,-0.02394526,0.009601507,0.0309349727,-0.005868787,0.0209325571,-0.03598389,-0.00664499262,0.0248506945,0.0117237205,0.03130771,0.0127730025,0.00271074078,0.0330188237,0.0299175475,-0.0211703833,-0.000106618259],[-0.042029433,-0.0264234673,0.02197576,-0.0239857864,-0.0261981748,-0.00319982716,0.0528741926,0.01954246,-0.009997547,-0.0143094882,0.02566822,-0.00168472051,-0.000508445548,0.008861792,0.0297708679,0.0350153074,-0.0211706385,-0.0284799654,-0.0154226068,0.006594784,0.04416237,-0.04437567,-0.0121897254,0.0243394971,-0.0377384,-0.0279877745,-0.02849779,0.0569671728,0.006640532,0.0118746292,-0.00210680836,-0.0206423849,0.0328687131,0.034881644,-0.01594206,0.0255376,0.006282422,0.0106236059,-0.02451953,-0.04185574,0.0293437857,-0.0401404276,-0.0305552334,-0.0171571281,0.002287994,0.0222468171,-0.00870049,0.0463010632,-0.0204450041,0.008077531,0.034478,0.00534102,-0.02084027,-0.04698575,-0.03676216,0.0140306614,-0.0279788151,-0.00136399863,0.0447001681,-0.0236542039,0.026997393,-0.04559367,0.0248354822,0.03462657,-0.00485581672,0.05489205,-0.04067515,-0.0347333476,0.005963809,-0.0143962279,0.008914437,0.002433845,-0.0306294765,0.00228380482,-0.010807259,0.0122802434,0.0208930019,-0.0077263047,-0.0007377783,0.05086646,0.0219670124,-0.008830526,-0.0311856158,0.0255428366,0.0271898,-0.0397662446,0.0245860927,0.0192444175,-0.0294326171,-0.0198059175,0.0177211687,0.0365139246,-0.0311284177,0.0213651061,0.0170181878,0.0486859456,-0.03969925,-0.0308805536,-0.0379410163,-0.0197555553,-0.0146533782,-0.0208410174,-0.007973979,-0.0112731224,0.0168205034,-0.0007325128,-0.04021176,-0.0529450849,-0.00291887764,0.04631538,-0.0252432134,0.0195519,-0.03586667,-0.0393648446,0.01422267,-0.00562244654,-0.0227570515,0.021515863,0.0605053455,-0.0279810932,0.0334138423,-0.04317066,0.0323728919,0.010633952,0.0134163368,-0.009660331,-0.0124579994,0.0281800665],[0.0453280546,-0.005391096,-0.0550322048,-0.0194526166,-0.0134945679,-0.0356804542,0.036703188,0.0159966983,-0.0468436964,-0.006706669,0.0361937471,-0.006411578,0.03397989,0.05996771,0.008862598,0.0129332962,-0.0363120735,-0.007047674,0.0220006518,-0.03644676,-0.06685797,0.00255506672,0.01678892,-0.06342086,0.00108615216,0.02777408,-0.008187529,0.0382762849,0.0123324106,-0.05275265,0.046986904,0.0216187127,-0.0128489453,-0.0274962746,0.00494797342,0.03569486,0.027248539,-0.04882642,-0.0227907784,0.009550559,-0.0337192826,0.035899166,0.03359239,0.0344484635,0.0116667794,0.0211821012,-0.00646227831,0.00607919274,-0.0242938474,0.05430764,0.01386725,0.0150995739,0.04027999,0.0117507391,-0.0309359431,0.00632611662,-0.0008535448,0.00576690864,-0.0129959034,0.00361766224,-0.007769096,-0.0171654262,0.0264654178,-0.004557692,-0.0105930474,0.0235620942,-0.0184786338,0.03773999,0.006945934,0.0346254371,-3.485093E-05,-0.014513501,-0.00905416,0.002916232,-0.02343397,-0.0212331,-0.00101173832,-0.0113649853,-0.0229794756,-0.0190705154,-0.0114127994,-0.0556709543,0.0377621278,-0.0388312675,0.0119213751,-0.0367763266,-0.0521455631,0.054978665,0.06303771,-0.0218410511,-0.033215,0.0312024914,-0.00749182,0.049386926,0.004331383,-0.0222241245,-0.04193414,0.0253212973,-0.03153167,-0.00309975445,0.0277088787,0.000542428,0.0141817769,-0.03203887,0.03938914,0.008669275,0.0294507444,0.00639144564,-0.046248924,-0.0122370608,-0.0221709032,-0.004199939,0.05585254,0.00683745136,0.02949895,-0.0245558526,-0.00646995241,-0.002642858,0.0222887639,-0.0161665939,-0.008973234,-0.03288677,0.0204602089,-0.0373173244,0.0489073135,0.013252046,0.04112371,0.0229133889],[0.0126386341,0.0286317039,0.02292871,0.0264419317,0.0420908369,0.026833538,0.0331110433,0.04667629,-0.0192607976,0.0636639,-0.0141325071,-0.01904984,-0.0349945761,-0.0306287687,-0.00538818724,0.0003361626,0.0240507144,0.04984714,-0.0230357274,-0.02572534,0.0246302839,-0.00140084547,0.00117728289,0.0152505245,-0.0127326073,0.0321478024,0.04137938,0.0140184462,0.03369957,-0.0546715,-0.02225366,-0.004462378,0.0398395173,-0.0190813579,-0.02047436,0.05225429,0.0409123525,-0.03142448,-0.0261545274,0.00961001,0.01886754,-0.0390711,0.0153079713,-0.00688065728,-0.0447169356,0.02126252,-0.0604202449,-0.0127765071,0.0234777238,-0.0203898214,-0.0122350445,0.0509650558,-0.00185089419,0.0370950438,0.0169458371,0.03676109,-0.0205536149,-0.0272556,-0.01567369,-0.016440589,-0.0198558569,0.03790157,-0.0222142525,-0.03468627,-0.0420102961,0.0555076636,-0.0270891041,-0.0439319462,0.03142393,0.0172891673,-0.0396769457,0.008657606,0.0154719409,0.0415355749,-0.006318237,0.06027528,0.0127230715,0.0137863969,-0.05391666,-0.045563776,0.043460466,0.0207265783,0.0141941141,0.0191737618,0.0121380594,0.0432785749,-0.00748307,0.0218747947,-0.0072366544,-0.04731273,0.02100162,-0.0427956581,-0.009802167,-0.0482279621,-0.02138798,-0.03979079,-0.0173131488,0.03841984,0.0131726386,0.0171400756,0.00404362,0.0300468821,0.04088315,0.0216757543,-0.0220597256,-0.0159798954,0.0168549474,0.0326779224,0.0503956638,-0.0394324735,-0.0291760471,-0.002659335,0.0277314335,-0.00185040513,-0.00616364554,0.00100198609,0.06388651,-0.032161925,-0.0369509943,0.009641491,-0.0427395664,-0.0499917865,-0.0195894837,0.006610851,-0.0479014255,-0.00749477046,0.005342655,0.0302330814],[-0.0178793427,-0.023836121,0.0441792645,-0.0138044152,-0.03768009,0.00760491053,0.0158090349,-0.00168271572,-0.0280906782,0.004717004,-0.0007032841,-0.0270528886,0.004410436,0.00756234955,-0.0168450121,-0.01829784,-0.005176581,0.02960993,0.0255887359,-0.031662818,0.060171444,0.024869496,-0.0315999649,0.03469842,-0.0312955827,0.0007946777,0.03241219,-0.0362398848,0.0115263443,0.0341426544,0.0185747854,-0.0293390658,0.0156167559,0.002315362,0.0164491553,0.009754792,-0.0235965643,0.00532851741,-0.0404460877,-0.0217439011,-0.0204666536,0.00410212856,-0.03383361,-0.0301377587,-0.03392339,0.0040726,-0.0321802273,-0.009611414,0.04233319,0.0333014764,-0.009219462,0.0115656406,0.0388585329,0.0246773735,-0.0299297962,-0.0306823533,-0.0283024441,0.000845620059,0.0285478551,-0.0220861435,0.00446165539,0.0479891524,-0.002743818,0.006870333,0.025314834,0.0283492841,0.0152740115,0.03232205,-0.00218987348,-0.0449185334,0.04848508,0.034569528,-0.003443402,-0.0224124119,-0.0243824814,0.0337261856,-0.0380745642,0.04021142,-0.03710049,0.03989398,0.0270201471,0.0429709144,-0.03258619,-0.000911508338,0.03991821,-0.02697812,-0.0364242867,-0.05292723,-0.00361693418,-0.0309380945,-0.00483786175,0.0221574064,-0.0116386339,-0.0468522161,-0.0550450645,-0.00315687014,0.006684641,0.02096061,-0.03462051,-0.0190477446,0.04014637,-0.0209080912,0.0130217085,0.03844647,-0.0129484814,0.0134913875,-0.00648915255,-0.03170222,-0.0131893065,-0.03028264,-0.0173857529,0.0235742945,-0.0301533174,-0.0300815552,-0.0306600034,0.0215886235,0.00637748372,-0.0192899369,-0.0172822643,-0.0176296737,-0.0216410719,0.0343625136,0.003433323,-0.0380848423,0.0258707926,0.0306955688,-0.007848686,0.00972268],[-0.03649649,0.02670909,0.005272027,0.0340789743,0.0184618719,0.00945245847,0.0438947752,0.04634575,-0.05096016,0.0337377042,0.006357033,-0.0174945313,0.04313735,0.0135455066,0.000946642,-0.0263228416,0.0189982634,0.03787096,-0.0363628231,0.00731763942,-0.007720993,-0.007830215,0.04457248,-0.03725004,0.0287616,-0.0356776752,0.0164413713,0.022757167,0.0313309357,-0.00602355646,-0.009098182,0.0304276384,0.0265719928,0.04383496,0.0237817876,0.016705377,0.03357468,0.0362662934,-0.0435108319,0.0137518952,-0.030783169,0.0209977366,-0.03283659,-0.0331071168,-0.04476778,0.0243947711,0.0156417936,0.0046641794,-0.04206044,-0.0299180876,0.007625828,0.0159555469,-0.0146117378,0.0100326752,0.0308461431,0.0204383153,-0.03989676,-0.00494118966,-0.03603338,0.0268250443,0.034868706,-0.00472971657,-0.0318941437,0.0175054464,0.0140895955,0.00694754347,-0.0392616764,0.0264671464,-0.0001842528,0.0205218419,0.03376862,-0.0136037515,0.0396602,-0.0244152714,0.02925112,0.030031886,-0.0367135964,-0.008424715,-0.0447475575,0.0192125253,0.0286801551,0.0137779461,0.007856125,0.05096957,0.0110081928,0.0105908914,0.0353328362,-0.00221455819,-0.0192700028,-0.02155222,-0.000359932455,0.020466812,0.04410905,-0.0235173311,0.007779683,0.0261384584,-0.0444072,-0.00206783134,-0.0062730927,-0.0226389356,-0.00104275462,-0.0211346615,0.0143263871,-0.0109336106,0.0431041867,0.0202916078,0.02148099,-0.0313347578,0.0136566767,0.004581028,0.0384051427,0.0161802061,0.0339290947,0.0282838158,-0.0437816642,0.0231230576,0.0235032421,-0.0132133756,-0.0192809142,-0.02641223,-0.0260842368,0.0120744305,-0.009391867,-0.004976146,0.052668348,0.00117411674,0.0119195394,-0.0217046831],[0.009931966,0.0251104385,-0.037496686,0.0152515424,0.007870088,0.0137175629,0.0216970053,-0.009922765,0.053052485,0.0416078,0.0218467247,0.03726127,-0.011227401,-0.0562187172,0.0364747457,-0.0165858977,0.047793027,0.0206278637,-0.0205523185,0.0111424662,-0.0228097532,0.008601053,-0.0171556417,0.047059726,-0.011367579,0.0335270241,-0.0355281681,-0.00268209213,0.019501891,0.06029187,0.00495881634,0.008048545,-0.006640022,-0.0009918124,0.000676027441,-0.02699381,-0.0168264434,0.0104479017,-0.0151861971,-0.08334899,-0.01120104,-0.0103383483,-0.0358218178,0.00476924051,0.008655234,0.04706063,0.06721169,0.07468371,0.010529208,0.02157099,0.0455761366,0.05955421,0.019426994,-0.0420876145,-0.0125138639,-0.0232370347,0.03376461,-0.0405633152,0.07265984,-0.0263257064,-0.0485636443,-0.00309390924,0.0403208621,-0.0248460285,0.0468595922,-0.0036918465,0.0109065389,-0.00868103653,0.00212328648,0.00465015462,-0.003965496,0.0154292919,-0.0269894786,-0.00998343248,-0.025905557,0.0381588377,0.008668705,0.00367663,0.0394038148,0.009150866,0.00612144126,-0.0141164036,0.008918437,0.02432556,-0.0408500843,-0.018346902,0.03125284,-0.0335719846,0.0299492255,-0.0142978,-0.04131723,0.0132775661,0.03719907,-0.006343166,-0.06431002,-0.01611175,-0.0211913772,0.0008568475,-0.0273661874,-0.0372210667,-0.0463800356,-0.0365713872,0.0479941778,-0.03317821,-0.0215573534,0.027202094,0.0161530338,-0.043021217,-0.01918253,0.06684407,-0.01709426,-0.00533678243,0.0225380156,0.0330218077,0.0436726473,0.0662108,-0.0174831469,0.03088456,0.06812829,-0.01349862,0.0285702236,-0.00766633,-0.0298602153,0.0218032077,-0.057211034,0.00182892568,0.0272094849,0.02195502],[0.0124957133,0.0194932837,0.01748144,-0.00419854233,0.04182228,-0.020340832,-0.0475638025,0.03507976,0.0370804146,0.06049652,0.0284308419,0.019202061,0.0360308029,-0.05483806,0.0081127435,0.0445584059,0.0147072617,0.04050131,0.00433142437,0.008148587,0.0708432347,0.03370456,-0.0352208167,0.0323583372,-0.008202567,0.04882615,0.0488401949,-0.0450375266,0.007851875,0.0137871839,0.005374654,0.034695074,0.03732431,-0.0212961044,-0.0210449323,0.01242298,-0.04258335,0.030692881,0.0270644948,-0.010954,0.0178287365,0.007883586,-0.0253893659,-0.00300735771,-0.03184998,-0.04409816,-0.00125587953,-0.00921762548,-0.008974327,-0.0352715142,0.0144336252,-0.020757867,-0.0195254274,0.0123149324,-0.0210561417,-0.0408430472,-0.0528772734,0.0331753567,0.0251535662,0.0184063613,-0.0128423721,-0.0275996,0.004438119,0.0280654933,0.0193446185,-0.00908152,-0.0327604078,0.00404950837,0.0437254161,0.0275729932,0.0461942479,-0.0226029772,-0.0537290163,0.0266953856,-0.0144938,0.0458486564,-0.0180806536,-0.0124409981,0.005378953,-0.0265758913,0.00590955233,0.0195435751,-0.0135909608,-0.000835948449,0.0128036058,-0.0216791648,-0.0284887236,-0.02399829,-0.04603924,-0.0284928773,0.0243381411,-0.0149462363,0.0146179516,-0.0536357127,0.00231251121,-0.0133213392,0.04333974,0.0200649928,0.0210251249,0.000222372066,0.0276367646,0.008961686,0.01698566,0.0352729931,-0.01571353,-0.0102082808,0.00166805752,0.003219659,0.02814127,-0.005628015,-0.0271803867,0.03291249,-0.0320452154,-0.00269613438,0.0227851644,0.0566877238,0.0539430045,-0.021667717,0.02609444,-0.0437048636,-0.04498726,-0.0155474422,-0.031384822,0.008698629,-0.0240272619,-0.04365869,-0.0190338623,-0.000198361522],[-0.0174902584,-0.00417292,-0.009436816,0.02686097,-0.005901695,-0.009136883,0.0313593149,0.0116905533,-0.0257874262,0.00568913436,-0.0136413518,0.0182769485,-0.0362492241,0.02199751,0.0547805242,-0.0218903925,-0.0110034449,0.0133702792,0.0453497581,-0.0386453271,0.04019594,-0.0341572464,0.0464370325,-0.0276546739,-0.0375406928,-0.0138897356,-0.0297204833,0.0318861268,0.0271069445,0.0202987045,-0.0381801873,0.027459925,0.02204025,0.0374492444,-0.0169990119,-0.00398029666,-0.00738526,0.009199647,0.0365443751,-0.0481441244,-0.0145301931,0.0163474679,-0.0206447337,0.0153378285,-0.0179937016,-0.05512128,0.0422133,0.046513278,-0.0193887986,-0.00213868218,0.04668067,0.007842007,0.00151602877,-0.0303328726,-0.01674481,0.00491562672,-0.031587813,0.00746414158,0.02845953,0.03693468,0.00330789154,0.00160738628,-0.0600134656,0.020203596,-0.05396898,-0.00549775176,-0.03459589,0.0199586041,-0.0236255,0.0285610147,-0.008296912,0.011962601,-0.0287134815,-0.0130461073,0.027607277,0.0252616461,0.03459733,0.007672069,0.0200838018,-0.0321232677,-0.0317187458,-0.00415581232,-0.0365448855,-0.02147481,-0.0117388191,0.0360275134,0.0287538432,-0.0108959936,0.0412848629,-0.0211140644,-0.0440431572,0.007658108,0.03656408,0.0285469629,0.02135508,-0.03617693,0.0368995555,0.03960758,-0.03243527,-0.0103689414,0.005464366,-0.00628399244,-0.0373593941,0.0172660444,0.005515889,0.00421225838,-0.0160644967,0.01628712,0.01995226,-0.0374809355,-0.0281569958,-0.04000487,-0.0579732023,0.0104029654,-0.0373306759,-0.04038251,-0.008100511,0.00598473148,0.0174066555,0.0280595943,-0.03276878,-0.01695612,-0.000466407218,-0.05216012,0.0169040877,-0.0303656049,-0.0222257171,-0.0266266875],[0.0400811359,0.04224828,-0.0337425955,0.02705177,-0.0113741867,-0.001102462,-0.00195998768,-0.007694936,-0.0204487648,0.0245125461,-0.0181106962,-0.0248194635,-0.0192955378,-0.000505403557,0.0533565246,-0.000696610252,-0.0345820263,-0.00447799265,0.04517355,-0.03365551,0.005364102,0.01585863,0.0445844419,-0.03581641,-0.0228008442,-0.02986996,-0.0147947315,-0.04625947,0.0454403,-0.03583713,0.0204213466,-0.03695662,0.0266949758,-0.0276533,-0.0160157848,-0.0101388087,-0.0386833,0.00141240447,0.0335956551,-0.0119061181,-0.015124239,-0.023472691,-0.01956509,-0.0428230353,0.05272963,-0.0194635857,-0.00375824841,0.0241024122,-0.04628704,0.02848578,-0.0335059576,0.0241769031,-0.024116477,0.0109568126,0.04804757,0.0173313469,0.008773869,-0.020106459,0.0226202812,0.0254590679,-2.975461E-05,0.0296259671,0.0117760552,-0.01826837,0.0002502865,0.0130735533,0.0257552564,0.027155498,-0.0260666944,-0.0132445041,-0.0028970486,-0.00286517129,0.02445857,-0.0133830821,0.00252251839,-0.0405392945,0.0207635,-0.0226462688,-0.0286463127,-0.05885039,0.0122696925,-0.0517801158,-0.0044180844,0.0195685178,0.03183254,-0.0142947761,-0.04154489,-0.0265128557,-0.0155133307,0.0238307845,0.0259227,-0.003236909,-0.0159531552,0.0186834075,0.0331191979,0.03279818,0.014249716,0.03453214,-0.0489729755,0.0345460661,-0.0272124652,0.03626865,-0.0192816742,-0.014401718,-0.03659152,-0.01956063,0.00685274228,0.05842455,0.00264746882,1.33356561E-05,-0.02871002,-0.0113859922,-0.0136760492,-0.014099515,-0.0410223,0.0329927541,-0.04093207,-0.0121703148,-0.0288267378,0.006710022,-0.0224970859,-0.0179723762,-0.009995137,0.0161662884,0.04891185,0.0281502921,0.03368328,0.0167026222],[0.01212567,-0.0403538346,0.0429513,-0.006864811,0.0359194651,0.0227663387,-0.0145464214,-0.0274203233,0.0174650047,-0.0437832251,0.0183329787,-0.03407366,-0.0167262834,0.00445139129,-0.0382346846,-0.00661268365,0.0059145866,0.044841405,0.0215370115,0.0215322673,0.0110990889,-0.0375683568,0.0127210636,-0.0349821672,0.02503519,-0.000185565979,-0.010736322,0.002509621,-0.007878781,-0.00500407023,0.04771085,-0.0454047471,0.03915332,-0.020123573,-0.05490004,0.0435379446,0.0143509172,-0.004169923,0.003397077,-0.023422543,-0.0157525875,0.017999867,0.04312277,0.00259880582,-0.008604613,0.0435874164,-0.04441825,-0.0108816316,-0.009360606,-0.0152030643,-0.042407535,-0.0113384146,0.0203393474,-0.02859181,-0.0554336272,0.0278392341,-0.00851426553,0.0526133925,-0.0170428585,0.0422731675,-0.00179110188,-0.0252068713,-0.0100140991,-0.0551978238,-0.01717081,0.0132878423,-0.00306766247,0.0338555053,0.00772783626,0.008836196,-0.0285713859,-0.005303162,-0.00139762915,0.0251252688,0.0254178885,0.056060683,-0.00420162734,-0.05985857,0.02336212,-0.0174301062,0.0560216755,-0.0329518653,-0.0507932864,0.0261765979,-0.04102172,-0.0204317868,0.0200791918,-0.0300569441,-0.04518235,0.0212506428,-0.0354621932,-0.006632573,-0.006812735,0.00230364269,-0.03741223,-0.0226817131,-0.00268090935,-0.0308756772,-0.0382744037,-0.009723811,-0.0233674366,0.04028377,-0.004868996,-0.0338031128,-0.01827836,-0.0205185656,-0.048564814,0.0281256977,0.038227316,-0.040681,-0.00724526076,0.0517671481,0.03799937,0.0387449823,0.0426080748,-0.0183577333,0.05741779,0.0512764938,0.033559043,0.0301917177,0.0035360707,0.0204638857,0.0120212659,0.0260570776,-0.0218462627,-0.0345773,0.0008564124,0.00102839363],[-0.034415096,0.00897233,0.009900133,0.040917106,-0.006210657,-0.035964828,0.0113141416,-0.0365695022,-0.02034913,-0.008239177,-0.0243731719,0.022078976,0.009075612,0.01841231,-0.000319462415,0.0150583331,-0.03204689,0.0279601626,-0.0280321334,-0.0359126851,0.0044709025,0.0388804935,-0.0305172559,-0.0127052255,-0.0358224437,-0.04307398,0.005677072,-0.0306862,0.0189303365,-0.0374956578,0.0122034177,-0.04015411,0.00165636977,0.006578444,0.0154592954,0.0178592633,0.03511376,-0.03330008,0.0285083912,0.07035296,-0.04198182,-0.04073487,0.03106665,0.000336380064,-0.02102738,0.0245437175,-0.00278713554,-0.0150588062,0.0286697336,0.0397894047,-0.05101358,0.009788455,0.0238637421,-0.0244823843,-0.0374126956,-0.022801334,0.0142917326,0.009367646,0.006413551,0.0399854481,0.04181114,-0.0310919713,-0.0432668254,-0.001160494,-0.0293374062,-0.00769656571,0.00367832952,-0.0178380143,-0.0124851037,0.0398663357,-0.00114007725,0.00164342707,0.0111828446,-0.0457491428,-0.006671878,-0.0414185,-0.00587275065,-0.00071606657,-0.0211143475,-0.04960526,0.03919438,-0.0308787916,-0.0208548438,0.02521382,-0.0334229767,0.03990482,-0.0355646238,0.0343059823,0.0122934319,-0.00544692576,-0.0009035466,0.0224110428,0.009116814,-0.0264665056,0.05042666,0.0273833759,0.02563097,0.03767795,-0.012779979,0.03296931,-0.0198196433,-0.0155935343,-0.0510654822,0.0228803977,0.032435026,-0.0448830873,0.0265818425,0.0334609933,-0.0389212966,-0.05078273,-0.01753979,0.05016842,0.0421095043,-0.02592898,0.00198581559,0.0195015986,-0.004480325,-0.0416833758,-0.0203142017,0.0109351771,0.008357863,0.0476730727,-0.0335342847,-0.0169003922,0.030473398,0.0421319455,0.006250258,-0.0246109348],[-0.0119881192,-0.0292310826,0.04041117,-0.0161857177,0.0495162047,0.0134379175,0.0366138555,-0.0167193953,-0.0326840244,-0.02191821,-0.00127979519,-0.0150770955,0.00347467582,-0.00197775615,-0.0240673143,0.0272162184,0.0266696084,0.0420587361,-0.0184671748,-0.0140288258,0.00020504171,-0.0436495729,0.0100619467,-0.0201613922,0.049961172,-0.0341847278,0.0369022749,-0.01319927,0.009166571,0.0434941724,0.05139409,0.00547291758,-0.0398070253,-0.0342644043,-0.0187498666,0.0139661776,0.04143882,-0.0284500979,0.00147044158,-0.0025254027,0.0108464081,0.00286558224,0.04197523,-0.0484029129,-0.0064574196,0.04743367,0.000658065139,0.01823563,0.0444967039,0.0150393462,-0.0323091969,0.0344310738,0.028209921,0.00447835261,-0.0233594179,0.0324828,-0.04096422,-0.03147007,0.0348568819,-0.02535811,-0.03436186,-0.009978403,0.0499255173,-0.0579767227,-0.0146949189,0.02900139,0.0483193956,0.0143988039,0.0164256524,0.0427763872,-0.0469403155,0.03544849,-0.03892535,-0.0100730611,0.0366298035,-0.0325937048,0.0512890369,-0.0301448666,-0.009889247,0.008879719,0.0291032866,0.004446236,-0.0328430422,-0.0124285053,0.00294300565,0.0130937845,0.0394122638,-0.0015330608,-0.0387790278,-0.0140663721,0.00349751976,-0.009089217,-0.0464751646,-0.0293206386,-0.0604887232,0.0130853551,-0.0407050438,0.0171446875,0.043186754,-0.0270536989,0.024691565,0.0426697172,-0.0165252052,0.0421246029,-0.0467477068,0.024482388,-0.02209741,0.006369022,0.003106975,-0.03728116,0.02965146,0.03473271,0.0393517651,-0.0106806131,0.0599496625,0.0173583049,0.0302353,0.0390528329,0.0334087349,0.004921372,0.0005709328,-0.0230074879,-0.00539495051,0.06355603,0.018740844,0.00408702437,-0.0401351042,-0.00501568336],[-0.0424375236,0.008270302,0.0267278776,0.0299601182,-0.00132129551,0.00467376551,-0.01857814,-0.0080560185,0.0138973733,0.00125488,0.019663278,-0.0268290676,-0.0205509476,-0.0614603125,-0.0246061254,-0.0205129143,0.0541301444,-0.0385219119,-0.0008154097,0.0439087264,-0.0287148729,-0.003635908,-0.04047441,0.006226605,0.0154965082,0.007906708,0.0147295929,0.01907003,0.0241142549,0.07126475,-0.03421728,0.0140384072,0.0152418762,-0.002908521,0.01102385,-0.007329401,0.0389781967,0.0278085656,0.0170583334,-0.0348814279,-0.02186426,0.04817919,0.0243871976,-0.0338435434,-0.00314743887,-0.0244476236,-0.0145585174,0.06327831,0.031027386,-0.0461324863,-0.0192489084,-0.0298066232,0.00231251074,-0.0290908627,0.0288235378,-0.0394038558,-0.04630396,0.03569451,0.04864679,-0.06207695,-0.0159198,-0.000307698065,-0.00106485572,0.0131191975,0.00125484273,-0.0207221471,0.0514838658,-0.06712066,-0.0473361872,-0.04995644,0.0386273637,0.0236108024,-0.00762336329,0.0345701836,-0.0127447946,-0.000205890014,0.0482533723,-0.0464729257,0.0447394773,0.00655624643,0.0488749072,0.0365878232,0.00250106747,0.04098308,0.029576052,-0.004061701,0.0483646356,-0.0433484428,-0.027404638,-0.0181495342,-0.02713502,-0.0120723313,0.03406713,-0.0216370784,0.033054404,-0.000120926314,-0.0472219437,-0.0257805437,-0.030486526,0.0005634847,-0.0250466932,0.029803196,0.0378538035,0.0164248366,-0.00364523451,-0.008187367,0.006490545,-0.0101207383,0.0198163539,-0.00356250769,0.0180685669,0.0269117244,0.02102734,-0.008806913,-0.0208798368,0.0204474758,-0.001004256,0.0207616985,0.0303532425,-0.0420184769,0.0471754037,-0.0381509066,0.0172887184,-0.02448003,-0.0640807152,-0.0221209787,0.03779205,0.0307785068],[-0.0333153568,-0.0420833528,-0.0117349811,-0.0288767442,0.013644401,-0.0362327881,0.0008730978,-0.00431540329,0.004610997,0.00170761812,0.039580293,0.0213674363,-0.0257932246,-0.024006309,0.00258826162,-0.02746585,0.007977782,-0.0173397567,-0.024176918,0.0007150438,0.01922374,-0.0101342639,-0.00113351922,-0.03792916,0.0271706749,0.04152784,-0.03991716,-0.0167077519,0.0157653037,-0.03715098,0.0182181578,-0.0239168387,-0.0286707655,-0.04180282,0.03973415,0.0157511756,0.0340463333,-0.0169529188,-0.004124312,0.0287223365,-0.0377399735,0.01565655,-0.0315792225,0.0376712233,-0.0210582074,-0.0337658525,-0.009644616,-0.03441346,0.0369723961,0.020346988,-0.0321344137,0.000122325931,-0.0266512129,-0.01887346,0.0181431361,-0.0198539887,0.03421293,0.0301449858,-0.009639361,-0.0128018092,-0.0137873972,-0.01669309,-0.04747172,-0.02984464,0.02905716,0.00605198555,0.0143795786,0.0253702682,0.00672386028,0.02295542,-0.0241626687,-0.0336919054,-0.0130643575,-0.0468725823,0.0100700911,0.0481645055,-0.04070971,0.0109250313,0.0255853534,0.0219319761,-0.0143184243,-0.03650617,-0.021588916,-0.0376422033,-0.00176068279,-0.01343424,-0.0144348722,-0.05039375,0.035080947,0.008231489,0.05410443,0.0110742413,0.03218125,0.00444644131,0.0463776775,-0.008330034,0.0340990536,-0.00265702559,0.03452584,-0.0284913,0.0260860082,0.0008381348,-0.00611144165,0.0293515678,0.03213145,0.0201797336,0.0462119,0.0178711154,-0.00133291224,-0.008895851,-0.000560302637,0.0230473336,0.03978341,-0.009901074,0.010882034,-0.008483646,-0.0272203311,-0.0091467835,-0.0587963164,0.0164616313,0.00718036527,0.03356702,0.0373010337,-0.008938711,0.050516583,0.0385686122,-0.0117513016,0.00024034048],[-0.00678514363,-0.0199220069,0.0353401676,-0.01165666,-0.0159870554,-0.0357010923,-0.0293653216,-0.0225457214,0.0297862031,0.0262159538,-0.0136731043,0.0441892259,0.029682396,0.02403862,0.0159546845,0.0178155079,0.0305539388,-0.03498496,0.0304392781,0.007994189,0.00358720776,0.0262420084,0.0397705361,0.00514167454,-0.00650514057,0.008062394,0.0130392862,-0.0266569313,0.0153968316,-0.03316898,-0.0294185486,0.01179137,-0.00380468857,0.0376466364,-0.0193025358,0.0333785564,0.004194862,0.0110883182,-0.0407856181,0.03434953,0.02801232,-0.009800841,0.0136907473,0.03717926,0.0293748081,-0.01747926,-0.0178921185,0.02340067,-0.0133513268,0.052572865,0.0364921652,-0.0131729022,0.0356557965,-0.03893606,0.0263883285,-0.00158239854,0.00405430049,0.0227094032,-0.025455337,0.0196739547,-0.008106725,0.0261960663,0.009971034,0.009820073,-0.0203199834,-0.0308757145,-0.0277671237,0.008049634,0.0197889041,-0.04266016,0.0420981571,0.0123327412,-0.0111381793,-0.0297075212,-0.02620831,-0.0537257977,-0.0505310558,-0.0137410937,-0.005080317,-0.0271250736,0.0364799351,-0.00251829321,0.01633896,-0.0426242426,0.026359098,-0.0321845151,-0.005286278,0.014543267,0.004840308,0.0158392116,0.01955111,-0.034566015,-0.030268291,-0.0296382774,-0.0186719876,-0.0309308954,0.0278832614,-0.009169582,-0.0395002477,0.0352912433,-0.04244269,-0.02062795,-0.0445036739,-0.0104495613,-2.468754E-05,0.0254311245,-0.0228476673,0.0355787054,-0.0344552062,0.02017664,0.02657152,-0.000290683063,0.0127180209,-0.0140859056,0.000368791923,-0.0192890111,-0.05036077,0.0301823672,-0.0268798713,-0.0259736963,0.035172753,-0.0252496731,-0.02165924,-0.008415664,0.04624258,-0.0332572535,0.0201150626,0.0406029522],[0.00137455424,0.0182304177,0.0346474759,-0.00515899854,-0.0164417047,-0.00364415348,-0.0116899973,0.034596242,0.0253143515,0.012581327,0.011751309,0.0125046968,0.04148967,0.04443219,-0.019146597,0.0293025747,-0.0322715752,0.0235322621,-0.0330799073,-0.0256877486,-0.00382930948,0.00463453261,0.0102191828,-0.0285926368,-0.0036904125,-0.02615357,0.03315822,-0.004333553,-0.00712038949,-0.06046658,-0.0152228633,0.007961215,0.0173785426,-0.00668241363,0.04402418,-0.00365145,-0.0122213932,-0.00295541,0.000610142946,0.0458817668,0.01235828,-0.0380126722,0.005933074,-0.022430798,0.0157381948,0.0258810762,-0.04603919,-0.0493003577,0.0119000068,-0.0167835467,-0.0268771145,-0.009640536,-0.00665828632,-0.01272349,0.0131445816,-0.019542275,-0.0102297692,-0.0123731634,0.01494552,0.03855458,-0.0293154027,-0.006133295,-0.06406648,-0.0189264733,0.0177557,0.012298069,-0.0536717959,-0.033485014,-0.0315027274,-0.0254436731,-0.058401335,0.0261981916,0.04548833,-0.0586949028,-0.0044097174,0.0509811379,0.0166082121,-0.009887904,-0.0219978075,-0.012212825,0.0292486567,-0.05460944,0.0109454142,0.0444837362,-0.0122051127,-0.0457949229,-0.0235548634,0.0198421422,0.009903875,0.0122000612,0.0317657478,0.0183388013,-0.02788267,0.03320734,-0.0369888023,-0.0107249785,0.0282543655,0.0226762164,-0.03100812,0.05041237,0.04496121,0.02254008,0.0370357446,0.0226619821,-0.018786259,-0.0177645776,0.0416271873,0.0259320755,0.0251009483,-0.0622354038,0.009747661,0.00439695176,0.00128364947,-0.00470889034,-0.01908834,0.02155973,-0.0168389212,0.000521777663,-0.04949776,0.0514889434,-0.0125037264,0.0353109352,-0.0276150759,-0.03689873,0.0357994176,-0.0396985859,-0.0583994463,-0.0251884721],[0.042055387,-0.0279322267,0.02737638,0.00304891565,0.004505225,0.0261991415,0.0432358831,0.0126114544,0.004755692,0.0254245456,-0.03490664,0.0128152892,-0.009210848,0.0346747227,0.0182621926,0.031770464,-0.0371252634,-0.03429339,0.006878404,0.00508298865,0.005774647,0.0174773932,0.0187941417,-0.00173649716,0.0172357261,-0.0394755155,0.01067323,0.00713150669,0.03879344,-0.007087942,-0.0130269546,0.03148779,0.02171113,0.01259799,-0.0114603452,0.0322287269,-0.0135708377,0.0224268585,0.0332138166,0.0506936945,0.042840492,-0.007339786,0.017434774,0.0271966476,-0.0338769965,-0.05959663,0.0109681664,-0.0221991371,0.0116480673,0.005161395,0.03309016,0.0216555782,0.0255560149,-0.0294822566,0.0143563924,-0.0295551475,-0.008747705,0.01377666,0.0308291465,0.0117899394,-0.0459734537,-0.0110381041,-0.004027207,0.0223543588,0.004644765,-0.01743926,0.002141068,0.033146847,-0.0365028754,0.0499499068,-0.03530359,0.0265200641,0.0031991424,-0.06102993,-0.0372509733,-0.0219381936,-0.009389315,0.0471253544,-0.0269267652,-0.030828964,-0.03995956,-0.031442944,0.03089645,-0.02344255,-0.0173845086,0.00495277951,-0.0246377531,0.0363525935,0.0522136278,0.03649591,-0.0162953939,-0.04980523,-0.0454056375,-0.0154901668,-0.03627288,0.0440968461,0.0453292,-0.036674384,0.019323362,-0.0171475336,-0.0301533546,-0.0101106772,-0.0193197,0.0177009,0.0226965528,-0.000422573183,0.0322363935,0.04219912,0.0188936219,0.029807765,-0.00168579433,-0.03940951,0.0359149836,-0.0104967952,0.04170393,-0.0527021065,0.0151302246,0.0401201434,-0.0518952273,-0.0008296777,0.0386690274,0.02185566,0.0246802084,-0.0210401583,0.0601834059,-0.0297387224,-0.0322542638,-0.0315318666],[-0.0126547385,0.02150311,-0.02553608,0.04299518,-0.067793645,0.0115687167,0.01783465,-0.03456221,0.0395108573,-0.0120144477,-0.0459161773,0.0331152864,-0.0136047732,0.04215716,0.05747837,0.03940854,-0.00179008616,-0.03862808,0.0270310938,0.0297915228,0.00416937238,0.04056163,0.007262277,0.00387357571,-0.0359926745,-0.0250135344,0.0190917812,-0.00583550567,-0.03123838,0.01750851,-0.0483429022,-0.00322621432,-0.022217745,0.059139695,0.0329255536,-0.0280563589,-0.0245097987,-0.0118540218,-0.0119263278,0.02826894,0.0194463152,-0.0105072716,-0.01554653,0.0392979346,0.03284397,-0.03238034,-0.008429479,0.02306013,0.0053575607,-0.00255005853,0.024248369,0.04333136,0.022635242,-0.0528842025,0.04720491,0.007592264,-0.0186579674,0.00899163447,0.0517808162,-0.00145554973,-0.009584608,0.007445533,-0.0301936623,0.0152408173,-0.00675865542,-0.02974985,-0.00657599932,-0.038569212,0.01986042,-0.00147244113,-0.0305612348,-0.0406733379,-0.0209670477,-0.0201397054,0.0254651643,0.02807536,0.0223839711,-0.0193317048,-0.0293508731,0.0443868153,-0.0519358777,0.0299575627,0.0006875851,0.010687435,0.003181734,-0.035348814,0.0338815972,-0.037327908,0.0230408125,0.0379044563,-0.01767312,-3.213848E-05,0.002571506,0.0135231568,0.0379685052,-0.0202229712,0.0285367742,-0.03681159,0.0379178151,0.0279601589,0.0139792915,-0.04619799,-0.0497554131,0.0143542551,0.007838559,-0.0164795928,0.00122013537,0.00983871,0.0128672626,0.0473882556,0.0227002669,-0.0160074215,-0.0306781121,-0.011153318,-0.0322285146,0.0007571487,0.0139105879,0.0237586889,-0.0270626824,0.0103266835,0.0121311015,0.0169110987,0.0272782352,-0.0358406566,0.01142257,-0.0220750514,0.03665223,-0.021084113],[-0.0293450151,0.04035674,0.0111361053,0.0505535,-0.0476820357,0.0455045626,0.0358432941,0.00794820953,0.03155669,0.005110443,-0.0315932631,0.0302951131,0.0391404331,-0.04558021,0.0275375061,0.0457951427,-0.0217141658,-0.034924116,-0.00614713039,0.0274148621,0.0345410146,-0.0134698143,-0.0111306766,0.009192817,0.0343019255,0.0173646361,-0.040774025,-0.00604166649,-0.000539563,0.0617524274,-0.0272608865,0.013240655,-0.014889624,0.0141339358,-0.00140910444,-0.0540147945,0.0197348744,0.03426516,-0.0297563132,0.037942268,-0.04989473,-0.00412541861,-0.03270745,-0.03297907,0.0282521248,-0.0130012948,-0.009297519,0.006037712,-0.00173461775,0.0168862287,-0.010294891,0.005521808,-0.02517909,-0.03494293,-0.0337689854,-0.0296053886,0.01833879,-0.000439036259,0.0288442411,0.0291043911,0.0153009742,0.010054756,0.0140839648,0.0481852069,-0.00277730823,0.0326183923,-0.0483488776,-0.0234533362,0.0197679885,0.0101183178,0.0502080061,-0.0312721953,0.0185901653,-0.00525104068,0.0403702259,0.0178333819,0.00985573,0.01570301,0.004658877,0.01899229,-0.0167906079,0.0198001564,0.000234356965,-0.0210403241,0.0264907964,0.0149183488,0.02677281,0.0178289525,-0.0147200245,-0.0417771675,-0.022280829,-0.0425911061,-0.0441316329,0.00113798981,-0.0226842761,0.0102571771,-0.00185036578,-0.02848091,0.0141751505,-0.00788486,0.00406994531,-0.0237734225,-0.024471717,-0.00580128841,-0.0373124667,-0.0172231551,-0.005895286,0.04292504,0.009646187,-0.00124834292,0.0279726144,0.00732751563,0.0254019629,0.024418233,-0.0383792743,-0.0149031039,-0.0351491049,0.00514476048,0.013069124,-0.0463604368,0.03525381,0.030854987,-0.0114807431,-0.00340058538,0.002292578,-0.03776926,-0.0149490843,0.0251554567],[-0.0267089773,0.0199481,0.0279519632,-0.0121896109,0.007112524,0.04744815,-0.03235269,0.05049765,0.033828374,-0.00372021273,0.00206594961,-0.003538657,-0.04062209,0.0251584258,0.0570847355,0.04521539,-0.0277650189,-0.0508456752,0.0435833447,0.008031019,0.00203956082,-0.02789908,0.000171681371,-0.0239592381,0.002660816,-0.0283575226,0.00207465142,0.01790394,0.005490411,0.034608487,-0.0513699949,-0.0279734451,0.0453251041,0.0229161,-0.033891812,-0.05398306,-0.03618441,-0.01026738,0.020313412,0.0240304023,-0.00178774458,0.00347562181,-0.006525735,-0.006776997,-0.00142202526,-0.0466517173,0.0216935277,0.0462966152,0.0355229564,0.008670437,0.0348236635,0.0140352929,0.0262100976,0.01893562,0.04510672,-0.0283707827,0.0128660267,-0.0224888232,0.0287802685,-0.0327946022,0.009483989,0.0190127026,-0.01561372,0.007872129,0.008524021,-0.0225917082,0.019202875,-0.00832617,-0.03038937,-0.0156063708,-0.0393275879,0.0314227678,-0.0434612855,-0.0311640836,0.024565747,0.0361066833,0.03140873,-0.02774162,0.0381971635,0.0113160852,0.03220791,0.02801181,-0.0248326138,0.0159193818,-0.0152994823,-0.0393848158,-0.03720142,0.018766189,-0.0353552923,0.008968011,-0.02205685,-0.024091024,0.0379352458,0.0358670168,0.0362846963,-0.0414125063,0.005693237,0.04826474,-0.006884326,-0.005004993,-0.0251760781,-0.00542298425,0.0009813467,-0.01648689,-0.00333622424,-0.0319912843,0.016922459,-0.0264086947,0.0174631178,0.04156343,-0.0438620038,0.0266914871,-0.04809948,0.0286167134,-0.00680634938,0.0474746674,-0.0121311555,0.0368014872,0.00615643431,0.0145615516,0.00432380848,-0.009651079,0.033879187,-0.0264512729,-0.0164823066,-0.0313387252,-0.0386549,-0.0029210085],[-0.009210579,0.0146969045,0.0215958431,-0.0451879427,-0.03052545,0.0416943,0.0324620157,-0.0027544247,0.0410719253,0.0550198965,0.0276095476,-0.018889403,0.00443543168,-0.0216726959,0.0236977842,-0.025707515,-0.0143747479,0.0426485725,-0.0212901235,-0.0332166366,0.0417619646,0.0408678,0.0254205484,0.07105535,-0.0161263123,0.0232535433,-0.0225486513,0.0232663732,-0.0166677851,-0.00776596041,-0.0330779962,0.004500976,0.0330077447,-0.0302401483,0.01402909,-0.002147,0.0331210122,0.0144419456,-0.0244562142,-0.0147909792,-0.0350845978,0.00884339,-0.020760702,0.0506459177,-0.04188617,0.0250633676,-0.0363429263,0.027061278,0.0442621969,-0.04113917,0.038516324,-0.0147404848,0.03971695,0.000243202769,0.006617562,-0.0126978187,0.0210541524,-0.0067248065,0.03108665,-0.009193032,-0.04264779,-0.0164662227,0.02781316,-0.0348974541,0.02915497,0.0368991867,0.0413074978,-0.02741692,-0.02936273,0.0310439542,-0.0119432034,0.03055329,-0.0136177121,-0.0209258087,0.0232371055,0.0386962555,-0.016335696,0.002453435,-0.00266992371,0.0211894773,0.03613755,-0.00328301452,0.0198930111,-0.0101934187,0.0135388346,0.0103120031,0.0127773583,-0.0218705013,-0.0344629474,-0.055288963,0.0119517352,-0.0356146023,0.004954912,-0.06630056,-0.0122362133,-0.0146442633,0.00248559238,-0.0234900545,-0.004961002,-0.025012143,0.00364808063,-0.01460512,0.0415669233,0.0263290536,-0.0229962058,0.03034459,-0.03620749,-0.0481415279,0.00716873538,0.0225211419,-0.0303070173,-0.0162286181,-0.0310931038,-0.0327081569,-0.014549436,0.00172980886,0.0319003239,-0.0128949508,-0.003049844,-0.0232045632,0.00529655442,-0.03819482,0.00412934739,-0.006828345,-0.00517974049,-0.0195746813,-0.030466361,0.009809287],[-0.0132522369,-0.0141471,0.0419706069,-0.002844516,-0.0446867757,0.055843845,0.0146459192,-0.0201354176,0.0599907748,0.00037509558,0.00201214571,-0.0124841677,-0.0356291644,-0.0322571136,0.0371762179,0.03720955,-0.008602673,0.0255471431,0.02262921,-0.00275836769,0.0243870355,-0.03846667,-0.0326986872,0.0296893958,0.0276427,0.02209882,-0.0157898273,0.0419262573,-0.0364073,0.0169943981,0.0176048223,-0.04425787,0.0388688669,0.028384842,-0.0217144452,0.0261589456,-0.0135328248,-0.01922125,-0.0276006237,-0.059301015,0.0196343288,0.0227885246,-0.01894124,-0.0364891253,0.0181462336,-0.03371642,0.0136571852,-0.0107523855,0.0536907166,0.008338226,-0.00448364951,0.008379024,0.05458142,0.008833469,-0.0116176838,0.0206659287,0.0506081469,-0.0166712012,0.06595938,-0.04810264,0.000671798771,0.0174428485,-0.00137013826,-0.025733307,0.0441569239,0.0324041769,0.02878037,-0.0252090469,0.00313787721,-0.01587418,-0.00441381428,-0.0312417075,-0.0110634845,0.0149978008,0.0369167477,0.008881847,-0.0341931768,-0.0362620838,0.02631395,-0.0124639738,-0.0355673656,0.0198951066,-0.0146717606,0.0449130163,-0.009847709,0.0212607943,0.0445405133,-0.0140382992,-0.0454235263,-0.00194076588,0.01788477,-0.0131844105,-0.0143496608,0.009543823,0.0112635028,-0.0459730364,-0.008663675,-0.0323961154,0.04331436,-0.03527851,-0.0132643394,-8.036255E-06,-0.001470056,-0.0279272478,0.0347606279,0.0218082331,0.0006680821,-0.04302637,0.0166129153,0.03643336,-6.53321549E-05,-0.020826539,-0.0551963,-0.0217547733,0.03607104,0.0126475263,0.0104951337,-0.00314674038,0.0514925979,-0.03989424,-0.010538063,4.63436882E-05,-0.03820173,-0.0404384471,-0.0563183166,-0.02567324,0.0101591321,0.0179887637],[0.0168883521,-0.008308896,-0.0206719059,0.0435490049,-0.003878664,0.01088911,-0.00111879862,0.050676994,0.009976816,0.04427223,-0.0516172126,-0.0115661761,-0.037225727,0.0292561483,0.03761086,-0.0115858773,0.0307162069,0.03657978,0.03159803,-0.0519678034,0.03540623,0.0143605825,-0.04403491,0.00874144,-0.0114103705,0.002811195,0.01600881,-0.009432685,-0.0237512738,0.00296122814,0.00178692606,-0.0205867831,-0.0175733175,0.06057915,0.0274869185,0.0147402212,0.0324474424,-0.006477126,0.003921137,0.0278392266,0.0237114914,-0.0461911149,-0.01927394,0.00573499,0.0124322744,-0.0136123337,-0.0208898317,0.0380824842,-0.0177231375,-0.003770174,-0.0215803646,0.0415183157,0.0154982377,-0.0286417063,-0.0158699173,0.0193489883,-0.0216210261,-0.0123487655,0.0479975529,-0.036837548,-0.01279631,-0.0192588959,-0.0388049223,0.000518162851,-0.0466950424,0.006150817,-0.0191372,-0.0141184777,0.0002933331,0.00606792746,0.0133763477,0.03742734,0.0183718149,-0.0335956924,-0.02059535,0.04372659,-0.0192119628,-0.01688399,-0.04725035,0.0324012525,-0.0433709063,0.0164186638,-0.0379857644,-0.008006509,-0.0488130674,0.0266696941,-0.009461455,0.0399468057,0.0143916588,-0.0221227314,-0.0330793932,-0.02179493,0.004684292,-0.0588310473,-0.022337107,-0.0231174082,0.0291129183,-0.0344980657,0.0360523127,0.004580046,-0.0456596278,-0.030884672,-0.008764209,0.02511331,0.00104478188,-0.0397570767,-0.008998384,-0.00114549138,0.0387594961,-0.0272651725,0.0475425757,-0.045393642,-0.0689542,-0.0304553062,-0.0433040038,0.0331007764,0.0148765789,0.0319685526,0.02812875,0.0117653189,0.00908131,-0.00287677883,-0.02143915,0.007256014,-0.008978064,0.0305436142,-0.0342812166,-0.02436061],[0.04458194,0.00159852544,-0.0147176087,-0.0176471267,-0.03640842,0.0107469978,-0.0298673678,-0.008039087,0.0501092635,-0.0268198363,0.00544853229,-0.0336558,-0.02327884,-0.01717243,0.0528097562,0.0121045448,-0.0126573928,-0.00328798778,-0.0186680835,-0.00331334234,0.0180590246,0.0139491754,-0.0350400247,-0.045401834,-0.0339126922,0.0358305462,0.01616039,-0.00128816441,0.0124291172,-0.040270213,-0.025872495,-0.0141202416,0.0246104132,0.0141450623,-0.03884489,-0.0378423221,-0.0455089,0.0401327275,-0.0172153451,0.00292713335,0.02335205,-0.0148097444,0.0134906108,0.02707089,-0.02763808,-0.0004954054,-0.00631334959,0.0453594,0.0183111578,0.03875425,0.0163274668,0.0241531581,-0.0331004076,-0.0449265242,0.00244965544,0.009019323,0.0259953067,-0.0238571577,0.0136568509,-0.03898105,-0.0341736674,-0.005470036,-0.034517277,0.0425746068,0.01509265,0.0412308164,-0.0457083024,-0.00306257373,0.004885462,0.008181858,-0.00231225928,0.009664957,0.0353857875,0.0291731041,0.04170656,-0.0422041044,0.03181315,0.01937562,0.0266253259,-0.00323976181,-0.0228550751,0.010572263,0.0546099655,0.023048142,-0.0414080173,-0.05671907,-0.0411573,0.027021898,0.03519186,-0.007329843,-0.009289056,0.0200854372,-0.009310481,0.0198816862,-0.007335246,-0.01755723,0.009653503,0.0336732753,0.008508725,0.0200244021,0.0359629951,-0.002102263,0.00189802528,0.0281698313,0.022407122,-0.021295622,0.040729858,0.009518863,0.03427599,0.000124572893,-0.02436,-0.0008222258,-0.0355236344,0.021375047,-0.0351388976,0.020206226,-0.008162603,0.0121652586,-0.0311662685,0.00726333167,-0.0008685498,0.04825411,-0.0546291359,-0.0574910454,0.0242910888,0.0100545632,-0.0117878048,-0.0066013243],[0.007614055,-0.0185653139,0.03855853,-0.00331073627,-0.0127834287,-0.006223813,-0.009857161,0.0429326519,0.0178483333,0.0146623179,0.0151386382,-0.0204088036,0.03515018,-0.03147204,0.01720258,-0.0252497625,0.0254322775,-0.0380098633,-0.03837012,0.0253287088,-0.0502248853,-0.0180556849,0.0275860429,-0.0070167603,0.0103389127,-0.004837139,-0.04182382,0.03494134,0.009459458,-0.0349719971,-0.008999885,-0.017605098,0.005825754,-0.0297899041,0.009753214,-0.03637885,0.004994808,-0.008078286,-0.0221133064,-0.0367200375,0.0225932542,0.037046358,0.0264353678,0.00111303362,-0.0248136222,0.0328661464,0.03430392,-0.0129154287,-0.00257047336,-0.03810792,0.0207802467,-0.0387361348,0.02475728,0.05167296,-0.0161741059,-0.0337070376,0.006889624,0.0376337953,0.013723786,-0.0447389372,0.0567469038,-0.0576331653,-0.02598425,0.0268411357,0.0179754589,0.00813696,0.01843696,0.0285871588,0.00311322487,-0.007600931,-0.0268137343,-0.02127657,-0.00318285869,0.00613417476,-0.0238773189,-0.00794777,0.0390291549,0.0123261986,0.008624288,0.0116615677,-0.0197727066,0.00269310339,-0.0163587183,-0.00706929341,-0.0051976284,-0.000438688148,0.0215308685,-0.00197797478,-0.0225642677,0.008786791,-0.009463142,-0.01659021,-0.04097383,-0.0257425252,-0.0121288449,0.0212196279,0.0144492388,-0.0375900939,-0.0292968471,0.00534094544,-0.0413402431,0.0214854367,0.0409121923,0.0116628,-0.0301115,0.0394630656,0.0009895791,0.0391829349,-0.00581735559,-0.0366816372,0.0256725289,0.0163794067,-0.0127758505,-0.0336071663,-0.0133229932,0.0332169048,-0.0439120829,-0.008258957,0.0310835764,-0.0201988276,-0.00650269445,-0.03984429,0.0121803274,-0.00655166432,0.0288129561,0.0410451032,-0.0363977849,-0.0309944451],[-0.008681505,-0.04790365,-0.00697794231,0.008665465,-0.0120493285,0.0274050962,-0.041309014,0.02240529,-0.0205782354,-0.0312508121,-0.00752009125,-0.0438238978,-0.01406899,