{"Layers":[{"ClassName":"Layer","Content":{"biases":[-0.00183589291,0.0158473775,-0.00011737008,0.02240236,-0.00291739288,0.0119090108,-0.00177846244,-0.0112344148,-0.0208238643,-0.0236997455,0.0033780993,-0.0113118216,-0.0119160246],"useBias":true}},{"ClassName":"ActivationLayer","Content":{"biases":[-0.00506892148,0.00502296723,-3.90893038E-05,0.005700982,-0.0104056783,-0.001968109,0.00267084152,-0.0065026,0.0207671765,-0.007703012,-0.00104258733,0.008475022,-0.0127644595,-0.0059880605,0.0156769026,-0.0107229,-0.00545593537,0.00854339451,0.009517611,0.00182973326,-0.0117154932,0.009531833,-0.00831136853,0.008132355,-0.009000201,0.00695393141,0.009033512,0.00344626047,-0.00458448427,0.00581725873,-6.66669E-05,-0.00373741542,0.007862674,0.0019028947,-0.00193503255,-0.0251585748,0.00186407182,-0.00475952448,-0.00364744687,-0.0285672285,0.0113873817,0.00298102619,-0.0105164926,0.003387272,-0.00406098459,-0.00696738251,0.0104563488,0.0304803178,-0.00303148688,0.004015,0.00683122454,0.00275652786,0.0109425448,-0.022119185,-0.002951529,-0.006734341,0.00219352846,0.00190915808,0.005994703,-0.0105947712,-0.00508964946,-0.007886961,-0.0109935971,0.008779413,0.006442584,0.001775609,0.004884182,-0.0126943337,-0.0208100844,-0.00489601865,-0.00510047656,-0.00265031541,-0.005109113,-0.005226265,0.00465381,-0.014366203,-0.00495105,-0.00265586772,0.0012871431,0.0207905751,0.00638400158,0.00291317,-0.00485411938,0.00480492925,-0.00262828637,-0.0110506695,0.00501643028,0.00553170545,-0.006932664,0.000199748931,0.00372596458,0.00265965541,0.002071727,0.00309977448,0.00317973434,-0.00321010151,0.0109937415,0.0156184863,0.0206641387,-0.0008889013,-0.00344510074,0.000466732337,0.0102088116,-0.0004205747,-0.00293546054,0.004185464,0.00492158532,-0.0151703162,0.0005422817,0.011895637,-0.006008494,0.0002361676,-0.00482099131,0.0107886735,0.01875752,0.008821891,-0.009925588,0.0154258059,0.00277267885,-0.006586272,0.007635342,-0.00904061552,0.008358093,-0.0158613846,-0.008458744,-0.006717615,0.005718163,0.008944474],"useBias":true,"func":2}},{"ClassName":"ActivationLayer","Content":{"biases":[0.0291746333,-0.008195076,-0.07274873,0.0371635258,-0.004467247,0.0540537834,-0.0582181141,-0.04239613,0.0475388058,-0.0333661065,0.0210705083,-0.0186118726,0.0289684571,-0.0249869414,-0.0476012938,-0.0116161369,-0.002383773,-0.0360694155,-0.0082368115,0.0845916942,0.00139760028,-0.0401100181,-0.0053318,-0.0376314819,0.10809426,0.01847783,0.0169988479,-0.03335483,-0.0711682,-0.0511670932,-0.0153812412,0.06825446,0.0108406357,0.00408826768,-0.03359689,0.00640553329,0.0575708747,0.0361549258,0.07928572,0.0462215021,0.0483532734,0.01458947,0.0298973676,0.01151449,-0.0484231561,0.08026454,-0.0429651365,-0.0260482114,-0.0322733745,0.0860635042,0.0275744684,-0.07174008,0.07433673,0.09111339,0.007410458,0.00119572412,0.00332337082,0.02089906,-0.0104047265,-0.031299524,0.0333374664,-0.0648202449,0.008619777,0.0647803247,0.0112655293,-0.0299770683,-0.0489089228,-0.07301254,-0.0303456075,-0.008527642,-0.01983881,0.0624732934,0.06337572,0.0345442854,0.0228804126,-0.05621189,-0.0586746968,0.0110668838,0.00531249447,0.0103664119,0.0133195808,0.0248860139,0.0377232619,-0.0205849018,0.0325793,-0.0341310352,0.0124650486,0.00531216431,-0.0492397062,0.001396596,0.06398753,0.005031907,-0.0147781568,-0.0273421556,0.0525651053,0.0228610691,-0.01915805,-0.100729257,-0.0205206275,-0.0978326648,0.00643313769,0.00617567962,-0.0350259,0.0560413525,0.0302251149,0.0109692654,-0.0160840452,0.07601485,-0.0843766853,0.0149469217,0.0483627059,0.00391784729,0.0186732728,0.0309983343,0.03171704,0.0268292129,0.05924505,-0.009204816,0.0269678738,-0.04569409,0.0161909759,0.0160269141,-0.01136681,-0.0639824644,-0.0151894446,-0.06258055,0.008496587,0.009464011],"useBias":true,"func":2}},{"ClassName":"ActivationLayer","Content":{"biases":[0.046772927,0.009596478,0.173788682,-0.112768993,0.018066993,-0.175683215,0.200295851,-0.113642506,0.140888244,0.0245993659,-0.110767752,0.038223844,0.1299287,-0.0008496537,-0.030401513,-0.0289364979,-0.05070975,0.08087811,-0.07439244,-0.08767412,-0.05227985,0.00372320949,-0.0837085545,-0.05123989,0.0230824947,-0.05663087,0.0028858725,-0.04605963,0.0552019551,-0.03846202,-0.261977583,0.0761043057,-0.0449338,0.005050226,-0.0136681851,-0.15078716,-0.10565602,0.08251162,0.0366292819,0.02337045,-0.05230726,-0.0141421435,0.06473279,-0.152320117,-0.06707568,-0.07299091,0.00546662649,0.0544998124,-0.0193916373,-0.192898378,0.02237755,-0.02393518,0.06174946,0.119836219,-0.15403384,0.147898361,-0.0100194821,-0.009351418,-0.0298287142,0.167970344,-0.007641983,0.109729469,-0.008873242,0.0148836458],"useBias":true,"func":2}},{"ClassName":"ActivationLayer","Content":{"biases":[-0.146791488,0.21610029,0.08895921,-0.0589695461,-0.217083722,0.0821813047,0.285101622,-0.2301647,0.0431876369,-0.2672743,-0.133187965,-0.07409479,0.108077534,-0.231405452,0.5722749,-0.03690466],"useBias":true,"func":6}}],"Weights":[{"ClassName":"DenseWeightMatrix","Content":{"matrix":[[0.08076106,-0.00514114462,0.0281153414,0.08460048,-0.0435043573,-0.05687863,-0.09777452,0.05253474,-0.06099836,-0.0305535775,-0.0165608451,-0.0766221955,0.06397062],[0.123036653,0.14164412,0.00284857419,0.0600836948,-0.03984409,0.0249307882,-0.0965902,0.02042641,0.08599077,-0.10271135,0.09143245,0.0414681323,0.0548475944],[0.0267916787,0.0431726649,-0.146926671,0.07493826,-0.084777385,0.0279493034,0.06852254,0.0534752756,0.0161729176,0.09262664,0.0466740243,0.0503111072,-0.08749462],[-0.0265014824,0.02481141,0.03284965,0.0437573381,0.0304362644,0.09914482,-0.0839535,0.07912258,-0.000233742016,0.0525918826,0.09580475,-0.171817139,-0.04076317],[-0.108499631,-0.110129885,-0.0501211844,0.008505601,0.008338534,0.04622622,0.06165088,-0.06521874,0.118881665,-0.0419112,-0.0720114857,0.03697477,0.0227148179],[-0.135977283,-0.08139853,-0.0476378128,0.0195305683,-0.0474368744,-0.09446544,0.107584663,-0.0834890455,-0.0608141534,-0.0443936959,-0.0222768728,-0.027872866,-0.0959906057],[-0.045396328,0.0234169085,0.025026096,-0.04177935,-0.09069724,-0.0161491763,0.06628485,0.07967406,-0.08627704,0.01774234,-0.0267255511,-0.1374045,-0.022326434],[0.00434494438,0.09963956,-0.0576919354,0.18705976,-0.140852854,-0.0613633655,0.0502646044,0.03141631,0.0275406577,0.109116986,0.0413645878,-0.0327290371,0.112926431],[-0.012402514,-0.0216374714,-0.09460232,0.114028685,0.0318362527,-0.09849768,-0.08961101,-0.057979092,-0.06249077,-0.0429289453,0.09122641,-0.07506363,-0.103194207],[0.0007571009,-0.005451151,-0.171027809,-0.0208246671,-0.05030025,-0.0263600089,-0.103679664,0.0552704781,0.05747341,0.103526868,0.0309113748,0.07616442,0.07670926],[-0.111835785,-0.119379453,0.06297142,0.0188258123,-0.04622446,0.07100482,0.0317058861,0.00877398252,0.08620189,0.0019875546,-0.0474627875,-0.0406152159,-0.06257499],[0.07205683,0.03987601,0.101006515,0.111672595,-0.06861692,0.114396416,-0.06592636,-0.116018169,0.0435593165,-0.0282981656,-0.0538630672,0.0280795712,-0.0107221045],[0.0154557079,0.05167289,0.0462225042,-0.029823076,-0.0311091729,-0.0685637742,-0.0513003021,0.08780357,-0.023575414,-0.0118229678,0.08388791,0.16900599,-0.0246107057],[0.0921048746,0.0300217848,0.0192341283,-0.116000496,0.03660975,0.0200823117,-0.00281117018,-0.0553794466,-0.0604046322,0.011393982,0.08009758,-0.0539844,0.0252458844],[-0.00734629668,0.187442347,0.03401176,0.0323155522,-0.0358088,-0.0270261634,-0.0053787916,-0.0358187,0.04643413,0.0373392738,0.0358720422,0.0523271821,-0.0901289],[-0.11474207,0.0598061346,-0.0121498266,-0.0478414334,0.039243035,-0.04684068,0.0554506257,0.105031289,-0.008204969,0.03216487,-0.02219894,-0.111140124,-0.0477532931],[-0.161625564,-0.033688277,0.0529245771,-0.028209433,0.04948617,-0.06090782,-0.018948013,0.0152151305,-0.076017946,-0.0552704036,-0.0341508128,0.00134952867,0.005589625],[-0.07761996,-0.006868005,-0.118575245,0.0332187377,-0.0419241823,0.107926123,0.0624047,-0.0118888393,-0.04946826,-0.008911653,-0.04893267,-0.188753784,-0.07667618],[0.0184134487,0.07765578,0.02172939,0.0125500588,-0.04854409,0.03231536,-0.06239129,-0.0286731627,-0.0902624652,-0.08236614,-0.0645628646,-0.0640165657,0.0132723711],[0.052172415,-0.120434031,0.115873605,0.0162622258,0.0199543983,-0.0910249,-0.01661063,-0.000454872032,-0.113109,0.0456644036,0.06411319,0.0477299839,0.06392706],[-0.07119281,-0.0253841616,-0.182312042,-0.136831582,-0.0536943041,0.06739307,0.0443261154,-0.131369114,0.07143958,0.0224658083,0.122707166,0.009382912,0.12241973],[0.0418723151,0.04685194,0.0432661436,0.01242444,0.0104218442,0.06052619,-0.103924595,0.0532933176,-0.0953784958,0.0108450623,0.0288558863,0.111805439,-0.04742581],[0.163484231,0.0165148955,0.0493732,0.0435041,0.02491385,0.07396641,-0.06376912,0.057407245,0.0905153,0.023300048,0.007226076,0.06830654,0.0159716457],[-0.03386215,-0.0776822641,-0.14960143,0.06777784,0.09048843,0.128721461,0.0200210772,0.0300508849,-0.113390349,-0.09237094,-0.052342128,0.0501791723,0.0194533672],[-0.05478025,-0.0221701227,-0.09461562,-0.16205582,-0.0220155139,0.06887271,0.0184603278,0.100776404,-0.0110281678,0.00263791252,-0.1004923,-0.04875697,0.0583216846],[-0.0909937546,0.0309197716,0.138278663,-0.0756483749,0.0268399883,0.0314887129,-0.0792240947,0.09214293,0.060030248,-0.08049281,-0.0262805112,-0.102123663,-0.07497754],[-0.000351435359,0.08379426,0.00494256942,0.0449407659,0.04080162,0.119471744,0.00683585368,0.0122326966,-0.1284911,-0.0556663238,-0.07356974,-0.1580134,-0.0104573807],[-0.158977881,-0.06217804,0.0222510789,-0.00350854523,0.103732571,-0.043003574,-0.08286941,0.0261035785,0.08685681,0.00753534166,0.06993091,-0.0596208647,-0.00289711263],[0.124098308,0.0344453976,-0.008762903,0.0509701,-0.06507374,0.06468347,-0.08366165,-0.0177467242,0.08873176,0.112737156,-0.09308117,-0.05588802,-0.0168476515],[-0.09502817,-0.06448934,-0.08309622,0.0518145822,-0.0657020658,0.03679444,-0.03541379,0.0369454138,-0.02844127,0.02090931,0.08275259,0.0480960831,-0.0285141524],[-0.0414769351,-0.126902342,-0.0232487172,-0.04032724,0.0149290059,-0.08008003,-0.0517463572,-0.0368874967,-0.09273369,-0.111369751,0.0269522257,-0.108060151,-0.02757336],[-0.0136550842,-0.06118765,-0.0792085,-0.08557764,0.004286974,-0.06966499,-0.06308504,-0.106722251,0.046445407,0.131263331,0.06559789,-0.113901466,0.0544979274],[0.049110014,0.0467658639,-0.054951746,0.161608532,-0.008368592,0.09449339,-0.00732711144,-0.09519615,0.03564002,-0.106845513,-0.107094809,0.105557919,0.027821904],[0.054119166,0.09386044,-0.0367346,0.06552593,0.05209901,0.108318239,-0.05070903,0.04682606,0.0448153429,-0.0588009357,0.0371735543,-0.0151285576,-0.0937629938],[0.17248787,-0.0260449033,0.0148555273,-0.0322911963,-0.0267939623,0.06695183,-0.00276062987,-0.00476950733,-0.09473714,-0.04585857,0.0164017081,0.0628623,0.0571394],[-0.09260765,0.1029221,0.00219402788,-0.08939993,-0.004276516,0.038769,0.04278757,-0.0255728588,0.07679481,0.146201357,-0.06194091,-0.0298106242,0.08464569],[-0.0198925659,-0.0419730172,0.106326349,-0.114043318,0.06790251,-0.06531351,0.0707786456,-0.09913235,0.111766808,0.0352467038,0.0137892561,0.037008062,-0.03181745],[-0.02037993,0.0707947239,-0.158869743,0.109279118,-0.118541613,0.05758078,0.101430021,0.003170238,0.08361399,-0.06157981,-0.02199294,0.14186503,0.0256636441],[-0.127613083,0.008683773,0.05174458,-0.062956214,-0.05755161,0.0331463031,0.09751825,0.0712884441,-0.04225093,0.03886644,-0.08366747,-0.09713295,0.106555469],[0.0241824761,0.00406995928,0.06247316,-0.0348869637,-0.0703185,-0.0155620212,-0.158272952,0.08236533,0.1517712,0.0902591646,0.117412783,0.00755774975,-0.053831283],[0.0554239154,-0.0354834944,0.03809952,0.189458087,-0.0654578358,0.0589312725,-0.00334833516,0.0046131,0.0265582781,0.0177170765,0.0220556278,0.06947736,-0.0552731268],[-0.117809385,-0.1017419,0.019688772,-0.0191890914,0.0927172,0.06666106,0.08569142,0.0274854712,0.0508157834,0.0412924178,0.09736157,-0.0238789674,-0.03077695],[0.05255933,-0.127553016,0.08011147,-0.06529252,0.0262030028,-0.00319694355,-0.0144658443,0.02795779,0.117689915,-0.009931213,0.12232545,0.04088049,-0.0322921127],[0.146704018,0.05699454,-0.07563427,-0.0182532985,-0.0550675876,0.0329332836,-0.0607657954,-0.06268746,-0.07591584,-0.026480861,-0.05924483,-0.05775753,0.0308096651],[-0.000856217637,0.0029355248,0.170144349,0.0398478359,-0.007819563,0.00515940739,-0.0539136827,-0.009972289,-0.04585682,0.0242635645,-0.0382137932,-0.0238739178,0.0179000515],[-0.09259889,-0.09338403,0.0142668784,-0.0504487976,0.09040561,-0.031984,0.00286460458,0.0200826935,0.108479194,0.002449624,0.107329525,0.123796195,0.03696857],[0.03331454,0.0654672757,0.105725341,-0.03749851,-0.0488327369,-0.0735976547,-0.07062519,0.05727549,-0.131163,-0.08968915,-0.002552025,-0.08297672,0.0687037259],[0.09618566,0.0157159865,0.1585591,-0.07180222,-0.1192441,-0.01505374,-0.0336005464,0.0484596267,-0.0443063974,-0.114296921,0.02571561,-0.0583534837,-0.0673374],[-0.06688073,0.009318236,0.1635728,0.026590202,-0.09268207,0.0631886646,-0.07783532,0.0506612547,-0.0433916748,-0.05993681,0.03320294,0.09029868,-0.0231447015],[0.039661292,0.019645039,0.0348422229,0.005695077,0.0547234863,-0.009027596,0.013420485,0.0524482764,-0.0456198119,0.0382076241,0.100270905,0.142616764,-0.10216742],[0.13297838,0.05255454,-0.0491852574,-0.08867375,0.0677637756,0.008468176,-0.0491392426,-0.0113476161,-0.10748703,-0.0220018849,0.0425013043,0.08920729,-0.0531378873],[-0.143495724,-4.19128264E-05,-0.08861765,-0.0222213082,-0.0328634158,0.112441033,-0.0776956,-0.0148552144,-0.0475387424,-0.09219231,0.0761875,-0.0508595221,-0.06517272],[0.008583942,0.01173854,0.00638880348,-0.156058058,0.101377785,-0.0270049125,0.06992144,-0.02214229,-0.0734812245,-0.0211566258,0.07480726,-0.0211937223,-0.0266268179],[0.07734536,-0.105333619,0.0159470048,-0.014130597,-0.107494943,-0.0391337536,-0.0312426221,-0.06616929,0.125463143,0.04133367,0.08561875,0.0144564593,0.0972809643],[0.03804912,0.1501867,-0.0037536188,-0.006212606,-0.0783878937,-0.0433037952,-0.00490328064,-0.06331733,0.0290607847,-0.07663297,-0.0545595661,0.0186258517,0.03779892],[0.0725294054,-0.09539309,-0.0477797166,-0.08589436,0.111960933,0.08924794,0.042704802,-0.005001329,0.054433953,0.0728955343,-0.0214282628,0.08182398,-0.09034734],[0.135107085,0.0103055164,-0.110122956,-0.07098895,0.00752054434,0.0462142564,-0.016706707,0.04435444,-0.02468143,-0.089843154,0.0816118345,0.07909265,0.056863375],[-0.08962269,-0.09311335,-0.00059466355,-0.0625398159,-0.00534547959,0.07957266,-0.036670547,0.0494128242,-0.070193246,0.08662678,0.0200920235,-0.0201107264,0.0556355678],[-0.007749429,-0.05894771,-0.153532788,-0.0557996444,0.0728316158,-0.06765616,0.02713714,0.09464495,-0.07666853,-0.02875135,0.104658589,0.0619751848,0.03329295],[-0.0372680724,0.0535301156,0.173873141,-0.0384337939,0.04641286,-0.08564986,-0.0132205272,-0.0468253233,0.0597437136,0.05896553,0.1074773,0.08299434,0.0615688637],[0.06652589,0.0384292565,0.150825053,-0.07521371,-0.0200782232,0.008302697,0.08185323,-0.136186674,0.0583263077,0.0176607575,-0.00966395,0.03440347,0.06523787],[0.05143686,0.1266021,0.05904882,-0.0481666625,-0.08123728,0.0253860652,-0.125867948,0.0304397959,-0.0736271441,0.0757472143,-0.05652132,0.0122784125,-0.0390174948],[-0.099497,-0.0745628,0.137712076,-0.0289727449,-0.0553192347,-0.008646087,-0.0271809772,-0.0196963921,0.139704451,-0.0401651151,0.0915983543,0.083042644,-0.101161659],[0.06631493,0.0449518,0.09400563,0.08676093,-0.04965522,0.030453559,0.03461481,0.00253845938,-0.132034346,-0.0823294148,0.0666865557,0.08277654,-0.07356238],[-0.08109958,-0.159402877,-0.0738062561,0.0322987363,-0.07205154,0.05051416,0.0797424838,0.0180521831,-0.004732224,0.0942659453,-0.0632231757,0.05315207,-0.0516535863],[-0.05151245,-0.002940505,-0.126488537,-0.08357462,-0.0859488547,0.0236981269,0.06274854,0.0539154,0.06483862,-0.0152281,-0.0327818841,-0.06721939,0.08949868],[-0.0139144743,-0.0565035976,0.2203719,-0.0187818483,-0.00529467827,0.0364095345,-0.07056243,0.04980423,-0.0389989354,-0.02141704,-0.008940435,0.0516951568,0.04337886],[0.06319455,-0.06604973,-0.04388416,-0.0052646487,-0.004025331,-0.07782392,-0.07174681,0.09353717,0.110707521,0.0860611051,-0.00340384082,-0.009206472,-0.03526294],[-0.152043253,0.06557393,-0.0602902,-0.0195153728,0.103629038,0.103554338,0.0452180579,-0.0284222234,0.07241317,0.124306343,0.043460086,-0.08940584,0.09472585],[0.107519761,0.109968573,0.08571657,0.0148939276,0.0777895,0.0483670942,-0.03905285,-0.04970493,-0.08026838,-0.046185907,0.03710821,0.01646926,0.110677421],[-0.205290943,0.0234520361,-0.100100644,-0.004406526,-0.0196720976,-0.0751798451,-0.0569864959,0.0298675038,-0.07191265,0.006025843,0.0288675949,-0.0851740539,-0.07711343],[-0.118714832,-0.0577935241,0.040692538,0.0965227261,0.01453972,0.009144717,0.0651857,0.0298476238,-0.0490089655,-0.0158238355,0.021877721,-0.0744492263,0.00551066129],[0.164240822,0.0418220423,0.0188577734,-0.018663032,0.0106337667,0.0442517251,0.05846359,0.04747321,-0.083429195,-0.049324017,0.010540612,-0.00415190635,0.005025814],[-0.113374434,-0.0859129354,-0.0174669288,0.0156519953,0.04536193,0.0125990054,0.07650635,0.101184838,-0.0395923257,0.007966439,-0.00219764165,0.0612700433,-0.0415828861],[0.0295049213,0.0169315226,-0.023046134,0.09775869,-0.006231771,-0.04396561,-0.0126963919,-0.10673546,-0.116234027,0.01655603,-0.015093076,0.080814,-0.0712348],[0.00161875819,0.00436326256,-0.185204014,-0.0206513461,-0.04467293,0.0278386548,-0.03364165,0.07174488,0.0283238124,0.137917429,-0.07762082,0.022467019,-0.0151585108],[-0.06753783,-0.0983069763,-0.01186987,-0.0848812461,-0.101004206,0.10658177,-0.0566143245,0.107891686,-0.0442158133,-0.0322689638,-0.102367796,0.0971628,0.0601423681],[0.085117735,0.07134675,0.0660960451,0.0833689049,0.0470719337,-0.003819272,-0.0308876038,0.04429355,-0.0352053158,0.0168816131,0.08972506,0.07899788,-0.0212340876],[0.0408782959,-0.017494116,0.120014153,0.175599068,-0.06892712,0.0491108038,0.05826688,0.0474006981,0.009364722,-0.0612840019,0.00314983516,0.107857406,0.0636396259],[0.02153401,0.0225212686,0.01898633,-0.06736277,-0.06889719,-0.0110896286,0.0632555038,0.010429739,-0.154098645,-0.0223553758,0.022539,-0.0500910766,0.007132186],[-0.0527853034,0.06628846,0.09313867,-0.00926801749,-0.07795464,0.0325570367,0.07014086,-0.07408068,-0.021592278,-0.0617097467,-0.04653225,-0.01584025,0.102711737],[-0.0327010639,0.08364035,-0.0370787159,0.0121788317,0.0180240683,0.0478295274,-0.05444828,-0.06202069,-0.0300983228,0.09993616,0.101366438,-0.0571213178,-0.0847537145],[0.150630683,0.0406823643,-0.0170515087,-0.00353110186,0.0240254216,-0.07986505,-0.0695745051,0.008561934,0.09280284,-0.0615466,-0.0138104269,-0.005468171,0.02590696],[-0.115006171,0.08776152,-0.042411685,-0.0102015445,-0.0597309768,0.0261291228,0.04591381,-0.07190829,0.07811292,0.00123680627,0.09277444,-0.139313161,0.01970015],[0.143059537,-0.0255698077,0.00963834,0.0589620247,-0.0407617278,-0.0197858177,0.0173661113,-0.08142985,0.0435653664,0.100258775,-0.0643722042,0.0605756156,0.0167335421],[-0.04574756,-0.09763853,-0.0336266644,-0.0303898957,0.025314318,0.09796723,0.001606157,-0.0180839617,0.0243644714,0.0486604,0.0135093769,0.023820065,-0.107587732],[-0.005603678,-0.09962934,-0.03214108,0.06246671,-0.0107537042,-0.09416458,0.0666477,0.109870054,-0.0226445571,0.0125089241,-0.008632118,0.05605808,-0.0707624257],[-0.0166097116,0.0220042057,0.09612064,-0.0619848967,0.0193426814,-0.03312268,0.08694633,0.0245709568,-0.05795484,0.0323117636,0.06642726,0.102059752,0.00144473254],[0.0585030541,-0.01089736,0.03653141,0.0543192625,0.104793057,0.001734585,0.111405224,-0.0661532357,-0.029679656,-0.03469825,-0.007824812,-0.166656479,-0.08422074],[0.0298895333,0.0553683974,0.07113624,0.0390906446,0.0492283739,0.0605190061,0.0226530284,0.126541376,0.07105008,0.01928652,0.00516349543,0.0670525953,0.0453262],[-0.00367220445,-0.0525281765,-0.06126891,-0.07158738,0.0286760274,-0.0286110528,-0.05602965,-0.0234309752,0.03130802,-0.047122445,-0.04101274,-0.111026056,0.0942765549],[0.0576626323,-0.122928,0.0435374379,0.100694783,-0.0848216861,0.0378275961,-0.0194153953,0.008944752,0.0590167455,-0.116489351,-0.0846964344,0.0593989044,-0.10278327],[0.01508897,-0.0570535064,-0.06149988,0.125146583,0.0530797578,0.0733336657,0.04238374,0.0203688256,-0.09308457,0.0233715661,-0.08931746,0.0619333163,-0.113084786],[0.103985451,-0.0214025,0.212333858,0.089947924,0.0129780984,-0.0143355289,-0.095119454,0.0930827558,0.102301031,-0.0666079149,0.139839619,0.09944956,0.0580105968],[0.114472881,0.06068185,0.100402094,0.0516258031,-0.0624480881,-0.09686495,-0.09323137,-0.000718372932,0.0543725267,0.0143991951,0.09531102,0.06993182,-0.06933672],[-0.0344267339,-0.1713903,-0.0530895144,-0.0381498225,-0.051915586,0.0570412874,-0.0639398545,0.000735827838,-0.08164761,-0.0665290654,0.07251313,-0.0368694775,0.077341415],[0.114649728,0.09032975,-0.0492878519,-0.008077581,-0.09969914,-0.0427933559,-0.05358751,-0.06564144,0.00021376877,-0.0552024059,-0.0926693752,-0.0119903972,0.0931123048],[0.08357024,-0.0474084131,0.03235254,0.0591098666,-0.03495206,-0.0437841751,0.0423517525,-0.06563537,-0.141824529,-0.0294763353,-0.111303881,0.05927173,-0.006453632],[-0.0509418845,-0.0345808454,-0.0531579331,0.08791046,-0.08934931,0.102674045,0.09525174,-0.08637513,0.033994507,0.009799284,-0.09664511,-0.13998878,0.0197720211],[0.0626414046,0.060345728,0.169031858,0.033168,0.0777148753,0.0106656449,-0.10071107,0.019218266,0.114353761,0.0427125171,0.08996159,0.0676343,0.004040345],[0.153580338,0.027902104,-0.004223348,0.0139786741,-0.112786643,-0.06755187,0.0761839,-0.00566284638,0.05267698,-0.037131235,-0.0825578943,-0.0006020492,0.0587568134],[-0.009609903,-0.138803035,0.00159323274,-0.0594104268,0.0102462023,-0.01500871,-0.07850987,-0.0258330777,0.0226010177,0.07464236,-0.03824293,0.0108066937,-0.06189942],[-0.08232475,-0.06202767,0.09104325,0.05691498,-0.09312763,0.0228012335,0.08765871,-0.0229476523,-0.112487428,-0.1278576,0.04525786,0.0306959637,-0.04493667],[0.116650485,0.129970714,-0.0632688,-0.0341385752,-0.0168574,0.0251252353,0.0685617,-0.110514529,0.0562801063,0.0475503728,-0.05985386,0.02359652,-0.07712899],[0.101312563,0.008325764,-0.08627926,0.02664089,0.003368659,0.04014932,0.06424225,0.06559818,0.0641132742,0.0136602679,-0.00283901067,0.0195813365,0.07824233],[-0.0475574,-0.008787913,-0.0275068711,-0.102267422,-0.02836482,-0.0988955,0.023019122,0.0859724954,-0.04148753,-0.0887197,0.0469984747,0.0733754039,0.122480392],[0.117269531,-0.0057183574,0.109953225,-0.04997809,0.0594031736,-0.053128507,-0.116038777,0.134403124,-0.00720428023,-0.0290249754,-0.0413641967,-0.107761316,0.07509132],[0.0609659255,-0.0166818742,0.0504199862,-0.114530154,0.000433988142,-0.08732707,-0.04870036,0.08995773,0.05745047,0.0351110175,-0.0506985448,0.107864544,-0.07115934],[0.0227996558,0.0013095818,0.06269989,-0.157783613,-0.0157823917,0.106449768,0.114583991,-0.120591566,-0.00464280974,0.09082446,-0.0634894,0.0871938,0.0441279672],[-0.09546987,-0.07760497,0.08672593,0.00178200519,-0.02995644,-0.044008784,-0.018314518,-0.005589402,-0.140780538,-0.128971383,-0.0864414349,-0.122989014,-0.107913226],[-0.0113414619,0.0634517,-0.0607723258,-0.0527815446,0.0918308347,-0.09405957,0.0618680045,0.06732006,-0.0134374378,0.107000314,-0.0517551452,0.152636483,-0.0612782575],[0.0049415715,-0.14364247,-0.0699102,-0.007200877,0.01146198,0.09878684,0.0392554849,-0.07987018,0.09648022,0.135083377,0.118739493,0.0848431662,0.0200798213],[-0.0183292925,-0.129729465,-0.0237784851,0.00720815966,0.08814657,0.0483032279,0.0429998636,-0.0151193105,-0.08594327,-0.00727398461,-0.08415628,-0.09360842,-0.06862146],[0.0290909875,-0.0162643883,0.0240491517,-0.123638257,0.08784973,0.07065831,-0.05113938,0.019336978,0.0221316274,-0.09964349,0.0366742648,0.0109535111,0.100913309],[0.110534057,-0.08646838,0.026987927,0.07087402,0.0309978854,-0.008860701,-0.0976661,-0.0658037663,-0.146609157,-0.132937029,-0.0972590148,0.0365345068,0.03154147],[-0.130005449,0.07867409,-0.0441807173,-0.0858031362,-0.0114690727,0.07750893,0.0729481652,-0.11231406,0.0543917567,-0.09998857,-0.04759987,0.113538377,0.0628048554],[-0.004593654,-0.0283596013,-0.08852318,-0.09055415,0.09396346,0.0111959409,0.008761139,-0.09889782,0.0774002448,0.06863316,0.10057985,-0.14369902,0.06968164],[-0.03456096,-0.0359216742,-0.06930435,0.13831751,0.0399603657,0.0534914322,-0.05368356,-0.0546798073,-0.03393013,0.0113257589,-0.0137646822,-0.08594812,0.058895465],[0.0193406437,-0.02916328,0.000251695485,-0.0247585084,-0.09565705,-0.0487437174,-0.0163212176,0.07050692,0.00630276231,-0.06743723,-0.0485567749,0.178436384,-0.0311233625],[0.0109899035,-0.00211479,0.19453004,0.042400565,0.08793637,0.08667948,0.08479368,0.0712150037,-0.0608904175,0.03563093,-0.000119504606,0.0318973772,-0.09713409],[0.008881036,-0.0182357784,0.154314548,0.17561473,-0.08493881,-0.11143668,0.00127204589,0.0381307863,-0.121788435,-0.0358808972,0.0261737779,0.113512374,0.01584007],[0.0608837,0.0601015575,0.0737495646,0.048020687,-0.06981209,-0.050167527,0.08453107,-0.06855333,0.036040768,0.09277426,0.08355599,0.0537915975,-0.09552383],[0.118790522,-0.07038141,-0.00241542538,0.014550209,-0.0170059782,-0.09784803,-9.004548E-05,-0.06322749,0.07503001,-0.09839683,-0.08098571,0.104544081,0.0224139616],[-0.08953796,-0.07179056,0.06113888,-0.06300308,0.06950608,-0.0407037176,0.00165097974,-0.0535193458,-0.016947655,0.0427168943,-0.0141308233,0.0851284862,0.02003714],[0.148002148,-0.04660302,-0.0367595553,-0.07562044,-0.00757875945,-0.118166439,-0.0433387645,0.0365013555,0.08819637,0.0822391137,0.09092441,-0.04579144,0.0378422737],[-0.0865348354,-0.1500952,-0.0312732644,0.0483529978,0.057532914,-0.0452441238,-0.05235127,-0.0009978852,-0.058592204,-0.04064526,0.0193901416,-0.0163160954,0.0728517],[-0.0181771126,0.139439389,0.0218693316,0.0299906377,-0.0247543342,0.08112449,0.10017731,-0.117457151,-0.128539115,-0.130286157,-0.0326733738,0.0418017171,0.00316770026],[-0.0421178229,0.1267012,0.0198725685,0.0602967143,0.0248857457,0.07221861,-0.0310831424,-0.0578042939,-0.1201988,0.0317721032,0.0394222178,0.124167033,0.02732503]]}},{"ClassName":"DenseWeightMatrix","Content":{"matrix":[[0.0124406293,-0.061087098,0.0421055667,-0.0206220783,0.00328899943,0.0447195321,0.0257722158,0.0195649359,0.04664557,0.007440197,-0.0254580937,0.09586681,-0.0234062411,0.07455471,0.07245998,-0.07228358,0.0210860353,0.00427397154,0.06851732,-0.0360083,0.00294494629,0.05149623,0.09953501,0.00662770169,-0.05514973,-0.0503417067,-0.05264994,0.05933427,-0.0231830366,0.01452614,-0.0516306721,0.0137811033,0.0253829956,0.0589796752,0.0101489006,-0.05328218,-0.0112998756,-0.00351343444,-0.110229,-0.0288516656,0.0427227169,0.03602131,-0.027419541,-0.001020859,0.0758131444,-0.0260919761,0.062083032,0.0138349906,-0.04751412,0.0274168719,-0.06753367,-0.0196841881,-0.016916167,-0.00254569435,0.0416931957,-0.02786933,0.05944567,0.03422795,-0.0104051074,0.0378039666,0.0466711856,-0.0109643629,-0.0357336365,-0.0292029828,0.0512736067,0.001461865,0.008177959,-0.078353934,-0.0107200583,0.05591168,-0.002265736,-0.0591195449,-0.0333046243,0.03732009,0.0893633142,-0.072034955,0.07689122,0.04154464,-0.06176661,0.00169099832,-0.07664444,0.000531687,0.08669661,-0.0106596919,-0.004776481,-0.0594756678,0.0129349222,-0.053142827,-0.09010702,-0.0488761254,-0.07120124,-0.0124996854,-0.0164002981,0.0226448346,0.05051043,0.0162260868,-0.0595077462,0.04150856,0.05430913,0.0604970045,-0.0151071809,0.06466628,0.06682654,-0.0310214777,-0.07676575,0.0298531558,-0.0228398759,0.03037126,0.0244226251,-0.0563092344,0.059731815,-0.0575982,-0.0494638346,-0.0271969922,-0.0535953268,0.0059202374,-0.0926169753,0.0547606125,-0.03345642,0.013566466,-0.0228320155,0.08862033,-0.0290569756,-0.0624911524,-0.0262980927,-0.0434766561,-0.02133278,-0.0319196321],[0.0358521678,0.05911585,-0.0050333,0.05755671,-0.0219857674,-0.0433133729,-0.0922969952,0.0215838477,0.02199544,0.0118002724,-0.00232534553,0.0426214263,0.06844098,-0.0429979973,0.012357099,-0.06149713,-0.07449553,-0.0752978,-0.00571245141,-0.0516423471,-0.052610144,-0.0497104526,-0.0509631224,0.0276599322,-0.0379524119,0.02895402,-0.0322681777,-0.0288929939,-0.0273322165,-0.02333818,0.06394334,-0.06568718,0.07392448,0.0204337724,0.0120555107,0.0309696179,-0.06374535,-0.0365906656,0.0431674831,0.03597215,-0.03645254,0.00319354772,-0.0358097628,-0.0412062742,-0.0124923112,-0.019694021,0.00404147571,0.0162980463,-0.04159248,0.0633792356,-0.0215971172,0.0385680348,-0.00787087,-0.04776036,0.020743968,-0.007946873,0.0214466713,-0.00115301681,0.0543921776,0.06297758,0.07457067,0.0681407154,-0.0392010324,-0.0361671373,-0.00656721834,0.00709296763,0.01650109,-0.000204975862,-0.05377879,0.04514403,-0.0194925833,-0.04002456,0.0724424645,-0.0583753064,0.02148453,0.0250003878,-0.0289840568,-0.0107020065,-0.0389119461,-0.0329631455,-0.0242673587,0.0200833678,-0.0311461054,0.0328324,-0.03941785,0.0544564426,-0.001793558,4.534766E-06,-0.0237497538,0.00338517269,-0.0642452,-0.0530982353,-0.035493806,0.09003298,0.0479820147,-0.0512619279,0.022638727,-0.03249273,0.040435,-0.07212419,0.009256368,-0.0390245542,0.0218793061,-0.0399284475,-0.0531137921,-0.0608357862,-0.06526313,0.0373599045,0.0241243262,0.05747131,0.0273263566,0.0740552843,0.009360441,0.00635895459,0.008550305,-0.0506774336,-0.0105812717,-0.05914431,0.0157420933,-0.06797932,0.0510471649,0.009755435,0.0467899367,0.00343501335,0.0180080477,-0.009489384,-0.06212214,-0.0476142541],[-0.0162356012,0.0381431021,0.08500778,-0.0240979455,0.0368317775,-0.0249326825,-0.02906246,-0.08143357,-0.0538649559,-0.0678713247,0.0227337759,0.06133739,-0.05882664,-0.0356296338,-0.02572662,0.06716417,-0.0309360269,-0.06746104,-0.08961971,-0.0122010363,0.00163532957,0.002430283,0.0664538741,0.05516959,-0.0366475321,-0.0152912373,0.0515467338,0.017921377,-0.01573789,-0.07543796,0.0183609482,0.0629744,0.0167293958,0.001287736,-0.0195850227,-0.0416586325,-0.0185246114,-0.0175622962,0.03996104,-0.0377292559,0.029339835,0.0273344461,-0.0463050045,-0.0251518227,0.0277815051,-0.06422095,-0.07071873,-0.0167362243,0.01701408,-0.0433118753,-0.0122024687,-0.00158978358,0.0861655846,-0.0452101044,0.0517583974,0.0241812654,0.0603264,0.02173437,-0.01793209,0.054967422,-0.0446510576,-0.01809006,-0.0593001731,-0.07405765,-0.0445633456,-0.0494797044,-0.0948728,0.08206865,0.0882747248,0.0361558534,0.0130627472,-0.0200555548,0.0692352057,-0.0842297,-0.0395123847,-0.0829047263,0.00482654525,-0.0248676855,0.04622399,-0.0534961559,-0.07077786,-0.0461437553,0.07774196,-0.0511621349,0.004265682,-0.0241383854,0.00199684221,0.04321472,0.0647891,0.0477431677,-0.0383201577,-0.0408975072,-0.0507242419,0.00849277247,0.0146561824,-0.051276397,-0.0260234345,-0.0682950839,-0.07261295,0.0362076648,0.0486467,0.0220848341,-0.004004143,-0.0517564081,0.066396445,-0.09122154,0.00228453451,0.04453355,-0.06209995,0.0495835356,0.03869318,0.0308162384,0.08472783,-0.0391984023,-0.07510488,-0.05458033,0.0182198863,9.69446555E-05,-0.04390476,0.0126349153,-0.06298673,0.0377068,0.0239105467,0.0474234559,-0.005747147,-0.02450588,-0.08657619,-0.101173371],[-0.00566151459,-0.0638031438,0.003568992,-0.011055111,0.0217244923,-0.01721065,0.0372425169,-0.024040753,0.0166205466,0.06248045,0.006348354,0.0001487279,-0.02130172,0.08080984,-0.0209800545,-0.00483880145,0.0293629169,0.0152393216,0.00654898258,0.00529876631,0.0510833934,0.003200771,0.0398863927,-0.02436512,-0.053169135,-0.009027675,-0.018607324,0.0524054579,-0.0493787155,0.005162003,-0.07521855,-0.037194062,0.0443868153,0.0574209839,-0.0223992262,-0.0211076327,0.06165303,0.0398463234,-0.0407829136,-0.0182104446,0.0692044944,0.03367937,0.00322094769,0.04936649,-0.0586397536,-0.005611001,0.05513577,0.0747297853,-0.00104531576,0.08417651,0.022920737,-0.065201886,-0.0315937251,0.0603607,-0.003579237,0.0442323722,0.06641668,-0.0197401457,-0.057747826,-0.06675831,-0.00138651312,-0.0435791053,-0.0177825689,0.06205176,0.0426803827,-0.0230850987,-0.00576219568,-0.0344809219,0.00558597129,0.0817634538,-0.0327453576,0.00712869549,-0.0353148319,-0.01993257,0.01804921,0.009611049,-0.02580538,0.04688373,0.02033064,-0.008459514,-0.05748191,0.0553617924,0.05432057,0.0160552412,0.0556471571,-0.06468638,0.0198999383,-0.0422782451,8.93483448E-05,-0.0159632135,0.0228262637,0.06719956,-0.04167141,0.0153440535,0.0637830347,0.00240515,0.03299803,0.0497397147,-0.0451725274,0.05511679,-0.030844098,-0.0334141664,0.005942808,0.02748253,0.06343265,-0.05125348,-0.0252783857,-0.00290865637,-0.0450012572,0.0561308227,0.0909305662,0.0583645627,-0.0795109048,-0.0187783428,0.015141163,-0.07451366,0.0506090857,0.06389343,0.09643842,0.0400060043,0.0577015355,0.04646525,-0.019164253,0.05909998,-0.0458795466,0.0256596785,0.02082207,0.0761331841],[-0.0140972454,-0.000857667648,-0.05599293,0.0506559163,-0.0138992853,0.0629111156,0.0404764526,-0.00219117315,-0.07533758,0.05831411,0.012176,-0.0495855734,-0.0302553847,0.05933011,0.059350837,0.00166241149,-0.09370597,0.0112645738,0.04347633,-0.0318860449,0.008067321,0.07076763,-0.008096096,-0.0653727949,0.0397951119,-0.0462456644,-0.08582406,0.0450768024,0.0537969768,-0.00514365127,-0.075520806,-0.07934535,-0.0199758448,0.08757138,0.07834011,0.0220031068,-0.0444370843,-0.0820815861,-0.0454481058,-0.0400156863,-0.08081551,-0.07520834,-0.00711483,-0.0408969559,-0.0145437159,-0.0499813259,-0.0192185827,-0.0530555025,0.02536969,-0.0227454845,-0.02841408,-0.0157120582,0.07889662,-0.03758816,0.06206956,-0.004609528,0.0231789183,-0.018095674,-0.0162564963,0.06707798,0.0574598238,-0.0200336315,0.030639302,-0.007469712,0.0149103608,-0.0636420846,-0.0764856,0.04480738,-0.0109310383,0.08838244,0.0224955622,-0.0557907075,0.08004053,0.01303387,-0.0442768,-0.03792437,-0.007753224,-0.0288438816,-0.0475369021,0.0354369953,-0.01819842,-0.07686333,0.0477773,0.06388811,-0.0324041732,-0.06503221,-0.0499534532,-0.03307117,0.0341425128,0.0288954973,0.06443312,-0.07211228,-0.09240361,0.0186860021,0.013511586,0.07434724,0.00547946151,0.00155296223,-0.0288867783,-0.0293711629,-0.03372782,0.07110275,-0.08399456,-0.04737259,-0.007331007,0.048801586,0.0592725724,0.0251008309,0.0622433424,-0.04892545,0.0339201838,0.008135957,-0.0194554776,0.07673977,-0.02548747,0.0102697872,-0.0147060622,-0.08722538,-0.0115298321,0.0374562778,0.05177396,0.03844007,0.0486485958,-0.0479858853,0.0384013243,0.0491519719,-0.0258720852,-0.0130168125],[0.047422953,0.0229126681,-0.07657549,-0.0156291313,-0.08560666,0.002366471,-0.0315116,-0.0552349836,0.04410622,0.03213022,0.016211411,-0.049520418,0.0567894056,-0.07195222,-0.06055944,0.0162683334,0.008526839,-0.00309944036,-0.004571311,-0.05806265,-0.0623006634,0.0565324649,0.0576024838,0.03267303,0.0188619569,0.004846946,0.00278987852,-0.000865419745,-0.05150842,-0.04700968,-0.06900146,0.0302692819,-0.009411481,0.0392576829,0.0642902553,0.0434329472,0.0274102315,-0.06160575,-0.08425264,0.0310927667,0.06677154,0.0718414262,-0.0555901341,0.0642580539,-0.015438932,0.053896606,0.0623107553,-0.0492949672,0.0123587968,-0.0129780425,-0.000767475169,-0.04860038,0.05481653,-0.0708466545,-0.04847883,0.00521843974,0.01677093,-0.007843555,-0.0325408243,-0.04896573,-0.0110090133,-0.0420444235,-0.0578553528,0.0313007943,-0.03732079,-0.008945432,0.0645488352,-0.0454466939,-0.06364466,0.0112852594,-0.0490056574,-0.0279836766,0.029860666,0.00246911473,-0.04582846,-0.00187294884,-0.04720296,0.07809908,-0.0491129532,0.0711983144,-0.07695801,-0.03986643,-0.006627483,0.0572490133,-0.003639767,-0.05186494,0.05619153,0.009877452,-0.0647453,-0.0508674756,0.05980848,0.0776656047,-0.0452040955,0.07642351,0.0357449353,0.0131340595,-0.0484425277,0.0677921,-0.08755476,0.0245568547,-0.0548812635,0.0192447919,0.05926019,-0.06840619,0.0474273972,-0.0641042143,0.0186523888,-0.0214713216,-0.0152715174,-0.004996848,0.05219665,-0.03577834,-0.0436254,0.06645011,-0.0102901375,0.0120622069,-0.103236273,-0.04543238,-0.05904488,0.05506495,0.1072888,0.08277442,0.06553826,-0.0393986665,0.09800099,-0.07658816,-0.0485783964,0.04187535],[-0.0104058236,-0.032474,-0.017749371,-0.06863375,-0.0690220445,0.0528076924,-0.02831006,0.06385416,0.007561056,-0.0417356826,-0.06439797,-0.04269467,-0.06317967,0.06069572,0.0540713668,0.0284971111,-0.0161002856,0.0477440953,-0.041876927,-0.007955031,0.003093483,-0.0837129,0.06938228,0.008775202,0.0233365074,0.06448889,0.0455277152,0.025102865,0.0225466955,-0.0320112,0.06646291,0.0820053443,-0.08743238,0.0673224,0.0178288333,0.0448391,-0.0324683227,0.0153644923,0.0357258469,0.0595321581,-0.08764616,-0.02473442,-0.0519611239,0.048136726,0.0253560469,0.04119397,-0.0106065264,0.0499943048,-0.0555820465,-0.07827214,-0.04565123,-0.024331132,-0.04506378,0.04128467,0.055694174,0.04681101,0.0283346232,-0.0497549325,0.00193474465,0.07153424,0.02848525,-0.00102603959,-0.0190143939,0.06985653,-0.00178653491,0.037046697,-0.0679265261,0.0254080445,-0.0533817559,-0.0604570769,-0.023295546,0.06779431,0.01530671,-0.05421638,-0.0276351124,0.08354676,0.07669647,-0.0580374449,-0.0169434473,0.0534946173,-0.0188179649,0.0657619,-0.0548000149,0.04509329,-0.0146578727,-0.0368852876,-0.0623350032,-0.0208806861,0.0644276738,-0.0104383659,0.01143902,0.047103148,0.020670278,-0.100473776,-0.063583985,0.04587309,0.03073295,-0.07966533,0.021350788,-0.0160415024,0.07978285,0.02310165,-0.0701181442,0.08412146,0.0581939481,0.07592391,-0.08022822,-0.0256489217,0.0641261339,-0.0708111,-0.0753436238,0.0717747658,0.0441157781,0.006702959,-0.08488654,-0.0429907143,0.0382559858,0.00180085993,-0.02036845,0.0272531062,-0.112209521,-0.05148859,-0.0884062052,0.0254652612,-0.07444573,-0.07702354,-0.0105401743,-0.01030665],[-0.0424051359,-0.01769707,-0.0356040373,-0.038835384,0.06353572,0.0808004,-0.0190600082,0.06898366,-0.102435037,-0.006375492,-0.0515478179,-0.04741227,-0.00243393565,-0.02614109,-0.04185046,-0.0461849831,-0.0575698465,0.0817307457,0.0422388837,0.0244076159,0.04741914,0.0240332875,-0.04606282,0.003141727,0.0304470584,-0.0259834882,0.07979571,-0.03049648,-0.00426159054,-0.02617448,-0.0617880523,-0.008949133,-0.03225316,0.06898577,-0.0573182255,-0.0528104752,-0.0287307538,-0.0156854987,-0.00460089464,0.0154501386,0.0668968558,-0.008733604,0.03915228,0.06533672,0.00536373071,0.0138159264,0.0286584571,-0.0187969618,-0.07210096,-0.0387866423,0.00709062628,-0.06310347,0.0154454969,-0.0532853752,0.06334857,-0.07651339,-0.01670941,-0.08396591,-0.019905962,0.00430933665,0.0990264937,-0.0343582556,-0.0549648963,0.0051842886,0.007140122,0.0125824707,-0.00581905944,-0.0878298953,-0.00194195053,-0.0543941073,0.01812232,0.0288004056,-0.0154377557,-0.049411986,-0.0568965524,0.09567484,0.0888730362,0.06442892,0.0439671539,0.0542168468,-0.0718865246,-0.0558580533,0.0601694621,0.0768296942,0.0484870262,0.00177961565,0.0460213125,-0.037222188,0.0352542624,0.0145281861,-0.0474071428,-0.0425940044,0.0786360651,-0.0225077011,0.0292219128,0.0260015316,-0.0229332019,-0.04629717,0.07135474,-0.06364836,0.0115555059,0.04077682,0.08723126,0.05277887,-0.0252299868,0.07525247,-0.0296780262,0.06221536,-0.0168855954,-0.0811237246,-0.0346449167,0.04902924,-0.09143107,0.04127849,0.0372122377,-0.00156962406,0.0866665,-0.04379206,-0.0617377236,-0.0491602346,-0.009564769,0.003304247,0.0424007066,0.0259374417,0.0137856724,0.0145711573,-0.0813247,-0.00564439641],[-0.03643513,0.0397121832,-0.0126800388,-0.05055709,0.0260255449,-0.0394460857,-0.0735605061,-0.08900645,0.03437151,0.0346216634,-0.057506863,0.0270365141,0.08463115,-0.07297469,-0.04206195,0.06635218,0.07003833,0.0463532731,-0.0116497418,0.06966177,-0.06330309,0.0475222766,-0.03390411,-0.0203037262,-0.0311348457,-0.006498867,-0.04909652,-0.02944318,-0.007385327,-0.0195794348,-0.0368898,-0.09931674,-0.00169232383,0.0292651746,0.08443624,-0.0607448667,-0.06820203,-0.08170107,-0.0437478162,-0.0269685388,-0.0278510228,0.00615460332,0.0108447028,-0.04879568,0.06904233,-0.0159526914,0.0424619764,-0.0127991857,0.04837218,0.0335715972,-0.02722774,0.0308329258,0.06996689,0.06275148,-0.05964265,-0.08036563,0.0917387754,-0.0409933552,-0.0120147085,-0.0708382353,-0.0270237513,0.07086805,-0.0499295257,0.09609145,-0.0629375,0.0257550422,-0.000167087012,-0.0059245727,-0.06869433,-0.0266933553,0.08117222,-0.0410555229,-0.02016066,-0.0731164739,-0.0108200544,-0.0336942971,0.0353336744,0.0559360981,0.000919917133,-0.0607688129,-0.01946006,-0.0218843855,-0.0239124876,0.00227731653,-0.0548153147,0.063553676,0.0620137863,0.0388216265,-0.03549853,0.0425368659,-0.0106762759,-0.0198486242,-0.0211643,0.0156455655,0.0251135975,0.009557178,0.0238496,-0.0302788857,-0.0158252362,0.0190951638,-0.06933697,-0.03268797,-0.0418975949,0.04663971,0.0221882239,-0.00264749653,-0.0526607223,-0.0547585264,-0.05012558,0.02951105,-0.0489912368,0.00271808635,0.0721388757,0.002684272,0.0574338958,-0.07126331,-0.0162865147,0.06452216,0.0242308341,0.07762147,0.0613714866,0.0236355532,-0.0218805131,-0.04581451,-0.007729038,-0.0179559942,-0.05100615,0.0944018],[-0.0389424227,-0.0310086384,-0.0629929,-0.07643449,0.0853739157,0.06687047,-0.06715807,-0.04626454,0.0223783031,0.07785165,0.0189114232,-0.06799864,0.00304591446,0.06719786,0.009652148,0.06323938,-0.0163927954,-0.0513813123,-0.0169726033,-0.0741257444,0.0676520839,-0.06394311,0.0111330766,0.0417310633,0.0443937443,0.0279794652,-0.06311103,0.0473858826,0.0331408828,-0.007853893,-0.0552996136,-0.0503733121,-0.0231191479,0.005145973,0.06452464,0.0696435943,-0.07176798,0.0253480822,-0.0284177065,0.0457704365,-0.00107409956,0.06459649,0.0738791153,0.04167844,-0.06249186,0.0388877653,-0.00247981725,-0.0536228232,0.0536889061,0.00712306425,0.05375259,-0.06804728,0.0227508284,-0.0637717843,-0.0148649467,0.0449333526,0.013650069,-0.0160903335,0.0088638,-0.0333192125,-0.0330517031,-0.06565622,0.0475608148,0.01018027,0.00160407939,0.0610243268,0.04938013,0.000411625922,-0.0714082941,0.0584338345,0.0494993739,0.0338122733,-0.07085813,-0.0239930637,0.0170448441,-0.057836026,0.03905805,0.0107073467,0.038225513,-0.00139881286,-0.03377728,-0.0129551,0.05641001,0.0516253561,0.048053585,-0.05462801,0.019263057,-0.0242691319,-0.07053042,0.0445040539,-0.08400943,0.0747377,-0.0499773845,-0.05766377,0.04232273,0.0235612728,-0.00829873,0.0484545641,-0.05627054,0.007534091,-0.0281434357,0.0229508411,-0.06761539,-0.060865175,-0.052429866,0.04040638,-0.009302507,-0.00466039823,0.0251760539,0.0328511745,0.0483179577,-0.06407772,0.03951948,-0.031320788,-0.07111869,0.0136784883,0.0433399752,-0.062277548,-0.0312525555,-0.008886975,0.0417207927,0.06943175,-0.0260610227,-0.0533685833,-0.0277307052,-0.003872015,-0.0464545451,0.0593998879],[-0.0473143943,-0.0475371927,-0.0660863,-0.0258154646,-0.0213689618,-0.04463208,-0.0213678274,0.04367016,0.04696347,-0.03906191,-0.0705490857,-0.0762462541,-0.07438397,-0.08552937,0.03744015,0.03522003,0.0258785654,0.0545416549,-0.03869439,0.07522819,0.0529913455,0.0425405577,-0.0507363863,0.0116377138,-0.0408539772,0.0829703659,-0.0678704455,-0.08822263,-0.06357316,0.039423544,0.0423289761,-0.06493122,0.08246192,-0.02721379,0.0023854808,-0.01723827,-0.024566466,0.07677087,-0.07115575,-0.04631971,-8.16505E-05,0.0474814,-0.07359457,-0.0268935617,0.003125087,0.06591342,-0.03799476,-0.036633376,0.0251777824,0.07590137,0.00409590546,-0.0481558442,-0.0455998853,0.0260465015,0.0335240848,-0.0491690636,0.0619190149,0.0315083526,0.0536317,-0.045360893,0.0132645555,0.0274946485,0.0270365756,-0.04454702,-0.04977258,0.03634423,0.0700724348,-0.0589422658,-0.09105147,-0.03388236,-0.0404426977,0.0486446731,-0.0415996537,-0.003675292,-0.0456120968,-0.04182391,0.05431325,-0.06744967,0.07989573,0.05565138,0.0577698834,0.0115178721,0.04596193,-0.04620867,0.0499443039,-0.06885912,0.0503771231,0.0210605524,-0.01637745,-0.028048804,0.0540911481,0.0149964821,-0.0173318647,-0.068252705,0.0516562946,-0.000489454658,0.0533486,0.0506700948,-0.0217081867,-0.00262390682,0.0555835627,-0.03544447,-0.06824093,-0.0565605462,-0.08460977,-0.05342701,-0.0259313155,0.0364885479,-0.01507992,-0.0446566977,0.06865473,-0.0618690848,-0.0548137575,0.0156204905,-0.00695284642,-0.009823243,0.06602781,-0.0531050079,-0.0155691095,-0.0611856468,0.09163616,-0.0166136175,0.0312642157,-0.00329034566,-0.0104394089,-0.015196668,0.0588156,0.0306897275],[-0.0255145356,-0.000184206729,-0.0187549386,-0.0211239681,-0.01679756,-0.07235387,-0.08377157,0.0670618,0.0681025758,-0.0561747067,0.06835513,-0.05025364,0.06451015,-0.01705879,-0.07018423,0.0365250781,0.07758676,-0.0584357828,-0.01845434,-0.04913791,0.0557286777,-0.0382194445,-0.07389081,0.045268435,-0.0560441464,-0.0079881195,0.0312110446,0.0894269943,0.05486563,0.00151899166,0.020221673,-0.07034831,-0.0470031463,-0.07530903,-0.0258213989,0.0806177557,-0.04969571,-0.022295868,0.06897995,0.0301428717,0.0589553043,0.008810148,0.0266246926,-0.07517564,0.0694494545,0.040708296,-0.0073311287,-0.00309868972,-0.0316008776,0.05237406,0.0593618155,-0.03709228,0.05398092,0.0167277157,-0.08397984,-0.03889326,-0.0293657836,-0.0205697641,-0.00880301,-0.04326236,-0.0630214661,0.00106357445,0.09732076,0.0160251968,-0.0380460136,0.04960352,0.07530529,-0.0508650132,-0.02862646,0.0579043925,0.0450491942,0.07473779,-0.01602728,-0.0315344259,-0.0197325777,0.03315678,0.04072892,-0.024997307,-0.0205561221,-0.0242937915,-0.0008394152,-0.0534692071,-0.07989517,-0.0223600212,-0.07657699,-0.009788903,0.0553653538,0.0593493655,-0.0527365543,-0.04735766,0.0180700831,0.07668154,-0.0424027778,-0.05998405,0.02173911,0.07365774,0.0258988887,-0.0549065545,0.057251703,0.0600214452,0.0212204624,0.04443316,0.0189331751,0.0471671671,0.069123365,-0.06057224,-0.07619217,0.07369437,-0.0256599151,-0.0433280431,0.0412151851,-0.05488267,-0.028599754,-0.03272811,-0.006962065,0.0222193841,-0.004621072,-0.0506942831,-0.0655534938,0.00245466037,0.06979325,-0.00245969463,-0.02609226,0.0910369158,-0.0643174052,0.0754555762,-0.04622784,-0.05996114],[0.0078111277,-0.06945343,0.0346156731,-0.07216827,0.03159913,0.0358490348,-0.08749969,0.0404192433,-0.03661739,0.060462106,0.048800908,0.06798208,-0.03331875,0.0812566355,0.0300606359,0.0281377416,-0.004574127,0.058450643,0.0409022644,0.0384264253,-0.02568698,0.06631686,0.07737593,0.0262700878,-0.0127317384,0.048687052,0.01811667,-0.0355635621,0.01144084,-0.03108205,0.0114817629,0.0102282707,0.0223602522,-0.0588239022,-0.013106118,-0.0140705053,-0.0256953053,0.0379812,-0.08168924,-0.0380228944,-0.004326453,-0.0241044722,-0.0466945581,0.03965498,0.0353560075,0.0185940638,0.06028444,0.03621515,0.0703450739,0.0296642855,-0.0524232164,0.007594004,0.0234689787,-0.00142188207,-0.01624589,0.04633161,-0.05909185,0.0331736,0.0498451665,-0.04438618,-0.06878714,-0.0782071,0.05455019,0.07328291,0.04158358,0.07491599,0.0990797058,-0.0387627222,-0.06214679,-0.0006781111,-0.04628353,-0.005341031,-0.0503791235,-0.0756618753,-0.0506083928,-0.0599563457,-0.049124,0.03022097,0.0920534,0.0570445433,0.0610101074,-0.00344900717,-0.0293248743,0.0313116275,0.03747914,0.0521606356,0.068899706,0.05093055,-0.06723294,-0.02030002,-0.0715313,0.009408461,0.0292383,0.004002569,0.000740245567,0.05170488,-0.0429558977,0.078152515,0.06663416,-0.08835061,0.037648987,0.06724941,-0.07414185,0.0451172069,-0.04497346,0.0523652546,0.0209986418,-0.07041781,-0.0296761189,-0.011939344,0.0485155657,-0.0464003049,-0.0247997977,-0.0587770231,0.09327376,0.0339344256,-0.009335792,-0.05695023,0.0476226248,-0.00483908644,-0.0278666969,-0.00431027636,-0.0331155136,-0.0015874391,-0.06683455,-0.0447657779,0.0451762564,0.05653944],[0.05574142,-0.03323591,-0.08363446,-0.04260811,-0.06260288,-0.00444499962,0.01886844,0.039312873,0.082218945,0.0673342049,0.06298774,-0.0152872773,-0.0279239863,-0.0427234,-0.0405970737,0.001594885,-0.0040218113,-0.05285161,0.008506039,0.0820853561,-0.07387515,0.0406599268,0.0102921426,0.0186522771,0.00494598551,-0.06975036,-0.08993277,-0.00710483873,0.03454531,0.08254852,-0.02332326,0.009052832,-0.04079484,0.06582347,0.0450859852,-0.08168668,-0.0306993574,0.00640317844,-0.0575022064,0.06839109,0.00187879079,0.0512807779,0.0228962675,0.0402199328,-0.08253817,-0.0109570269,0.028752258,0.06326675,-0.0354750976,-0.02002256,0.008191432,0.0402953625,-0.06811247,-0.026684273,0.06903328,0.0500753261,0.03325536,0.0659012,-0.0537502021,-0.03635278,-0.0477426127,0.031037109,0.0688274056,-0.0475359969,0.0416718572,-0.0708927959,0.06777884,0.05978696,0.0402182154,0.00177955872,-0.02791324,0.04970906,-0.04172611,-0.07281055,0.0169889666,-0.0252376925,-0.0329834037,-0.0187026262,-0.0388274752,-0.0611133352,0.0136352247,-0.003908597,0.0769773945,-0.0359841026,-0.0219591614,0.0256447382,0.009558012,0.0260986276,-0.05612027,0.01391335,-0.0107095884,0.0412208065,-0.02241716,0.0255477354,0.02491022,0.0273136944,-0.0713602,-0.0190051645,0.07877897,-0.0494986661,-0.0689390749,0.0146015333,0.0276974011,-0.0671341,0.0185589623,0.0148581173,0.02988502,0.0267561525,-0.016625043,0.06968149,0.05001521,0.04073121,-0.0274468865,0.00754653662,0.06919263,-0.09200161,-0.0177088827,0.0450089052,-0.0147774993,-0.00131617894,0.08709861,0.0542498678,-0.0436168537,0.0137473121,0.0919278562,-0.0110554928,0.0103801535,0.05377415],[-0.0275194347,0.0127125969,0.084969,-0.0621244237,-0.08059373,0.0158852451,0.0472040325,0.009650324,-0.09286999,-0.009083504,-0.0114974948,-0.0558103062,-0.0257674288,0.005181092,0.03062768,-0.0247784574,-0.03045871,0.06917829,0.0292395148,-0.007558641,0.0483228341,-0.06208476,0.0217927657,-0.07977452,-0.0178008,-0.054297775,0.0392526276,-0.0337792821,-0.008899421,-0.0455932431,0.032910537,0.0317267478,0.0545248054,0.0444167741,0.051094424,0.006476196,-0.0494455062,0.0467865,0.0715536252,0.0526539274,0.0380746163,-0.0514901,-0.03532514,-0.01074146,-0.008152111,-0.0505133979,0.0500213355,-0.0464093834,-0.0113921426,-0.0419362634,-0.0155323735,-0.0163637958,0.00154724531,0.06840542,0.0404300243,-0.005670154,0.01746635,-0.0367232,-0.021468794,-0.061028216,-0.0557195656,0.0359921828,0.002358686,-0.04104679,0.05638734,-0.04015665,-0.0599046126,0.0562087521,0.04309518,-0.05693417,-0.0367370769,0.06586542,0.07525968,-0.02706958,-0.0599047132,0.0391530432,-0.0664598,0.07047657,-0.04320145,-0.051575657,0.0246798713,0.08315888,-0.06638664,0.069576636,0.02783904,-0.0258742347,0.04080503,-0.041436553,0.000112014153,0.0140308514,0.0300387144,-0.0174013022,-0.05495474,-0.06541084,-0.0782491043,0.0532122962,0.0517521128,0.0586978123,-0.0127639286,0.0339202732,-0.06454274,-0.06676856,-0.017057335,-0.0162782762,0.00468031131,-0.0152285835,0.0619745925,-0.0195300449,0.0624029934,-0.0164929815,0.06841182,-0.059489768,-0.07885323,0.0353064053,0.0181553774,0.0135665927,-0.03254641,0.00451892475,-0.0142229348,-0.0566108152,-0.06526802,0.05493187,0.0285957661,0.0493332,-0.0391002372,0.00370908552,0.0542992242,0.0270307213],[0.0629428,0.0624363273,-0.07523753,-0.0199900549,0.00176235219,0.0289613027,-0.0218075123,-0.01857399,0.0351099819,-0.07676492,-0.02856055,-0.0371727161,0.0246082116,-0.04868057,-0.0913054049,-0.07056059,0.0295759775,-0.023764886,0.05148142,0.01806157,0.06439298,0.0428114124,0.0632579,0.05032104,-0.06471338,0.07962207,-0.0674375743,0.0500175,0.03962056,-0.07503684,0.07279551,0.0454458259,-0.0305945147,-0.0480212569,-0.0342076942,-0.01316792,-0.07453962,-0.023147814,-0.01895411,-0.03291671,0.0433471836,-0.044837296,0.008791762,0.06322989,-0.009056493,-0.03369968,-0.07038482,0.0750102252,0.0114377784,0.05472665,-0.06760437,0.03690417,-0.00386329042,0.0172879472,0.04346436,0.0117058763,0.04396293,0.0436493456,-0.00148274854,0.006065337,0.06761763,-0.0536586642,-0.0298769865,-0.0292926226,0.0399272479,0.0237200316,-0.0167727973,-0.01803849,-0.06837911,0.0111240475,0.04522497,-0.0626446754,0.0771499053,-0.0540337,0.04245852,-0.0379793756,0.05783504,-0.07097853,0.006745365,-0.03513366,0.0187277161,-0.0370491147,-0.0036223263,0.0109343566,-0.0670127645,0.03842065,0.063703,-0.04418751,-0.0241645258,-0.0576458164,-0.00615580566,-0.02300813,0.0356410928,0.0537567548,-0.06154254,0.0408105031,-0.07725685,-0.00185290608,-0.05457673,0.00376478559,-0.0470253564,-0.0701600239,-0.06304948,0.0279610269,-0.04137146,-0.0258388277,0.002708614,0.0117761418,-0.069623,0.0604844876,-0.0419046469,-0.0619811751,0.0649437159,0.08282252,0.05100736,-0.0269031059,0.06524414,0.07160022,0.000400186662,0.008967131,-0.0508884676,-0.0605672747,-0.008952184,0.0772867054,0.07780018,0.04169053,0.0290844589,-0.07303756],[0.03827436,0.008837286,0.0142797,0.00594670326,-0.01139312,0.0240416173,-0.025208544,0.0677247643,0.0661599562,-0.00714923348,0.007325767,0.046131,0.038293492,0.0761947259,0.0534837656,0.005369528,-0.0157027189,-0.00595585862,0.07522865,-0.03676722,0.0544125438,0.07380313,0.0383118428,-0.003513656,-0.101173669,0.058062207,-0.03756711,-0.02298717,0.0484594628,0.0546054579,-0.048923064,-0.0587836727,0.06603623,-0.00524155,-0.02064327,-0.06366539,0.015696669,0.05230045,0.00480113,-0.0534373559,-0.0304707028,2.807947E-05,0.0145957386,-0.00356100663,0.000512380444,0.06251148,-0.017093597,0.06048523,0.0343133062,-0.0336026475,0.05412335,-0.0442074,0.04806716,0.057221584,0.0300176367,0.0500102937,0.0409705564,-0.04003649,-0.009107555,-0.05328675,-0.0161553621,0.04819399,0.0544184744,0.01768839,-0.00435096351,-0.052462738,-0.0755169,-0.0203195214,0.070138745,-0.0222924855,-0.0354872122,-0.03681679,0.06985683,-0.0544391461,-0.0181204043,-0.04000468,0.0060188137,0.06507586,0.07491408,0.0388862863,0.0243560057,-0.0509422347,-0.06959902,-0.0232272558,0.03654537,0.0333606079,0.0418881,0.0619788133,-0.07444047,-0.06483208,0.0118023576,0.0113251442,0.0154505791,0.04116412,0.0321200341,-0.0518682227,-0.04034032,0.0345458426,0.0573167577,-0.0775553,-0.0326011367,0.0651894361,0.00234559784,0.0223850515,0.01717776,-0.0307160784,0.05850335,0.03847639,0.0139664235,-0.0684713349,0.0726476,-0.0486367978,-0.0231528524,-0.06178322,0.0273280162,0.0395634174,-0.005523839,-0.0153645575,-0.04012263,-0.0321010575,0.010654822,0.02710079,0.040909633,0.04049956,-0.01123177,0.0710768253,0.03890339,-0.0400449447],[0.04072118,0.04598547,-0.05069409,-0.0659413,-0.00250459858,-0.08388687,-0.0197068881,-0.0298818052,-0.06777808,-0.09138159,-0.06282228,0.033882603,-0.00514739472,-0.06253648,-0.06850271,-0.0124314083,-0.00345589174,-0.08303991,-0.001088155,-0.04504854,-0.03966265,0.06390789,0.0379011743,-0.0724414438,0.0601089634,-0.0426181778,0.0524243228,0.0502205826,0.09814014,-0.04520027,0.01263564,0.06806085,-0.0259364881,-0.0105548464,0.04402258,0.00286823558,0.06957149,-0.0461378656,0.0307824332,0.0235621016,-0.0236394573,-0.0128919967,-0.0282587428,0.00397689966,-0.0207479373,-0.04203782,0.06945682,0.04522339,0.03153959,-0.00957399,0.00610287534,-0.0305259712,-0.00164714106,0.07335975,0.02668032,-0.05689531,-0.0428317934,-0.06489487,-0.00648267334,-0.0448561944,-0.0268943775,0.0659858659,-0.0150881847,0.04964591,-0.02674667,-0.0964646041,-0.063768886,0.0027775662,-0.0197544936,0.0233791936,-0.0560036451,-0.0425555035,0.09098996,-0.0123964008,-0.0252314322,-0.07120106,0.01959237,0.0281632878,0.05527428,-0.07590239,-0.0245888513,0.00246506021,-0.041178897,-0.09257037,0.06538799,0.04731811,-0.0234615579,-0.05575787,0.00185850356,-0.0324242748,-0.0116492361,0.0153958807,-0.0355283879,-0.00806936,0.0550252534,-0.0460101739,0.0155178923,0.00210292777,-0.05358141,-0.019439647,0.04013701,-0.0033485298,-0.05388204,0.07053912,0.0483187847,-0.09530021,-0.0166906882,0.09099784,0.0037997188,0.0290295258,0.0625221655,-0.0153941093,-0.0319747329,0.006529529,-0.07198338,0.03436362,-0.000386725122,-0.0197664388,-0.027909454,0.0101063149,-0.02486645,0.08126752,-0.0621327162,-0.08004061,-0.045534227,0.012085652,-0.0446387939,0.0305795632],[-0.0220382437,0.0105907759,0.0198337846,-0.04334657,-0.0210333113,0.02830204,-0.0377026461,-0.00217526243,-0.02712261,0.0562195741,0.0490455627,0.0244070031,0.03642207,0.06984062,0.06334768,0.0594664477,-0.04531707,0.02130551,0.06026252,-0.0146675706,-0.0418494977,0.041443795,0.04961891,-0.03074565,-0.06697193,0.0597295538,0.040269278,0.0550851822,0.009300224,0.0117726345,-0.0427047722,0.058421582,-0.0649050251,-0.0170748271,-0.0471478067,0.06924302,-0.0114728715,-0.014087948,0.08761478,0.007134574,-0.0208962485,-0.06684987,0.00533499755,-0.0322437547,0.0303535871,-0.0114895878,0.06501547,-0.0393276922,-0.0530847646,-0.00422571274,-0.0580009222,0.0197401028,-0.03618135,-0.03714365,0.046756085,0.0527248,0.00536082266,0.0459381044,-0.0282106772,-0.0310367178,0.061361067,-0.0648549944,0.03976299,0.0114699909,-0.06670691,0.00251164357,-0.033904314,-0.08937838,0.05744562,-0.06809137,-0.07319132,0.00726866,0.0341128446,0.04826178,0.0290094446,0.00411939,-0.0235487223,-0.00710759731,-0.0634017,-0.022462938,-0.04525937,-0.0232617985,0.0371918865,-0.00433988869,0.0112773208,-0.0177747384,-0.06218147,-0.0204151664,0.06336161,-0.0453584045,0.0326023325,-0.0012713623,0.04695696,-0.000853833,-0.06830235,-0.009016359,-0.0727204159,0.0196600761,-0.05448086,-0.04493325,-0.0122649251,0.000781060546,0.0592683181,0.02054434,-0.0467664152,0.04656775,0.0126314,-0.0491205342,0.045854684,-0.06860555,-0.06988058,-0.04687557,-0.0408966169,0.0167102143,0.048063,0.0005365964,0.0469935164,-0.06019357,-0.0112254806,0.03381501,0.011098817,0.0471621566,0.016501829,0.0161115639,0.04814866,0.05727277,-0.0394584574,-0.00364605268],[-0.05671338,-0.041359175,0.0265217964,-0.0578647964,-0.0484171361,-0.0283600837,0.0718725845,0.0432505421,-0.0294258837,-0.04172443,0.04128273,0.0187435318,0.0013142617,0.0500842258,0.04377008,0.009281801,-0.06895461,-0.05745736,-0.0298357811,0.0284111071,0.05457403,-0.06473528,0.0179746728,0.0258331113,-0.0819938555,-0.06557757,-0.0486609638,0.07302156,0.03797246,-0.01890315,0.00181777,-0.0241690557,0.0625284761,0.052851744,-0.0003483562,0.04856847,0.0101974,0.00497016637,-0.08338319,-0.042661652,0.0772515759,-0.0771720856,-0.0350795239,-0.026686497,0.0118122073,0.0245894082,-0.04485108,0.0461428426,-0.0465251543,0.035149496,0.05616213,-0.0152827473,-0.05234623,-0.0631780252,-0.06770099,0.0366895534,-0.0265156031,-0.007955939,0.0538670868,-0.02016276,0.0592395775,-0.0828962848,0.032479953,0.08625562,-0.0196001474,0.07235961,-0.06509286,-0.0395662375,-0.009970164,0.0116993589,-0.030835595,-0.00139768608,-0.0220699944,-0.0258066375,-0.008770515,0.007919333,0.0331581458,0.01303448,0.0144862235,0.0508454666,0.0140523035,-0.05095824,-0.02951732,0.0177252963,0.08136464,-0.07008373,0.0230691712,0.0380346477,-0.0434875526,-0.0114020035,0.0223600082,0.08747246,-0.0613299422,0.057170894,0.0581600256,0.08931332,-0.06471656,-0.0230868235,-0.0549589656,-0.0183883775,0.00166706287,-0.03312302,-0.0140759284,-0.00629676739,0.0390448,-0.0342174843,-0.04960887,-0.0794894248,-0.003330179,0.04874852,-0.028532315,0.053104002,-0.04806772,-0.06698664,0.04670694,-0.03883571,-0.0452083759,0.03315577,0.0883333459,-0.0291751157,0.07032602,-0.06121799,0.0873360559,0.0105283828,0.0561104268,-0.022954369,-0.0276120733,0.05214338],[0.0680303052,-0.03475324,-0.07843055,-0.03350714,-0.009297789,-0.03134913,0.06823899,-0.00369415828,-0.07765761,0.0110495584,0.06655658,-0.0341295,0.0406630076,0.07897639,0.0140394932,0.057535585,-0.0378857,0.001045643,0.0262878742,-0.07066202,-0.09220358,0.009977752,-0.00329773,-0.0725469962,0.03925052,0.0670938343,-0.0104553513,0.0809522,0.00763037056,-0.0515352152,0.090710856,0.021240687,-0.0469639525,-0.0527497046,-0.00519999955,0.05530912,0.0693875,-0.09480809,-0.020871399,-0.0152252261,-0.08228089,0.07261481,0.05846951,0.04473689,0.00334101939,0.053457398,-0.005474467,0.03396509,-0.009287272,0.06354769,0.048569303,0.0636950657,0.112383895,0.0175539758,-0.0573109277,0.0189227927,-0.006471083,0.0248407964,0.0123953111,-0.009442188,-0.0471921824,-0.02379468,0.0744515061,-0.020807052,0.00416994,0.05987578,-0.0141963419,0.0712123439,0.0268477276,0.0204395484,0.0404681452,-0.0227531251,-0.0437204055,0.03851644,-0.06919962,-0.0109298844,0.0249741022,-0.0443610363,-0.08248761,-0.0074606,-0.019910749,-0.0528510958,0.048275616,-0.0517754219,-0.00393859763,-0.0459895656,-0.0484951,0.08147698,0.08096332,-0.06517804,-0.0532227829,0.0418889932,0.00771688065,0.0484328419,-0.02218634,-0.03737419,-0.08141926,0.01570122,-0.08855271,-0.00300641474,0.02878787,0.0104980292,0.0266301557,-0.06094279,0.0594907254,0.059917964,0.0394532569,0.00357978232,-0.0655725747,0.00154850457,-0.028818557,-0.0125357341,0.0929431,0.03946122,0.0411620662,-0.01998859,0.00360795925,-0.007542117,0.05027913,-0.05128264,-0.03485562,-0.08028938,0.0193949956,-0.039576,0.0423489,0.0206552725,0.0561939366,0.03333656],[0.02263265,0.0593093149,0.0344846733,0.0514126457,0.06997267,0.05019118,0.05361502,0.0914460346,-0.045707982,0.08614771,-0.024831254,-0.03624414,-0.041339,-0.04335083,-0.00257948833,0.008335615,0.039981924,0.06697195,-0.0384744667,-0.0364862531,0.0468373932,-0.0031448938,-0.0008050807,-0.013754596,-0.0401855223,0.0451241173,0.0556362681,0.0205934513,0.0553823225,-0.07472418,-0.0502972081,-0.0102781961,0.07617117,-0.0334208943,-0.0375677235,0.0681095,0.0768642351,-0.03902768,-0.05028436,0.043768,0.040786583,-0.06660829,0.0427282676,-0.009468512,-0.0634200647,0.0514584146,-0.09217248,-0.01322799,0.0349786058,-0.008587964,-0.043511264,0.07335311,-0.0291029029,0.06095928,0.0287591629,0.0465902574,-0.046316,-0.050279364,-0.03954073,-0.00284573413,-0.00219824887,0.05680528,-0.04720737,-0.0573400632,-0.05593792,0.0981178954,-0.05554111,-0.0917743,0.0430354066,0.01616016,-0.07117371,0.0307048876,0.0257412381,0.0785564855,-0.0007132406,0.0754063055,0.02701818,0.0371113569,-0.0587524548,-0.08024609,0.07128763,0.008404198,0.02895262,0.0306632631,0.0314355344,0.0680171847,-0.008362738,0.05774913,-0.0185198989,-0.0495066233,0.0359537937,-0.0593537167,-0.03643309,-0.0499705449,-0.0125934714,-0.06825416,-0.0272212047,0.06975154,0.0369860046,0.0355512,0.0102077089,0.051872924,0.0671783462,0.03993546,-0.03294108,-0.0379991159,0.02646251,0.0639250055,0.07370967,-0.06548456,-0.0531124547,0.00525811128,0.03232559,-0.0214711223,0.00294026244,-0.004142905,0.07345103,-0.06378964,-0.06216992,0.03679249,-0.048375003,-0.06695327,-0.03743129,-0.0030913495,-0.08295757,-0.0167649873,0.0254592989,0.0564970858],[-0.01729102,-0.03869585,0.0573197529,-0.03195023,-0.0622774,-0.007646589,0.0206391513,0.00274978462,-0.06438168,-0.0181964561,0.00151583739,-0.0414706729,0.02478426,0.0361121222,-0.03519341,-0.0570754372,-0.027319923,0.0247127339,0.0389924571,-0.0273699854,0.0792012438,0.0429831631,-0.0309919938,0.03393615,-0.07330429,-0.014126013,0.0455100425,-0.07396353,0.0350175165,0.047636766,0.0321422964,-0.0500456356,0.0357773937,-0.008221755,0.0439074,-0.00264065946,-0.0369312428,-0.00164845237,-0.0914742053,-0.00357191288,-0.0245237313,0.0122747067,-0.0361639671,-0.0562842526,-0.0347251445,0.00735669024,-0.052340854,-0.0164331309,0.06397577,0.07989029,-0.0276144668,-0.00930041,0.0468488149,0.0547242574,-0.0599806346,-0.0545274168,-0.04389305,0.00493348436,0.0234524049,-0.02376936,0.03677162,0.0723929256,-0.0102730971,0.0166488253,0.0470226966,0.0276437644,0.0377459265,0.0576200932,-0.02876072,-0.06770356,0.05572075,0.0538127162,0.0128468759,-0.0541672744,-0.0360995159,0.0275542978,-0.06818256,0.0806903541,-0.0352483019,0.0537788272,0.03660427,0.0348913744,-0.0410024151,-0.0148752509,0.089911975,-0.0486179627,-0.069759734,-0.07556801,-0.0018450506,-0.0181501,-0.0149356807,0.06425132,-0.03918157,-0.0314727724,-0.06890831,0.00299196015,0.0109528545,0.048085507,-0.05248362,-0.0244492516,0.0844644159,-0.0314217135,0.023011107,0.0746292844,-0.0160082448,-0.00243145181,0.008424386,-0.0370291471,-0.02469259,-0.06919879,-0.0292304642,0.0442655534,-0.04815415,-0.06121019,-0.0266277455,0.012522338,-0.0127371494,-0.0392088443,-0.02553713,-0.00276945275,-0.0120973587,0.07584921,0.0223842636,-0.06973739,0.06376634,0.0495176539,-0.00247260882,0.017145],[-0.05903943,0.0470589846,0.0130793592,0.06307865,0.02848502,0.0201459415,0.08499594,0.07262198,-0.0984723642,0.0481979735,0.0163954124,-0.0374993831,0.08103272,0.0211379472,0.000192572785,-0.03693843,0.0290324818,0.05449041,-0.06517616,0.0119240908,-0.0170101989,-0.0208535567,0.07187886,-0.06962386,0.0522996075,-0.06080349,0.0275765043,0.0361588746,0.0559950136,-0.0113249328,-0.0122772483,0.0525681637,0.0443800241,0.07672614,0.04025699,0.02002169,0.06564416,0.0638498962,-0.06852801,0.02400363,-0.06232418,0.0349069424,-0.047435455,-0.0608697757,-0.0701423362,0.0528771281,0.0349449478,0.0127323559,-0.0721107,-0.0616339855,0.0114751812,0.028095955,-0.02632241,0.02384047,0.0516130775,0.0293308552,-0.07239539,-0.008792155,-0.06591862,0.0551065169,0.07060549,-0.01546582,-0.04942939,0.0264326241,0.02394808,0.008342625,-0.0618568957,0.0400345922,0.000276581675,0.0386304744,0.05051077,-0.0219701137,0.06687215,-0.035318926,0.0485826172,0.04217811,-0.0599545352,-0.0137020722,-0.07276485,0.03690109,0.04919401,0.0182395447,0.0142146954,0.09602005,0.0209575128,0.0171161313,0.05807688,0.003136002,-0.0190007053,-0.03447037,0.0101586049,0.0297880359,0.06988273,-0.0261190422,0.0132625811,0.04778288,-0.07499278,-0.0153469518,-0.0155995805,-0.0395082757,-0.0003568786,-0.0326526575,0.0245806556,-0.0217610635,0.08038586,0.03063824,0.0401151739,-0.0478387,0.0290126652,0.0118429484,0.05353357,0.0299758986,0.05455282,0.0521792248,-0.06392444,0.04137021,0.04274978,-0.02387308,-0.040754348,-0.03750013,-0.0452479,0.0190604869,-0.0255825,-0.0107008191,0.0832259655,0.00271697342,0.0214709844,-0.0464238264],[0.044107683,0.0554201044,-0.104192376,-0.0009952417,-0.00196383358,-0.0117368391,0.005061705,-0.0149431722,0.08371824,0.0431709178,0.02462043,0.108397104,-0.0200154483,-0.046347864,0.0569346435,-0.09948114,0.0475436524,0.03511582,-0.0179582369,0.0374315754,-0.07142497,0.0476200357,0.0255979355,0.06178184,-0.038076967,0.04543995,-0.062064033,-0.0449838042,0.07736243,0.0539052859,0.0112260282,0.0227507651,-0.005895894,-0.00292095239,0.0438347459,-0.0244382285,-0.0478619449,-0.0235435124,-0.0788579,-0.105977573,0.0138735482,-0.03834643,-0.05714654,0.0181390829,0.0333178639,0.0309688728,0.08743733,0.0977426246,0.0123517374,0.08152828,0.08636031,0.06266493,0.0198701117,-0.067172654,-0.0170222539,-0.0197327975,0.102089263,-0.0809259,0.08347972,-0.0254303627,-0.06992996,0.005150816,0.0507606864,0.00509092724,0.0657865256,-0.0325714834,0.0240077283,0.007300472,-0.0300473236,0.07417583,-0.0662492439,0.00734148826,-0.00380154233,-0.0605774261,-0.0341365263,0.0499824919,0.015570431,0.0441384427,0.08661566,-0.0239349343,-0.0128610367,-0.0613249727,0.05006308,0.00572841475,-0.0353297926,-0.03708116,0.0165353958,-0.05245273,0.04326662,0.0152820256,-0.0962773,0.06537973,0.04447942,0.00364440982,-0.0588973723,-0.0288173743,-0.0365511067,0.0552561544,-0.0398868732,-0.0443003438,-0.04174125,-0.07190071,0.07584,-0.0334244221,-0.03558042,-0.004582229,0.06267418,-0.0619272962,-0.0319292732,0.0671083555,-0.006238146,-0.008219916,0.0590066276,0.068370536,0.107289523,0.069053255,-0.0460481048,0.03993136,0.09971439,0.00481584342,0.06419806,-0.0007507536,-0.000844479655,0.01987457,-0.0453354046,-0.0140628358,0.0490138754,0.045118656],[0.0265242029,0.04439265,0.009927733,-0.00749255065,0.0694155842,-0.05436613,-0.08804661,0.08669594,0.0568214729,0.0746853352,0.0536183752,0.0543248765,0.07558276,-0.0730047,0.0124562271,0.0421795025,0.0111441044,0.043159347,0.008390939,0.0371037722,0.100755312,0.0546739027,-0.03945406,0.0182731,-0.05383889,0.06295189,0.0728775,-0.08715173,0.027658185,0.00944879,0.0004600468,0.07108266,0.0842781,-0.0448608063,-0.02783442,0.0134431375,-0.07539277,0.0575206019,0.0239419546,0.0122304242,0.0567576438,0.0128567414,-0.02991603,-0.00189668383,-0.02595843,-0.0737903044,-0.0116076153,-0.0372662842,-0.0299647767,-0.03561271,-0.003050475,-0.07424536,-0.0755525,0.03673694,-0.0451287925,-0.08170401,-0.0998419,0.0556076244,0.003760934,0.0597872958,0.0204301532,-0.0611660965,-0.003374726,0.06013705,0.0293774717,-0.0417712964,-0.0558779165,-0.000165516642,0.0585485063,0.070337154,0.0387948155,-0.0271545649,-0.07789948,0.0258974731,-0.0009922764,0.0405315459,-0.05307336,-0.0006428039,0.05837539,-0.0773497447,0.009095458,-0.007564461,-0.01323511,-0.0203601457,0.0498229451,-0.0435183346,-0.06116181,-0.028181063,-0.06705344,-0.0107542956,0.029415397,0.00235656719,0.008095132,-0.0423847735,0.04129527,-0.0145677235,0.08065533,0.05495986,0.06520485,0.0229333322,0.0590903163,0.0185768884,0.03358216,0.058022812,-0.020391304,-0.05365742,0.008316254,0.0111129247,0.0380253643,-0.0255923532,-0.0524213761,0.0711478442,-0.05732806,-0.0279219281,0.05327102,0.07480435,0.0595236421,-0.03867775,0.0387733877,-0.03638852,-0.0451965854,0.00045666896,-0.0397371426,0.007382838,-0.0127057126,-0.0691299,-0.0205043741,0.00767599139],[-0.0291784219,-0.019866446,-0.02057059,0.03896468,0.008557694,-0.0136228194,0.0395646244,0.01741488,-0.05337226,0.0061642006,-0.00328068156,0.0246560667,-0.06052959,0.0417784229,0.0755120739,-0.0607408136,-0.0259939563,0.0103112338,0.0579966381,-0.0487504452,0.0617852174,-0.06133906,0.0887336,-0.0462328531,-0.06671885,-0.035370823,-0.05793608,0.04968915,0.0612287037,0.0384364277,-0.0494917855,0.0531130023,0.049039308,0.0407604054,-0.01962116,-0.0221139118,-0.007957695,0.019597128,0.0447664969,-0.0740321651,-0.0207379144,0.0477389246,-0.0132795554,0.0194105674,-0.0254328642,-0.0750890449,0.05980422,0.06891561,-0.0346455537,0.00528437225,0.0647925138,5.32952072E-05,-0.00605191,-0.0248642862,-0.04774182,0.0142743485,-0.05597612,0.0240031015,0.050575994,0.06200038,0.013384494,-0.0150961867,-0.08760568,0.0273239985,-0.0779842362,-0.0188914854,-0.03935532,0.03780445,-0.0639663339,0.04714075,-0.0298349522,0.02163574,-0.04625361,-0.01465636,0.04880551,0.036692746,0.0721687153,0.0116766412,0.04604934,-0.06913901,-0.0674530044,-0.0297791176,-0.0561330058,-0.05870261,-0.008461544,0.07233852,0.0603340864,-0.0199376736,0.0571863167,-0.0262503065,-0.06997019,0.03761609,0.0583052635,0.0724031851,0.0425862148,-0.0423517749,0.06448925,0.068732366,-0.0518785864,-0.0211916529,0.0176103432,0.0119557567,-0.05772329,0.0327461138,0.014494203,-0.00190867507,-0.0349880122,0.0267556645,0.0314271376,-0.0755258948,-0.03619655,-0.04949546,-0.08871202,0.0203430932,-0.0339080468,-0.07413768,-0.0199092031,0.0112829208,0.0397387259,0.0556594543,-0.046514,-0.0321449861,0.01945519,-0.07867157,0.0277118,-0.0524428748,-0.0459870361,-0.0486278981],[0.06666974,0.06769258,-0.05371536,0.0537476055,-0.01813232,0.0011082897,0.0160596669,-0.02368,-0.0343212336,0.04125285,-0.0278093331,-0.05923135,-0.0292959567,-0.003101797,0.0938551053,0.0217540227,-0.0523128323,-0.00360447867,0.08112957,-0.06467821,0.0158905536,0.008865315,0.05929045,-0.06028513,-0.0222809277,-0.0419584848,-0.0215030257,-0.07168665,0.06490035,-0.05498459,0.0357945226,-0.06203998,0.0449854657,-0.0468662232,-0.033912722,-0.0210539326,-0.0606992058,0.00184827647,0.07783464,-0.04612499,-0.0440299176,-0.0415286161,-0.036496412,-0.07296374,0.09231864,-0.0172919538,0.0165762249,0.064541325,-0.0730246454,0.0190592632,-0.05034702,0.0567814633,-0.0268159863,0.0190740284,0.08617992,0.0180197917,0.00348018622,-0.0362506248,0.04910626,0.04313617,0.00761485,0.05630325,0.0311984643,-0.049567163,-0.00233290181,0.0283574983,0.0509434827,0.02566071,-0.03733824,-0.026731655,0.0021525356,0.00441913446,0.03448558,-0.0143333562,-0.000249052828,-0.07127699,0.0376898,-0.05134301,-0.0682374462,-0.08004967,0.038834814,-0.0806973055,-0.01116687,0.0456672423,0.0481024534,-0.02468616,-0.0703531057,-0.04553119,-0.008141625,0.020904718,0.06027054,-0.0252882615,-0.03471281,0.022014739,0.03291498,0.05301692,0.0220565163,0.0408274271,-0.09223852,0.0520973131,-0.0512748435,0.06340479,-0.0327549055,-0.0283151083,-0.0713277161,-0.009499976,0.008511462,0.09777294,0.0159942973,0.0203605052,-0.0665229261,-0.03315097,-0.0340970121,-0.0154940169,-0.0659838,0.07899463,-0.05720394,-0.022973258,-0.0553995743,0.0069648386,-0.0515216328,-0.04302462,-0.03573089,0.0366451778,0.06136002,0.0481887944,0.05610125,0.019505078],[0.0184145626,-0.0579921454,0.07993357,-0.00486951228,0.04408563,0.0538839251,-0.0219393615,-0.0358639769,0.0358546935,-0.0579823181,0.0206072666,-0.0432568528,-0.0422993749,0.0108379042,-0.0545190647,-0.00267309742,0.0119160665,0.08493764,0.05920517,0.0333643779,0.0440241471,-0.06697238,0.0222501941,-0.06544512,0.0259364136,-0.0178246237,-0.01299533,0.00359661947,-0.0302490629,-0.00251918752,0.0683277,-0.0619044863,0.0624162927,-0.0252692383,-0.104508795,0.07884419,0.0165880937,-0.000689245935,9.255609E-06,-0.0467778146,-0.021221485,0.01769337,0.06527547,0.0146768084,-0.02043506,0.0610454045,-0.0786227658,-0.0184204057,-0.0272035431,-0.0219162032,-0.08786945,-0.0195564013,0.0187334418,-0.0659145,-0.09331922,0.04092947,-0.022823995,0.08586481,-0.0167231876,0.06808516,-0.010556384,-0.06251139,-0.0329984277,-0.07336733,-0.0315682963,0.0495472774,-0.0234982688,0.0659018457,0.02573937,-0.00686967373,-0.04830191,0.00212591165,-0.0110196061,0.0415774323,0.06000273,0.101563744,-0.0200084224,-0.0905453861,0.0560981,-0.0300752278,0.09528098,-0.04097874,-0.09604888,0.0557847321,-0.06625382,-0.0423831977,0.042436637,-0.0554133877,-0.07468597,0.0308804922,-0.06045481,-0.0178617034,0.004546581,-0.020779727,-0.0563856661,-0.0416940078,0.00640313374,-0.0401796065,-0.0325695,-0.0320825949,-0.0478139855,0.0608863719,-0.00765787251,-0.06653072,-0.025944028,-0.04145704,-0.07851697,0.0496184453,0.0587957129,-0.07546523,-0.0194695946,0.0900725052,0.04682003,0.0440700725,0.042382285,-0.03370079,0.0926027745,0.08487721,0.0471982621,0.0422434025,0.008202804,0.0465918444,0.012152764,0.0343186371,-0.0330652371,-0.04574708,0.00139761448,0.006001833],[-0.0685272,0.00971222,0.03820126,0.08032472,-0.008177994,-0.04708226,0.03591984,-0.06457896,-0.0314589143,-0.00347251748,-0.0382289775,0.0159964021,0.0117640765,0.003054237,-1.59503579E-05,0.0665299445,-0.0377228856,0.0613962673,-0.05545894,-0.08585909,0.02503938,0.0533152,-0.08796227,-0.001727226,-0.0487020724,-0.0598100945,0.0197522081,-0.0347201824,0.01790767,-0.03578915,0.0235595386,-0.06880546,0.00539090252,0.0167025272,0.009866728,0.03353625,0.06309968,-0.0394743122,0.088987425,0.09061889,-0.09221222,-0.06736782,0.0433395132,-0.00174539944,-0.04228834,0.06915827,0.00340997684,-0.009241153,0.06171339,0.0408573747,-0.0720507,0.03964925,0.049239818,-0.0469692051,-0.06305927,-0.0557456054,0.0058281403,0.0190929584,0.0248105582,0.0628138259,0.06542482,-0.05292622,-0.06297225,-0.0326498859,-0.0393943526,0.00281316275,0.00131248194,-0.0526469834,0.0049889856,0.0518715121,0.0200980268,0.009330349,-0.00102096214,-0.05314865,-0.0130305085,-0.05901056,-0.0157759618,-0.0269024558,-0.04959601,-0.06753172,0.0874855742,-0.0224254671,-0.04998269,0.06592564,-0.07864978,0.07425257,-0.0439457856,0.04999605,0.0341906324,-0.0314427279,0.008090649,0.009926118,0.0278003383,-0.06567089,0.05379492,0.04473598,0.0461671166,0.0340043679,-0.031932056,0.05298412,-0.049935583,-0.0250454526,-0.0897694752,0.0277247764,0.0554165766,-0.0461768024,0.02387624,0.04823751,-0.05708504,-0.0591742955,-0.05135057,0.09082245,0.06388634,-0.03872095,-0.00814305,0.0588228181,0.0155222733,-0.0717868954,-0.03761152,0.00420827046,-0.00472003361,0.0633532256,-0.08439381,-0.0140686948,0.0229605827,0.07917744,0.0144495443,-0.053964965],[-0.03408234,-0.0318264067,0.07895031,-0.00627808552,0.06266338,0.04843859,0.06505627,-0.0129370606,-0.04901162,-0.02431809,-0.0205554813,-0.0145168807,0.0009129362,-0.0255643614,-0.0118614929,0.06499487,0.0571768545,0.07576994,-0.0129367486,-0.0282878038,0.0195789244,-0.07382443,0.008762437,-0.0424989276,0.0640322343,-0.07448448,0.05372525,-0.0167423114,-0.000437472947,0.08745832,0.05733741,0.00184915622,-0.0666732341,-0.0358922556,-0.05505578,0.0331389867,0.0640683,-0.0308168381,0.003493133,0.00249526463,0.0259013027,-0.0122757,0.06288254,-0.07364803,-0.01902365,0.06091728,0.0185826086,0.0357470438,0.07489588,0.0341855735,-0.07247593,0.05613469,0.0344551951,-0.0121035036,-0.0245990716,0.0454184152,-0.08102733,-0.07293964,0.0612822436,-0.0428367779,-0.0669058561,-0.0160295647,0.06425672,-0.08745137,-0.0303947851,0.06229353,0.0551731773,0.0275453161,0.05476862,0.0487852655,-0.0591989942,0.0710827559,-0.0842938349,-0.016841216,0.0720419,-0.0514964126,0.06935512,-0.04229928,0.000497804955,0.0240883511,0.05397651,0.0290055051,-0.07559741,-0.005371311,-0.003948004,0.009754038,0.0689800754,0.002705062,-0.0788519,-0.0274537746,-0.008333722,-0.0225330424,-0.06954484,-0.05529459,-0.09596819,0.00250794739,-0.06465653,0.0352319367,0.08293106,-0.0464075655,0.0239605643,0.04940597,-0.030000614,0.05998834,-0.07033371,0.03127944,-0.0406573229,0.004184238,-0.008376444,-0.06588907,0.05000679,0.0429847725,0.0389494561,-0.0487317033,0.0555346161,0.03293421,0.0334170349,0.07532817,0.0606941245,-8.472496E-05,0.01530855,-0.02120227,-0.027960021,0.07849186,0.0375852548,0.01599013,-0.0517099053,0.0113009326],[-0.054230392,0.0202374216,0.03283428,0.0339606926,-0.005771232,-0.025247613,-0.0489044935,-0.00792881753,0.033936087,-0.00253499858,0.0142700374,-0.0244743172,-0.0351170078,-0.07513274,-0.04332177,-0.08649488,0.062391676,-0.07097855,0.00393744232,0.09411731,-0.07186638,0.006982758,-0.023622822,0.00168211607,0.0162746664,-0.00221735775,0.0229800344,0.006304159,0.05880466,0.07621413,-0.06289145,0.0376065969,0.0255458988,-0.002930138,0.0447370522,-0.006249798,0.0568629652,0.0293494239,-0.00962197,-0.03461458,-0.0124772182,0.0690403,0.04383431,-0.0455886275,-0.0120084537,-0.07608354,-0.056155093,0.06241034,0.0347964577,-0.04996624,-0.0344875231,-0.08722172,-0.00358173577,-0.04774272,0.0522979535,-0.0526640452,-0.0491372831,0.0581063032,0.06808738,-0.09309769,-0.0276818052,0.00348900165,-0.0282680728,0.0503576659,-0.0198551044,-0.05932974,0.0878701061,-0.0902815759,-0.090236485,-0.03868776,0.0174938273,0.02615861,0.0212091282,0.01543655,-0.020360915,-0.0006933416,0.07199226,-0.0521158725,0.081507,-0.0325598828,0.062542364,0.0245788544,0.02690638,0.0527411141,0.0822471157,-0.01541518,0.06200617,-0.07444845,-0.04381731,-0.012115295,-0.0570835248,0.002181697,0.0556246825,-0.0188823827,0.08169747,-0.00148907991,-0.078349784,-0.0133738574,-0.03510125,0.02144625,-0.0175764188,0.0429994054,0.0595795773,0.05070636,-0.00164756272,-0.0430282168,0.0411677659,-0.0134138139,0.03994346,-0.0418032557,0.0489388444,0.0607850738,0.0576648377,-0.0141379535,-0.0227602478,-0.00604882557,-0.00617722375,0.0422021747,0.0320982,-0.06257483,0.0888161659,-0.05538826,0.05905614,-0.058460366,-0.06809164,-0.0402004942,0.05907678,0.0571574345],[-0.047330983,-0.06712222,-0.0241358187,-0.0612208135,0.015140471,-0.055501,-0.010132201,-0.000297010847,0.00255494635,0.00310520572,0.06001872,0.04369216,-0.0360833034,-0.0414619036,0.0182366576,-0.0476670265,0.0101589775,-0.0418608338,-0.0369184166,0.0127196666,0.02491773,-0.007156031,0.004590113,-0.0567681156,0.03908847,0.06590093,-0.07560387,-0.0379947573,0.0237204842,-0.0531486943,0.0208727475,-0.06218102,-0.03436437,-0.0659528747,0.0801489651,-0.00330610829,0.05616018,-0.03158183,-0.025169991,0.0591992252,-0.0532086268,0.02044905,-0.0433956459,0.0647868142,-0.0375666656,-0.06409967,0.00495136064,-0.03545292,0.06403618,0.0493989624,-0.0460074134,-0.008945851,-0.04929447,-0.0349361263,0.037314713,-0.0336694643,0.06519141,0.04935853,-0.00574817555,-0.02950511,-0.03112265,-0.0208967682,-0.07875412,-0.0403524339,0.05299491,0.0143962512,0.0281668175,0.0508555435,-0.008114515,0.0202249289,-0.0358170271,-0.06199543,-0.01563648,-0.07592758,0.0218047462,0.07846492,-0.0580476336,0.0342916325,0.0570586063,0.052607622,-0.0434971377,-0.0658662,-0.026270669,-0.07916449,0.00483881263,-0.0270552989,-0.006767719,-0.08160853,0.03764261,0.0245266277,0.08195334,0.0324627645,0.05863482,0.0193539131,0.0888100863,-0.0229567233,0.06253234,0.00526684569,0.0441725068,-0.05107648,0.0538364761,-0.00481131347,-0.0161433741,0.0603405759,0.05745992,0.0377477631,0.08102115,0.03631037,-0.0163934268,-0.0110729067,0.0200892854,0.0199526921,0.05685918,-0.0285643879,0.0396548733,-0.0232901629,-0.07295284,-0.0210060179,-0.06715363,0.02807962,0.0366947129,0.06767731,0.07685226,-0.0256876722,0.074717775,0.05360833,-0.01302079,0.0134492936],[-0.006881214,-0.05570802,0.0598805621,-0.0310316533,-0.0127756475,-0.0668817461,-0.0529292822,-0.0513092726,0.0491139852,0.04078206,-0.009057139,0.06293333,0.0553277321,0.0325292833,0.006741214,0.0233187173,0.0533056259,-0.059571784,0.03146134,0.01888063,-0.0117638139,0.0442405045,0.070072785,0.0342228562,0.00634108158,0.0258214977,0.020697033,-0.0464178026,0.0300357509,-0.07121215,-0.02428939,0.0136817945,-0.0007393699,0.0494344458,-0.0184402019,0.0482897051,0.0117889652,0.0123602664,-0.063701,0.0408759564,0.03971044,-0.009072181,0.0295970123,0.05786232,0.0506180078,-0.0147340465,-0.03594033,0.0388561673,-0.0196580235,0.0777351,0.08527927,-0.0196463056,0.07808681,-0.0493653454,0.0326852538,0.00399895851,0.01539686,0.05186419,-0.0363866054,0.0288689137,-0.01914,0.0468376838,0.0322552957,-3.08104536E-05,-0.03506271,-0.06817333,-0.0310614929,0.0137925278,0.016780138,-0.05197526,0.061647974,0.0139385955,-0.0110322908,-0.04212553,-0.0518753156,-0.0881586745,-0.0705306754,-0.0352999121,-0.0245270748,-0.0500423834,0.0595092326,-0.014689602,0.0342573524,-0.08253262,0.04389282,-0.0396827124,-0.00288824667,0.0222661421,0.0192542765,0.0172256958,0.043620497,-0.0596172623,-0.0488797538,-0.0470006429,-0.0476483069,-0.0390817039,0.0382692963,-0.0268470459,-0.08806932,0.065647535,-0.06584754,-0.0167593136,-0.07112332,-0.0162344649,-0.00635933829,0.0505524836,-0.0384144224,0.053867124,-0.0538659,0.04249601,0.0460638739,0.003765938,0.0514724068,-0.004340317,0.0356441252,-0.0336028747,-0.07293294,0.05934639,-0.03948456,-0.0452077277,0.05444336,-0.06478376,-0.0230853334,0.00506891962,0.0675532445,-0.0541575067,0.0180309378,0.0551699437],[-0.00514023146,0.033205796,0.0849526152,0.00299853669,-0.027852837,0.022824306,-0.017326368,0.07459932,0.05529093,0.0457588956,0.0316345766,0.0070433626,0.06254707,0.05747075,-0.0257303417,0.07751132,-0.0379951,0.0494419225,-0.0524641238,-0.05726283,0.0279692411,-0.00610109139,-0.0135500636,-0.0471015,-0.008174031,-0.0485143028,0.05786672,0.005770176,-0.0263868477,-0.0578767844,-0.0303223915,0.0179214738,0.04579123,-0.0102841314,0.0608142763,-0.0195594523,-0.03192044,0.0368881077,0.009355777,0.0614370555,0.0157084782,-0.0565893538,0.00424723234,-0.020221971,0.005027183,0.0667526945,-0.06527487,-0.07066859,0.04130678,-0.0418179743,-0.06037865,0.002295558,-0.0282873232,-0.02901939,0.0209250171,-0.0489848629,-0.04116011,-0.0230343975,0.06164958,0.0528446957,-0.06101351,-0.0242918227,-0.1051302,-0.04440964,0.05796903,0.05690782,-0.09311363,-0.08844953,-0.0566965267,-0.08436972,-0.07469544,0.06686576,0.051423043,-0.07236819,0.007737125,0.1026055,0.0365602,-0.0234257542,-0.0301657021,0.0121916039,0.055368498,-0.065458864,0.007280238,0.08098401,-0.03112429,-0.07916385,-0.0157949831,0.0240194071,0.002474153,0.0007944118,0.06334684,0.03350107,-0.0306331776,0.0469262637,-0.0736051947,-0.01693908,0.0676767454,0.0318383761,-0.0444138423,0.0653005838,0.06411075,0.0438325666,0.07329804,0.0282675736,-0.0256483722,-0.007495111,0.03235023,0.0283666234,0.0309773088,-0.0935436338,0.0172436666,0.01962245,-0.0256250352,-0.0260585491,-0.0386204571,0.06988094,-0.0286021437,0.0005774066,-0.07406918,0.06658694,-0.0288724471,0.0562845357,-0.05955911,-0.06881305,0.0191735756,-0.06625328,-0.09475009,-0.0342815071],[0.07351274,-0.0610917248,0.0463468432,-0.00878630951,0.015233295,0.0610639229,0.0538905933,0.0159080084,0.004304998,0.0461210236,-0.0486878119,0.0157042462,-0.008755516,0.0431025364,0.024891803,0.04859149,-0.05986078,-0.06963603,-0.003825027,0.0161567423,0.00352576026,0.04457238,0.025367178,0.0167487841,0.028527664,-0.06919898,0.008163245,0.008636824,0.07557574,0.00726838969,-0.0111220973,0.0345416069,0.0462503769,0.00762259,-0.014624102,0.0320596248,-0.0169497635,0.03992894,0.04474963,0.08660315,0.07910325,-0.00318779354,0.0417807549,0.0343457274,-0.0561730675,-0.0883254558,0.0212613,-0.0201353952,0.037949983,0.0151965925,0.06942833,0.0353310667,0.0475191772,-0.03596357,0.0157035775,-0.0429181,-0.0105479173,0.03280269,0.0637005,0.009011647,-0.09244873,-0.01877079,0.0217490215,0.03644137,0.0248177238,-0.0355202071,0.02836772,0.06403822,-0.08850595,0.068929024,-0.05367457,0.0408729427,0.000701375655,-0.078718856,-0.064380005,-0.0350862034,0.00342993136,0.0802836,-0.04097356,-0.04860561,-0.08406989,-0.0456472151,0.0564111434,-0.0607215874,-0.03145951,0.0204038918,-0.0176765863,0.05989145,0.0571779646,0.06533319,-0.035647966,-0.06445499,-0.0629897639,-0.0149053158,-0.06144385,0.08256118,0.07563837,-0.0657224059,0.007830156,-0.0259528384,-0.0487726368,-0.00475988351,-0.0287542976,0.03371643,0.0423824377,0.009027368,0.040510457,0.0731109157,0.0260021668,0.0546290353,0.02127557,-0.07106321,0.06407964,-0.016299881,0.09176978,-0.0887354,0.008873479,0.06589247,-0.0537920333,-0.00662333751,0.08797652,0.03264756,0.0605632663,-0.0231523756,0.08904105,-0.0617654957,-0.0583395362,-0.0488535538],[-0.0202470031,0.0198228117,-0.04050557,0.0621022433,-0.09675029,0.0147221312,0.0197767671,-0.0666601658,0.0646948144,-0.0221427772,-0.06837555,0.0469290242,-0.0282975752,0.07754691,0.0808471739,0.04667382,-0.010929402,-0.06340213,0.0250902027,0.05733059,0.0003879162,0.07125075,0.0140703879,0.01863906,-0.0476587042,-0.0471217446,0.03980394,-0.0167834014,-0.0321346857,0.0285797212,-0.06770518,-0.008920661,-0.0288424678,0.07905875,0.07110023,-0.05084846,-0.0389705971,-0.0190006644,-0.02800184,0.0400357544,0.03518047,-0.000158933573,-0.0142783681,0.06666353,0.0532901958,-0.0448057465,-0.0214251839,0.0300592985,0.0185645651,-0.008716671,0.0447514541,0.0740307942,0.0465781353,-0.071542,0.07216782,0.0220326651,-0.021646129,0.02593071,0.09424962,-0.0058633266,-0.0189736467,0.0117800888,-0.0404917859,0.0138836848,0.00381688122,-0.05369273,0.0102761593,-0.07019988,0.01696754,0.00737595372,-0.06378739,-0.07809966,-0.0281979851,-0.0339648277,0.0328541473,0.0533591248,0.0601021834,-0.0443174876,-0.05496373,0.07193961,-0.0942488,0.034505792,0.009876105,0.00123616424,0.008362347,-0.0493401475,0.06347791,-0.06852027,0.0321603566,0.06293645,-0.0345937945,0.00969277,0.001933481,0.0279632155,0.05782953,-0.0213701818,0.05168633,-0.06646936,0.0637162849,0.0442919135,0.03371747,-0.06283191,-0.08785916,0.0323481448,0.0240307078,-0.0184944961,-0.00328292628,0.004696125,0.03439817,0.06657948,0.0508769341,-0.0133520318,-0.0383845419,-0.001241843,-0.0200689826,0.00391668966,0.02847474,0.04956386,-0.0397102833,0.0140055753,0.0158763323,0.016491726,0.0687519461,-0.04801165,0.01452151,-0.039726682,0.06414522,-0.03502005],[-0.0409325846,0.0614575371,0.0107189976,0.07744163,-0.07148217,0.0537647828,0.05740793,-0.00334429042,0.0389265753,-0.009404372,-0.0544593,0.04890001,0.07691204,-0.07102907,0.03313367,0.051620435,-0.048795335,-0.06622692,-0.02517039,0.0500363559,0.02958326,-0.01848382,-0.002581474,0.0270016436,0.07106306,0.0407469869,-0.06574234,-0.0195907764,0.0206430629,0.0688598156,-0.0244217459,0.0252913814,-0.017953353,0.0153488917,0.0112623265,-0.07983419,0.0402684174,0.0443005227,-0.05653273,0.0708805,-0.09220569,-0.00417158939,-0.05119123,-0.0586871654,0.055881314,-0.0135704586,-0.03558472,-0.0298985932,-0.006706484,0.02644962,-1.73425178E-05,0.004050752,-0.03489884,-0.04160218,-0.06199095,-0.0490813144,0.043711,0.00643200148,0.0328940563,0.07427969,0.0354104452,0.0174081922,0.0257360283,0.0706867054,-0.01668108,0.0184154231,-0.07327843,-0.03991434,0.0158905387,0.07317032,0.0449613258,-0.0624731779,0.0517478473,-0.02355163,0.06652768,0.0259459466,0.0271576941,0.0247320458,-0.004593958,0.008775532,-0.03643775,0.005995849,0.0122562163,-0.044396352,0.0546027422,0.0280907843,0.01304924,0.03340449,-0.00254807225,-0.0595755838,-0.0291893687,-0.06786543,-0.08860598,0.0230686869,-0.0340889,0.0260252953,-0.004518586,-0.049480658,0.005769993,0.00382078649,0.0207897369,-0.0317764729,-0.0498988256,0.0018511,-0.0710199,-0.04210063,0.0001634968,0.07901119,0.0261107124,-0.014447879,0.044056952,0.02489813,0.07515182,0.0634496361,-0.0258967336,-0.03433612,-0.04431927,0.0113199437,0.005095343,-0.06445039,0.05595222,0.0329947248,-0.00459211227,0.0061627347,0.0107065346,-0.0665106,-0.0399785526,0.03027266],[-0.0493033,0.0274062529,0.0502460338,-0.03066688,0.0291839652,0.09680074,-0.07300289,0.102125064,0.06963261,0.002232746,0.0165359769,0.0133567164,-0.08486872,0.0465624072,0.0815498158,0.04405498,-0.04484402,-0.06838218,0.07934635,0.0272082686,0.0123445643,-0.04493848,0.0104246857,-0.0309633035,-0.0208292846,-0.06716333,0.0115992473,0.03146548,0.013962605,0.0603535324,-0.07412671,-0.04252182,0.0965357,0.020391617,-0.0554566346,-0.08675746,-0.09083433,0.00391853647,0.009716683,0.0345385037,0.01987106,0.0178465,-0.0232002512,-0.007924895,-0.007130689,-0.0978715047,0.0177774485,0.0465633646,0.052852232,0.0296065472,0.0273671169,0.02218763,0.014915402,0.0357983075,0.06603473,-0.0464257635,0.0242831875,-0.0344318971,0.04068139,-0.07190729,0.006555639,0.0172707718,-0.03662264,0.03258511,0.0275636539,-0.03673666,0.0258513428,-0.0173310842,-0.07220465,-0.031288553,-0.07705699,0.07613445,-0.07434271,-0.06080409,0.07051789,0.06708178,0.0625520945,-0.0414895,0.0924576,0.006233911,0.0513996,0.02974734,-0.04770865,0.003668793,-0.0210271087,-0.0580902435,-0.05745709,0.0168809649,-0.07044008,0.01856297,-0.04454241,-0.0120413145,0.07820771,0.0534566827,0.067563355,-0.0544793978,0.0150906472,0.113373891,0.0274491645,-0.0257719215,-0.0448213443,0.000458613038,0.00545066455,-0.0332293473,-0.002502469,-0.06583754,0.0183459353,-0.0729201958,0.015911093,0.0531943254,-0.06424327,0.0481479429,-0.06662123,0.0234971121,0.00557492161,0.07648911,-0.0355623066,0.08089753,0.005550326,0.0251770616,0.0192221962,-0.0205897558,0.08488964,-0.0435976945,-0.0312253218,-0.0393197946,-0.06469623,0.009956276],[-0.009409269,0.0357109644,0.0156509951,-0.08903931,-0.0540030822,0.05670949,0.0338696651,-0.0013749419,0.06305422,0.07350855,0.046039734,-0.0153738884,0.018042881,-0.0112635121,0.0442825556,-0.0824327841,-0.0404021777,0.050536003,-0.0400605351,-0.02427079,0.0540148057,0.08642727,0.0702336356,0.07723705,-0.048455622,0.0225486476,-0.06095899,0.0206842721,-0.0140295969,-0.02556572,-0.0659484342,0.00295557,0.0580148362,-0.05767093,0.0365611427,-0.0181709789,0.06320714,0.005801328,-0.08388284,0.02322278,-0.03304834,0.018807333,-0.0106954612,0.0787394,-0.0590405,0.03298903,-0.06935961,0.0364854336,0.07369969,-0.030497564,0.04221947,-0.0583819821,0.0535352342,0.0121343406,0.009810329,-0.004980695,0.0506337136,-0.0141763967,0.0286311656,0.007885485,-0.0545423925,-0.03333447,0.04514112,-0.03733858,0.05508071,0.0449969247,0.08336285,-0.01514323,-0.07194649,0.06216433,-0.0413130447,0.04419171,-0.00828301,-0.0543627851,0.0373806432,0.04256303,-0.0261018816,0.0298136938,0.0250900276,0.006156274,0.0401201546,-0.04651197,0.04683884,-0.0369778723,0.04349632,0.01182346,0.0126173552,-0.0221943036,-0.08921932,-0.05713978,0.00111409661,-0.023777334,-0.0138642238,-0.0667559654,0.0207477883,-0.0241637733,-0.00201551733,-0.0179971717,0.000785138051,-0.0264077447,0.0200186726,-0.0276601762,0.07029638,0.0590922758,-0.0317337,0.0121528367,-0.0408642255,-0.06912654,-0.00160495378,0.0112708565,-0.0289493781,-0.01895068,-0.05093176,-0.06667888,-0.0149658769,-0.02578018,0.0165123511,-0.0205445644,0.0020453094,-0.01658564,0.04608488,-0.0380985364,0.0319731049,-0.0311474018,0.0218782891,-0.0453265868,-0.04246474,0.030026162],[-0.00628580246,-0.0115100648,0.0493513979,-0.00387965771,-0.0768957362,0.0749208,0.02030996,-0.02237673,0.09591477,-0.0221902039,-0.00109854992,-0.0005641383,-0.0572233647,-0.0278693568,0.0575450137,0.02415264,-0.033483576,0.0399939753,0.04075662,0.0118215159,0.0161866639,-0.0610880144,-0.0240372159,0.0243683532,0.0182634015,0.0307848044,-0.0255384855,0.0596889071,-0.0433771424,-0.00123344793,0.0337330252,-0.06990707,0.07806366,0.04408477,-0.02652345,0.0503273942,-0.0339873843,-0.04909261,-0.06768938,-0.05760979,0.05814703,0.03376118,-0.026587991,-0.04915465,0.0495576635,-0.08413216,0.00712894,-0.0437192358,0.08381392,0.0412799,-0.0368635356,-0.008878526,0.0639698356,0.0244848784,-0.022426486,0.04371987,0.09572064,-0.0341462,0.07380459,-0.0627668,0.0203389581,0.0221811645,-0.0234209429,-0.0281896144,0.06969358,0.03457564,0.04930805,-0.0329804,-0.0204410423,-0.0005205498,-0.04008949,-0.05152369,0.007850665,-0.0109951384,0.07225591,-0.00416375324,-0.061942704,-0.0467952,0.0750483349,-0.0458939,-0.0637901053,-0.009808493,-0.0108886817,0.0627222657,0.006343969,0.03147232,0.0439653434,-0.0152463252,-0.0704146,0.0298404675,0.0187420975,0.00027298354,-0.0427887,0.0502989739,0.04643331,-0.07184424,-0.0127114309,-0.02618606,0.0995786041,-0.0587778576,-0.007176022,-0.00234494777,-0.008702592,-0.0435719453,0.06569691,-6.395484E-05,0.0225976612,-0.06863814,0.0165766664,0.0420076959,-0.010648598,-0.026738828,-0.07852795,-0.04803938,0.08202095,-0.0135906711,0.001368536,0.00258598919,0.07149653,-0.04332442,-0.00342357159,0.0107577685,-0.0472697653,-0.08784263,-0.06082846,-0.0377024,0.0268064532,0.034640573],[0.03949096,-0.0243049245,-0.0451259352,0.07955115,0.008646945,-0.00376403215,0.0140559236,0.07312375,-0.0029174122,0.04555695,-0.0776801258,-0.03583162,-0.05611096,0.08352229,0.0412339754,-0.04131039,0.0344255269,0.0488469377,0.041791074,-0.07390225,0.0365775079,0.00257747038,-0.0589476451,0.00262037851,-0.0178926364,0.0008948795,0.0337307043,-0.0332162641,-0.0382571854,-0.0277147759,0.02759415,-0.0236142389,-0.03145789,0.08202756,0.06458399,0.0182951614,0.0602924,-0.0258948971,-0.000728517363,0.0624639168,0.0288079679,-0.06984582,-0.0171564445,0.0197217055,0.0393677354,-0.009639834,-0.03767465,0.0481268875,-0.0479876064,-0.0123297116,-0.0570639223,0.0559639521,0.0196081027,-0.0299192164,-0.044819016,0.0327005535,-0.0306708515,-0.008128897,0.06389054,-0.0592097566,0.007852025,-0.0505861938,-0.07230049,-0.01757609,-0.0863540247,-0.002276135,-0.0198717061,-0.0295557939,-0.0366298966,0.03624234,-0.0180547927,0.0604432449,0.0513644181,-0.07812542,-0.03985875,0.0532323644,-0.0286620557,-0.03705784,-0.06729617,0.04640773,-0.07183056,-0.0264909416,-0.0519544855,-0.007359035,-0.0659894347,0.0562516451,-0.05155268,0.0738804862,0.0541159362,-0.03227263,-0.0333772227,-0.0335086025,-0.0188921355,-0.06345682,-0.0415456071,-0.01453514,0.06422726,-0.0656678453,0.0809754,-0.0115715871,-0.0627649352,-0.03473976,-0.00998195447,0.04666722,0.00543907937,-0.080264166,0.006228424,0.0154917594,0.06792767,-0.04816843,0.059204977,-0.0674709,-0.0944400057,-0.0480910353,-0.02157732,0.04343876,0.0116003016,0.0517319143,0.0226861369,0.0413876846,0.0221437942,-0.0143196238,-0.03537091,0.01585056,-0.00432639848,0.06471201,-0.06261203,-0.06446876],[0.0778549463,-0.0159527753,-0.0260412917,-0.0462775938,-0.0349268168,0.00762760825,-0.06847683,-0.0247302949,0.0732355341,-0.0507721044,0.0320683867,-0.0681273863,-0.0396666452,-0.016442053,0.0643416047,-0.0134107256,-0.03156803,-0.0112245884,-0.06327667,0.0105602769,0.0133154076,0.0217483789,-0.04807596,-0.0623635352,-0.0526818037,0.0541510135,0.0286620259,-0.007253166,0.0394796319,-0.0786118,-0.01697348,-0.0254482739,0.0555675477,-0.006813961,-0.0524011739,-0.06858814,-0.07058628,0.06651736,-0.05017767,0.007690768,0.04536601,0.001595117,0.039825432,0.0338840336,-0.046971906,0.0209017824,-0.0336340964,0.05796454,0.0345311277,0.06741164,0.0199039262,0.03451136,-0.0567501448,-0.043956887,-0.0167568978,0.03279077,0.05466222,-0.0234479643,0.0207126122,-0.07276972,-0.058317095,-0.020596955,-0.0406430438,0.0551770627,0.04169198,0.0645092,-0.0501189753,-0.00256519229,-0.0178339556,0.0244101454,-0.02499378,0.011016611,0.0739839,0.0470431261,0.06752632,-0.07241743,0.07616844,0.02590539,0.04706018,-0.0241738651,-0.05303234,-0.0141981058,0.104299873,0.0159174521,-0.059732493,-0.080684416,-0.07056516,0.0466996133,0.0555093363,-0.00567375775,-0.0145977065,0.0520828664,-0.0198432133,0.0506928638,-0.0178613029,-0.007083629,0.01646997,0.0573529229,0.0142016858,0.0246552415,0.07343258,0.0213203523,0.0022710755,0.0583142936,0.0445698537,-0.03894667,0.06570069,0.0157050658,0.06549486,-0.0187713243,-0.02859223,0.0213053618,-0.0315726362,0.0513666049,-0.0177453849,0.0316637866,-0.009934203,0.0284589063,-0.0430721,0.01458263,-0.00155699125,0.07393641,-0.06620206,-0.07568806,0.0405260548,0.0181713235,-0.028933404,-0.0121345744],[0.0162353124,-0.0176066533,0.07012725,-0.00681049144,-0.04123794,-0.0156816151,-0.0196912941,0.0842452049,0.0402613431,0.03615459,0.009737583,-0.0171233322,0.05412082,-0.0561813042,0.047992222,-0.0401916765,0.0406604521,-0.06298644,-0.047245495,0.0359897539,-0.07826296,-0.0215734672,0.0521696247,-0.0150021808,0.0139131537,-0.009931019,-0.0753959641,0.05479811,0.0158158634,-0.06353112,-0.034499824,-0.03230486,0.008305639,-0.0287644938,0.0160617214,-0.0596031137,0.00215224782,-0.0165406819,-0.0436174832,-0.055004973,0.0493321344,0.0450997949,0.0354649425,0.0136183165,-0.050523974,0.0343148448,0.0609604679,-0.0195946,-0.006218331,-0.0582093559,0.0404871181,-0.07326083,0.04120326,0.0689022541,-0.0112370932,-0.056838084,0.0158088636,0.0523406155,0.0279312283,-0.07401868,0.08786768,-0.08803684,-0.0607876778,0.0630581,0.0195981152,0.0189473778,0.0157930236,0.0600068048,0.020431852,-0.016182933,-0.043632865,-0.04131475,-0.00448914757,-0.00102038018,-0.03771875,-0.00762028154,0.0590423979,0.0359090455,0.0138303181,0.01740038,-0.03706534,0.0209336188,-0.0264275614,-0.00524581876,-0.006348357,-0.01008934,0.033666525,-0.00726687768,-0.0444485135,0.0139697045,-0.0274628066,-0.0321608968,-0.0607863627,-0.05242273,-0.009891231,0.0188228786,0.0301487576,-0.0586014837,-0.0505841,0.0192630645,-0.06936735,0.01873679,0.06304197,0.0236598887,-0.0497865565,0.0618744679,0.006371894,0.06820499,-0.009497355,-0.06581436,0.04924935,0.0189429726,-0.0384158753,-0.06787581,-0.0454785675,0.05269046,-0.0803127661,-0.017505886,0.05294347,-0.0421143919,-0.0137449754,-0.05507558,0.0192890782,-0.0285632834,0.0552859828,0.06540107,-0.05801899,-0.04356015],[-0.025997296,-0.07819648,-0.00628091674,0.0244347528,-0.02706106,0.0589627549,-0.06944084,0.0542227626,-0.026140023,-0.0394687466,-0.01610203,-0.07362489,-0.03101897,0.0556034036,-0.07102804,0.0170205776,0.0834960043,-0.0382879972,-0.0465228669,0.04099935,0.0363772362,0.0615995824,0.05307066,-0.006089593,0.05804856,-0.06370443,0.009755879,-0.0276345611,-0.0222741924,0.003994095,-0.02509339,-0.00509665441,-0.0145029025,0.05783261,0.0219842736,-0.0232708752,-0.030248981,-0.00368913752,-0.02742441,-0.02476006,0.041306898,-0.059819527,0.0272599068,0.0408469029,-0.0249368548,-0.000829994155,-0.002827085,0.009406752,0.03979946,0.043973662,-0.08356871,-0.0428537764,-0.0259414669,-0.0272201449,-0.00806936,0.08017125,-0.04949883,0.08086182,-0.0568178557,0.0174102,0.06148154,0.008856594,0.0367635563,-0.0256315246,-0.025921192,-0.0385488272,0.0541217439,-0.0421719849,-0.00615406176,0.004216155,0.0426388346,0.0543004163,-0.03756217,-0.016696211,0.07212016,0.00909845,-0.00384816388,0.0450187735,0.0458007157,-0.07016678,0.012052346,0.0600662,-0.0374891721,-0.0568746254,-0.0111404015,0.08475445,0.0376009829,-0.0558654368,0.0704413056,-0.0482098,0.06736856,-0.0354902931,-0.0669755042,0.0296823476,-0.07172032,0.0616153032,0.003733643,-0.08014721,0.064321436,-0.08430532,0.0029939902,0.0283707213,0.04343458,0.00555967074,0.07782121,0.0208541714,-0.0618478581,0.0232720673,-0.003955723,-0.008606078,0.0562332571,-0.05902864,-0.0543506667,-0.00302503537,0.015517232,-0.0351312272,0.0492268,-0.04635257,0.047716286,0.056252256,-0.020986516,0.0591178238,-0.0140933115,0.0517133474,-0.05115244,0.03787174,-0.00493874867,0.008382965],[-0.0217638183,-0.009305781,0.03312832,-0.03328095,0.04610674,0.0165189058,-0.0294690188,0.06013787,0.0439434275,0.0458603539,-0.05495656,0.004189653,0.0406307057,-0.067738235,-0.0379805267,-0.07802813,-0.0188696068,-0.0119802421,-0.006605943,-0.05424456,-0.05337082,0.0727834851,-0.0360960178,0.07816267,-0.02627447,-0.0216335543,0.0170649625,0.0363653749,-0.0161002912,0.08070914,0.04337066,0.0159194414,0.0256923735,-0.07595789,0.0455310568,0.0341299,-0.009581315,-0.008547368,0.0434530079,-0.0237437915,-0.05717431,0.0160973258,0.00213624188,0.0589376763,-0.0326900855,0.0520859659,0.072582446,0.0582176037,0.03293853,-0.05771881,