{"Layers":[{"ClassName":"Layer","Content":{"biases":[-0.00292058662,0.0106335515,-0.0006015278,0.00296797114,0.00393418455,0.00338746165,0.000203107062,-0.00609277561,-0.0168591123,-0.0237947591,0.0118941339,-0.00263696327,-0.01005746],"useBias":true}},{"ClassName":"ActivationLayer","Content":{"biases":[-0.00517654838,0.00319711328,-0.00133785745,0.005685505,-0.00450651161,9.488946E-05,0.00202149572,-0.0247033481,0.0215834528,-0.008799316,-0.00162007124,0.004320147,2.38899574E-05,-0.00433007348,0.011586437,-0.001377371,-0.00194564764,-0.00329860067,0.005949582,0.0068026837,-0.0155574577,0.009300129,-0.00550233154,0.007576758,-0.008976118,-0.00475636264,-0.00315821427,0.00123044348,-0.003281246,0.00556960376,-0.00373923732,-0.00139280292,0.004439018,-0.0007295938,-0.00132710568,-0.0161379948,0.009123456,-0.00308177574,-0.00712664844,-0.01851352,0.00509889144,0.00390112214,-0.0127186589,-7.833794E-05,-0.004547944,-0.003604534,0.007039278,0.01966197,-0.00174353039,0.00230079447,0.0112604555,0.00564157357,0.01246894,-0.0217594281,-0.0027025803,-0.0007501379,0.009111481,0.00106465176,0.00661546132,-0.005249685,-0.0035519104,-0.0032885375,-0.00172337447,0.00287014525,0.00730850548,0.004879638,0.00591001473,-0.008077714,-0.0106172888,0.0032079732,0.00386132835,-0.00589030748,-0.0007385312,-0.00272498815,-0.00194219709,-0.0175612271,-0.005636208,0.0008061473,-0.0006115093,0.01809143,-0.000187204118,0.000327007147,-0.00419230061,0.00173989811,-0.00233757473,-0.009113693,0.0147953574,0.00725444,-0.00181578251,0.00779450359,0.00318147871,-0.00201624818,-0.00906117,0.0114953285,0.00601746328,0.00179999671,0.008428471,0.004053006,0.0147539005,0.00162352982,-0.00526594,-0.00155207014,0.00306949788,0.00105773774,0.0041858973,0.00133412145,0.00149960734,-0.005842328,-0.00211358932,0.01114037,-0.002896007,-0.0007670183,-0.007074497,0.009594023,0.0109668877,0.0058598863,-0.01682448,0.0153933819,0.00484399358,-0.00659553939,0.01019125,-0.006947474,0.008010531,-0.0148819294,0.0004590514,-0.006082581,0.003691694,0.00375787821],"useBias":true,"func":2}},{"ClassName":"ActivationLayer","Content":{"biases":[0.0484223142,-0.001068411,-0.010030292,0.0550443865,0.009960451,0.1062234,-0.09825896,-0.07882487,0.06419231,-0.0159134567,-0.00102427811,-0.0258295853,0.0104597425,0.0195292532,-0.047016602,-0.011195167,0.00609052042,-0.000161192933,-0.0151648745,0.07508155,0.0360328071,-0.0518320464,-0.0143279787,-0.0148583986,0.100821316,-0.0213271547,0.0178626422,-0.0413817242,-0.100058235,-0.0283741932,-0.0185207129,0.0784093142,0.00778246,0.03625562,-0.0587442219,0.0402386636,0.0754091442,0.0651685745,0.04201111,0.0500396937,0.0342269465,0.003266265,0.0337616354,-0.0043496415,-0.0380458161,0.0749116242,-0.04952282,-0.05600876,-0.0358229242,0.06245323,0.01678595,-0.08201573,0.09346635,0.080968976,0.0329011,-0.0261646565,0.0118882656,-0.0413589329,0.008834164,-0.05006685,0.04056133,-0.0645357743,0.0131537989,0.0470619276,0.00572109176,0.01629708,-0.0463214926,-0.06572584,0.00465239957,-0.04585924,-0.0122384261,0.0984320641,0.0372787081,0.0111072473,0.0593151674,-0.002985065,-0.0505955666,0.008139304,-0.00261271955,0.034793634,0.0130107077,0.0407615043,0.0514027476,-0.008119952,0.033305563,-0.0560836755,-0.00111708918,0.0286329631,-0.0118579464,-0.0211222023,0.0431988947,0.01588633,-0.0593252741,-0.0104479371,0.07095672,-0.0151737919,-0.0153378947,-0.148498654,-0.0183807872,-0.0459485129,-0.04201457,-0.00510536367,-0.00350154028,0.08634298,0.07121939,0.00402982254,-0.07071241,0.05365441,-0.09985475,0.05827498,0.06531583,-0.00319701084,0.008286862,-0.0143264271,0.04338456,0.0219768714,0.0308552552,-0.00655848,0.0215923451,-0.0501057468,0.0205387753,0.03315869,-0.009739708,-0.0635564,-0.0173179545,-0.040125683,0.026453821,0.0163971279],"useBias":true,"func":2}},{"ClassName":"ActivationLayer","Content":{"biases":[0.190535,0.03478581,0.148482412,0.0106098559,-0.03336089,-0.0786136761,0.162129462,-0.0279959012,0.129052892,0.009364052,-0.153268576,0.07932726,0.0690162554,-0.04089114,-0.09275426,-0.08947592,-0.0490277633,0.09008558,-0.06264001,-0.03747725,-0.0237398166,0.0313550048,-0.07297228,0.02078611,-0.0277985614,0.003599219,0.0458142534,0.0210249051,-0.0327903144,-0.0290733557,-0.170725778,0.06535213,0.06380071,-0.077170454,-0.0283324532,-0.173835292,-0.106676191,-0.00172504061,0.09338655,0.08642243,-0.0926728,-0.0378146954,0.0941971838,-0.1657593,-0.04953835,-0.00259905821,0.0183835328,0.0594926849,0.018987719,-0.168077677,0.0893381238,0.013766069,0.116978504,0.08747142,-0.150896281,0.08051086,-0.0312308017,-0.053560663,-0.07221435,0.14280194,0.07178223,0.165967211,0.0212140568,0.07719554],"useBias":true,"func":2}},{"ClassName":"ActivationLayer","Content":{"biases":[-0.0448823832,0.217499956,0.0342720523,0.0360509157,-0.114837833,0.137907878,0.033627905,-0.06484399,0.07955159,-0.234795958,-0.0533474125,-0.0497144833,0.123946905,-0.3636835,0.17893374,0.0843161643],"useBias":true,"func":6}}],"Weights":[{"ClassName":"DenseWeightMatrix","Content":{"matrix":[[0.170042112,0.0305618681,0.0185979567,0.0301368553,-0.0501444526,-0.06279398,-0.107237853,0.05144716,-0.07119905,-0.0370350666,-0.0263224132,-0.0195689034,0.0732274652],[0.07600706,0.184111029,-0.00306919729,0.0239879768,-0.0482379571,0.0196867716,-0.103703871,0.0132750431,0.129432216,-0.09851488,0.132375389,0.04136946,0.07871163],[0.0562666245,0.0421659052,-0.16372484,0.06814743,-0.104390636,-0.009159665,0.054239817,0.06500129,0.01418103,0.107356057,0.028570015,0.0261967443,-0.09412917],[-0.08477306,-0.00613938365,-0.0171019956,0.118222021,0.055060856,0.109942466,-0.114888892,0.09393578,-0.001022343,0.06373757,0.10935317,-0.153570548,-0.05847615],[-0.09205169,-0.126924112,-0.0524201132,-0.1007051,-0.007906066,0.05092826,0.08326039,-0.044608064,0.112180784,-0.07603494,-0.09621314,0.000213492676,0.0248926748],[-0.08526371,-0.152040631,-0.0004427274,0.0427014381,-0.05477901,-0.107856616,0.119676121,-0.099555634,-0.08345812,-0.0659247,-0.0390630178,0.0301362649,-0.126079381],[-0.0133141894,0.004968974,0.01606691,-0.0358290523,-0.108076639,-0.0198975969,0.0876993,0.08491079,-0.100381412,0.0253721755,-0.0325681977,-0.173028544,-0.0241393857],[-0.05701922,0.015408772,0.04328195,0.0678938851,-0.120047756,-0.09500563,0.0478796847,0.08616506,0.09768173,0.18901068,0.0547602326,0.0160065088,0.112193391],[0.0189482868,-0.0217506047,-0.06628788,0.05895829,0.0276071541,-0.09468108,-0.08103016,-0.07940396,-0.07829329,-0.05153994,0.120497711,-0.160383731,-0.0918334946],[-0.0564856045,-0.0741313547,-0.150133148,-0.0225861017,-0.0271393433,-0.0219403617,-0.125225231,0.06316958,0.06079944,0.110889554,0.00444117049,0.05102873,0.09169019],[-0.106825717,-0.151897833,0.055206392,0.06452513,-0.0593938939,0.0908350646,0.0352457725,0.0114796627,0.113485225,0.006723945,-0.0569604449,-0.0126865283,-0.07237072],[0.0233148541,0.07633152,0.126169086,0.08185298,-0.06821076,0.112585641,-0.089066796,-0.141928092,0.07241189,-0.0149685284,-0.051632788,-0.0783382356,0.008771645],[-0.009098203,0.07710806,0.0709394142,-0.0732223,-0.0575250871,-0.0571411252,-0.0209900942,0.0854269341,-0.09236026,-0.06888782,0.07283169,0.064848,-0.0253939647],[0.09455664,-0.011986088,0.00710024824,-0.09786818,0.04806276,0.01933874,-0.0224816184,-0.07370522,-0.0738361552,0.014507506,0.09813228,-0.09990344,0.0275071934],[-0.0694981441,0.165204629,0.120462455,0.009917124,-0.03152848,-0.0255205948,-0.010758915,-0.04042462,0.06080159,0.05431434,0.0438051336,0.00309299072,-0.114230223],[-0.128195673,0.0267033745,0.0305273253,-0.009042211,0.05264189,-0.06880547,0.07982578,0.108649775,-0.0552854538,0.003538251,-0.03661984,-0.09264612,-0.0713746846],[-0.160869583,-0.006585274,0.008368963,-0.02960678,0.0617252141,-0.0722180754,-0.0104979537,0.0119511932,-0.11570736,-0.09231058,-0.06072298,-0.06865365,0.0112427585],[-0.0972974449,-0.0237880778,-0.137905568,0.1089149,-0.03350339,0.128912166,0.0322871469,0.0509538166,-0.002409674,0.0382415727,-0.04327181,-0.0703860149,-0.09791393],[0.0133237671,0.078001596,0.0448202528,0.0543807372,-0.0537724346,0.0371589474,-0.0748839751,-0.03911481,-0.08800003,-0.0823860243,-0.0602068454,-0.0775625259,0.022316616],[0.0120219942,-0.119026631,0.0462312549,0.03828103,0.04679721,-0.07163711,0.0229382012,-0.00615050737,-0.152954534,0.0128527684,0.07663288,0.0889111161,0.0807457343],[-0.0699303448,-0.0107629392,-0.126290739,-0.0430265,-0.0443416,-0.00424186047,-0.027068235,-0.106443241,0.09013042,0.0270665344,0.116748974,0.0933514237,0.0906180143],[0.0235139541,0.08142404,0.08564653,-0.03337416,0.03233443,0.07760537,-0.0962781,0.03562734,-0.109972365,0.009934283,0.0410133,0.07030531,-0.0377724953],[0.180766761,0.0467844121,0.04631156,0.06479746,0.0383285657,0.08627988,-0.0794953257,0.08722946,0.07641959,-0.0073376717,-0.0257995445,0.0358780771,0.00238411664],[0.00592210842,-0.106985874,-0.175646961,0.06835361,0.101653315,0.130103871,0.00433289772,0.02200118,-0.121909872,-0.09905363,-0.0428777039,0.0622858256,0.036901582],[-0.0674622357,-0.04480661,-0.07945622,-0.185073376,-0.0194494743,0.03903976,0.0369361229,0.10588298,-0.00570916524,0.008583385,-0.122107126,0.0468351021,0.09166754],[-0.123584032,0.00204913155,0.12301603,-0.1113871,0.0245046914,0.0461611636,-0.104111753,0.122651905,0.128460452,-0.04368664,-0.008043212,-0.0644539148,-0.08698591],[0.0242992938,0.135982156,-0.0165093131,0.09040601,0.0483548567,0.122787528,-0.08772242,0.02186356,-0.09375201,-0.0107868565,-0.06583779,-0.06319042,-0.008601966],[-0.141613916,-0.07048265,0.06369733,-0.0483234078,0.1205933,-0.05598987,-0.098172,0.0474952348,0.1162658,0.0248271283,0.0874995738,-0.112482764,-0.0007857113],[0.125488743,0.0395455,0.0617636479,0.06663375,-0.07909432,0.07446684,-0.106609426,-0.020469,0.108479619,0.1351371,-0.105420463,-0.0430170223,-0.0155773889],[-0.112870418,-0.08954889,-0.0295446664,-0.03207125,-0.07219489,0.04089876,-0.0657781139,0.04950189,-0.03419983,0.0283673983,0.104861021,0.06007398,-0.0477959365],[-0.0853445,-0.139461562,-0.03685881,0.0205161646,-5.9840113E-05,-0.0991206,-0.06336065,-0.07514542,-0.07896551,-0.108340368,0.0461086333,-0.059887588,-0.0324970745],[0.092838794,-0.0710212141,-0.110309288,0.0775091946,-0.0110612269,-0.0730212852,-0.116824836,-0.119006135,0.0378741249,0.133573934,0.0569344275,-0.0702692643,0.05406694],[0.0230294857,0.09249443,0.008382236,0.134256065,-0.0163343884,0.117848568,0.01619832,-0.108082086,0.0562916845,-0.11750821,-0.131856576,0.0355059057,0.0437878],[0.0420686379,0.144145221,0.0184985045,0.0506833121,0.0628416762,0.106746562,-0.04498757,0.0267912243,0.0684156343,-0.0566616468,0.0473215654,-0.02194212,-0.104746863],[0.183057308,-0.0248372443,0.0252707656,-0.0876365751,-0.03876768,0.08536014,0.00270454446,0.0075988397,-0.10288506,-0.04553915,0.0312629268,0.0451554731,0.06715101],[-0.0379948653,0.09383216,-0.0201025158,0.0781787038,-0.0324709751,0.0417790338,-0.0198229048,-0.0312472712,0.0311872568,0.119635031,-0.12044239,-0.00541262049,0.09263794],[-0.08025007,-0.06915125,0.0280198473,-0.123517521,0.0736927763,-0.09187917,0.07216835,-0.145456344,0.100166678,0.0101782931,-0.00244100648,0.030570548,-0.03836837],[-0.103085369,0.0592277758,-0.156131759,0.0928959,-0.121325009,0.0542230941,0.08681453,0.0312006641,0.0785246938,-0.101255231,-0.0540825166,0.07169608,0.006832755],[-0.120802052,-0.0253015868,0.04918105,-0.06912382,-0.06681048,0.0130582517,0.100179017,0.104918294,-0.037693955,0.0621769279,-0.100472063,-0.126889676,0.108791538],[0.0127235167,-0.05421338,0.04782941,-0.07887012,-0.11398527,0.0302977785,-0.1226467,0.06345237,0.1354314,0.07059873,0.132978454,0.07162195,-0.03868901],[0.00388478464,0.07266088,0.0759253055,0.168955326,-0.08184864,0.044214,-0.0225629918,0.0131775327,0.06268903,0.04922612,0.0419008546,0.0474136658,-0.05140319],[-0.128214747,-0.12433812,-0.0327978581,-0.0162843931,0.111339562,0.0776807,0.111751378,0.03075247,0.0592194125,0.0461516976,0.1186482,0.0313732922,-0.0221272334],[0.109532632,-0.0622981265,0.08255865,-0.04758964,0.02777393,-0.0168269034,-0.00494865747,0.05959381,0.149422333,0.00267321,0.150745958,0.0895990953,-0.0335115641],[0.112596557,0.0556245856,-0.123468079,-0.0442690849,-0.0541410074,0.04336552,-0.06382721,-0.0598419,-0.07640855,-0.00827112,-0.0614713319,-0.1259579,0.03529248],[-0.011667016,-0.0612040274,0.157841861,0.08297522,-0.001715994,0.007987093,-0.0743002445,0.00596454553,-0.04801592,0.04070227,-0.0422936939,-0.0644406453,0.0166200232],[-0.111142047,-0.152942881,-0.00613556476,-0.00339220022,0.09634152,-0.0431550331,-0.00230429671,0.04617046,0.111461252,-0.017298568,0.113565043,0.09225978,0.0451263934],[-0.0328902677,0.06550944,0.0253517833,-0.050687667,-0.0454729721,-0.0730954856,-0.0594511963,0.0504611433,-0.132317588,-0.09736935,0.0179191977,-0.08003667,0.07217018],[-0.008286234,-0.06538607,0.0906304047,-0.0872015357,-0.120698139,-0.0405572,-0.03383463,0.06981851,0.011343386,-0.09555141,0.06256866,-0.00333446986,-0.06309762],[-0.122587912,0.04455985,-0.009756924,0.00272786454,-0.09275092,0.07848955,-0.0719909146,0.0827904046,-0.06926761,-0.09667882,0.035772182,0.034437485,-0.012073189],[0.06461356,0.0263878126,0.0604051128,-0.0565761141,0.0656029359,-0.011030036,0.0209423266,0.0689984858,-0.0480553322,0.0553542338,0.124779895,0.143161222,-0.123660028],[0.119995318,0.112379074,0.00301200477,-0.096682705,0.07721324,0.0169470012,-0.0583832152,-0.0414175652,-0.153441876,-0.05329758,0.04205571,0.07438393,-0.06884529],[-0.06647242,0.0657486841,-0.138199,0.0123335421,-0.0386623032,0.120752305,-0.105579533,-0.03907127,-0.06847759,-0.1237521,0.08450549,-0.05253506,-0.104048871],[-0.0285146777,0.00549685862,0.0191775821,-0.107953951,0.131493032,-0.04762052,0.08270997,-0.040436063,-0.08141558,-0.0185949523,0.108778223,-0.105958879,-0.0344261937],[0.0874644741,-0.136339471,-0.0038949172,0.004968253,-0.142249584,-0.05363802,-0.04258644,-0.06401715,0.1430614,0.0433580242,0.102348633,0.0515056476,0.112502463],[0.053647615,0.175047532,-0.0152785033,-0.0184222721,-0.09406982,-0.0529960841,-0.0072914823,-0.07630764,0.0334859565,-0.09396845,-0.06589911,0.0328511,0.0459148325],[0.121740147,-0.076942794,-0.117198616,-0.0874684751,0.119032688,0.112785742,0.06533932,-0.0145547427,0.03734935,0.06305595,-0.0318764336,0.09176281,-0.10322962],[0.05644131,-0.0434728861,-0.09237105,-0.001237792,0.0154687669,0.06331823,-0.0391696468,0.0571106523,-0.04986256,-0.124425553,0.102739267,0.132953212,0.06496546],[-0.0462567173,-0.055060368,0.05032462,-0.04262921,-0.005795206,0.090100266,-0.04473547,0.0717421249,-0.08402909,0.108572096,0.020905124,-0.117184594,0.0597367473],[0.0293896925,0.0301942416,-0.149945378,-0.107877016,0.07647127,-0.07994855,0.0229484383,0.112626277,-0.1030241,-0.05511879,0.105186455,0.0377458334,0.0350856856],[-0.111753151,0.0843158,0.167723954,-0.0582231246,0.0380184352,-0.08069204,0.0055430457,-0.0397410281,0.0422281,0.0376437567,0.112497076,0.07112793,0.084572494],[0.05638477,0.0212717056,0.1779115,-0.0471883155,0.00371679757,0.000468716433,0.07306999,-0.131950036,0.05274367,-0.00426332839,-0.04510034,0.0195407644,0.031543158],[-0.006997719,0.117882654,0.08379183,-0.0851433,-0.0932186842,0.057092227,-0.10623505,-0.0003261551,-0.109841391,0.0756177455,-0.07565577,0.0543168373,-0.0230713226],[-0.0860335454,-0.176827982,0.0353503264,-0.06987469,-0.08038493,-0.0339730345,-0.03553523,0.00296081882,0.129426047,-0.08219893,0.111460991,0.0301127881,-0.112344742],[0.0779632553,0.09755356,0.105020359,0.118373469,-0.0553972237,0.000871091557,0.04310776,0.0169231929,-0.132721931,-0.06996493,0.0984550044,-0.0137857245,-0.06325397],[-0.08494978,-0.149204865,-0.09431726,0.0612865128,-0.08552074,0.0596411154,0.095279485,0.00436883466,-0.0195653215,0.09290428,-0.09297847,0.11792136,-0.0668157563],[-0.004101102,0.0521486625,-0.147583649,0.0336133875,-0.118029639,0.03763305,0.06977577,0.0531691574,0.0654652938,-0.036704246,-0.0465896837,-0.1034343,0.09088931],[-0.07360806,-0.120217927,0.04416415,-0.076772064,0.007172802,0.0319541432,-0.0475203842,0.0880376846,-0.0512299724,-0.0327302,-0.007636899,0.0538664237,0.0871852338],[0.09231281,-0.041046422,-0.0634984747,-0.0117231449,-0.00544762425,-0.0933570638,-0.07459191,0.107129931,0.113783248,0.0824515,-0.0122203734,0.0437166728,-0.04601848],[-0.103903852,0.07351633,-0.106949709,-0.0120436838,0.109173626,0.102164418,0.05154731,-0.05164339,0.0302176,0.103858568,0.0190187078,-0.0144435652,0.110264376],[0.108335175,0.08273036,0.07715467,-0.0109073231,0.08300126,0.057149183,-0.03199553,-0.06256935,-0.125790358,-0.08423471,0.04135306,0.009720519,0.133228779],[-0.157673314,0.08962598,-0.127583817,-0.000213732026,-0.02442668,-0.07467412,-0.04063725,0.00351327076,-0.129037336,-0.0261040125,0.0293327719,-0.05278179,-0.08892747],[-0.124029927,-0.0660735145,0.0612955056,0.09297905,0.0163017977,0.0009844583,0.07269875,0.03802738,-0.0446862057,-0.003577197,0.02665624,-0.109462969,0.0211101156],[0.156667724,0.0227714144,0.0395511054,-0.0434632972,0.0220318846,0.06200967,0.0837149546,0.0374968,-0.116616815,-0.08081861,0.00104240747,0.02219516,0.0111849578],[-0.0718407,-0.104250193,-0.0323503278,0.027431393,0.0538996123,0.0135507751,0.09542416,0.119304463,-0.0600580052,-0.00375529542,-0.0121104661,0.1036502,-0.0636356547],[0.0410571359,0.0418179147,-0.008226955,0.142129809,0.002319007,-0.0120243747,-0.0233664,-0.118580863,-0.111531049,0.0447678678,-0.0128068244,-0.01814235,-0.09977514],[-0.06884123,-0.0471579246,-0.114519969,-0.0226118416,-0.0528057069,0.01447965,-0.0197695121,0.08432628,0.04252787,0.170737565,-0.111609377,0.0127823269,-0.00823274348],[-0.0341485329,-0.08236611,-0.0895639658,-0.114937074,-0.121237211,0.130734682,-0.06866855,0.144001126,-0.0479312576,-0.03434015,-0.123771079,0.1040674,0.07182186],[0.120199747,0.08834779,0.07050679,0.0682743862,0.0501423851,0.00664666,-0.02046238,0.0571650267,-0.05622387,0.0109398058,0.110828616,0.0491694547,-0.004546652],[-0.029036304,0.0031336234,0.06747743,0.1745931,-0.1054289,0.09490971,0.0565436929,0.08702699,0.012954982,-0.0768377,0.004914976,0.08979783,0.09539489],[-0.0290213078,-0.0116848433,-0.0160515755,0.0216337685,-0.06738153,-0.0181673057,0.04815439,0.009150785,-0.168425664,-0.00831073,0.04156425,-0.102195479,-0.001467688],[-0.100243285,0.0154900439,0.08369482,-0.01888422,-0.0820260644,0.0150597375,0.07570479,-0.07596347,0.00146212976,-0.05361502,-0.05572281,-0.07702597,0.105922014],[-0.0437862128,0.0492864922,-0.0271078348,0.0415128842,0.01970464,0.0558917522,-0.09653036,-0.06089367,-0.02754377,0.1216391,0.124348082,-0.062011525,-0.104003936],[0.160907477,0.07369604,-0.0272306036,0.00307247927,0.0319684632,-0.100126088,-0.08717407,0.003797768,0.114316009,-0.07518152,-0.0139811672,-0.00193086779,0.03502505],[-0.0658886358,0.0961231,-0.0172442365,0.0115956953,-0.103125796,0.0372417234,-5.84967529E-05,-0.07160161,0.117085367,0.0196748991,0.1221873,-0.0983141661,0.0308843553],[0.1391664,-0.0586336479,0.06423195,0.055580467,-0.050567247,-0.00277392869,0.0412621647,-0.107640974,0.04290108,0.115092844,-0.08153232,0.0213633366,0.0384539776],[0.0518494472,-0.07884443,-0.05251045,-0.0204770546,0.0188624747,0.11732772,0.0138544189,-0.015143753,0.0235397946,0.0553914867,0.0175192542,-0.0425761454,-0.131144792],[-0.007937708,-0.102616325,0.0157427844,0.00057004235,-0.0267491844,-0.116286926,0.0922832638,0.117723517,-0.08096928,-0.03903316,-0.0421938635,0.0185734611,-0.1000527],[-0.01112532,0.09006775,0.0995367,-0.0497667342,0.0117135951,-0.0265560634,0.122274868,0.0128466655,-0.07640827,0.0317661874,0.0796253458,0.0552209541,-0.00754515175],[0.0787087753,0.03240249,0.06830173,0.055811163,0.129202172,-7.14807538E-05,0.12206123,-0.09456843,-0.0635868758,-0.0695243254,-0.0254934,-0.13293384,-0.106332794],[0.008003299,0.0432094336,0.09912498,0.0255474541,0.0428112745,0.08861634,0.0607462153,0.123047896,0.040835347,-0.012652874,-0.00102255517,0.08055856,0.0576666],[0.01909178,-0.10024292,-0.0279547162,-0.1195836,0.0326407626,-0.03698895,-0.0606789067,-0.0176759157,0.06298309,-0.0286070611,-0.0252234489,-0.0625305,0.107177056],[0.03125438,-0.128596917,0.08091783,0.075879775,-0.09743069,0.054104846,-0.0356828272,0.0285978653,0.100661136,-0.116197377,-0.08393655,0.05276304,-0.130403489],[0.005247255,0.0112492535,-0.162902236,0.08691927,0.0637393147,0.0900564343,0.02549861,0.0305248667,-0.06224356,0.06985881,-0.09190611,0.08765093,-0.1184218],[0.1090192,-0.0591612943,0.07680802,0.106190942,0.03856628,-0.0268591288,-0.107015468,0.10590446,0.0437063463,-0.167083189,0.100569732,-0.0345932767,0.09262536],[0.07013757,0.0706006661,0.178757221,0.0345172845,-0.08933652,-0.0950312,-0.09261448,-0.0266554635,0.0474494621,-0.00114154,0.108473159,0.0468639433,-0.05592735],[-0.048013404,-0.117543675,-0.140555039,-0.0423751175,-0.0677960962,0.06184536,-0.0924074948,-0.00391747942,-0.115937926,-0.102870815,0.08197619,0.010153573,0.0958303],[0.06512445,0.03702682,-0.100483626,0.007276475,-0.126229525,-0.0320162848,-0.09651615,-0.07613763,0.006493239,-0.05040127,-0.110224858,0.0107918661,0.101436555],[0.0466524921,0.01323532,0.06444861,0.121606208,-0.03893713,-0.0352047533,0.0231327768,-0.08765169,-0.101307765,0.0261045825,-0.07835888,-0.0742139,0.0316501781],[0.017034404,-0.0515794121,-0.122823365,0.145991638,-0.0909369141,0.09799246,0.0525152981,-0.0578537323,0.0683050454,0.0321571268,-0.1140719,-0.09179905,-0.0134059181],[0.0146566862,0.07934627,0.08498169,0.08559512,0.106807657,0.0306322221,-0.108931452,-0.040392153,0.090342626,-0.004329995,0.058548145,0.0340303667,0.00150228827],[0.1882409,0.0316098258,-0.00310938247,0.0152673088,-0.1337624,-0.07838599,0.09303145,0.002393527,0.06758733,-0.03703319,-0.09504692,-0.009327255,0.07648791],[0.00567830727,-0.139153868,-0.013044456,-0.0939808339,0.007876633,-0.0157943368,-0.0940462,-0.0265245326,0.03330682,0.09889507,-0.04166943,-0.0308380444,-0.07498771],[-0.08845365,-0.06622629,0.141890317,0.0361772366,-0.115934923,0.0589014031,0.09741473,-0.0175676234,-0.098114796,-0.115587458,0.06964983,-0.008265583,-0.0537925065],[0.141118646,0.140157253,-0.009352269,-0.0717177242,-0.018464487,0.041657526,0.0819379,-0.116908789,0.06500531,0.0619687,-0.0572876781,0.06941463,-0.11084079],[0.04845495,0.00269996026,-0.110568061,0.110629521,0.00155134627,0.03904607,0.0791990757,0.07307309,0.0479575954,-0.014235355,-0.0103654424,0.03980429,0.09640143],[-0.06870349,-0.111795977,-0.00594848767,-0.0571158752,-0.0132339755,-0.1191798,0.0177067816,0.106178716,-0.04920501,-0.103171445,0.0369593948,-0.006660987,0.134768963],[0.142586976,0.0624760166,0.112381905,-0.008837783,0.0787276,-0.06373307,-0.12860246,0.122448847,0.010266521,-0.0265345834,-0.0364459343,-0.06549368,0.115173928],[0.05430282,-0.0127366558,0.08364916,-0.114917107,-0.049959,-0.0642713,0.04388426,0.0292178635,0.0268257353,0.0125915473,-0.06355588,0.09047158,-0.048525542],[0.0254594963,-0.04944483,0.03844994,-0.120992847,0.0185471755,0.08038323,0.05811465,-0.1088941,0.00112602941,0.108519584,-0.1003764,0.10326159,0.008901355],[-0.0899575651,-0.0506958924,0.04811742,0.00574872224,-0.0494407639,-0.0311357342,0.0226523243,-0.01853166,-0.155696571,-0.139721721,-0.08881248,-0.133344188,-0.105339631],[0.00318744057,0.08011913,-0.06299736,-0.0689001754,0.10750556,-0.104192086,0.08843995,0.07516593,-0.032541126,0.1139652,-0.0667293146,0.178905427,-0.07011855],[0.0544558279,-0.0944112,-0.129021615,0.134957179,0.0223508552,0.0921071,-0.013536768,-0.08646437,0.07848851,0.109103151,0.08654107,0.06647157,0.007375927],[-0.06443086,-0.163744509,-0.0153668663,0.0769877955,0.102878772,0.05325634,0.0493336022,-0.016582476,-0.08677805,0.005095418,-0.09331261,-0.0635682046,-0.08755011],[0.00113154377,-0.0141534014,-0.0718858838,-0.0717329457,0.103650451,0.07372598,-0.0414146148,0.0125956209,0.0493251,-0.09652236,0.05876942,-0.0120844115,0.132488117],[0.09309213,-0.0497838557,0.1160199,-0.0259007,0.03972492,0.0158305783,-0.0685765445,-0.05971052,-0.106043153,-0.09165854,-0.04982217,0.114584841,0.0528225079],[-0.168464422,0.03577331,-0.0834818557,-0.06291169,0.0229520164,0.0608384237,0.0412436761,-0.08126971,0.08194641,-0.105940633,-0.07288947,0.10221342,0.0290239435],[0.0504397973,-0.03213628,-0.06021781,-0.0210636444,0.1154061,0.0340280756,-0.0359881856,-0.0847907662,0.118829,0.09836924,0.116644733,-0.0025390985,0.0604729466],[-0.107736,-0.05308463,-0.09728961,0.08574534,0.04978627,0.08028158,-0.06458652,-0.06715017,-0.0413634926,0.0105415955,-0.0151347937,-0.07100883,0.0772360638],[-0.00316129322,-0.05928531,-0.0272962023,-0.03052033,-0.1130984,-0.0612407625,0.0134001533,0.082997486,-0.00483129546,-0.100022554,-0.0660203248,0.168954432,-0.0350161158],[0.0500089079,0.009917837,0.207594767,0.07677143,0.108728379,0.1091075,0.100401133,0.0940008238,-0.07397673,0.043617405,-0.00125300523,0.06040189,-0.122937761],[-0.0294836126,-0.00925574,0.101429105,0.04700893,-0.102598645,-0.115472287,0.058975555,0.04001337,-0.158057153,-0.0423548445,0.0465756729,0.09728483,0.06292889],[0.07502273,0.06038649,0.07749598,-0.0024070798,-0.095163554,-0.0566280149,0.10904564,-0.0968389,0.033236362,0.101442516,0.0949205,-0.008163236,-0.112382576],[0.117587149,-0.044103004,0.0208405852,-0.08176748,-0.0253304262,-0.114207283,0.00494684,-0.04987925,0.0978296548,-0.112046741,-0.08715659,0.149763465,0.034933202],[-0.114533067,-0.1090108,0.0381596759,-0.05785475,0.08235624,-0.0710470751,0.010576644,-0.05199698,-0.0265303,0.0458715521,-0.0267120227,0.007062232,0.0355654769],[0.114382342,-0.067823194,0.141242146,-0.00530715752,-0.03412979,-0.111627482,-0.0117722163,0.00102726487,0.07017451,0.06376917,0.107974336,0.0247611236,0.04216372],[-0.113134287,-0.157034039,-0.0234484281,0.06927295,0.06912414,-0.0584880821,-0.0652404353,-0.009149045,-0.0764443,-0.05821122,0.0145237949,-0.03613888,0.09185574],[-0.05861945,0.09066339,-0.0651384443,-0.0143298544,-0.00355283357,0.09659809,0.130448356,-0.116497219,-0.127705872,-0.129708514,-0.00635422952,0.0877021551,0.0101432521],[-0.09457767,0.09895686,-0.0159689616,0.04232164,0.03156736,0.124909677,-0.04316674,-0.0556379631,-0.121926695,0.0553467348,0.0529055931,0.12061619,0.04023198]]}},{"ClassName":"DenseWeightMatrix","Content":{"matrix":[[0.0138311721,-0.07868045,0.06543592,-0.0115277655,0.00766959228,0.07417223,0.0519720055,0.0202383623,0.0712337047,0.0117478659,-0.0278550666,0.103293307,-0.04054242,0.08202305,0.0846082941,-0.0582127161,0.04260654,0.0199479274,0.0927151144,-0.05607215,0.0144971469,0.03886338,0.08942616,0.000936966739,-0.05886539,-0.0611958839,-0.04832781,0.08244342,-0.0361387953,0.0238223653,-0.0479202,0.0358969346,0.0212715231,0.07188975,0.001399391,-0.04467316,-0.02049714,0.007439023,-0.0968186259,-0.0515304357,0.031230526,0.04609147,-0.0436749868,0.009795008,0.08280078,-0.0207154527,0.07957657,0.012816851,-0.05387303,0.009624956,-0.08601863,-0.005375519,-0.0174122341,-0.0156473815,0.0484716929,-0.05139847,0.06544359,0.0433819033,-0.00743764872,0.03855806,0.05794471,-0.0143113751,-0.04488137,-0.06362395,0.0593146458,0.0157775786,-0.0005685614,-0.11593838,0.005452817,0.0636735857,0.0120944353,-0.0649885163,-0.05091659,0.04859518,0.108413339,-0.07799547,0.0757368058,0.0185543317,-0.07974358,0.00909500849,-0.06541129,0.0177822988,0.0912656859,0.009914458,-0.02403574,-0.07118661,0.01601168,-0.0780481845,-0.08141893,-0.07956401,-0.07551129,-0.0276507437,-0.0202757865,0.0157136731,0.04205955,0.0188980009,-0.06001757,0.0374717377,0.08217968,0.05960012,-0.03347134,0.0814833343,0.0838218,-0.04850812,-0.09148509,0.0533119664,-0.0293432679,0.0303761885,0.0346051045,-0.05067422,0.0444844924,-0.06244916,-0.05139496,-0.032381732,-0.0786963552,0.0192771368,-0.0954862,0.07153827,-0.0606162958,0.00100125151,-0.05369308,0.0911578462,-0.0595068522,-0.06991068,-0.03729951,-0.03699569,-0.016452089,-0.0552872121],[0.0442954637,0.07578542,-0.00465210434,0.070288,-0.0318730436,-0.0573212057,-0.104016565,0.0227031875,0.022796765,0.0127333505,-0.00132654642,0.04777152,0.09062292,-0.0429809019,0.0146985585,-0.0717455447,-0.09404573,-0.09732024,-0.0005961434,-0.067503646,-0.0624463446,-0.06745721,-0.06245825,0.0293338,-0.0379795469,0.0295486525,-0.03406473,-0.0353922732,-0.0309270136,-0.03491789,0.07007529,-0.07894094,0.07937414,0.0264215153,0.0229470767,0.03623136,-0.07375983,-0.04245268,0.05640459,0.04120929,-0.0509759746,-0.00191821682,-0.0459269881,-0.0464896373,-0.0114688361,-0.0292161312,0.0118794208,0.0241297055,-0.05231716,0.0698563159,-0.0249407943,0.0455833524,-0.00314362883,-0.0602243058,0.0275215115,-0.00936642,0.0234882459,-0.00218448485,0.06161821,0.07622545,0.100619227,0.089514,-0.05103377,-0.0465840325,-0.0151318582,0.0110538546,0.0185289737,-0.00556529,-0.0587339923,0.0599394664,-0.0277631059,-0.0506321378,0.09109958,-0.07581529,0.0219402891,0.0252662282,-0.03762756,-0.0111105144,-0.0554021373,-0.0327338241,-0.0243132915,0.0214386266,-0.0351732,0.0455786,-0.0463787131,0.06885914,-0.004798368,0.006682608,-0.0209581032,0.00559484,-0.06925502,-0.06832708,-0.0460139662,0.100831404,0.0582492761,-0.0602673478,0.031416215,-0.04126087,0.0474059731,-0.09470157,0.0140742892,-0.04920031,0.0270562265,-0.04832501,-0.0602411,-0.07187295,-0.0732617155,0.05005822,0.0434203744,0.06640842,0.0245038178,0.07689634,-0.00112959789,0.01777393,0.006276758,-0.0645108,-0.0135725783,-0.08337504,0.0121711688,-0.08371788,0.05563812,0.015875509,0.0538573042,0.00160416076,0.0264740176,-0.0161261745,-0.07171575,-0.05975901],[-0.0271061957,0.0477344,0.09277608,-0.05372146,0.05807876,-0.01621469,-0.06264996,-0.09362131,-0.07281238,-0.0815665647,0.0165327527,0.091142945,-0.08519482,-0.0409636348,-0.0125734368,0.0686820149,-0.0296363812,-0.0688642561,-0.0833584,0.005036485,0.009157427,0.009571557,0.0754036,0.08557551,-0.0574360527,-0.042242296,0.07211738,0.01234622,-0.0504178852,-0.0788662657,0.0045237774,0.0626048446,0.0599892437,-0.000268879026,-0.0208510309,-0.06383829,-0.02522932,-0.008438786,0.0345043577,-0.08424116,0.0611216165,0.0435234942,-0.06334926,-0.0345964879,0.0316743031,-0.07761259,-0.08141149,-0.00838302448,0.04480625,-0.0325861,-0.0129664959,-0.00319734938,0.089105,-0.07928563,0.06520571,0.0267531555,0.07611697,0.0102746766,0.00198706565,0.06192554,-0.04286452,-0.0358540379,-0.0516539961,-0.0553496964,-0.0466357842,-0.0541427657,-0.089422524,0.0595387667,0.09094723,0.0429255,-0.003854951,-0.0198480766,0.07626388,-0.09545397,-0.0276732948,-0.103764512,0.020589985,-0.02690736,0.07938284,-0.06490044,-0.0608025342,-0.06163897,0.0850041658,-0.07116747,0.0211963244,-0.0433166549,-0.002535428,0.05446969,0.06398175,0.052486416,-0.06729784,-0.01819771,-0.0476697832,-0.00160601118,0.0131100873,-0.07449149,-0.0262652729,-0.0469902828,-0.0626356751,0.0240108855,0.04811774,0.0183068048,0.0174153019,-0.05036043,0.0750033259,-0.08871934,-0.01049236,0.03857401,-0.0553490259,0.04445,0.06372463,0.0216255728,0.0790208355,-0.06825526,-0.05630953,-0.0421882533,-0.00179022283,0.00119136134,-0.0347922854,0.0253535379,-0.0583488941,0.0475529432,0.0488079935,0.06844393,-0.0429705568,-0.03500086,-0.0582403243,-0.09177347],[-0.0047272807,-0.08259789,-0.00394035038,0.006109963,0.02898904,-0.004461301,0.06559926,-0.0335704535,0.0225644372,0.06501371,0.012815577,-0.00114210648,-0.0352339558,0.08123071,-0.0374393426,0.024516562,0.0599629581,0.0288902689,0.01672075,-0.00171535683,0.0571059622,-0.0119441031,0.0230640732,-0.0310906284,-0.06923805,0.004125848,-0.0137462262,0.07770984,-0.06968997,0.0149534224,-0.07274736,-0.04096096,0.0499114059,0.0719526857,-0.05277322,-0.0124680251,0.07148893,0.0476707369,-0.01549932,-0.03240217,0.06624345,0.0415742844,-0.004333242,0.0579975843,-0.0605821759,0.00412104931,0.0736033,0.09640547,0.00646749139,0.0872617662,0.0235531926,-0.06632152,-0.0405802056,0.06212424,-0.009180776,0.0223492514,0.06332528,-0.0177660044,-0.0844573751,-0.07824328,0.006681177,-0.06275315,-0.0156244943,0.06396268,0.052415438,-0.0301509518,-0.00390017359,-0.06781045,0.0121592563,0.0978134051,-0.01753422,0.0184453074,-0.0581872649,-0.0123629514,0.0306649655,0.0008287546,-0.046001032,0.03033007,0.0276274923,-4.796974E-05,-0.04108658,0.0826174542,0.0502202325,0.0380178578,0.0415988974,-0.08210041,0.0321458951,-0.0571126826,0.0242661573,-0.02242799,0.03439105,0.07473095,-0.05234803,0.0280719846,0.070876725,0.00996009447,0.03155858,0.0499171,-0.045882266,0.0745167062,-0.0531222336,-0.0362051427,0.0218549613,0.0156383384,0.06520947,-0.05101283,-0.0345891938,-0.0103367092,-0.05337982,0.091471374,0.079355374,0.0748032257,-0.08576044,-0.0290798582,3.70383059E-05,-0.087319985,0.0626874343,0.08656242,0.09449864,0.0562105365,0.06026772,0.0412185565,-0.05019283,0.08376063,-0.0601456277,0.0516570844,0.0347614735,0.07975489],[-0.02860007,-0.0157346241,-0.07844744,0.05901493,-0.0005172989,0.09319094,0.04630982,-0.004850048,-0.09188943,0.0796229839,0.02285844,-0.06485068,-0.0424280278,0.0753313154,0.07379127,-0.006472096,-0.107230373,0.008176344,0.05145091,-0.0228268653,0.0205657352,0.0846030042,-0.00682338141,-0.07940155,0.0473277345,-0.05015621,-0.1021387,0.06367505,0.0511364676,0.005638814,-0.09358677,-0.09040725,-0.0215688813,0.0906822,0.100880653,0.0144217135,-0.04851201,-0.101304568,-0.0520923659,-0.07047339,-0.09241787,-0.0750336945,-0.0001622874,-0.04376483,-0.0088127,-0.0606318042,-0.0272199176,-0.06392151,0.0330387875,-0.0252942387,-0.04759892,-0.015104468,0.0945100337,-0.0424037538,0.0639209151,-0.009381674,0.0155628491,-0.0113307331,-0.01660551,0.07783135,0.07197257,-0.03521711,0.0443720259,-0.00912261847,0.028839251,-0.0756563,-0.08312771,0.04872911,-0.0236133635,0.09248896,0.0169812664,-0.051993005,0.08862034,0.0207601078,-0.0544380061,-0.04170776,-0.005933433,-0.03626529,-0.0533974655,0.0452757441,-0.00903468,-0.102659568,0.0476808734,0.06349012,-0.0336179323,-0.07575781,-0.0508807674,-0.0371384062,0.03063809,0.03390712,0.08057276,-0.07227172,-0.113101609,0.020648865,0.01164435,0.08983214,0.0108448649,0.00675356947,-0.0270715151,-0.0413675681,-0.0507222824,0.0973288938,-0.0814495757,-0.0624627545,-0.0246902574,0.07415273,0.05905405,0.0295777116,0.07544689,-0.0519658625,0.052822724,0.0101592448,-0.022229163,0.08730017,-0.0117950756,0.0241932273,-0.0174802337,-0.107166082,-0.008514988,0.0488225557,0.0653814748,0.0441056564,0.06937251,-0.05217705,0.037945196,0.06635286,-0.04213141,-0.00810974],[0.0379823,0.008822747,-0.08067501,-0.0198063776,-0.08197887,0.030980343,-0.03485846,-0.08687322,0.0507614128,0.0529803373,0.0217387788,-0.0737411454,0.0380373932,-0.07409978,-0.0867900848,0.0253222771,0.0212158244,0.0195058454,0.004878337,-0.05697301,-0.0426977128,0.0419042036,0.0526392,0.0541705154,0.032288596,-0.0229641162,0.0209351555,0.002317649,-0.08753436,-0.0416772328,-0.07462243,0.05429551,-0.0134273069,0.0271119736,0.069863826,0.057246048,0.04137267,-0.0501530133,-0.09041254,-0.0149539867,0.07605572,0.106106259,-0.0761069059,0.08905258,-0.0226734169,0.08305851,0.0708224848,-0.0563224,0.020737825,-0.0244937353,-0.0109314723,-0.0360007472,0.0770548061,-0.1001966,-0.0759564862,0.006493229,0.006940844,-0.00504734134,-0.0238000266,-0.0856036,-0.012509359,-0.07618247,-0.055748906,0.0280014761,-0.0270128734,0.0244602859,0.0899382159,-0.08211733,-0.0570386946,-0.0007069402,-0.0574650653,-0.0190923959,0.0277025439,0.0187224131,-0.05728841,0.00490554655,-0.04520936,0.0723917,-0.06577985,0.0956788138,-0.07043883,-0.0521655679,-0.0212722067,0.06678023,-0.005286298,-0.0538616739,0.0779262,-0.0007385092,-0.06401856,-0.08822525,0.0817880556,0.09284932,-0.0344119444,0.06588267,0.0128146075,0.0320949629,-0.04593765,0.08120466,-0.06497925,-0.009560339,-0.08197468,0.0365871266,0.0904732049,-0.08813618,0.07073646,-0.0483150557,0.005766378,-0.0450405627,0.00617707148,-0.004275434,0.0503439568,-0.03232861,-0.05303284,0.08760323,-0.002508322,0.03223343,-0.117514454,-0.0405244939,-0.07829318,0.0476884544,0.107178472,0.07857024,0.07527484,-0.02734353,0.09427207,-0.08064747,-0.0339035131,0.0462795049],[-0.002972345,-0.0408701263,-0.0408255346,-0.09489645,-0.0857600048,0.05728883,-0.0557116941,0.104304239,0.0135369329,-0.05632096,-0.069952175,-0.018128518,-0.0692339838,0.0462903939,0.07057888,0.0141493687,-0.0196117964,0.0450078137,-0.0556131825,-0.00101252459,-0.0239104368,-0.0771808252,0.09099897,0.0217440836,-0.00165242341,0.0772461,0.0358052552,0.03255274,0.0385278873,-0.03955786,0.07396691,0.08558858,-0.0902243,0.0806066245,0.0257047359,0.05163463,-0.0523237437,0.0129896533,0.0347079076,0.105459541,-0.0761050656,-0.0278973952,-0.0559403561,0.0365906321,0.0427382328,0.0286528133,-0.02054883,0.0558302775,-0.0599976331,-0.07962576,-0.055815842,-0.04547611,-0.08451194,0.0647126138,0.066247195,0.054331705,0.0510946251,-0.062111266,-0.0178787075,0.09390802,0.0303314347,0.005373495,-0.0142140565,0.10438484,-0.007523209,0.004456457,-0.0758618861,0.0572670326,-0.08819097,-0.06831178,-0.0399445929,0.06977381,0.0171258785,-0.0720371753,-0.0216018241,0.0933363661,0.074483335,-0.06362302,0.012125547,0.03541654,-0.0317108,0.0925115,-0.06864361,0.0390520766,-0.01229707,-0.04830299,-0.06815313,-0.0339656845,0.05383811,0.008431556,-0.00999532,0.08756795,0.0337933339,-0.08840428,-0.05345343,0.0441497974,0.0274350941,-0.07606,0.00782263,0.01252647,0.09537895,0.0234835967,-0.0917498246,0.09731529,0.06465259,0.07357428,-0.0910089239,-0.0324300341,0.06600168,-0.0992433,-0.0743115246,0.08964684,0.0522205681,-0.009532676,-0.0963829458,-0.0671327,0.032341402,0.00460464275,-0.00269737584,0.0555458255,-0.09721537,-0.04687266,-0.09152588,0.0344253629,-0.0691206157,-0.09375715,-0.010528123,0.00456981035],[-0.0478822142,-0.0247450657,-0.0658781454,-0.0600130074,0.0757721663,0.08746772,-0.04181064,0.07558875,-0.126942128,-0.014805302,-0.05775547,-0.0460071638,0.0127406791,-0.0406509228,-0.05956062,-0.06602303,-0.0743694156,0.08319375,0.041637715,0.03331952,0.0346664265,0.0540768243,-0.0579700954,0.0196200032,0.0333659165,-0.0186115764,0.0697807148,-0.0410128459,0.007911171,-0.0337902755,-0.06653901,-0.0315573066,-0.05156336,0.081639424,-0.0588047,-0.0714226142,-0.0335124768,-0.04371661,-0.00175852142,0.0478230752,0.0908269361,-0.009267324,0.053957954,0.0519041829,0.009252947,0.008630505,0.02529248,-0.0155816935,-0.08357978,-0.0306992121,0.0211766325,-0.08481164,0.0270518139,-0.0513677932,0.07553705,-0.08244,0.009324747,-0.101852939,-0.0389456265,0.0103531638,0.111306123,-0.0275847334,-0.0575100221,0.0141748125,0.008744469,-0.01476488,-0.00587130757,-0.0771216452,-0.02702698,-0.05990026,0.0173273068,0.0112684816,-0.0166917071,-0.057945054,-0.08235614,0.120467834,0.106700331,0.07222401,0.0558967479,0.04223222,-0.0991177857,-0.06533337,0.0744895041,0.08099105,0.05062981,-0.000326958456,0.0607656166,-0.04621295,0.0184017364,0.0321525447,-0.06943193,-0.032797385,0.08696282,-0.0143784862,0.04000697,0.0290936362,-0.0505267866,-0.044764705,0.0570483245,-0.0597275458,0.0158138,0.04880605,0.08122714,0.06349466,-0.0388763435,0.0815986544,-0.029782379,0.08694503,-0.0196360685,-0.09754833,-0.0272133276,0.0616120547,-0.09574961,0.0640853047,0.06428553,-0.0152845392,0.0905018449,-0.0554950833,-0.0547059067,-0.0538232327,0.0116347745,-0.001956961,0.0627604648,0.0360735543,0.0503487028,0.0148913329,-0.09410032,0.000359910919],[-0.05770547,0.03799786,0.0127370125,-0.0512142926,0.0451287925,-0.0278447475,-0.0761086643,-0.09732014,0.053144455,0.06684542,-0.06708383,0.0107772937,0.08350475,-0.084454,-0.0463812239,0.0934804156,0.09424684,0.07585207,-0.0213380381,0.0777091756,-0.0424968861,0.0366088338,-0.04885215,-0.0294194072,-0.0330717377,-0.01118309,-0.04562956,-0.01972073,-0.0244850442,-0.0100587793,-0.04332252,-0.0898542,0.000173157765,0.0291550513,0.08839839,-0.06736307,-0.07854783,-0.06955525,-0.047186926,-0.05780282,-0.03838096,0.01414622,0.008162594,-0.04135395,0.0642741844,0.00188879552,0.043292243,-0.0375850536,0.03910639,0.0291551929,-0.0556419119,0.0539395735,0.08144244,0.06935825,-0.08391358,-0.100431718,0.09285475,-0.0381046869,0.008628734,-0.0991265848,-0.03877619,0.06679562,-0.06896435,0.0960033238,-0.07057034,0.06917612,-0.0175102185,-0.0134119494,-0.0581420138,-0.04692073,0.102993764,-0.02817396,-0.0353387,-0.081628494,-0.00654715067,-0.02086314,0.0468141846,0.0640335456,-0.002265168,-0.06964791,-0.0260866284,-0.026938444,-0.039974872,0.0155709516,-0.0633403957,0.08911789,0.08119026,0.0384300239,-0.0290770885,0.0310714357,0.00519649452,-0.04244359,-0.02199107,-0.00104748667,0.0181406885,0.0121009788,0.04893433,-0.0589509457,0.0114333788,0.00196953071,-0.0958855748,-0.0251464248,-0.035455633,0.049761124,0.03181833,0.0132628474,-0.08815917,-0.080922,-0.0636470541,0.04079573,-0.06735632,0.0107607841,0.08878318,-0.006189286,0.05229648,-0.07165402,0.0103199109,0.091262795,0.01513135,0.0736135244,0.0480831675,0.0216820668,-0.03557801,-0.050886225,-0.0298309252,-0.008181541,-0.08378681,0.103920281],[-0.0375755429,-0.0323695354,-0.07336362,-0.08633934,0.0945756957,0.07231094,-0.0672987252,-0.06520614,0.0296169166,0.0934524462,0.016175814,-0.08432546,0.0075657,0.08999192,0.0128498133,0.0820189342,-0.0293662231,-0.06745848,-0.01281103,-0.09463435,0.07872226,-0.08301004,0.0183510929,0.0510872453,0.0617717281,0.03414539,-0.06905174,0.0560228229,0.0451786965,-0.0160183888,-0.06893263,-0.0593974777,-0.0365131833,0.0118100224,0.08696197,0.0784403756,-0.0857993141,0.0284116976,-0.0292343814,0.0588576421,-0.0177408569,0.06763542,0.08605388,0.0653150156,-0.07528197,0.0415791348,0.003981611,-0.0601048,0.0576648675,0.00242177886,0.07694588,-0.0832496,0.03953229,-0.08789478,-0.0139373671,0.05072374,0.0181900319,-0.0195081923,0.0138281547,-0.0445094928,-0.0404853038,-0.07612298,0.052172102,0.0105360551,-0.00515808444,0.07404284,0.0595080256,-0.00763604371,-0.08606913,0.07872903,0.05894274,0.034784168,-0.07769036,-0.03301146,0.0169519447,-0.07149376,0.0453201719,0.0167522412,0.03338153,0.0145066,-0.0377688445,-0.0147578409,0.07715564,0.06889621,0.0615620725,-0.06528538,0.0186761077,-0.0269783232,-0.07227934,0.05090268,-0.08779632,0.08002288,-0.0615841933,-0.06757749,0.0523052551,0.0299026482,-0.005945701,0.05826659,-0.07584233,0.007007938,-0.0252289474,0.0268299617,-0.08164947,-0.070460774,-0.0608803146,0.04944889,-0.00346433534,0.00296176388,0.0328728557,0.0422711223,0.0458957367,-0.0871021748,0.0425374359,-0.0272928942,-0.09003087,0.0105658388,0.05774285,-0.08284542,-0.04661434,-0.0134956185,0.0397277661,0.08754092,-0.03643196,-0.07078912,-0.0318971537,-0.0109482007,-0.060188707,0.0611416325],[-0.068216756,-0.0510097221,-0.06653311,-0.0238694381,-0.0345070921,-0.0558125153,-0.0181192569,0.056770172,0.0466458574,-0.0374313965,-0.08686632,-0.1035417,-0.0838545039,-0.100280337,0.0545478649,0.051198706,0.0324475244,0.06295373,-0.0602869168,0.07215338,0.07919615,0.05190351,-0.06641322,-0.004471826,-0.0404669233,0.09913729,-0.09347099,-0.09910466,-0.07060088,0.05289089,0.0470101126,-0.07422481,0.09311573,-0.0262545925,-0.002665505,-0.0101412013,-0.0178329647,0.09798425,-0.07916383,-0.0351235867,-0.0073127225,0.05689139,-0.08366182,-0.03758374,0.00283337757,0.09137405,-0.04756792,-0.0503848866,0.020787945,0.0872037038,0.00569293834,-0.05157503,-0.0505393669,0.0378428,0.0472206846,-0.061535202,0.0767678246,0.0343810059,0.0574193224,-0.0426219553,0.01897457,0.039392706,0.0279895943,-0.07283655,-0.06554189,0.04568386,0.07275238,-0.06090256,-0.08509745,-0.04328948,-0.04039251,0.05911034,-0.05693327,-0.008742634,-0.06315599,-0.038763307,0.0645866841,-0.08312612,0.0928083658,0.0682228059,0.0629740953,0.0189604256,0.0510937162,-0.0438046,0.05727211,-0.0859593153,0.04983462,0.03349896,-0.01674368,-0.03392865,0.06620176,-0.00291673141,-0.0389815643,-0.08430753,0.06298181,-0.00641317433,0.06148293,0.03984672,-0.03622603,0.010583696,0.06212827,-0.0457012653,-0.09525809,-0.07560079,-0.0962212458,-0.06574666,-0.0381683,0.0533768423,-0.007690648,-0.05566365,0.0764872655,-0.07113021,-0.0682568,0.0238210279,-0.0292096362,-0.00689324131,0.09491986,-0.0690986738,-0.0238787532,-0.07923608,0.0998491645,-0.0154622942,0.0264636613,-0.008722608,-0.00358552462,-0.0166096911,0.0638874,0.0427126065],[-0.0118429558,0.0134415468,-0.0212529916,-0.0146018146,-0.0445954278,-0.102004319,-0.0835078359,0.09020988,0.09778518,-0.0728735,0.07780711,-0.0542313643,0.0769353658,-0.009708484,-0.08373077,0.0380695425,0.0764054656,-0.07539509,-0.0106201489,-0.06288421,0.0572467744,-0.05465635,-0.07122073,0.044687137,-0.0728381351,-0.00418947963,0.0504666455,0.104962774,0.08500216,-0.0183248874,0.0199510343,-0.0746511146,-0.0600359775,-0.07733659,-0.0148086464,0.09241914,-0.0716355145,-0.0362590626,0.08653131,0.0424396172,0.0755054057,-0.0117633473,0.0396489762,-0.07375418,0.08480894,0.02510747,0.005088034,-0.00195541,-0.05455995,0.0540439263,0.07042151,-0.0544235334,0.07255988,0.0201001912,-0.09144968,-0.05347757,-0.0364867076,-0.0217821952,-0.0125752632,-0.0595548935,-0.074527055,0.004634244,0.0957106,0.03131202,-0.0617068037,0.06174749,0.0761627257,-0.05421608,-0.0361309163,0.08006373,0.0488285646,0.08865236,-0.00367147685,-0.05617794,-0.0243001785,0.0345705561,0.0401677229,-0.0116486028,-0.02736842,-0.0205003172,-0.003441911,-0.07173053,-0.0768378,-0.0275914744,-0.0834617838,-0.01603778,0.0600195751,0.0685964748,-0.051415,-0.0555031635,0.03161391,0.08515139,-0.0589392744,-0.0618071146,0.03514601,0.09050323,0.0443111844,-0.0589720756,0.0751217753,0.08359937,0.0471368,0.04844255,0.0115765259,0.0569461659,0.08393452,-0.09010652,-0.08204992,0.0910655,-0.04289331,-0.0471997447,0.03924786,-0.07783973,-0.0355952978,-0.0316821858,-0.011049,0.013937328,-0.00359509024,-0.058259856,-0.0938593745,0.00175711478,0.08008774,0.00365119078,-0.0277218577,0.08310187,-0.0683534443,0.08978652,-0.07340845,-0.07963284],[0.008267433,-0.08601648,0.0589402132,-0.07908594,0.0248325747,0.05359688,-0.08344406,0.03736283,-0.0584171042,0.0698725656,0.0791305751,0.0447229631,-0.02034508,0.07873778,0.00869891,0.05278682,0.00337935076,0.0524191037,0.0239934549,0.0329581648,-0.0258005112,0.07489603,0.0796176,0.0189327337,0.0129441274,0.07110671,0.00602628849,-0.0294654537,0.020985527,-0.03142539,0.0367020033,0.0170117915,-0.007396904,-0.07335967,-0.0268715918,-0.00216908124,-0.0150801176,0.05893701,-0.06875075,-0.00801683,-0.04491493,-0.037096668,-0.0382677056,0.0416658968,0.0442181341,0.04794616,0.0725480542,0.03924089,0.07270736,0.0266609564,-0.06530872,0.0115454225,0.0383249745,0.02215076,-0.02713664,0.059753824,-0.08039132,0.0546003543,0.0514392853,-0.0382268168,-0.0740750954,-0.0872776657,0.05531593,0.0532130934,0.05321186,0.08821939,0.105470113,-0.0250457823,-0.0394916274,0.00344657921,-0.0268182438,-0.0130501306,-0.06643209,-0.073340036,-0.0791778639,-0.07840723,-0.0496625751,0.02735843,0.09174454,0.06930317,0.0616252832,-0.0193473045,-0.038829688,0.03513582,0.0193742719,0.07838706,0.0992929,0.0751366243,-0.0705214441,-0.0163018536,-0.0680496544,-0.0230339468,0.0272154436,0.0131455231,-0.000864064263,0.08927548,-0.06045503,0.0415800363,0.054656323,-0.0863596946,0.04415361,0.0953426361,-0.08768625,0.0210179482,-0.050658185,0.06155693,0.0100412266,-0.0600041039,-0.0258298181,0.00208519,0.03403627,-0.0363244638,-0.0124399355,-0.0428751074,0.07402499,0.04556725,0.003027573,-0.08606184,0.052935686,-0.009120438,-0.047541894,-0.0150525486,-0.0537959225,-0.00270600244,-0.06714338,-0.0306413751,0.03595622,0.0485867932],[0.0644706041,-0.0346360728,-0.0809754655,-0.0344931446,-0.07706391,-0.00351491384,0.05475603,0.04159364,0.102575704,0.07787273,0.07301492,-0.03625591,-0.0412823334,-0.03939447,-0.0531481467,0.0290337969,-0.000560867949,-0.053956233,0.0265149847,0.08406987,-0.0738671944,0.0163411777,0.005334228,0.002437168,0.0272430573,-0.08107618,-0.08004425,-0.00347691262,0.0303792972,0.09485034,-0.0291423462,0.0258973762,-0.0608768128,0.08621332,0.0463418029,-0.09447244,-0.0331533067,0.0258725788,-0.0498735867,0.0537087023,-0.0299890246,0.0538125634,0.0122338878,0.0801716447,-0.109536409,0.00217128987,0.0473049656,0.08257098,-0.05166208,-0.0487501547,0.00507578859,0.05500905,-0.0689861849,-0.05419818,0.08709677,0.0454957671,0.0186092146,0.08213795,-0.0535471551,-0.0484672524,-0.041911643,0.03711533,0.06866339,-0.07026797,0.0444299169,-0.0577542856,0.07187667,0.0257520266,0.07127832,0.00568681955,-0.0247914419,0.0693654642,-0.0488579459,-0.08908823,0.01956971,-0.03653208,-0.04046281,-0.0269976258,-0.0667718053,-0.04452499,0.039616555,-0.008687064,0.09550081,-0.0227820762,-0.0324832536,0.0304537285,0.00594372535,0.0368338972,-0.0291100722,0.00317554176,0.0156362224,0.014072814,-0.0345061235,0.0134671023,0.020543281,0.0379545242,-0.0673392,-0.0395905972,0.114011936,-0.0773694441,-0.0804170445,0.0191206262,0.04519525,-0.080052726,0.0286425054,0.04122047,0.0290875882,0.03209752,-0.011440577,0.08955314,0.0298393238,0.04439463,-0.04214758,0.0144072445,0.0635312,-0.0968082249,-0.005180277,0.0584873147,-0.05053316,-0.0112159671,0.07178788,0.0619832426,-0.07513938,0.0152360592,0.0917016342,-0.0121608488,0.0107908174,0.0432871766],[-0.0368848778,0.009380491,0.0787102059,-0.0987793952,-0.08797925,0.020228127,0.0348268151,0.0226780251,-0.114621393,-0.007678346,-0.0106130056,-0.0620813034,-0.0240728129,0.00334559428,0.0488648154,-0.0448865332,-0.0425775461,0.0724708661,0.029691875,0.00911132,0.06120759,-0.0571279749,0.0326785967,-0.09989914,-0.0308867544,-0.06493675,0.03135845,-0.045733314,-0.0184525717,-0.0481383838,0.0289630145,0.0290297847,0.07786988,0.0432546958,0.069434166,-0.007219787,-0.0521768369,0.0427291319,0.07426539,0.0650263056,0.06781171,-0.0541671142,-0.03236187,-0.02698441,-0.00250525284,-0.0558142662,0.056340307,-0.0466251373,-0.0050646835,-0.0275030583,-0.0223863088,-0.03360327,-0.00276497449,0.09211811,0.04233434,0.003323408,0.0271373261,-0.04597906,-0.0272257142,-0.06640831,-0.05783826,0.0472520478,0.0215182472,-0.04611238,0.0724046454,-0.06979275,-0.0581741,0.07940249,0.04031355,-0.07425585,-0.0617987,0.07206009,0.08605181,-0.0279747713,-0.07630686,0.0556278,-0.07580958,0.09296386,-0.04311918,-0.08066427,0.0325397737,0.08591092,-0.08379556,0.06918951,0.0495790876,-0.0315952972,0.0499565,-0.04544524,-0.0201590266,0.0232462585,0.0221190061,0.00449639559,-0.07209652,-0.0730652362,-0.08430947,0.050073076,0.0585037954,0.07982277,-0.0235310569,0.04499876,-0.08105201,-0.07563511,-0.00270086527,-0.0112430369,-0.007360871,-0.009773076,0.0721711,-0.0200378783,0.0845457241,-0.0314787664,0.105608255,-0.07632544,-0.100613065,0.0406286828,0.0481801927,0.0231523849,-0.04684775,-0.00385003374,0.00217978866,-0.05938286,-0.0499780178,0.0766879842,0.05666785,0.06916942,-0.0381326266,-0.00212276471,0.05932541,0.0406685881],[0.0790001154,0.09260633,-0.0785252452,-0.03253538,-0.0102947885,0.0344923548,-0.03762768,0.000501142349,0.03672559,-0.08446946,-0.0463033468,-0.0324383453,0.0348484032,-0.0568785481,-0.09105342,-0.09852885,0.0286682248,-0.03026883,0.0702446252,0.0176954418,0.0860709548,0.05641106,0.088285014,0.05914341,-0.09062752,0.07755308,-0.07318869,0.05829997,0.0525378771,-0.09739017,0.0668696761,0.05225026,-0.0140748825,-0.04400888,-0.03366979,-0.0222894438,-0.0942690447,-0.0107021146,-0.0450746641,-0.03101662,0.07618231,-0.0659682155,0.0108866338,0.08327977,-0.0184117872,-0.0533116758,-0.0750107,0.07861797,0.0126499161,0.07230675,-0.08182779,0.03927536,-0.0240714,0.0133651337,0.06751632,0.016194772,0.05472381,0.0404912271,0.0023070816,0.007818625,0.0809551,-0.0593266822,-0.0479846261,-0.02422043,0.0393493138,0.0332323126,-0.031110147,-0.0144347856,-0.07189121,0.0158925019,0.04375778,-0.07641177,0.100138515,-0.08023466,0.0650435,-0.0428887978,0.06963801,-0.06555694,0.02894886,-0.05057595,0.00742450636,-0.05016296,0.00230856775,0.00771963969,-0.06449392,0.03877962,0.06567886,-0.04923842,-0.03004778,-0.07056028,-0.02013061,-0.0255882069,0.05417995,0.0601244234,-0.0692487955,0.0386131071,-0.08029329,0.00173576351,-0.062881656,0.00370059256,-0.0503893681,-0.09714827,-0.07797965,0.0394124761,-0.0308374837,-0.051817365,0.0007241374,0.0130162332,-0.07935595,0.05289739,-0.0405664258,-0.09031928,0.06372225,0.08487328,0.06298912,-0.0328599922,0.07596224,0.08288224,0.0110233361,0.00671335356,-0.056158036,-0.0622569323,0.00151700852,0.07851369,0.08202345,0.04386358,0.0434959941,-0.06953877],[0.0445342734,0.012302028,0.008958688,0.0142654879,-0.01704553,0.0278564561,-0.0143885836,0.0530015044,0.06313222,-0.0244125761,0.010813335,0.03564757,0.06301812,0.08763937,0.0532921068,0.0246224534,-0.0100519415,-0.0254537445,0.09405321,-0.0507197,0.06527465,0.08873155,0.0346291028,-0.0144191729,-0.09838414,0.08815083,-0.050169155,-0.016996149,0.0480036736,0.06777397,-0.0543798357,-0.07903109,0.0497311242,-0.006442094,-0.0316966847,-0.0688718855,0.03752049,0.05061815,0.0408380255,-0.06220858,-0.0705950558,-0.002526433,0.0234514624,-0.008031069,0.0115611181,0.0800417,-0.009421954,0.08957697,0.0481451675,-0.0473005362,0.07017088,-0.04793762,0.08550511,0.0660421,0.03984391,0.05598616,0.0437560864,-0.04196252,-0.0198124927,-0.05530841,-0.00305869617,0.06721817,0.06803607,0.007615355,-0.00514184032,-0.06518972,-0.0884539038,-0.0386499353,0.09837577,-0.0198988374,-0.0233366154,-0.0494406223,0.07817868,-0.05343396,-0.0455173068,-0.06642237,0.0151909245,0.06589162,0.06418682,0.0613527521,0.0523705222,-0.0698364,-0.09128241,-0.01621422,0.0213265251,0.0391287059,0.04923771,0.09509851,-0.0785189047,-0.06702101,0.02687799,-0.00989033747,0.0007069427,0.0521755144,0.0335841477,-0.0578016751,-0.06100952,0.0242955144,0.0527436435,-0.0854943544,-0.0452489033,0.07802957,0.00110761414,0.0190580655,0.003916521,-0.01757636,0.0708229542,0.0655739456,0.0291729867,-0.0666882,0.06986165,-0.0660164058,-0.02957281,-0.0491828658,0.01834159,0.05912,-0.00445784628,-0.03553124,-0.0599536933,-0.0316929147,0.0004620965,0.02544654,0.0328945555,0.055091586,-0.009589761,0.08763342,0.0542245731,-0.0573614724],[0.01910928,0.0371348672,-0.06735661,-0.09745199,0.0305269584,-0.0776511952,-0.0411207564,-0.0368247442,-0.100473218,-0.09517162,-0.07201289,0.03549779,-0.02371897,-0.07585897,-0.07502746,-0.02050031,0.0110144587,-0.0922441259,0.000117764779,-0.0392219834,-0.0176745541,0.077020824,0.03478508,-0.06621573,0.06600853,-0.06730399,0.0640936,0.0807586759,0.08156241,-0.0243229587,0.00123294455,0.0854295641,-0.0208803229,-0.03436501,0.0400261,0.00585501175,0.104128256,-0.03946776,0.04869442,-0.0210722461,-0.009947183,0.0184263755,-0.03831637,-0.0036726892,-0.0183029622,-0.0332594439,0.0655134842,0.0515321,0.0508365035,0.0024636935,-0.0109758144,-0.0158349033,-0.00776171824,0.08184553,0.0160949826,-0.0717655048,-0.07279147,-0.06991012,0.005098895,-0.06336599,-0.0271115527,0.0520798676,0.00122003374,0.0686614141,-0.007172644,-0.08845235,-0.0633531138,-0.0150794238,-0.0137448171,0.0113198133,-0.07345885,-0.03307706,0.0832091346,0.007959325,-0.02885404,-0.08262044,0.0372571573,0.02693664,0.07805536,-0.0984725356,-0.007084642,0.000893333869,-0.08076989,-0.110703819,0.08097322,0.06306844,-0.0258916244,-0.06365045,-0.009002301,-0.0520226,-0.031079039,0.0254719686,-0.034651082,-0.0357198156,0.04765681,-0.0580369644,0.0153212808,0.009348892,-0.0417094752,-0.0487482734,0.0163462628,0.00632296735,-0.0449010953,0.08476781,0.04451206,-0.08082197,-0.0568336435,0.09725026,0.03857429,0.02321955,0.0816767,-0.00426013861,-0.0542328171,-0.00309749157,-0.07259154,0.07228551,0.0102138538,-0.0253899451,-0.0226276536,0.00670871,-0.0380053073,0.08939694,-0.0672175,-0.06884564,-0.08303837,0.0208119936,-0.0319583043,0.0609925948],[-0.0116644595,0.0260567255,0.0274895448,-0.05768647,-0.04413043,0.0215638671,-0.0547178127,-0.000549687538,-0.0324481651,0.06982168,0.050111264,0.0340799168,0.04926458,0.07515996,0.08069244,0.0615035072,-0.0689879,0.0205971543,0.0721133947,-0.0167601928,-0.0575292371,0.061116036,0.07294591,-0.0243840534,-0.08243492,0.06964958,0.0486066751,0.05503249,0.0180172753,0.00481709326,-0.05726932,0.06495844,-0.0749046355,-0.009814357,-0.0441323966,0.0801906958,-0.022483591,-0.0222012829,0.101928808,0.0254319459,-0.0226251539,-0.09184604,0.009635303,-0.03478946,0.0283146147,-0.03327847,0.07744303,-0.04995691,-0.06083309,0.00572772976,-0.0586732961,0.0120436847,-0.0432894155,-0.04614932,0.06891721,0.07797555,0.0257632062,0.0451078862,-0.0274853762,-0.0415749662,0.06434375,-0.07567695,0.037014015,0.02132881,-0.0804855,-0.005637229,-0.0451922044,-0.1009755,0.0672842041,-0.07590051,-0.09512691,-0.00342213,0.0541070327,0.05573834,0.03364871,0.007213129,-0.030311998,0.0012372334,-0.07095041,-0.0295687523,-0.061171934,-0.0289686043,0.0601320863,-0.0114047332,0.0215053912,-0.0324360542,-0.08045081,-0.0259428732,0.07122079,-0.0417535,0.0291016456,0.00763445767,0.06754879,0.0154179446,-0.07825512,-0.0168415252,-0.08008737,0.0367390849,-0.0727558658,-0.0406431556,-2.602661E-05,-0.0118771847,0.05584265,0.0296902843,-0.0475145578,0.0443439633,0.0201451425,-0.05414892,0.04681519,-0.0865912661,-0.07527521,-0.054613024,-0.05144245,0.02546891,0.06171549,-0.00584656838,0.0526601337,-0.07688835,-0.00424952526,0.04457963,0.02527523,0.0609027073,0.0306915864,0.00147979765,0.06444492,0.06261964,-0.0357093066,0.005229419],[-0.07032135,-0.0476543456,0.03177551,-0.06226321,-0.0515784174,-0.036654897,0.100246415,0.0226200391,-0.0473928228,-0.0595987,0.0488127023,-0.002455034,0.0127098365,0.0449466,0.0375418849,0.04730084,-0.0561233833,-0.0732341,-0.0322123021,0.0161143262,0.06667032,-0.0861128345,-0.0100343321,0.0208821446,-0.06679992,-0.0611247681,-0.05136805,0.09921173,0.03387235,-0.0195168313,0.008643132,-0.03864839,0.05083936,0.07473039,-0.03160723,0.08076108,0.0161075555,0.0162385833,-0.06532232,-0.0471597351,0.04382498,-0.0921134,-0.0578668229,-0.0351662822,0.0149677722,0.0361446366,-0.04442031,0.05595648,-0.05034822,0.033060737,0.06968745,-0.00751536945,-0.04501859,-0.0893973559,-0.07366055,0.03593499,-0.0517038479,-0.006064639,0.05924215,-0.0163610652,0.07387524,-0.08697179,0.03570885,0.08025667,-0.03003986,0.09080773,-0.08177419,-0.0676696748,0.0136797139,0.0159363039,0.00117980619,-0.00266318838,-0.0411876626,-0.0219263788,-0.0257016923,-0.00149848149,0.0439552553,-0.0156791732,-0.0109776258,0.06744069,0.034048114,-0.0542241149,-0.05081355,0.03880218,0.0596240945,-0.0879788548,0.0265713688,0.0540535524,-0.04541362,-0.01236436,0.0441335961,0.07910771,-0.08288899,0.06235786,0.0571503043,0.11595431,-0.0868946,-0.0652993843,-0.07950237,-0.0255321823,-0.0118170753,-0.0490048677,-0.01485627,-0.0123487683,0.03600586,-0.030018799,-0.06331838,-0.08729919,-0.000334052369,0.07148541,-0.04574622,0.0626884848,-0.0643936843,-0.07014103,0.021650251,-0.03708848,-0.0546039976,0.0324672647,0.09153235,-0.0396425426,0.06427566,-0.08614544,0.08101646,0.02229374,0.0596707053,-0.0271735881,-0.02236253,0.0525221452],[0.07852792,-0.0265481714,-0.08605956,-0.05384944,-0.0218891911,-0.04548936,0.07007777,0.0284802951,-0.08016738,0.0355769061,0.0695125759,-0.0246593114,0.04181719,0.09561549,0.0510365069,0.0514861122,-0.0650425851,0.00620352,0.0589876324,-0.08209945,-0.0994893238,0.0140864048,0.01832859,-0.086987,0.02137584,0.06172544,-0.003052394,0.09325419,0.0143794268,-0.06676925,0.07841858,0.0254942626,-0.0225501582,-0.05539443,0.008648722,0.0607090741,0.0620451346,-0.08596701,-0.0426750481,-0.0458115377,-0.0633569956,0.07710584,0.055184193,0.079885684,-0.006211032,0.0536408871,-0.007022933,0.0341986232,-0.0261896867,0.08799601,0.051864747,0.0597813241,0.119564787,0.00411260361,-0.0596755967,0.008190842,-0.0151072368,0.0169817079,0.0207802728,-0.0216559246,-0.051269792,-0.0258082785,0.07729307,-0.006819238,-0.0050213146,0.08533984,-0.03092557,0.0602884181,0.02577983,0.0306725558,0.0204010736,-0.0264019258,-0.04906817,0.030656578,-0.0573305227,0.00784427952,0.0280235149,-0.0236712471,-0.08340001,-0.00433080271,-0.0159156453,-0.0716195554,0.0652364,-0.06916131,0.0303864982,-0.07299305,-0.07044025,0.100359373,0.09661112,-0.08660891,-0.07364874,0.06349066,0.0225124769,0.0538284257,-0.008776071,-0.07773907,-0.0781957,0.0451215655,-0.0904855,-0.0179950744,0.0408432074,0.00257765828,0.05080675,-0.057270553,0.08525515,0.07683335,0.031934537,-0.0105747022,-0.07587127,-0.03283844,-0.0268943682,-0.0291866455,0.08674211,0.0177373514,0.069430016,-0.0184325725,0.0101016257,-0.007959793,0.06984853,-0.07046598,-0.0398961,-0.07844052,0.04534175,-0.06202706,0.0471361727,0.009611942,0.07057183,0.0608438626],[0.03254493,0.0666348562,0.009528791,0.06693897,0.0836682841,0.0592572056,0.06113057,0.112856969,-0.0535666272,0.09042214,-0.0162995923,-0.0355002321,-0.04617531,-0.06171778,-0.0138047729,0.00382837537,0.0538131036,0.08057357,-0.0495148,-0.03730826,0.034380015,0.0114294672,-0.01200449,-0.00148695754,-0.05735811,0.0698711053,0.0503693521,0.02588869,0.07399891,-0.0892544,-0.0444593169,-0.02972403,0.08684639,-0.0507333279,-0.04776549,0.08509352,0.08650032,-0.07443655,-0.057009425,0.06471476,0.05717457,-0.08015989,0.0493673235,-0.03626889,-0.0619500428,0.04613374,-0.100454248,0.00530465972,0.0645395741,-0.0132172145,-0.0547224358,0.08977083,-0.0314138941,0.08882082,0.0305087939,0.0595814623,-0.0366964266,-0.05464515,-0.0655086562,-0.001781477,-0.006777779,0.0764469355,-0.0375327319,-0.06128985,-0.06612933,0.0969005,-0.04748714,-0.100215204,0.0286313631,0.0220231637,-0.08108359,0.0339377746,0.0257821064,0.0970163,-0.00963390153,0.08204061,0.0257994439,0.03278316,-0.06120286,-0.103218421,0.09200947,0.0128067639,0.0283179246,0.0267623812,0.021244036,0.078242965,-0.00185177394,0.0613903962,-0.0407416448,-0.0503820032,0.03119035,-0.05586533,-0.0534563065,-0.0524750128,-0.0117003992,-0.07857852,-0.0518518128,0.09285561,0.0307174213,0.0580508076,0.007091693,0.06337906,0.07412342,0.0338906,-0.05442984,-0.0473226979,0.04675423,0.0754491538,0.07656998,-0.06935321,-0.0628865659,-0.00511943828,0.0540326834,-0.0182990562,0.0101612546,-0.0104685118,0.066721715,-0.0722625256,-0.0617079474,0.0621192381,-0.0298123118,-0.0916249454,-0.0484322943,0.00359167368,-0.08249065,-0.01331429,0.045248393,0.0761861056],[-0.0249920413,-0.05128191,0.05538556,-0.042243693,-0.07299891,-0.00170122611,0.024416348,-0.0143501665,-0.08734907,-0.0380791873,0.014250691,-0.05968705,0.04348903,0.0307542067,-0.057353653,-0.0594966523,-0.0185721852,0.01998048,0.04433734,-0.0344221219,0.0891816244,0.0616066642,-0.05639852,0.04459374,-0.0771269,0.00321518932,0.04199975,-0.082731925,0.0336910859,0.0622183681,0.0519107021,-0.06942174,0.0249500554,-0.0110966582,0.04414665,0.0038329612,-0.0356856138,-0.0139572835,-0.08817054,0.002939209,-0.0468213446,0.0160693135,-0.0385319851,-0.08633902,-0.0374242961,0.0122624813,-0.06125534,-0.0132526178,0.08556726,0.0993563756,-0.0383133255,-0.009259477,0.07059484,0.07543724,-0.07555788,-0.0625713,-0.052968055,0.0100968191,0.02114661,-0.0200836323,0.0526817143,0.09437103,-0.006957705,0.0147234648,0.0599457137,0.0252716523,0.0454278141,0.07119455,-0.0328820348,-0.07892916,0.0834973752,0.061674688,0.00604761858,-0.0555351,-0.0558920838,0.0208894573,-0.07960831,0.08358449,-0.0551949628,0.0563043244,0.0551079325,0.038563326,-0.0603702925,-0.0184288882,0.0858038,-0.05936845,-0.0780315,-0.08187246,-0.007065102,-0.0101045826,-0.0144919893,0.074995406,-0.0619153231,-0.0407695919,-0.08728211,0.0112191336,-0.00190619158,0.0496664941,-0.07820456,-0.0221192539,0.09212975,-0.035827335,0.0217203032,0.07727337,-0.0406542532,0.00699090771,0.00461184653,-0.0355604626,-0.0247980356,-0.0660225451,-0.03806798,0.0564640425,-0.0487280525,-0.0594619066,-0.03329795,0.0273067951,-0.0256559476,-0.05511499,-0.0315150321,0.005956023,-0.01026104,0.07870229,0.0250626989,-0.0787390545,0.08523983,0.0706435442,-0.000217775858,0.0199735332],[-0.08106873,0.03978657,0.00524831,0.06497171,0.0546955019,0.0353055,0.09306127,0.0739019662,-0.107114859,0.05912918,0.0283861067,-0.04849483,0.09786942,0.0278101433,-0.0115869483,-0.0495808,0.04781225,0.07156246,-0.07344826,0.0222471487,-0.0225938167,-0.0203134324,0.07069117,-0.06855511,0.0677427649,-0.07249727,0.025007911,0.04284522,0.05121989,-0.009822343,-0.00380389253,0.0579408631,0.05546905,0.07347948,0.05124978,0.0212648567,0.07251234,0.08031471,-0.0880059153,0.009444655,-0.0766952,0.056623593,-0.07011838,-0.07407644,-0.09127304,0.06652444,0.04494409,0.01559605,-0.07814128,-0.071604535,0.0121383294,0.0438182727,-0.0289164521,0.0233061425,0.05011796,0.04207,-0.08138432,-0.00704757357,-0.06736086,0.04807316,0.07398728,-0.0215120949,-0.0450683348,0.0347464867,0.0312731639,0.009956411,-0.06714639,0.0440461524,-0.02208351,0.044293467,0.06764133,-0.0226540789,0.0772870854,-0.03839204,0.0597416572,0.0546333157,-0.0673310459,-0.02984782,-0.08949938,0.048494596,0.06344766,0.0174156688,0.00760867959,0.100365616,0.0149974,0.02752666,0.08405443,-0.008306007,-0.03978471,-0.0534662344,0.0123667819,0.0485539138,0.09452126,-0.0473821573,0.0006187159,0.0627624,-0.09055146,-0.00309099723,-0.0170648377,-0.07286233,-0.009618008,-0.0325966552,0.04326209,-0.0273510963,0.08909647,0.05627283,0.0491787866,-0.06441551,0.0306105111,0.0249140766,0.0782172158,0.0336154178,0.07659234,0.0623411126,-0.05813238,0.0614320561,0.034549173,-0.0198144969,-0.03644221,-0.054400336,-0.0413671844,0.008480105,-0.02214094,0.006092896,0.0875725448,0.007885238,0.0272948258,-0.0596769042],[0.0474961624,0.07709617,-0.09468129,0.0141643342,-0.00357412058,-0.0152095305,0.03409196,-0.0293739121,0.09184987,0.0426076278,0.0248173214,0.09766346,-0.00390081876,-0.07784479,0.06898688,-0.07568207,0.08225375,0.0302543063,-0.0181744229,0.0234511569,-0.07646588,0.0470124148,0.005455798,0.040997114,-0.02605372,0.0534987524,-0.0623142272,-0.0289595239,0.08104133,0.06874257,0.0107238088,0.026058577,-0.0288080275,0.01644814,0.02524849,-0.0137727093,-0.04357659,-0.00125776359,-0.0514081456,-0.112774752,-0.0227354057,-0.05177779,-0.07429109,0.026501799,0.04469976,0.0624093264,0.109751515,0.0970843956,0.00930548,0.0827875137,0.101545967,0.09026902,0.032344956,-0.102552958,-0.007914966,-0.04785976,0.0879615843,-0.0975401849,0.08825453,0.00260304916,-0.06876512,0.01787534,0.0432728045,-0.0338502228,0.06343186,-0.0451133624,0.003408787,-0.0117238918,0.0193842035,0.09425509,-0.04823377,0.0135988127,-0.0213959347,-0.06929016,-0.0431488343,0.04049868,0.00549732568,0.0299827009,0.08720587,-0.03120157,-0.002632378,-0.06850885,0.04388553,0.0325162746,-0.07451303,-0.04954898,0.0118061155,-0.0482704677,0.09272955,0.0266265981,-0.103846118,0.04740151,0.0427960344,0.019757254,-0.07946594,-0.02892263,-0.0390110537,0.0175468232,-0.05514472,-0.0318015032,-0.0699562356,-0.0948898941,0.09197323,-0.0509741828,-0.0412518159,0.000160671116,0.06203059,-0.06133324,-0.027990669,0.101739727,-0.03232254,0.00269403472,0.0519945621,0.08313977,0.08414484,0.0879949,-0.0518491529,0.0353107229,0.08710336,0.006136196,0.05453535,-0.006266438,-0.0330889039,0.01971082,-0.0667604655,-0.0146576883,0.0680253,0.04872928],[0.04549014,0.047245,0.0110963741,0.009103416,0.08349382,-0.06807873,-0.09768444,0.08988201,0.0569682643,0.078065455,0.06983896,0.0484265164,0.08882609,-0.08513155,-0.0179247987,0.0634084,0.0199344121,0.0578976,-0.0104544777,0.0337941572,0.10922493,0.0617459044,-0.06408238,0.0280408915,-0.038449984,0.09131272,0.07353422,-0.105843365,0.03992512,0.009734485,0.0339609943,0.09333038,0.07349637,-0.0548177138,-0.0403054021,0.0318622924,-0.084465,0.044804465,0.0432372168,0.0396146551,0.03647792,0.017696,-0.0306021776,-0.01993211,-0.03732149,-0.09191733,-0.0129226865,-0.0360150561,-0.0311874878,-0.0560719557,0.0107730841,-0.072130546,-0.07980492,0.0584548563,-0.05714453,-0.0884315446,-0.09948745,0.07388109,0.00528482348,0.0732888,0.00621708948,-0.07644008,0.0002761901,0.0510551855,0.0409257039,-0.047282394,-0.06304193,0.0246495437,0.07412195,0.08361697,0.07609721,-0.04294665,-0.089117974,0.0387560278,-0.0287879426,0.0444228724,-0.0624382347,-0.03148434,0.051966805,-0.09251771,-0.0035583335,0.0059853415,-0.0123650385,-0.0126017854,0.02723637,-0.0429533161,-0.0682286248,-0.042787943,-0.0790666342,-0.0154233444,0.0464871153,-0.0152796106,-0.00508658355,-0.0531382225,0.0300373416,0.00642153,0.0783054754,0.0413676165,0.06531172,0.0317715034,0.07627495,0.0252943411,0.009808973,0.0606275238,-0.0259967782,-0.0682766,0.0312986,0.02261831,0.0390507542,-0.0144581227,-0.07177762,0.0957004,-0.04137084,-0.006779978,0.050662782,0.08140987,0.0820245743,-0.0462703146,0.03903338,-0.0488411523,-0.06722668,-0.02149606,-0.07128768,0.00995266251,-0.0002805082,-0.07456156,-0.0281661563,-0.0105433175],[-0.0358524658,-0.0323803276,-0.04067006,0.0539536141,0.0178246964,-0.0131031424,0.0555119962,0.007174067,-0.07469082,-0.0131924814,0.00770894624,0.02493918,-0.0665691942,0.04307457,0.0736387148,-0.0560210459,-0.014123519,0.0102738617,0.06646407,-0.0591288172,0.0581969619,-0.0740478262,0.09059943,-0.0583909154,-0.07233281,-0.0290893354,-0.0738488,0.06570888,0.0688867,0.0523109064,-0.0434799157,0.0515616722,0.0464645438,0.0436620563,-0.038934622,-0.02092195,-0.006122382,0.008387688,0.0759667456,-0.09309788,-0.04804186,0.0676370561,-0.0197657067,0.00727973739,-0.0143669341,-0.08441136,0.07628211,0.09798581,-0.0272762384,0.00144576619,0.08406564,0.0046137874,-0.00277396524,-0.03196096,-0.06306307,0.0117489016,-0.06860537,0.0363913,0.0439507328,0.0850132,0.02631174,-0.0159037579,-0.09346897,0.0242565945,-0.0880213,-0.0332389,-0.0355841741,0.0302028172,-0.0802663639,0.0575160943,-0.0194485635,0.03107616,-0.0660552,-0.00336359185,0.051846087,0.0289566163,0.08822146,-0.006702392,0.04773543,-0.0780535638,-0.0619175658,-0.03214158,-0.0799350962,-0.06142003,-0.0352286622,0.08816399,0.07837186,-0.0156885348,0.07734175,-0.02534138,-0.08325011,0.04286464,0.06244763,0.0887887254,0.04696875,-0.0400507227,0.0586769469,0.07627671,-0.0726441,-0.0206595268,0.0110685648,0.0172134638,-0.06264607,0.030425122,-0.00128646544,0.00794955,-0.0353613235,0.0365187973,0.0435073264,-0.0738591254,-0.05874252,-0.0604806021,-0.09450272,0.031262394,-0.0449688546,-0.08839663,-0.03195289,0.0101898154,0.04174914,0.0784549862,-0.05569777,-0.04691833,0.00476662768,-0.08020839,0.03422635,-0.0581311621,-0.0465272032,-0.0683512539],[0.0792486,0.08046967,-0.0596005246,0.05492208,-0.01915403,0.00046333007,-0.00182580343,-0.0168648269,-0.037911173,0.0715004951,-0.0372528844,-0.06318662,-0.0432924069,-0.0154728182,0.11587657,0.0061695734,-0.07231089,-0.000795877,0.08876884,-0.07006701,0.0279086418,0.0218333825,0.08562106,-0.0387193449,-0.03871074,-0.06198714,-0.02639286,-0.08905488,0.07897155,-0.06035087,0.0405016057,-0.07575433,0.0655086339,-0.0600028634,-0.030070778,-0.0320554078,-0.08599275,0.0114545664,0.0862574056,-0.057660643,-0.034460865,-0.04354474,-0.04481058,-0.08715926,0.100071676,-0.0354163237,0.00232504448,0.06431312,-0.0870058239,0.0422846042,-0.0582253374,0.06297491,-0.03864378,0.02448884,0.103285469,0.0363568179,0.02128362,-0.041103337,0.07366348,0.03404747,-0.0153594315,0.0567429438,0.0314768963,-0.04737369,0.0138466805,0.0400027819,0.0604000241,0.04476231,-0.0526294932,-0.04237803,-0.0101579251,6.578332E-05,0.042323675,-0.0113060195,0.002412264,-0.06343949,0.05220738,-0.0553389639,-0.0662564039,-0.10761036,0.03602824,-0.09515758,-0.010750562,0.0436100326,0.07014166,-0.030261904,-0.0807516053,-0.0649365559,-0.03278771,0.0258044,0.0606360547,-0.0121835293,-0.020179579,0.0284681227,0.037658643,0.06765727,0.03347927,0.06479724,-0.108335711,0.06353774,-0.0599609464,0.07697031,-0.0501523577,-0.0313162,-0.07881234,-0.0217880383,-0.003997147,0.110610574,0.0100962613,0.0134405708,-0.0578704178,-0.02661697,-0.037248522,-0.0240306277,-0.06736672,0.0950603262,-0.0701248,-0.0230160877,-0.04654029,-0.00168009009,-0.05436275,-0.0543957762,-0.024177663,0.03836001,0.07099324,0.0574783236,0.07569088,0.0438927338],[0.0597734675,-0.0368186757,0.106730089,-0.014035712,0.0100858258,0.0199310817,-0.0265059825,-0.0579615869,0.0345369875,-0.0963206738,-0.0005663245,-0.05725792,-0.0241927356,0.03125104,-0.07107992,-0.0165638439,-0.0199466981,0.07898066,0.07278721,0.02241339,0.0199624076,-0.06625089,0.04776361,-0.0944446,0.0516244471,-0.026989758,-0.0202295929,-0.0370189175,0.00331537053,-0.0409646146,0.0725737959,-0.08615732,0.06690926,0.00440720236,-0.09398303,0.09568925,0.009648085,-0.0153294653,-0.0252400655,-0.0100820241,-0.04182444,-0.0148029728,0.08713316,0.0243150238,-0.0328425877,0.0398905426,-0.07040053,-0.020938579,-0.0495955,-0.01821357,-0.0605196543,-0.03748879,0.03505843,-0.07467072,-0.07674151,0.0673712045,0.008290508,0.07730849,-0.0217946712,0.093551755,-0.0121345418,-0.0393525548,-0.07342943,-0.07653772,-0.06623324,0.0389022268,-0.0520048738,0.101709172,0.0253343247,0.02891764,-0.0563754179,-0.0265039317,0.03022319,0.0214955825,0.058884576,0.105873384,-0.0255998224,-0.08838522,0.0496430844,-0.03622418,0.08549265,-0.05616547,-0.07116769,0.0605655722,-0.07500774,-0.07012181,0.0246160775,-0.05407732,-0.09441683,0.0556488149,-0.0744908452,-0.0309737772,-0.008637401,-0.00721431337,-0.06416002,-0.0499406867,0.0167200975,-0.0463130623,-0.07199874,-0.0158629883,-0.009871951,0.0400227755,-0.0434077121,-0.05401248,-0.01666603,-0.09031906,-0.06275562,0.08293916,0.0625936761,-0.0935018659,-0.0115754,0.092797,0.04962177,0.07747136,0.0523402765,-0.06904243,0.0963326842,0.0822059959,0.06283226,0.0516372249,0.020384999,0.0702492,0.0225742478,-0.00227794447,-0.0147254439,-0.0898032561,0.004740487,0.006230464],[-0.08177663,0.009360893,0.0376976952,0.08346402,-0.004695125,-0.06415759,0.0264043938,-0.0789009556,-0.0238736533,0.003135434,-0.0534248,0.0352478065,0.00731242169,0.02341458,0.005498395,0.0478421152,-0.0577189475,0.08157063,-0.06022028,-0.0878532156,0.0296781771,0.08068138,-0.08960863,0.01910603,-0.0680458844,-0.0834039152,0.0264951922,-0.0606842637,0.0164111014,-0.04737678,0.0206875186,-0.08456754,0.0233710036,0.0154893743,0.0313633569,0.022992501,0.06684197,-0.05148452,0.06924149,0.09008796,-0.08637665,-0.07752426,0.04690074,0.00339859212,-0.0648396462,0.0609116033,0.007006562,-0.01314123,0.07535319,0.0627053156,-0.0843085945,0.05184268,0.05934732,-0.05914065,-0.07616994,-0.04937392,0.0226605423,0.0202347543,0.0556625277,0.0567348674,0.0616261624,-0.07032657,-0.0706851259,-0.00561151654,-0.0438456275,0.007861189,0.0144434338,-0.05809302,-0.0266468488,0.0592005,0.0114515526,0.0111780707,0.00647031236,-0.07731905,-0.0117601063,-0.06517446,-0.00195291673,-0.0130912382,-0.0575439781,-0.07814079,0.09172412,-0.03251711,-0.0507426038,0.0585336648,-0.07925934,0.09425735,-0.05541607,0.05206231,0.009875008,-0.04627844,0.00230274256,0.0342947133,0.04797973,-0.085580796,0.06574742,0.05394997,0.0640190244,0.0759781152,-0.0287773516,0.0475159921,-0.0513365343,-0.03192391,-0.103524365,0.0490360074,0.06514597,-0.0592590161,0.02921394,0.0453431047,-0.08357464,-0.0792475045,-0.0342733823,0.09738423,0.07384642,-0.0505916141,0.0258543156,0.0742679238,0.00163007772,-0.07640927,-0.0269706864,-0.000395688665,0.0139313471,0.08186851,-0.07620881,-0.0222065765,0.007383094,0.08226806,0.01800457,-0.0496743545],[-0.0295822658,-0.0384248272,0.086807,-0.0105490144,0.0645634,0.0331443623,0.08729287,-0.0306528378,-0.0621106662,-0.0494002625,-0.0225714315,-0.0281880051,0.0148847811,-0.0138997938,-0.0294952821,0.07381707,0.0540629365,0.08233977,-0.0178251844,-0.0343591273,0.00280251168,-0.07913798,0.0203196052,-0.0607146174,0.09518415,-0.08070959,0.06422516,-0.0330619328,0.0149900634,0.0887285843,0.0735202357,-0.00757099735,-0.09837663,-0.04535225,-0.0524493158,0.0340167172,0.0791712254,-0.0591079965,-0.003737195,0.0129077723,0.0194635913,-0.0226615164,0.07977365,-0.0894919857,-0.015411594,0.06673612,0.0250672251,0.0578931943,0.08845368,0.042269215,-0.0661169,0.0655070245,0.056290362,-0.01442148,-0.0277689025,0.06576726,-0.08408634,-0.08102353,0.07085095,-0.0503698438,-0.07884925,-0.005338831,0.07603031,-0.101156048,-0.0417549573,0.06775621,0.07390772,0.0438846536,0.0553460419,0.0735697746,-0.069813475,0.0712621,-0.08458707,-0.021116294,0.07495515,-0.07775527,0.096261315,-0.0409965441,-0.012555453,0.03868073,0.05064803,0.0243210047,-0.07511531,-0.0142336078,-0.00692228135,0.0163116064,0.08151242,0.0104682678,-0.09456039,-0.0236502215,-0.009422025,-0.0314508937,-0.09375647,-0.06746025,-0.107937634,0.0117676463,-0.08172274,0.03843089,0.08832974,-0.05118211,0.047570724,0.059223488,-0.03627421,0.07757676,-0.08677046,0.0306487028,-0.0315867923,0.0195138026,-0.0156823359,-0.0705109239,0.06471933,0.0471851751,0.0566252172,-0.0428574458,0.07455811,0.0280596148,0.0286049247,0.08523448,0.0778260455,0.007848248,0.0242299065,-0.019586077,-0.0301949345,0.09136793,0.0513901748,0.003240148,-0.0726748556,0.00233047456],[-0.06968847,0.0294553246,0.05674709,0.0593247935,-0.01631678,-0.01628556,-0.03288778,-0.0233347956,0.0252167024,-0.0131262,0.0225645639,-0.05908499,-0.035055317,-0.09436365,-0.06750937,-0.0721916,0.0933822,-0.0813536,-0.00249270559,0.0956076756,-0.07637646,-0.00432636449,-0.0520100035,-0.009697742,0.0424496457,0.00524626859,0.03621608,0.0223933533,0.0606910735,0.0946475342,-0.0632514656,0.0499410555,0.008411103,0.001779688,0.03317478,0.0160283241,0.08423987,0.04353603,0.0171049032,-0.04085794,-0.0584311672,0.0770639256,0.04842169,-0.0582673736,-0.0151326088,-0.0761985,-0.05563376,0.07504534,0.03986884,-0.08056314,-0.0445869826,-0.08343935,0.006885677,-0.06447603,0.0680767,-0.0708297044,-0.0727709159,0.07475373,0.0795117542,-0.10496664,-0.024885295,0.0021674817,-0.0461067557,0.0388940573,-0.0244578347,-0.05231361,0.0891739,-0.118835412,-0.07601716,-0.04446517,0.0528267771,0.0414754972,0.017741533,0.0291197877,-0.03318245,-0.0133063439,0.08833716,-0.08104681,0.08069787,-0.02442484,0.0851848051,0.03106365,0.0231131949,0.08036432,0.06861454,-0.0210854318,0.07821565,-0.07344124,-0.02924409,-0.0154925631,-0.0531354137,-0.04154847,0.0542724431,-0.042659644,0.08498431,0.0115228873,-0.09554065,-0.0536806844,-0.0459539331,0.021962937,-0.0297987144,0.04955934,0.07002594,0.0406459346,-0.00206168834,-0.0434667058,0.0427231453,-0.0052859853,0.0592298545,-0.0327655636,0.0292877574,0.07271973,0.07677505,-0.00411019148,-0.0604463741,0.0102135371,0.00153829553,0.04228556,0.0185894258,-0.07703052,0.08763262,-0.08082915,0.0436790176,-0.06984185,-0.0920498,-0.0326056145,0.07188031,0.0586519577],[-0.0623102747,-0.08497913,-0.0248124972,-0.06961747,0.0208519623,-0.0604659,-0.0121906847,-0.0124851437,-0.008480341,0.00105526089,0.08412716,0.0417968854,-0.0462677963,-0.06447191,0.000550657569,-0.0536012352,0.02067686,-0.0486378968,-0.051000867,0.0208328813,0.0377938077,-0.011171462,-0.00581857562,-0.0607255846,0.05754378,0.0741389245,-0.09705468,-0.0364986062,0.01969311,-0.0545230769,0.0316434354,-0.07934817,-0.0585766546,-0.08344164,0.08852653,0.004259567,0.07438856,-0.034841042,-0.0114200376,0.07472057,-0.08031355,0.03248146,-0.0532551631,0.06098355,-0.04461118,-0.06931597,0.0002470726,-0.0303171072,0.08397446,0.0610866919,-0.0592830926,-0.00312016741,-0.05466111,-0.0407133624,0.0382594466,-0.0417152643,0.0835492462,0.0608589724,-0.00922311,-0.03442661,-0.03365986,-0.0299240369,-0.0915325359,-0.0611683428,0.07884724,0.0147925615,0.0397991128,0.0569451451,0.00108277285,0.0236655641,-0.0248437226,-0.07956732,-0.02754976,-0.07341055,0.0163339935,0.0854404941,-0.066766,0.0254985467,0.0595443621,0.06021083,-0.0419639461,-0.07688659,-0.0399975181,-0.0909682959,-0.01757324,-0.02966483,0.004652911,-0.0988774,0.0487395935,0.0354492925,0.100361615,0.0347654447,0.06815917,0.0237060785,0.100451738,-0.008765255,0.0603092723,-0.0077823624,0.05552941,-0.05656832,0.0560587049,-0.0009441932,-0.0286545474,0.0604167432,0.07206796,0.0570649169,0.0886502638,0.0449994951,-0.004434639,-0.0167480391,0.0151868667,0.03255173,0.06900619,-0.0210426487,0.0384287834,-0.0172310621,-0.08638865,-0.0255590621,-0.0859833062,0.03932759,0.04772197,0.06697147,0.0858427957,-0.02505248,0.09108272,0.07525574,0.00451412238,0.0217353813],[-0.0289056171,-0.07261374,0.07118031,-0.0469873436,0.00321594649,-0.0642983541,-0.0713986,-0.0538153835,0.0542127,0.0698822439,-0.0148294633,0.06607227,0.05934521,0.0386753231,0.0241273511,0.03240352,0.07397919,-0.06569379,0.0376747772,0.025249308,0.0136981476,0.0522607677,0.07157621,0.0505032167,0.0100927548,0.0226057153,0.029182706,-0.04445371,0.008806627,-0.0609171875,-0.0470658019,0.0157628022,0.008658192,0.0511800461,-0.028649617,0.06011334,0.0230676811,0.0303750057,-0.06777217,0.0192210916,0.0564606152,0.00726287626,0.0262263454,0.07250958,0.06006576,-0.008953412,-0.0474994853,0.04476576,-0.0152985156,0.0978875,0.09391541,-0.0123894894,0.09286969,-0.07210189,0.0371758156,0.0021616735,0.005369191,0.06319896,-0.0302609522,0.0306762233,-0.0192830749,0.04729159,0.0462719463,-0.00256373361,-0.0312058516,-0.0674893856,-0.0305025149,-0.00454114564,0.032210052,-0.07700765,0.06790241,0.03172643,-0.0326453038,-0.0404620953,-0.06336439,-0.09108671,-0.07573174,-0.0499272235,-0.02078056,-0.058194384,0.0953775644,-0.0157868788,0.0203023851,-0.09355589,0.05792136,-0.0527576022,-0.00580742257,0.03008829,0.0108091738,0.010461824,0.0440239049,-0.06868103,-0.055941835,-0.07799103,-0.072509706,-0.05824791,0.05580028,-0.0345007367,-0.09478236,0.0602081455,-0.101283632,-0.0224102717,-0.07041305,-0.0177304372,-0.01269698,0.08633604,-0.0738637,0.05892385,-0.0506659932,0.0457839,0.0606563278,0.000160870928,0.0435119756,-0.01699856,0.0491132662,-0.0125844534,-0.08333788,0.06798089,-0.0394107,-0.0603480525,0.06316036,-0.08192991,-0.02510525,0.0176223,0.0624957643,-0.0637789741,0.0418926328,0.0871403441],[0.000861707958,0.0375358872,0.06760149,-0.00721231475,-0.0275498144,0.0152440537,-0.0294455234,0.0680684447,0.0570056252,0.0174061451,0.0430473275,0.0231833514,0.09342832,0.0819411352,-0.0506948866,0.08614918,-0.0482520759,0.0429098867,-0.06373714,-0.0614741035,-0.00354822143,0.008991348,-0.0223436225,-0.0620518848,-0.0112111857,-0.05462379,0.0549282022,-0.007261851,-0.0150226019,-0.07968417,-0.0300740972,-0.00260662,0.0418057777,-0.0187163055,0.08345548,-0.026916923,-0.0288253874,0.008436296,0.00180740259,0.0881988555,0.01887292,-0.06829506,0.009782766,-0.0547357537,0.0365727656,0.0645284653,-0.0628654361,-0.06892024,0.0616419427,-0.0467500649,-0.0561894439,0.000731833745,-0.0223674253,-0.02867911,0.0280841887,-0.0553058833,-0.02972805,-0.0274158083,0.0387136266,0.07092844,-0.06664234,-0.009275637,-0.108374447,-0.0430117436,0.06510844,0.0399806462,-0.09721331,-0.09327074,-0.08691615,-0.08958031,-0.08858087,0.07065888,0.07436581,-0.09233567,-0.007690534,0.09325742,0.0460908376,-0.03650846,-0.03476322,0.00240434939,0.0662565455,-0.08701444,0.0160079375,0.08723606,-0.0513517521,-0.0930428058,-0.0186311249,0.03682545,-0.00541456835,0.0183070581,0.06541421,0.0529577136,-0.0563004129,0.0671386942,-0.0900806561,-0.00960536953,0.05790773,0.0490522124,-0.07798619,0.0890453756,0.08724276,0.04691625,0.0801726058,0.0427396819,-0.0388919562,-0.02456994,0.07226927,0.0422920622,0.0388111025,-0.108780205,0.0290522352,0.000928306254,-0.0211593341,-0.0148193426,-0.0317383669,0.06740921,-0.0614648275,-0.00214990112,-0.07986986,0.100555465,-0.0103363385,0.067048274,-0.0679104254,-0.07512344,0.04968064,-0.09070642,-0.104851082,-0.0452540442],[0.07624118,-0.08634169,0.0575043224,0.008788201,0.0320415944,0.09328726,0.0904168859,0.0193061847,0.0206084568,0.06860038,-0.04811498,0.009001942,-0.0321585573,0.0517086275,0.0269161277,0.08571931,-0.0495689847,-0.0587110147,-0.00280689239,0.0116361063,0.0251865629,0.0320845954,0.00848094653,0.0164537374,0.04486973,-0.07540205,0.0247091856,0.02782917,0.07327268,0.02389247,-0.007174348,0.0587905943,0.05569703,0.00104127021,-0.0354115367,0.0478618741,-0.02800028,0.0526962578,0.0800914,0.0727959052,0.08086523,0.009698332,0.0343545228,0.0533794537,-0.07224103,-0.09749259,0.0326106474,-0.0236206912,0.0541375242,-0.00675005838,0.06931506,0.0624968223,0.0604515336,-0.0583164543,0.007551685,-0.0603715666,-0.0293445028,0.05199729,0.08962611,-0.00348713435,-0.109266065,-0.0354606621,0.0304145068,0.02856727,0.03924515,-0.02182314,0.03408915,0.04862474,-0.09350666,0.06765304,-0.05143392,0.0716783255,-0.0184258483,-0.08778158,-0.07945274,-0.0311889742,0.005130105,0.07370513,-0.0543627441,-0.03229345,-0.07125764,-0.04161929,0.04742548,-0.05151073,-0.0522898361,0.0319845,-0.0163894836,0.0599591956,0.0846349,0.05735317,-0.0289791543,-0.09258927,-0.08462623,-0.0428401642,-0.0917354,0.102062739,0.0971842,-0.0886984,0.0379859321,-0.05858385,-0.0793914646,0.00387788285,-0.0120497132,0.0260710027,0.04205392,0.0367245972,0.0453419238,0.0691538453,0.0310849678,0.08325575,-0.0009830849,-0.0947104841,0.084375456,-0.022553362,0.103850842,-0.08895532,0.0268678237,0.09228807,-0.08685758,-0.0171531364,0.08453207,0.0283789728,0.048123844,-0.0138337929,0.09248411,-0.056561172,-0.069952,-0.07401757],[-0.0531456247,-0.002392107,-0.05870065,0.0819552,-0.0823093,0.0505529,0.0272709727,-0.08054787,0.08278368,-0.01669576,-0.06286659,0.0529832579,-0.0429474823,0.0758532658,0.09760253,0.0793954954,0.0213025585,-0.0672046542,0.0271354634,0.0710387453,0.0142979883,0.07708009,-0.0108703142,0.0275512841,-0.06287479,-0.043148037,0.037467733,0.00677012466,-0.07107871,0.06440597,-0.0590552,-0.00730842724,-0.0301723853,0.0744063556,0.0576071478,-0.06104055,-0.0363429636,-0.0203500483,-0.0115554072,0.0323791541,0.0419184379,0.03090916,-0.0263619479,0.0697460547,0.0716354847,-0.0224684272,-0.0395717919,0.03555239,0.04061979,-0.01924958,0.03176211,0.103879035,0.0507719219,-0.09124336,0.06391382,0.0112879388,-0.0482083336,0.0471422672,0.10942664,-0.00093769317,-0.0210985746,-0.004197244,-0.0164432451,-0.00346328854,0.0191977043,-0.06682387,0.0324740931,-0.108584367,0.0240291487,-0.0105819907,-0.0695305243,-0.072401315,-0.0677071363,-0.0206369,0.04750831,0.07131035,0.0720965341,-0.08229622,-0.0616345629,0.0904306248,-0.09125996,0.05351636,-0.0262604933,0.0141942045,-0.00778429769,-0.0507490151,0.0921160355,-0.089396596,0.0423205458,0.06804257,-0.03709706,0.01837382,0.00140945846,0.0338590369,0.06286738,-0.02218007,0.047376,-0.0917185843,0.08345414,0.0486974753,0.00171282818,-0.0551144853,-0.0811135247,0.0193684623,0.009135802,0.00127175369,-0.02188799,-0.00600769976,0.04517922,0.0990787446,0.0506158732,-0.00445325347,-0.0306080021,-0.0157303512,-0.032160677,0.0203456953,0.0400680639,0.06961396,-0.0556826927,0.0214099865,0.0133210924,0.00576229254,0.0656838939,-0.0215044133,0.005084719,-0.0244517475,0.0808489248,-0.04810096],[-0.06943698,0.0573860779,0.0127090812,0.0885055438,-0.06220699,0.09038529,0.06496861,0.004706285,0.055003874,-0.004207168,-0.0573514737,0.05907213,0.08000007,-0.08846079,0.04244299,0.0607828237,-0.0457841866,-0.07386003,-0.0246197432,0.0691643,0.053919822,-0.02533668,-0.0144368857,0.03943825,0.0727911741,0.0516328737,-0.077055,-0.00383231277,0.00348234223,0.101426564,-0.0305805653,0.03425205,-0.0162463039,0.00132478448,0.007965385,-0.09873602,0.0508941673,0.07065766,-0.05667702,0.05581895,-0.0947094858,0.009894575,-0.0659374744,-0.06901066,0.0683367848,-0.0040404126,-0.0459438451,-0.0381182879,0.00271043438,0.0344685949,-0.0227197185,0.0211266056,-0.04999347,-0.05537743,-0.092647545,-0.06886023,0.0328240767,0.0230681431,0.04766246,0.08128974,0.0509973355,0.0106033748,0.04414017,0.08370965,-0.012227945,0.0407963,-0.08068185,-0.0614017844,0.02104867,0.07510042,0.0510519966,-0.0571300127,0.0452546254,-0.0181082189,0.08597113,0.0330210254,0.037778873,0.02153603,0.006515383,0.004517155,-0.025206022,0.00241716462,-0.00673614675,-0.0594171323,0.06659938,0.0462297425,0.026267739,0.0362244621,-0.004318713,-0.0831756,-0.04186071,-0.07407466,-0.09736907,0.0172390752,-0.05583677,0.0285919756,-0.00111365551,-0.0600207262,0.0293755643,-0.0163482,0.00225351774,-0.0219776426,-0.03679472,-0.0081742,-0.0916802,-0.0294328276,-0.0201414116,0.08158796,0.0455428846,-0.0163185578,0.04903009,0.033702597,0.09185012,0.0631710961,-0.0211512465,-0.0235158224,-0.0521367751,0.020749893,0.0107242642,-0.08303811,0.06514663,0.0270482153,-0.00112153671,0.0269841459,-0.0043254667,-0.0614672378,-0.04655753,0.0404182673],[-0.0402192958,0.04504107,0.05213855,-0.0219871588,0.0109383,0.09706936,-0.0680987462,0.09280395,0.05892098,-0.0170247462,0.009528318,0.0008540937,-0.0733404756,0.07255235,0.0941884145,0.08074972,-0.0620671436,-0.11989519,0.07451533,0.0107160481,-0.008658232,-0.0516219959,0.0167525578,-0.0848077759,0.0127204517,-0.0558506548,-0.00184452953,0.0349898264,0.0397707373,0.05398622,-0.07815799,-0.0511604063,0.06691604,0.04175087,-0.06679181,-0.102407783,-0.07336,-0.0344069526,0.03948309,0.0925740153,-0.0207650363,0.000446312362,-9.506596E-06,-0.0163145959,0.003604573,-0.105314977,0.0260540675,0.0904995,0.06915265,0.0322743,0.07242669,0.0126593132,0.0463614874,0.0578656644,0.09123837,-0.0503070876,0.0349245,-0.036023628,0.03342097,-0.0456255637,0.033726085,0.0477655381,-0.04040505,0.005810822,0.0158658139,-0.0597482771,0.04566022,-0.003162892,-0.07175316,-0.0131248236,-0.0892102644,0.06924473,-0.0690937042,-0.07252048,0.0407010764,0.06050507,0.06864572,-0.05592924,0.07668595,0.005206396,0.061430417,0.0365847945,-0.0380318761,0.0181703065,-0.0344192833,-0.0755323842,-0.0755599961,0.04495858,-0.0619003847,0.0494570956,-0.0419832021,-0.0396267548,0.0554097444,0.0889449939,0.109268092,-0.06891283,0.00126369507,0.08767136,-0.00580561161,0.009219722,-0.0318272375,-0.00115399668,-0.00414892659,-0.0412883759,-0.011495552,-0.0839801654,0.05468706,-0.041202832,0.03930399,0.0777675658,-0.0989502445,0.062163502,-0.0758153349,0.06832592,-0.0231495481,0.06402131,-0.03380889,0.06073992,-0.00381877716,0.04440776,0.00832361449,-0.00700835139,0.07568478,-0.06061952,-0.00244847359,-0.05556578,-0.08185959,-0.0189431943],[0.00237957551,0.0489646681,0.0150024407,-0.0966477543,-0.07848862,0.06616217,0.06823479,-0.0208018273,0.06244447,0.0689369,0.05984824,-0.0294536725,0.0397220068,-0.0233442187,0.0436151,-0.06945154,-0.0463380031,0.0461997539,-0.0383557975,-0.04676365,0.05379359,0.09558134,0.07580687,0.08877706,-0.0422142558,0.0421747,-0.07452314,0.0361229479,-0.0110584758,-0.03614462,-0.07022241,0.002149216,0.03527475,-0.06433669,0.0390935652,-0.009355008,0.08285199,0.00244862982,-0.0584213734,0.0426052138,-0.08084673,0.010002153,-0.0142015992,0.0920217,-0.05992478,0.0422130264,-0.07451964,0.0584141873,0.07896812,-0.0488343425,0.0614545271,-0.07246016,0.08507993,0.0101644276,0.0142605687,-0.0251845,0.04973293,-0.0140357753,0.01375688,0.0188660659,-0.04974507,-0.030241346,0.0426263176,-0.06226439,0.0591916926,0.0503400862,0.08534357,-0.0372756571,-0.0754803,0.09175092,-0.03465744,0.0404768437,-0.0100321379,-0.0571214855,0.03358428,0.029755652,-0.04469496,0.02394914,0.00471207174,0.0249406882,0.06875367,-0.05710627,0.0566027835,-0.0223333854,0.0346623063,0.0115023162,0.0163804833,-0.0108901095,-0.07143121,-0.05438582,0.0243079942,-0.0575801581,-0.03382014,-0.07385917,0.02830057,-0.0233915839,-0.0096191,-0.0405171923,-0.0200271867,-0.0190596282,0.02462375,-0.034937162,0.0760843754,0.0611713454,-0.0516112149,0.0241976567,-0.0428259261,-0.06073485,0.01467179,0.03004995,-0.06957741,-0.0247367918,-0.06270282,-0.0589221455,-0.04100437,-0.0372637622,0.0249988455,-0.0452326275,-0.0217305329,-0.0101670623,0.0343431123,-0.0527926423,0.0188136715,-0.0364245,0.0471043065,-0.05013283,-0.05904499,0.0115648741],[-0.0238510184,-0.0211033653,0.05817514,0.00372938,-0.08731576,0.096533224,0.0305798743,-0.0292287711,0.106712833,-0.0313112,0.009234448,-0.00910193752,-0.06449839,-0.05002562,0.061880786,0.0505881049,-0.02290777,0.0460304357,0.03911269,0.00656039873,0.022843726,-0.07563499,-0.04419257,0.0200547632,0.0270774756,0.05363537,-0.0379486158,0.0856308043,-0.05790973,0.007324957,0.0570614226,-0.07825063,0.07872972,0.0488444231,-0.05061952,0.08345623,-0.0333280228,-0.0529235229,-0.0592864156,-0.05399803,0.06333164,0.048653882,-0.0229407,-0.07608226,0.06761285,-0.07535351,-0.0009733618,-0.0560873933,0.102126442,0.0481857322,-0.05015855,-0.008872498,0.07824138,0.03783003,-0.0338948071,0.03709488,0.108643934,-0.0325824358,0.07509703,-0.0579446927,0.0357605256,0.0275704879,-0.02262388,-0.0530837,0.08484847,0.03087766,0.0590706021,-0.0399754941,-0.00432325574,-8.067898E-05,-0.0305067375,-0.0661658,-0.00748121971,-0.000132801739,0.08485537,-0.0103808278,-0.08541685,-0.07231055,0.08802657,-0.06557009,-0.07300151,-0.008438339,-0.0288630668,0.08775383,-0.0148248039,0.0391326174,0.05821701,-0.01680397,-0.07698014,0.04390069,0.02605703,-0.0100375647,-0.0626599,0.06863689,0.06424945,-0.07977005,-0.02646463,-0.05656445,0.110528424,-0.053276334,-0.0259606931,0.006155792,-0.00656057475,-0.06710473,0.07150697,0.0074731377,0.0176761486,-0.0773983,0.0259633772,0.0617150664,-0.020403577,-0.0178103242,-0.08551211,-0.0562450327,0.07443702,-0.010936561,0.00522794574,-0.0004994351,0.078715,-0.04470011,-0.007620759,0.004818198,-0.07187077,-0.0899948552,-0.0665091649,-0.0373823754,0.0281305183,0.03624285],[0.0377533138,-0.04470022,-0.0747733861,0.09541489,0.02708072,0.005192721,0.0117407078,0.08685133,0.004519828,0.06260462,-0.0810586661,-0.0390196964,-0.06932997,0.07526752,0.0469780676,-0.03902378,0.06280042,0.065113686,0.03692156,-0.08516557,0.03960072,0.008936511,-0.0882845148,0.0150099788,-0.0290123373,0.0155831035,0.02604339,-0.0286865178,-0.0556689054,-0.0158749,0.04430157,-0.0310613923,-0.03973565,0.08767108,0.0580737963,0.0232557468,0.07309705,-0.0407755375,0.0152217578,0.079888925,0.0378050841,-0.06630411,-0.02424103,0.00245463476,0.0552713461,-0.0005892228,-0.0610454455,0.060306672,-0.04482742,-0.0116037969,-0.0770821646,0.06962617,0.0223213974,-0.0275374763,-0.0663686842,0.04185825,-0.03763435,0.0005946369,0.0713291243,-0.06756878,0.000959996949,-0.0731863156,-0.06651628,-0.0223120674,-0.0909028649,-0.0187654812,-0.009134257,-0.03167329,-0.0501652,0.0289115179,-0.0128001869,0.07507496,0.0425638445,-0.07921923,-0.04870139,0.06993103,-0.04103065,-0.0631949,-0.07385925,0.04091315,-0.0817408562,-0.0208179168,-0.0839333758,-0.008265485,-0.0925182,0.06955393,-0.0471875742,0.07793219,0.0525798425,-0.0350254737,-0.04717163,-0.0276729334,-0.0228068177,-0.06577459,-0.0507969148,-0.0170344822,0.05917322,-0.0817049146,0.09725469,-0.00417021569,-0.09551413,-0.03521653,-0.006074566,0.04488945,-0.01156189,-0.0899266,-0.00331204,0.01100514,0.07123587,-0.0476667881,0.07725221,-0.070276916,-0.103812322,-0.066360116,-0.03410078,0.04967537,0.00482466025,0.0764961,0.0312145725,0.058314614,0.0407678746,-0.0223310329,-0.0461100452,0.0400450379,0.0027720267,0.088865146,-0.0741791651,-0.07746995],[0.0835308656,-0.031169381,-0.03146371,-0.0410841331,-0.0245186221,0.0312650949,-0.06948205,-0.0191472471,0.09361367,-0.052943185,0.04673601,-0.08214209,-0.06300368,-0.03896027,0.07482191,0.007241755,-0.01631142,-0.00337881269,-0.07693763,0.00810642447,0.02993034,0.0102943033,-0.07876777,-0.07377463,-0.0750895,0.0756893,0.04115885,0.011996747,0.0335416757,-0.0757266656,-0.008677898,-0.0170876626,0.06527565,-0.0139678428,-0.0835876,-0.07239824,-0.08491225,0.08787427,-0.03134089,-0.00579441758,0.04972813,0.017340865,0.0437510759,0.041347,-0.0516970344,0.0413776673,-0.0469887443,0.06439318,0.0489544123,0.0693012252,0.008404649,0.05671002,-0.07760521,-0.05562471,-0.031665083,0.0150705082,0.04765897,-0.0179582275,0.018604558,-0.0896545649,-0.0683936253,-0.04114862,-0.0420368426,0.05006315,0.0605333634,0.08036225,-0.0615239851,-0.02223844,-0.0122735268,0.0150505817,-0.01800546,0.02976738,0.06766285,0.0712795854,0.08983503,-0.08154994,0.07749092,0.005169821,0.06521787,-0.0249375571,-0.0369988531,0.004090717,0.104495004,0.044247508,-0.08928311,-0.09238227,-0.0787421837,0.04637071,0.081027694,-0.01638495,-0.0107493857,0.06191482,-0.0195497274,0.06424214,-0.03294937,-0.003972018,0.0149841066,0.0637649745,0.03120574,0.03129955,0.0654326156,0.03719782,0.0104714567,0.0571284257,0.04472435,-0.0345812142,0.0657432,0.004893051,0.0773556456,-0.00655399542,-0.0551975742,0.0393292271,-0.03048897,0.05225012,-0.0344172046,0.04654676,0.004320963,0.04155093,-0.0707571059,0.0184169821,-0.0161541589,0.07684366,-0.102842458,-0.0764761642,0.0444921628,0.0425302573,-0.03210688,-0.0250612],[0.02794438,-0.008345366,0.09290173,-0.0074276207,-0.0661183745,-0.03497717,-0.017617736,0.0967138559,0.03710343,0.0391046144,0.00429625344,-0.0303536616,0.07654999,-0.05801898,0.05815877,-0.05081516,0.0358224,-0.08654044,-0.0562860072,0.03977648,-0.0968843,-0.02883804,0.0736028,-0.0347589627,0.0297721289,-0.017543098,-0.0861325,0.05857637,0.03154095,-0.0872387,-0.0536635034,-0.0407381244,-0.00643798569,-0.0245637,0.0280902851,-0.07052345,0.008372673,-0.0235159639,-0.0599602535,-0.04993676,0.04556935,0.0437192842,0.0480788,0.01571941,-0.0590749644,0.0328489281,0.0832597762,-0.0217744019,-0.0197668429,-0.07204211,0.0589850247,-0.09205224,0.05629816,0.0877937153,-0.00100121181,-0.06536448,0.0197502747,0.0540159754,0.02965257,-0.08387969,0.110486642,-0.0905108,-0.08907928,0.07261813,0.01539919,0.0218016729,0.008190357,0.08304374,0.03141911,-0.01697914,-0.0489125177,-0.06104259,0.00524610141,-0.00812273752,-0.0530641265,-0.0132080037,0.07232308,0.0544601344,0.000635780045,0.0269056614,-0.0556242429,0.02169375,-0.01817426,-0.00193415768,-0.00572558073,-0.0140417917,0.0318876021,0.00225316919,-0.0464325547,0.0204303674,-0.0269243084,-0.0505700223,-0.0830979,-0.07048131,-0.0119496612,0.0270522125,0.0378088839,-0.0778838247,-0.07279949,0.0251560826,-0.07000026,0.0128754582,0.06239332,0.03766288,-0.0519677326,0.06454244,0.0176610369,0.099800095,-0.00425010873,-0.08824913,0.06074848,0.0124178547,-0.06085523,-0.07121365,-0.06477246,0.0599075668,-0.09171487,-0.0352311321,0.0587098934,-0.05306889,-0.022098342,-0.056654498,0.0227692463,-0.0500087328,0.077026,0.06304338,-0.0788969845,-0.05431017],[-0.0160958674,-0.082164824,-0.0175882336,0.0248802826,-0.0515227132,0.05036394,-0.0789419338,0.0491943024,-0.02986181,-0.0606435724,-0.0311449729,-0.08781293,-0.0233235788,0.0782908648,-0.07887066,0.0135914823,0.080421716,-0.06349068,-0.0486161746,0.0523904674,0.0272793584,0.08418105,0.08532208,-0.0150337787,0.07697616,-0.0718855038,0.00634190859,-0.0477198139,-0.015293194,-0.0126363244,-0.04265869,-0.0200445224,-0.0223130882,0.0806996,0.04036277,-0.04168654,-0.033059217,-0.0205797758,-0.0389388874,-0.0209530052,0.0444633067,-0.0926143155,0.0440706722,0.06254031,-0.0248462968,-0.0165812019,0.007907184,0.0306981523,0.0442582332,0.0611713454,-0.08648608,-0.07558419,-0.0114356242,-0.0328131877,0.00124677026,0.104592055,-0.0582447462,0.09339155,-0.06887857,0.0287437923,0.08465427,0.0237498377,0.03507197,-0.014735762,-0.0405697152,-0.059687987,0.067046836,-0.050548248,-0.0209233761,0.0205466,0.03902382,0.0558100156,-0.0268491544,-0.0289727431,0.0737617,0.001258922,0.00171505357,0.07707143,0.0389554873,-0.07221443,0.0108798677,0.0530086346,-0.02480809,-0.0822103247,0.004947335,0.0907605,0.0391122,-0.0543615371,0.08849824,-0.042979192,0.0845297351,-0.0461995862,-0.0911154151,0.0508402027,-0.07029861,0.06630501,0.005372937,-0.09146343,0.0620086566,-0.08670694,0.0258112252,0.0249115042,0.05070179,0.0173033681,0.08891336,0.0205616523,-0.0610775948,0.04483605,-0.00586112775,-0.0129554663,0.06783036,-0.08216979,-0.07626809,0.0103583653,0.02939775,-0.0532429963,0.04638421,-0.06525331,0.0588744171,0.0790814161,-0.0170609616,0.08555702,-0.00559967523,0.0466992371,-0.0489496328,0.031562943,-0.0155029139,0.006814774],[-0.0233221762,-0.006922928,0.0550760441,-0.0277797785,0.0480697975,0.0191835146,-0.0183018651,0.057074897,0.0476771556,0.06775907,-0.07312535,-0.0264383424,0.0506026633,-0.07459207,-0.0484109223,-0.08310032,-0.0255744234,-0.0162309576,-0.0144238509,-0.06986131,-0.0425125323,0.0748215839,-0.04730612,0.06659395,-0.005378061,-0.03455146,0.02324721,0.0479467548,-0.0147796292,0.09238363,0.0526463576,0.0386700965,0.0139669795,-0.0850098953,0.049244266,0.04314712,0.00192839885,-0.00579667836,0.0563976951,-0.0157968551,-0.0883553,0.009972821,0.0163822677,0.07858443,-0.0508769043,0.07534595,0.0971339047,0.07300332,0.0309648085,-0.0826078057,0.0668106,0.06055354,-0.0648099855,0.0345343053,-0.08905488,0.0544895455,0.08420267,0.04682746,0.0129948119,-0.09850179,-0.0815395862,-0.06277888,0.03293382,0.036170274,0.05536143,-0.0655098557,0.0660046041,-0.008752742,0.00369574339,-0.0112520987,0.0307078753,-0.0570868626,0.034839876,-0.00527876476,-0.00597562455,-0.00387540227,-0.0556893,0.0334121026,-0.06019816,0.07015603,0.0463855043,-0.0304130334,0.03864331,0.0482207835,0.02566579,-0.01651662,0.015795229,-0.03208115,-0.0154472953,-0.0554801933,0.0685730949,0.017074611,-0.0793280751,0.0562156029,-0.05503795,-0.0009427489,-0.0597971156,0.0236417465,0.0799588859,-0.03682135,-0.0259026773,0.07573175,