{"Layers":[{"ClassName":"Layer","Content":{"biases":[-0.101339035,-0.00357721047,-0.0324539132,0.0261656865,-0.0207214467,-0.0226109363,-0.00135277223,0.00254112436,-0.0942738056,-0.0874556154,-0.0176025517,-0.008615175,-0.0420554169],"useBias":true}},{"ClassName":"ActivationLayer","Content":{"biases":[-0.0173059888,4.54580368E-05,-0.007946733,-0.00316230347,-0.0242762957,0.04072918,0.00279275165,-0.0142185595,0.0279642791,-0.0102745751,-0.0101296473,-0.001985301,-0.010429143,-0.0316408,0.00643037027,-0.00266039232,0.009821235,0.0221525971,0.012177567,0.00113327941,0.0149842864,0.005970803,-0.0586648658,0.03608368,-0.0101140756,0.0170150176,-0.005098283,0.00276709837,-0.03358363,0.04756543,0.00065098604,-0.009341889,0.022755038,-0.0120135788,0.0134933535,-0.05544908,-0.00170693011,0.01100595,-0.0004471204,-0.0699486956,0.00728369271,-0.0187232848,-0.0135289636,0.005696357,0.000332195777,0.009387294,0.0299470238,0.05782566,0.0357178822,0.003087491,0.0211811811,0.01908913,0.0218081363,-0.0004317211,-0.00738136,-0.0239767283,0.00200015632,0.00603589555,0.0422898456,-0.00684440555,-0.01086992,-0.0076619843,0.0107326917,0.01346575,0.0346862152,-0.002374139,0.01962884,-0.0317672,-0.0449497178,-0.0154821258,-0.0123893525,0.0280637443,-0.01714748,0.0197253134,0.0141930711,-0.0114162844,-0.00390086439,0.0163916275,0.0203009266,0.0273235049,0.009646409,0.0197834671,-0.006462286,-0.0074485396,-0.0120520033,-0.00564427162,0.0281749982,-0.016268013,-0.02447577,-0.0396771245,0.0234059114,0.016478071,0.0010508697,0.00313661457,-0.016394943,0.00427959068,-0.010111318,0.00191862031,0.0203242078,-0.006771896,-0.00336312735,0.01617263,0.0202238467,0.0020909186,-0.0111291762,0.0341396965,-0.0180912539,-0.0439458154,-0.009954992,0.03951496,-0.009647377,-0.0140177226,-0.0215411056,0.0195131525,0.0279191565,0.05683754,-0.0454608575,0.0223458726,0.0248692911,-0.005407776,0.0365932733,-0.0230480246,0.01586221,-0.00625779852,-0.04945744,0.00622050557,0.0228285138,0.0206198152],"useBias":true,"func":2}},{"ClassName":"ActivationLayer","Content":{"biases":[0.028515216,-0.024355337,-0.196691424,0.0330205634,-0.04891312,0.015655281,-0.145316035,-0.1394453,0.138758317,-0.03799479,0.07533213,-0.0124459891,0.176479548,0.0284444019,-0.0402183868,0.0531934649,0.0665794,-0.1678492,-0.0210234225,0.146956652,-0.02363231,-0.121018648,-0.0196522232,-0.08842753,0.210600272,0.00480080675,0.0188664738,-0.09930202,-0.09529362,-0.119488589,-0.0205383562,0.180639848,-0.0255442243,-0.00128629548,-0.135513037,-0.04032383,0.0608976521,0.0289591514,0.0845827162,0.122938417,0.119536415,-0.05069593,0.0498132743,0.0314317346,-0.0135719059,0.211097345,-0.0928956643,-0.05789602,-0.0847829357,0.184935763,0.0191920567,-0.0758489445,0.106345184,0.164585263,-0.06264227,0.00827894453,0.0772030652,0.0074527273,-0.009682669,-0.115094066,0.0730048642,-0.1539075,-0.06858624,0.231203586,0.0457594879,-0.07408981,-0.1234093,-0.124522895,-0.032955762,-0.06088952,-0.0326720849,0.07575547,0.141136348,0.04180693,0.05854347,-0.167534724,-0.07851149,0.0228389073,0.0843868554,-0.0247119162,-0.0134521853,-0.07419132,0.0254373513,-0.02362309,0.03908094,-0.031009946,0.0497363769,0.0669153854,-0.0593703762,-0.0169610325,0.1056909,-0.031775,-0.0229937527,-0.0267840475,0.04713775,0.0261160471,-0.0195534974,-0.2201367,0.00180031511,-0.255191654,0.07780224,-0.0173036642,-0.08501909,0.07741134,-0.0442519821,0.002459745,-0.0177433435,0.133786619,-0.130706429,0.009977832,0.04728746,-0.05510082,-0.00087698194,0.133006185,0.109635256,0.0420160927,0.0776503757,-0.0414459556,0.00619485276,-0.120923117,0.0112326676,0.02847857,0.100169338,-0.0582834147,-0.0241285935,-0.144597277,-0.000217759472,0.00839388],"useBias":true,"func":2}},{"ClassName":"ActivationLayer","Content":{"biases":[0.104382768,-0.0526667424,0.3048478,-0.231400311,-0.179442152,-0.2905502,0.354536682,-0.0441462472,0.206722841,0.212138653,-0.128468633,0.06991502,0.282533348,-0.143427223,0.009830169,0.05452534,-0.133705109,0.18812497,-0.108938441,-0.217461929,0.07500299,-0.0183336325,-0.192040339,0.0504235141,0.0330920964,-0.0387279764,-0.0364371724,-0.166799083,0.0449651629,-0.0123662744,-0.347071469,0.169794157,-0.161672011,-0.04383226,-0.0483749956,-0.315511256,-0.17118749,0.223249316,0.105456471,0.0534207635,-0.201765969,-0.05685238,0.08910642,-0.373184025,-0.227094278,-0.134412915,0.0453325734,0.105614983,-0.00818306,-0.3148498,0.0544153862,-0.07358393,0.102662675,0.234688208,-0.213056624,0.285426,-0.171685621,-0.0315027758,-0.0223895013,0.265422046,-0.08005604,0.316603363,0.008905634,0.07063145],"useBias":true,"func":2}},{"ClassName":"ActivationLayer","Content":{"biases":[-0.213243127,0.104516447,-0.109887622,-0.0169822462,-0.349472463,-0.08748924,0.6302598,-0.241088,-0.000561691,-0.31455484,-0.218772575,-0.170473158,0.457529426,-0.54754287,1.23213625,-0.154155523],"useBias":true,"func":6}}],"Weights":[{"ClassName":"DenseWeightMatrix","Content":{"matrix":[[0.0369209,-0.0269107148,-0.0139330411,0.0213887766,0.0104582533,-0.02342309,-0.0247030929,0.01365548,0.0226604883,0.0122542093,0.00582374632,0.0194394775,0.00174946233],[0.0160739571,0.111152865,-0.00520568853,0.0231058728,-0.0420789942,-0.0213923,-0.017721463,-0.0113297058,0.0334458351,-0.005297301,0.0566408448,0.0135667054,0.0118098659],[-0.000594758836,0.0132111907,-0.0754365,0.0169636123,-0.0342315659,0.004889145,-0.002857119,0.00675323326,0.03019233,0.040837165,0.0313492,-0.007075081,-0.0295765456],[0.0151664158,0.09841906,-0.0280048028,-0.009668923,3.449071E-05,-0.00063201756,-0.0103753814,0.0201259516,0.03414861,0.0310708378,0.0614364333,-0.0189250521,-0.0461493134],[-0.0435052738,-0.07544964,-0.02094555,-0.0275501627,0.0410988145,0.0394608937,0.0132630616,0.00536548626,0.0219679847,0.0164396353,-0.0404961221,0.003608349,0.013149065],[-0.130115151,0.0288384948,-0.01255869,0.07777771,-0.0654634237,-0.0225299839,-0.004711137,-0.0568847358,-0.105005577,-0.08244252,-0.06148096,-0.0272664819,-0.0410615467],[-0.00016714989,0.0438413732,-0.004257273,-0.003712355,-0.0327790864,-0.004274539,0.0182206258,0.009655651,-0.00327321771,0.00153329864,0.0134928087,-0.0151497778,-0.0138575491],[0.009013532,0.09085366,-0.00108135492,0.0233529862,-0.0285826772,-0.0130339051,-0.0146300588,0.00256003975,0.0149177136,0.0140551366,0.0196954254,0.009325647,0.01189974],[-0.00307270163,0.0206550416,-0.0018742223,0.07591637,-0.013596246,-0.00191111991,-0.0166381951,-0.014448666,-0.02469559,-0.0144405123,0.0142858513,0.0272717681,-0.0178413577],[0.005361356,0.0123129273,-0.0769791,0.00299200742,-0.0228911676,0.006176825,-0.0132424189,0.01405609,0.02529928,0.03175381,0.0204096325,-0.0131812161,-0.0157852937],[-0.0237540416,-0.07483475,-0.0106554171,-0.0239262469,0.01966535,0.0294594187,0.0164983086,0.009823676,0.00869668,0.009552664,-0.0271672215,-0.006322869,0.00291900872],[0.0113463355,0.125909522,-0.0187200215,0.0346038155,-0.0315023176,-0.00365028856,-0.0128263906,-0.0243465342,0.0345193036,0.009873898,0.03536935,0.00648902962,0.01935572],[0.02261507,-0.009009055,0.0354868956,0.008935927,-0.0140065486,-0.0007788116,0.0173540451,0.0405726843,0.008710016,0.00637985626,0.0333808549,-0.04125704,0.0100193638],[0.046106115,-0.07671094,0.108407609,-0.0246335287,0.03229077,-0.0184293725,0.0195998158,-0.03459948,0.0472162552,0.0340510458,0.0241948739,0.106827579,0.0271426085],[0.05471894,0.06918464,0.0265265647,0.0512191467,-0.0102068288,-0.0123087065,-0.0296240132,-0.008059781,0.0204322729,0.0139395641,0.0295257363,0.0238102581,-0.0195984989],[-0.03305613,0.0746226758,-0.0508307554,0.0108872773,-0.0582609363,-0.0149324145,0.0292379446,0.04540394,0.0147130946,0.0254696012,0.0476676971,-0.06626343,-0.0287182033],[-0.114349134,0.03739134,0.008610109,0.0236382447,-0.0206211414,0.00553005,-0.02148558,-0.0697997659,-0.07590612,-0.0472582877,-0.06969059,-0.0585547127,-0.0125216236],[-0.0549322851,0.0574550852,-0.0595421232,0.01689489,-0.0123073757,0.03777589,-0.02893656,0.01652245,-0.0566168055,-0.0397792868,-0.0292779226,-0.0879823342,-0.0305901263],[0.0260899328,0.06366418,0.0138664925,0.0230625123,-0.0303112827,-0.0216351617,-0.0106987767,-0.0136585152,-0.008362448,-0.015226841,0.0207843259,0.0009601591,-0.00520993955],[0.0146959554,-0.0355028771,0.03973987,0.0104399854,0.00729623856,-0.00430368446,0.0308514666,0.01518865,0.006666379,0.0190760083,0.04379871,0.022102939,0.0262061972],[-0.0277947113,0.0897505,-0.139377251,-0.0224168021,-0.04364505,-0.01646807,-0.0272377543,0.00468222,-0.0471617,-0.0237441361,-0.02702213,-0.1192097,0.0209584925],[0.00916054,-0.007408148,0.0142161185,-0.000794135,0.003983426,-0.00313533633,-0.0148107139,0.00118888484,0.000862372632,0.00725369947,0.00623564748,0.01225936,-0.00775554776],[0.156967461,0.01393778,0.1504077,0.02458541,0.0996970758,-0.0140322447,0.007097249,0.03809535,0.127159968,0.09364267,0.06644265,-0.04507809,0.0147869531],[-0.05536205,-0.0149497008,0.0156757887,0.09957903,-0.00248583,0.00510365143,-0.0237621069,-0.06738741,-0.08035977,-0.0560274273,-0.0569735952,0.00383101776,-0.0192155186],[-0.024075266,-0.05291736,-0.008712177,-0.020227937,0.012411017,0.0172672812,0.0150804389,0.0122991661,-0.007803729,0.0014662738,-0.0274769068,0.004793004,0.0203327984],[-0.0461911038,0.05582853,0.0260632411,-0.06488056,-0.0161710624,0.0239904188,0.0241235364,-0.009621412,-0.0419145748,-0.04011169,-0.0260735955,-0.0595146865,0.01634614],[-0.0305778757,0.01735568,-0.0286004152,0.0243554,0.0154452194,0.02277426,-0.0235273261,0.00380078633,-0.0195201878,-0.007342116,-0.02374553,-0.0528587475,-0.000777161156],[-0.0441248976,0.0213707928,0.0128624542,-0.0327435732,-0.000147619023,0.012202722,0.00419192528,-0.00165635673,0.00173615967,-0.001341346,0.01139569,-0.00255541247,0.0113796229],[0.0779308155,-0.0281546954,-0.006890675,-0.09314993,0.01789917,-0.00811566,-0.0289315563,0.07711992,0.0734324455,0.05307325,0.01260462,0.00201032264,-0.03136743],[-0.07495536,0.08526428,-0.115748048,0.0202922169,-0.05656125,-0.008981071,-0.0322874,0.04394747,-0.08501407,-0.06134594,-0.0148118027,-0.124014027,-0.0503549837],[-0.05354896,-0.0725230947,-0.03023666,-0.0581357442,0.00494355569,0.007018582,0.0268886965,-0.002617712,-0.0197339226,-0.0159120746,-0.020468358,-0.0237498078,0.008645233],[0.0622149371,-0.0325023942,0.0288623925,0.05076996,0.051078625,-0.0229099784,-0.0500587225,-0.06323738,0.0134189753,0.0173046533,-0.0313685872,-0.0258566719,0.0164645761],[-0.06759203,0.0440404974,0.02400926,0.0786543339,-0.008192601,0.023633698,-0.0422291122,-0.0560297854,-0.03332054,-0.04593661,-0.0349169374,0.025472058,-0.0118038012],[-0.00185192807,0.191606447,-0.0601145625,0.03190359,-0.03627148,0.0103501035,0.0229943618,0.0189036075,0.05839477,0.0222010929,0.079219766,-0.0133954436,-0.0397870876],[0.0384535827,-0.09551028,0.06246363,-0.001049475,0.0345425345,0.014005186,0.00740168244,0.009504018,-0.07480162,-0.0544954576,-0.0612319559,-0.009675491,0.0337107629],[0.008221022,-0.00455981446,-0.0221788976,0.0230079517,0.04054242,-0.00644185161,-0.05624754,-0.01310351,0.0752972439,0.06832283,-0.0158277489,0.0232570767,0.0167389344],[-0.0039201933,-0.0384399258,-0.00458787568,-0.0104653519,0.0185431875,-0.00603882549,0.00724176364,-0.006963871,0.0147865461,0.008142921,-0.008699601,-0.003562575,-0.00623510452],[-0.03468159,0.0714415,0.0283282474,0.0421754755,-0.0204552282,0.0106968833,-0.0219925065,-0.0560304932,-0.0396116152,-0.0470877253,-0.03413552,0.0398816057,-0.00353295938],[-0.07972952,-0.0213900059,-0.0122976685,-0.00525919348,-0.00226636068,0.0111453645,0.0193104446,0.0217706747,-0.01209484,0.00389220286,-0.00974996947,-0.0121247657,0.0116992909],[0.17613861,0.0346950255,0.102427743,0.0892694145,0.0428468,-0.008397274,-0.0566563942,0.040259514,0.140268385,0.116640754,0.121007286,0.014563283,0.007919598],[0.008947494,0.111655682,-0.0130711524,0.0334842168,-0.03407247,-0.004495283,-0.0163295511,-0.009571012,0.0223716218,0.00640134234,0.0332165547,0.007549311,0.006743631],[-0.0311940312,-0.0524740443,-0.0135902651,-0.0100585278,0.0257936157,0.0199043974,-0.004213148,0.00179874769,0.0337036662,0.034570232,0.0102517912,0.008678743,0.00364113576],[0.08603779,-0.00176160526,0.09370372,0.011995757,0.0271537881,-0.0464130342,-0.00354782469,0.0349771343,0.0575121827,0.0146550331,0.05220506,-0.02160233,-0.0163168311],[0.0032963336,0.06019145,0.0153105715,0.0144047206,-0.0237572081,-0.00984630547,-0.0175106823,-0.008705445,-0.008099414,-0.00652774656,0.00689014839,0.00776980259,-0.0136588421],[0.00682151131,-0.0172530748,0.05622627,-0.00128121523,0.0171928033,-0.0070341276,-6.877684E-05,-0.00606431626,-0.0243888535,-0.0170267522,-0.0226075016,0.00606915,0.0184973236],[-0.06654483,-0.09048121,-0.0158130024,-0.009357928,0.0244278219,0.0368423536,-0.02628508,-0.0368716,-0.0230165757,-0.0291989911,-0.0412803963,0.03823234,0.00692216633],[-0.0301810261,0.0136100734,0.0409240425,0.00341927,-0.058279708,0.009868999,0.05536014,0.0311511122,-0.0360691436,-0.0224262066,0.0487675257,-0.0192607678,0.03652089],[-0.0158903077,0.05143262,0.045664642,-0.00671641948,-0.04420732,-0.03499563,0.00559125328,0.03922912,-0.06565046,-0.0693409,-0.00295719621,0.003926994,-0.0287637431],[-0.07194769,0.07023122,0.02181716,-0.00656673545,-0.0869563743,-0.00156188814,-0.0621685721,-0.02596673,-0.102744132,-0.0971207,-0.0403541923,0.0126530966,-0.037689],[0.0197278149,-0.0313265175,0.0507173166,-0.0275947489,-0.0058739325,-0.0163007285,0.0168565381,0.00144450809,0.0151621578,0.0150648877,0.024400847,0.06627326,-0.00780155463],[-0.0224816836,0.0744874,0.042842444,-0.0150040593,-0.01733897,-0.0212989971,0.00632309169,-0.0141726108,-0.04689533,-0.034149535,0.00612309575,0.0137661388,-0.03635648],[-0.09555341,-0.03780457,-0.0401684158,-0.0257227812,-0.0239326227,0.0206864867,-0.000952245842,0.0263878182,-0.0278016832,-0.0193746742,0.0105529651,-0.0235282,-0.0080561135],[-0.0229497682,-0.007926603,-0.0013469836,-0.06980195,-0.00621566875,0.0200576242,0.00681887474,-0.021321293,-0.0483476222,-0.0279205367,-0.02427083,0.00349001074,0.00226793881],[-0.0117896721,-0.1323373,0.0193239115,-0.0194891915,0.0311868973,-0.0170624219,-0.0155263152,-0.00507949153,-0.040613845,-0.0418452881,-0.0541952364,-0.000238053326,0.01565056],[0.00187023275,0.0528059267,-0.0329403467,0.05569412,-0.021722801,-0.023065567,-0.00602966174,-0.0238373131,0.0426009931,0.0169613361,0.0374067463,0.0436382741,0.0126822181],[0.0133852046,-0.0314227976,-0.0138724335,0.02988241,0.0497354753,-0.02851164,-0.04473659,0.0145021621,0.05216227,0.0401159264,-0.00134172349,0.0271748882,-0.0501518659],[0.0240199659,-0.06387596,-0.05740748,-0.0210603029,0.00452477532,0.0173208918,0.0228825621,0.0318635069,0.034934856,0.0117450124,0.03964134,-0.02758331,0.0195544921],[-0.0141835669,-0.09060384,-0.0007805471,-0.0172600672,0.0292822272,0.0287015717,0.0145929633,0.0128371119,-0.0280028451,0.003599572,-0.0320859961,-0.0102306893,0.00539934449],[-0.00533487974,0.05401678,-0.116732627,-0.04836899,-0.03378292,-0.008751561,-0.00118895608,-0.0138460686,-0.0980691,-0.0568801574,-0.03810383,-0.12545827,0.0393822156],[0.113693692,0.047987964,0.0324105173,0.01836577,0.0041455985,-0.0127668343,-0.01782704,-0.0510198735,0.0114238355,-0.00406169146,0.010339235,0.0251356,0.005724118],[0.0293742754,-0.0722225159,0.08875576,-0.0209676623,0.0430988334,0.001859811,0.0188264847,-0.06969435,0.0146204978,0.005870812,-0.0219835266,0.09783459,0.0477283821],[0.0133235641,0.126451537,0.00667995261,0.03707618,-0.06499046,-0.0422729924,-0.052599933,-0.0138481436,0.0174994916,0.0246098712,0.0277323928,0.0076545,-0.04052967],[-0.046229668,0.0189260878,-0.01568066,-0.0424763858,-0.09868388,-0.0027646902,-0.0137756346,-0.00283749355,-0.0357905775,-0.0439655371,-0.0183935035,0.00539549766,-0.06362098],[0.0344597548,0.06428537,0.0163145438,0.0223877449,-0.03207625,-0.0281058364,-0.00226630131,-0.008456102,-0.0159054585,-0.0195662435,0.03573419,-0.00283686514,-0.009804055],[-0.0342729,-0.0300558731,-0.0551050864,-0.0577301569,-0.07611733,0.0145231383,0.0120521262,-0.0152256424,-0.0708529651,-0.0411635339,-0.05992257,0.0411065258,-0.0447454043],[-0.0407381654,0.103752106,-0.0652569756,0.0046582045,-0.09080189,0.0256521963,0.0165573936,0.00623817742,0.0427941829,0.04354603,0.0572680868,-0.06944564,-0.0267604645],[-0.05529175,-0.07346994,-0.0362675339,-0.0309460368,0.00153595151,0.0243498944,-0.0115662338,-0.0155715337,-0.0438061878,-0.03432884,-0.04535268,0.0407350138,-0.006580922],[0.08262178,-0.036988426,-0.02689802,-0.0867658,0.0149578331,-0.0223668814,0.03743309,0.064484,0.0598061532,0.0528260767,0.0254188366,-0.0208639279,0.0182195362],[-0.0296803787,0.08536571,0.0110423416,0.021836983,0.0478338636,-0.0356736928,-0.000255216553,-0.0198608041,0.09268517,0.0782011747,0.06252926,0.04878123,0.0489126481],[0.0803692862,-0.03003165,0.1642106,-0.0274753943,0.06780313,0.00980343,-0.0327711068,-0.0756755248,-0.009546984,-0.0202525482,-0.0260979664,-0.00129981292,0.0419502],[-0.0416846648,0.133081973,-0.123794191,0.00192721537,-0.0876745,-0.0312241558,0.0214622188,0.0683835447,0.0203277748,0.0316090472,0.06605766,-0.0792584,-0.00971045252],[-0.1334286,-0.0158475731,-0.0435303934,-0.04974574,-0.0259061437,0.06956844,0.037963286,-0.0121539151,-0.08509798,-0.04639346,-0.043901097,0.0144056175,-0.0198193621],[0.0704115257,-0.07104169,-0.00844784547,-0.06971977,0.02578168,0.0204144642,0.08543639,0.0666936561,0.0515202023,0.03112139,0.0549147651,-0.0144076534,0.0395045877],[-0.05466638,0.0779394954,-0.104201525,0.01827269,-0.04131998,-0.0220752824,-0.022927057,0.0483893454,-0.05044822,-0.0312906876,-0.00706509175,-0.118535243,-0.0638073757],[-0.0106734736,0.02823426,0.0241089221,0.0374339148,-0.005758466,0.0142517751,0.0128254192,-0.0183654279,-0.04504874,-0.0225277189,-0.0109264534,0.0269677043,0.00594428275],[0.0282336213,0.04701197,-0.100784004,-0.000560953864,-0.0107136127,0.00617426448,-0.0498777144,-0.01563912,-0.03910317,-0.003030278,-0.05879256,-0.02342659,-0.0348314419],[-0.0555473529,-0.06745701,-0.04072216,-0.032188978,0.009741563,0.0415968858,0.008589876,0.024449639,-0.008430377,0.004266221,-0.0301425681,-0.008858102,0.019702144],[0.0379320756,0.06617539,0.0181650128,0.0238482915,-0.0334887877,-0.02755421,-0.00710857334,-0.007267038,-0.0169268269,-0.0209970083,0.03454222,-0.00372296013,-0.0114097428],[0.005708548,0.0192892,0.0129996967,0.00732150767,-0.0493461937,0.015775118,0.05257837,0.0329025462,-0.0212650578,-0.0273060147,0.0423857719,-0.0009874359,0.030378677],[-0.07585177,0.0230592582,-0.113430023,0.0255671181,-0.06499044,-0.00439134,0.03783532,0.0821875259,-0.015883429,0.003189605,0.03920034,-0.01764415,-0.0419674739],[-0.07882196,-0.0292761382,-0.0243246965,-0.00244721957,0.00340821361,0.0156973433,0.012042691,0.0136945825,-0.0187186264,-0.0125181321,-0.0125400424,-0.0157740228,0.011212308],[-0.0299408082,0.0995718539,-0.156319365,-0.0280562546,-0.04712482,-0.0199885741,-0.030984357,-0.0140650421,-0.056313213,-0.0125955045,-0.0306182913,-0.130607486,-0.00182936154],[0.07214573,0.020623181,0.008757714,0.008498566,0.00286105764,-0.01710722,-0.0182071012,-0.0168994684,0.0144604528,-0.0100454837,-0.00519323442,0.009671248,-0.004998957],[-0.0145867681,0.0797472447,-0.0363871381,0.000328077236,-0.01786376,0.0004923884,-0.009672992,-0.0179940071,0.0513627268,0.0338605344,0.0503011458,-0.006889737,-0.0106961681],[0.072403416,0.0110529577,0.017810436,0.0130675025,0.0192566048,-0.0113411443,-0.0263578948,-0.0474072769,0.0186751373,0.015145909,-0.024908619,0.00377461221,-0.00268753618],[-0.00335360062,-0.103394322,0.0111903,-0.0029260132,0.0241781343,0.0380141139,0.003909327,0.009238813,-0.0251947138,-0.00547978468,-0.03868201,-0.008639326,-0.0158711113],[-0.128042966,-0.0279602036,-0.0136137027,-0.0159236342,-0.0257017538,0.007270498,0.04335049,0.07290803,-0.0154296588,0.00335326488,0.021278996,-0.01832119,-0.0154435523],[0.0491427,-0.04707309,-0.01781859,-0.0132692391,0.016248215,0.009840066,0.0427954756,0.02083412,0.0500291474,0.0483942777,0.0462797172,-0.00205935538,0.0212084781],[0.102345817,0.0439489856,0.05173448,0.117731772,0.0876675844,0.0193051118,0.0449940339,-0.0294985846,0.02262743,0.009383929,0.00704792375,-0.0275984425,0.0110714491],[0.144643679,-0.0352004468,0.0117553314,0.02693824,0.05868557,-0.0360296741,-0.0129121561,0.0487836972,0.15656808,0.119242124,0.120039664,0.113785483,0.012130755],[-0.00768464152,-0.176772177,0.05405341,-0.0279552378,0.0583908334,0.00736556668,-0.03305826,-0.02361287,-0.0591368377,-0.0520873442,-0.0912824348,0.0314214639,0.03475783],[0.00390351773,-0.119747475,0.0335169062,-0.0222175233,0.02634655,0.0137293171,0.00602394156,0.0180369224,-0.0491238832,-0.0569560044,-0.06833853,-0.00494853035,0.0139867319],[-0.04657008,0.00546441041,-0.0570550077,-0.0301019661,0.00148889469,0.004454617,-0.0154513158,-0.0379371755,-0.0361423455,-0.0147468019,-0.04877203,0.03987306,-0.0247904044],[0.0324476957,-0.06481612,0.08141278,-0.0149483951,0.035085,-0.0104019381,0.035516724,-0.0108879395,0.0172644537,-0.00415602047,0.0133422883,0.118900232,0.06420422],[0.0781353042,-0.0146214608,-0.00606080471,-0.0301248524,-0.0293638,-0.04703383,-0.006736957,0.00882410351,0.06767847,0.0476376228,0.04792009,0.0614970364,-0.0237670783],[-0.0399054922,-0.0654078349,-0.0133428993,-0.0561726131,-0.0112768719,0.00411672,0.0124771893,0.00642280327,-0.0275431126,-0.0227434076,-0.006883765,-0.0228204373,0.008095708],[0.0254114456,-0.0343243368,-0.02014547,0.04743044,0.0258679856,-0.03570803,-0.05348649,-0.00102256634,0.04100571,0.0209367853,-0.0152695663,0.0475311838,-0.007377018],[0.07882341,0.0197170544,0.0270257834,0.00165402133,-0.0148075614,-0.0304340441,0.000153894856,-0.0224834774,0.0177202486,0.0218986776,0.018303372,0.0283537544,-0.0009698887],[0.008702349,-0.0196372066,-0.0105929729,0.0126999551,-0.004590631,0.0105843889,0.004574683,0.000226914053,-0.00267821527,-0.00325626461,-0.0194967669,0.00173708179,-0.004785186],[0.0859841257,0.0173833054,0.0294344276,-0.0230660588,-0.00552317826,-0.0479371659,-0.0109713078,-0.006045655,0.04449047,0.027045805,0.0353141353,0.01895408,-0.006269316],[0.06731781,0.00434684334,-0.0125260046,0.020072965,-0.0110468343,-0.0254405458,-0.00470932759,0.00191283657,0.0076853307,-0.00884729,-0.0165602919,-0.00448624138,-0.009909048],[-0.0187991466,-0.167192578,0.0310785528,-0.03893575,0.0362022929,-0.00473253056,-0.0205283724,-0.009250784,-0.0563429929,-0.03413911,-0.08870967,0.0111277867,-0.004326384],[-0.0306657776,-0.03893801,-0.0590404533,-0.04684513,-0.0557136163,0.0147281662,-0.007892276,-0.0258664973,-0.06536436,-0.0525222123,-0.05258092,0.0519796051,-0.0503006056],[0.0589862727,0.01968654,-0.0142142521,-0.0005305951,-0.00353925955,-0.002109066,-0.0124960849,-0.0135450987,0.004803298,0.003465885,-0.0156303328,0.002937546,-0.024036007],[-0.00202493416,0.091413036,-0.0308022127,0.0277469177,-0.03851461,-0.0141387628,-0.00281395554,0.0005009177,0.0520707257,0.03939211,0.0617348328,-0.002924794,-0.00605100766],[-0.08713483,-0.008236185,-0.111174256,0.0122916074,-0.0357191823,0.02242488,0.0238038544,0.07765757,-0.045220226,-0.0387695543,0.0148183266,-0.0111681521,-0.03934739],[0.04911812,0.00696118129,0.0881015956,0.0541466251,0.0218929537,-0.01588717,-0.0234710127,0.0945379,0.0525144748,0.0284190234,0.0397523753,-0.04631357,-0.0014195249],[0.111562476,-0.0119235134,0.101912454,0.0150812147,0.0100269029,-0.008465136,0.0215694662,0.0660635158,0.056768585,0.03803612,0.03756457,-0.0468789451,0.006951569],[0.004834362,-0.007388274,-0.057550963,0.00196514279,0.030850159,0.0140367588,-0.05412868,-0.0321967341,0.00615722453,0.01987453,-0.0495561436,-0.0182224642,-0.009441276],[-0.101440318,0.0223908257,-0.005477278,-0.08265959,-0.06359892,0.0288588554,0.0414711572,-0.0076733157,-0.0813873261,-0.05260481,-0.0222358759,-0.00838341,-0.0124559877],[-0.02600779,0.07319251,-0.03975186,0.0006187328,-0.0407424234,0.0105934311,0.0108267646,0.009022982,0.0271712486,0.0425312854,0.03646245,-0.0426887125,-0.0257971417],[0.0325036459,-0.021752663,-0.0254321061,0.0534089319,0.04293969,-0.00217663147,-0.03953817,-0.008780567,0.0457882248,0.0416108519,0.009275091,0.0506777,0.00362203619],[-0.01955502,-0.138353273,-0.008101018,-0.05098559,0.080392,0.07358985,0.04582859,-0.00830953,0.003873425,0.005440465,-0.02733301,-0.0136790676,0.0600793771],[-0.009210081,-0.132485732,0.0322328,-0.0282522533,0.04903275,0.0137774963,-0.00552301435,5.869389E-05,-0.04511075,-0.0530001149,-0.0635037646,0.0106591117,0.0134441685],[-0.0325280242,-0.160278946,-0.00342209428,-0.0127994707,0.04937926,0.03638607,-0.003174369,-0.0115961218,-0.03799616,-0.009344174,-0.0279639121,-0.009502883,-0.0100311553],[-0.149804369,0.008889658,-0.0407909937,-0.055186227,-0.06097569,0.07280671,-0.003017073,-0.0515779555,-0.147023678,-0.1299758,-0.133701369,-0.10328304,-0.0295089334],[0.019079,-0.0229444169,-0.0100259446,0.0392134935,0.0749466643,-0.0465041958,-0.0704857,-0.0074612177,0.05739774,0.03219071,-0.0327596962,0.0469817258,-0.04832776],[-0.07217386,-0.0119212028,-0.0005524382,-0.0011411676,-0.000260838162,0.0150034595,0.018313691,0.00110973709,-0.0127971051,-0.000898765866,0.00333921425,-0.009243644,0.0120415511],[-0.04785742,0.09134378,-0.111535743,0.0317762159,-0.0571126677,-0.02593811,-0.0242088027,0.0449669771,-0.0518371463,-0.0433726236,-0.0142131234,-0.101411507,-0.0456018932],[-0.000680570956,-0.0315035656,0.07040939,-0.028702721,0.06319622,-0.00871831,0.00102983683,-0.0171012376,-0.0216480661,-0.02113094,-0.03236719,0.06011656,0.00343513372],[-0.0458767042,0.005412821,0.0374684446,0.006561061,-0.0622330643,0.0296492465,0.06769016,0.0191439968,-0.04049586,-0.0163972341,0.0516307242,-0.0435468219,0.0465346761],[-0.0131341238,0.1407918,-0.07861924,-0.029057866,-0.07671354,0.0404853076,0.04849916,-0.001874874,0.07546183,0.05710654,0.103624143,-0.0333818346,0.00336941122],[-0.0120985238,-0.138870567,0.0260101538,-0.0261235852,0.04068821,-0.00712300744,-0.0101223886,-0.0008233787,-0.03917664,-0.0493533239,-0.0768982545,0.009123178,0.0121729365],[-0.0699128658,-0.09633301,-0.02399687,-0.0248357262,0.0272108875,0.0362904556,-0.03401619,-0.0489248522,-0.0340012461,-0.0198160671,-0.0607739277,0.02983704,-0.006905179],[0.128286868,-0.04669472,-0.0149055813,0.009547224,-0.0153833451,-0.0132269347,0.0134159457,-0.007983364,0.102464937,0.0890894,0.0562028252,0.0980871,0.023285998],[-0.07424856,-0.03017953,-0.03017678,-7.794748E-05,0.0252653621,0.0256135873,0.0131508913,0.008442081,-0.0391368568,-0.0222395118,-0.0152527308,-0.0206747,0.028054893],[-0.05633165,0.0525782667,0.013018351,-0.0455078,-0.0491233319,0.050435815,0.05443343,-0.0261365455,-0.07038351,-0.0424567275,3.74904E-05,-0.0546322875,0.0244194511],[-0.0161758009,0.07346787,0.03781417,0.0459642746,-0.035199713,0.0254308749,-0.005747152,-0.0190302655,-0.0458400026,-0.0217956379,0.0009444463,0.03150389,0.00191324111]]}},{"ClassName":"DenseWeightMatrix","Content":{"matrix":[[0.000803671137,0.0100820018,0.0162237734,0.0151778962,-0.0114177717,-0.00123376714,0.0140320137,0.0130913053,0.012228936,0.01181715,-0.0116896667,0.0247684345,0.00114682945,0.0158969127,0.0225845557,0.0113475276,-0.00775739131,-0.00780747039,0.0143512888,-0.00483614765,0.0100623826,0.00164614432,0.0160184,-0.009720316,-0.0121835293,-0.0005547605,-0.00962663,0.0111079784,-0.00582772,-0.00164744025,-0.0204950254,-0.00270389486,0.00358526967,0.0399177335,-0.0224641953,-0.00596636673,-0.004257136,0.00267893635,-0.0100107472,0.0144379856,0.0155680217,-0.009375475,0.000570302538,0.00625756336,0.000327706832,-0.0260801781,0.0192074757,0.00987015,-0.009542209,0.00553180836,-0.00626417156,-0.008757095,-0.009003295,-0.019873105,0.0139086964,-0.0111880889,0.00559411757,-0.006810886,-0.00838844,0.00796357449,0.00038174566,0.01410974,-0.0072425087,0.002127004,-0.006596426,0.0278938636,-0.018479649,-0.0107669495,0.0236723442,-0.00620140834,0.03050554,-0.02328621,-0.00249746651,0.0048510246,0.009286445,-0.0236613713,-0.00614234945,0.0125509519,0.006180518,0.0102681918,-0.009243943,0.0077439663,0.009784202,0.0163758267,-0.00149732979,-0.0200017449,0.00341738365,-0.00207531848,-0.009171628,0.0178331174,-0.03666383,-0.0259436127,-0.008974766,-0.00307404133,0.016622657,-0.00774638867,-0.0107820388,0.005296857,0.00581946364,0.0110561475,-0.00628997665,-0.0207482986,-0.00822904,-0.0106968265,0.008539618,0.00376277417,0.0043029557,0.007748216,-0.0120413592,-0.0127745355,0.0194946248,-0.009445427,-0.0237766616,-0.02377012,-0.03856471,-0.0286432765,-0.0215889234,0.006840496,-0.00335496734,-0.0114940647,0.011864352,0.0483336449,-0.0255685784,-0.034151312,0.001403192,-0.01048225,0.000865652633,0.003567854],[0.00589656224,0.00142060511,-0.00768907,0.005444492,0.000131316672,-0.01404077,-0.0125391176,-0.00208009966,-0.00109944632,-0.004975915,0.00294561754,-0.000698302756,0.007000316,0.0083042,-0.005233828,-0.0233109351,-0.0110036014,-0.0214564726,-0.00291317841,-0.000350071525,-0.0300427284,-0.004300551,0.01989992,0.00191126717,-0.00463016657,-0.0116654783,-0.007785646,-0.00766027346,0.004699779,-0.0216695368,0.0144473882,0.00130331924,0.00110338442,-0.008429486,0.00811351,0.0107112546,-0.00586496061,-0.014492495,0.00180912344,0.0190843754,-0.009380479,0.00402629143,0.008131681,-0.007765008,0.00399728771,0.00487272441,-0.00325394352,-0.007764957,-0.0210807659,0.0134335523,-0.0127959754,0.000124694052,-0.005808314,0.00406650966,0.004672704,0.009019551,0.00921781547,0.00361125544,-0.0174359363,0.01481043,0.02690713,-0.005499957,-0.0117531605,-0.00610095263,-0.009332386,-0.0221201256,0.003983273,0.00748080667,-0.00178640068,0.02546526,-0.0291409642,-0.0125952074,0.0160471126,-0.0237687267,0.0008510501,-0.00114702329,-0.00302944239,-0.0038723005,-0.006285774,-0.01942407,-0.00338100083,-0.0259290859,-0.000893868331,-0.00102362724,5.55712468E-05,0.008524933,-0.0111393519,0.003445886,0.0169715937,0.018507164,-0.000160250987,-0.0008372899,-0.008949574,0.03302873,0.011417957,-0.000756837951,0.0139075536,-0.00110325322,0.006661687,-0.004186231,0.007021661,0.00373032945,-0.00329954829,-0.00129235175,-0.0114200022,-0.01629199,0.00419355463,0.0144465761,0.00428488525,-0.001435899,-0.008159824,0.01838661,0.0233579632,0.006712415,0.0137827545,-0.02134032,0.0135909542,-0.00935361,-0.0146766352,0.006099293,-0.0008320681,-0.02061424,0.0119181974,0.007062,0.0201976225,-0.000173513778,-0.020430997,-0.0148753738],[0.00114029238,0.002751582,0.01764964,0.00408502063,0.00750284269,-0.0307646785,-0.0115896864,-0.0106717478,-0.0131613612,0.003480171,0.00760135753,0.00694771064,-0.0104608275,0.0257674772,-0.00573347742,-0.0007833081,-0.0223167259,-0.0333988145,-0.0126526346,0.00608005049,-0.0367183574,0.00117018342,0.05510745,-0.0135871731,-0.00486447243,-0.0296828672,-0.00102260651,0.0027707892,0.0175839644,-0.0467765443,0.005152419,0.0131813977,-0.0144067062,0.008971605,-0.0164496675,0.0275738519,0.00303188781,-0.0178792756,-0.00209628488,0.0395079926,0.00117074873,0.0104969516,0.0152474586,-0.0124681257,-0.005653936,-0.009298935,-0.01979623,-0.0317705423,-0.0305940863,0.00730384653,-0.0305570476,-0.007531671,-0.007667273,-0.006495194,0.013923849,0.0221370216,0.0208618045,0.0038594543,-0.05083687,0.0202671029,0.0178383142,-0.0167839546,-0.0184593,-0.009694989,-0.0250822119,-0.0166128371,-0.0158510841,0.0278409,0.0389941819,0.02364783,-0.0164324678,-0.03281875,0.025549829,-0.0375395529,-0.015282928,-0.024627639,-0.00156447536,-0.00550453365,0.003164049,-0.0191741586,-0.0100427838,-0.0477987044,0.0107353637,0.00222939672,0.006449505,-0.00496548135,-0.0153186349,0.018484883,0.0311773587,0.0597141944,-0.0195368882,-0.0159182567,-0.0124598183,0.02700696,0.0218991954,-0.00433620671,0.0217471682,-0.0019154941,-0.00670141261,0.0148168458,0.007872982,-0.007152049,-0.017034756,-0.00577283744,0.0163496584,-0.0219552,0.0203348137,0.02305505,-0.00829940848,-0.0273231342,0.003264578,0.0301414169,0.039271526,-0.0133677619,-0.009258908,-0.05882946,0.0317628048,-0.0027599677,-0.03283866,0.0070085465,-0.0223232955,0.00221556728,-0.0005467906,0.0004326368,0.0337477,-0.007948704,-0.0409743674,-0.0238383058],[0.000208785015,0.0103831887,0.011016069,0.0132341124,-0.009614096,-0.005710526,0.0143833254,0.009047812,0.008050966,0.0168362744,-0.009798207,0.0163110048,-0.000217116831,0.0132391313,0.0136465607,0.0178186316,-0.004790612,-0.00184330228,0.009424811,-0.00416396232,0.0213982258,-0.00253951154,0.00164633838,-0.0110398047,-0.0107710781,0.00650664466,-0.00431659445,0.0110737476,-0.0091534,-0.0002327831,-0.0248897634,-0.007067362,0.007760883,0.0389301553,-0.0242519751,-0.00061035034,0.00449404959,0.0101985065,-0.00285205315,0.00688181538,0.0196296852,-0.008890165,-0.001968839,0.0127919912,-0.0135691017,-0.0209034849,0.0127878012,0.0142175462,-5.12758052E-05,0.009629965,0.008194709,-0.0115554025,-0.006716889,-0.0142171206,0.009850168,-0.002549832,0.00341492472,-0.0147499815,-0.00639544567,-0.004293153,-0.00812938251,0.0134175438,-0.00235593412,0.01374977,-0.00520283449,0.0238544121,-0.01677804,-0.009067652,0.0232333615,-0.004129717,0.0253933854,-0.0123322085,-0.006379506,0.0004050709,0.000736027665,-0.008353732,-0.0164113324,0.01403888,0.00759613467,0.0107470127,-0.008072007,0.0224138,0.00739410054,0.0195485186,0.006933851,-0.02141468,0.00458104536,-0.00173280074,-0.005034922,0.0121083325,-0.0226017889,-0.0154906185,-0.00772814639,-0.008787177,0.0166792236,-0.0124543868,-0.001663094,0.00627017161,-0.00757918553,0.0111599509,-0.007512599,-0.0296780914,-0.0111574959,-0.00141542288,0.0220558085,-0.00270854682,-0.000114136375,0.000143808371,-0.0122816814,0.000464470882,0.0218720771,0.00325849513,-0.0333764441,-0.0201653168,-0.03137841,-0.0269245561,-0.00148328615,0.00534603838,0.010602518,-0.008090229,0.0143741583,0.0417708531,-0.0239255112,-0.01558259,-0.004644404,-0.004139175,0.004907926,0.016059164],[0.00136364042,0.00150159129,-0.00137839944,0.0153383231,-0.00349617866,-0.009227661,0.0034515704,0.000594652549,-0.00629670965,0.0132088158,0.00294284616,-0.00396769727,-0.00353371538,0.02712806,0.0106936321,-0.000546313648,-0.02510166,-0.01673825,0.00557142,0.0006282067,-0.017554028,0.008499176,0.02776334,-0.0165768377,-0.0006458878,-0.0191566553,-0.01583209,0.00448190654,0.0135020856,-0.0229724329,-0.0120907119,-0.00324243936,-0.0107701384,0.0200417917,-0.00271737622,0.0148848081,-0.00420395052,-0.0173660479,-0.0103304973,0.0246723741,-0.008985014,-0.008854333,0.0118729975,-0.00899754651,-0.00518631376,-0.0138720851,-0.00222911313,-0.01777561,-0.0180228371,0.00611299975,-0.0220186822,-0.008913329,-0.00386687974,-0.006207799,0.0128401658,0.00563221658,0.0114381025,-0.00160533679,-0.03135628,0.0169063546,0.018687,-0.009629899,-0.006545598,0.001511891,-0.0114213824,-0.007223221,-0.0175010469,0.0143577373,0.0147927832,0.0169438552,0.0008369227,-0.0261987876,0.02108951,-0.0163134821,-0.008674345,-0.0183895659,-0.008389206,-0.001702485,0.000265569251,-0.002956983,-0.00676896051,-0.0312875919,0.008013415,0.0122204516,0.000562433153,-0.0098442,-0.0153227523,0.005094215,0.0182224549,0.03920021,-0.004676401,-0.0180222616,-0.016581649,0.0158802476,0.0168024171,0.00648808759,0.0144097144,0.00655552046,0.0007856267,0.00398822,-0.00165018789,-0.00112199341,-0.0219380837,-0.007043443,0.005270603,-0.00404247269,0.0168970078,0.0147696668,-0.00369987474,-0.0221781526,0.00335786445,0.0139339874,0.0118135335,-0.0008873073,-0.0104433894,-0.0362895355,0.008712923,-0.0130760884,-0.0189169943,0.006740776,0.0041726185,0.0108532123,-0.000636705256,-0.0168079417,0.024564717,0.000112468151,-0.0226158351,-0.008349503],[0.005890387,0.005165586,-0.005552124,0.008400186,-0.01153551,-0.0141719515,-0.00130710355,-0.00436883047,0.00586176943,0.006557476,0.00307474588,-0.00468239468,0.0101399645,0.00691684848,-0.003825651,0.005222626,-0.0121563645,-0.0132379709,-2.11461338E-05,-0.0009515812,-0.0201314185,0.0054881,0.0301336944,-0.009488844,-0.00304208673,-0.009519389,-0.006406365,0.0001389524,0.0006102694,-0.0184442829,-0.0115645332,0.006097494,-0.0112348264,0.0144058019,-0.004173423,0.0100163193,0.00438444642,-0.0154265063,-0.0117661832,0.02937096,0.008211707,0.00757611357,0.00675496,0.00491737155,-0.00308728218,-0.00507541373,0.0114694731,-0.008745713,-0.01633072,0.00708945468,-0.0154160019,-0.0126237329,-0.00488687772,-0.0128413364,-0.00188106729,0.00333632366,0.00722280331,-0.0009398227,-0.0291410685,0.002112201,0.008170373,-0.0105263125,-0.01487786,0.00492267171,-0.0155781358,0.005297852,-0.003731485,0.00448575942,0.008838761,0.00377069623,-0.0005327867,-0.0195406433,0.0138391238,-0.0109786587,-0.008086606,-0.015023564,-0.013128465,0.009919203,0.004199793,0.00344922929,-0.0100480551,-0.0234121587,0.000217861714,0.0113567719,0.001519114,-0.00777837168,0.00191078871,0.0110207023,0.006981472,0.025456354,-0.00716209551,-0.0003375188,-0.0156130753,0.0180951059,0.0167250745,0.0007185435,0.0006984349,0.0120463111,-0.00353646372,0.00803708751,-0.005378786,-0.008914921,-0.00728422636,-0.009726252,0.01236181,-0.0136331748,0.0145669123,0.009750909,-0.0115671875,-0.0129644126,0.007597442,0.00397857651,0.004288314,-0.002137225,-0.009279165,-0.031146653,-0.0105737159,-0.007254174,-0.0179238878,0.006885382,0.01780718,0.021772055,-0.00138607889,-0.0192415249,0.0268264636,-0.0136646358,-0.0140338149,-0.0004595054],[0.00334487134,0.006384775,0.00326683559,-0.00487824855,-0.0166688059,0.01088274,-0.005400583,0.0180050861,0.00227043848,0.00463003,-0.01667848,0.009417985,-0.0161658544,0.00151991355,0.0158433467,0.00299954019,0.001596822,0.008071473,0.002257516,-0.0136807794,0.0172885545,-0.008713675,-0.00248746178,0.005612192,-0.002035098,0.00591274956,0.007614235,0.002299142,0.00377519545,-0.000736050832,-0.00247150566,0.01301255,-0.00222004857,0.0140085686,-0.008488755,0.01470018,-0.006306871,0.0122654242,-0.00238790317,-0.00193081459,0.002939815,-0.0123867551,-0.0184387174,0.009075564,-0.00244833971,0.00460515171,-0.0151725765,0.002816274,0.00201896788,-0.0123685729,0.000631688861,-0.00571528,-0.00316506135,0.000822716451,0.01276259,0.008757684,0.00322280778,-0.0156394411,0.0121421954,0.0137261851,-0.003475297,0.0124696959,0.00467562163,0.0166150723,0.00248777727,0.007643154,-0.005706171,-0.000207602949,0.00215064175,-0.01016744,0.00308081461,0.00165091525,-0.005058943,-0.00210196245,-0.00612548972,0.02207637,-0.000317544182,0.00166254572,-0.0133450432,0.00634282269,-0.009189609,0.03207068,-0.0008785537,0.0118638752,0.00306274975,-0.0145843457,-0.01264949,-0.006308507,-0.006454692,-0.0105804829,-0.00522942329,-0.001523058,0.0154939592,-0.0197690465,-0.00375566934,-0.004439706,0.00378479157,-0.00621702941,-0.000764757337,0.005047282,0.0123913893,0.00119297975,-0.003547453,0.0146760484,0.0116707375,0.00646180566,-0.0187716931,-0.01440087,0.017877778,-0.0158375464,-0.00376156066,0.0103393653,-0.0117933117,-0.00440203445,-0.0308802519,0.00413497258,0.0149908159,-0.0040895585,0.003117461,-0.00195337669,-0.0264462754,-0.000775676046,-0.0112916,0.00717575569,-0.005357155,-0.0129376994,-0.007941058,0.00580484746],[0.002565957,-0.00407070853,-0.00476891827,-0.0105277086,0.00643962529,0.00571447145,-0.009687295,0.006584686,-0.0144296186,0.0025748217,-0.008088089,-0.005272668,-0.008482206,-0.000703979167,-0.006480025,-0.0186453536,-0.00693349354,0.00766921462,0.004772668,-0.00446922332,0.005062564,0.00471123075,-0.000334950862,0.00454069162,0.00394575158,-0.0129317837,0.00996668,-0.009834041,0.008581915,-0.009132517,-0.004915533,0.011423694,-0.007580931,-0.00351106166,-0.00373270153,0.007837654,-0.00161153567,-0.00343687,-0.008690667,0.00135595037,0.007893504,-0.00215849373,-0.0007338622,0.00441305339,-0.00121125649,0.0125603629,-0.01702248,-0.0131443543,-0.0145918578,-0.00604315056,0.0009782494,-0.00916991,0.00532268267,0.00378432544,0.008326973,0.004261806,0.00670329342,-0.0102745425,-0.0007522929,0.00600557029,0.0146531938,-0.00628891448,-0.00470815925,0.00196330366,0.00236852188,-0.0133482292,0.00543381972,-0.00275784917,0.000252663856,0.002229062,-0.0140808271,-0.00631172955,-0.0006928597,-0.0106359161,-0.0132659459,0.0239735227,0.007985324,0.00743211946,-0.0134012671,-0.00447607227,-0.0163167976,-0.0008535898,0.0150453215,0.00767811062,0.0135125332,0.000414579234,-0.006257674,-0.00564524345,0.00297865155,-0.00133216742,0.00599364657,-0.000129985245,0.01697949,0.00132412044,0.00581099046,0.00117795309,0.00565768,-0.00344695,0.00660852343,-0.00156758784,0.0108811809,0.01830809,0.0131890308,0.0162589327,-0.007085647,0.00166800246,-0.00604689,0.005010558,0.0131614376,-0.0200056266,-0.009263996,0.0158033315,-0.00455790525,0.0124145709,0.00563911861,0.00253502931,0.03206589,-0.0118185217,-0.0116434945,-0.0017164381,-0.0235642754,-0.0197436251,0.0145304846,0.017575562,0.0149868019,-0.00208862917,-0.02680005,-0.00732325763],[-0.0128187854,0.002707488,0.00462926133,0.000387452717,0.008626594,0.0136517193,-0.002145656,-0.01002877,0.010028136,0.006691343,-0.0005641805,-0.00133376429,0.0127909789,-0.0244209561,-0.007326847,0.0292342827,0.0166274421,0.0187179148,-0.006208372,0.0117992368,0.007364355,0.000307109382,-0.0308274962,0.00293099252,-0.0008280644,0.0148723871,-0.00331231975,0.00534618134,-0.0180433728,0.0213216227,-0.00263916,-0.0261138529,0.00988392252,0.008944677,0.006944265,-0.02478637,-0.008702581,0.0044176043,0.00575787947,-0.02060119,-0.004885123,0.00641904771,-0.000714100432,-0.004173205,0.00497697946,-0.007368655,0.0199140646,0.0141232405,0.025177246,-0.00227372348,0.000301181135,0.0118003488,0.009149936,-0.000397130847,-0.0152534349,-0.02276173,-0.004005729,-0.000311644661,0.017703753,-0.0242720954,-0.0218319464,0.008934281,0.00159562286,0.0046031205,0.00437578559,0.031035481,-0.0008876472,-0.0135233738,-0.0183336,-0.0277356859,0.0420389473,0.014425803,-0.0127089787,0.0115759587,0.006855235,-0.0045109503,0.0109568536,0.001371047,0.0172782317,0.0121286595,0.005302797,0.010432722,-0.0136272013,0.0007943855,-0.0191976242,0.0121072279,0.0303985421,-0.0006172442,-0.020159157,-0.0157496855,-0.01050727,-0.005222425,-0.0019285403,-0.0185077377,-0.0103213368,0.00647242554,-0.008576726,-0.008587488,0.000316372869,-0.0108196484,-0.0210533738,-0.0125467032,0.002510784,-0.00714056473,0.0094185,0.0144779989,-0.0173046459,-0.0151820928,-0.0199591666,0.0205802489,0.00502993073,-0.0091120135,-0.00341413356,-0.006360205,0.002909814,0.0100402813,-0.0256546512,0.016869856,0.0219485257,-0.006868956,0.0274244715,0.0257256776,-0.0122789377,-0.013889174,-0.0290015154,0.005824045,0.0154150231,0.02292541],[-0.000678046432,-0.00256622653,-0.006791639,-0.009671604,0.007704548,0.00382543379,-0.007947518,-0.005148145,0.0012056072,0.009014118,0.000206708384,-0.00694968365,-0.000953842071,0.0116381422,0.0021795514,0.00248849951,-0.00504331244,-0.00865908153,-0.0005837906,-0.009824297,0.00666295132,-0.00679699937,0.00569173,0.00444033137,0.00508302031,-0.000544947339,-0.00733921863,0.00238349754,0.007377219,-0.00552989636,-0.007081714,-0.0014194859,-0.0041397,0.00014537829,0.008772106,0.0106892344,-0.00780682825,0.00172950712,-0.006618578,0.008695381,-0.000129485677,0.00513275573,0.008785064,0.005937637,-0.00753737846,0.004736653,-0.00423445925,-0.00881325,0.00257524964,0.0014832255,0.006516392,-0.010327193,0.00294042239,-0.006364529,4.74370972E-06,0.00762731675,0.00454419153,-0.00301006832,-6.950289E-06,0.000478205126,-0.000691691937,-0.00748459,0.00375923468,0.00216625584,-0.0016362404,0.00314425142,0.00539272,0.00127615139,-0.007158167,0.0112372,-0.0003877093,-0.00080257596,-0.005169424,-0.00704379473,0.000562362664,-0.00522998068,0.002752168,0.00296146935,0.000250801852,-0.0035660665,-0.007130536,-0.00227007,0.0106871827,0.006135133,0.00999841653,-0.007270629,-0.0028678868,-0.00159391016,-0.00486148335,0.00847477652,-0.007688667,0.008304141,-0.005004085,-0.00350008765,0.0077322186,0.00118175079,0.00183483306,0.0068969056,-0.006615067,0.00384878367,0.00125947245,0.00383384456,-0.009200583,-0.002997805,-0.0062001734,0.00169985474,0.000145784463,0.00136911159,0.00689007947,-0.00103624363,0.00372929662,-0.00464281859,0.00501524052,-0.00171459187,-0.007856266,-0.001831851,0.0102870716,-0.0108496649,-0.007972941,0.000591291755,-0.0001377099,0.004631988,-0.00125767977,-0.00522835925,0.0018830644,-0.00280778925,-0.0102654165,0.004671574],[-0.0123733589,-0.00694764033,-0.009003077,-0.00566960452,0.000869195268,0.009915346,0.00326347514,0.003923939,0.004911743,-0.008809591,-0.00658600265,-0.01145114,-0.00459780544,-0.0293846671,0.00114841131,0.0126786772,0.0150532629,0.02386078,-0.00678941049,0.00567731261,0.0215795767,0.00148449908,-0.032258518,0.00765999826,-0.00125296239,0.0269745979,-0.000797349145,-0.00503636524,-0.01837381,0.0266534928,0.00740552647,-0.0153590376,0.0159123745,-0.00607707072,0.00549087068,-0.0148411794,-0.00288300519,0.0180802438,0.0013774276,-0.0290113632,-0.00156533369,0.00761039648,-0.0174772162,0.001428322,0.00296550919,0.01027381,0.000867611438,0.00763821462,0.02193167,-0.00145489257,0.01299029,0.00440924754,0.00329032727,0.00184285128,-0.0032982335,-0.0166319851,-0.004908565,0.00484479032,0.02784231,-0.0173832458,-0.0140520455,0.008695839,0.0110042924,-0.009348059,0.00367498049,0.0131457839,0.0109726014,-0.01603301,-0.0222084634,-0.0169348419,0.008435784,0.0260454863,-0.0146675073,0.01730088,0.000198482812,0.003927433,0.0119016888,-0.0109160654,0.0119059226,0.01728849,0.0140073253,0.0187321976,-0.00217865058,-0.00668030838,-0.00299095619,-0.00409730151,0.017955998,-0.00508711161,-0.0128513938,-0.0330691561,0.0123490673,0.00396112865,-0.000332254276,-0.0240372866,-0.0105733732,0.00278783659,-0.007933223,-0.00251097488,-0.00382937025,-0.0103917262,-0.00131924707,-0.00221510022,0.0006768014,-0.0112278853,-0.0121060153,0.00653485954,-0.0123295421,-0.00421506539,-0.0011782978,0.0140445409,0.009968278,-0.0197887477,-0.0187771246,0.00482732942,0.002154684,0.02928468,-0.008360974,0.0008725967,0.014740685,-0.0129377609,0.0185968243,0.00315278629,0.00106080947,0.00256254128,-0.024436364,0.00601789448,0.0267929,0.011113842],[-0.00652103,-0.0116423732,-0.00414442131,-0.01232698,0.0101692295,-0.00202489854,-0.0135593517,0.000609738345,0.00241218577,-0.009245539,0.0176478233,-0.0169705432,0.00546200341,-0.0141395284,-0.0206954274,0.001731567,0.01758929,0.00460746745,-0.01149208,-0.00222293567,0.00315049454,-0.006466537,-0.0185605288,0.00613110559,0.00190009712,0.00497421529,0.009399093,0.0130967051,0.00463108532,0.0108962134,0.0144743277,-0.0128028905,-0.00591776753,-0.0238271672,0.009395307,0.008556726,-0.00156714034,-0.00205768249,0.0156216575,-0.0126316547,-0.002127521,0.0154567063,0.000440090982,-0.0104748253,0.008983366,0.0153206,-0.00526258443,-0.00252945768,0.000689438137,-0.00230770768,0.009057166,0.00439134939,0.01383719,0.009018345,-0.0197192,-0.00235266751,-0.009124787,0.00609050971,0.009554533,-0.0183433015,-0.0128720859,-0.007174286,0.0134732518,-0.009016651,0.00294181448,-0.001862813,0.01815091,-0.00550382,-0.0172254555,0.0005725128,0.000205322445,0.02570014,-0.00619839132,0.002524638,-0.00319926231,0.0140787084,0.0186370518,-0.0142611237,-0.007916376,0.00289260922,0.00773409754,-0.00640206924,-0.0153140649,-0.008852221,-0.0150095345,0.0103976661,0.0172164626,0.00480523752,-0.0118286042,-0.0246559046,0.01660475,0.0198907945,-0.00164674793,-0.011905564,-0.01125549,0.0172758866,0.00253822026,-0.01407139,0.004677443,-0.003194884,-0.00238038343,0.0167351626,0.0108834067,0.00301039242,0.00205464684,0.002662756,-0.0152361272,0.00338544347,0.00266552088,0.005481457,0.00219103764,-0.0057104053,0.00238588615,0.00611751433,0.0184075143,0.0244029518,0.0004760989,0.0009963462,-0.00102723413,-0.0006332486,0.004207537,-0.0128806634,0.005285205,0.0221667364,-0.0206799954,0.0174040329,0.000401288824,-0.008756228],[-0.00331496284,-0.00657400163,-0.00293275621,-0.0143135721,0.00150608737,0.02764764,-0.00026924914,0.00635083625,0.00108252978,-0.00404003,0.00197048741,0.006107595,0.00163657288,-0.02106101,0.004544071,0.0138658313,0.0175424516,0.0316715725,0.007545613,-0.00110845908,0.0277215876,0.00598693546,-0.03418724,0.0150235314,0.0013421796,0.03028281,0.00800765,-0.00267372024,-0.0180285312,0.03335806,-0.000274905469,-0.007346962,0.0161176883,-0.01225461,0.0112250056,-0.0307612289,-0.007778041,0.0201716814,0.0010723623,-0.04245305,0.00051618024,-0.008025418,-0.0217418931,0.0142641477,0.0117927231,0.00385662,0.020134436,0.0318799056,0.03726183,-0.007935676,0.0184291378,0.0105757257,0.0167043116,-0.00187187293,-0.008614649,-0.01574257,-0.02174823,0.00194803986,0.04585884,-0.0179101471,-0.02726506,0.004843615,0.0150574408,0.00783603,0.0203373376,0.01822523,0.0150266383,-0.0229319558,-0.0304317269,-0.0186718833,0.0118574314,0.032107722,-0.0196645744,0.0180630144,0.006189272,0.006322787,-0.000452457141,0.00450260239,0.014380984,0.0206351839,0.012680565,0.03171211,-0.00769992871,-0.00402873848,-0.003950778,0.00761210965,0.0243966673,-0.006092791,-0.02535343,-0.0491323471,0.00385906151,0.00968002,0.0071980753,-0.0216918811,-0.01969804,0.00518088276,-0.0286140628,0.00153215835,0.00551328436,-0.0194792487,-0.000665637,0.01253127,0.00497653,0.00241800421,-0.01315005,0.0207569432,-0.0156535935,-0.02272239,-0.0009829146,0.0308629535,0.00568531873,-0.030017484,-0.0281277318,0.00188661169,0.0149617447,0.05167451,-0.03106494,-0.00307727023,0.0309380721,-0.005363603,0.0131167285,0.004589487,-0.00330532179,0.00232150685,-0.0424767621,0.00208956,0.03889101,0.0191645455],[0.002568068,-0.0136350226,-0.0147903059,-0.005858903,0.00157720991,-0.008533021,0.00290958537,-0.00466658454,0.00679137744,-0.0011102237,0.0170854833,-0.0147857545,0.00284297043,0.004198629,-0.0143580921,-0.00427343464,-0.00450915471,-0.01574957,-0.005679927,0.0219272133,-0.0325144976,0.00390427187,0.019348152,-0.003263568,0.0043122624,-0.01148774,-0.0151597019,0.000415341055,0.0053770165,-0.00143643434,0.006955975,0.0003663362,-0.0130611574,-0.0005630691,0.0133724445,-0.0131937917,0.0001417386,-0.009843849,-0.00142450759,0.0213441551,-0.0125832437,0.016141437,0.0189287029,0.0003438331,-0.00363901118,0.00152541487,0.0131185036,0.005231105,-0.0159211271,0.002999749,-0.009309941,0.00301463064,-0.0114441449,0.002393583,0.00321940379,0.006809915,0.00309733232,0.01669663,-0.0251354836,-0.004368804,0.008107493,-0.0112689119,-0.0010958038,-0.0138888611,-0.000836015155,-0.019585859,0.006503351,0.010699519,0.00235911342,0.009928386,-0.0154740755,0.00448198058,0.00235430151,-0.0183108356,0.00288659125,-0.0153991142,0.00270464667,-0.0106153088,0.00425280537,-0.01204838,0.008080578,-0.0303250626,0.00483381236,-0.0100508789,-0.00493293675,0.0114790155,0.0004066678,0.00928849,0.01169534,0.017502198,0.00471345475,0.0101817343,-0.014654438,0.0178537238,0.00332993781,0.0120097576,-0.00329516456,-0.003520388,0.0104734721,-0.0081138825,-0.009403728,0.004720084,-0.0018853941,-0.0115134865,-0.00242707622,-0.000372808,0.0141398115,0.0159308929,-0.0100697661,0.008816712,-0.0036041392,0.008560402,0.01698919,0.00560036954,0.0241758637,-0.0236161016,-0.00305977836,0.008216639,-0.0123305917,0.00833408348,0.016864147,-0.004479193,-0.00247603143,-8.45947143E-05,0.0148919355,0.00176112,0.000347785332,-0.00253099669],[-0.000790656661,0.01615459,0.011553173,0.004637628,-0.0232273266,-0.00315903849,0.0113775488,0.0115836291,-0.00347326277,0.002687374,-0.0126554836,0.009674232,-0.0008653363,0.00862569548,0.01667834,0.00305732549,-0.0109540056,0.0008204752,0.01420902,-0.003999601,0.010502276,-0.00563256536,0.009257376,-0.0111646606,-0.0111182351,-0.006719547,-0.0005224481,-0.005376214,-0.00353370374,-0.0121417819,-0.009160713,0.004559283,0.0122171612,0.0262684617,-0.008203908,-0.000693808,-0.0120124426,0.00776310358,0.0025849028,0.0180276465,0.017759148,-0.02202746,-0.004410054,0.00351598952,-0.0030609353,-0.0202603564,0.0119340187,0.0006224029,-0.00303372322,0.00175628439,-0.000935493968,-0.00857973751,-0.007128121,-0.00390869146,0.0156700648,-0.00497967144,0.004534714,-0.0157445874,-0.008921441,0.00270612934,-0.005098617,0.01662306,-0.000707965635,0.008227572,-0.00288263336,0.006676817,-0.0166302864,0.00295394543,0.0195129346,-0.005458092,0.00653552031,-0.00439062668,0.0117166862,-0.006411334,-0.00316144247,-0.00531166559,-0.0210762583,0.021418089,0.002860456,-0.005995302,-0.00195081916,0.0125072962,-0.002598045,0.0157706179,0.00741557963,-0.0171772968,-0.00246728072,-0.00514656864,0.00237710332,0.0167350061,-0.0156213539,-0.0156075843,-0.00869469,-0.00636997633,0.00350385485,-0.00415247725,0.002863347,0.01461368,-0.000228914272,0.01184906,-0.00479465164,-0.0248439033,-0.0111598987,-0.00216962188,0.008150596,-0.007727602,0.0122987879,-0.00174823264,-0.0008021182,-0.00744236074,0.0138126183,-0.0111710094,-0.0198992826,-0.009181761,-0.018500492,-0.0160715524,-0.0100789089,-0.002498665,-0.00311812921,-0.008183371,0.000928301539,0.02730688,-0.008734631,-0.009804556,0.003761419,-0.006411484,0.00563388,0.009408229],[0.00677969959,-0.008057919,-0.01600351,-0.0100504877,0.0106281135,-0.00310626044,-0.00608655531,-0.0132757723,-0.00153925235,-0.0169470031,0.00734689925,-0.0204632245,0.00668637455,-0.00339953648,-0.027347615,-0.021668084,0.00273950514,-0.007895529,-0.00183891039,0.0129730953,-0.0231334567,0.00432360638,0.025729062,0.005915958,-0.00479008537,-0.00330231,-0.008475479,-0.000746404054,0.0074083996,-0.015913967,0.0258144345,0.005223671,-0.0105613144,-0.0284675434,0.014408987,-0.00690241065,-0.008556788,-0.0159515273,-0.002398921,0.00672842562,-0.008346042,0.00551280566,0.014057734,0.00130221574,0.00429460127,0.00602513459,-0.00128390337,0.005515444,-0.008031318,0.00773868337,-0.02143781,0.00574031333,-0.00444531767,0.01689794,-0.0009811105,0.00489712739,0.0138786081,0.0169679672,-0.016926989,0.00162945536,0.0216752887,-0.0279622767,-0.0135316579,-0.0103243766,0.004061,-0.0222249161,0.005754419,0.006247665,-0.0220193714,0.016596986,-0.022634536,7.641432E-06,0.0231422074,-0.0167151,0.009095544,-0.005161804,0.0175958239,-0.0163840912,0.0106835058,-0.014840235,0.005674494,-0.0411148965,-0.00188292016,-0.0116491951,-0.008890776,0.01545497,0.00267676613,-0.00281505054,0.0198148228,0.000406319159,0.0150351906,0.013829153,-0.00344888843,0.0260774922,-0.0108326543,0.01962595,0.000704046048,-0.000179410112,-0.000147789033,-0.00167513778,0.00021140193,0.005149296,-0.00589052448,0.005914496,-0.0119029619,-0.00703164656,0.009570744,0.0131287724,-0.0102735972,0.012579618,-0.0153534878,-0.00331105362,0.04068674,0.01963249,0.04061182,-0.006782046,0.008174781,0.008808816,-0.00674247928,0.0127428146,-0.00185869925,-0.03556211,0.0118110646,0.0168000385,0.0163986981,0.0131635405,0.00288476166,-0.0179374833],[0.000247429765,0.00281956326,0.00502350368,-0.0009725138,-0.00149835832,0.01931018,0.00207973784,0.007117447,0.0116727483,0.000617950864,-0.000461148535,0.00526475,0.005675258,-0.009439711,0.009132111,0.0174513813,0.006608772,0.01501923,0.009235584,-0.00850339048,0.0353063978,0.00642676558,-0.0317725763,0.007038732,-0.007570975,0.0268668979,0.000138092932,0.00272229547,-0.00784291,0.0326006934,-0.009686789,-0.01428828,0.0154178245,0.00300590042,-0.00242201285,-0.0224446431,0.00201321021,0.0193998087,0.007866098,-0.0314842835,-0.00386250974,-0.00199451577,-0.0111585325,0.003284522,-0.0015417668,0.00410390273,0.00597413,0.0229265988,0.02871183,-0.0120916441,0.0220669545,0.00194812077,0.0162691977,0.0006789124,-0.00343952584,-0.008156542,-0.007235863,-0.004663009,0.0316611268,-0.018752763,-0.0221749265,0.01667283,0.0172522124,0.000472858868,0.0142500382,0.017492421,-0.00633512437,-0.0158210173,-0.00451757759,-0.0247392524,0.0240297057,0.0101379408,-0.00574921351,0.0167150926,8.806674E-05,0.0007541676,0.00341999,0.005404949,0.0104379226,0.02124096,0.00653740531,0.0264641363,-0.012411125,-0.00159114,-0.00319175329,0.004905197,0.0185057912,-0.000236412918,-0.03105268,-0.037106283,0.002265408,0.0008079682,0.00748221,-0.0216308553,-0.009421189,-0.007281347,-0.0209260825,-0.0009682273,0.004109514,-0.0168051515,-0.0115179271,0.00523142051,0.0112162521,-0.00223643775,0.00239632465,0.0100085577,-0.008475417,-0.007793927,0.001411529,0.00795135,0.0140534453,-0.0204548724,-0.0270319711,-0.004990331,-0.006910068,0.03198895,-0.020579055,0.00149270473,0.0158699472,-0.0166086033,0.0103520518,0.0189820752,8.6432934E-05,0.00300451112,-0.0273435824,0.009469493,0.025617158,0.00635954645],[0.00631559966,0.004762197,0.002530954,0.0024569165,0.002063527,-0.029860124,-0.008586274,-0.00503925933,-0.0113260094,0.00153355161,-0.00183551339,0.00245814864,-0.00416195439,0.0177003443,-0.0071512023,-0.003536478,-0.0174984913,-0.0321264267,-0.00357830478,0.000299870182,-0.0303867124,0.00680739526,0.04082256,-0.0218648631,0.00288944528,-0.026284432,-0.00245097443,0.007604727,0.0232883766,-0.0333823524,0.0006435501,0.0145764044,-0.0177622158,0.005996763,-0.0127483774,0.02479015,0.01374663,-0.016833622,-0.00139621843,0.0392562076,-0.00524598127,0.004997633,0.0136091765,-0.0102036074,-0.008327446,-0.007189414,-0.001495042,-0.0168901421,-0.0250841565,0.009869118,-0.0275541339,-0.0117495926,-0.0156227658,0.009177842,0.00765987625,0.008977775,0.00534775341,-0.0046048807,-0.0392352045,0.00631109,0.0129756285,-0.007863487,-0.0112133157,0.00426178332,-0.0169375222,-0.0123813329,-0.0137623977,0.0167641789,0.0231015272,0.0109221842,-0.0107766008,-0.0326469466,0.0228400435,-0.02217317,-0.0125568481,-0.0222717263,-0.003029957,0.0009133634,0.00746178534,-0.01796152,-0.00686409464,-0.0302301664,-0.00429971237,-0.00183651282,0.0114349909,0.004476642,-0.0141027868,0.00712648826,0.0165090263,0.04154982,-0.0143590784,-0.0106630549,-0.009565789,0.0152736418,0.0242660455,-0.004423643,0.0213151369,0.004853539,-0.00064609095,0.00493463967,0.004541844,-0.00683352351,-0.018972829,0.00505403336,0.0148642082,-0.0212279763,0.0108040646,0.0253073927,-0.00641862,-0.02416612,0.005479531,0.0225674044,0.0187347252,-0.009141968,-0.0189573728,-0.0414125659,0.0219631176,-0.006186165,-0.0239862148,0.00265549985,-0.0134475781,0.0124054709,-0.0123210568,-0.0155089609,0.0233479384,-0.003163034,-0.0331555456,-0.008911538],[0.0049851723,0.00626357226,0.00190940581,-0.003253438,-0.009707935,-0.00606557,-0.00491548469,0.00255186623,-0.00254395069,0.007366249,1.96210158E-06,0.00805368647,0.00351503049,0.0192899313,0.0131944641,-0.0005749669,-0.013956964,-0.008781445,0.0123448819,-0.0029799887,-0.0101487041,0.008066278,0.0202921983,-0.007166173,-0.0109980963,-0.00294138631,-0.0004019101,-0.000276840117,0.008924138,-0.0124518936,-0.00995633751,0.0136576593,-0.011052249,0.00176924525,-0.007075728,0.012641767,-0.0030976506,-0.00702712173,0.0008463708,0.0151734408,0.00147782965,-0.0154197179,0.004145356,-0.002524054,0.002731624,-0.005540268,0.00475051627,-0.007614804,-0.0159990937,0.005509742,-0.009195663,-0.00569595443,-0.0069376356,-0.00442079,0.0125265121,0.0114710387,0.009465232,0.0006343045,-0.0117684668,0.008769886,0.0166891776,-0.005355924,-0.000313286844,0.00811072,-0.0143940831,-0.00704140868,-0.00745451776,-0.00487840548,0.012501589,0.002352694,-0.0174857378,-0.0134163843,0.0111405523,-0.00591979548,0.0007282175,-0.00293750735,-0.0103244418,0.005759361,-0.0107708825,-0.0106104407,-0.0132397953,-0.0072172815,0.0129446872,0.0006431441,0.0100077176,-0.007858357,-0.0188258775,0.0023209888,0.013708815,0.0113797337,0.000361507,-0.0009809698,0.00366884773,0.0102596357,0.004563255,-0.006189706,-0.00171791669,0.00999236852,-0.0064261104,0.005857801,0.007592736,-0.00147961976,0.00141780789,0.009291204,-0.005744763,-0.004550929,0.007786811,0.0006767429,0.008343881,-0.0183200818,-0.0100937383,-0.00181348389,-0.0026986578,0.00104976818,0.00107421435,-0.0163925849,0.0133115612,-0.0145244794,-0.0112579772,0.008859521,-0.00360926776,0.0027374588,0.00279430859,-0.00184004626,0.0212210566,-0.00139819074,-0.0161320549,-0.00393729],[-0.0136315394,-0.00485149864,0.00583643559,-0.004635785,-0.002360776,0.0108676618,0.0139394682,0.003825724,0.001088957,-0.003599345,0.00647367258,-0.000129193635,0.00371541129,-0.013063929,0.00563605735,0.0202338286,0.00207399321,0.007759032,-0.005228608,0.00232538278,0.023024004,-0.010542863,-0.0261318628,0.007924191,-0.00612811837,0.0110357776,-0.00141338515,0.01654401,-0.009669602,0.0209674686,-0.00123164733,-0.0149125885,0.0135580795,0.0111020636,-0.00317397434,-0.0071021826,0.0005870879,0.0107697882,0.00277646049,-0.0245105624,0.00634586532,-0.00615707226,-0.0124094486,-0.00106226781,0.000375671836,-0.000531431229,0.0060012145,0.0188973341,0.0142477676,-0.0032507088,0.0146992654,0.006134225,-0.000505787262,-0.0142977694,-0.0139440456,-0.009521456,-0.0152969118,0.00109106558,0.02565452,-0.0153573295,-0.0106472149,-0.00284557254,0.0106617063,0.00434380258,0.007311531,0.0280508269,-0.007813186,-0.0156702753,-0.008552426,-0.01840567,0.0232886989,0.0146432705,-0.0136455987,0.0170436483,0.00287497742,0.00209021941,0.00809217151,-0.00332524045,0.009319385,0.0229609851,0.01021144,0.0133138336,-0.0125772851,0.00470767356,-0.00252725533,-0.005545537,0.0180709288,-0.001402841,-0.0197980478,-0.0223491155,-0.000295376027,0.00684037153,-0.00536102476,-0.0133308051,-0.00644556573,0.01094853,-0.02078496,-0.0102456007,-0.00749210129,-0.011413374,-0.0116189765,-0.009263897,0.00493838638,-0.009445852,0.00608885242,0.0102865435,-0.01622941,-0.018028507,-0.006787192,0.0218977053,0.002135769,-0.00616741227,-0.019686643,-0.0100096259,2.23824554E-05,0.0151968412,-0.0254968144,0.0109046772,0.0278625879,-0.0150468191,0.0207851771,0.00866973,0.0021511435,-0.00267287483,-0.0184152015,0.00291425944,0.0181097686,0.0140238283],[0.0110190678,-0.00573546253,-0.0103159994,-6.437948E-05,-5.76743223E-05,-0.0210998319,0.003285623,0.00125967409,-0.0102817724,0.0006827292,0.0111549031,-0.00616664952,0.00425132969,0.0253709666,-0.00262369774,-0.00694800727,-0.01499336,-0.0154567482,0.0019732276,-0.002052354,-0.04283854,0.00134690944,0.0371589661,-0.0153799467,-0.000224594871,-0.0139882052,-0.006850361,0.00421319762,0.0100694364,-0.03027185,0.014581494,0.008971411,-0.011616678,-0.008149892,0.00138916413,0.0181141421,0.005257329,-0.0204147883,-0.00772192329,0.0251833647,-0.0106654326,0.0122681716,0.020826621,0.00119736756,0.0009574441,0.00638100645,-0.00171191792,-0.009069663,-0.0262788832,0.0160258487,-0.0126063209,0.00147219945,-0.00145911949,0.00602918072,-0.000606282149,0.0119995521,0.0104568265,0.00354756252,-0.0320622772,0.007875039,0.0144766038,-0.017408438,-0.006009478,-0.00281816768,-0.0150421308,-0.0125000766,-0.004765504,0.0178872347,0.012497887,0.0210365113,-0.0191076249,-0.01359472,0.0109398784,-0.018332541,-0.00597447949,-0.00801508,-0.000106756779,-0.005326923,-0.0037093407,-0.01508816,-0.00358310714,-0.0430691838,0.009052192,-0.008205361,0.00405203039,-0.00576821342,-0.016953554,0.0155806653,0.0354283154,0.0213892329,-0.007450085,0.004907885,-0.00573198358,0.0294873454,0.00767414644,-0.00154816883,0.008896555,0.00793083,-0.00424730871,0.00313556474,0.0102146678,-0.000205296878,-0.009063633,-0.00368220638,0.00931523,-0.00517371669,0.0182520021,0.0139669217,-0.0138020432,-0.0128594367,-0.0102497395,0.0120561915,0.0370068364,0.000764162163,0.0171967652,-0.0288897753,0.0161891058,-0.00272781937,-0.0134716043,0.00415881444,-0.007922938,-0.02124806,0.005056011,-0.00714499876,0.0278128,0.002336672,-0.0107438425,-0.00530939829],[0.00812248,0.008496242,0.008325056,0.00217881729,0.005495456,0.008717095,0.00124299538,0.012027774,-0.007260097,0.0184342675,-0.007278629,0.0007365153,-0.01696322,-0.009885225,0.00100613933,-0.00576084852,0.008625172,0.013902544,-0.00188331772,-0.0171288718,0.0173775759,-0.00231486256,-0.009215219,0.00449620653,-0.00309525616,0.000776318542,0.0136269107,-0.0009989368,0.0104567185,-0.006338428,-0.006566762,0.007764,0.0109584378,-0.0109010609,-0.00686008763,0.0251582135,0.009417553,8.821398E-05,-0.0110068973,-0.009732627,0.007750216,-0.0100124693,-0.0105785215,-0.0009936917,-0.0126652112,0.0159796532,-0.03189175,-0.0101847695,0.007874301,-0.0103168488,-0.00127834943,0.008284485,0.004089203,0.012196999,0.0051796725,0.015181168,-0.001259083,-0.00981785,0.009232265,0.00154883531,-0.005098288,0.0109631047,0.0009646899,-0.005194727,-0.00144110329,0.004927267,0.00242721825,-0.0104471194,0.00649486249,0.002440106,-0.0150504205,0.0004013222,-0.00177262921,0.0103379637,-0.007508507,0.0273431838,-0.000262220157,0.00503168255,-0.02860071,-0.00934929,0.00339833088,0.0197025035,0.008860806,0.007344826,0.008781822,0.00457670167,-0.0101543283,0.00204819022,-0.009709387,-0.0211905334,0.01298268,-0.008340441,0.0107159587,-0.0141308,-0.004546746,-0.0121833049,0.00367277046,0.006207077,0.00309307757,0.00560400775,0.007092959,0.0164664537,0.0168605335,0.0126500083,-0.004814237,-0.00371002243,-0.007131035,-0.004245773,0.0273348354,-0.0133819208,-0.008281114,0.00726144528,-0.00124088652,0.00240699784,-0.005932015,0.0146323359,0.0309836585,-0.0118240928,-0.00555630773,0.00138550065,-0.03204608,-0.0210442748,0.00145136856,0.0157959312,-0.00548897,-0.00294442219,-0.0106115807,0.003556016],[-0.002366666,0.003960937,0.0131513914,-0.000166939455,-0.0137473913,0.0107558118,0.00490022171,0.0064594564,-0.00369912,0.00549931871,-0.00759865344,0.004252779,-0.0012518873,-0.009234893,0.004695622,0.00510579674,0.00479769474,0.0172896776,0.0103923241,-0.0173207838,0.0377977937,0.00254410016,-0.02869767,0.008102285,-0.008905337,0.009720533,0.0130103519,-0.006161976,-0.00187555107,0.02142255,-0.004963994,-0.006376755,0.01185039,0.006126996,-0.00506480224,0.00221492071,-0.006291223,0.011976175,-0.008373826,-0.0200959072,0.00496143568,-0.0073031215,-0.0225713458,-0.00115387468,-0.009784864,-0.00026493473,-0.0126136886,0.00182227034,0.0215843227,-0.000579124258,0.006945149,0.0025288742,0.0110114962,0.000256790721,-0.004194794,-0.0119382543,-0.009741309,-0.00700875139,0.0255175922,-0.005111945,-0.0123045649,0.022631472,0.008809169,0.006580434,0.0124714747,0.020723803,0.003439324,-0.00271771732,-0.0008108782,-0.01963521,0.024652537,0.011473706,-0.0101941712,0.009982329,-0.005665462,0.0140426056,-0.0128188627,0.0142680006,-0.0126396334,0.0165647678,0.004017875,0.03708848,-0.00503366534,0.00587125029,0.008290221,-0.0124913594,-0.005390103,-0.0147737907,-0.0170846153,-0.0230931286,-0.00395712676,-0.00138540682,0.005747928,-0.025391316,-0.0135946861,-0.00755075645,-0.00672818534,0.00276313815,-0.006538884,-0.003882765,0.006521018,-0.005912902,0.009366229,0.007989847,0.0007801916,0.00739977928,-0.0121403383,-0.01892602,0.00431815,-0.003441727,0.00372482929,-0.00122735754,-0.0273585618,-0.0101562478,-0.0213620272,0.02062998,-0.00364485732,-0.00404747529,0.009740816,-0.0110552544,-0.008079239,0.02011118,-0.0030589744,-0.00664674956,-0.00511408644,0.00469156634,0.004905812,0.008751185],[-0.000692692935,0.0111639183,0.00282492861,0.008699718,-0.00275100954,-0.00304104621,0.00742761046,0.0139956549,-0.0101838233,0.0100504188,-0.004750825,0.003002919,0.00362119,0.0103527717,0.00623951852,-0.0104733827,-0.001233095,0.0004314226,-0.00184907543,-0.00354419975,0.0007772171,-0.0007762471,0.0149854943,-0.009083459,0.002508506,-0.0150054982,0.00054132787,-0.000134173053,0.0113895014,-0.009713569,-0.00755063538,0.0143535957,0.00485374453,0.0112259621,0.0004529054,0.010824969,0.00512699271,0.00753710745,-0.0169383585,0.008366094,-0.000229182464,-0.00237406231,-0.007980776,-0.00489112455,-0.0102478629,0.00521842157,-0.005176299,-0.00315584918,-0.0132821612,-0.00371379429,-0.000239292145,-0.00318616955,-0.00379812438,0.0014704658,0.0120073622,0.009288155,-0.002978458,-0.006882395,-0.008536578,0.0157123283,0.01313454,0.002632444,-0.00719796,0.008814365,-6.0837785E-05,-0.00275047519,-0.0086353505,0.0065202727,0.006977839,0.009329192,0.000522091636,-0.0132490164,0.0102567524,-0.0114668738,0.00256393664,0.009133173,-0.0144301485,0.00432444829,-0.01608507,-0.00220091455,-0.00251120119,0.00581350131,0.00974978,0.0137097137,0.0104285516,-0.00457456,-0.0038066234,0.00177253154,-0.00242652954,0.00279935566,-0.0021629394,0.000744200544,0.0114675891,-0.0005190392,0.009755386,-0.0007330826,-0.00335816317,0.004735304,-0.00111044594,0.003207903,0.00734833861,-0.0040105,0.000231504368,0.00537336757,0.01021878,-0.00305346213,0.004100855,-0.00606199633,0.009418514,-0.009053359,0.00576845556,0.008376866,0.003565879,0.00383524061,-0.0168623216,-0.0023708255,0.0156182274,-0.0102718556,-0.0107373334,-0.003549013,-0.0156627111,0.000491379469,-0.002116543,-0.000154590147,0.0218312,-0.00619659433,-0.008837627,-0.005604517],[-0.00222644955,0.00421779044,-0.009964671,-0.002389963,0.00373256,0.0189350676,0.0102996137,-0.00186054,0.01259897,0.00181774946,0.004095893,0.00593980867,0.00268834177,-0.0321029723,0.00547461957,0.00796497148,0.0173577815,0.02394277,-0.005023829,0.0036760217,0.01739235,0.000376884855,-0.03532092,0.0142271416,0.0009190509,0.0288041,-0.00184109667,0.00145576289,-0.0100614307,0.0380024835,0.00122894358,-0.00922868,0.007913413,-0.0007460321,0.009038798,-0.0269965045,-0.0055806,0.0133155026,0.00411102641,-0.0415118076,-0.00221036421,-0.00242829812,-0.0162290782,0.006862493,0.005322727,0.003098255,0.0230643917,0.0318087153,0.0273383651,-0.00246857572,0.0237862859,0.01729999,0.0133430688,-0.0130897332,-0.0127416085,-0.020715259,-0.006669997,-0.00587541237,0.0451844074,-0.0178978983,-0.0291681252,0.007747493,0.013196853,-0.00648486149,0.0210172366,0.0151964109,0.00226835045,-0.0137857534,-0.0196457356,-0.0179114025,0.0209034812,0.0264861379,-0.0137667824,0.0186626017,0.00388294668,0.0143720973,0.00735748,-0.000259353284,0.0174768064,0.0151416548,0.00612100866,0.0208745617,-0.00365814054,-0.000211093648,-0.0147828581,0.000958781049,0.02081764,-0.01192362,-0.0108369133,-0.0356670432,-0.006003714,0.009873167,0.007370988,-0.0237801224,-0.0276002474,-0.000480142335,-0.0240150485,-0.00339961518,-0.004185142,-0.0165071171,-0.015474434,-0.008694469,0.0194837525,-0.0104066944,-0.006235105,0.0167167559,-0.00962821953,-0.0186952371,-0.00567025132,0.0332000032,0.00295761367,-0.0174537413,-0.0159271862,0.009571724,0.009564991,0.0433429256,-0.0338003151,0.0110460585,0.0338130072,-0.0117883375,0.0251632184,0.0146023417,-0.006632108,-0.000758721668,-0.0392190777,0.00675757928,0.0352029428,0.0175112132],[0.004769634,0.0106220618,0.007903179,-0.00222527236,0.00251976238,0.006275525,-0.008630641,0.0119464258,0.00594265526,0.0168187562,-0.00183616427,0.0116745559,0.00151015061,-0.0218018722,0.00724893436,0.0133873112,0.009336681,0.0200822074,0.005874966,-0.0114322742,0.0416457,0.00325466925,-0.0326997563,0.008913938,-0.002143549,0.0172300674,0.0169743765,-0.009990064,-0.0004319483,0.0174706634,-0.005036071,0.007886572,0.015108984,-0.002699444,-0.009190642,0.0046924334,-0.009292321,0.0171325151,0.00336831459,-0.02244903,0.0106633166,-0.006179004,-0.0237052422,0.00443995232,-0.0104521411,-0.00508610252,-0.010526957,0.0008164607,0.0125588812,-0.0151422676,0.0122011509,-0.002644341,0.00366630615,0.000131815861,-0.00398165174,-0.0104510337,-0.0128208753,-1.56873721E-05,0.0302994326,0.002651667,-0.0142787565,0.006877566,0.0105488375,0.009977106,0.0143528394,0.008634177,-0.00238712737,-0.00708696526,0.00365407625,-0.005199713,0.018082479,0.00164460193,-0.0190784745,0.0183072612,-0.005042464,0.0224173777,-0.00698251463,0.00323073845,-0.009303189,0.00234152819,-0.00112136838,0.0351902135,0.000407065323,0.00536801247,0.004635839,-0.009785584,-0.00553379534,-0.009601701,-0.0265980847,-0.028023893,0.00691641541,-0.00536507228,0.0140387183,-0.0264036544,-0.00382986455,-0.008151918,0.002842338,0.00138991955,0.00460060826,-0.00119837478,0.00686781062,0.00467076,0.0140678743,0.0110191768,-0.00148438779,0.002418624,-0.0137508176,-0.0142969,0.0179897621,0.00253125071,0.0005487509,0.002048302,-0.0270556863,-0.00172868406,-0.00724835973,0.0336659178,0.0103055611,-0.006518504,0.01687474,-0.0152399559,-0.0179838333,0.00302035431,-0.006686662,0.007986122,-0.0126203485,-0.00848901551,0.000314568169,0.00618821336],[-0.00265242928,0.0161297824,0.00476804748,0.0184865817,-0.0137747116,-0.00233846484,0.0126593541,0.0151117891,0.00107107684,0.00804472,-0.0139592336,0.0213867184,-0.00698162336,0.0106678447,0.0251147971,0.005406275,-0.00681695947,-0.002882242,0.0181604922,-0.0138227632,0.0214471724,-0.006948297,0.008100623,-0.00763071934,-0.0144740315,-0.000101538273,-0.008700167,0.007783946,0.002329576,0.000390839181,-0.0217245314,0.004663199,0.0125201354,0.0321720429,-0.0218911283,-0.000152979788,-0.00646147132,0.00975905452,0.00367338629,-0.0020078707,0.0127219493,-0.0110698808,-0.006916399,0.009323321,-0.00777326757,-0.0245545581,0.0120169148,0.01316177,0.00020657196,0.00299072312,0.0139607424,-0.00320562162,-0.004825593,-0.0206142645,0.00808895,-0.00406588474,-0.007686669,-0.0115701873,0.00347598386,0.0145655181,-0.00254038326,0.0172751453,-0.007918972,0.0142042628,-0.0163108259,0.0172760487,-0.0165080782,-0.003948201,0.0136596672,0.000746546953,0.0162400119,-0.009608535,-0.008561717,-0.001815857,0.00680162851,-0.00273024919,-0.00687943073,0.01351573,0.009476117,-0.002111211,-0.010321456,0.0117098456,-0.00381625816,0.00780252228,0.00018825804,-0.008514065,0.00268333429,-0.00300198677,0.002933175,0.00730680767,-0.0310178343,-0.0159933325,0.00662856037,0.0011359147,0.015171119,-0.0177823063,0.00328877848,0.0121709909,-0.00770683866,0.004340271,0.0006706738,-0.01990387,-0.015778061,0.00187370472,0.0127005372,-0.00154484191,-0.00201475061,-2.06013174E-05,-0.00249798084,-0.0137610342,0.003932459,-0.0101396861,-0.0306245983,-0.0135220261,-0.03536782,-0.0220500529,-0.00582103524,-0.00105793029,0.00309772929,-0.00109784759,-0.0006150517,0.0232975241,-0.0150594991,-0.0252878722,0.00671616336,-0.0136239724,-0.00461842166,0.004185666],[0.0132578416,0.00977114,-0.004605857,0.00845476147,-0.005003558,-0.0123756006,-0.0023178705,-0.0009642619,-0.00482369866,0.00807875,-0.00433292659,-0.0038690595,-0.00487621268,0.015021068,0.01356868,-0.006930288,-0.0167723838,-0.0157808419,0.0103618735,-0.00575831346,-0.011187423,0.0045632557,0.0306901671,-0.0130292717,-0.007154736,-0.02044915,-0.009069282,-0.0128987283,0.0189453252,-0.0246874113,0.00151858549,0.00107526372,-0.003057687,-0.003636955,-0.008138684,0.007759359,-0.00632944563,-0.007945579,-0.00101033342,0.0163058471,-0.00243669422,-0.006613027,0.004480213,-0.0107460795,0.008264036,-0.005105627,-0.00449331338,-0.003008498,-0.0260532666,0.01189872,-0.0165411141,-0.00274854177,-0.0103079258,0.004142786,0.0153201725,0.0125993174,0.0114765763,-0.005288808,-0.013122865,0.0167895984,0.0129725169,0.00110429665,-0.003924428,-0.00116896071,-0.008520108,-0.005470914,0.0015568852,0.0147474222,0.005372858,0.007962578,-0.010761207,-0.0179119557,0.0134535609,-0.0167682637,-0.005064572,-0.0133146662,-0.00223076413,-0.00223176158,-0.009531751,-0.02027795,-0.004758482,-0.0234885085,0.00541063026,0.006205198,0.0133337248,-0.00558020733,-0.0187761039,0.00243165274,0.008624442,0.0281473733,0.00126442756,-0.00405268,-0.006162364,0.0173133723,0.0192714576,0.003863441,0.0140020363,0.0124325575,-0.008821967,0.0158074144,0.00168656011,0.006785349,-0.0118295522,0.0020865933,-0.00600288669,-0.0124840094,0.009740283,0.0203338955,0.0015658983,-0.0143505074,-0.008316892,0.007215911,0.007815479,-0.004950739,-0.0104305819,-0.0168342572,0.00671218848,-0.008925037,-0.0194285344,0.006160801,-0.0122672152,-0.009416084,-0.00169914088,0.00106320437,0.0285617746,-0.00162783556,-0.0117809121,-0.004399689],[0.00238565612,-0.02190283,0.0017537683,-0.0153424712,0.0177981965,0.008285999,-0.009741018,-0.0147326784,-0.00477126,-0.0148237078,0.01167956,-0.0205607153,-0.00686586136,-0.0066821035,-0.0208998881,-0.0126749072,0.00866674,0.017427275,-0.00342188054,0.0054985173,-0.005066457,-0.00666184537,-0.003172666,-0.00342445285,0.01303318,-0.00165154471,0.002729966,-0.0008727073,0.001876089,0.0035783737,0.0222439431,-0.007128542,0.00284266728,-0.02839307,0.009256188,0.0106093679,0.007009522,-0.004478104,0.00349816587,-0.0189000852,-0.0149134425,0.01698668,0.004597695,-0.00353472959,0.00269823219,0.0260125361,-0.01940046,-0.008216269,-0.000605303445,-0.008018378,-0.007501739,0.00443362538,0.0124873724,0.007359267,-0.0202736184,0.0129680941,-0.00297423219,0.01966663,0.00497239362,0.000427170977,0.000833751343,-0.016705377,-0.002264212,-0.0200817585,0.005749382,-0.0169186257,0.0122474683,0.0113295428,-0.0167222712,0.00549169,-0.0250888746,0.0139876641,-0.00152039435,0.003370031,0.00271602953,0.0255775675,0.0123906834,-0.0219302513,-0.00781836,-0.00743826432,0.0145395882,-0.010937104,-0.011934747,-0.00586820859,-0.009459148,0.008210989,0.006711265,-0.00726954825,-0.0103858709,-0.0171056241,0.0170260035,0.0172038749,0.00375487166,0.00152882922,-0.0197368823,0.00409006048,0.00344928121,-0.01098441,-0.00736578368,-0.00836426951,-0.00325061963,0.02798183,0.0102572674,-0.00238608383,-0.0163794626,-0.000571348937,-0.0130245369,0.00311875786,0.01990789,-0.000819710433,-0.0120099457,0.0131433317,0.0195092279,0.0239814315,0.0316452533,0.0212019328,0.02112375,0.0114162583,0.00582773937,0.0123564173,-0.0126779079,-0.0237736832,0.0172410477,0.024750907,-0.009037949,0.000692192,-0.00113673252,-0.00633036],[-0.00244661258,0.0007549572,0.00490240334,0.0127740586,-0.0012379461,-0.0243126731,-0.00151808211,-0.00770636927,-0.00567773031,0.0033836246,-0.00280293077,0.003076539,0.000306201924,0.0218492579,0.0001913456,-0.00434334856,-0.0182134025,-0.0123190749,-0.00635341741,-0.00323859975,-0.0230060481,0.009029236,0.02677879,-0.0108317621,-0.008595963,-0.0276394635,-0.00532187941,-0.008629421,0.0151586374,-0.03013242,0.00289841276,-0.0008324029,-0.009662313,0.00420989934,-0.002976082,0.0182781853,0.008357337,-0.0178361274,-6.867665E-05,0.0402207226,-0.009625486,-0.0058472557,0.0192625634,-0.005610685,-0.00725879148,0.00413112063,-0.0041971,-0.015341538,-0.0182271656,0.0147807291,-0.0254992116,-0.003753225,-0.00446649035,-0.00335357618,-0.000427520165,0.007667065,0.0138841327,0.00213610567,-0.02768983,0.0179153141,0.0237701014,-0.01573802,-0.0171086155,-0.000372204551,-0.019288294,-0.0123820482,-0.00370915327,0.008372937,0.0132307792,0.0205797348,-0.0138299726,-0.0188483354,0.0141692217,-0.0274148639,-0.00676391,-0.0158222523,-0.004537123,-0.0007901065,-0.00644266745,-0.019047508,0.00290605612,-0.0315675326,8.33507147E-05,0.007828897,-0.00118853967,0.0065976684,-0.01649158,0.0156544466,0.020181,0.032334514,-0.00626530265,-0.00139367639,-0.00317758648,0.013597412,0.02238447,0.00453675026,0.0206238888,0.0117436033,-0.00218570745,0.0143169416,0.0014892919,-0.006225202,-0.0224354379,0.00735877361,0.00941869,-0.0171313919,0.0173531845,0.0192341,-0.00955748651,-0.0265779588,-0.006540363,0.024575226,0.0272816,-0.008270306,0.00210724561,-0.028918935,0.0181479212,-0.0128758177,-0.02205147,0.00773909,-0.006711744,0.00222207233,-0.007830633,-0.006170577,0.0284862667,0.002864862,-0.0206085313,-0.0153509583],[0.0006147387,-0.02023765,-0.004426192,-0.01980071,0.0180780068,0.008607917,-0.00149859954,-0.0124514392,-0.0134242317,-0.0157748759,0.005338365,-0.01754404,-0.00577142928,-0.008468227,-0.0164448265,-0.0141006773,0.0156019675,0.0175743662,-0.007971743,-0.00380132161,-0.005378582,-0.005685724,-0.00665205251,0.00488549,0.0158966724,-0.0103405761,0.0115480619,-0.007870744,0.00559479836,0.0129115954,0.0213529356,0.008355929,-0.0114455679,-0.0394538753,0.0224877875,0.003711908,0.0108980928,-0.009457818,3.99079181E-05,-0.019619219,-0.0100599853,0.0119637251,0.00156485522,-0.01330554,0.007599906,0.0326695964,-0.013424837,-0.00225707167,0.0107568875,-0.00143639441,-0.004195029,0.0109980954,0.0160130188,0.0193691142,-0.0129528064,0.0150946546,-0.00736755924,0.002325424,0.0195076745,-0.0102660265,-0.00167407084,-0.0162162613,0.01013451,-0.0174372066,0.009099733,-0.0246831067,0.0266377777,0.00643919967,-0.0206652768,0.0189619642,-0.0405462,0.0250401888,-0.009515233,-0.00434769737,0.006359551,0.0134370131,0.0213517845,-0.0137010217,-0.0191543289,-0.008795804,0.00685307,-0.000781733252,-0.00477025332,-0.017404018,0.00297349482,0.0144153507,0.00485459343,-0.004465934,-0.008753731,-0.0319588147,0.0334520079,0.0226685,-0.0008743004,-0.00105932087,-0.024631599,0.00895876,-0.00352277467,-6.934066E-05,0.009491245,-0.009955437,0.0106189791,0.03664442,0.012030391,0.0171705261,-0.02678834,0.003418092,-0.0108439783,-0.00283846725,0.0188266542,0.00130823278,-0.0110132573,0.00843813,0.02195805,0.0207320172,0.0401053764,0.0376319773,0.0194322262,0.00595055753,0.005083273,0.01440961,-0.0182694346,-0.0433818027,0.01995843,0.0394318439,0.000419994729,0.006976412,-0.0103706289,-0.009808538],[-0.0125861764,0.00215894519,0.002431446,0.002030933,0.00141145813,0.0163777713,0.0018812645,-0.0003989038,0.0059364927,-0.00552121,0.00318097882,-0.005253523,0.000472004729,-0.0322868675,-0.00625522248,0.00687772175,0.0189283229,0.0120695215,-0.0005134639,0.009735285,0.0147224534,-0.00188895455,-0.03846868,0.006093763,0.00548472954,0.0214919355,0.007662342,0.005531901,-0.009437742,0.0396445654,-0.00633779075,-0.008626391,0.0123757878,0.000460551266,0.010745747,-0.0223129969,0.004190447,0.0165442955,0.01035823,-0.03104795,-0.00301004248,0.008534698,-0.00577042671,-0.000295641075,0.00271972641,-0.0108876349,0.007535184,0.0284901131,0.0291472655,-0.0150809838,0.01148901,0.00209890655,0.008646328,-0.011490006,-0.00269296835,-0.024417758,-0.0207696371,0.007561694,0.0374426171,-0.02510237,-0.0221131239,0.0075410693,0.004692887,0.0014676163,0.010796451,0.0113355173,0.0101937754,-0.0250198841,-0.0279989839,-0.0273230541,0.027513383,0.0292221345,-0.00924975,0.0251370165,0.00747646252,0.005902361,0.0146111194,-0.009583058,0.0189511254,0.0140892705,0.0154665681,0.0288762953,-0.005008676,0.003396059,-0.00207547238,0.00228411821,0.0258705132,-0.0151451277,-0.0208225027,-0.0360731222,-0.00404210668,0.00444511138,0.00747550046,-0.025031507,-0.007705325,0.00229422376,-0.02754129,-0.008314959,-0.00428014761,-0.009194476,-0.0113691092,0.00226789131,0.0157760065,-0.0008248948,-0.00214344147,0.009997752,-0.0106317075,-0.012149971,-0.000135928582,0.020560544,0.009433998,-0.0110693388,-0.0145196235,0.0002572184,-0.00167615851,0.03451421,-0.0297491923,0.009560777,0.0244348384,-0.0165916421,0.0288097039,0.008711881,0.00145160267,-0.0100047179,-0.03959849,0.00196095253,0.0369304679,0.0193617046],[-0.002051874,-0.0102487961,-0.006321708,-0.007273252,0.0011162411,-0.0150055727,-0.00344032724,-0.00239424827,-0.000656675838,-0.001796109,0.007221225,0.00194403087,-0.007997398,0.00589396,-0.0008227108,-0.0184251834,-0.00204261485,-0.0134392241,-0.00313769886,0.000589170668,-0.0109542729,0.0006146095,0.0195424445,-0.008733527,0.00459267665,-0.00617796276,-0.01147588,-0.008916622,0.0109281,-0.0212812126,0.00559738372,0.00481266528,-0.0112325139,-0.0152132213,0.0117420619,0.0104244342,0.006511547,-0.0108472956,-0.0069300225,0.017830234,-0.009509934,0.00227946648,-8.86219059E-05,0.004851251,-0.00174233108,-0.0006961393,-0.0065700803,-0.0131989131,-0.00697896769,0.008495501,-0.0125246458,-0.003222415,-0.00773231452,0.002560284,0.008240179,0.005381045,0.0142832324,0.006062006,-0.01651804,0.00570205646,0.0111520747,-0.0107540414,-0.0141885448,-0.00422576768,-0.00017019434,-0.01655015,0.00439674361,0.01175212,0.00539041124,0.01903725,-0.0256395582,-0.0153864035,0.00360402372,-0.0227330569,-0.00016055927,0.009672495,-0.009646501,0.00295815361,-0.00183743518,-0.007965226,-0.007036962,-0.0216836128,0.00103488914,-0.0103928773,0.00558233447,-0.002695059,-0.0133497482,-0.0069156955,0.0193530619,0.0144822849,0.0168978684,0.005820096,0.00532826036,0.0165282022,0.0158713,-0.00163992355,0.0169981588,0.00311109982,0.007174487,0.00018733312,0.0127907582,0.00715792831,-0.0050442717,0.0120481635,0.00122016808,-0.00497728959,0.0157162584,0.0103934268,0.004264732,-0.009937836,-0.0081069665,0.011702247,0.0207503866,0.00270470814,0.008590027,-0.0126542635,0.0108840289,-0.00710464269,-0.0243364051,0.0131847169,-0.008789607,-0.0117532229,0.0130420839,0.00408827234,0.0261889622,0.004261603,-0.017461393,-0.007469717],[-0.00103494991,0.009900889,0.0154091651,0.0128429392,-0.01372921,-0.0129157845,0.00063473,0.005742641,0.0133181177,0.0135469371,-0.0104128318,0.0221535154,0.009027279,0.0112841474,0.0156011172,0.016701702,-0.00485957041,-0.01396557,0.013214983,4.0999912E-05,0.003607458,0.004096797,0.0162476711,-0.0048625716,-0.009357625,0.00154698372,-0.00248237862,-0.003651975,0.0008500134,-0.0110640582,-0.0177715588,-0.0009647505,0.0026939644,0.0330598578,-0.0236095581,0.004388038,-0.00447125128,0.00574581325,-0.0107683465,0.0230648015,0.0174804479,-0.0145139964,0.0058903913,0.0102504408,-6.93786351E-05,-0.0225399639,0.007780249,0.010503104,-0.0053574685,0.0148794549,0.003342412,-0.00720895035,-0.002951162,-0.0219173655,0.0148899071,-0.008428524,0.00316566322,-0.00527078472,-0.0167686213,0.0112790857,-0.00382841122,0.0151306149,-5.2864405E-05,0.0109912874,-0.0137962662,0.0150028775,-0.0193322171,-0.001687229,0.0222978964,-0.01346012,0.03000437,-0.01197581,0.00339827826,-0.00530323246,-0.002393623,-0.02338888,-0.0221850649,0.00745147234,0.0120357,-7.89924452E-05,0.00325731863,0.0006857584,0.00511968834,0.00298568979,0.005411953,-0.01867786,-0.00172030937,0.005747925,0.00406474154,0.0265608784,-0.0218450986,-0.0253355745,-0.0108003132,-0.007608443,0.00902578,-0.0140153226,0.00209296588,0.003776987,-0.006444047,0.0137720294,-0.009163732,-0.026481308,-0.02165566,-0.00564562436,0.0140432194,0.003354624,-2.02977935E-05,0.00984809,-0.0201691464,-0.00294755329,0.0165267959,-0.0016793703,-0.00690814,-0.020296542,-0.02279348,-0.03101495,-0.0196444429,0.00421743235,-0.00505145825,-0.01353553,0.0203824844,0.025126921,-0.02085123,-0.0238768775,0.0153085077,-0.0136063341,0.005055528,0.0135010527],[0.006717619,0.005236346,0.00516063254,-0.00134780619,-0.007896539,-0.0142629724,-0.0066817,0.00713421358,0.00137280358,0.00408901041,-0.0008154969,0.00451778434,0.004012727,0.0257094633,-0.0005249323,-0.008940721,-0.0140231606,-0.012248042,-0.002732644,-0.00703375973,-0.0130172027,0.00320220413,0.0265608616,-0.0101130968,-0.00358097954,-0.0222239178,0.00123409589,-0.00576569326,0.0118828639,-0.0326224342,-0.00514231,0.0156528354,-0.004821061,-0.004944656,0.005162731,0.01467035,-0.0005205999,-0.0101651456,-0.00954161,0.0269617941,0.00326694315,-0.010919488,0.006921972,-0.00711672567,0.00331017957,0.0112981647,-0.0195388757,-0.0212835185,-0.0178218354,0.00270009018,-0.0136383735,-0.01001406,-0.005267864,0.00421672128,0.0104450062,0.009320166,0.008778486,-0.00534158573,-0.015261312,0.0220313035,0.0127109066,-0.004818291,-0.0172828473,0.000380219048,-0.0053693857,-0.0159736238,-0.01014571,0.00402932847,0.00752877351,0.0125866728,-0.0340041779,-0.0154920137,0.0158247259,-0.0280347243,-0.008883273,0.00744339032,-0.003615572,0.001719932,-0.0171791967,-0.0166012086,-0.0025123707,-0.0233280025,0.010690554,0.0104860114,0.008119927,-0.0134328222,-0.02260281,0.009843374,0.0145315882,0.0251687486,0.0107045015,0.001990502,-0.005636056,0.0250888243,0.006129615,-0.00614677137,0.0182130523,0.009432646,-0.007406842,0.0201502834,0.0183539875,0.0113975368,0.0008475726,0.0122878235,-0.00669966,-0.0165437814,0.0172009915,0.013169976,0.0136765344,-0.0288964827,-0.00684317853,0.0113700824,0.0106385956,0.000942887855,-0.00600399775,-0.016227914,0.02057517,-0.00817451,-0.0259717051,0.0208517313,-0.0209735353,-0.01105118,-0.000300896761,-0.0007499768,0.0319011733,-0.0150986137,-0.0346897878,-0.0158724133],[0.013453302,-0.005707503,0.009075493,0.00486703729,-0.00053229765,-0.0112067191,0.004005926,0.00196683779,-0.000101259786,0.0110346042,-0.006151943,0.00216356269,-0.00542217772,0.0258165076,0.005638849,-0.00117046165,-0.01890149,-0.0245893728,0.00143277377,0.00270876451,-0.0172405634,0.00496256538,0.0309142936,-0.005921093,0.00133925269,-0.025332652,-0.004116347,-0.00141345221,0.0178612564,-0.0239686426,-0.00410106545,0.014386015,-0.00329070445,0.005939436,-0.009557145,0.0220158137,-0.000946258253,-0.00473679,1.90178489E-05,0.0338441022,0.007262167,-0.00131642062,0.0134073533,-0.000692533155,-0.00990296248,-0.01138299,-0.00375421531,-0.0172436349,-0.0190787911,0.008049465,-0.008030718,-0.00298642134,-0.0027581274,-0.00374710187,0.00901506,0.006267817,0.009186335,0.00263143121,-0.0182920881,0.0130841909,0.00599919166,-0.009589365,-0.007416799,0.00525333174,-0.0102787931,-0.0125856306,-0.00287021277,0.015635673,0.007954067,0.02156337,-0.0189864412,-0.0156510714,0.0107747521,-0.0292944442,-0.013317015,-0.0116817988,-0.006145626,0.009899639,-0.009650192,-0.0155439964,-0.0138147678,-0.02578191,0.0115637006,-0.0008503401,0.00340897264,-0.000734092959,-0.0170043129,0.0148252835,0.0236253571,0.03781399,-0.008419039,-0.0162952244,-0.0109545412,0.0132409092,0.00582485227,0.006125589,0.0237722024,-0.00251417654,0.00411336171,0.00461223861,-0.000187753685,-0.00394257344,-0.0138657382,0.00658398168,0.00758552039,-0.009893478,0.0147484941,0.0173797347,0.003452744,-0.0124152591,-0.003947801,0.006880154,0.02209347,-0.004560041,0.00617370754,-0.04050551,0.0226005316,0.00222452544,-0.0276772734,0.00456512254,-0.00310446415,-0.00169136527,0.0039313077,-0.0055969893,0.0334226452,-0.01194408,-0.02951651,-0.0158329085],[-0.003210301,0.0215221066,0.00464001438,0.0247789547,-0.0243153181,-0.00148044457,0.0111877695,0.00486415,0.0152969174,0.00693639927,-0.0179940257,0.0243811682,1.38774749E-05,0.01724947,0.0255349688,0.0217767488,-0.008489083,-0.0168785285,0.012281891,0.00367701659,0.011940849,0.00642529549,0.00425477559,-0.00453717075,-0.0145990932,-0.00125778688,-0.00118874141,0.00270814076,-0.0100401761,-0.0014956505,-0.023612285,-0.003976305,0.00321958656,0.0423260219,-0.016784288,-0.005530953,-0.008458138,0.00422283961,-0.00431070523,0.0192201473,0.0188136175,-0.0153292371,-0.0009214955,0.0126218079,0.000318529434,-0.02555067,0.00732495263,0.008891088,0.00188803673,0.004305979,0.00670598075,0.00216457038,-0.00351026072,-0.0272468328,0.0196764134,-0.006479317,-0.00481535168,-0.009874035,0.00307542714,0.0068998877,-0.005486084,0.0178380646,-0.00347232912,0.0112797534,-0.0101700006,0.0187608562,-0.014650763,-0.014866082,0.02532065,-0.008269297,0.01947378,-0.0235114116,-0.005194263,-0.0026572065,0.00608288171,-0.01045699,-0.009200517,0.006770347,0.00663625449,0.0156002874,-0.0131911822,0.0138546433,0.00161166815,0.0159733165,0.00144899939,-0.0218402371,0.00525434129,-0.00571666937,0.000794498366,0.0289653279,-0.03176196,-0.021723168,-0.00343748019,-0.00183569023,0.0208500084,-0.0133015793,0.00105212815,-0.00264098123,0.005467119,0.0111201359,-0.000570947363,-0.0334195979,-0.0214633457,-0.00305789337,0.0174087342,-0.00464660535,0.002874303,0.00203854521,-0.0112984786,0.001318354,0.01686796,-0.00502641872,-0.0241862088,-0.0217933822,-0.0361822955,-0.0257014688,-0.006967411,0.0039334395,-0.00500304531,-0.008025208,0.0154278092,0.0383106172,-0.0132585289,-0.0284683518,0.005221981,-0.0118835047,0.008653209,0.0048714825],[-0.00716687832,0.0215875674,0.0128636388,0.0228221528,-0.0166061651,0.0032734815,0.0139949471,0.0119628236,0.010889478,0.01021235,-0.0125984941,0.0197081324,0.01090482,-0.00499276025,0.017381601,0.0252461657,-0.0142270215,-0.010374737,0.003304493,0.00558140175,0.0160671938,-0.00484105526,-0.0009075345,-0.007763823,0.00136730785,0.009432587,-0.0116516622,0.00438088272,-0.00242962083,0.0109469537,-0.0176856834,-0.00390217919,0.000369759742,0.0310681276,-0.0212741625,-0.0106067853,0.00142347289,0.0114611406,-0.00518893031,0.0181190241,0.00224984926,-0.008221923,-0.00566322543,-0.002265859,-0.00146630569,-0.0220560133,0.006163848,0.005480644,-0.001509889,0.005809967,-0.00156420446,-0.00298952358,-0.009926272,-0.0238526482,-0.000271544937,-0.0132716792,0.001180822,-0.009210905,0.00257291086,0.007940007,-0.004278488,0.0165822953,0.00217039976,0.0148426061,-0.00915437,0.0323603824,-0.02356153,-0.007552905,0.0212246459,-0.0111848963,0.03863189,-0.0157503039,0.00517434441,0.00191574777,0.008354794,-0.007939879,-0.007489084,0.0102628218,0.0114689954,0.013639085,-0.00498061161,0.01270887,-0.000357996352,0.009827679,0.00430635875,-0.007612789,0.009563946,0.008502319,-0.007955089,0.0100486893,-0.0315410346,-0.02801029,-0.0127978912,-0.008301421,0.005192179,-0.00651601842,-0.00682801753,-0.002435378,0.00138731685,0.00184391346,-0.00476273941,-0.02929819,-0.0164226,-0.00706703635,0.008310142,-0.000552137964,0.0002082355,0.0088029,-0.008667726,-0.00551784551,0.0199221522,0.000247436081,-0.012375976,-0.0139933731,-0.0321724266,-0.0244475026,-0.0190975219,0.00202720286,0.005074672,-0.0214631073,0.02055411,0.04311586,-0.0213359147,-0.0227112081,0.000100309189,-0.0128537659,0.00166482991,0.0124434149],[-0.00805464853,0.0111665167,0.0140694221,0.005033676,-0.000406248437,0.0116911521,-3.70459748E-05,0.0152587416,0.008612955,0.005861608,-0.00196585665,0.00638839,-0.00294698169,-0.00220581726,0.0187313762,0.0265618935,-0.00803494453,-0.00287693413,0.008858031,0.0007703216,0.017713502,-0.008929691,-0.0138910664,-0.00913797,-0.00138613454,0.008811883,0.00342642539,0.0100637944,-0.00432733167,0.0169334915,-0.0186099913,-0.0143565256,0.0125477212,0.0218641926,-0.0198853426,-0.0139330579,-0.00630953955,0.00412408775,0.0083549,0.000703507,0.005778992,-0.00155107363,-0.005069686,0.002467142,-0.005714326,-0.0229664426,0.00812459,0.0143302847,0.015758222,-0.00265189819,0.0116832471,0.00127152528,0.00539410952,-0.00898976,0.00735611562,-0.0137142893,-0.00380234723,-0.008152245,0.0167939849,-0.0113575533,-0.0133358929,0.0164876189,0.000137691633,0.00226801867,0.00148952252,0.0211869683,-0.005291547,-0.00608045654,1.60101063E-05,-0.0207798835,0.0217796434,0.005005968,-0.0125557864,0.00666280836,0.003448413,0.00292946585,0.00297843781,-0.00316090439,0.0151599282,0.0169665162,0.007415107,0.02268411,-0.00803203,0.0124414172,-0.00624180725,-0.0114594353,0.00181604654,0.006014539,-0.0193639435,0.0007925375,-0.0213728361,-0.0171211734,0.004748107,-0.0105880657,0.00549162226,-0.0129985362,-0.009183492,0.006837497,-0.00252265483,-0.003313846,-0.0121236136,-0.01683089,-0.002496603,-0.009349384,0.01072136,0.00216121762,-0.000200906739,-0.008452732,-0.00145223935,0.008354764,0.00532372575,0.0006587212,-0.0287999213,-0.00652476773,-0.0193110462,0.00727318646,-0.0170869939,0.0106013762,0.0132120969,-0.0109607894,0.0114081558,0.028701596,-0.00648695463,-0.019814346,-0.016189849,-0.006887851,0.0033775738,0.006701645],[-0.00477945339,0.00597823272,-0.0002891502,-0.0146601694,-0.009489649,0.0292896815,0.009790227,0.0008164013,0.0100246342,0.00506973173,-0.000372188224,0.000244735915,0.0008814799,-0.0245649628,0.00615713559,-0.0012133728,0.0132166976,0.0285626855,0.000454963767,-0.0155296829,0.03882406,0.006793829,-0.03366874,0.02442564,-0.00320201181,0.0234205034,0.004799487,0.00485561555,-0.0141830379,0.0254404135,-0.008626702,-0.00252864975,0.01960184,-0.0127884643,0.009398475,-0.013448176,0.00379464473,0.0155747961,-0.00155452569,-0.0346816927,-0.00336172944,-0.005215995,-0.0231605563,0.0166352317,-0.004525451,0.009383048,-0.007269573,0.0189845134,0.0357044749,-0.0167485159,0.0257563554,0.00272972533,0.0179451257,0.00116057461,-0.00326893758,-0.013633091,-0.005962822,-0.004357988,0.0401526764,-0.009822249,-0.024432065,0.009063683,0.0171756428,-0.00322571187,0.0223390833,0.0153222717,0.01465833,-0.02002572,-0.023041036,-0.00492416555,0.00650667027,0.024585573,-0.0187902451,0.0179544352,0.009827123,0.0193022843,-0.00210646843,0.004566322,-0.00362691144,0.01263011,0.0101230228,0.0326866619,0.00243202876,-0.00544950971,-0.000285708258,0.000513591163,0.008102699,-0.0169254411,-0.0271726474,-0.0498668477,0.01306956,0.000496091146,0.00903842,-0.0320164226,-0.0146771073,-0.00454544229,-0.0149990171,-0.008947817,-0.0006644822,-0.01154195,-0.00153439457,0.0053619137,0.0245229788,0.005506432,-0.0107640382,0.0132267307,-0.0214741882,-0.0259006135,0.009568642,0.0215271376,-0.00398064451,-0.01964044,-0.0292463526,-0.000790763239,-0.00592495129,0.03993461,-0.008075628,0.00012272397,0.0206389,-0.007925976,0.00262366,-0.00719438354,0.00514686061,0.00674138358,-0.022033263,0.000370157941,0.01368242,0.0113043487],[-0.00595982233,-0.000260470726,0.00703818863,-0.004258093,-0.008889037,0.0244413409,0.008167839,-0.00366612663,0.0146835949,-0.003898677,-0.00147413521,-0.000153348054,-0.00187029783,-0.0218896419,0.009405808,0.01827404,0.00472697476,0.0200119168,0.00500296941,-0.0005248695,0.03032087,-0.008404726,-0.0391446576,0.008998666,0.00645784661,0.0253930837,0.00119238067,0.0116252061,-0.0182944667,0.02606676,-0.000140369855,-0.0160274841,0.0165354759,0.008265286,-0.000813242455,-0.012143366,-0.003422309,0.00644946937,9.268092E-06,-0.03338882,0.00579138938,0.00142184214,-0.01469103,-0.002648751,0.006217606,-0.0116680516,0.009717647,0.0119404877,0.0327886641,-0.00339246541,0.0139541086,0.00417603832,0.0192072187,-0.00272038276,-0.0100103337,-0.0109740272,-0.00187407807,-0.00337517983,0.0415895134,-0.0192958377,-0.0175105967,0.0145043628,0.00761817163,-0.004746947,0.02049312,0.0254269466,0.00558245042,-0.0160868969,-0.0147637464,-0.0202452615,0.0216791648,0.009576987,-0.0126821427,0.0228357017,0.012307534,0.00208615977,-0.00422849646,-0.005874285,0.01168691,0.00996836,-0.00348562212,0.03064179,-0.006398561,0.00618161075,-0.006107904,0.005321574,0.0192585047,-0.007694318,-0.02906463,-0.0263232123,0.003984641,0.00115060748,-0.002009061,-0.019537203,-0.0077813766,-0.009377203,-0.0213928074,-0.009279055,0.00744861737,-0.0131716654,-0.008875163,-0.00226518745,0.0100437291,-0.009794671,0.004990658,0.0124649908,-0.0117208865,-0.0187563766,0.00298492936,0.0226708725,0.00613377569,-0.01906596,-0.03397184,-0.00262611383,0.000652035,0.0262115076,-0.0242805239,0.00353743,0.0294867251,-0.01672298,0.0130421845,0.0183318034,-0.008881144,-0.0120300781,-0.0337883569,-0.00241716742,0.02741912,0.0139763048],[0.00504129753,0.0145401275,0.001423187,0.0170417223,-0.011347224,0.0065906723,0.00377829559,0.02207897,0.00562668545,0.0139441453,-0.0209973473,0.01528113,-0.00889916,0.00779218832,0.0223607272,0.008385911,0.0049038236,0.0066327583,0.0142653817,-0.0178587623,0.02955437,0.00323026557,-0.0215210263,-0.0006729149,-0.007649369,0.0077181044,0.001657711,0.00191917643,-0.00690225465,0.00262956531,-0.0153348008,-0.004894329,0.00593527174,0.0338704176,-0.0116269477,0.005679453,0.00437696232,0.0108038643,-0.00195765123,0.00122799969,0.0196991339,-0.0200165417,-0.0121085988,0.00707206037,-0.000221633367,-0.0121018961,-0.008460368,0.009269322,0.005578016,0.0009858205,0.00593918748,0.00295552216,0.00200156961,-0.0192460828,0.00454002572,0.0005235022,-0.0114003671,-0.0147031527,0.01823791,-0.00248652673,-0.009970321,0.0166413672,0.00101462775,0.00836174749,-0.009325137,0.0207748581,-0.009506654,-0.0117302462,0.0131385056,-0.008576285,0.02400598,-0.00118931406,-0.00684921443,-0.0005425284,-0.00578991463,0.006009164,-0.0155739468,0.007141122,-0.0119009353,0.013708015,-0.0132753439,0.027764529,-0.00393324345,0.01037748,-0.00580197433,-0.008274846,-0.00123320613,0.00718938047,-0.0142222568,-0.00383745553,-0.0249509346,-0.0189001113,0.00451152259,-0.0220452677,0.0036817512,-0.0168867372,-0.0009443594,-0.003410774,0.0028316956,0.005816299,-0.0112862168,-0.0199575052,-0.00382059976,0.00381528353,0.009521165,-0.006749006,-0.0068280776,-0.009354329,0.007597805,-0.0127828978,0.0183187854,-0.0103398059,-0.0416077524,-0.01903518,-0.037624564,0.00394541072,-0.000201812145,0.003795189,0.009457712,-0.00503377942,0.00170815829,0.0269924812,-0.0164825134,-0.00768568041,-0.004416821,-0.002215284,-0.0060558985,0.005763775],[0.00736737624,0.015137013,0.00550173456,0.0111490022,-0.0168482773,-0.00311941071,0.00189218938,0.008426329,0.0161245354,0.00255893962,-0.006733373,0.008561463,-0.000581012166,0.004291711,0.023333963,0.0163454842,-0.0111547578,-0.008001987,0.002685458,-0.00142700807,0.0126940943,0.00131093268,-0.00308116,-0.0148081165,-0.0132445944,0.0117612043,-0.0008959561,0.00414887,-0.0005418361,-0.0117979851,-0.01797532,-0.006518957,0.009637842,0.03147234,-0.0291108582,-0.008286604,-0.0118099861,0.0124670984,-0.00401417864,0.0142371245,0.0169608444,-0.0143382056,0.00485806726,0.009610221,-0.0105151953,-0.018849656,0.007955495,0.0136039611,0.002511696,0.0115850493,0.00481327763,-0.00130816107,-0.0134531436,-0.02489796,0.00896218,-0.00582866976,0.00346857612,-0.0144915227,-0.00385473948,-0.00263020513,-0.0108893774,0.0137000876,-0.005962113,0.01587872,-0.00650475826,0.03136933,-0.0226516854,-0.00527307158,0.02074514,-0.00692364341,0.0243135244,-0.0126572512,0.006958446,0.007079848,0.009114481,-0.0233876649,-0.005451955,0.0129923634,0.01697263,0.00635625,-0.0066173654,0.009022647,0.0112482933,0.0173889734,