{"Layers":[{"ClassName":"Layer","Content":{"biases":[0.0065975124,0.0187954046,0.0122090373,0.02072822,-0.006357921,0.00694630155,-0.000426586717,-0.0115932673,-0.0296771117,-0.0324082859,0.00180896174,-0.003577518,-0.0133299306],"useBias":true}},{"ClassName":"ActivationLayer","Content":{"biases":[-0.005494089,0.006001919,0.0006093765,0.00592786027,-0.0109334122,-0.002736264,0.00283095147,-0.008032023,0.02002539,-0.008281682,-0.00166314282,0.008594397,-0.0120809777,-0.006974497,0.0138573041,-0.01780145,-0.00570902741,0.009335578,0.0100066243,0.00691707944,-0.0140434476,0.0117831072,-0.012369737,0.008914286,-0.009796845,0.006864592,0.009709338,0.002049032,-0.006390985,0.007787629,0.00309608947,-0.00621884968,0.0100724474,-0.00229837373,-0.00295413355,-0.031050358,0.00191365846,-0.00560035324,-0.00255957781,-0.02928158,0.0115810735,0.00255578151,-0.0127760945,0.00344262971,-0.00436389027,-0.0070222104,0.0183916781,0.0376809277,-0.004853579,0.00291682268,0.007680728,0.00428888155,0.0107558239,-0.0226843748,-0.00311727053,-0.006057915,0.00660970667,0.00198333524,0.00654219976,-0.0120321,-0.00620457763,-0.007795136,-0.0088385,0.0130824335,0.00617454946,-0.00118577958,0.00270397263,-0.0150566008,-0.0262623355,-0.00487005664,-0.00499543,-0.001629239,-0.004984646,-0.00408405624,0.008914706,-0.0182986241,-0.00364492228,-0.003762138,0.00538978726,0.0226686671,0.008823184,-0.001400883,-0.00479843654,0.00476571824,-0.008054233,-0.0150007475,0.007369451,0.00538397161,-0.00647289632,-0.00140425633,0.00195358368,0.00473637553,0.00351163722,0.00458634971,0.0032560043,-0.00222356012,0.0102489181,0.01868025,0.020449236,-0.00250415527,-0.00373899564,-0.000421452074,0.0125416648,-0.000404481863,-0.00158303883,0.00377242034,0.0068623554,-0.0128553556,0.0008592513,0.0168179478,-0.00595875876,-0.00257653557,-0.00201436318,0.0111175273,0.0218727868,0.008130643,-0.0113876136,0.0147572923,0.00262267864,-0.00692302035,0.008978374,-0.008625902,0.0102946535,-0.0183633324,-0.009938203,-0.00566082355,0.00680116843,0.0114614032],"useBias":true,"func":2}},{"ClassName":"ActivationLayer","Content":{"biases":[0.0312003233,-0.0103692552,-0.08194795,0.0328095555,-0.0077289897,0.0589008071,-0.0556056947,-0.04408496,0.057551194,-0.03656679,0.02815573,-0.0156539772,0.0337419771,-0.0260774288,-0.04544936,-0.0109430989,-0.00572032854,-0.03926678,-0.0112506589,0.08324366,0.0009591501,-0.04595597,-0.00653886842,-0.037717253,0.111857243,0.0160018783,0.01003554,-0.03418731,-0.07010188,-0.0521178,-0.0152293639,0.07136999,0.00613210257,0.00282203988,-0.0331956968,0.00242492952,0.0572199821,0.0371888764,0.0849334747,0.04671619,0.0512373261,0.0205550231,0.02548614,0.0103909429,-0.04718614,0.07887807,-0.04687233,-0.0257524885,-0.03223251,0.09113358,0.0342819,-0.07900538,0.07817981,0.0935855,0.00464042,-0.000228024786,-0.0008528905,0.0220238473,-0.009213567,-0.03251764,0.03778513,-0.06953409,0.005312938,0.0634877458,0.01037415,-0.0374875776,-0.0496179536,-0.08151805,-0.0342576131,-0.008570263,-0.0192913,0.06119024,0.0680093244,0.035556145,0.028139621,-0.06735068,-0.0605948456,0.00750704668,0.00414707838,0.00369636575,0.0110118063,0.02584517,0.0350894742,-0.0155809615,0.0386015661,-0.0280010235,0.01471833,0.00966823753,-0.0545425341,-0.00279494771,0.063820295,0.00393922534,-0.009869241,-0.03057915,0.0501240119,0.0234443173,-0.017812822,-0.101115219,-0.0200364217,-0.103220992,0.0125149265,0.00208909973,-0.04467369,0.06358412,0.0289618131,0.0147068659,-0.0165980477,0.0842709839,-0.0885835,0.0168797169,0.046004083,0.004773918,0.0165885352,0.0389023833,0.03669747,0.0331859738,0.06276542,-0.010710909,0.0291646458,-0.0519864671,0.023894852,0.01715419,-0.009012252,-0.0644909739,-0.0116150631,-0.0666449741,0.00599620165,0.005137833],"useBias":true,"func":2}},{"ClassName":"ActivationLayer","Content":{"biases":[0.02386897,0.0005965302,0.185341373,-0.1289192,0.0275987424,-0.18553862,0.205097288,-0.118996941,0.147075847,0.0284640417,-0.110540286,0.0322041363,0.135851845,-0.005971406,-0.035286393,-0.0266892463,-0.0418529846,0.09217079,-0.06353928,-0.108287439,-0.0499094725,-0.00375539484,-0.0871151239,-0.06456491,0.03718994,-0.0587913841,0.000159928371,-0.0515519567,0.053519804,-0.0408831425,-0.2886722,0.07003983,-0.0681602,0.00606877962,-0.0128307724,-0.135683388,-0.11532528,0.08688692,0.03208649,0.0179143213,-0.0509425849,-0.0154219056,0.0626410246,-0.152083173,-0.06924469,-0.0822002739,-0.007431382,0.07050948,-0.0225518979,-0.202186346,0.0157282669,-0.0395608842,0.04768809,0.126179978,-0.176145941,0.152408034,-0.02059708,8.13421138E-05,-0.00452345423,0.165873751,-0.015575245,0.107615888,-0.00303471182,0.0109142652],"useBias":true,"func":2}},{"ClassName":"ActivationLayer","Content":{"biases":[-0.166079521,0.197574437,0.0615929365,-0.0786294,-0.238472626,0.06483243,0.3545783,-0.248269439,0.0224890672,-0.2847639,-0.15154992,-0.08861093,0.148012042,-0.186521679,0.6481695,-0.0543326735],"useBias":true,"func":6}}],"Weights":[{"ClassName":"DenseWeightMatrix","Content":{"matrix":[[0.0687940642,-0.0110142892,-0.002661893,0.08456807,-0.03620563,-0.0495379828,-0.08300186,0.0403323732,-0.0513885878,-0.0254623648,-0.0168650821,-0.0710177049,0.0548342355],[0.110292144,0.1158374,0.0169218779,0.03714038,-0.03854213,0.0234441143,-0.08037073,0.021666266,0.0694775954,-0.0918497145,0.0775497,0.0576327555,0.0517509878],[-0.0321229137,-0.02715788,-0.1747359,0.0527343862,-0.0667868257,0.0485278666,0.0200017672,0.08389819,0.0129563035,0.07999,0.0484870523,0.0853029341,-0.06838657],[-0.01590867,0.02490533,0.0285558011,0.03082484,0.0249324888,0.08402601,-0.07173872,0.06764474,-0.00100556749,0.0441778935,0.08204678,-0.150306329,-0.03472356],[-0.09196053,-0.09702224,-0.0551671125,0.0115895523,0.01002174,0.0386447124,0.0492106751,-0.0571068823,0.103768,-0.03396962,-0.0616557337,0.0232149,0.0182754528],[-0.119709291,-0.06990987,-0.04563609,0.02039489,-0.0365078524,-0.08039702,0.09146204,-0.0751794,-0.0486476943,-0.0347760953,-0.01816457,-0.035194058,-0.08372713],[-0.0564873181,0.000160461961,-0.00346434047,-0.07208102,-0.08086976,-0.0287723672,0.0431505926,0.08985745,-0.07578078,0.0122215087,-0.0237446949,-0.123848431,-0.0165252034],[-0.006457314,0.0760025457,-0.0389740467,0.183141261,-0.120184273,-0.0388884246,0.0420362651,0.0232785866,0.03130996,0.100510538,0.0421277136,-0.0739028454,0.105657704],[0.0102573344,0.00164635479,-0.0956830159,0.111778751,0.02877368,-0.0888279155,-0.07573941,-0.05407225,-0.05082874,-0.0349621475,0.0757660344,-0.07362312,-0.09554571],[-0.05282858,-0.0353289843,-0.202313349,0.05188165,-0.0148933791,0.07225023,-0.166595548,0.07544752,0.0573419929,0.09707369,0.0440854765,0.058325164,0.04947432],[-0.0848733038,-0.110128537,0.049878452,0.031291157,-0.0365349427,0.06109148,0.0269330889,0.00251350482,0.0761699155,0.004402913,-0.04079594,-0.04627432,-0.0561747439],[0.0619507767,0.002570596,0.116926469,0.131529376,-0.0742086,0.0537411869,-0.0047772564,-0.116459846,0.03375762,-0.02862002,-0.056855768,0.0471718535,0.0142890271],[0.07037899,0.05563762,0.0174682289,-0.04833626,-0.0361241549,-0.07066207,-0.0463707671,0.07183592,-0.023127865,-0.0142757995,0.06964229,0.116986431,-0.0290854927],[0.09360195,0.0376949348,0.05250029,-0.0819055,0.0305274446,0.0173544846,-0.00150346314,-0.0437394045,-0.0452073142,0.0162372086,0.0764853358,-0.02798522,0.0259990674],[-0.0145675372,0.154370472,0.0273511112,0.03764374,-0.0287454817,-0.01987592,-0.00391807733,-0.03024173,0.0478580073,0.03982136,0.0344002619,0.0528248735,-0.0740742162],[-0.06341902,0.08066484,0.011804739,-0.137197673,0.03219147,-0.056230817,0.0171317328,0.123238467,0.02508547,0.06233284,-0.00199383218,-0.07503178,-0.0245530065],[-0.140657708,-0.0260277931,0.0438482165,-0.0228698011,0.04240951,-0.0525558032,-0.0160581358,0.0125353048,-0.06390527,-0.046202857,-0.0289946031,0.00233679521,0.0050704875],[-0.07654913,-0.01601158,-0.107720964,0.031294927,-0.036981672,0.09186265,0.04868496,-0.00327288616,-0.0453373268,-0.0104551874,-0.0416165031,-0.154867947,-0.0618714467],[0.02519971,0.06549369,0.019775413,0.0183487125,-0.04342367,0.0145118749,-0.0426700227,-0.0266232938,-0.0799026638,-0.0734924152,-0.0583305135,-0.05532948,0.0117536336],[0.0296061747,-0.131674722,0.125636175,0.0110988123,-0.00762213,-0.164056078,0.06288877,-0.0244697556,-0.1286092,0.006559347,0.0198584925,0.0205411073,0.0811936259],[-0.08824238,-0.0116054341,-0.167457312,-0.199105456,-0.0224479549,0.148447573,-0.05337803,-0.09612675,0.0777775049,0.0386304855,0.127025515,0.001250658,0.09021054],[0.0345828533,0.0518191271,0.04558523,0.03461161,0.006701814,0.06145174,-0.0783629939,0.0324568972,-0.09184734,0.0005377048,0.0206632074,0.10859593,-0.0401147641],[0.123269282,0.0158540588,0.0310730152,0.0583679266,0.0243702028,0.0694307238,-0.04533901,0.0454737246,0.09467891,0.03626795,0.011067044,0.07204482,0.0208915416],[-0.0499277338,-0.06537868,-0.1261065,0.05329263,0.07664993,0.113313429,0.0150423441,0.021123331,-0.100859292,-0.0832827,-0.0481054224,0.0710765049,0.0160645265],[-0.0733936355,-0.00284856069,-0.1611555,-0.1863536,0.005716119,0.155456945,-0.08165639,0.111063659,0.00154260616,0.0146933962,-0.06486435,-0.06485291,0.0241786335],[-0.09708845,0.01868287,0.07454355,-0.05791295,0.0280052219,0.04440459,-0.08965422,0.0829312354,0.0524816066,-0.06765734,-0.0205073953,-0.111430891,-0.0707081854],[0.009723107,0.0735675246,0.0174437072,0.0246907454,0.033079192,0.10153994,0.006080555,0.0121645536,-0.112695329,-0.05015404,-0.06346457,-0.13463892,-0.009697192],[-0.119127177,-0.05369,0.0008105306,0.0271679442,0.09292527,-0.0424313843,-0.0749810562,0.01884852,0.08005882,0.0123398127,0.0604692958,-0.06787556,-0.007994102],[0.1085753,0.0118457694,-0.06720805,0.07187801,-0.04528363,0.102628991,-0.10485781,-0.0122059556,0.0900865644,0.111021988,-0.05772245,-0.0550400056,-0.0103831114],[-0.116838388,-0.0519665219,-0.0879384652,0.06884542,-0.0562679246,0.03702227,-0.0222816132,0.0153871216,-0.034029264,0.009162764,0.06294942,0.033210922,-0.0301845465],[-0.0644882,-0.08617749,0.0217845943,-0.06299011,0.00723862,-0.07808935,-0.0417933576,-0.0263382886,-0.09278601,-0.108260848,0.0190476272,-0.09101265,-0.0324981548],[-0.0470195562,-0.05700478,-0.131308854,-0.12117248,0.0182475,-0.0160164852,-0.107716754,-0.07209331,0.05394222,0.129412517,0.07456127,-0.108729415,0.0426687077],[0.0610532872,0.0464217253,-0.0296054129,0.1365868,-0.01302797,0.07694538,0.000844432041,-0.0770126,0.0209308863,-0.100698054,-0.0942763239,0.09100588,0.0234096367],[0.1011554,0.0790363848,-0.05905381,0.0112355957,0.0585502423,0.172034889,-0.1079601,0.0531235225,0.0629451349,-0.0269237589,0.05496045,-0.0566357933,-0.0886105],[0.180348113,0.0111559192,0.0597985722,0.0006085872,-0.017728528,0.0656125844,0.02590998,-0.040127486,-0.07654082,-0.03613749,0.0109558562,0.0271294825,0.03605884],[-0.07034217,0.09705176,0.04236372,-0.0252920464,0.00500588,0.019617334,0.0278674643,-0.0194167178,0.09521268,0.153811127,-0.0336140543,-0.0450772233,0.06832653],[-0.0251275189,-0.0397744328,0.07871378,-0.116708525,0.05768296,-0.0556888655,0.0501303561,-0.0723013654,0.09588381,0.0307909064,0.014830634,0.0579013377,-0.0232656356],[-0.0287234187,0.03800777,-0.192525461,0.09544593,-0.09434801,0.12890175,0.03492868,0.01644335,0.07864986,-0.0436414257,-0.006416161,0.125123456,0.0310544316],[-0.116243474,-0.0006631545,0.03933454,-0.08341632,-0.04837732,0.02233806,0.0791830048,0.05225261,-0.0402389355,0.0272458624,-0.07286553,-0.113887854,0.0833119154],[0.00137723668,0.01140476,0.03503727,-0.101034343,-0.05242882,-0.004820974,-0.16371952,0.106382586,0.13562876,0.0861454,0.112529248,-0.0172547773,-0.0450946353],[0.06677869,-0.0278946124,0.07838478,0.164773673,-0.0602805652,0.0319267176,0.0286540966,-0.00286768819,0.0203740168,0.01142274,0.0131236082,0.0788179561,-0.04518075],[-0.109524705,-0.07891621,0.019398436,0.00139867084,0.0797421262,0.05657566,0.07660806,0.0178699568,0.0451519,0.0379633941,0.08208447,-0.0344229452,-0.0340272561],[0.06176476,-0.106215425,0.06690222,-0.0654291,0.0229093,-0.008965991,-0.00780931441,0.02124513,0.11071796,0.00061399804,0.108001687,0.0294800121,-0.02716077],[0.129861489,0.05005038,-0.0596149266,-0.0194368251,-0.0459695,0.0291335955,-0.05180739,-0.0500035658,-0.06537015,-0.0234921332,-0.05202155,-0.04863019,0.023722589],[-0.00158316072,-0.00442613149,0.15039216,0.05680725,-0.010342014,-0.016196724,-0.0308213383,-0.0146508813,-0.03890201,0.02055933,-0.0354936048,-0.0334491171,0.019868359],[-0.126863167,-0.119980671,-0.0393265635,0.00720736943,0.09383857,0.03889924,-0.0424621031,0.0242643133,0.100972608,0.0121493069,0.115893923,0.09561045,0.0316726975],[-0.0138469376,-0.0134749431,0.1298058,0.0267627481,-0.06466971,-0.150840476,0.0267285742,0.0251903385,-0.1568609,-0.126148209,-0.03952902,-0.132036373,0.0667473],[0.0502378345,-0.0473382846,0.144637048,0.04549296,-0.115212291,-0.0277008116,0.0131660011,0.0221502315,-0.07190774,-0.134547427,0.00275522773,-0.171934962,-0.0523771979],[-0.0423678458,0.0225306917,0.137415648,0.0827500746,-0.07464776,0.05052742,-0.05629138,0.0291478317,-0.0310173258,-0.04446977,0.0259366836,0.106956556,-0.0221535787],[0.0437865146,0.03281145,0.0623754635,0.0505935326,0.05157517,0.00301295,0.0258182622,0.0212473813,-0.03460883,0.03774162,0.08550703,0.117919423,-0.0899288356],[0.09418967,0.04085663,-0.0511167049,-0.08580252,0.0568346381,0.0111408709,-0.0424163453,-0.003708599,-0.0959526,-0.0220051166,0.03537992,0.0938229859,-0.0403545126],[-0.127446726,-0.00547680026,-0.06590732,-0.0206397977,-0.0303502046,0.0941593,-0.06549104,-0.0141169569,-0.04716941,-0.08501138,0.06295549,-0.0393890329,-0.0570352972],[0.0103983264,0.0139306411,0.009966906,-0.133292392,0.08615023,-0.02424988,0.0614062063,-0.0196882337,-0.06216359,-0.0174597874,0.06359644,-0.0166734252,-0.0232651215],[0.0548587628,-0.10349752,-0.0117885526,-0.0317582451,-0.0901172459,-0.036248073,-0.0343796872,-0.05168678,0.109998792,0.0381421521,0.07629856,0.0124312025,0.0856393352],[0.0346063748,0.129732519,-0.00338865258,-0.00424981257,-0.06728214,-0.0371179245,-0.00379896816,-0.0541968681,0.0258157551,-0.06461675,-0.0459282771,0.0176571049,0.0320270769],[0.07423695,-0.06644897,-0.0626326352,-0.100811794,0.09292325,0.06802147,0.0382536463,-0.005028215,0.0418296345,0.0575778857,-0.025015112,0.0535914,-0.07862848],[0.08052226,0.00402543228,-0.111084692,-0.1293631,0.00232846662,0.0301398337,-0.00765641872,0.03982249,-0.0445297845,-0.09924928,0.05096451,0.07050897,0.0404713936],[-0.09045097,-0.06952299,0.003754426,-0.0527108,-0.004315198,0.06641228,-0.0312268361,0.0406734757,-0.06022112,0.0741730258,0.0171954166,-0.0119263576,0.0445361473],[-0.0129156532,-0.0714818761,-0.134540722,-0.038664978,0.0630850345,-0.0514172837,0.0285967179,0.07479441,-0.06782477,-0.0271331966,0.0885788,0.06287329,0.0276831537],[-0.0175359957,0.0307210777,0.158009961,-0.0541648977,0.0462577045,-0.0780902,-0.00527486438,-0.0413214043,0.0579023324,0.05801885,0.09555903,0.0477774777,0.0493188],[0.06475535,0.009649486,0.144635871,-0.07422985,-0.0151290242,0.00726401,0.07574009,-0.117146447,0.056505993,0.0228397436,-0.00241461769,0.01545586,0.06256091],[0.0555278473,0.104743093,0.0522582456,-0.0381324254,-0.07055016,0.0223000124,-0.106038779,0.0258619133,-0.0634292662,0.0644883,-0.0484192446,0.00357098971,-0.0330555141],[-0.1243533,-0.02159564,0.149741635,0.051397644,-0.04986167,-0.04442867,0.0106637953,-0.0334442519,0.108355641,-0.0430148467,0.06949621,0.06680076,-0.08181227],[0.038820032,-0.0331721865,0.08562184,0.156278685,-0.04385246,0.01603142,0.07026023,-0.0127862394,-0.134274513,-0.09342174,0.04053523,0.07122925,-0.06461289],[-0.06966447,-0.136448056,-0.06744291,0.025480656,-0.0607945025,0.04300498,0.0666026548,0.0146879172,-0.00332466536,0.08118974,-0.0550953858,0.0485176444,-0.0449583046],[-0.0196169037,0.02205065,-0.104369745,-0.111450344,-0.07012249,0.0381844379,0.0266736262,0.0532927,0.06986536,0.00206703716,-0.0192957,-0.07083991,0.07379448],[0.03343692,0.017468337,0.245435566,0.02801145,-0.00531617645,0.03330343,-0.0260414034,-0.0003427498,-0.0240350738,-0.0106641687,-0.0102883354,-0.004302762,0.025988074],[0.0186064187,-0.07804539,-0.08001024,-0.016757708,0.004865961,-0.02761169,-0.09052882,0.09012306,0.108656831,0.08822896,0.0117146727,0.0166230015,-0.03857547],[-0.208187714,-0.0127579449,-0.103015684,0.0408214,0.106065914,0.141508788,-0.008392638,-0.0106189437,0.09411404,0.141327783,0.0765502453,-0.110474609,0.09321228],[0.103218794,0.09460442,0.06638834,0.0171277169,0.06416962,0.03948714,-0.0348413,-0.04238517,-0.06881763,-0.03967471,0.0314952731,0.01049393,0.09161819],[-0.172851,0.02252776,-0.08028702,-0.0198193435,-0.0178453121,-0.07454618,-0.0531098731,0.0307428744,-0.06282559,0.00304472,0.0215499811,-0.07850694,-0.0765768141],[-0.0990669057,-0.06285734,0.03912343,0.09005249,0.0146489777,0.0121021457,0.0540846922,0.0180694833,-0.04568483,-0.01792917,0.0175454654,-0.0643817261,-0.00075599493],[0.134204924,0.0637691543,0.0299279932,-0.0266821161,0.00114370929,0.0338468477,0.0476689152,0.0514567569,-0.07158218,-0.0423052832,0.0107313823,0.0284879617,0.0148148481],[-0.125681311,-0.0365517363,0.00249207485,0.0335929729,0.0349366367,0.00872500148,0.06624125,0.0868531242,-0.0378085971,0.00383791421,-0.00134525576,0.0355288759,-0.03561937],[0.06029895,-0.0141632017,0.0627119,0.115880117,-0.0193538088,-0.08414743,0.0609489568,-0.114637613,-0.122744411,-0.009521197,-0.0329828337,0.120778486,-0.04955844],[0.00392564945,0.0283647161,-0.199623138,-0.0148903066,-0.009088775,0.128695861,-0.124003515,0.08533864,0.05189489,0.148351312,-0.0295333676,0.09665886,-0.03220938],[-0.0873487,-0.08601628,-0.0541438349,-0.0912150741,-0.07311108,0.140106276,-0.08693487,0.105871424,-0.04024743,-0.0289831627,-0.07934056,0.0544276834,0.04462826],[0.06873021,0.0451363474,0.0536378063,0.066056,0.04332289,0.009034916,-0.02055324,0.04091507,-0.02582051,0.01781061,0.0768667758,0.09932826,-0.00548579544],[0.0817674845,-0.03193299,0.183769152,0.175709039,-0.0703964159,-0.0691693351,0.142957419,-0.00146007724,-0.016862018,-0.07740277,-0.0246372242,0.189032361,0.06384113],[0.0564228445,0.03474036,0.123291321,-0.016607333,-0.07437473,-0.08346816,0.122275792,-0.0133032249,-0.145237759,-0.03532631,0.0006293598,-0.0576890558,0.0174778514],[-0.0474356674,0.0665828139,0.112580448,-0.000316981925,-0.07007405,-0.0104745487,0.0836522058,-0.069974564,-0.0337323025,-0.0693218037,-0.0579143,-0.0505785979,0.08732347],[-0.0222312771,0.08678566,-0.0621653758,0.0264781,0.0308088157,0.09874766,-0.0944767,-0.0416397676,0.000518554531,0.113191724,0.1153532,-0.00555628352,-0.06652323],[0.130343392,0.0336122736,-0.0140423719,-0.00197384134,0.02020512,-0.0679898039,-0.05894181,0.00743542472,0.07911153,-0.0528115742,-0.0118237156,-0.00507656,0.0222769231],[-0.08693629,0.07874516,-0.03865899,-0.0300717317,-0.05284773,0.0235034768,0.04210878,-0.06323978,0.06825282,0.00239945156,0.08111849,-0.115076013,0.0183912069],[0.111095451,-0.00641092751,0.00402584858,0.05690264,-0.0283807814,-0.00275384844,0.0225233734,-0.06284747,0.0603871569,0.107744493,-0.04829525,0.06842521,0.0319873244],[-0.0366036259,-0.084334515,-0.0257627759,-0.01982558,0.03710977,0.1184516,-0.0335358754,-0.0162135027,0.0442379043,0.0667224,0.0360221975,0.05811745,-0.0921397358],[-0.0190885551,-0.105922423,-0.05685747,0.03165364,-0.0125132306,-0.07541639,0.0626702756,0.08341954,-0.0326406062,-0.00245522778,-0.01997661,0.05175639,-0.05797161],[-0.008988861,-0.00128320965,0.08520382,-0.0850050747,0.0170435887,-0.0297093838,0.07084497,0.025879303,-0.0491944,0.0272768661,0.056899,0.08597318,0.00259334873],[0.0431142747,-0.0074502565,0.03028573,0.0486411266,0.08930442,0.00143426913,0.09418865,-0.0559562668,-0.0271952823,-0.0314980224,-0.0068332837,-0.147445366,-0.07150224],[0.0472002961,0.03871497,0.0424157344,0.0239024069,0.0433706045,0.05176067,0.0173747949,0.110154077,0.06701567,0.0230967067,0.00559481047,0.0574321039,0.04179938],[-0.008982257,-0.0307421517,-0.06719852,-0.07463272,0.0228844825,-0.0217063371,-0.05335831,-0.0180427,0.0353021435,-0.0329499356,-0.0303576514,-0.120829977,0.07593193],[0.06801203,-0.08421368,0.00772090349,0.119069479,-0.07047169,0.0367869176,-0.0104852309,-0.008376186,0.03862359,-0.111143172,-0.08603458,-0.02230677,-0.09309998],[5.547796E-05,-0.0531737357,-0.0479306355,0.09345403,0.0457594767,0.06609765,0.0310797561,0.0235894,-0.08483488,0.014702444,-0.07544706,0.08461534,-0.09246541],[0.0711620748,-0.02050928,0.197527364,0.07326817,0.00473466376,-0.004749725,-0.07023232,0.07013326,0.08143791,-0.06216066,0.119026333,0.103531845,0.05310227],[0.122226231,0.0634454638,0.07220714,0.0144063365,-0.05594132,-0.0841147751,-0.0812543854,0.00686286343,0.046068307,0.0107236532,0.08215603,0.06460214,-0.0575013533],[-0.0179329421,-0.143041968,-0.0461514778,-0.0457749665,-0.04464967,0.0447231419,-0.05685157,0.00133749482,-0.07445073,-0.06160547,0.05881689,-0.0404193252,0.060838718],[0.123614326,0.07485848,-0.03664192,0.007937002,-0.0846849,-0.0363505669,-0.0482208952,-0.055335816,0.00465103332,-0.0431080163,-0.07398105,0.004857442,0.08240506],[0.133174822,-0.0184469856,0.05350735,0.0125391167,-0.040495418,-0.103680484,0.09926883,-0.0794279948,-0.142315075,-0.0453437828,-0.121793382,0.14666982,0.008696489],[-0.08030178,-0.0224344023,-0.024102455,0.08011825,-0.07239235,0.09559787,0.08059871,-0.07066818,0.0301613118,0.0106550241,-0.08088151,-0.11652597,0.02635534],[0.08632636,0.03933554,0.130438089,0.0307233632,0.0643084049,0.00745484652,-0.08389167,0.0175790451,0.104364432,0.0431397036,0.07900825,0.0597071871,0.007386508],[0.13465333,0.0264222659,-0.001895228,0.00903879851,-0.09641612,-0.0574369542,0.06485065,-0.004820126,0.0464939065,-0.030264888,-0.06965736,0.00472211,0.05051244],[-0.00194718956,-0.117376506,-0.0298606642,-0.07032889,0.01844087,0.0365331732,-0.102451347,-0.00757888658,0.0262282249,0.07192278,-0.0223084688,0.0216986388,-0.059197925],[-0.0825271159,-0.0423372053,0.0615476444,0.05321949,-0.0824590847,0.0255502053,0.0628455,-0.00368445017,-0.104689687,-0.116752766,0.04279684,0.06433039,-0.0348897353],[0.09913649,0.110772714,-0.0560696945,-0.0300460868,-0.0144938268,0.02172874,0.05863038,-0.0946668759,0.04820119,0.0405519046,-0.0510526523,0.0192173142,-0.06536326],[0.06745895,-0.0175625719,-0.100360133,0.01595423,0.00458800932,0.04637898,0.040382918,0.065082036,0.05011105,0.00771691138,0.00070174,0.0264130216,0.0716932938],[-0.0529800169,-0.00775700668,-0.01248683,-0.08603484,-0.0250162911,-0.0826417059,0.0203231238,0.07230734,-0.03364792,-0.0739694759,0.04176992,0.07607029,0.104533374],[0.100811131,-0.00126915541,0.102810763,-0.0424752459,0.0459853634,-0.0506271981,-0.08241196,0.107483551,-0.0166292861,-0.0360675119,-0.04388037,-0.121947154,0.0646936446],[0.0546421558,-0.0357395,0.0375019349,-0.120543219,-0.00153032574,-0.0806218758,-0.03954952,0.07525032,0.0393305533,0.02007714,-0.04637584,0.08288527,-0.07121857],[-0.0182157271,-0.0205141343,0.07848562,-0.15586789,-0.0159686748,0.0932377949,0.09253574,-0.08795001,-0.004349014,0.07844958,-0.0485651344,0.09903916,0.0484712534],[-0.09645493,-0.06684058,0.0194336865,-0.0255979076,-0.0213477369,-0.036279358,-0.03567078,0.0115992464,-0.142151028,-0.1310907,-0.0810867548,-0.09024428,-0.1014772],[-0.007699566,0.0469781,-0.0572924,-0.051069472,0.07864074,-0.0790029,0.0531882569,0.05762639,-0.0116416086,0.09096136,-0.0443060622,0.1354515,-0.0532061458],[0.009423944,-0.126712784,-0.118235976,0.004006605,0.033786796,0.1810345,-0.0504276641,-0.0494288355,0.103043824,0.138851851,0.12984331,0.08492396,0.0114881145],[-0.0108800782,-0.09000065,-0.0008329492,-0.0213876814,0.07030283,0.0358805321,0.036195375,-0.0151253156,-0.08576131,-0.01716303,-0.07670687,-0.0974993,-0.06812291],[0.0152425505,-0.0221492741,0.009133544,-0.103015542,0.07663122,0.06389336,-0.04554373,0.0180202089,0.0173145626,-0.0869722,0.0302373655,0.0133628752,0.08580143],[0.132671267,-0.0560842045,-0.00377307716,0.09792284,0.0271149948,0.00444578938,-0.06440172,-0.06277532,-0.144209832,-0.1311006,-0.10593348,0.007139331,0.008393],[-0.127401665,0.07019819,0.00131527008,-0.07668495,-0.0102646044,0.07099481,0.06261724,-0.09480656,0.05147114,-0.0802906454,-0.03286905,0.111061484,0.0605006851],[-0.06268531,-0.0576254763,-0.135824323,-0.138833657,0.0864450261,0.0419565,-0.0599681139,-0.0360128842,0.07498889,0.06809997,0.0996565,-0.150485754,0.0617806129],[-0.0176552571,-0.0185147468,-0.06760203,0.133189112,0.0351608619,0.04445661,-0.04461268,-0.04933901,-0.0268966015,0.0116456794,-0.0136623979,-0.07141273,0.0495661423],[0.0139702158,-0.0204844,-0.00490978453,-0.0172677077,-0.08137374,-0.0412404537,-0.0135507416,0.0596919358,0.005962469,-0.057146024,-0.04162374,0.1548616,-0.02660755],[0.0109824464,-0.000349753,0.172911569,0.0282137431,0.0749903545,0.07356927,0.07214103,0.0602014326,-0.0504812039,0.03210667,0.0009345109,0.0278725773,-0.08226812],[-0.00375731173,-0.04527761,0.134038374,0.199856922,-0.0705697238,-0.129301414,0.02163701,0.0202160738,-0.114191689,-0.03910559,0.0113644833,0.166839138,0.0245040935],[0.06927962,0.06059861,0.0639039055,0.02215577,-0.0618909076,-0.038985,0.07391828,-0.0527085774,0.0293361209,0.07744358,0.072485365,0.0505861379,-0.07349053],[0.1231882,-0.0350972973,0.0424460024,0.0396290421,-0.015168421,-0.07284813,0.0276964977,-0.06632239,0.05658596,-0.09284032,-0.0744662955,0.10813351,0.008660147],[-0.0771970749,-0.04709646,0.07378952,-0.04275036,0.06286274,-0.03768845,-0.002614911,-0.04739426,-0.002222923,0.0486551,-0.00408722,0.0809159055,0.0161711872],[0.130521312,-0.0393137857,-0.02566379,-0.0561233051,-0.004285579,-0.100591049,-0.0305518489,0.0257652234,0.08172712,0.07680987,0.07930281,-0.0337851532,0.0335556567],[-0.10091605,-0.0998085961,-0.0121707069,0.050064873,0.04675676,-0.04107735,-0.0439364575,0.000300154526,-0.0542249456,-0.038048435,0.016314026,-0.0344568,0.0616147667],[-0.008281624,0.121661544,0.0213966556,0.0162497535,-0.0220769271,0.03987141,0.09634666,-0.111233041,-0.116349332,-0.117316112,-0.03428278,0.0737595558,-0.0004323218],[-0.0305434726,0.119660422,0.038927082,0.08750052,0.0204817522,0.07884253,-0.0106053706,-0.0739171952,-0.112374648,0.0173933823,0.0305771418,0.109181605,0.01600181]]}},{"ClassName":"DenseWeightMatrix","Content":{"matrix":[[0.0100649046,-0.0529303066,0.0338379666,-0.01965917,0.003385994,0.03665473,0.0210767277,0.0167187732,0.04154384,-0.000933666539,-0.0207421146,0.08106869,-0.0209151227,0.06631019,0.0593858548,-0.06377802,0.0166884884,0.00417913357,0.0583300665,-0.0247130748,-0.0007417745,0.04485531,0.08796858,0.0104607129,-0.0508796349,-0.0474834554,-0.04643055,0.04896501,-0.0224214885,0.0118070906,-0.0465943925,0.009594869,0.021048218,0.04248421,0.0105986744,-0.049732808,-0.0110047972,-0.00349703617,-0.09653659,-0.02753595,0.0373060554,0.0306592323,-0.0230608359,-0.0006624312,0.06694175,-0.02213046,0.05652546,0.0123055372,-0.04069118,0.0239180755,-0.0573592521,-0.0170677844,-0.012995339,-0.000485823984,0.0337480158,-0.02252895,0.05342041,0.0286328383,-0.0083203325,0.0295842774,0.03949503,-0.0105198808,-0.03153817,-0.0233844481,0.0455714948,-0.000308506569,0.00541747268,-0.06941085,-0.01024965,0.0482403,-0.00266466755,-0.04982427,-0.0268788934,0.0308989286,0.08116937,-0.06729484,0.0651346147,0.03707886,-0.0480902977,0.00600537471,-0.06321937,-0.00485866237,0.07551606,-0.0116892625,-0.00131386216,-0.05445973,0.0123491753,-0.0469642021,-0.07848486,-0.0412264466,-0.06150431,-0.009505975,-0.012609751,0.0186882541,0.0433096439,0.01588429,-0.0504746474,0.03860445,0.04730089,0.04942749,-0.0110561764,0.0533976667,0.0584391356,-0.02637848,-0.0631099,0.0279044453,-0.0171380788,0.0252082366,0.0193637349,-0.0501620881,0.0530730262,-0.0539367758,-0.0419894978,-0.0223557428,-0.0428162478,0.004576391,-0.0805098638,0.0482134447,-0.0266830977,0.0105622048,-0.0166285764,0.0751037747,-0.0231514759,-0.0524771437,-0.02179917,-0.0366019942,-0.0184366144,-0.026572993],[0.0312761925,0.05213462,-0.005844072,0.0470554158,-0.0192558113,-0.03950301,-0.07964415,0.0171193685,0.02058547,0.007667784,-0.003698411,0.035527315,0.06037074,-0.0359069742,0.009877355,-0.0535437353,-0.06586673,-0.06645924,-0.005638138,-0.0423582681,-0.04615871,-0.04195398,-0.04219652,0.0238719489,-0.03418128,0.0237611588,-0.0292635951,-0.0277807247,-0.0233012252,-0.020240169,0.0534322746,-0.0562228225,0.0619697459,0.0156578775,0.0122475512,0.02533343,-0.0543261953,-0.0327244252,0.03471917,0.0315446332,-0.0316139981,0.000798212,-0.03009506,-0.033290796,-0.0106904358,-0.016293807,0.004588843,0.0140318116,-0.03699688,0.05614703,-0.0161732119,0.03082937,-0.00576595031,-0.0393384062,0.017869141,-0.00522350846,0.0209877025,-0.002331987,0.0466278,0.05293609,0.063045,0.0583824031,-0.0349435061,-0.030334875,-0.005787241,0.00516707264,0.0128389532,0.000852594,-0.04856896,0.03918524,-0.0178018715,-0.0368026458,0.06422363,-0.051590994,0.02005162,0.0203333385,-0.0258083139,-0.00776573736,-0.0311672483,-0.0270912144,-0.021529153,0.0146059208,-0.0243076086,0.0265266635,-0.0322600156,0.0452786535,-0.0013883441,-0.000901624036,-0.0218250956,0.00440984825,-0.05659178,-0.04572517,-0.0307139233,0.07909886,0.04381201,-0.0438878536,0.0213484745,-0.0254656374,0.0320561752,-0.06022971,0.0103765605,-0.0342094265,0.0170111619,-0.0323488675,-0.04433362,-0.0520169,-0.055383686,0.0343811,0.0195897743,0.0482840836,0.0260091461,0.06184963,0.0077469754,0.00592053,0.007995763,-0.04547801,-0.009212247,-0.0501090921,0.0155377863,-0.0588460676,0.0457695872,0.009808851,0.0416731462,0.00270479219,0.0177759957,-0.009277899,-0.05389045,-0.0417109579],[-0.0173269138,0.03606836,0.07963907,-0.0270342734,0.0294885784,-0.0288277064,-0.02696116,-0.0708641857,-0.0514392331,-0.0464921,0.0123208016,0.0526448078,-0.04100671,-0.0307596475,-0.0207940955,0.0595710874,-0.0302460529,-0.06664236,-0.08122468,-0.0119374106,0.005146389,0.00690232869,0.058000464,0.0425198041,-0.024821803,-0.0125451675,0.03751826,0.00903782248,-0.00775697036,-0.0655306056,0.0135465665,0.0562783852,0.0136830369,0.00410541845,-0.0142047284,-0.0353002548,-0.0102914181,-0.0104964152,0.0321004875,-0.0207144972,0.0231184531,0.0206341557,-0.03564157,-0.0217404924,0.0194138624,-0.0479241163,-0.0704456046,-0.0217050165,0.0114587955,-0.0309643336,-0.00250750827,-0.006319367,0.07391588,-0.03447511,0.04631109,0.02172,0.05256804,0.0204673018,-0.0147056095,0.0466303937,-0.0362060443,-0.0135433245,-0.04867746,-0.0660128742,-0.0398785844,-0.03788175,-0.08194156,0.07884493,0.07280332,0.03266477,0.0108263167,-0.02760831,0.06493943,-0.07177702,-0.03883791,-0.0619847775,0.00678335223,-0.02033715,0.0351586938,-0.054828912,-0.0708486,-0.0405817665,0.0698636547,-0.04652107,0.0049793846,-0.016646862,0.00246718479,0.04281446,0.049132,0.04462375,-0.0318150148,-0.0346367024,-0.0407304727,0.0109288739,0.019300539,-0.0462889075,-0.020397909,-0.0577662438,-0.07268682,0.03547723,0.04479882,0.019304486,-0.00729139941,-0.0407963321,0.0607306324,-0.0792076141,-0.00408948865,0.04913967,-0.04751599,0.04163953,0.041330222,0.03545168,0.06997733,-0.03152366,-0.0653224662,-0.049627766,0.0169878416,-0.007799644,-0.0308834743,0.008048251,-0.0570281632,0.0348464847,0.0217432,0.0436037779,-0.0011489396,-0.0254094768,-0.07722085,-0.09075028],[-0.00755876862,-0.05292389,0.00142651214,-0.0129832942,0.0170251857,-0.0190396272,0.0282148086,-0.0200231317,0.01456772,0.0489887744,0.00338545255,0.000300026353,-0.0178637728,0.07419004,-0.0179793183,-0.00835413,0.0206193551,0.0122595085,0.00344193424,0.00809468,0.0418942235,0.00440182,0.0401927941,-0.0193703137,-0.0483359359,-0.0139284711,-0.01907677,0.040937867,-0.0416097678,0.00084650697,-0.06995849,-0.03356228,0.03783897,0.044162672,-0.0151611883,-0.0180409867,0.05346066,0.0331305638,-0.0403768,-0.0153344208,0.05970719,0.0261829644,0.00505021773,0.04423064,-0.0481257141,-0.003947606,0.04828944,0.06342363,0.000819717767,0.0748434961,0.0206955858,-0.0593736619,-0.0247730725,0.05645146,-0.00252221827,0.041359134,0.0596752539,-0.0198482834,-0.05018773,-0.05777212,0.00152095687,-0.03659443,-0.0153367175,0.05395932,0.03598089,-0.0222530551,-0.005269453,-0.0301436279,0.00516072242,0.07203818,-0.0315367766,0.00513069052,-0.0259228162,-0.0206036326,0.0198608171,0.004512929,-0.0239624809,0.04316312,0.0216048975,-0.00454674,-0.0480398424,0.04391461,0.0507783033,0.009421461,0.05375709,-0.0585762,0.01626158,-0.0365481265,-0.00333498884,-0.0107815657,0.0171203576,0.0563768074,-0.0358163752,0.014091813,0.05658429,0.00146794785,0.031553518,0.0456654057,-0.03876524,0.04700441,-0.0217254441,-0.03047758,0.00400921237,0.0269539859,0.058810465,-0.0410617739,-0.0182523876,-0.002201504,-0.0386922,0.04121337,0.0821845755,0.0471205637,-0.07022527,-0.0143761905,0.0117800422,-0.06250109,0.0419716947,0.05452274,0.08591267,0.03470612,0.053322982,0.0416288339,-0.0129747717,0.0526670367,-0.03594913,0.02003346,0.0175880715,0.06747461],[-0.0137982629,0.00249896571,-0.0419068262,0.0419355556,-0.014922726,0.048024904,0.0344538949,-0.00106760592,-0.06911413,0.055527322,0.00458040973,-0.0426778,-0.0238902364,0.05306597,0.0530288853,0.002421658,-0.08438462,0.007968345,0.0366605744,-0.0272361487,0.00425457256,0.0619588643,-0.00386369554,-0.0613946766,0.03432802,-0.042842973,-0.0748260245,0.0344376527,0.04878794,-0.00751028,-0.067657724,-0.06586843,-0.0154162506,0.07658351,0.06853321,0.01897388,-0.034586437,-0.06518671,-0.0422411449,-0.02646115,-0.06934622,-0.06777687,-0.00293825753,-0.0356649,-0.0127404667,-0.039594654,-0.0177428629,-0.047944963,0.0205256734,-0.0178071577,-0.02056901,-0.016821133,0.06675252,-0.03013435,0.0554012023,-0.00610123156,0.01959569,-0.0164238885,-0.0174820684,0.0565800145,0.05152201,-0.0150680384,0.0279588774,-0.008277248,0.009410015,-0.0517902561,-0.06496264,0.0420860834,-0.009015822,0.07784637,0.0194823425,-0.0532079265,0.07320222,0.009262952,-0.0393616334,-0.0275510848,-0.00688645849,-0.0232473928,-0.0437042341,0.0271759443,-0.0196629968,-0.0674287751,0.0450277776,0.05406592,-0.0245621838,-0.0562165752,-0.0439452156,-0.0244496353,0.02777361,0.026053248,0.0579486266,-0.06104354,-0.07863896,0.015806403,0.0159237776,0.06130155,0.007833635,0.000941149658,-0.0271936934,-0.02424414,-0.0247511882,0.05869611,-0.07365049,-0.0368307866,-0.00214557163,0.0422103368,0.05231965,0.0255467817,0.0577119328,-0.0446960665,0.030787155,0.006115344,-0.0189479925,0.06588659,-0.0227114689,0.00781534053,-0.01193296,-0.0793606639,-0.008257172,0.03133352,0.0404719673,0.0340369157,0.0408090055,-0.03743165,0.03667029,0.0382392928,-0.0255622,-0.0140245566],[0.04438042,0.0217949189,-0.0683018938,-0.0134369778,-0.07374078,-0.00182974036,-0.02290994,-0.051476188,0.04521371,0.0236791428,0.0105487611,-0.04683875,0.0477908,-0.05862973,-0.05369124,0.0158010367,0.00496859336,-0.0006148591,-0.000384757848,-0.04934258,-0.04979556,0.0469295122,0.0478505678,0.0315339,0.0183990877,0.003773676,0.00383887184,-0.006001898,-0.0416777469,-0.0401679054,-0.05826511,0.02622215,-0.0111663239,0.0321503766,0.0575147532,0.032531403,0.018395843,-0.05582838,-0.0736768842,0.02148301,0.05439396,0.0586622357,-0.05438559,0.06183277,-0.0177380331,0.0441048257,0.0588123165,-0.0396837145,0.00320816832,-0.0121640824,0.00334497448,-0.04048036,0.0502047241,-0.06408519,-0.040653348,0.004935854,0.0229783915,-0.0074258456,-0.0227466561,-0.048892647,-0.0132296719,-0.03555904,-0.0574496537,0.0263077617,-0.0324856751,-0.00426555937,0.0468577035,-0.0391440578,-0.06051249,0.0104344543,-0.04057525,-0.0268777758,0.0292382911,-0.00012510622,-0.03935913,-0.00158564129,-0.03986302,0.06531134,-0.0420896374,0.06672012,-0.0668565556,-0.0348128378,-0.00289098569,0.05120206,-0.004865181,-0.04845591,0.047231622,0.00102799013,-0.05414295,-0.04573849,0.05192113,0.06597178,-0.0406956263,0.06351718,0.0322168656,0.0121707376,-0.03851272,0.0604925379,-0.0755716339,0.0172938723,-0.0439083464,0.0142955966,0.04687578,-0.05620933,0.0429727323,-0.0535668023,0.0187691357,-0.0180503558,-0.0185901672,-0.00212470139,0.0463461578,-0.0358653925,-0.03566382,0.05921732,-0.00498408824,0.0048823664,-0.0860726759,-0.035127908,-0.0508215129,0.0403254479,0.09097362,0.06859985,0.0552208237,-0.0381764434,0.08640053,-0.06749969,-0.0407223664,0.0328679867],[-0.014530655,-0.0286130067,-0.008417459,-0.05610674,-0.05851603,0.04362672,-0.0230520889,0.04879809,-0.00521709025,-0.0128652584,-0.05813597,-0.0378522351,-0.05240239,0.0552642234,0.04588577,0.0282040853,-0.0155882472,0.0391213261,-0.0334040932,-0.0146246133,0.0181475449,-0.0710807741,0.0594086573,0.004255398,0.0424737744,0.06645188,0.0406201556,0.0207015928,0.02944721,-0.03042921,0.059672527,0.0790242851,-0.07709242,0.07633759,0.016288707,0.03631666,-0.021562,0.0209248457,0.03162929,0.05799174,-0.08378638,-0.0211242065,-0.03499543,0.04708091,0.009506519,0.0375902653,-0.0199730173,0.0395388827,-0.05006716,-0.06853856,-0.0363590047,-0.0214768462,-0.0326388478,0.03495643,0.0467218868,0.0415918827,0.021715967,-0.03782687,0.004919864,0.0597191863,0.02806153,-0.00233397284,-0.01751987,0.048979532,-0.002089892,0.0485421233,-0.0561486147,0.029224515,-0.04824781,-0.05299787,-0.0180612933,0.05401086,0.0142685417,-0.0453752354,-0.0422170162,0.09019932,0.08014739,-0.0532599762,-0.03670838,0.036331825,-0.031155007,0.0643655,-0.0458661281,0.0403661877,-0.0116876792,-0.0180266742,-0.0539910346,-0.007957964,0.0559481457,-0.0126277078,0.02103363,0.04069516,0.0177962966,-0.092133604,-0.0545837134,0.04016162,0.0265170112,-0.0712381,0.0160879586,-0.0170286614,0.0681927055,0.0326000042,-0.06477188,0.0729407,0.05278121,0.06542728,-0.06671743,-0.0144185349,0.065078266,-0.0578358434,-0.06549294,0.0744244754,0.03949626,0.0135388318,-0.07124883,-0.0366374254,0.04198589,-0.010459017,-0.0195991546,0.0197620448,-0.114109747,-0.0471806936,-0.07828829,0.0238922667,-0.0622732081,-0.0650147647,-0.0112769911,-0.01529521],[-0.03835673,-0.0129338149,-0.0204438083,-0.0275333952,0.050187327,0.0665213242,-0.0147739742,0.0686571151,-0.0998072252,0.0129089514,-0.04490769,-0.0285368226,-0.005473991,-0.0202599689,-0.0319183469,-0.0406717733,-0.05265539,0.06898562,0.0402661,0.0132050673,0.04328635,0.0197756514,-0.0325184427,-0.007938461,0.03603725,-0.0155364452,0.0723660737,-0.0267645288,0.007447072,-0.0289985575,-0.05541965,-0.0110852923,-0.0188755523,0.07911532,-0.0484441854,-0.0415593348,-0.01581862,-0.00562113663,-0.00560508436,0.02224987,0.06015408,-0.008270816,0.047096245,0.0552826,0.006129719,0.0134200314,0.0148394955,-0.0175931472,-0.05414212,-0.035463687,-0.000242274269,-0.05969397,0.005445702,-0.0407636128,0.0546111278,-0.0716279,-0.0318092033,-0.0716631562,-0.0256294329,0.0101162521,0.0958230048,-0.0295650288,-0.0393527672,0.00616181875,0.00206585554,0.01351894,0.007317365,-0.07159606,0.000541720132,-0.0427952558,0.0128476853,0.0265364163,-0.0106437281,-0.04245006,-0.0579036921,0.09206947,0.08218135,0.05970529,0.0266309567,0.0358476937,-0.07026124,-0.04033265,0.05337135,0.06588801,0.0488006659,0.0104409186,0.0372192562,-0.0206244644,0.0335811,0.0150319058,-0.03585738,-0.0346682929,0.0728387,-0.0179331657,0.0286877267,0.0195357315,-0.01890211,-0.04185471,0.064673394,-0.0498708934,0.0112628471,0.0417979732,0.07953228,0.04373177,-0.0164195467,0.05631939,-0.0270711165,0.0551653467,-0.00485483836,-0.0707884,-0.03532564,0.0522683561,-0.08060165,0.0318478756,0.0279672612,-0.0010911515,0.073921755,-0.0465470552,-0.05761174,-0.03299012,-0.0159834456,0.00678219,0.03484215,0.023790475,0.0110015068,0.013634,-0.07218127,-0.006043984],[-0.0263624489,0.0331010558,-0.0289969817,-0.0440406427,0.0220538024,-0.03297866,-0.0600026026,-0.0828640759,0.04164988,-0.00044362247,-0.04632505,0.01432067,0.06951889,-0.0578711927,-0.03948132,0.05524736,0.0610869974,0.0441577919,-0.008016896,0.07438653,-0.06373632,0.03950248,-0.0319145434,-0.0102883419,-0.0414566919,-0.0119021283,-0.04091056,-0.0268638432,-0.0179409944,-0.0162925348,-0.0293143969,-0.08647796,-0.008848666,0.0009264693,0.07493531,-0.0547454245,-0.06616279,-0.08429502,-0.0364377461,-0.0364127681,-0.0258623045,0.00493026245,-0.00224946649,-0.03946389,0.067983754,-0.0182321183,0.0569330342,-0.0003121228,0.04060395,0.0278347321,-0.0219449848,0.0302291252,0.0671138,0.04986081,-0.0513628535,-0.067693,0.09155331,-0.0381525941,-0.0096475,-0.06353817,-0.02634234,0.06180126,-0.0485695861,0.0845363438,-0.0528858,0.014448626,-0.00421333266,-0.0173036158,-0.0621845126,-0.02156851,0.06836444,-0.03132917,-0.0163541548,-0.06493878,0.00460258359,-0.05161602,0.0207772218,0.0473649055,0.0173068456,-0.0309539028,0.00165666384,-0.030063387,-0.0200845152,0.00165373366,-0.0504517853,0.0377284065,0.05193153,0.0213003512,-0.0287569463,0.0341780856,-0.0153831681,-0.0182829443,-0.02618556,0.0159440972,0.01926852,0.0107860593,0.0211312529,-0.0182303712,-0.0108299237,0.0131403487,-0.0578342639,-0.0380582176,-0.03495215,0.0391576774,0.0132042347,0.0051027406,-0.0352818035,-0.0535236374,-0.0531186871,0.0286537446,-0.0421833135,-0.0178169478,0.06489033,0.004730706,0.0542374663,-0.06205035,-0.0162670854,0.0658516958,0.0207972545,0.0668950751,0.0669133738,0.0180541966,-0.0160441212,-0.0416464545,-0.006046498,-0.015643822,-0.0374297537,0.08437275],[-0.03356421,-0.0268993564,-0.05519878,-0.06617513,0.07395757,0.05796502,-0.0593149662,-0.04007917,0.0214201342,0.0645947754,0.016383769,-0.0588356778,0.002249374,0.05732519,0.007949214,0.05293064,-0.0144530106,-0.0432152227,-0.01630787,-0.06231399,0.05760838,-0.0549060777,0.01049623,0.0377810746,0.0355281159,0.0218483545,-0.0548973,0.0409156829,0.0276454519,-0.00552491564,-0.04825322,-0.0415088534,-0.0208104812,0.00159911439,0.05524134,0.0596168153,-0.0630475059,0.0205672942,-0.0256215818,0.03800881,-0.0009941631,0.05501972,0.0622843765,0.03671324,-0.0541791767,0.0328750573,-0.00123619172,-0.045574192,0.0450235121,0.00639778469,0.0456021838,-0.0584909022,0.0207122359,-0.0532883,-0.0129053565,0.04069786,0.014110581,-0.0147969984,0.008819683,-0.0298782084,-0.0305588283,-0.056630414,0.0395353138,0.0075426097,0.002455724,0.0509675033,0.0400163233,0.00106987171,-0.0600179881,0.0489408933,0.0418557748,0.0293766279,-0.0610893741,-0.0214788523,0.0162352212,-0.050280612,0.0317359827,0.009213368,0.03438347,-0.0003590636,-0.0278782416,-0.0109556112,0.04874937,0.0434464477,0.0423192345,-0.04737249,0.0171776973,-0.0229134727,-0.06104528,0.038212575,-0.07265252,0.06353901,-0.0435781032,-0.04986311,0.03546551,0.0203067325,-0.0063676415,0.0409853421,-0.0473481379,0.00581790926,-0.0234990753,0.0194043964,-0.0599461049,-0.05080291,-0.04430804,0.0356179662,-0.006608041,-0.00573495729,0.019475067,0.0258078333,0.04218234,-0.05562529,0.0334335081,-0.0263784491,-0.06134932,0.0122044832,0.0379867554,-0.05087571,-0.0260297712,-0.009360708,0.03669596,0.0596323125,-0.021549562,-0.0456931256,-0.0225307811,-0.00307798944,-0.04046673,0.05124664],[-0.0341518633,-0.0433054864,-0.06584403,-0.0180132315,-0.0160218552,-0.033261,-0.0159833618,0.0377249941,0.05291438,-0.05103083,-0.0544670224,-0.06617424,-0.07098622,-0.07315158,0.028519107,0.0290179569,0.0245776922,0.0547269471,-0.02902055,0.06886411,0.0392139032,0.0326158553,-0.0447546057,0.018199224,-0.04527472,0.06855142,-0.0529744327,-0.07238338,-0.0587172322,0.0371489376,0.03859072,-0.05947924,0.06996126,-0.0332952663,0.00119741471,-0.0190225486,-0.0305910259,0.05680022,-0.06070949,-0.05231737,0.003310947,0.0425912924,-0.07205473,-0.0210040733,0.00674886256,0.0496248454,-0.020794509,-0.0240639932,0.0203583259,0.0606940649,-0.00184649939,-0.0370969176,-0.03919312,0.0178676173,0.02607192,-0.04262834,0.05670988,0.0249613989,0.0479786359,-0.0432868525,0.00469747372,0.0216786433,0.01794844,-0.0331767872,-0.0392557,0.02418421,0.05508756,-0.05665981,-0.07848218,-0.0305706337,-0.03373705,0.04954357,-0.0385496,-0.00361620379,-0.0306325182,-0.04753871,0.0413005054,-0.05815544,0.07774082,0.05878475,0.05829867,0.008547856,0.0375059471,-0.037109293,0.04123094,-0.066262424,0.04437141,0.005976915,-0.008889834,-0.0268689618,0.0436762534,0.014676393,-0.01662923,-0.059596,0.03988083,0.00276438682,0.04436109,0.04525831,-0.0103354091,-0.006271906,0.0463385731,-0.03436319,-0.0560019463,-0.05069823,-0.07482621,-0.04577708,-0.0164508484,0.0202165358,-0.0246188119,-0.036635723,0.05389014,-0.0645892,-0.0432488173,0.0104495222,-0.000881678367,-0.0112183364,0.05228695,-0.0327145271,-0.0178400781,-0.0539216362,0.08589689,-0.0164545048,0.02625241,-0.008721572,-0.0107527468,-0.009403764,0.05181933,0.0283195544],[-0.0226873364,-0.00132363674,-0.021554349,-0.017504571,-0.0144454008,-0.0570091344,-0.07185583,0.05412495,0.06039575,-0.0549036451,0.06197929,-0.0446003675,0.0536220931,-0.0160770025,-0.0586931445,0.0320249833,0.0705403,-0.0465887859,-0.0163034182,-0.0416739024,0.0450234748,-0.0322725549,-0.0665091947,0.03822913,-0.05143555,-0.006417853,0.0272386111,0.08082867,0.0411450975,0.003040049,0.0190097,-0.0595535,-0.04219625,-0.069145374,-0.0253117383,0.07092168,-0.0446060933,-0.0224291272,0.060621988,0.0224612989,0.0503473319,0.009571443,0.0196671244,-0.06768504,0.0623232462,0.0338006169,-0.00195870386,0.0008845552,-0.023313053,0.04333979,0.0484562963,-0.0279015657,0.0474289842,0.0113747939,-0.0707329363,-0.032486897,-0.02355712,-0.0180812571,-0.009359358,-0.0347297974,-0.0565588,0.00227045477,0.0851851851,0.0137295779,-0.03292004,0.0396008044,0.06605335,-0.04656305,-0.0215217751,0.0493883453,0.04119865,0.06796801,-0.01801425,-0.02580531,-0.014976684,0.02340508,0.0330223627,-0.0213398635,-0.0144509478,-0.0169338863,0.004852349,-0.04541678,-0.07210105,-0.0182152875,-0.06876275,-0.010519986,0.04570349,0.0495652556,-0.044468455,-0.0410454161,0.0127625214,0.063050814,-0.04040511,-0.0528521426,0.0153659284,0.0618289039,0.019523697,-0.0486545265,0.0512790829,0.0504917838,0.0144761894,0.0367691778,0.0178586077,0.0379390344,0.05464929,-0.0485023074,-0.0630956441,0.05979173,-0.0239366926,-0.0347491428,0.0340029746,-0.0513341837,-0.02432502,-0.0274115875,-0.007876299,0.0234614164,-0.00474461075,-0.04051612,-0.0567167848,0.00405835733,0.06221484,-0.00250862841,-0.0234391727,0.0790895745,-0.0578797832,0.065501906,-0.03690213,-0.0471333377],[0.0117188282,-0.0604146868,0.009733034,-0.0598286241,0.0268225819,0.0381016769,-0.07992009,0.0339065827,-0.015057629,0.016594328,0.0498395152,0.05505037,-0.0367163867,0.07293309,0.0246516876,0.0144290486,-0.00495895464,0.06064507,0.0341713168,0.04373522,-0.0396084264,0.05551172,0.07071615,0.0318575166,-0.03762239,0.0290544368,0.0182459652,-0.02747729,-0.003642857,-0.0251820572,0.00871265,0.006008827,0.0174474679,-0.07165758,-0.00779348426,-0.0150522105,-0.0340183824,0.0193503313,-0.07681566,-0.05032418,0.00178248552,-0.0217640046,-0.0479853675,0.0354741625,0.04245546,0.00457853358,0.0725504458,0.0428492762,0.0658996254,0.0222666,-0.0507240631,0.00820522,0.0226337966,-0.00149983109,-0.0140193366,0.0457484461,-0.0412091948,0.0160353538,0.0403014347,-0.0383574329,-0.0657198355,-0.0651695058,0.0417244621,0.06710597,0.03789457,0.0472519621,0.0832092538,-0.046426598,-0.0518123172,0.0007460151,-0.044399742,0.006927505,-0.04615662,-0.07190731,-0.02067271,-0.0758598745,-0.0596477464,0.0307347346,0.100591585,0.0698199049,0.07190683,-0.009407219,-0.02290003,0.02351317,0.0369861871,0.0285057724,0.057630077,0.029433595,-0.0536987819,-0.0179535262,-0.0715179145,0.005690181,0.0180974379,0.003043089,-0.003978354,0.04467797,-0.03385296,0.07449742,0.06756828,-0.07912464,0.0355689377,0.04785264,-0.0626742,0.0409868769,-0.042689357,0.05022004,0.0313355848,-0.07531851,-0.0404928327,-0.0147526218,0.0377272256,-0.0616734438,-0.01972341,-0.0538192838,0.08286521,0.03257208,-0.0125694014,-0.0316068,0.03797196,-0.0005142278,-0.005060993,-0.00126151438,-0.02119394,-0.00530050276,-0.05525003,-0.03561333,0.0466603264,0.05894256],[0.0508397035,-0.0269609727,-0.08755966,-0.0392509438,-0.0541638,-0.00346541242,0.0159602351,0.0290728826,0.0819254145,0.0312205683,0.0546602458,-0.0206282772,-0.0241882019,-0.03417067,-0.03474598,0.0005922163,-0.002870956,-0.04426007,0.006989798,0.08073958,-0.07184473,0.0339972,0.007597676,0.02215,-0.0114442538,-0.06620014,-0.07813132,-0.00746033,0.0191521067,0.0726738,-0.0216460247,0.008802226,-0.0422188975,0.0346538275,0.0399206877,-0.06831782,-0.03297282,-0.00664203474,-0.04903392,0.0488220267,-0.0007362988,0.04276225,0.009298652,0.0379539132,-0.06469034,-0.0144398613,0.04033733,0.0606716461,-0.03243497,-0.0149296494,0.00716005638,0.0357022956,-0.0511976629,-0.02339358,0.0612019673,0.0450844765,0.0381882079,0.0519392,-0.04462842,-0.0333087966,-0.0458872877,0.0284229256,0.0524766371,-0.04069117,0.0359954126,-0.06738615,0.05251178,0.04276543,0.03482308,0.00292818015,-0.025600234,0.0441056341,-0.03520243,-0.0648743361,0.0269796513,-0.0398128368,-0.0383984521,-0.0139864245,-0.0170187484,-0.0357087776,0.0266472679,-0.01180899,0.0663274452,-0.03102136,-0.0196867,0.007975501,0.00677621737,0.0116218124,-0.0488710254,0.0141913211,-0.0172848254,0.03076185,-0.0270547159,0.0259925984,0.0209607482,0.0225842576,-0.05909265,-0.0116607016,0.06831183,-0.04100536,-0.05747959,0.00187626749,0.0211670753,-0.0562164672,0.0110492259,0.0178454034,0.0318689123,0.0171241555,-0.0238913614,0.05816921,0.0448550247,0.0183945484,-0.0245777126,0.00780810462,0.0580215119,-0.07814486,-0.0174547043,0.0489599146,-0.0105840657,-0.00240096054,0.08856696,0.0481896959,-0.0350944623,0.008335032,0.08048402,-0.0111096771,0.0141684944,0.0501131937],[-0.0248821,0.0103206653,0.0784333646,-0.0521860644,-0.06954757,0.0106735881,0.04233049,0.00927357748,-0.0871129,0.00408522,-0.011631459,-0.04494623,-0.020019874,0.005803229,0.0253602732,-0.0207511447,-0.02767819,0.05555272,0.02655669,-0.00982110947,0.04701382,-0.0526366457,0.0192822646,-0.07121499,-0.00524944346,-0.0406374335,0.0341155827,-0.0314180031,-0.00128753623,-0.04224959,0.0300884284,0.0265685674,0.0479010679,0.0479442328,0.04555568,0.00426267041,-0.03696408,0.04298968,0.0624859333,0.0509115458,0.0312922634,-0.044104442,-0.0242572166,-0.00877851248,-0.008919822,-0.0406144373,0.0361193046,-0.0416979231,-0.008908652,-0.03588838,-0.011405251,-0.01586711,0.000219205482,0.05939887,0.03331169,-0.00668709,0.010644149,-0.0279479288,-0.018955607,-0.05079087,-0.0415326953,0.0300165582,0.00470333546,-0.0351230577,0.0475029536,-0.02975854,-0.04689615,0.0507908836,0.03372226,-0.0480541773,-0.0328717865,0.05331497,0.06716118,-0.0222948641,-0.0585327,0.04061718,-0.0504196659,0.05865533,-0.0449057,-0.05014028,0.0145422351,0.0728873461,-0.05560998,0.0589560345,0.0240580551,-0.0158062279,0.03533581,-0.0289269611,0.0002523238,0.0109000895,0.0301912948,-0.0125759086,-0.04289498,-0.05472906,-0.0650741458,0.0465905145,0.04408754,0.0496590473,-0.0138735706,0.0296547655,-0.0544384755,-0.0523911342,-0.0134101938,-0.014486691,0.00585189229,-0.0157038029,0.0502971224,-0.0114038317,0.06012411,-0.0117146522,0.0580309629,-0.0422141477,-0.06594269,0.03160516,0.0166392382,0.009687465,-0.0257770345,-0.0038484484,-0.0127134044,-0.0462391526,-0.06159467,0.0459827334,0.0242080446,0.0433849767,-0.033439748,0.00290856929,0.04512882,0.0193360075],[0.0537490658,0.0552168228,-0.0651461259,-0.0245326981,0.00134423678,0.0256063174,-0.0238997769,-0.0191836152,0.034602128,-0.0702832639,-0.0251373,-0.03261182,0.0278688334,-0.0467089862,-0.07616027,-0.0629152656,0.0263244137,-0.0230054948,0.0372980274,0.0169240162,0.0497375131,0.0429369956,0.0510583073,0.0452382267,-0.06592342,0.0621979944,-0.06443242,0.0422526,0.0292073525,-0.0594194159,0.06319092,0.0366102047,-0.0258039683,-0.04783742,-0.02768228,-0.0117443092,-0.06761795,-0.019485753,-0.0188686121,-0.031207297,0.0407899171,-0.03946411,0.00191000849,0.048741933,-0.005892988,-0.0255939886,-0.05897964,0.06147482,0.0108559681,0.0518366024,-0.05042009,0.0332260542,-0.005401642,0.0126921562,0.0396973826,0.01360544,0.04696514,0.0335385837,0.0008342557,0.00553058926,0.0526360646,-0.0428723842,-0.02432315,-0.02063855,0.0337723531,0.0122526046,-0.0173539445,-0.01540113,-0.0590667464,0.0103630228,0.0376727469,-0.0569885261,0.0647799745,-0.0465239063,0.04509958,-0.0361775272,0.0435616374,-0.0595604964,0.0157129448,-0.0297889169,0.0176645517,-0.0325177424,-0.00348832761,0.004834193,-0.0609022155,0.0285013039,0.0550963171,-0.0409836173,-0.0266692042,-0.04835252,-0.0128069753,-0.02049419,0.0305189323,0.0487262271,-0.0520952679,0.0326968469,-0.06603073,0.0029941767,-0.0536983572,0.00414406648,-0.0403391048,-0.0663493648,-0.0555134453,0.026007222,-0.03739066,-0.0177846719,-0.00275293365,0.0126085309,-0.0624647364,0.0527459942,-0.0287750456,-0.0539857857,0.0537531637,0.068246454,0.04478867,-0.0194263719,0.0508500077,0.06396541,0.007354381,0.00626702141,-0.0340451933,-0.0506875068,-0.00339329056,0.06738938,0.0672634244,0.0334312171,0.0310422722,-0.0568416454],[0.03324211,0.006307831,0.0110413143,0.004778271,-0.008099196,0.0202451777,-0.0239630528,0.06233515,0.059749458,-0.0100788306,0.007958623,0.04285325,0.0295512341,0.06624353,0.0432017036,0.0002488875,-0.0154349348,-0.00373012247,0.06358173,-0.02767593,0.04432037,0.0618142039,0.03763944,0.00130489538,-0.09132462,0.04525285,-0.0324105546,-0.0202585422,0.0421234965,0.04661441,-0.04518649,-0.05344716,0.05965158,-0.007226656,-0.01600366,-0.0561921261,0.0119783944,0.04498728,0.00105413189,-0.04898567,-0.0217777565,1.34281959E-06,0.01377802,-0.00162215566,0.002406493,0.05230235,-0.0142720658,0.0494157635,0.0306438021,-0.0283819661,0.042531956,-0.04018042,0.0387349874,0.05292102,0.0229835883,0.0439418256,0.03368343,-0.03556257,-0.007885712,-0.04693963,-0.0134857642,0.0384861939,0.0447891541,0.0175080467,-0.0009795674,-0.04809021,-0.06521029,-0.0185899232,0.0609222725,-0.019989701,-0.0333684422,-0.02807783,0.0605225,-0.0480439477,-0.0105179735,-0.0383339152,0.00396026159,0.0576024838,0.06978923,0.0344350561,0.0221210942,-0.04463703,-0.05771415,-0.0223487467,0.0362301357,0.0269913338,0.0380498357,0.0498954132,-0.06399936,-0.05391973,0.008317105,0.0121982135,0.01625663,0.03617238,0.0269404911,-0.0421017781,-0.033408165,0.0316085666,0.05293486,-0.0667033,-0.0257950854,0.0554639623,0.00336227519,0.0198016688,0.0175383426,-0.0275859423,0.05080568,0.0284959283,0.008608537,-0.06333887,0.06196207,-0.0421073139,-0.0196515489,-0.0555027761,0.0245433562,0.032640148,-0.00701354444,-0.008770551,-0.0339805633,-0.0269384813,0.0132995658,0.0240616575,0.03713359,0.03396726,-0.009051951,0.0625869557,0.03156427,-0.0329568349],[0.0320910849,0.0429868661,-0.04422134,-0.06201753,-0.005505418,-0.08137671,-0.01566684,-0.0304721277,-0.0586686656,-0.0785931647,-0.0608613379,0.0247888863,0.00141134253,-0.0478645973,-0.0584112555,-0.0102430787,-0.007231341,-0.07765564,-0.000403260085,-0.0360592343,-0.0331624337,0.0583109781,0.03526246,-0.06412614,0.055412773,-0.03631847,0.0402079858,0.03488891,0.0868763,-0.04240111,0.00642111525,0.05720705,-0.0246693213,-0.0112888794,0.0404868536,0.000583173765,0.06323965,-0.0410344377,0.0228829682,0.0271887984,-0.0237315614,-0.0143026514,-0.0232563689,0.00733117573,-0.01863027,-0.0319083072,0.0601902157,0.03776545,0.0244002175,-0.00196770113,0.0118195666,-0.0307802465,0.00242049433,0.06447465,0.024519382,-0.04924546,-0.03220472,-0.0535418428,-0.006769972,-0.04052081,-0.0201951116,0.057889957,-0.0146138454,0.04211752,-0.0256538615,-0.0793094,-0.05572906,0.006122977,-0.02186704,0.0232019778,-0.0479589552,-0.0441016369,0.08586967,-0.0116274627,-0.0234919377,-0.0598103441,0.020799933,0.0273804814,0.04603048,-0.06422156,-0.0250306614,-0.004034377,-0.030900687,-0.0818520859,0.0590272136,0.0383102261,-0.0209914856,-0.0458362475,-0.003560672,-0.0231070574,-0.0110559594,0.0130427461,-0.03123169,-0.00166891958,0.0547120869,-0.0407744981,0.0160770845,0.00425269548,-0.05258845,-0.0125751561,0.03878901,-0.00459672464,-0.0480159856,0.0624257438,0.0442141667,-0.0804922,-0.0118926074,0.08511409,0.00448888773,0.0240450017,0.06037225,-0.0151344417,-0.0289671421,0.009341593,-0.0604601279,0.02476834,-0.001487692,-0.01957634,-0.0179459117,0.0073057753,-0.02014512,0.0719412342,-0.0526248179,-0.06583176,-0.03482601,0.005505406,-0.0419975147,0.0234070085],[-0.0247364156,0.009035552,0.02601368,-0.04120405,-0.0175948348,0.0234657824,-0.037403807,-0.00106702908,-0.0324105732,0.0611790456,0.0406278446,0.0235992428,0.03602524,0.05727475,0.0555904135,0.0485852025,-0.0392596,0.0137274675,0.0462930426,-0.0161733814,-0.0329939723,0.0401466,0.04426732,-0.02969865,-0.05248299,0.0503356867,0.0293074436,0.0474630259,0.009838775,0.009713723,-0.03785937,0.0501865968,-0.0518959835,-0.00766280526,-0.03987339,0.0598496646,-0.004214864,-0.00315054553,0.07269841,0.0131449485,-0.0167239234,-0.05707497,0.0127359936,-0.03253383,0.02354688,-0.00357225514,0.0453291871,-0.0395471342,-0.0418843441,0.000113523223,-0.046579957,0.0149274571,-0.0337138958,-0.029064659,0.03965783,0.0472912751,0.00171035551,0.04043369,-0.02533337,-0.0234613866,0.0556431562,-0.0557231344,0.04052404,0.009392718,-0.0571261942,0.00324485218,-0.0248604268,-0.07139032,0.0508004464,-0.0585466437,-0.06319194,0.00298740854,0.0288700964,0.0426014,0.021598516,0.0129988827,-0.0158802662,-0.005056554,-0.059322536,-0.0293816719,-0.0459376872,-0.0185480043,0.03173377,-0.00815293752,0.0117624039,-0.007660939,-0.05185526,-0.008425427,0.04911792,-0.0373454243,0.0286889188,0.000175254041,0.0443376228,-0.00133313867,-0.0573379062,-0.008507254,-0.06298593,0.0160755944,-0.0511955358,-0.0370315947,-0.0109967487,0.00531552639,0.05132782,0.0180770587,-0.0374524854,0.0407660753,0.00545429671,-0.0357588232,0.0473245,-0.0605381764,-0.0559759848,-0.0303323641,-0.0370449126,0.0142748849,0.039944,0.00525866775,0.03969251,-0.0593543835,-0.005062814,0.0302286856,0.004496677,0.04130588,0.01604497,0.0198093317,0.0409205966,0.04897576,-0.0349008,-0.00190798764],[-0.05174014,-0.0341801569,0.01918349,-0.05493816,-0.04166245,-0.026246231,0.0556863323,0.0372638367,-0.0257674847,-0.0456447937,0.0344419852,0.0157731753,0.00345374015,0.0458460078,0.03792586,0.00171271909,-0.061962042,-0.0512945727,-0.0290734787,0.0305035971,0.0390900224,-0.0510926731,0.021146629,0.024784429,-0.078766346,-0.06317864,-0.0463612042,0.0597672,0.0274121389,-0.0179447513,-0.003693983,-0.0243305434,0.0536555126,0.03621645,0.00373074482,0.0402666032,0.0103211608,0.0036144075,-0.07696819,-0.03750995,0.06793111,-0.0678162649,-0.0265266914,-0.0240360163,0.01569699,0.0225172546,-0.0351658538,0.03972408,-0.0346988067,0.034530662,0.0495824,-0.0161091853,-0.0439033955,-0.05039636,-0.05737475,0.0348764621,-0.0202460289,-0.0110574886,0.04322755,-0.0152699174,0.0529469959,-0.07035647,0.0300750751,0.07683887,-0.0160321873,0.0548785478,-0.0531426,-0.0384929962,-0.008464121,0.0114301266,-0.0307261515,-0.00133253238,-0.0166321341,-0.024734633,0.0021265957,-0.00134362653,0.0244452711,0.0159163214,0.0219021048,0.0475683473,0.0170513932,-0.0502777547,-0.0222936682,0.009166659,0.07546192,-0.06422569,0.0196559057,0.0339279771,-0.0422366,-0.005961801,0.0134600084,0.07405318,-0.0514605679,0.0515042022,0.0511594862,0.07538168,-0.0530807823,-0.0132399146,-0.04819163,-0.0147789549,0.004790333,-0.0323187634,-0.0107146623,-0.00195095676,0.0356055759,-0.0253539868,-0.04039565,-0.0672798,-0.00222913851,0.0363130644,-0.0194416866,0.04035652,-0.04352215,-0.0574005023,0.040858604,-0.0295751076,-0.0419888534,0.0284293611,0.08083525,-0.0215569455,0.0682106838,-0.0492084175,0.07946479,0.0130099086,0.0494228154,-0.02083954,-0.0202455539,0.050142277],[0.0568637438,-0.0323634036,-0.06602728,-0.02929736,-0.004349725,-0.0224248432,0.0591521636,-0.00698175235,-0.0636783838,0.009644314,0.0572519675,-0.0311197154,0.03687831,0.06344866,0.0113081709,0.05359651,-0.0275820885,0.00278514833,0.0179065578,-0.05914486,-0.07798626,0.009205864,-0.01002056,-0.0615855753,0.0319073573,0.057356596,-0.0103075523,0.07285388,0.00388018833,-0.0395368971,0.08287305,0.0216432251,-0.0416230857,-0.050443247,-0.00885736849,0.04722479,0.05859091,-0.0812550262,-0.0162642356,-0.0133814607,-0.07009844,0.0652243346,0.0455808,0.0322100371,0.002196148,0.05095234,-0.006001837,0.0264159627,-0.009595049,0.05402612,0.0434684269,0.0598375425,0.095224455,0.0105419932,-0.0492760874,0.0150570571,-0.00340026687,0.0245846529,0.0121370843,-0.008227683,-0.0448695533,-0.0210641176,0.06693877,-0.0198423211,0.00581948832,0.0520214252,-0.01490473,0.062230017,0.021288652,0.0133198733,0.0406845361,-0.0193996914,-0.04180233,0.0373613276,-0.05913573,-0.00906919,0.019593453,-0.0424463749,-0.07095946,-0.00860037,-0.0175686944,-0.0446882248,0.0365705751,-0.04083974,-0.00944668,-0.0381447226,-0.040352013,0.06849994,0.0690369,-0.059633635,-0.0447310619,0.0370408446,0.00628271652,0.0383265354,-0.0216286145,-0.0316856652,-0.0734771043,0.0120082609,-0.0776215643,-0.00580493,0.0197521858,0.008424166,0.0222019982,-0.05328168,0.0466004834,0.0528634861,0.0303814579,0.004409422,-0.0576773062,0.007678722,-0.0235113725,-0.009193117,0.0828686,0.03248641,0.03488252,-0.0173301175,0.005008506,-0.005467943,0.04338451,-0.0465619341,-0.0312687866,-0.07206554,0.01481647,-0.0307103563,0.032652434,0.0182547644,0.0484711453,0.0276219714],[0.0156840123,0.047370702,0.04763869,0.0482505821,0.06313185,0.0439384356,0.04577616,0.08380874,-0.05144189,0.1043643,-0.021377882,-0.02329324,-0.03562713,-0.04110792,-0.00277974852,0.009411705,0.0348545164,0.05479414,-0.0320165679,-0.0430259444,0.05301889,-0.00426770747,0.0005523128,-0.0160679668,-0.015260471,0.0473302826,0.049752418,0.0212803576,0.0579685532,-0.06311774,-0.042255573,-0.0055155335,0.07150202,-0.00490763,-0.0363219827,0.05737108,0.07342255,-0.0205297787,-0.04128707,0.04838571,0.0354768336,-0.05382205,0.0474770032,-0.008752904,-0.06526969,0.04693471,-0.09888301,-0.0201297086,0.02807739,-0.009253769,-0.0409017056,0.06050668,-0.03121848,0.0538006648,0.0207831338,0.0376427174,-0.05382541,-0.03539828,-0.0323431529,-0.00144702755,0.00119344157,0.04421604,-0.0357465781,-0.0523418151,-0.0455582552,0.09453125,-0.0442531519,-0.06731593,0.0365677737,0.009469539,-0.05836143,0.02515142,0.0194796845,0.07172625,-0.017779937,0.08595207,0.03655044,0.0289836433,-0.07013509,-0.08876062,0.0429622754,0.016928833,0.0226466134,0.0291038547,0.0289372057,0.0764995962,-0.0034266843,0.0605775937,-0.0141726537,-0.0435448065,0.0410218574,-0.0455985479,-0.0221948884,-0.04737662,-0.0113998512,-0.05686752,-0.0266106743,0.05068156,0.03209034,0.0303879622,0.0053474037,0.05860748,0.057222,0.032397788,-0.0238042567,-0.0408397,0.014210389,0.0590548962,0.07296676,-0.05674688,-0.04912175,0.0251495279,0.0284265745,-0.0199212246,0.00262233918,-0.005756402,0.0677005053,-0.0643160343,-0.0566117056,0.0295772981,-0.0605949722,-0.0585951731,-0.0359031,-0.00114915031,-0.07339695,-0.0111598046,0.0125844786,0.0411023758],[-0.01669546,-0.0326355,0.04834029,-0.0284420941,-0.0544898435,-0.009052246,0.0161791276,0.00395401567,-0.0574006066,-0.0181941614,0.0008704756,-0.0344608724,0.0207148641,0.0341474153,-0.0296756,-0.0520429946,-0.0255952179,0.0198957734,0.03356959,-0.0207765587,0.06458609,0.03797548,-0.021373909,0.0286562275,-0.063967295,-0.0143337,0.037945956,-0.06501416,0.02969837,0.0379698724,0.0235963874,-0.04493821,0.0317477472,-0.008755232,0.039249558,-0.002940236,-0.028998496,-0.00092279003,-0.08112631,-0.00165892777,-0.0201353617,0.009675922,-0.0270533133,-0.0472987033,-0.0268836748,0.00629344769,-0.0438855477,-0.0135411965,0.0575306155,0.06969436,-0.0249514617,-0.011336484,0.0401570573,0.0500253476,-0.0517012365,-0.0465142578,-0.0394390747,0.00351331872,0.017045578,-0.0190877039,0.03490992,0.0617374852,-0.007864039,0.015406427,0.039775718,0.0223512556,0.0352902636,0.04807493,-0.024084013,-0.0562590025,0.0450879447,0.0466845036,0.01346189,-0.0476648919,-0.028576605,0.02101802,-0.0579181,0.07258564,-0.0281116813,0.04715211,0.0322730653,0.0268872716,-0.0330149978,-0.0154573973,0.08211852,-0.0424776226,-0.05979451,-0.06220934,-0.00294149388,-0.0126364091,-0.0138260415,0.05552138,-0.0323762968,-0.0251098722,-0.0567670427,0.0020270918,0.01046622,0.0431143157,-0.0439218767,-0.0190264136,0.0744065344,-0.02696333,0.02142584,0.06430776,-0.0115180044,-0.00176031573,0.009735204,-0.0318298526,-0.0194395073,-0.0627101958,-0.0242413282,0.0362948477,-0.042746447,-0.05216915,-0.0225178059,0.0112843616,-0.0122183627,-0.03458044,-0.0205277074,0.000459943782,-0.008814491,0.0671225339,0.0207300186,-0.0576648749,0.0553370081,0.0420163274,-0.00291575957,0.01627023],[-0.04989059,0.040354073,0.0227903984,0.05870017,0.0239924062,0.0171271972,0.07657636,0.0667715,-0.09302595,0.06422424,0.0129831424,-0.02491079,0.0693709,0.0139293745,0.00124241668,-0.0257534925,0.0258460958,0.0443708971,-0.0521676056,-0.00059079926,-0.005165708,-0.019519059,0.0592031553,-0.0650881156,0.0606075525,-0.039935302,0.0270867683,0.0334727876,0.05751292,-0.009805547,-0.00715938164,0.0462911539,0.0412022322,0.08560068,0.0320551433,0.0183022823,0.06019326,0.0626008138,-0.0534717739,0.02956017,-0.05426956,0.0314185321,-0.03327096,-0.0525418781,-0.0666982159,0.04681364,0.0160163324,0.00542386947,-0.0616247579,-0.05587092,0.008790926,0.0241753738,-0.0277815647,0.0199798476,0.04390614,0.0208628867,-0.0731921,-0.002783043,-0.0567557774,0.0482576,0.06311025,-0.0144222351,-0.0384182446,0.0199839659,0.018759802,0.0153060034,-0.047647614,0.0415039957,0.000964078237,0.0326578356,0.04612975,-0.02109078,0.0559062473,-0.02655575,0.0255882256,0.05213843,-0.04280792,-0.0148457205,-0.07775136,0.0169364884,0.02879748,0.0247083083,0.01017601,0.0858892351,0.0154704787,0.02618878,0.0497299,0.0104708076,-0.0132042263,-0.0313159823,0.017639596,0.0272330213,0.06520964,-0.0235597733,0.0112215243,0.0405507237,-0.0659699142,-0.01979146,-0.0149326157,-0.0331711248,-0.00319935544,-0.0195250884,0.0208385922,-0.02124915,0.07066653,0.0181950368,0.0265818089,-0.0354182348,0.0320288,0.0145503068,0.042327527,0.039698936,0.04716966,0.04380253,-0.0562752448,0.0331255347,0.0395015851,-0.0291940346,-0.039045196,-0.0313838124,-0.05167528,0.0146809891,-0.0274387635,-0.010028298,0.0690885,0.003972063,0.0140713705,-0.0460408144],[0.0385698751,0.0437840968,-0.119839825,-0.00479299575,0.00172290916,-0.00747357961,0.00163142162,-0.0241886768,0.08594435,-0.0107535077,0.027601542,0.08307842,-0.0217727832,-0.0289061181,0.0415888019,-0.0937613547,0.0403574258,0.0349229537,-0.0172642786,0.0557221919,-0.07495485,0.03852477,0.0252903625,0.06350023,-0.05698298,0.027570134,-0.0547857136,-0.0400129,0.049340494,0.04422588,0.007342698,0.0166070051,-0.0166414585,-0.03904959,0.04192612,-0.0230482034,-0.0465552956,-0.043588385,-0.07094439,-0.108097322,0.009891907,-0.0325949751,-0.05637581,0.0186443254,0.0460893922,0.0202603564,0.104110137,0.09898599,0.0142164882,0.0707546845,0.06976237,0.0536250621,0.0313764326,-0.05553934,-0.0185807236,-0.0102005256,0.102515541,-0.07540696,0.0698987842,-0.0209312327,-0.060026478,0.002599346,0.03719263,0.008664835,0.06220926,-0.0415155664,0.018119093,-0.0115049593,-0.03279641,0.0620593764,-0.06365818,0.0155560942,-0.002914497,-0.0569461323,-0.006940383,0.005598049,0.00324998586,0.0406645536,0.09910915,0.0116686681,0.01775481,-0.07102854,0.04475954,-9.21721439E-05,-0.0272150431,-0.05135755,0.0134460824,-0.05753493,0.0362276733,0.0142176282,-0.09457438,0.051696226,0.02513063,0.007909862,-0.0531017072,-0.019527806,-0.02939184,0.0592862,-0.0285301227,-0.0404858142,-0.03200813,-0.07226449,0.06664814,-0.0273203347,-0.0378302075,0.00966526847,0.0719063,-0.06201206,-0.0387057,0.0535820723,-0.00343291136,-0.033831466,0.0538616627,0.06480155,0.0937149152,0.06019397,-0.0428696945,0.0476349927,0.0880643949,0.009153078,0.0791522339,-0.000105902276,0.00648838142,0.01790982,-0.03636272,-0.0101034492,0.0478544571,0.0451247841],[0.02262237,0.039057374,0.0131332185,-0.005450134,0.0579183549,-0.0477453955,-0.0758123249,0.0797209,0.04380196,0.0708680749,0.0462600067,0.0509885363,0.06378335,-0.06263173,0.0120656006,0.034628924,0.0077986964,0.0345266461,0.008028554,0.0300260931,0.0881151259,0.0468186922,-0.0296570379,0.0151010938,-0.043470908,0.0547497422,0.06270347,-0.0753432959,0.0278889481,0.00681687938,-0.00273445016,0.0600230023,0.07446981,-0.03307811,-0.0226715412,0.012779831,-0.06311121,0.05271505,0.0211764649,0.0124815321,0.0487166941,0.0103827417,-0.0205763951,0.000350664341,-0.023410758,-0.06378151,-0.0148046892,-0.0329481326,-0.0243297182,-0.0306601934,-0.004229583,-0.06632653,-0.06648699,0.0352866128,-0.0387739129,-0.07006098,-0.0898675546,0.0470161028,0.00269307871,0.0516256876,0.0201556478,-0.0525737666,-0.00199893326,0.0520119779,0.0243091751,-0.0352264419,-0.0449237525,0.00137978839,0.05366227,0.06170115,0.0301801618,-0.0233240444,-0.06550434,0.0212367,-0.00340257678,0.0384183042,-0.0433923081,0.00220345473,0.0471015759,-0.06978576,0.005830986,-0.004291911,-0.010155201,-0.0188837089,0.046583157,-0.0347296521,-0.051654458,-0.0207741931,-0.0573040172,-0.006539849,0.0260731317,0.00254025566,0.0100991651,-0.0352781676,0.0361893326,-0.0131771686,0.06964623,0.0456069,0.0571101867,0.0223349873,0.051546663,0.0187609177,0.0290307589,0.0490974747,-0.01452802,-0.04941527,0.005358299,0.008933265,0.03587324,-0.0252366774,-0.0463408381,0.06574439,-0.0517412722,-0.0245638657,0.0440278463,0.0650051758,0.0511526652,-0.03549363,0.0324687734,-0.0299477167,-0.0408418253,0.002784987,-0.03359533,0.004626693,-0.0104721831,-0.0585034229,-0.01845098,0.006729146],[-0.0247824676,-0.0151393414,-0.0138347577,0.0335494354,0.005974367,-0.01606227,0.03301025,0.0211209264,-0.0466131531,0.0109703513,-0.005101359,0.0249379855,-0.05351873,0.0384821072,0.0651242957,-0.05503422,-0.0267455988,0.00703465939,0.0510902666,-0.0438697,0.05486886,-0.0534686074,0.08284215,-0.0394096673,-0.0539427735,-0.0301615447,-0.04940631,0.03910703,0.0588506833,0.0301739,-0.0486706421,0.04332147,0.04515364,0.0412283,-0.0145987542,-0.0188067537,-0.004976885,0.0189175587,0.035216134,-0.0601753555,-0.0164897367,0.038867373,-0.00764606846,0.02139595,-0.0238116812,-0.06497867,0.0471673124,0.05697656,-0.0303258747,0.00570723461,0.0529768653,-0.005348377,-0.006960055,-0.0159856565,-0.04095232,0.0122565031,-0.0521628447,0.0199733358,0.0432978868,0.0521326959,0.01440074,-0.0136122247,-0.07671363,0.0240696613,-0.0670342445,-0.0151068186,-0.0339009278,0.0352226533,-0.0526793748,0.0415655561,-0.0287689175,0.0177258439,-0.03537071,-0.0146122482,0.0401934981,0.0350463651,0.0642752051,0.0132830376,0.03763137,-0.06221137,-0.06244969,-0.0227183178,-0.044169914,-0.0512676649,8.310438E-05,0.0638176948,0.05219955,-0.0165319685,0.0485145524,-0.0184095073,-0.059761785,0.0336743072,0.0529388078,0.06376745,0.03966949,-0.0371386334,0.05793415,0.05788336,-0.0422999,-0.0155128995,0.0188771971,0.0117760422,-0.04994722,0.03001795,0.0186283085,-0.00638027769,-0.02981052,0.0218574163,0.0270432271,-0.07121729,-0.0306316875,-0.03801442,-0.0785510242,0.0162054729,-0.0301149935,-0.06666026,-0.01657723,0.009600077,0.0340355337,0.0472435243,-0.0408276841,-0.02429642,0.0166998468,-0.0692340955,0.0260105971,-0.04574314,-0.0429592058,-0.04247239],[0.054883372,0.06062225,-0.0379323363,0.0473151,-0.01833811,-0.00178699032,0.0140581336,-0.0180274621,-0.03587719,0.04706606,-0.0275337528,-0.04692012,-0.0251344014,-0.00175042893,0.08320568,0.0191666782,-0.04717493,-0.00254115532,0.06951322,-0.0598457977,0.0146720912,0.00839259848,0.0525518954,-0.0591763631,-0.0147124175,-0.0352630578,-0.0177967865,-0.06259742,0.06111443,-0.05066455,0.0296294261,-0.0532366931,0.0431197062,-0.02994592,-0.0284005012,-0.0156496651,-0.04699025,0.00723477267,0.06417903,-0.0329017751,-0.0365795977,-0.0377479568,-0.0254509356,-0.06476052,0.0787314847,-0.010830096,0.009654933,0.05305327,-0.0602793619,0.0157282222,-0.0422483347,0.04661009,-0.0267508253,0.0170607511,0.07597384,0.0127017032,-0.00184156781,-0.0317227468,0.0375853181,0.03942301,0.0110832509,0.04960785,0.03130002,-0.0420068949,-0.005962994,0.02635046,0.0473843627,0.0252164658,-0.030711716,-0.020876063,0.00271440856,0.00156513741,0.0316253342,-0.0129343513,-0.00466203643,-0.0534010865,0.0343635045,-0.0430382974,-0.06500196,-0.0747310445,0.0273288861,-0.06536539,-0.00757992733,0.0393679738,0.0428700224,-0.01779781,-0.06230993,-0.0328723341,-0.006477899,0.0180236846,0.054825183,-0.0210860278,-0.028456457,0.01703796,0.03071114,0.0429759063,0.0206915233,0.0329624154,-0.07931045,0.04508053,-0.0422503,0.055762168,-0.0274125356,-0.0227252562,-0.05707022,-0.009274368,0.006451598,0.0870676562,0.0196334,0.0170040652,-0.0575792566,-0.024364721,-0.0305802673,-0.0140569666,-0.0588380732,0.0688132,-0.0483564,-0.02593225,-0.04832045,0.008356565,-0.05029584,-0.0362705141,-0.0319709927,0.03466686,0.05332144,0.0394936651,0.04650966,0.0161303282],[0.0173345543,-0.0526178181,0.06901998,0.00150581123,0.0391063467,0.0534778163,-0.019111257,-0.02771394,0.0313719437,-0.0483293831,0.0221303124,-0.0343163051,-0.0407302342,0.005882185,-0.0460224338,-0.00151591026,0.0131837809,0.07873877,0.05103985,0.025362689,0.0361895934,-0.06044944,0.0170003828,-0.0553214476,0.0200290121,-0.0141660227,-0.00643814867,0.009794087,-0.0277794916,0.000168424129,0.06313455,-0.0509338044,0.0548895933,-0.0195239428,-0.09251172,0.06881831,0.0117295319,-0.00022576208,0.00184579252,-0.0422242358,-0.016170511,0.01796462,0.0551471636,0.009830985,-0.0169222951,0.0478705429,-0.06809775,-0.0153170908,-0.0208900757,-0.02447514,-0.08130211,-0.0135655012,0.013144996,-0.0576692149,-0.0801656246,0.0349259079,-0.0242979433,0.07245553,-0.0147935534,0.05930321,-0.0120174568,-0.0541691035,-0.02621942,-0.0644531,-0.0259465538,0.0418222249,-0.0183479972,0.0550826229,0.0262570884,-0.008039732,-0.03945194,0.008079714,-0.0150686046,0.03675117,0.05119184,0.08721166,-0.0211274251,-0.08086024,0.0465543158,-0.0269908831,0.08279253,-0.0299706254,-0.08517396,0.050453864,-0.0586824678,-0.03504589,0.0364726968,-0.0481169857,-0.058946263,0.0222490039,-0.0485043377,-0.0155117018,0.00450779963,-0.0226952136,-0.0538690239,-0.0355446748,0.0035855195,-0.0380834676,-0.0227042846,-0.0310198255,-0.0441796929,0.0528821535,-0.00556876557,-0.0584906526,-0.0242594387,-0.0368390679,-0.06717859,0.03714638,0.0487396866,-0.0630797148,-0.02224288,0.0782564,0.0425056964,0.0348781981,0.0350285135,-0.02622623,0.08109779,0.07407004,0.034633074,0.0370884649,0.00375313964,0.03737035,0.009087291,0.02790768,-0.0311129186,-0.0354753546,0.00239892816,0.00620614737],[-0.0589477979,0.007960958,0.04994041,0.07024184,-0.00724079134,-0.03996037,0.03369099,-0.0502355061,-0.03349922,0.0226083156,-0.03487892,0.0186797716,0.0126162609,-0.00470986357,0.00151417754,0.06312926,-0.0295214076,0.05080092,-0.04829658,-0.08398186,0.0301957522,0.04544825,-0.08092859,-0.0077667,-0.0287039019,-0.0459431447,0.0170035474,-0.027821064,0.024282122,-0.0284287371,0.02501747,-0.05676168,0.0102548935,0.02990467,0.00392112276,0.0297139175,0.0565311834,-0.0221009925,0.0799808651,0.08619802,-0.07800448,-0.0557824,0.0392013825,-0.006006104,-0.0448636077,0.06473353,-0.0125304488,-0.0168896057,0.04976108,0.0332856961,-0.0593268573,0.0364446566,0.0341972969,-0.0417512245,-0.0534790419,-0.052142974,-0.00236545317,0.0224678162,0.0231677052,0.0524954237,0.0552533679,-0.0455353931,-0.0491766743,-0.02997923,-0.0357789621,0.009939494,0.0008457671,-0.03437777,0.0067017437,0.0431585461,0.0231688637,0.00355758052,-0.00253083743,-0.0402766131,-0.02239842,-0.03161579,-0.008235859,-0.02815766,-0.05599355,-0.07455128,0.060598895,-0.0101279486,-0.04605735,0.05921081,-0.07262562,0.073299706,-0.0360833034,0.04848308,0.0294944979,-0.0301281977,0.0139604518,0.0113242939,0.0306208469,-0.0595456958,0.0458635,0.037733946,0.0363711454,0.0223702043,-0.03130892,0.0450398,-0.0468979254,-0.0158190932,-0.07615412,0.0204811282,0.0498734452,-0.0449725762,0.008771736,0.04669908,-0.04303344,-0.0450441,-0.04437264,0.09261623,0.0550911166,-0.0362845063,-0.009194777,0.0495888,0.0158151612,-0.0686906,-0.0331635177,-4.270684E-05,-0.0172962733,0.0506062955,-0.07619115,-0.010970897,0.0166113768,0.06793014,0.007961953,-0.051460512],[-0.0245274231,-0.0286111888,0.07086198,0.0003325403,0.0557952672,0.0480218977,0.05482192,-0.00487023871,-0.0387895741,-0.0164745431,-0.0134954518,-0.00698131928,-0.00494408933,-0.0270591676,-0.0101535879,0.05539457,0.0499545559,0.07101955,-0.0108391428,-0.0278549269,0.016966965,-0.0673450157,0.00673812162,-0.03461247,0.05081657,-0.0646492541,0.05076729,-0.009665754,0.0008788681,0.07839472,0.05227204,0.00297362125,-0.05243919,-0.0247764811,-0.04880034,0.02881594,0.0492995977,-0.0232731551,0.00382128172,-0.003014746,0.0267777443,-0.009741697,0.05243621,-0.06341688,-0.01815706,0.0473875366,0.0137578351,0.0293888021,0.06341252,0.0234819613,-0.06756602,0.0499908365,0.02368172,-0.0109871272,-0.02203692,0.03871859,-0.07252983,-0.065506205,0.0539247841,-0.0376564264,-0.061922323,-0.0153423985,0.0537891835,-0.07491805,-0.0241659861,0.051817283,0.0457854532,0.0233994853,0.0497690476,0.03915653,-0.05100134,0.0661633238,-0.0770219341,-0.0152517958,0.06266698,-0.04119625,0.0549709573,-0.03833259,0.0005863072,0.017849,0.0462914966,0.0317572057,-0.0658119246,-0.0017083839,-0.004245717,0.0103601618,0.0601504035,-0.00163030659,-0.0620370433,-0.02712512,-0.005059878,-0.0181446057,-0.0574314669,-0.0517940968,-0.08680178,0.003131895,-0.0552640446,0.0273355022,0.0774205551,-0.0427849032,0.0191200916,0.0434761681,-0.0264969375,0.05141229,-0.0600645579,0.0230713226,-0.03672442,-0.00354612316,-0.0105386255,-0.0568546765,0.0360861756,0.0394613631,0.03465702,-0.04703673,0.0473244153,0.0290318951,0.0298544411,0.06890649,0.0459964275,-0.00149382651,0.0107807126,-0.01935206,-0.0245089643,0.06257478,0.0311985929,0.0173220541,-0.043401774,0.009617627],[-0.0408659838,0.0148856984,0.0129304612,0.0300424471,-0.00272564,-0.0170208625,-0.0432095528,-0.008866109,0.0435212553,-0.0257534254,0.0190364718,-0.02545778,-0.03550419,-0.0632426143,-0.0410594642,-0.07971841,0.0536818,-0.0548973419,0.00423753,0.08674455,-0.06845849,0.00367287244,-0.0184012372,0.011194719,7.152908E-05,-0.007199,0.0217336919,0.00676557,0.04242963,0.0684456,-0.0541135,0.0301235411,0.0191231351,-0.0147784185,0.0397025533,-0.0101628229,0.0382526,0.0144705381,-0.0105111,-0.0438351221,-0.00704993168,0.0595801733,0.0285615437,-0.0347555541,-0.00651310524,-0.073998116,-0.03468467,0.06057781,0.0294361189,-0.04468135,-0.03388004,-0.07353458,-0.000524169649,-0.04179803,0.0417620651,-0.04030993,-0.0328134261,0.0450944752,0.0608846471,-0.08261665,-0.030717466,0.00184236793,-0.032731995,0.04637263,-0.0124680586,-0.058876425,0.07021318,-0.0845504552,-0.07888329,-0.0340975337,0.0117536923,0.0298564658,0.0159704965,0.009472921,-0.00548784528,-0.01617365,0.0538725629,-0.0421233438,0.08475029,-0.0137851909,0.06418532,0.0169625133,0.0235125571,0.0441268831,0.07175097,-0.0208600257,0.0550116375,-0.07665623,-0.0348781422,-0.0103017418,-0.0560358725,0.002629688,0.0436991975,-0.0150681306,0.06709724,0.00170096487,-0.06670906,-0.006679342,-0.0232264642,0.0165469889,-0.0136884963,0.03280114,0.0505281165,0.0434613638,-0.00492233364,-0.0348810442,0.04256083,-0.0224056076,0.0209613442,-0.0376129933,0.0393328667,0.03965169,0.0516909659,-0.013513945,-0.0143903354,-0.00730514573,-0.007994591,0.0507982858,0.0258288532,-0.0545818768,0.08806312,-0.0460995771,0.0535543077,-0.0561513975,-0.0571789965,-0.0318025276,0.05322902,0.0526308641],[-0.0395919234,-0.0557697751,-0.022423828,-0.0516455062,0.0118653076,-0.0498083681,-0.008003409,0.00190136093,0.006549722,-0.00201706821,0.0496990979,0.03745407,-0.033843223,-0.0322891,0.01635848,-0.0415532477,0.006658536,-0.03428956,-0.029993929,0.0117341029,0.0194538832,-0.007787933,0.00796503853,-0.046453245,0.03081688,0.0532221,-0.06370903,-0.0346511863,0.0204847567,-0.0465141237,0.01269427,-0.0544472262,-0.028548507,-0.05962728,0.06839748,-0.003097051,0.04739304,-0.02859765,-0.024601439,0.0490064,-0.0447311662,0.0160001535,-0.0392612442,0.05865511,-0.0319618136,-0.0571172237,0.007012211,-0.0300542414,0.0525062,0.04179252,-0.0418891,-0.009856483,-0.0415580869,-0.0284400769,0.03315573,-0.028819479,0.0559675023,0.04082446,-0.005221123,-0.02676221,-0.0283040684,-0.017295301,-0.07040941,-0.03386558,0.04461846,0.0126854,0.0207783356,0.0426419266,-0.00591296377,0.0181673244,-0.0302160513,-0.05212211,-0.0111771189,-0.0668779463,0.0215669423,0.06490827,-0.0506870821,0.0324052423,0.0517546348,0.04850707,-0.0362628922,-0.05709294,-0.02047296,-0.06631109,0.008648659,-0.026665248,-0.007066823,-0.0727154538,0.032952752,0.0237252954,0.06883236,0.0267411526,0.0493055359,0.0159012955,0.07788634,-0.0214560255,0.05553422,0.00451807538,0.0411094949,-0.04365794,0.0482624769,-0.006365931,-0.0147435693,0.0535483472,0.051865574,0.0302814189,0.07200905,0.027961215,-0.0181895979,-0.013907413,0.0173576027,0.0132286465,0.0473976843,-0.0252052844,0.0331450552,-0.0231747534,-0.0620037541,-0.0136942482,-0.0580806658,0.0222010724,0.03197917,0.0598897636,0.0652017146,-0.0238516517,0.06477745,0.044264216,-0.0122919986,0.01278117],[-0.00391082047,-0.0443432,0.0517595038,-0.02777219,-0.0133171808,-0.06291568,-0.04358604,-0.04519633,0.0444590934,0.03545289,-0.0121184429,0.0530185,0.04881317,0.0302004665,0.005162618,0.02035224,0.041393742,-0.05247086,0.0279656947,0.01654573,-0.009963551,0.0381042026,0.061463166,0.0280089267,0.006226938,0.0211613234,0.01705848,-0.0457051769,0.0295162182,-0.06254658,-0.0221505538,0.0119040273,-0.0009535803,0.0432670154,-0.0129170045,0.0385907255,0.009509689,0.0100330636,-0.05728536,0.0371672027,0.03349059,-0.011541931,0.0241971985,0.05348598,0.04131628,-0.0121177724,-0.02984151,0.03277568,-0.0209964477,0.0676806644,0.07718686,-0.0197561085,0.06704932,-0.04142844,0.02907845,0.00347531657,0.01734824,0.0432078354,-0.0307679158,0.0214253142,-0.0170125943,0.041409608,0.0240870826,0.000293679623,-0.0320332758,-0.05675016,-0.0298282411,0.0148372455,0.0101444731,-0.0423046872,0.0523413979,0.00698519638,-0.00408488326,-0.0387845971,-0.0447492972,-0.07347488,-0.0602512844,-0.0289018936,-0.021111045,-0.0423899144,0.04718825,-0.0141889872,0.03367954,-0.0708381757,0.0390006341,-0.0358244181,-0.0031034085,0.0170101188,0.0160016753,0.0158291943,0.03765452,-0.0504401773,-0.0419814773,-0.0385907181,-0.03583783,-0.03381992,0.0362566076,-0.0205423869,-0.07801065,0.05712091,-0.05177992,-0.0157154426,-0.06370425,-0.0110013261,-0.00207858486,0.0419187322,-0.031586092,0.0491968244,-0.0475899,0.0362450853,0.0416703336,0.0016836233,0.0440642238,-0.00321739865,0.0325430557,-0.0339955,-0.0618421,0.0510192476,-0.0324962661,-0.0415110178,0.04614132,-0.05420257,-0.0191788655,0.002808871,0.0618564151,-0.0493283533,0.0132301673,0.0439766459],[-0.00548124732,0.0261641089,0.0846671462,0.009448253,-0.0228732061,0.0197089035,-0.01101447,0.07106374,0.03534378,0.0629427955,0.02780838,0.0124794329,0.0504477769,0.04879253,-0.0230920371,0.0668136552,-0.03344079,0.0407216325,-0.04074772,-0.05777966,0.03492412,-0.008672595,-0.009193559,-0.046344474,0.0105232736,-0.0326316245,0.0546891242,0.0060088085,-0.0121597322,-0.0529121645,-0.022559382,0.0148105379,0.046394337,0.0111829834,0.0513390675,-0.01618029,-0.018790599,0.040073622,0.0104466891,0.06097975,0.0139879379,-0.0458322279,0.01683007,-0.01675231,-0.000845615345,0.058943823,-0.06884114,-0.06494465,0.0379085727,-0.03949565,-0.0575714149,-0.000737744733,-0.0307489466,-0.021601893,0.0139249871,-0.0474968478,-0.051743675,-0.013955201,0.0510849357,0.04859545,-0.0424501933,-0.0256544724,-0.0847252756,-0.0396385267,0.04985966,0.05755242,-0.0709560663,-0.0702772439,-0.0492072962,-0.07374076,-0.0647433847,0.0591154434,0.0441147126,-0.058365386,-0.00689072954,0.104233839,0.0421855375,-0.0219031982,-0.0405231379,-0.00263266126,0.03577986,-0.04976423,0.00565126864,0.0711528361,-0.023777172,-0.05336919,-0.0116678178,0.0307831988,0.006598455,-0.00188814383,0.06366369,0.0332266428,-0.0180248432,0.0392827131,-0.06254506,-0.0119104739,0.056260176,0.0212421659,-0.0355771631,0.05629762,0.0533809327,0.04982169,0.0666656345,0.0203606635,-0.01819174,-0.0147664966,0.021918945,0.0281769484,0.0360992476,-0.07711046,0.00826738,0.03304753,-0.0195145328,-0.0238272119,-0.0342309,0.05746163,-0.0211055838,-0.009602146,-0.06937537,0.06143861,-0.0385575,0.0469299741,-0.0527367145,-0.0587962233,0.0139665324,-0.0516037047,-0.08618529,-0.0359061621],[0.06363766,-0.048195973,0.03531239,-0.008216391,0.008867518,0.04649692,0.04704237,0.0123839751,0.00497194473,0.03284702,-0.045952145,0.011099387,-0.00635302532,0.04246834,0.0235457849,0.04089836,-0.0555379651,-0.0619104356,-0.00164603943,0.0151051953,-0.000240418609,0.0386415645,0.02570586,0.0125225363,0.0231634583,-0.05998694,0.006881533,0.001948992,0.0653221458,0.00206408417,-0.0135041121,0.0300236717,0.0371486433,0.00342328264,-0.009359571,0.0282109417,-0.0126097174,0.02963678,0.03582171,0.0763434,0.0648756251,-0.00660565076,0.0346545875,0.0346183,-0.04630886,-0.0779078156,0.0224261247,-0.0146374535,0.0299712326,0.014565344,0.06061804,0.0253156442,0.0442398936,-0.0285419021,0.0168630388,-0.0366806053,-0.0071300636,0.0254812967,0.0527415723,0.008323419,-0.07688418,-0.0127530014,0.0147882737,0.0303866882,0.017850725,-0.0294753071,0.0232045837,0.05383909,-0.0773297,0.06292164,-0.04830714,0.03188491,0.006435785,-0.07112304,-0.0533316731,-0.0337002724,-5.22546652E-05,0.0725360662,-0.03330341,-0.036688678,-0.07037811,-0.04206601,0.05273916,-0.05177342,-0.0229415949,0.0124410624,-0.0181048941,0.0509221181,0.048798617,0.06015101,-0.0321576446,-0.0578350052,-0.0572138429,-0.009788414,-0.04672094,0.0671405643,0.06895311,-0.053583324,0.005181712,-0.0183666386,-0.0368444,-0.0081665,-0.0272837244,0.0322376452,0.0384031832,0.007163412,0.03860764,0.06403553,0.0213227477,0.0442927852,0.0197415277,-0.0657045245,0.0529254079,-0.0117342938,0.077542305,-0.07936193,0.008748854,0.05630403,-0.0453036465,-0.005407124,0.07672987,0.032098718,0.052833125,-0.0216859523,0.08006757,-0.057184834,-0.0492138863,-0.041479785],[-0.0189004559,0.0175549518,-0.0370847434,0.04932039,-0.08298224,0.00647533732,0.01717706,-0.0607904233,0.0539965965,-0.02118252,-0.0603715628,0.0367252827,-0.02120683,0.07106202,0.06574134,0.0381680466,-0.01281184,-0.0587967671,0.02140931,0.0543264262,0.00205498235,0.0625505149,0.0152870417,0.0163221,-0.03775074,-0.04120015,0.03089442,-0.0198593829,-0.0252595525,0.0210848656,-0.06043988,-0.007846721,-0.0274695158,0.06396859,0.06465663,-0.0466032661,-0.0311325,-0.01864514,-0.0258480944,0.0364601724,0.0271413289,-0.00181261729,-0.00934056,0.06107588,0.0455248021,-0.0352100953,-0.01627294,0.02712823,0.013979285,-0.00339929364,0.0419228226,0.0594531968,0.0443208925,-0.0580544844,0.0589873865,0.0192812961,-0.014881188,0.02384901,0.0812273,-0.00737758353,-0.0120518869,0.008244828,-0.0373117737,0.0118991379,0.004487032,-0.0444260165,0.007937346,-0.0582055748,0.00952720549,0.00740946736,-0.05733236,-0.07057227,-0.018651139,-0.0304860789,0.0273431223,0.0440324955,0.0552451164,-0.0356692076,-0.04733896,0.06413163,-0.0816323,0.0226802453,0.0118006235,-0.00259215944,0.0103800027,-0.0426359624,0.0562887751,-0.0578563735,0.024467295,0.056295462,-0.0298640355,0.0102670547,0.00149455271,0.02772336,0.0542332754,-0.0155521277,0.04568199,-0.05364301,0.05102987,0.04063054,0.03252436,-0.052161172,-0.07568175,0.0276532639,0.0226694439,-0.0138146142,0.0007205442,0.007893547,0.0310784243,0.05600839,0.0469938442,-0.012462846,-0.0328482427,0.00327482424,-0.0142610651,2.8436818E-05,0.0239579976,0.04058432,-0.0301418658,0.0112633714,0.0151218269,0.0154707171,0.06090593,-0.0396098234,0.0160439964,-0.0351155363,0.05080012,-0.0336132161],[-0.0328285955,0.0538704954,0.0102320528,0.06677895,-0.06251753,0.0419756025,0.0517790541,-0.004886055,0.0353294648,-0.00710163033,-0.0494054,0.0405723862,0.06628962,-0.0588707067,0.0270766858,0.0458100252,-0.0442028157,-0.057181254,-0.019660756,0.0428493172,0.0260044578,-0.01651155,-0.001980565,0.02295063,0.0630691,0.03541666,-0.0552849732,-0.02047257,0.0205700845,0.0577619,-0.0202262215,0.0229260474,-0.01626921,0.0136477742,0.0113984812,-0.0716529,0.0336961523,0.0378184356,-0.0494476,0.0621999055,-0.08016182,-0.005930136,-0.04512114,-0.046655938,0.0454250425,-0.0117050447,-0.03001568,-0.0259621348,-0.01052927,0.0219790768,0.003104727,0.00188301643,-0.0290629771,-0.036246758,-0.0528169647,-0.0424717,0.04050685,0.00581018627,0.02917796,0.0599579141,0.0288786,0.0153465886,0.0183225572,0.05940733,-0.0156732071,0.0190781523,-0.06595734,-0.0313191861,0.009719701,0.0637197644,0.03947807,-0.0569509342,0.047717832,-0.0219507,0.0546177737,0.02443018,0.0237652063,0.0207335856,-0.006749674,0.007680294,-0.0348365344,0.00367340888,0.0132924542,-0.0370243564,0.04666277,0.0227408353,0.0109423818,0.0272079967,-0.00105588115,-0.0518116839,-0.0219893325,-0.0569760054,-0.0757034,0.0190694649,-0.0257966612,0.02262516,-0.00160488451,-0.0408520326,0.002843734,0.00272084773,0.020617567,-0.027472809,-0.0451329872,0.00298399176,-0.0586936325,-0.0373031572,0.00117751677,0.07038769,0.02092007,-0.0104621705,0.03833177,0.0199884959,0.06591941,0.05516618,-0.0189113077,-0.03471776,-0.0362628326,0.009468853,0.00383146736,-0.05857158,0.0445540771,0.0277908035,-0.004161045,0.00345597952,0.0119285258,-0.0587304756,-0.0367616974,0.0219068229],[-0.04468541,0.0187369287,0.0280885845,-0.0300389156,0.0295559634,0.08634332,-0.06817658,0.0806509554,0.06253945,-0.0217450615,0.020232996,0.00400080346,-0.0753685459,0.0451028533,0.0634540841,0.0292737875,-0.0387337878,-0.0561942272,0.0654926449,0.0382059328,0.00351182441,-0.0381904952,0.0134212626,-0.016163012,-0.0288973786,-0.06328905,0.00730970269,0.028525563,-0.0006284311,0.0513047278,-0.0649536252,-0.0375428274,0.07610716,0.00101751462,-0.04407921,-0.07878446,-0.08068512,-0.00487970235,0.00524565764,0.0206663515,0.0143273007,0.0165846255,-0.0170041211,-0.00518486975,0.001379231,-0.08733544,0.02950258,0.04727094,0.05013782,0.0264324863,0.02129043,0.0189125836,0.0222322773,0.0344250165,0.050876718,-0.0307880025,0.0301645081,-0.03265276,0.03505324,-0.06275643,0.005999668,0.0102142263,-0.0334815942,0.028687356,0.0294490643,-0.03812894,0.023540495,-0.02468489,-0.06354688,-0.0299223419,-0.0718925744,0.07163996,-0.06529684,-0.0546222962,0.07164236,0.0392871164,0.0507155769,-0.03545342,0.08952693,0.0205978546,0.0576877631,0.0132128708,-0.0394458,-0.00452219276,-0.0138935363,-0.05564649,-0.0473186336,0.0108300988,-0.0628973544,0.0144295469,-0.0422308,-0.0110296709,0.06253126,0.0462179,0.0527393,-0.0402346,0.0141992234,0.103111915,0.0274891946,-0.0271307584,-0.036225196,-0.0005265117,0.0057399855,-0.0284482017,-0.00442071958,-0.0459433645,0.0266973544,-0.0674899146,0.0108089307,0.0400673933,-0.0534521751,0.027297264,-0.0545861349,0.0258580428,0.008845711,0.0710816756,-0.0323920362,0.07407378,0.00815620553,0.0243979245,0.0270846765,-0.019378664,0.07770392,-0.0331542976,-0.0249426626,-0.02833804,-0.05426717,0.0129913148],[-0.007376588,0.029525876,0.008944209,-0.0761595,-0.0453577861,0.048775062,0.026639143,0.00231083226,0.05975237,0.0540598668,0.0424579829,-0.00837741047,0.011180887,-0.007367789,0.0353896022,-0.0774695,-0.03669065,0.0463868342,-0.0344196558,-0.0175897256,0.0417868122,0.07396247,0.06596437,0.07062131,-0.04893613,0.0136133684,-0.0519463643,0.0165513251,-0.0119524086,-0.0226375572,-0.0593312755,-0.005338033,0.05472361,-0.05238339,0.033675164,-0.0189122148,0.05147704,0.00177498767,-0.07749342,0.0127753709,-0.0206375457,0.0160354339,-0.00847837,0.0683197454,-0.04588499,0.0259453729,-0.0559434742,0.0327271447,0.0672967,-0.02577125,0.03136454,-0.0523410179,0.04166284,0.0124903107,0.005619154,-0.0032157416,0.04163501,-0.0148766777,0.0224118289,0.006417159,-0.04570378,-0.0308659524,0.03796794,-0.02460581,0.0496588722,0.0306561943,0.0724872053,-0.01682182,-0.06384121,0.0535691567,-0.0392254852,0.04407547,-0.006127424,-0.0485894457,0.04089217,0.0292850267,-0.02475134,0.0301308017,0.03155799,0.009480568,0.037782412,-0.0417867079,0.04188178,-0.0350319743,0.0435489081,0.008375105,0.0124957589,-0.0235930029,-0.07611044,-0.0469813123,-0.00412910944,-0.0171369817,-0.008496112,-0.05494646,0.0177491531,-0.018779045,-0.0009569365,-0.0107614165,0.00637492537,-0.0224038474,0.0193652324,-0.0240301434,0.0639474243,0.0505859442,-0.02535943,0.008909265,-0.0325843468,-0.06546459,-0.007036586,0.00677565625,-0.02561178,-0.0190120172,-0.0424254537,-0.061288137,-0.0100180823,-0.0231267866,0.008676354,-0.010422145,0.00175944774,-0.0109063862,0.0471759364,-0.030436907,0.030930629,-0.0273362659,0.018186396,-0.03647884,-0.0350209735,0.0299719],[-0.00515439967,-0.01260306,0.03347428,-0.004457688,-0.0635901242,0.06536289,0.0149835851,-0.021417968,0.08581884,-0.0309460666,0.00307916664,-0.000910520146,-0.0509398431,-0.0210102219,0.04517846,0.0149046332,-0.02959339,0.03462108,0.0352000371,0.01782146,0.0100609623,-0.05224056,-0.0165183973,0.0268278625,0.008979746,0.0238871966,-0.022361299,0.0507634655,-0.0402526036,-0.00126010668,0.0278099515,-0.06305879,0.0661153942,0.0303931255,-0.0202287622,0.0385945849,-0.0308052227,-0.04775273,-0.0609172843,-0.055088833,0.0510328338,0.029476855,-0.0215576887,-0.039187368,0.04717759,-0.074890025,0.0133671807,-0.0327720232,0.0740461,0.03614834,-0.03407579,-0.009605102,0.0571919978,0.0234623477,-0.0233864188,0.0407424942,0.08447427,-0.0305711217,0.06266836,-0.0545330048,0.01803929,0.01582048,-0.0224929955,-0.0204977933,0.06307786,0.0242265984,0.0431236178,-0.0326299444,-0.0207253918,-0.00159127323,-0.03890536,-0.03957312,0.006754165,-0.0112747056,0.06850619,-0.0134605644,-0.0519848019,-0.0379402041,0.07115735,-0.03095596,-0.048441533,-0.0137887113,-0.007972307,0.04894221,0.009554196,0.02416213,0.0397907943,-0.0161613114,-0.0606583171,0.025808299,0.0127305659,0.00241990364,-0.0369355343,0.0459771752,0.03927935,-0.05759925,-0.0102444561,-0.0168345626,0.08790694,-0.0506844334,-0.004362015,-0.00145279209,-0.005555345,-0.0381384045,0.0546382554,0.00191369548,0.0251008067,-0.0624602325,0.010502303,0.0341101773,-0.00949592,-0.02834096,-0.06505663,-0.0405865,0.07459401,-0.012006009,-0.0017554576,0.00732995244,0.0621653758,-0.0344016179,0.005125419,0.009944233,-0.03616151,-0.0751499459,-0.05112786,-0.0290111862,0.023395177,0.0317315534],[0.0321647562,-0.02084537,-0.0363922939,0.07154347,0.00505499542,-0.007033044,0.0153830042,0.0622008145,-0.009331047,0.045180656,-0.06735242,-0.0289857872,-0.0496490858,0.07776162,0.0338169225,-0.03673878,0.0257844627,0.04211482,0.0401388,-0.06546577,0.0343546979,0.00204842677,-0.0469758473,-0.00353093073,-0.00551996147,0.00566695,0.0321311429,-0.03159814,-0.0256564189,-0.03084296,0.0250139125,-0.0206766035,-0.0251168162,0.07995132,0.05848566,0.01307878,0.0566106141,-0.0220727958,-0.00259298855,0.05772377,0.0232953224,-0.06075929,-0.00741972,0.0194844119,0.03438722,-0.00711997,-0.0339513,0.0442146733,-0.03783514,-0.0122244051,-0.04979078,0.044834584,0.0163423121,-0.02489302,-0.0401633568,0.0243498627,-0.0326803327,-0.005179465,0.0509853922,-0.0489431433,0.0157968514,-0.04393997,-0.05977016,-0.0151701821,-0.0752627552,0.00107163307,-0.0104111722,-0.0240687747,-0.0357438773,0.0334464051,-0.0178040434,0.05199183,0.0485041775,-0.06814085,-0.04086456,0.0488717519,-0.0181131549,-0.0308541246,-0.0654688,0.0377972238,-0.06637561,-0.0220538769,-0.0414458327,-0.00668908842,-0.053258393,0.0527848266,-0.0449352227,0.06889091,0.0489323549,-0.0285602286,-0.0238097776,-0.0262345038,-0.0143017285,-0.05414807,-0.032549426,-0.0108094616,0.05583859,-0.0539042167,0.0702914745,-0.009432525,-0.05092372,-0.0242989436,-0.00563510228,0.03931474,0.00811550952,-0.069897756,0.008829592,0.0160605609,0.0640798,-0.03821541,0.04758863,-0.05474698,-0.07859354,-0.03872639,-0.015855005,0.034731295,0.0119500337,0.03764533,0.0163021516,0.04013273,0.0128101679,-0.0123467194,-0.03039082,0.0149595607,-0.00241354853,0.0552877337,-0.055801414,-0.0592388734],[0.06384536,-0.0125616733,-0.0239376314,-0.0427387133,-0.0311148521,0.0007742109,-0.05990727,-0.022688536,0.0624223724,-0.0481422879,0.0238747336,-0.0612035729,-0.03261762,-0.00770985754,0.05422127,-0.0139961243,-0.0312521867,-0.01207952,-0.0547198243,0.0132640675,0.0100831892,0.0197944716,-0.0354918428,-0.0518419743,-0.0448807143,0.04235578,0.0218516383,-0.0111389151,0.0345463343,-0.0711011738,-0.0197510626,-0.0218063258,0.0460796952,-0.01111303,-0.0417289622,-0.060207095,-0.0575703159,0.05580706,-0.0470281355,0.00917405,0.0365339778,-0.00103897031,0.03560262,0.0330197848,-0.03956575,0.0186947435,-0.0269722287,0.048779197,0.0277599953,0.0606226362,0.0185981151,0.0249794014,-0.0443675853,-0.0334451422,-0.0142470887,0.0300775748,0.0500080176,-0.0202326085,0.0177006777,-0.06369829,-0.0469874144,-0.0175537039,-0.03768388,0.0461145565,0.03523135,0.05677006,-0.0449832976,-0.00166522118,-0.01656723,0.0222002622,-0.0236165933,0.00683160173,0.06880416,0.0375605337,0.05978292,-0.0647364259,0.0657032952,0.0246909373,0.0412119441,-0.0176314116,-0.04549226,-0.017202314,0.0934476852,0.0106031606,-0.04542932,-0.07209457,-0.06049273,0.0405266,0.0444212072,-0.00179158687,-0.012804253,0.04438832,-0.0176229011,0.0444888547,-0.0113266343,-0.00615640357,0.0172931477,0.05187252,0.0108381938,0.02183845,0.0673465654,0.0166492425,0.000383189,0.0527179539,0.042369727,-0.0311858021,0.060200125,0.0150757534,0.05623201,-0.0211547334,-0.0204336867,0.0149908261,-0.0281303376,0.0471517742,-0.014424853,0.02519784,-0.007947785,0.02364906,-0.0335287638,0.0112269232,-0.000863008434,0.0650287345,-0.0546280444,-0.06301819,0.03825032,0.0130754821,-0.0275025554,-0.0105312606],[0.0147643778,-0.0162903722,0.0583881848,-0.00607651938,-0.03331166,-0.0114605,-0.0183994547,0.07200757,0.0364948772,0.02736298,0.009454142,-0.0154529717,0.0459572338,-0.04913448,0.04004434,-0.0351848,0.0350720845,-0.0533776656,-0.04166106,0.03288664,-0.06853207,-0.0189841688,0.0445232354,-0.00979741849,0.00796627253,-0.0100774374,-0.064631775,0.0477956943,0.01116172,-0.05233547,-0.0291335974,-0.02636575,0.00624742,-0.0283183437,0.0138874883,-0.0518093519,0.0001387831,-0.015120443,-0.0374807,-0.04923611,0.0425473079,0.0388955176,0.0291871745,0.011791084,-0.04291327,0.0282653645,0.053205613,-0.0168672875,-0.00601593358,-0.0498637147,0.03409857,-0.0622587129,0.0357921049,0.0591272339,-0.0105116386,-0.0468545333,0.01509229,0.0438742824,0.0251597017,-0.06412583,0.07276867,-0.07619208,-0.0529713929,0.0533148535,0.0187017675,0.01458228,0.0119207026,0.05016954,0.0176788922,-0.0156308915,-0.038133163,-0.0344381,-0.005319217,-0.001254851,-0.0294740517,-0.00883218553,0.04834804,0.0299245752,0.0147760352,0.0162039418,-0.0295499153,0.0169001762,-0.0226944331,-0.00469342759,-0.00535033038,-0.009549415,0.0299614873,-0.008172419,-0.0379456244,0.0112589551,-0.02420382,-0.0269650333,-0.0520454459,-0.04510154,-0.009968755,0.0170109589,0.0259265136,-0.04939252,-0.04254483,0.015330269,-0.05934504,0.0153423,0.05269362,0.02120962,-0.04350964,0.05335883,0.005621526,0.0565815754,-0.009944684,-0.0572029427,0.04190299,0.0149193313,-0.032192044,-0.05863013,-0.0377357751,0.0450421423,-0.068119064,-0.0127222035,0.0453163534,-0.03703189,-0.009855876,-0.04741998,0.0176117271,-0.0250529256,0.04745878,0.05678863,-0.0490218922,-0.0369998179],[-0.0215110164,-0.06864445,-0.005040391,0.0233637411,-0.0214924179,0.05594778,-0.0596190169,0.0479057543,-0.0217498988,-0.0339385271,-0.0109334607,-0.0620604232,-0.0287588891,0.04379422,-0.0598350242,0.0162406769,0.0748975649,-0.0288965683,-0.03999259,0.03335535,0.030083349,0.05107356,0.0419668928,-0.004849932,0.0475279428,-0.053858947,0.0104213813,-0.0184652861,-0.0225045644,0.00641845,-0.0188777354,-0.00318306079,-0.0120137986,0.04931965,0.0153139345,-0.0180036463,-0.027602775,-0.00250719115,-0.02118596,-0.0236763451,0.03652285,-0.0486371443,0.0214993414,0.0310359467,-0.0208050311,-0.00197476964,-0.00267476519,0.008529634,0.0357673243,0.0346060023,-0.0744968653,-0.0326562338,-0.0239022765,-0.0257174261,-0.00638338458,0.06824076,-0.0443861857,0.0687515438,-0.048870828,0.01621801,0.0495303422,0.00766812637,0.034318313,-0.0227834769,-0.021321578,-0.0342910774,0.0469730943,-0.038388066,-0.00139202236,0.00168999855,0.039120242,0.0498826131,-0.0373243466,-0.0122387009,0.0620460026,0.007418644,-0.00543750264,0.0359490663,0.03959929,-0.060733784,0.0127326762,0.05445722,-0.0355534,-0.0458779,-0.0127471639,0.0727867,0.03189743,-0.0483484641,0.0623142831,-0.0438274071,0.05792105,-0.03152246,-0.0577191524,0.0220867116,-0.06632506,0.052211687,0.0006954603,-0.07082912,0.05786194,-0.07509518,-0.001106137,0.0238694753,0.0380135737,0.0038913216,0.06424825,0.0178659391,-0.0543901734,0.0168395769,-0.00422680937,-0.006382446,0.04547111,-0.0505650453,-0.04575582,-0.004483348,0.01158777,-0.0269785319,0.0430283323,-0.0384293,0.0381738171,0.0486594476,