{"Layers":[{"ClassName":"Layer","Content":{"biases":[-0.112115338,-0.0005349715,-0.0412882939,0.00987330452,-0.0277330615,-0.02158056,0.000437446375,0.00206886837,-0.0979567245,-0.0893878,-0.0150761,-0.0072435583,-0.0434495658],"useBias":true}},{"ClassName":"ActivationLayer","Content":{"biases":[-0.018768264,-0.000241834176,-0.008395921,-0.00260412763,-0.0242975969,0.03775773,0.003375365,-0.0143672489,0.0272685513,-0.0118842917,-0.009687501,-0.00138181366,-0.010187069,-0.0327208824,0.00650804956,-0.0006617533,0.008203521,0.0276550725,0.0112354718,-0.0009464821,0.0138397571,0.004494662,-0.07154562,0.0327677578,-0.00911104,0.0215661246,-0.005368394,0.004283783,-0.032458324,0.0483449362,-0.000138784046,-0.0123846466,0.0229530334,-0.0103195691,0.009653313,-0.06252371,-0.0023344548,0.013906477,0.000309129216,-0.06596348,0.00714948447,-0.0202471353,-0.0181250069,0.0059688054,0.00186397776,0.0109394472,0.02801898,0.06285494,0.04171479,0.00135356735,0.0252030212,0.0208314862,0.0279804934,0.000188715319,-0.009488069,-0.0262443554,0.0009861779,0.00555943372,0.0415335856,-0.008013179,-0.01038073,-0.006959618,0.01772474,0.0126365516,0.0428258069,-0.000134198912,0.0183211248,-0.0322804265,-0.042674724,-0.014607517,-0.0105794882,0.02708066,-0.0164876562,0.02150278,0.01598021,-0.008989526,-0.00212709326,0.0156802963,0.02165053,0.0282382369,0.0109646916,0.01727112,-0.007028861,-0.0064502866,-0.0130826086,-0.005232281,0.0290569216,-0.01622965,-0.0275872611,-0.0348308049,0.0261883363,0.0154515989,0.006261234,0.001864029,-0.0164103452,0.004190631,-0.0135185327,0.0006114926,0.0196764376,-0.007528171,-0.003476782,0.01690801,0.0269422121,0.002150675,-0.0104983347,0.0358363837,-0.02659271,-0.0487294644,-0.009281942,0.04747604,-0.008710728,-0.01722184,-0.0229165442,0.0198797788,0.026978856,0.0533657074,-0.050984,0.0221330468,0.0255418755,-0.007050732,0.034800455,-0.0168023072,0.0165802781,-0.00584916631,-0.0525975451,0.008192151,0.0281878356,0.0239799935],"useBias":true,"func":2}},{"ClassName":"ActivationLayer","Content":{"biases":[0.029365126,-0.03745191,-0.22414659,0.0332115479,-0.0612998866,0.009088548,-0.147521108,-0.1491677,0.160797432,-0.04086596,0.09118871,-0.0105572492,0.2006569,0.0252334364,-0.0407985449,0.0517914444,0.08656793,-0.186660379,-0.0301831346,0.164450258,-0.041012425,-0.127622873,-0.0124601116,-0.09505461,0.235988811,0.0110285347,0.018109804,-0.113021158,-0.0959252,-0.137931928,-0.0216861274,0.204077721,-0.03831847,-0.000128245723,-0.156212673,-0.0577556826,0.0604724959,0.03104291,0.09139136,0.1411867,0.141331345,-0.04995133,0.0504106134,0.03187252,-0.01458561,0.234126925,-0.101630554,-0.0497357957,-0.0978016555,0.20977737,0.0133938678,-0.08780174,0.110211484,0.186347589,-0.0796457157,0.007861226,0.08810837,0.006736298,-0.0193027984,-0.132916719,0.0710963458,-0.176355556,-0.0777094662,0.255272418,0.0474924,-0.09183775,-0.139992952,-0.12935479,-0.03313657,-0.0599050336,-0.0369871147,0.07313409,0.154983,0.0425401628,0.0510449447,-0.190997243,-0.0794309,0.02103151,0.102619626,-0.0454341732,-0.0136937313,-0.09451174,0.0270065051,-0.0242359154,0.0397413932,-0.02960761,0.06784542,0.06644371,-0.0709184557,-0.0176112838,0.114207834,-0.0322097838,-0.0253204647,-0.0271277931,0.05508539,0.0237076432,-0.020259751,-0.241220966,0.0167023912,-0.281968743,0.0996904448,-0.0177369751,-0.107184149,0.0737982,-0.0619838834,0.00237542321,-0.00961274747,0.153406516,-0.135564476,0.0106394682,0.04824876,-0.0673915744,0.00020446445,0.153697863,0.118394613,0.0432201475,0.08260673,-0.04211992,0.00692324061,-0.137461975,0.0133483661,0.0287298243,0.122183867,-0.05882288,-0.0240310486,-0.164625347,-0.008976819,0.007631179],"useBias":true,"func":2}},{"ClassName":"ActivationLayer","Content":{"biases":[0.09315226,-0.05371665,0.335186183,-0.261584342,-0.2019022,-0.32236436,0.38648808,-0.0416658372,0.232225388,0.240788326,-0.133082092,0.07839227,0.311267257,-0.171302676,0.02491252,0.08030602,-0.154960573,0.202334568,-0.1243862,-0.242279679,0.09755498,-0.0171215143,-0.220972419,0.0593101531,0.030686466,-0.0235714912,-0.0273797736,-0.181574553,0.0394678451,-0.0229450557,-0.378594369,0.18740885,-0.190912083,-0.04567204,-0.0518127754,-0.319625765,-0.174669668,0.251143754,0.09855318,0.05491829,-0.204575509,-0.06319528,0.09160177,-0.3776774,-0.25492838,-0.136682853,0.0447357334,0.11367134,-0.00724690454,-0.3404993,0.05970279,-0.06977922,0.09557196,0.264953345,-0.223477781,0.3160325,-0.175640747,-0.037032336,-0.0202538222,0.282925159,-0.09374929,0.319961429,0.008987431,0.07333838],"useBias":true,"func":2}},{"ClassName":"ActivationLayer","Content":{"biases":[-0.237142146,0.0799800456,-0.129659668,-0.0285866018,-0.360012978,-0.1068248,0.719285667,-0.263890743,-0.009445066,-0.325093,-0.2518317,-0.188526571,0.49958232,-0.556726635,1.3091656,-0.150015682],"useBias":true,"func":6}}],"Weights":[{"ClassName":"DenseWeightMatrix","Content":{"matrix":[[0.0300331023,-0.0347081274,-0.0470459238,0.006110309,0.0167794731,-0.005064188,-0.009667194,0.0141418409,0.0232974123,0.0107949,0.002074234,0.009752979,0.00391107425],[-0.00284138252,0.138164535,0.0208233763,-0.004959165,-0.0528593063,-0.024482023,-0.0132487277,-0.0007096447,0.0390414,0.008287295,0.0764332861,0.008231102,0.00364819076],[-0.0101484405,0.05335349,-0.0676707551,-0.03363277,-0.04171402,0.00045256794,-0.0140133528,0.0003356703,0.0294757616,0.04162613,0.037198592,0.0326831825,-0.03115046],[0.02971455,0.15329656,-0.0110387942,-0.0659335256,-0.0280305464,-0.03141269,-0.009307474,0.0155184316,0.0357192941,0.0488538034,0.0832126662,-0.0436671823,-0.05986292],[-0.0229342,-0.06321224,-0.00218833168,-0.00727547752,0.03698283,0.033690758,0.0139755337,0.008169301,0.0138100041,0.0122587923,-0.0441632532,-0.00587415043,0.008762779],[-0.1880445,-0.0374402553,-0.05577516,0.03252996,-0.0240743831,-0.0459063575,0.00421659835,-0.06158681,-0.07699242,-0.06538757,-0.05778717,-0.0169213563,0.003539327],[0.0166407581,0.0846969038,-0.0139682731,-0.03987298,-0.0504674725,-0.0267185476,0.0141607132,0.008713814,0.00400008261,0.017129099,0.03938547,-0.018597899,-0.0264775846],[0.007878391,0.114394896,0.01997638,0.000445990154,-0.0344145261,-0.025268361,-0.0145608382,0.00425638538,0.0211554039,0.02243859,0.0416007675,-0.008319003,0.00498119555],[-0.0110593447,-0.000856500934,0.0143786762,0.0800530761,-0.009723908,-0.007542587,-0.0129240835,-0.0109324288,-0.015311514,-0.00673390925,0.0200864244,0.0125501072,-0.01750094],[-0.0141317705,0.0377699323,-0.0658043,-0.0341330059,-0.0249099527,0.004127676,-0.0207541361,0.005948121,0.02941391,0.0357442126,0.0271739941,0.0197078232,-0.01867577],[-0.01605178,-0.08796264,-0.0128651978,-0.00139736489,0.022675693,0.0369051844,0.01576979,0.009897557,-0.00140218833,-0.00100151484,-0.0437461138,-0.00285272859,0.009333052],[0.0367746763,0.142679915,0.0173900221,0.010192601,-0.04130136,-0.0123897223,-0.0207623281,-0.0146548133,0.03233534,0.0114490855,0.0481871627,-0.0143194478,0.00131636171],[0.008157478,-0.008165287,0.0371083543,-0.0012742423,-0.01719442,-0.00209209858,0.01700672,0.0330403969,0.008694821,0.009645929,0.03650281,-0.0151997823,0.00405002339],[0.06578473,-0.06650141,0.105873682,-0.00574781047,0.024936378,-0.00172102894,0.00350228138,-0.0276093278,0.03843193,0.0329371728,0.008041718,0.123886347,0.0272628926],[0.0471611358,0.06615152,0.0253752191,0.02018788,-0.008066418,-0.0164606255,-0.0287332814,-0.0139937429,0.0206327364,0.0137710944,0.0387981534,0.0525327958,-0.0223254282],[0.0442416519,0.116978712,-0.111842893,-0.0190853626,-0.07596303,-0.0237329043,0.0321120247,0.0161491111,0.0133170979,0.032402277,0.06593015,-0.0397913158,-0.05443555],[-0.175951451,-0.010544125,0.0283955224,0.0820708349,0.005728922,0.00735798245,0.003043804,-0.0622032732,-0.0611726753,-0.04756746,-0.07144409,-0.021878669,0.0144078964],[-0.0304348953,0.08001413,-0.06279913,0.0487994365,-0.0163240731,0.0158695318,-0.022290621,0.00188125973,-0.06871418,-0.0564281233,-0.0316610858,-0.03622399,-0.0221987013],[0.00893639,0.06490771,0.00374340266,-0.0123062572,-0.0298103411,-0.0292168874,-0.0108923092,-0.01631367,0.003715446,-0.0006526595,0.0385141559,-0.00254004449,-0.009153479],[-0.006490885,-0.040116284,0.0207030959,0.005266468,0.0139896143,0.009436629,0.02826176,0.0137708075,0.0137682846,0.0226384532,0.03726213,0.0229959171,0.0208688732],[-0.0130929295,0.0938117355,-0.132198572,-0.06969594,-0.0418205671,-0.0140479691,-0.00161142438,0.00563295465,-0.02456938,-0.009145675,0.00618866226,-0.1501171,-0.008231998],[-0.00304147345,-0.0178651828,0.00459432043,-0.0005766314,0.0101186214,0.003769668,-0.0133965733,0.00138459308,0.00535806362,0.0086242985,0.00218238,0.0114088338,-0.0035381245],[0.0503339954,0.02636362,0.07451771,-0.0465512536,0.109814964,0.0183397364,0.0128775192,0.04646974,0.1597643,0.129617169,0.07694568,-0.0807500258,0.00664525526],[-0.0950490758,-0.10276325,-0.0379595459,0.040167,0.0133789331,-0.00453361357,-0.009777663,-0.06560114,-0.0551581755,-0.03558055,-0.0519310869,-0.04172938,0.0112225907],[-0.008897012,-0.06586251,0.00740892,0.0310889017,0.024284821,0.0279036015,0.01565768,0.0129139107,-0.0182913262,-0.0164015628,-0.04810934,0.00792417,0.0296214391],[-0.00648953253,0.06998503,0.05472266,-0.07428113,-0.0372871757,-0.008764773,0.00435662176,-0.0112196011,-0.04855263,-0.0364672579,-0.012888249,-0.0287450776,-0.00231192424],[-0.05330962,-0.0171325747,-0.0471833721,0.0109817265,0.0248227622,0.00762948347,-0.01836507,-0.00323404768,-0.01611964,-0.008582456,-0.0252644811,-0.0261395369,0.01025278],[-0.0318565443,0.0446348973,0.0300717056,-0.0366752669,-0.00612809975,0.000117826727,-0.000118699245,0.00115577527,-0.00114408426,-0.0007045563,0.0184782073,-0.0252077635,0.009176126],[0.10047,0.04232616,0.0273522,-0.0291616842,0.00114951516,0.019321721,-0.0217042062,0.07240074,0.0557514355,0.04316519,0.0109941876,0.04320952,-0.0477312133],[-0.09218408,0.08109843,-0.121550106,0.005550713,-0.0436456539,-0.024018256,-0.00755589036,0.0325938873,-0.0670927241,-0.0530033745,0.002539416,-0.136803284,-0.0482541248],[-0.04521106,-0.07834906,-0.01995242,-0.0301007386,0.002944434,0.01179439,0.02089936,0.0055058524,-0.0174167883,-0.0119361542,-0.0305048879,-0.0466409363,0.00685963035],[0.03394552,-0.05881517,0.0360923447,0.0473954752,0.0646268949,-0.019743843,-0.0391596854,-0.04203259,0.020449819,0.0196782742,-0.03158394,-0.0402730666,0.0286374446],[-0.09119536,0.03687566,0.0289023835,0.0748906061,-0.00494750449,0.013120844,-0.0255778264,-0.0459717326,-0.0253445264,-0.0351424254,-0.0174047723,0.0123651559,-0.0119833695],[0.0361601263,0.190211922,-0.0254022516,0.0134499362,-0.0298043787,-0.000712850539,0.00475081429,0.0249897577,0.0419774577,0.0149238743,0.06613583,-0.034711156,-0.05000632],[-0.0530616641,-0.216281384,0.02603975,0.09521059,0.0802626759,0.0502460226,0.0180148482,0.0118634412,-0.0607448928,-0.0657676458,-0.09479488,0.0566396,0.06344215],[-0.031364806,0.0357163623,-0.0226120539,-0.009186868,0.04998757,0.0120218722,-0.0568551421,-0.008451576,0.0864014849,0.0753627345,-0.0216133185,-0.0147503931,0.009604779],[-0.004172173,-0.04495445,-0.00120988768,0.006216067,0.0227042381,0.00404172344,0.00213929871,-0.00315542985,0.0101033365,0.002016586,-0.0210337657,-0.00444238028,0.000369574816],[-0.0383481272,0.06824897,0.0337818749,0.00302480441,-0.0206258558,0.011242182,-0.007445632,-0.04934686,-0.04100694,-0.0467887931,-0.0207608771,0.0438381135,-0.00419439469],[-0.06569459,-0.0250538252,-0.0139344614,-0.008180608,-0.000804293,0.00671982765,0.0150118824,0.0178204719,-0.01277628,0.0009992113,-0.008169469,-0.0172916278,0.0109674335],[0.183787629,0.0478125662,0.0881697237,0.03457594,0.0147189349,-0.009394161,-0.0386809781,0.02960161,0.09778809,0.08019389,0.0930918455,0.0852762759,0.00243716547],[0.015375047,0.1291088,0.0149765359,0.006761291,-0.03857383,-0.01626154,-0.0214725491,-0.004174943,0.0258637667,0.0134377591,0.05007454,-0.00889719,-0.007934504],[-0.0235108454,-0.054078415,0.00237089023,0.008577068,0.0264450014,0.0242200382,-0.0130708851,0.003566468,0.0301706,0.0282388572,0.000744000252,0.008241895,0.00350261549],[0.05882904,0.02773994,0.08117018,-0.00449858466,0.02226851,-0.02798596,-0.00744121941,0.0312820859,0.0648587,0.0309170354,0.04701411,-0.0172047615,-0.0156251825],[-0.0005284562,0.06643532,0.00714228442,-0.008443055,-0.0265252218,-0.01576465,-0.0068912697,-0.009787514,-0.00131492445,0.00187366316,0.0259885844,0.0106353853,-0.01813695],[0.021800654,-0.0445834734,0.04667035,0.0308481585,0.0202934854,-0.00518502435,0.010165019,-0.00120776915,-0.0282481723,-0.0234766267,-0.02737388,-0.0196797,0.02180218],[-0.0941954,-0.105025433,0.05653727,0.0534314178,0.04501581,0.0444072038,-0.02631843,-0.0105508137,-0.0341186374,-0.0571033619,-0.06992993,0.0306680631,0.03496383],[-0.0807812661,-0.008293557,0.0308542382,-0.0150069986,-0.03963852,0.00209200941,0.0395237133,0.0249655489,-0.01729135,-0.00685339049,0.0558473766,-0.0182800349,0.03781602],[-0.04784929,0.046943564,0.0211308934,-0.0127523784,-0.0381808951,-0.0304030832,0.0204758681,0.0193180665,-0.06839707,-0.0694123954,0.007990366,0.029596569,-0.0318975151],[-0.06823782,0.0610315539,0.0154317161,-0.009040344,-0.06203226,0.00260512438,-0.02879836,-0.0266231857,-0.10572689,-0.100771077,-0.0345384553,0.0194042828,-0.0326793045],[0.0196431261,-0.03891911,0.0524386764,-0.0160374735,-0.005045785,0.00382967363,0.0127145322,0.004631176,0.0190549288,0.0209120475,0.0221458655,0.05622708,-0.009967733],[-0.04359928,0.0522482134,0.0298817176,-0.007942428,-0.0161840674,-0.015639687,0.0176039655,-0.0154079925,-0.050908953,-0.03940972,0.0119450781,0.03117834,-0.0390867665],[-0.0775313,-0.0317156576,-0.0374248624,-0.01836349,-0.0157419965,0.01621084,0.004217811,0.0217703432,-0.030690534,-0.0224040318,0.00320029468,-0.0348653756,-0.005155586],[0.0118646678,0.0192607939,0.001794421,-0.0362446345,-0.009509827,0.00567136332,-0.00333248265,-0.020442035,-0.06885235,-0.0526141748,-0.04167819,0.0233366713,-0.009609944],[-0.0376435965,-0.183606237,0.036498066,0.07216477,0.06685602,0.0214908943,-0.006186864,-0.000390549743,-0.05322868,-0.06849973,-0.09853891,0.030357,0.0366119966],[-0.0244525187,0.07115756,-0.05935256,-0.0222598724,-0.0202878322,-0.0154942367,-0.014214904,-0.0148797566,0.0473866649,0.0272468254,0.0435510874,0.0153246829,0.006894937],[0.0217912868,-0.00382270524,-0.0546367466,0.04339848,0.0545254238,-0.004468796,-0.022529304,0.0178387854,0.0466025956,0.0301305037,-0.0137545876,0.06704805,-0.0463295877],[0.0361154079,-0.05016774,-0.06249784,-0.034574,0.00472793356,0.0154410852,0.007590085,0.0240812059,0.02933694,0.00856960751,0.0219395738,-0.0183134712,0.01850322],[-0.0137475887,-0.130862966,-0.020531049,0.002460941,0.0411148779,0.0349869132,0.0129392827,0.006243125,-0.0301627479,-0.006715212,-0.0543724038,0.0147441253,0.0147442427],[-0.03466887,0.07422783,-0.135712817,-0.03943067,-0.0293019284,-0.0171704367,0.001116627,0.004336274,-0.07365879,-0.0467770249,-0.0156555045,-0.111859173,-0.007548506],[0.1000989,0.04888851,0.0415564366,0.0102653466,-0.00152580347,-0.00581295043,-0.0153342048,-0.04210583,0.0146142533,0.000733847846,0.0102622863,0.03137173,0.0053558806],[0.0206647925,-0.08988955,0.122273855,0.02112118,0.0389536843,0.0158843882,-0.005725734,-0.0464811139,0.00345308613,-2.16778626E-05,-0.0356280841,0.10522531,0.04282446],[0.0325854458,0.163705334,0.0074708797,0.0040662,-0.06896445,-0.04673843,-0.0411688574,-0.01257111,0.02094504,0.0277429279,0.05305063,0.00466959644,-0.0403234251],[-0.01989322,0.0229585748,-0.0043580276,-0.0354735777,-0.09468729,-0.013645702,-0.0104618287,-0.002884502,-0.0549206138,-0.05715467,-0.0153904017,-0.00486422377,-0.0666745752],[0.008541309,0.06347776,-0.0162240751,-0.0345849954,-0.0358359143,-0.03586507,-0.005859964,-0.0152339144,-0.00197723461,-4.88282167E-05,0.0515706837,-0.00148638734,-0.0173471589],[0.00898898,-0.0101182172,-0.03690942,-0.02309485,-0.06513371,0.005613742,0.005494398,-0.030150529,-0.09638747,-0.07328466,-0.07989282,0.0504087,-0.0220704228],[0.06166996,0.150822863,-0.141121373,-0.0137418779,-0.109591745,0.003162433,0.0345053226,-0.0130533194,0.03743684,0.0505191647,0.08252008,-0.05144192,-0.0570353046],[-0.0346959345,-0.145747527,0.0266816691,0.0561654568,0.0364207551,0.04175338,-0.009589152,-0.011434258,-0.0422684774,-0.0493793041,-0.0766659,0.0297802966,0.0272929482],[0.106161304,-0.037620455,-0.02509344,-0.07919028,0.008679353,-0.0112937093,0.022029927,0.05209672,0.04775323,0.0418467261,0.008618481,-0.0123569751,0.0196431316],[0.027652489,0.193782136,0.0361434333,-0.112919569,0.0015673975,-0.0470403247,-0.0107353264,0.00576785672,0.07546704,0.0794047,0.0801068246,-0.0124406824,0.0191620346],[0.08750642,0.0131301014,0.132317811,-0.0121042831,0.0596385226,0.0132960584,-0.03773495,-0.06282592,-0.0170903634,-0.0248735584,-0.043574363,0.0370122753,0.0403275155],[0.06920928,0.170408145,-0.147190183,-0.009701144,-0.0989689,-0.03764478,0.012578682,0.039635282,0.0206672233,0.04061693,0.0893761963,-0.06719279,-0.0471041724],[-0.150696233,-0.05590274,-0.07519941,0.0124706123,-0.0009795777,0.0560643747,0.03772215,-0.0165763218,-0.0704362,-0.0396649651,-0.0470998175,-0.0293955281,-0.003451784],[0.08882666,-0.0507909134,-0.028994482,-0.0705075338,0.022445282,0.0220801216,0.0580726042,0.05530635,0.0375041738,0.0188848879,0.0344756879,0.00493349,0.0307918843],[-0.07170433,0.0698634461,-0.117918216,-0.009491594,-0.0350310467,-0.0294637531,0.00269698282,0.0341306627,-0.04346924,-0.0325594135,0.00591229135,-0.130933732,-0.0562509149],[-0.02994666,0.0387173966,0.024948338,0.009232854,-0.00327825081,0.0107373428,0.0186249278,-0.018050421,-0.0421881527,-0.0233218651,-0.00450080726,0.0282585584,0.00444192626],[0.0463991426,0.044621218,-0.0902629048,0.00266314461,-0.0110289929,-0.004397874,-0.0427421033,-0.0291059576,-0.04480769,-0.0164245088,-0.0614932328,0.0124662016,-0.0205142144],[-0.05601076,-0.0435243957,-0.0530929044,-0.0211338829,0.0108162975,0.04533243,0.005928001,0.019343229,-0.01933226,-0.008496554,-0.04338561,-0.0306177661,0.0264753532],[0.006638544,0.0520920381,-0.0100131445,-0.0256526582,-0.03225272,-0.0293611325,-0.0109647121,-0.0133726876,-0.00535280071,-0.00689462526,0.0432790443,0.0008907257,-0.009317068],[-0.0126621444,0.03663052,0.0540073365,-0.04830248,-0.0532187521,-0.00342798629,0.0419846475,0.0257060882,-0.0130299218,-0.0122408746,0.0640386343,-0.03371539,0.0225990973],[-0.08531965,-0.00470680138,-0.09247234,0.0222816877,-0.0587096848,-0.010457661,0.0362244435,0.06602794,-0.0120687168,0.00179038581,0.0475654043,-0.04122283,-0.033693],[-0.0613645948,-0.0241931062,-0.0309595633,-0.0047110063,0.006097324,0.009703948,0.0115218582,0.0110237906,-0.0214904342,-0.0154720815,-0.0144852819,-0.0260417331,0.0106659206],[-0.0199836623,0.10745763,-0.151554048,-0.07004576,-0.0395975336,-0.01810301,-0.00639663776,-0.0102378651,-0.0260770731,0.00564782927,0.00788024347,-0.16175957,-0.0377114378],[0.0643956,0.0202907436,0.006073749,0.008476164,0.00148800889,-0.0125649562,-0.0135441441,-0.0137567259,0.0136679988,-0.006769588,-0.004621933,0.0115489606,-0.00487906672],[0.0222628936,0.151269674,-0.0100788493,-0.0637788847,-0.0488002561,-0.0228959061,-0.0197158549,-0.00992951,0.0482435673,0.0478857122,0.0758381262,-0.03327635,-0.0359964073],[0.0585676767,0.0156491734,0.0133280735,0.01420109,0.0157158319,-0.00766739529,-0.0216685124,-0.0375197046,0.0187231321,0.0147698177,-0.0213323161,0.0132333459,-0.0020546976],[-0.0296109132,-0.16058971,0.017903287,0.06946116,0.05258618,0.0509778522,0.0102036707,0.005463414,-0.03682716,-0.0338527262,-0.0769939646,0.0316607654,0.0126332445],[-0.10293708,-0.0435061567,-0.0161836054,-0.00779249,-0.0199568141,0.00380318379,0.03120351,0.05922031,-0.0159466323,0.000247574266,0.0185540114,-0.0247237459,-0.009297177],[0.06937634,-0.0425828844,-0.06276008,-0.0145992953,0.0215900112,0.019199308,0.0345249847,0.0150527768,0.04024737,0.0370353647,0.03370249,-0.00102245749,0.0133615332],[0.09557789,0.0319972634,0.0420925729,0.09625768,0.0774272,0.0135193812,0.031007465,-0.0178543739,0.0295185652,0.0189214628,0.00462985924,-0.0232191347,0.00600605272],[0.249939978,0.06529634,-0.0101209413,0.00734293228,0.0247863717,-0.009178303,0.004525795,0.06481293,0.112092733,0.0837130547,0.110574618,-0.009100276,-0.0246465616],[-0.0203661267,-0.170181483,0.0756936,0.05107988,0.085249126,0.02057541,-0.03326744,0.00526531925,-0.0698055848,-0.08303664,-0.114155605,0.0163601022,0.0469443128],[-0.0513941757,-0.185807511,-0.0148921357,0.101898126,0.06645537,0.02698358,0.0310596861,0.016425442,-0.04845447,-0.0720272,-0.0952309147,0.0506711043,0.0471574962],[-0.002367497,0.00318603753,-0.0416715853,0.00146824156,-0.00491295,-0.00453650951,-0.0156371165,-0.03606908,-0.0536960177,-0.0360936,-0.05631766,0.0219144523,-0.0152358934],[0.0218881648,-0.105738722,0.0408805124,-0.08791057,0.0240951311,0.0109395729,0.0406416468,0.004119484,0.01594987,-3.55822681E-06,0.006145997,0.07592403,0.05095953],[0.134592235,0.0191784929,-0.00304163271,-0.109414868,-0.0457889847,-0.0266757365,-0.0293322671,0.01121638,0.0613234676,0.0547923148,0.05824464,0.04389145,-0.0377503633],[-0.0324962363,-0.06745718,-0.0126684923,-0.03292756,-0.008643937,0.009300713,0.009098326,0.0113083124,-0.0261192452,-0.02030212,-0.0183757916,-0.0345057249,0.00515317451],[0.008781305,-0.02437042,-0.06554255,0.04847946,0.0374270529,-0.007584241,-0.031707745,-0.00618973747,0.0420447625,0.0158347655,-0.0284040961,0.0620783269,-0.00741305761],[0.06567017,0.0194680076,0.04078727,0.00347645138,-0.021034833,-0.02329029,-0.00286221039,-0.01412127,0.0229915753,0.0261846818,0.0259621926,0.0343334042,-0.008285056],[-0.000425178267,-0.05110034,-0.008148724,0.02880282,0.00638364628,0.0177935138,0.00562642934,-0.00218340848,-0.00324699655,-0.008404851,-0.0266458765,0.0150600858,0.003060357],[0.126226351,0.020950973,-0.0018286726,-0.077695176,-0.0278079081,-0.0364890248,-0.0205158014,-0.004831697,0.04511693,0.0414680168,0.0495708771,0.005999007,-0.0274023488],[0.07368166,0.003753766,-0.0129198739,0.0145742176,-0.0113154547,-0.01805154,-0.002370531,0.00156979985,0.00523516443,-0.007928236,-0.0167852044,0.009130074,-0.0109054521],[-0.03851971,-0.2011758,0.0515239947,0.06286125,0.06481713,0.0119940946,-0.01761658,0.0008973892,-0.06432897,-0.05915996,-0.12029884,0.0458840579,0.02697359],[-0.0043994803,-0.0174722783,-0.0557506643,-0.0102737537,-0.0424861237,0.0120335706,-0.0057304753,-0.04317137,-0.0877337456,-0.08005198,-0.07700931,0.05217791,-0.0190132931],[0.07233987,0.0164404158,-0.01031809,0.004402031,-0.00361144519,-0.00211780425,-0.00919914152,-0.0115094967,0.00191948062,0.00135798263,-0.0162717,0.005926431,-0.01970081],[0.0430416539,0.1645913,-0.0102713229,-0.0777158663,-0.07107545,-0.03582038,-0.0169058349,0.00201976625,0.05189709,0.0582085848,0.09055246,-0.03410582,-0.0384057723],[-0.09067102,-0.0399911366,-0.087213,0.00374342315,-0.0215407126,0.0113287838,0.0267380532,0.0619844571,-0.04100276,-0.0384845771,0.0149902981,-0.0112258326,-0.0242586564],[-0.0124082388,0.00032012802,0.0472334363,0.0108040413,0.03359147,0.00694794767,-0.003984414,0.07607316,0.080636,0.0598226562,0.0527378544,-0.0567024052,0.008146697],[0.0863369256,-0.0360275246,0.0259307958,-0.0324042849,0.0268056039,0.003747588,0.030161038,0.0600751825,0.06757509,0.0523872748,0.04174635,-0.069782,0.0104025928],[0.0510846376,-0.00448319,-0.0437623858,0.008771835,0.02907928,0.0116302241,-0.04214374,-0.0333424471,-0.00292256731,0.006394604,-0.059881568,0.03973208,-0.009967804],[-0.05382787,0.0642634258,0.04526125,-0.0363060124,-0.0695902258,0.007912236,0.01812614,-0.0120196566,-0.10222061,-0.07609773,-0.0360990427,0.01602176,-0.0197796226],[0.0110251261,0.122838296,-0.04914784,-0.03743019,-0.0707754,-0.00734716374,0.0126888761,-0.000434630027,0.0282527413,0.0538558327,0.0604210533,-0.0182058774,-0.0325193368],[0.0199149568,-0.0177810267,-0.0587074161,0.0617887154,0.0498923063,0.0299493074,-0.02156232,-0.00787689,0.04496393,0.03274017,-0.00608388,0.05810168,-0.002519831],[-0.03987444,-0.177984521,-0.009675076,0.004563841,0.0824231952,0.07567427,0.0314793326,0.003282603,-0.000571475655,0.000951286755,-0.0517504141,-0.01789368,0.05885244],[-0.0435708277,-0.193662658,0.0339404866,0.07262422,0.08116873,0.0396549441,0.00426112628,0.00453218166,-0.0549500249,-0.07775966,-0.105333425,0.0410499871,0.03760809],[-0.008752943,-0.165796667,0.000772975443,0.02245735,0.0461655557,0.03664892,0.004312151,-0.018177364,-0.033678975,-0.00905165,-0.0369395725,0.004316617,0.003728119],[-0.225774527,0.030628603,0.106981635,0.072004,-0.04842856,0.0170614887,-0.0286975615,-0.0521124676,-0.110597104,-0.09952334,-0.119576693,0.0451246239,-0.0200518761],[0.004851695,-0.006098127,-0.0557795428,0.04235418,0.08419432,-0.0277252123,-0.04890865,-0.009364925,0.0617906861,0.02997659,-0.0455983132,0.0795492157,-0.0336700529],[-0.0681263,-0.0165484082,0.00323296175,-0.00750251953,0.00107043318,0.0103981122,0.0128426366,0.0006719621,-0.008757149,0.00104529678,0.0049363384,-0.008457718,0.0111983372],[-0.07569968,0.07388801,-0.108940937,-0.0013488495,-0.04804034,-0.03077286,-0.0007633682,0.0308783557,-0.0399418473,-0.0381207578,0.00247212779,-0.126648515,-0.0432596765],[-0.0570689179,-0.08309247,0.100077242,0.0006346907,0.07614711,0.00477609737,-0.009133253,0.00319601479,-0.0183251332,-0.0246351585,-0.04651446,0.04531884,0.0258512925],[-0.101634473,-0.0140409563,0.0246085133,-0.0154008809,-0.0432914644,0.0173270348,0.0460647941,0.0148707228,-0.0213294383,-0.00273022125,0.0569841675,-0.0217469577,0.046823103],[0.07654672,0.249820217,0.00217826385,-0.003184605,-0.0927467942,0.0122623835,0.0522530526,0.0139841782,0.0431549363,0.0324180648,0.09991117,-0.0542546846,-0.02135319],[-0.04205518,-0.194224671,0.0425962433,0.06872009,0.0738461,0.02671227,-0.003827129,0.0020920774,-0.05255022,-0.07630846,-0.11887674,0.03839511,0.0344157852],[-0.06110435,-0.129573286,0.003882608,-0.0108407512,0.0395836532,0.04432319,-0.0457633659,-0.0334365629,-0.0361183062,-0.0380668975,-0.08410989,0.0128936805,0.0156321321],[0.1285029,-0.0687423646,-0.106561445,-0.0275261272,0.00403843541,0.0244978853,0.0212989263,0.0114955055,0.101445839,0.08467541,0.0585019551,-0.00704479776,0.003753776],[-0.0623363778,-0.02162559,-0.0364777669,0.0184159335,0.03083312,0.0187354963,0.01251955,0.00681710942,-0.0455743372,-0.0331456847,-0.0313104242,-0.0184767675,0.03200479],[-0.0485195257,0.0794227347,0.06926264,-0.02842124,-0.06390918,0.01621742,0.0168385524,-0.0317815654,-0.0797502846,-0.05110063,-0.00568027934,0.0188237447,0.0158077981],[-0.0220743716,0.0872194,0.0342844948,-0.00255202642,-0.0326207243,0.0166853555,0.0100191226,-0.0235026721,-0.0459892675,-0.025314657,0.0138838906,0.0592856929,0.0006541495]]}},{"ClassName":"DenseWeightMatrix","Content":{"matrix":[[-0.00151319,0.0112127438,0.01952547,0.0212634914,-0.0104654115,-0.0148950377,0.0150131341,0.0119766379,0.0074118874,0.0129548023,-0.00967052,0.0218101535,0.002691895,0.0106613291,0.0173912123,0.0181894917,-0.0214863829,-0.00565116666,0.0117929978,-0.004010351,0.0121048028,0.00113633147,0.0162938274,-0.0190343577,-0.0128380768,0.006169119,-0.0109808967,0.0149326883,0.007035621,0.0007317539,-0.0153205451,-0.0128446538,-0.00175322534,0.03155647,-0.0341508277,-0.00204366166,-0.005047243,0.00304474379,-0.00425790763,0.0133943511,0.0137747759,-0.008853764,0.004672829,0.00769177126,-0.00432310952,-0.0286902376,0.0204005633,0.00959537551,-0.00752884056,0.004440144,-0.00165747991,-0.004229226,-0.002851997,-0.0244562011,0.0137905935,-0.009502334,0.00491448166,-0.00830706,-0.0008486456,0.00190178573,-0.00354094361,0.0148198716,0.002031884,0.00371981435,-0.00913585,0.03439135,-0.02276111,-0.00403724657,0.035756588,-0.004088655,0.0324028321,-0.01978504,-0.000140502729,0.006602067,0.006344781,-0.0250488613,-0.00387482252,0.01211604,0.00665328139,0.006636453,-0.00711016031,0.010800668,0.00320334942,0.02406119,-0.00469478173,-0.0257464871,0.0121428417,0.0009175717,-0.0124733867,0.0199769121,-0.04299393,-0.0305678621,-0.0101007428,-0.00267525134,0.0294724666,-0.00534350937,-0.0141027439,0.00509320851,-0.0006201922,0.0222143885,-0.0117931524,-0.024120992,-0.01088874,-0.0145597328,0.0185406785,-0.000538824243,0.00720881764,0.00743595371,-0.0141474735,-0.00304811215,0.02466834,-0.0131774154,-0.02073282,-0.0300199054,-0.0297414325,-0.030157743,-0.01997789,0.0101048453,-0.000382238883,-0.0166244451,0.015757855,0.0421519056,-0.03036426,-0.035526935,0.00551541,-0.010636474,0.00370356534,0.00298661436],[0.004318731,-0.00150334521,-0.00575194042,-0.00127711461,0.003852777,-0.00647248654,-0.0122592989,-0.003880486,-0.00295056961,-0.00199036114,0.005259049,-0.00298380572,0.00377402,0.00769315846,-0.00653766934,-0.02394558,-0.00293558114,-0.01917848,-0.00550834741,0.000229235127,-0.02434413,-0.00381318829,0.020534927,0.00501260068,-0.000123772217,-0.01009257,-0.00289514521,-0.00444251252,-0.000482048985,-0.0185137745,0.0133489668,-0.00103023788,-0.0001260283,-0.008115922,0.0139595047,0.0140265692,-0.0027682737,-0.0166787617,0.005204958,0.012210018,-0.0100533422,0.007195439,0.0025589203,-0.009133927,0.00119294564,0.0109175462,-0.000861603,-0.0123598482,-0.0240241978,0.009295515,-0.0163686983,0.00323735271,-0.008680241,0.009589258,0.005631716,0.0076021296,0.0106842555,0.005695341,-0.01470611,0.0100110862,0.0228963327,-0.00722039538,-0.0151053006,-0.008734428,-0.009542056,-0.0246613361,0.0104243588,0.007508132,-0.00691071572,0.0171110034,-0.0305225048,-0.00509145251,0.014881012,-0.0211848635,-0.00287294225,-0.00151926768,0.0002422339,-0.00711762439,-0.00664926739,-0.0132166147,0.00131996407,-0.021571504,-0.004459596,-0.00532273343,-0.004045775,0.01280956,-0.00699373567,0.00451065367,0.009434054,0.0132274162,0.00737498747,0.003990716,-0.00608141348,0.0280814357,0.00175332022,0.00119832158,0.01146409,-0.00476708356,0.00642243261,-0.0124283778,0.00235920353,0.010605054,-0.00228800741,-0.00382583449,-0.0155423423,-0.009649871,0.00390170352,0.0130603379,0.00305074779,-0.00543762837,-0.008709024,0.0157270022,0.0214760378,0.0137688844,0.0132666156,-0.017956201,0.0124738654,-0.00396881253,-0.01319289,0.008784515,0.000613984768,-0.0171291679,0.0176699124,0.0115172006,0.0209670458,0.00414012466,-0.0177539084,-0.0161024742],[2.14151059E-05,-0.000161432,0.0209097434,0.00169230148,0.009633173,-0.0264863167,-0.009212617,-0.0113508021,-0.0181684271,0.0103091188,0.009699431,0.00397131965,-0.009410164,0.0217025876,-0.00655827625,-0.00312179048,-0.01905496,-0.0285625756,-0.0141167045,0.00538318558,-0.0277885422,0.0005718128,0.05756165,-0.01550772,-0.00134042779,-0.0191244986,0.00241035945,0.00792508,0.0183394961,-0.03949792,0.00592097268,0.00112197839,-0.0202965178,0.00696322741,-0.011515501,0.0359116234,0.004440531,-0.0243358277,0.00315470481,0.0316530131,-0.00119587593,0.0141078774,0.0108475378,-0.0132106384,-0.0128342705,-0.0012663817,-0.0132477358,-0.0370167941,-0.03851172,0.0031561947,-0.0348815322,-0.00314363162,-0.01055969,-0.00103537948,0.01794136,0.0185887478,0.0251838826,0.005561238,-0.0376249477,0.0153573221,0.0140154595,-0.0157092717,-0.0194424,-0.0110896863,-0.028645318,-0.0165738128,-0.008619211,0.0323077925,0.0343932062,0.01522557,-0.019985145,-0.020570606,0.02802038,-0.0328817368,-0.0203955825,-0.0242531374,0.00245025032,-0.00816965,0.00117266842,-0.014262666,-0.004641556,-0.03755303,0.00308771362,0.00295194332,-0.000520852336,-0.00013624203,-0.008051102,0.0228687469,0.015274059,0.0485383421,-0.0137454318,-0.012543167,-0.0121998088,0.0251607839,0.0170983057,-0.00127932511,0.0132741686,-0.005142491,-0.00750525948,0.0071859383,0.000135647744,0.001068094,-0.0184819344,-0.00927813,0.0121399891,-0.0169345066,0.0222858116,0.0242256988,-0.007771485,-0.0259401668,0.006867268,0.0214466825,0.0339686871,-0.005136652,-0.005353547,-0.0537396967,0.0266721118,0.0031916562,-0.0283233989,0.00681342976,-0.0150606232,0.006082713,0.005484211,0.00399990659,0.0390982851,-0.00308459369,-0.032598298,-0.02784897],[-0.001356543,0.0113994246,0.0152313067,0.0198230036,-0.009049469,-0.0175011028,0.0155226961,0.008764223,0.00356870913,0.0172203686,-0.008432493,0.0147672314,0.00157297251,0.008539645,0.010456766,0.0234351028,-0.01820121,-0.00163845683,0.008156446,-0.00330954837,0.0214074049,-0.002014764,0.00463521434,-0.0195631348,-0.0122674359,0.0112387612,-0.006849254,0.0145263318,0.00366172055,0.00189284189,-0.0191220641,-0.015051824,0.00157820375,0.0304206759,-0.03507318,0.002591756,0.00218695845,0.009082923,0.0008778326,0.00716500124,0.017057674,-0.0082161,0.002995619,0.0130218649,-0.0155113991,-0.0246410463,0.0145028308,0.0131491972,0.00016439044,0.00821501948,0.01002627,-0.00695195654,-0.00129490229,-0.02029337,0.010379523,-0.00245357421,0.003298735,-0.0148026962,0.0004197366,-0.007592018,-0.010512528,0.0141339554,0.00542163337,0.0135856625,-0.0078614885,0.0310150422,-0.0220058169,-0.00253703422,0.0347558521,-0.002567646,0.0287388582,-0.01161006,-0.00299531571,0.00313870749,-0.0007698516,-0.01222738,-0.0125516774,0.0135542974,0.008187911,0.007105916,-0.00663457625,0.02270107,0.00205229386,0.02628427,0.00289862533,-0.0272692759,0.0119438889,0.00103630079,-0.008817445,0.01477187,-0.03128119,-0.0218208618,-0.00924945,-0.00643954566,0.0293478612,-0.009438532,-0.0059682494,0.0063107973,-0.0115740607,0.0228213668,-0.01197562,-0.03209294,-0.0131930513,-0.00624548,0.02948536,-0.00606802758,0.00361639936,0.00168714626,-0.0142544359,0.006906953,0.0260103252,-0.002229511,-0.0285150763,-0.0275195464,-0.0241034422,-0.0286292471,-0.003271137,0.008112663,0.01111687,-0.013598606,0.0169862565,0.0358974077,-0.0295091271,-0.0201392714,-6.38641141E-05,-0.006122696,0.00615341961,0.0131925428],[0.000935993,-0.000684725062,0.00168472156,0.0123855779,-0.00104688865,-0.0138393044,0.00248437631,-0.00163371407,-0.008019485,0.0133123109,0.004996239,-0.004862048,-0.00204910245,0.0243458245,0.008631484,-0.00254373788,-0.026731234,-0.01483441,0.00194080838,0.00198681583,-0.015134,0.00725011341,0.0300427526,-0.0186224878,0.00126190344,-0.0122189289,-0.0136261731,0.00602972042,0.0178433359,-0.0217070188,-0.009589181,-0.008292946,-0.015018166,0.0147765968,-0.003733087,0.0178423841,-0.00226033921,-0.0198786072,-0.00755934464,0.0232298,-0.009293148,-0.00463816,0.0113426857,-0.009200347,-0.007564516,-0.009070172,-0.00118047232,-0.0205941759,-0.022905698,0.00527461339,-0.0232975241,-0.007817387,-0.00401619263,-0.0031123,0.0130367493,0.0051375106,0.01367389,0.000513025036,-0.0244477727,0.0150838168,0.0168071259,-0.009237673,-0.00629029935,-0.0007314685,-0.0143992724,-0.007700759,-0.0123611623,0.0185862817,0.0164400637,0.0139205065,-0.004266107,-0.0198933333,0.0221310779,-0.0168057363,-0.0112010371,-0.01932127,-0.00614362443,-0.00336542167,-0.0008424911,-0.004402805,-0.00592701,-0.0265947413,0.004941872,0.0118359,-0.000968815759,-0.006291594,-0.0109176831,0.009989277,0.0104445927,0.0351894721,-0.003655588,-0.0155372089,-0.0158978067,0.014968954,0.018153755,0.006205938,0.008333472,0.00586391147,-0.000318334962,0.0044835466,-0.003577141,0.00292089768,-0.0218829364,-0.007098747,0.005079222,-0.00517851766,0.0174766444,0.0156704728,-0.00307301432,-0.01940347,0.00528739253,0.008667884,0.011314908,0.00135199656,-0.00579520036,-0.0341188423,0.0071674916,-0.009191541,-0.0185600873,0.00618815655,0.004368801,0.011155,0.00194689189,-0.01300863,0.0286857914,-0.000225217387,-0.0179446675,-0.01189805],[0.00447565829,0.0028201344,-0.00315619935,0.007017516,-0.008308913,-0.0175856669,-0.00132424862,-0.005170297,0.003647438,0.00618595071,0.00452987943,-0.005174521,0.009934914,0.007137098,-0.00297602639,0.00374690956,-0.0159632228,-0.0114677986,-0.00194765115,0.000450365158,-0.01689683,0.00462619029,0.03028766,-0.0114447614,-0.00118711428,-0.00545781571,-0.006078861,0.0013950913,0.00626418972,-0.0170713086,-0.00952613447,0.00105717371,-0.0137478644,0.0104133915,-0.00512539642,0.0108779455,0.004292923,-0.0165025648,-0.00930621,0.0270283222,0.00502116932,0.007372587,0.00776246,0.00276341,-0.004065148,-0.00401346339,0.0101973033,-0.0111862188,-0.0191922262,0.006005763,-0.0160107687,-0.0111541245,-0.00434823241,-0.009580342,-0.000611236261,0.0028290886,0.008580195,0.000618469,-0.0227530058,0.0027992723,0.007372752,-0.0096034715,-0.0122275455,0.0026156602,-0.01681778,0.00427669,-0.0022058324,0.008664771,0.0105647873,0.004022633,-0.00307512865,-0.01550682,0.01470333,-0.0112493616,-0.009281441,-0.0160164256,-0.0107587595,0.00681862049,0.00254067942,0.000773495238,-0.008982126,-0.0196120739,-0.0006638318,0.0106901973,0.0007233147,-0.0056339656,0.002879846,0.0131660858,0.00382343284,0.0238333847,-0.00719269458,-0.0009717214,-0.0153921619,0.0155845536,0.0177075211,0.001098827,-0.00232127379,0.0107309083,-0.003451823,0.008523501,-0.00569761172,-0.00505877146,-0.00963835,-0.00877240952,0.0109369373,-0.013298234,0.0152684487,0.0112700332,-0.009841348,-0.0114137381,0.008693483,0.00106694316,0.00487728324,-0.0008990305,-0.00516530126,-0.0288915411,-0.00934677,-0.00516710524,-0.01666157,0.005032156,0.015638385,0.0191644859,-1.15959911E-05,-0.01657771,0.0281537753,-0.0118670035,-0.0110589629,-0.003923743],[0.002560434,0.008628685,0.00501431851,0.000310953328,-0.0159625728,0.005267226,-0.0018509588,0.017546786,0.0012240198,0.00540234335,-0.0161180925,0.0106512252,-0.0137462616,0.0014903585,0.0150676034,0.00386964018,-0.0027697836,0.007320942,0.00412701024,-0.011660588,0.0144139808,-0.00712317647,-0.00204889756,0.000117385964,-0.00461270055,0.00707338331,0.00424541067,0.00413922034,0.00673041027,-0.00128053967,-0.00386717776,0.008090314,-0.00265786122,0.012782298,-0.0133396843,0.0141906356,-0.006967249,0.0113256639,-0.00239162776,0.00106906763,0.00534231449,-0.0113354037,-0.0135386717,0.0100121563,-0.004057577,0.00191721646,-0.0126988189,0.003466035,0.00183854718,-0.009480084,0.00240704976,-0.005843566,-0.00156029058,-0.00385701377,0.0132186878,0.007404335,0.00207429542,-0.0161293969,0.0103221256,0.0120341023,-0.00288289157,0.0135962088,0.00587530341,0.0162412263,0.00112390763,0.008208117,-0.008240718,0.0008648972,0.00871355552,-0.008338013,0.00398771046,-0.00092042383,-0.00379154831,-0.00219143229,-0.00456777355,0.0174482558,-0.002041702,0.00385030522,-0.009356259,0.00465084752,-0.009034234,0.0264935866,-0.00057464,0.0149439219,0.00267520873,-0.0167447459,-0.009748872,-0.00431498047,-0.005809872,-0.00666297926,-0.00763234636,-0.006483011,0.0127159944,-0.016172912,0.00245682,-0.00558491657,0.00212210463,-0.00304158172,-0.00331943319,0.008692929,0.009347441,-0.00306300027,-0.00432983972,0.0116545577,0.0149854505,0.00354651245,-0.0152418865,-0.0130167408,0.0143526606,-0.0113784689,-0.000390454166,0.00712112151,-0.0125076845,-0.008657407,-0.0273193847,0.00128708023,0.012712813,-0.0032899112,0.00203756359,-0.00233260938,-0.0215925667,0.00158018246,-0.0138833588,0.00365676661,-0.00323131075,-0.0131295733,-0.00613136869,0.00618510926],[0.00357705075,-0.00385552482,-0.00225070515,-0.0107850488,0.006136964,0.00718793646,-0.008321461,0.0051139784,-0.0136103891,0.004904564,-0.00621671,-0.00435521128,-0.008794188,0.000462069147,-0.00535999937,-0.01843648,-0.002950683,0.005397323,0.00327046379,-0.003945435,0.00393359223,0.00360570941,0.00171872845,0.004808365,0.004198212,-0.01143352,0.009260462,-0.00772660924,0.005192481,-0.008925046,-0.004018954,0.009336426,-0.008545965,-0.00279152114,0.0002589205,0.0106038647,-0.000428201864,-0.006559418,-0.00726962462,0.0007117018,0.00645259442,-0.000181863536,-0.00232346449,0.00232332665,-0.00335414312,0.0136772515,-0.0157105252,-0.015198986,-0.0174239539,-0.005604549,-0.00375248562,-0.00762590347,0.00172887556,0.005601234,0.009218423,0.00420468859,0.008925276,-0.007836622,-0.00123933854,0.00618593628,0.0127576189,-0.00577809,-0.007770696,0.000717942661,0.00114358624,-0.015203909,0.007346008,0.0005875976,-0.00162961415,-0.00135500077,-0.0150574995,-0.004266654,0.002174225,-0.0103197452,-0.0136860823,0.0207400322,0.00711737154,0.0049569523,-0.0117106326,-0.00158878823,-0.0126452865,-0.00139461807,0.0125631,0.00485008629,0.0106318966,0.00271324418,-0.00726108858,-0.00171179546,0.0008828989,-0.0009615026,0.009723943,0.00147044589,0.0151969418,0.00237542717,0.00149622315,0.00106168131,0.00564774,-0.003504152,0.005723107,-0.00500202831,0.009531559,0.0176481828,0.0110031059,0.0142388083,-0.008199092,0.00306106126,-0.00552563649,0.00472720666,0.01252554,-0.020411035,-0.009202017,0.01405607,-0.00344212074,0.013640672,0.00408036867,0.0008150844,0.0278097223,-0.009956614,-0.010954001,0.0008168553,-0.0213424787,-0.0156253148,0.0152196372,0.0173987877,0.0160562415,-0.000838410633,-0.0240651276,-0.008864868],[-0.0110924933,0.00206291862,-0.001229125,0.00205218722,0.00510528637,0.009862034,-0.00237506535,-0.008253792,0.0123885162,-0.0008648655,-0.00138194952,-0.0013803764,0.0134620657,-0.0218225438,-0.00520727644,0.0284120776,0.0120151639,0.01662677,-0.00351993088,0.009689694,0.00585420942,0.000860204629,-0.03155352,0.003794732,-0.00193333742,0.0106136259,-0.00440631341,0.0001506084,-0.0146459257,0.0200095568,-0.002563521,-0.015644066,0.01306434,0.00728176348,0.00419017533,-0.0309376456,-0.008025806,0.0108787771,0.00167022122,-0.0160757564,-0.00423933938,0.00164951594,0.00180757325,-0.00196981546,0.0105343824,-0.0118482336,0.0159524232,0.0203016754,0.03188397,-0.0005528719,0.008376048,0.00781475,0.0121508613,-0.00298118079,-0.0191037934,-0.0195412338,-0.009790824,-0.000220076385,0.0144488337,-0.0195095185,-0.01883486,0.00730218738,0.0066294,0.005376213,0.008042586,0.0313944332,-0.00474201655,-0.0169467442,-0.01701034,-0.0168468636,0.04121393,0.008356526,-0.0153586613,0.0126635656,0.01156769,-0.00261410652,0.006948387,0.00326883071,0.0145053882,0.00642302167,0.00156979891,0.009180762,-0.00778244948,-0.000287406,-0.0116783418,0.008047017,0.0232875459,-0.00638539158,-0.0102620423,-0.0141408322,-0.01409986,-0.00425706152,-0.002837695,-0.0173212737,-0.00579693774,0.00475028157,-0.006125802,-0.00480006,0.00206889748,-0.00356241525,-0.013634664,-0.014584776,0.00425520632,-0.00345163327,0.008887796,0.00942385849,-0.0153884813,-0.0138024576,-0.0166785568,0.0218943283,0.00357730221,-0.00713146757,-0.00286613358,-0.009487526,0.00253215549,0.0123405317,-0.0232166518,0.0104453154,0.0206300225,-0.00878376048,0.0223387424,0.0181603432,-0.014337616,-0.0153407967,-0.03282438,0.00269538583,0.0146444812,0.0244102478],[-0.0002032988,-0.00213200017,-0.00485414825,-0.008004004,0.00648845127,0.0024107832,-0.006460571,-0.00428350829,0.00054866547,0.008097272,0.000367902743,-0.00570942555,-0.0009934589,0.0101042939,0.001904978,0.00134010019,-0.004837775,-0.007393724,-0.000738951843,-0.007847228,0.00515446253,-0.00550978864,0.00577488961,0.00304053747,0.00431933,-0.000395198032,-0.006144517,0.00224860618,0.00670902338,-0.00529929949,-0.00589024229,-0.001829154,-0.004432275,-2.66599527E-05,0.007069398,0.0100382147,-0.00618102867,0.000220717862,-0.00542361569,0.007679464,-0.0001693583,0.004627129,0.007241484,0.004570624,-0.00693960767,0.00443346938,-0.003697493,-0.008566121,0.0001612814,0.00130200654,0.00404954143,-0.008650691,0.00185261352,-0.004894853,0.000844380062,0.006520374,0.00470310543,-0.00240044924,-0.000182880991,0.00081371807,-0.000161823,-0.00616114167,0.00234837341,0.00152530055,-0.0020888336,0.00176451658,0.00482739,0.00225563371,-0.005231705,0.008710042,-0.00137454947,-0.0007296111,-0.00322238472,-0.00656739,-0.0004675315,-0.0046159,0.00219053845,0.00213127164,-1.34669908E-05,-0.002880175,-0.00592154264,-0.0022096585,0.008660558,0.00529498141,0.008049906,-0.00572085334,-0.002505689,-5.192892E-05,-0.004529061,0.007706191,-0.00566547969,0.00659489632,-0.00414299825,-0.00242052763,0.0067423773,0.0009313604,0.00141419924,0.00583116,-0.005551286,0.003130719,0.000937432,0.003705253,-0.008052199,-0.00239611976,-0.00501343375,0.001213479,0.000415254355,0.00158386945,0.005857394,-0.00180381071,0.00313682132,-0.003754409,0.00419434439,-0.000967378437,-0.006260976,-0.00250949967,0.008766867,-0.00880787149,-0.00726702344,0.0008634916,-0.000384154031,0.004131585,-0.0005593987,-0.00387709355,0.00334466924,-0.00248499215,-0.008922743,0.00284872018],[-0.0102826385,-0.00469297636,-0.011058405,-0.00425171,-0.00100845774,0.01240252,0.00259223417,0.004427603,0.00749880029,-0.011191994,-0.00725467457,-0.008545401,-0.00321585056,-0.026048135,0.00129834376,0.0132551165,0.016401954,0.02060096,-0.00339254434,0.003806836,0.0180509258,0.00125601329,-0.0334617533,0.0107560484,-0.0025414913,0.0190945361,-0.000502631,-0.007105295,-0.0199844074,0.0245748572,0.005621071,-0.006812451,0.0189185161,-0.00411470467,0.005166514,-0.0197610483,-0.00340987765,0.0210870225,-0.000329266215,-0.0255197324,-0.000240557885,0.003345893,-0.0145217665,0.00286508887,0.00700978935,0.004990622,0.000412012247,0.013349046,0.0271633361,-0.0009186021,0.0169749856,0.00339422235,0.00473985029,-0.0006074832,-0.00696350541,-0.014266029,-0.009251663,0.003024184,0.0218004249,-0.0150337145,-0.0129172206,0.007866123,0.0114564449,-0.00585693028,0.007872162,0.0140195591,0.006526072,-0.01977207,-0.021896705,-0.0119897593,0.0125685548,0.0193370637,-0.0170027,0.0175191388,0.00502203824,0.006275032,0.00846848,-0.00695464,0.0105129862,0.0143364,0.0108547844,0.016168274,0.000258419052,-0.00733853271,-0.000275124679,-0.005117822,0.0132804867,-0.0103488881,-0.00530413538,-0.0300454069,0.008096091,0.004222166,0.000865484064,-0.0216524918,-0.0112324292,0.00144648424,-0.003801025,-0.00179036707,-0.00177881715,-0.00791235548,0.00142990437,-0.005902464,0.003950894,-0.007630195,-0.01026883,0.005870082,-0.0129042044,-0.006331875,-0.00116513669,0.0140719963,0.00622929167,-0.0141627733,-0.016314365,0.00122971344,0.000205031523,0.0286645144,-0.00757764047,-0.00118427386,0.0150536932,-0.0120410891,0.014717917,-0.000375867035,-0.00213809,0.000296844024,-0.0291740354,0.00456941035,0.022157656,0.0144884614],[-0.004454808,-0.0101583712,-0.005642547,-0.0134456037,0.008191646,0.008647575,-0.0118960124,0.000848575553,0.00261695776,-0.00833807047,0.0132663893,-0.0135874823,0.00284345588,-0.01336804,-0.017314285,0.000908470771,0.0252252426,0.00432736147,-0.008198086,-0.00328496052,0.003407967,-0.005603617,-0.0186629649,0.0116266869,0.00165105308,-0.000158702518,0.0108976932,0.00757305836,-0.00493486226,0.0112672,0.0119317826,-0.00415855832,-0.000291627221,-0.0173834134,0.0149710877,0.004887924,-0.00109330006,0.000180934381,0.0118221845,-0.0144607117,-0.001220108,0.012375907,-0.002883441,-0.008800636,0.009189232,0.0139332553,-0.00626952248,-0.0004895453,0.004171471,-0.00344461948,0.008069084,0.00417073164,0.009622561,0.009737945,-0.0175342336,-0.00157942181,-0.008755973,0.00556069,0.00632498367,-0.0150093911,-0.0118451724,-0.00669417158,0.00802006,-0.00715405867,0.00604483159,-0.0029753577,0.0164412558,-0.009318741,-0.0234917048,-0.00144534674,0.00177593541,0.0221784431,-0.008182714,0.004742269,-0.0010655619,0.0168937873,0.0158422254,-0.0115369288,-0.00711607467,0.00533727556,0.007564057,-0.004430052,-0.0107896095,-0.0127311051,-0.011079262,0.0114211868,0.0104399286,-4.17820374E-05,-0.00723586231,-0.0254488941,0.0169957541,0.0211084262,0.000948268,-0.0108813168,-0.0188643355,0.0137544991,0.00612035627,-0.0136846732,0.006070322,-0.009663687,0.000908222,0.0140847787,0.0130559159,0.004747035,-0.003676079,0.00540233,-0.0151027031,0.00139764,0.00411309069,0.00224945485,-0.00154618523,-0.00054665003,0.0016826645,0.00825959,0.0126099773,0.0248639826,0.00178368879,-0.0008591927,0.00169119926,0.0004803761,0.0008080365,-0.0123973424,0.00687864562,0.0203517526,-0.0234833434,0.0164915975,-0.0007526026,-0.00528113171],[-0.00201129587,-0.00341801927,-0.008113697,-0.0107025113,-0.00163993775,0.025590824,-0.000442385877,0.007407712,0.00763545232,-0.00979008,-0.00141753454,0.00624870742,0.00213251729,-0.01829279,0.005190523,0.014146585,0.0168882031,0.0270560421,0.009456915,-0.00143801712,0.0211465359,0.00519308075,-0.039231874,0.0174820963,-0.00123133441,0.019312907,0.00459433,-0.00734101562,-0.01980762,0.0291275661,-0.0017128716,0.00276956544,0.0215449762,-0.009494087,0.008357035,-0.03693143,-0.008025694,0.0253276825,-0.002708712,-0.0350368731,0.00213469123,-0.01115578,-0.0168731362,0.0142875165,0.016866684,-0.00228470028,0.0145660611,0.0359648354,0.04276356,-0.004444622,0.0239890348,0.006668173,0.0169085823,-0.00512882276,-0.0131624267,-0.0131716821,-0.0252772644,-0.000301967171,0.03421659,-0.0144252172,-0.0224384479,0.0054777246,0.0158731844,0.009007191,0.0239445958,0.0182656255,0.008638769,-0.0281011146,-0.0285635144,-0.0119578559,0.0163605567,0.0212562252,-0.02306839,0.0175596457,0.0121382205,0.00917444751,-0.003504069,0.0066962787,0.0126802446,0.01622735,0.007913015,0.02506834,-0.001910813,-0.0050673387,0.00136291631,0.002922016,0.0166887566,-0.0126506779,-0.0117185824,-0.04112689,0.000822037,0.008329609,0.00768901967,-0.02065603,-0.0170329027,0.002248214,-0.0187713578,0.00365383783,0.006512543,-0.0128313769,0.00447733561,0.00391196925,0.00839105248,0.00540170539,-0.010407187,0.0164637938,-0.01774452,-0.023316266,-0.000310866715,0.0281895045,0.00120608043,-0.0209474824,-0.0244695712,-0.00322656729,0.0102965087,0.0478108153,-0.0259153079,-0.006671498,0.0274268929,-0.005659281,0.008597871,-0.0006231747,-0.00774808461,-0.00115041737,-0.0460624658,-0.000688263739,0.0307845268,0.0232899915],[0.00202092552,-0.0149004795,-0.0137129594,-0.0106102321,0.004836199,-0.00258105365,-0.0006586745,-0.007060454,0.005374402,-0.00146836671,0.0172019415,-0.0154752648,0.00190672243,0.003999352,-0.0143353632,-0.007007172,0.00152139121,-0.0141849127,-0.007855171,0.01867201,-0.0272419713,0.00319776172,0.0171052571,0.001850437,0.00751172751,-0.0114615075,-0.00972880051,-0.0007500156,0.0001738279,-0.00137691386,0.007818238,0.00121679925,-0.0101157492,-0.00217867433,0.018810831,-0.01055197,0.00240570749,-0.0108803939,0.000776398,0.0140845,-0.0136661278,0.015865501,0.0123987459,-0.0029832758,-0.00212485087,0.005825385,0.01166183,0.00107887492,-0.0156158963,0.00164482894,-0.01131529,0.00469420524,-0.0115005169,0.008278626,0.00113492,0.005630842,0.00405176729,0.0174409579,-0.0214048326,-0.00514103658,0.007569824,-0.0130830379,-0.004589808,-0.0151731176,-0.0005013043,-0.02055999,0.01134518,0.008181682,-0.00568312826,0.006855385,-0.0169859249,0.007394038,0.002254652,-0.0156764574,0.0007228879,-0.0125030652,0.00469784765,-0.0123961028,0.00157829386,-0.008546017,0.009414339,-0.02568761,0.00221111556,-0.0141438218,-0.005891846,0.01576136,0.0009246284,0.007646201,0.00796718,0.0123528792,0.009768212,0.0142638851,-0.0113781383,0.0151752867,-0.00418474432,0.0121175759,-0.00177861564,-0.005875065,0.0111781135,-0.0137408432,-0.008552285,0.0103707137,-3.689492E-05,-0.0103634857,-0.008818938,0.002537865,0.0113955662,0.0141226854,-0.008168327,0.00447686063,-0.006081557,0.008415452,0.017271949,0.012044102,0.0224133022,-0.01796437,-0.00214587525,0.0082203,-0.0105698481,0.009332788,0.0142914671,-0.00553957466,0.005065232,0.004284772,0.0132497707,0.00512425555,-0.000353477633,-0.00472415844],[-0.00220322632,0.0155440466,0.013836097,0.009858034,-0.0197356921,-0.01227241,0.0118435342,0.0105693694,-0.00444805529,0.00470562838,-0.0104298862,0.009227521,0.0001597008,0.006097798,0.0132487928,0.00730769848,-0.01956914,0.001135017,0.0115786,-0.003209257,0.0107613448,-0.00476289028,0.00993900653,-0.0166807473,-0.01092582,-0.000379729376,-0.00271238759,0.000162273092,0.00524962647,-0.00921004,-0.006893788,-0.0041119284,0.006544823,0.02073733,-0.0175360721,0.002001718,-0.01093118,0.00653666025,0.00483725127,0.0163479447,0.0154540781,-0.01863905,-0.00107270735,0.004655855,-0.005981516,-0.0206483025,0.0130585684,0.0009995054,-0.00329408725,0.00154365413,0.00102957967,-0.00526287267,-0.00311501557,-0.008689714,0.0152064273,-0.00446527172,0.004109042,-0.0150321219,-0.0034160465,-0.000525457144,-0.00605217228,0.0160434917,0.004492958,0.008029923,-0.0051969653,0.0118290111,-0.0180725958,0.00594450068,0.0279510375,-0.00407898566,0.008855778,-0.004104237,0.0111455675,-0.00440306775,-0.00357036758,-0.008533152,-0.0166831855,0.0186739229,0.00363390869,-0.0060184123,-0.001319128,0.0126434425,-0.005514279,0.02071602,0.00338285672,-0.0202688221,0.00426552957,-0.00186962506,-0.00173646514,0.0177255217,-0.020433262,-0.0197743718,-0.0086660115,-0.005115092,0.013822048,-0.00294110528,-0.00172839337,0.0126561606,-0.003997463,0.0183823239,-0.00866694748,-0.024450358,-0.0122685647,-0.005840016,0.0148305744,-0.00853452552,0.01230086,-0.00104673591,-0.00356467883,-0.00155420345,0.0170621313,-0.0133912181,-0.01731277,-0.0143756866,-0.0140573913,-0.0180809982,-0.009786448,0.0012651399,-0.00178837345,-0.0106453672,0.004966657,0.0247955713,-0.01320982,-0.0124411145,0.00724995974,-0.006786905,0.00653567864,0.00748725468],[0.006287834,-0.0100982618,-0.0173202567,-0.0175262727,0.0114045935,0.00765606249,-0.009418659,-0.0131965717,0.00124656013,-0.0158235449,0.00813469,-0.0189728644,0.00304793171,-0.00173307548,-0.0238542445,-0.0247536823,0.0143490406,-0.00577591,-0.00385853881,0.0100069158,-0.0212710723,0.00310180034,0.0189460926,0.0136641,0.00132869626,-0.007866966,-0.002670873,-0.004910598,-0.0030247746,-0.0135900341,0.0217602327,0.0096008,-0.00426757755,-0.02218562,0.0260436833,-0.007494789,-0.004840023,-0.0146985976,-0.00217454415,0.0017995,-0.009021988,0.00635571638,0.005342215,-0.002373651,0.006128086,0.012646175,-0.002908835,0.001679507,-0.00757734,0.00457094423,-0.0214596335,0.00524580851,-0.00719103,0.0235849842,-0.00250348356,0.00494825561,0.01139268,0.017391149,-0.017138334,0.00226659584,0.01990849,-0.0265834779,-0.0174981374,-0.0125631122,0.00679175556,-0.02751393,0.0144730872,0.00064816,-0.0328789875,0.0115299923,-0.02578469,0.004152805,0.0163383931,-0.0150927585,0.007561785,0.000435276044,0.01596096,-0.0170090627,0.00500520272,-0.00957428,0.00702093355,-0.036204733,-0.000709812157,-0.0195829384,-0.00726650236,0.0233504269,-0.00180551014,-0.00383204245,0.0178973172,-0.00314485864,0.0235772319,0.0204721056,0.00070316036,0.0196474735,-0.023180034,0.0168996863,0.00430031773,-0.00334505085,0.0052406867,-0.0153317861,0.00283148722,0.0138970809,3.03770848E-05,0.007043664,-0.0213428475,-0.0004960522,0.004289571,0.009285122,-0.005151605,0.004944936,-0.01886083,0.00178580766,0.0355924,0.0280030351,0.03317159,-0.0006713324,0.008517049,0.00623934437,-0.006671874,0.015712522,-0.004393386,-0.0296226721,0.02070091,0.0208978858,0.0124091469,0.0155781386,0.00103084568,-0.0159647129],[0.0003065078,0.0038903344,0.0009045731,0.003308017,-0.00451461552,0.0130123347,0.00246013957,0.00715942029,0.0132817021,-0.004146438,-0.00270537753,0.005741906,0.00678543933,-0.008415474,0.009199475,0.0181122143,0.00172548846,0.0136796385,0.0103110047,-0.0069404766,0.0274435431,0.00585216749,-0.03313565,0.005193538,-0.00893062,0.0211611446,-0.00331515586,-0.00125938922,-0.00461113267,0.0274808258,-0.00897027552,-0.00694971671,0.0162084978,0.00297425874,-0.006988902,-0.0274871942,-3.99272E-05,0.0228157863,0.002203153,-0.0232852735,-0.00161619578,-0.005916087,-0.005616298,0.005047832,0.003529546,-0.003345324,0.00322694122,0.02724217,0.03389312,-0.007435885,0.0259121154,-0.00163792924,0.0179396048,-0.00448905258,-0.00719745969,-0.007597066,-0.0112249032,-0.005492942,0.024959987,-0.0134039139,-0.0180250425,0.0152259506,0.02013387,0.00356932147,0.0157216936,0.019736737,-0.0111551043,-0.0172693972,-0.00150988635,-0.0151426708,0.0260835066,0.00319367717,-0.008429981,0.01541406,0.00576819154,0.001633819,5.45043258E-05,0.00796274748,0.0101499595,0.0140542369,0.00121411565,0.0208989047,-0.0057137087,0.0007537488,0.00216204184,-0.000450990628,0.0122824172,-0.004653996,-0.0192443654,-0.0299890935,-0.004141033,-0.00201968569,0.00542591466,-0.0189616848,-0.00246362854,-0.007258044,-0.0164035838,0.00301925233,0.003948371,-0.005987421,-0.00506952,-0.00271043275,0.0105174631,0.00149662409,0.006161129,0.005094942,-0.008756205,-0.008966409,0.00148276961,0.01173399,0.011174053,-0.0168893766,-0.0235755946,-0.0112163043,-0.00706024142,0.0292600673,-0.0185692087,-0.00302721444,0.0141004315,-0.016308859,0.00714365952,0.0137351537,-0.00687309075,-0.00251260982,-0.0300883278,0.00386793632,0.0224565212,0.0108094225],[0.00485017663,0.0015308063,0.006634127,0.00140731654,0.004188545,-0.0290795919,-0.007109128,-0.006543963,-0.01400131,0.006003101,0.001562405,0.000251990772,-0.00332211982,0.016014982,-0.006647091,-0.005080725,-0.0188813061,-0.02751163,-0.00603324361,0.0013016325,-0.02438652,0.00563058443,0.0428403243,-0.0230804291,0.004476845,-0.0172347762,-0.00124334416,0.009703833,0.0252422448,-0.02958479,0.001418582,0.00469657267,-0.0218895413,0.00366021623,-0.0109468494,0.0292012561,0.0127414325,-0.0213034786,0.00107308314,0.03378334,-0.006434197,0.007866481,0.0116248028,-0.0107473973,-0.0122755477,-0.00218062126,-0.000162235447,-0.0221184622,-0.0310034323,0.00716189,-0.02988838,-0.00884543452,-0.0148238018,0.01032459,0.0105409687,0.007981267,0.010502792,-0.00151153433,-0.02981422,0.00567232072,0.0112632615,-0.008175512,-0.0113339629,0.00106649648,-0.0200740248,-0.0122501273,-0.008488948,0.0219150111,0.0228558518,0.00713389041,-0.014314536,-0.0232726838,0.024577301,-0.0210788287,-0.01604502,-0.0223361142,-0.000457459828,-0.00188804127,0.00474226335,-0.0152549,-0.004624765,-0.02469716,-0.00647961255,0.000224668329,0.006373791,0.006253911,-0.009054607,0.0126702031,0.00669927429,0.0359789878,-0.01093965,-0.009050702,-0.0100302827,0.0149880908,0.02274447,-0.00214842963,0.0135227423,0.00295183226,-0.00190180482,0.00317031285,0.00010238844,-0.00055533665,-0.01965221,0.00173391518,0.01226164,-0.01800206,0.013250282,0.0249968022,-0.00524430769,-0.0219751261,0.00779315364,0.0155204274,0.0171543639,-0.00405258033,-0.0128119932,-0.03890402,0.0184035432,-0.00225522439,-0.0220928136,0.002877748,-0.009554994,0.0132462643,-0.006276067,-0.0109277749,0.0290718768,-0.00154445879,-0.02643604,-0.0139310658],[0.00453287,0.00488526747,0.00374745228,-0.002517572,-0.00709755,-0.009145509,-0.003932664,0.00155522814,-0.00365332,0.008177911,0.0009928212,0.006197678,0.00266796187,0.01795447,0.0110717239,-0.00269296044,-0.0155381886,-0.008169408,0.008878802,-0.00157059834,-0.009362793,0.00672312826,0.0207292587,-0.009223054,-0.008213039,-0.0008639679,-0.00146472943,0.00151303562,0.0114394277,-0.0130000738,-0.008352623,0.00760821067,-0.012985345,0.0005520825,-0.00716227945,0.014714852,-0.001994974,-0.00963239,0.0009884012,0.0147661129,0.000710141147,-0.0110448459,0.00429098355,-0.00288491,-0.00037754263,-0.00278801122,0.00371460477,-0.0105570955,-0.019212231,0.0051248325,-0.0113314791,-0.00531054428,-0.00673489459,-0.00278876652,0.0128008192,0.009987784,0.010861285,0.0007521061,-0.009734798,0.008320593,0.0152834458,-0.00452572154,-0.00163301057,0.005675208,-0.0148141608,-0.00812888052,-0.004855705,0.0005215865,0.0136228334,0.00128147588,-0.0182151422,-0.0109215779,0.012511597,-0.007931266,-0.002340219,-0.00479839277,-0.008436022,0.003695738,-0.009261485,-0.009446393,-0.0112374173,-0.007225508,0.00982167,0.002303516,0.00739980629,-0.005931392,-0.01487344,0.006226789,0.008599248,0.0124914953,0.00153292576,-0.00204071938,0.0022014943,0.009864711,0.006775652,-0.004924245,-0.00291039445,0.009022165,-0.00617803866,0.00575697841,0.005062242,0.000948411471,-0.00141347491,0.007013296,-0.00378886447,-0.00483352365,0.007951856,0.002166783,0.00699988334,-0.0167316962,-0.00722434744,-0.00263386173,-0.00171337952,0.00191461493,0.00193747552,-0.0169462878,0.0114715192,-0.0111584459,-0.0120744733,0.008425314,-0.00300915958,0.003912476,0.00358967972,-0.000696860952,0.0238052066,-0.00194533786,-0.0138922492,-0.006469531],[-0.0114367632,-0.00310077239,0.001541803,-0.00105406425,-0.00417060172,0.00712015247,0.011587278,0.00384941115,0.00417888351,-0.00737040257,0.00376231479,0.0005191696,0.00516888127,-0.0119481394,0.00561559666,0.0203031357,-0.0005686218,0.00754604163,-0.00232292712,0.00189330429,0.0182889942,-0.008067008,-0.0270488765,0.00656514755,-0.00689155469,0.008199843,-0.00325957546,0.0105676465,-0.00701724133,0.0188519116,-0.00160301232,-0.008138478,0.0148204286,0.009253581,-0.005738642,-0.01388462,-0.000735091453,0.01493134,-0.000461342221,-0.018882975,0.005851533,-0.008295267,-0.00766953,0.0009390968,0.00485045044,-0.0057186503,0.004371785,0.0228548162,0.02097906,-0.00114367285,0.0189520381,0.00317550078,0.00354992249,-0.0152452905,-0.01578923,-0.008563912,-0.017556034,-4.87865545E-05,0.0206614528,-0.0119607449,-0.00928438548,-0.00136575452,0.013668444,0.00569662265,0.009506078,0.0280153025,-0.0108315675,-0.0172394924,-0.00654882425,-0.0105995424,0.0248515327,0.008464391,-0.014948288,0.01624688,0.00726809958,0.00249319244,0.004701738,-0.000215090535,0.008662466,0.0160288569,0.005617511,0.0110194776,-0.00733459834,0.004612604,0.00130844756,-0.00755992671,0.0133997193,-0.00563270226,-0.01127229,-0.0186919551,-0.00539500825,0.004104461,-0.005188423,-0.0123931114,-0.00168972206,0.008103116,-0.0163141713,-0.00594651047,-0.00534806633,-0.00363341067,-0.00659296,-0.0125772161,0.00550650852,-0.005686375,0.00759695424,0.00615516864,-0.0144251017,-0.0164691973,-0.005864725,0.022432819,0.00161527307,-0.005055589,-0.0169121288,-0.0133710867,-0.000572313729,0.0153828878,-0.0224794429,0.006046831,0.0246054,-0.0148515981,0.01667686,0.005202147,-0.00336060068,-0.00605703751,-0.022240961,-6.16922E-05,0.0163510758,0.016343],[0.008706093,-0.007128577,-0.006003338,-0.00487870537,0.003907922,-0.013796608,0.00124427525,-0.00107599131,-0.011373111,0.004330918,0.0120585505,-0.00733949337,0.00165458908,0.0215756129,-0.00451633846,-0.009697557,-0.00790724251,-0.0143966414,-0.00171934569,-0.00125512714,-0.03413676,0.0006769137,0.03663569,-0.010876324,0.00323853921,-0.0113984011,-0.0021382987,0.00611213734,0.005675364,-0.0255815331,0.0135330688,0.003303049,-0.0121250395,-0.00761948153,0.007046622,0.02242574,0.00633797375,-0.0231478475,-0.00188818865,0.0173599832,-0.0110541815,0.0145062152,0.013249971,-0.0019290963,-0.00309302961,0.01185298,0.000701134733,-0.0153197739,-0.03078786,0.0110609336,-0.0177703258,0.004750956,-0.00563928764,0.0106441621,0.00269604,0.0106359143,0.0131950285,0.005456064,-0.0257604644,0.004023467,0.0120949261,-0.0167674739,-0.0108380578,-0.00615169,-0.01576038,-0.0156293325,0.00261687976,0.0178186856,0.00647782953,0.0127636055,-0.0219743513,-0.0056546675,0.0119119138,-0.0166824088,-0.0099753,-0.007771414,0.0029268025,-0.00853109,-0.00492456276,-0.009326522,0.0014469265,-0.0348905176,0.00283936947,-0.009842318,-0.0014297918,0.0005777876,-0.0107113943,0.0163118336,0.0232169461,0.0167484339,-5.746001E-05,0.00777351065,-0.00410046149,0.025368195,0.000261556823,0.000599310035,0.006884147,0.0023957314,-0.00322458171,-0.005637295,0.00406004768,0.00714904955,-0.00830678,-0.006458905,0.00238367147,-0.0009683838,0.01640996,0.0137285553,-0.0118335253,-0.0153961591,-0.008621692,0.0104231369,0.0325916968,0.008306468,0.01618024,-0.0258586239,0.0147819752,0.002124134,-0.012150025,0.00632096548,-0.004718617,-0.0163741838,0.0115301553,-0.000683188438,0.0293311365,0.00614890549,-0.0100963376,-0.009691349],[0.008338235,0.00886878,0.009488595,0.00274582044,0.00343121029,0.008413301,0.00212208764,0.0117373178,-0.00754477363,0.0182832256,-0.007834849,0.00263520773,-0.0165341366,-0.007709459,0.00196197769,-0.005695761,0.008199631,0.0113064758,1.16575175E-05,-0.0148953758,0.0143952454,-0.00189211848,-0.00826693047,0.00232167356,-0.00398357026,-2.04571734E-05,0.0109426016,-0.000175211462,0.008198072,-0.00590574,-0.00630180771,0.00618999265,0.00813606847,-0.0075575267,-0.006487065,0.0243775174,0.0071324124,-0.0006050098,-0.009676007,-0.007762232,0.008512528,-0.007826984,-0.0100718113,0.000127971245,-0.01314983,0.0145177208,-0.0283161346,-0.009563147,0.0046693203,-0.00850121,-0.00207386934,0.006208108,0.0024892264,0.008874778,0.00758976955,0.0138847483,0.000443635683,-0.009987359,0.007091263,0.00240911427,-0.00392089365,0.0107567832,-0.0007839317,-0.002830227,-0.000372713985,0.00259276759,0.00151331164,-0.007406488,0.00677723065,-0.000894395751,-0.0126755685,-0.000549840042,-0.000381433667,0.007877974,-0.00719415,0.0245407019,-0.0005624239,0.00515619153,-0.0232353117,-0.00569572,0.002400575,0.01603989,0.008015036,0.00758505752,0.007393391,0.002621391,-0.0101380227,0.00327535765,-0.009134103,-0.0166699234,0.0123251444,-0.008476949,0.0110252053,-0.0106610646,-0.003428264,-0.0111686494,0.00491155824,0.00553416042,0.0015745674,0.0043505244,0.006502965,0.0123651829,0.0149476733,0.011370915,-0.00270976429,-0.00190358807,-0.00772092259,-0.005031944,0.0240685958,-0.012756234,-0.00719123753,0.00751335267,-0.00295916456,0.0011304752,-0.0072279023,0.010658673,0.0277583,-0.0103847049,-0.005121483,0.0022938468,-0.0285199732,-0.0157441031,0.000403645739,0.0143530723,-0.00287138554,-0.003144942,-0.0105325961,0.00277631776],[-0.0017050507,0.00713410042,0.0114429509,0.006309454,-0.01555652,0.00396639435,0.007185728,0.008662984,-0.00224188739,0.003972818,-0.009908011,0.00714401761,0.000134293878,-0.008418049,0.006886194,0.008535693,-0.00190311635,0.0159737542,0.0122735593,-0.0150444042,0.0315324366,0.002065528,-0.02581903,0.00216740835,-0.0117557645,0.009964772,0.00750069367,-0.004969946,0.00296851736,0.0179709252,-0.006480093,-0.00461060647,0.009479296,0.00697879074,-0.012406881,-0.000364889362,-0.007717721,0.0136812869,-0.0100817857,-0.0124905119,0.007687344,-0.00975265447,-0.0143287648,0.00266153575,-0.00760585861,-0.006357518,-0.0120752854,0.006093871,0.0220430568,0.0005429698,0.0105782505,-0.00113520061,0.011943371,-0.006877539,-0.00301537081,-0.010200928,-0.0101939337,-0.009713689,0.021821782,-0.00173121144,-0.0111869741,0.022487551,0.0118615944,0.00991080049,0.0106292432,0.0225357041,-0.00445645861,-0.00215230417,0.00692229439,-0.0136280954,0.02580741,0.00447202241,-0.009135408,0.009387946,-0.002032412,0.0120176645,-0.0134788994,0.0161812045,-0.008076701,0.0114589632,-0.0005877437,0.03126441,-0.00095253397,0.0107745985,0.0100097656,-0.0172232259,-0.006318488,-0.01283463,-0.0107891848,-0.0169257242,-0.0101463078,-0.007223434,0.003678675,-0.021719398,-0.00351273059,-0.008758265,-0.00635644048,0.00604115054,-0.00775185972,0.0053721983,0.007760544,-0.0125206336,0.006181527,0.008792466,0.007974964,0.00237175962,-0.009813541,-0.01649893,0.003959641,0.0007170148,0.00601131143,-0.002589942,-0.0259876121,-0.0168500338,-0.0205395613,0.0164064076,-0.00399325648,-0.00624690624,0.008822782,-0.0123229651,-0.007933417,0.0179650877,-0.0106634255,-0.0109452363,-0.00692726439,-0.000639882463,0.00497872243,0.0106187407],[-0.0002195633,0.009959431,0.004564675,0.008380653,-0.00229851156,-0.00609645,0.006780419,0.0118919453,-0.00945334,0.01025087,-0.00392192742,0.00305735436,0.002465096,0.009994792,0.00576869,-0.00963558,-0.004718282,-0.000213086969,-0.00167302939,-0.002508993,-5.0986142E-05,-0.0005320468,0.0147645324,-0.010739889,0.00173747446,-0.0108295828,-0.0008244246,0.00166238763,0.012807156,-0.009944477,-0.006701399,0.008663199,0.00126930547,0.00891741551,-0.00236929581,0.0123828249,0.004056638,0.00397004839,-0.0136006111,0.008915138,0.0003426736,-0.00122007343,-0.00571409473,-0.00383626251,-0.0107795317,0.004961944,-0.00439933874,-0.00511238258,-0.0147928223,-0.00241219322,-0.00220378023,-0.003196835,-0.00362298614,0.000445681624,0.0123861572,0.008163388,-0.000496912864,-0.00644463953,-0.007067983,0.0136342058,0.0118028922,0.00298181782,-0.006298511,0.00725985225,-0.00213863933,-0.00332511123,-0.007172763,0.008386978,0.00983719248,0.00688583171,-0.00173038174,-0.0114120292,0.0106125064,-0.0114646377,0.000228489633,0.0058451863,-0.0121716652,0.003487223,-0.013027885,-0.00220383657,-0.002642512,0.00389479,0.00740111,0.0138263274,0.007937872,-0.00480185775,-0.00254257675,0.004474332,-0.00389382965,0.00497440575,-0.00179489085,-0.00171115494,0.0090817,0.000606390939,0.01141016,-0.0009994858,-0.00378274987,0.004918169,-0.00222929777,0.00446563726,0.004954506,-0.00304538733,-0.00165744929,0.003848652,0.010447083,-0.00348706241,0.004187399,-0.00439043669,0.0077515766,-0.00828935951,0.00597128039,0.00591744762,0.00245752372,0.00236195675,-0.0136747723,-0.005006471,0.0134278322,-0.0078201415,-0.0107484721,-0.00221493677,-0.012836148,0.00204604724,-0.00220941659,-7.536869E-05,0.0224174261,-0.006233805,-0.00781662948,-0.006302348],[-0.001370699,0.00398656446,-0.013984846,-0.00104755431,0.000599410268,0.01729872,0.00767803425,-0.000627630565,0.0166995414,-0.00546588935,0.0014015343,0.005144844,0.00406162,-0.0273529086,0.00558276242,0.0101018175,0.0152859427,0.0206099823,-0.00161150738,0.002913102,0.01279076,0.000861694571,-0.0390991271,0.01633729,-0.001025177,0.0188823864,-0.00337549625,-0.00450878451,-0.01189219,0.0328981131,3.53720352E-05,0.0009784016,0.0139597841,-0.000596368045,0.00647405675,-0.03454814,-0.005788151,0.01953271,-0.0005081725,-0.033792872,-0.00122011476,-0.006416554,-0.0115175815,0.00753989629,0.01192952,-0.00372003578,0.0172037538,0.0359010249,0.03494638,7.857123E-05,0.0283564534,0.011885196,0.0148604317,-0.0138417594,-0.01744424,-0.01749829,-0.012867053,-0.00536144059,0.03447815,-0.0141493985,-0.0241076313,0.006746522,0.0152782938,-0.00310829747,0.0238380618,0.0170985665,-0.001979249,-0.01979461,-0.0195975639,-0.009924743,0.02422946,0.0169959757,-0.0177677386,0.0180918835,0.010281045,0.014679214,0.00320861884,0.002466279,0.0148439659,0.0103376908,0.00213867426,0.0163642168,0.00153564964,-0.002204301,-0.007097542,-0.00186692888,0.0138973556,-0.017182719,-0.000199404822,-0.0305410344,-0.008682578,0.008987259,0.00658190949,-0.02194289,-0.0222881977,-0.00169374153,-0.0159947779,-0.000283343776,-0.000904390938,-0.009436874,-0.00746750738,-0.0131167732,0.01962899,-0.00496009,-0.00481888466,0.01222902,-0.0117268842,-0.018888481,-0.004126759,0.03098586,-0.000306402537,-0.0115305781,-0.0135370176,0.0031003186,0.006972081,0.04099309,-0.0288224965,0.00462847576,0.0298069473,-0.0118455365,0.0188780613,0.00718162628,-0.0103247417,-0.004379455,-0.0433600135,0.003140845,0.028713651,0.0214287043],[0.00434538769,0.0126306964,0.006868826,0.003438162,-0.00197981112,0.00259262114,-0.00426429138,0.0132720964,0.00576066924,0.0133336885,-0.00531697739,0.0132628512,0.001293492,-0.0182884727,0.008704765,0.0138121722,0.00431003748,0.0181402266,0.008540168,-0.0104515571,0.03419228,0.00257334951,-0.030074494,0.00431542471,-0.00581010664,0.0150598874,0.0112815835,-0.008269223,0.00200334587,0.0144275622,-0.006411231,0.00770350872,0.01309383,7.986682E-05,-0.0139601873,0.00208436581,-0.009958918,0.0178738721,-0.000235713524,-0.0152823543,0.0124945324,-0.008418761,-0.01672778,0.00698294071,-0.008157703,-0.008659593,-0.0106169,0.004972555,0.0146927312,-0.0113955829,0.0144637525,-0.004953723,0.00535500562,-0.005874447,-0.00244642072,-0.00869598,-0.012696078,-0.004058477,0.02486675,0.00439546071,-0.01215875,0.009568098,0.012096677,0.012285877,0.0131080179,0.0107052494,-0.00780217675,-0.006693771,0.008687744,-0.00267304084,0.0191088654,-0.00295847,-0.016793523,0.0157252848,-0.00149552,0.019799104,-0.008432994,0.006774986,-0.00566275837,0.0007077254,-0.004095054,0.0291507319,0.00331562967,0.009253731,0.00669730967,-0.0139197614,-0.006833986,-0.00903055351,-0.0186403748,-0.0215500817,0.00102960528,-0.009546923,0.0117030274,-0.02250836,0.00203443528,-0.009202606,0.00246672076,0.00429859152,0.0017786104,0.005221731,0.008084168,-0.00278826,0.0111521939,0.0112723652,0.00466081034,-0.000526753953,-0.012366347,-0.0137815354,0.0154418144,0.004753898,0.00210667774,0.00107062783,-0.0257744677,-0.008447393,-0.009472035,0.0277426187,0.008127758,-0.00806073751,0.0142335482,-0.0143897906,-0.0164139513,0.00394831458,-0.0122282533,0.002567095,-0.0133197606,-0.0105868494,0.0006961781,0.008634931],[-0.00372214359,0.0158458836,0.00988323148,0.0227314755,-0.0117926877,-0.0128689455,0.0136406962,0.0135005536,-0.00191488012,0.0102408659,-0.0114002228,0.0186926853,-0.00498371432,0.00713011436,0.0195316616,0.0109879011,-0.0179940723,-0.0025190434,0.0147192264,-0.0111603746,0.02068255,-0.005692914,0.00906158,-0.0151831526,-0.0143766887,0.00553016039,-0.009803704,0.0120194545,0.0110655911,0.00172788871,-0.01637632,-0.005572522,0.006046242,0.02479915,-0.03136,0.00326836249,-0.006439084,0.0083305,0.00671679759,-0.0005828087,0.01130168,-0.009394587,-0.00285024988,0.009700883,-0.0109563088,-0.02526744,0.01395881,0.0116423564,-0.000293061545,0.00271446886,0.0138574308,0.000231601734,-0.000485397119,-0.0240554418,0.009482153,-0.00364342588,-0.005519927,-0.0119499154,0.007627797,0.007677011,-0.004883803,0.0168588161,-0.000171114938,0.0131953061,-0.0161340386,0.022686936,-0.0194443148,0.00103347213,0.0256723315,0.000400140154,0.0187262073,-0.00847030152,-0.0048459596,0.000276164646,0.00405988935,-0.00708675245,-0.0044306363,0.012331211,0.009624821,-0.00251403521,-0.00765427249,0.0130210659,-0.00755990436,0.0159054026,-0.00335572613,-0.0152459284,0.01025446,-8.111939E-05,-0.00283794315,0.0103896623,-0.0350144655,-0.02157119,0.00374699547,0.00180308823,0.0259123091,-0.01350457,-0.00154784729,0.0104783028,-0.0111446166,0.0147158839,-0.005597154,-0.0222071689,-0.015948195,-0.003780249,0.0205651,-0.00365651143,0.0007918685,0.000429281121,-0.00590904336,-0.0056393533,0.0100375647,-0.0128921615,-0.0259478334,-0.0201267675,-0.0272700712,-0.02408509,-0.00630025472,0.003424932,0.004124011,-0.006056807,0.004716724,0.02095604,-0.02038387,-0.0258085076,0.009809106,-0.0129421689,-0.00192137749,0.00325184129],[0.0111185862,0.00716107246,-0.000835567946,0.00623610057,-0.00267390138,-0.0135632185,-0.00191974989,-0.00175333617,-0.006526454,0.00982422,-0.00199815934,-0.00379176671,-0.00445351144,0.0142970225,0.0110197868,-0.008508463,-0.0168697052,-0.013823051,0.00668089651,-0.00400292128,-0.009725334,0.00368144573,0.03107518,-0.0141159715,-0.004469857,-0.0146105895,-0.00749104423,-0.008212607,0.0194795076,-0.0228413548,0.001254952,-0.00357552129,-0.0073849503,-0.00360557786,-0.00675816555,0.0127303647,-0.00426593563,-0.01198801,0.0001734096,0.0151024237,-0.00282645226,-0.002977979,0.00385158,-0.0102041606,0.00301313354,-0.00104806887,-0.00366066163,-0.008723277,-0.0295055732,0.009502986,-0.0191322621,-0.002363846,-0.0103869438,0.00539168576,0.0160436668,0.0110114776,0.0137806991,-0.00353055657,-0.0103231352,0.0147385858,0.0120120626,0.000233274535,-0.005707201,-0.00250459369,-0.0110772448,-0.00772725558,0.0036506108,0.0175851081,0.007076907,0.00490931934,-0.0139558641,-0.0131787313,0.0151699279,-0.0168609284,-0.008266803,-0.01324046,-0.00110557675,-0.00349126826,-0.008665524,-0.01671742,-0.00355962175,-0.0201294683,0.00293618068,0.006333995,0.00925839,-0.00280066952,-0.014554346,0.00731082354,0.00309944083,0.02570044,0.003187238,-0.003835069,-0.005907104,0.0157031417,0.01746708,0.003570905,0.009436797,0.0100792171,-0.008149587,0.011998184,-0.000428889762,0.00921999849,-0.01257484,0.000702693535,-0.004973518,-0.01066733,0.0102430284,0.0189623963,0.00171399489,-0.0144254873,-0.005371468,0.00454346463,0.007209072,-0.00136526185,-0.00726850936,-0.0176564064,0.006316194,-0.005899754,-0.0186934583,0.00656552752,-0.009931483,-0.005174781,0.001480579,0.002603795,0.0311884526,-0.00115515827,-0.0101932492,-0.008222302],[0.00385271758,-0.0203237571,-0.004153849,-0.0201105569,0.0151852723,0.0189358629,-0.0109611889,-0.0129151177,-0.00198302954,-0.0150564741,0.00924781151,-0.01792808,-0.007046858,-0.004104285,-0.01607082,-0.0171912611,0.0206596274,0.0138430716,-0.002461226,0.004246964,-0.00690137967,-0.00524200033,-0.00548118539,0.006438212,0.0127695184,-0.00724675739,0.005147074,-0.006002256,-0.008550767,0.0018117883,0.0168622937,0.00391892344,0.00658440869,-0.0219047815,0.02141429,0.00602661027,0.006891932,-0.003916033,-0.0007092635,-0.01721161,-0.0128820669,0.0146901682,0.00024265128,-0.004812783,0.00638382742,0.0271878187,-0.0203219578,-0.00750226,0.000155570247,-0.00679934,-0.008484365,0.0011979664,0.006625539,0.0129738823,-0.01894591,0.0110145882,-0.00308390986,0.0182701461,-0.000835461251,0.00421233,0.0033620724,-0.0162339322,-0.00850352,-0.0177129339,0.008212042,-0.0228446126,0.0160716251,0.00491548562,-0.0284968112,0.0037127363,-0.0258079544,0.0119812414,-0.0032261617,0.00128433306,0.00346698868,0.0264414977,0.009134937,-0.01911802,-0.007911701,-0.004532486,0.0113948062,-0.012086302,-0.00532936445,-0.0143942647,-0.00442218967,0.0146469306,-0.00284278579,-0.008622644,-0.003993047,-0.0189752989,0.0244480837,0.02245238,0.00538709667,0.00108202081,-0.0299395975,0.00230449857,0.00774226058,-0.009725131,-0.00143919454,-0.0180790946,0.00339602167,0.0284933485,0.01230564,0.003400727,-0.0235313457,0.00254974654,-0.0137284063,0.0017932551,0.020176148,-0.00665103924,-0.0172085911,0.0158459,0.0167480782,0.0285081547,0.023939006,0.0233671945,0.01935606,0.00506353751,0.00346578285,0.0158751532,-0.0160283167,-0.0219140016,0.0220080428,0.0264792517,-0.0120848576,0.00236859336,-0.0033852614,-0.00479919324],[-0.00204922073,-0.000781615032,0.007844051,0.008814632,0.00141540135,-0.0216961838,-0.00134990376,-0.00775783369,-0.008726406,0.00731336745,-6.20313149E-05,0.00134989514,-0.0006563447,0.0192324035,-0.0007652797,-0.00638517,-0.01620007,-0.0112733664,-0.00768486038,-0.002129183,-0.01813278,0.00712739956,0.029763408,-0.0118831964,-0.0050189374,-0.02001762,-0.00296025979,-0.0036334726,0.0153127545,-0.0265537947,0.00307861157,-0.00650328631,-0.01343641,0.00289088464,-0.00106000737,0.0235559046,0.008133051,-0.02141668,0.00264122547,0.03300365,-0.00922758,-0.00112244743,0.0146579966,-0.00660947338,-0.0109166345,0.007915724,-0.00237816921,-0.0204631686,-0.0249654539,0.0107894577,-0.0279610474,-0.00160281849,-0.006627517,0.000461405318,0.004020023,0.007081266,0.01685044,0.00316332188,-0.0211681835,0.01434242,0.0199048221,-0.0140777649,-0.0176349487,-0.00265589915,-0.0207764246,-0.0135623263,0.0005485611,0.013175522,0.01245701,0.0138107762,-0.0169104245,-0.0119458325,0.0163974687,-0.02495006,-0.010978627,-0.0154273128,-0.00177589222,-0.00328636053,-0.00648757257,-0.0145722991,0.004329289,-0.0256079677,-0.00311462465,0.006929447,-0.00429851,0.008194687,-0.01120086,0.0185647514,0.0104373032,0.0279477555,-0.002306321,-0.000713120331,-0.0034387596,0.0129708108,0.0180665273,0.00480492832,0.0145415328,0.007825559,-0.00297112786,0.008475378,-0.00227552233,7.82156858E-05,-0.0212837234,0.00358356279,0.00644791173,-0.013343893,0.0171089433,0.01893821,-0.007869688,-0.0251289885,-0.00335754,0.01865601,0.0235522669,-0.002391862,0.00332087046,-0.0278850421,0.0158298984,-0.0074777,-0.02011229,0.007927299,-0.004404199,0.004658824,-0.0019320494,-0.00217871461,0.0320589952,0.00408037938,-0.01727466,-0.01827569],[0.003390388,-0.0190314967,-0.0102795772,-0.0251681842,0.0155817457,0.0216115788,-0.004802862,-0.0109837689,-0.007973346,-0.0163424425,0.00382373016,-0.015616131,-0.006699952,-0.00368585368,-0.0116373552,-0.02150277,0.0286058523,0.0132078305,-0.00599463936,-0.00279195979,-0.00936017,-0.004157536,-0.009372854,0.015538021,0.0154448384,-0.0161873288,0.0119795473,-0.0130197322,-0.007822365,0.007494029,0.0153732,0.0187035762,-0.00423517637,-0.0310076773,0.0348594338,0.000102226375,0.0103560481,-0.008344344,-0.00486137252,-0.0170153063,-0.008810488,0.0110527,-0.0028887915,-0.0132428752,0.0111157913,0.03448036,-0.0166077055,-0.00324998563,0.008490575,-0.00032480972,-0.006865298,0.00505588669,0.008111643,0.023934504,-0.0128847444,0.013172565,-0.00644059759,0.004216229,0.008584498,-0.00275129313,0.0033455824,-0.01625193,-0.000511634047,-0.0158658586,0.0115111638,-0.033047922,0.0292749871,0.0001470606,-0.0340779871,0.0145596787,-0.0412776954,0.020154098,-0.009587128,-0.006994507,0.00670106942,0.01724048,0.0154036926,-0.0128094507,-0.01712471,-0.0055288244,0.00437964359,-0.00623493642,0.0019476522,-0.0251917951,0.00687474851,0.0211859122,-0.00689588347,-0.00613769,-0.001307616,-0.0312695019,0.04143655,0.0280201137,0.00232944824,-0.000203729054,-0.03651538,0.00569398748,0.003572247,-1.46143793E-06,0.0133834211,-0.0214486588,0.0164798442,0.0367497951,0.0140610589,0.0208813641,-0.0336520262,0.00615654746,-0.0131188892,-0.00388652436,0.02018956,-0.007329911,-0.0187861323,0.0134210866,0.0188557934,0.0275183879,0.0303491671,0.0376987979,0.0190281663,-0.0006954592,0.000924871,0.0200372469,-0.0220638141,-0.0383635722,0.0256878,0.0404388271,-0.00434015738,0.006982245,-0.0123010129,-0.00766132725],[-0.0100151962,0.00189773424,-0.00317795435,0.00239995518,-0.0007114581,0.0155272037,0.0007938023,0.000135357026,0.0101508694,-0.01061793,0.00115792255,-0.00440300349,0.00214661332,-0.02796467,-0.00458254432,0.009488486,0.0168693513,0.010646387,0.00155722024,0.00778865675,0.0113600045,-0.00103074,-0.0405893,0.009575039,0.0029988212,0.0134773236,0.00491746049,-0.000445073878,-0.0114690661,0.0347538963,-0.0055588237,0.0005424832,0.0167615749,0.000150791486,0.0082066115,-0.0295781475,0.00249096,0.0213967636,0.0054540406,-0.02607842,-0.00230998686,0.00315942662,-0.00350654661,0.00133358187,0.008990114,-0.0144847948,0.00516546937,0.0324119776,0.03554461,-0.01069213,0.0176321417,0.000399565324,0.0108420569,-0.0121213775,-0.008992838,-0.02061263,-0.02366016,0.005999436,0.0288669262,-0.02079099,-0.0189532656,0.00616509933,0.008012761,0.002944604,0.0151302433,0.0141957,0.004861216,-0.0280624777,-0.026455285,-0.0182311144,0.0296929851,0.0200926382,-0.013334075,0.0238086581,0.0124128228,0.007479498,0.009847813,-0.00564789725,0.0159731191,0.009942941,0.01056276,0.0235924944,-0.00046383022,0.0006873143,0.00235186261,-0.000377525168,0.0188687351,-0.01938459,-0.009563201,-0.0313439779,-0.00702873338,0.004745165,0.006576857,-0.02253917,-0.00635984866,0.00114516832,-0.01926363,-0.0050765886,-0.00121044321,-0.00396629842,-0.005052786,-0.003570549,0.0166369639,0.00205771322,-0.0016700587,0.007304663,-0.01214469,-0.0130515881,-2.47197913E-05,0.02061013,0.00532885548,-0.00671931962,-0.0119696027,-0.003945553,-0.00175315083,0.0333744027,-0.0255945642,0.00426320266,0.0226553846,-0.0159726311,0.0225221477,0.00247200648,-0.00318554742,-0.01139645,-0.0431219675,-4.476874E-05,0.0302763563,0.0222761948],[-0.00150624127,-0.0101038944,-0.003967371,-0.0100985533,0.00349971582,-0.008509819,-0.00400349032,-0.00334368739,-0.00262070727,0.00110772543,0.007815954,0.0002061389,-0.008262136,0.00579422945,-0.002100634,-0.0191797018,0.00268993131,-0.0121745029,-0.00476399437,0.0006311697,-0.00877722,7.868166E-05,0.0200058632,-0.00476878462,0.00633202447,-0.00539797032,-0.00667924946,-0.00576325925,0.00582327,-0.0185174216,0.005473904,0.00213147,-0.0111301728,-0.0128833307,0.0150670437,0.0138694178,0.00681368541,-0.01373766,-0.00326885446,0.0124596348,-0.009144121,0.004832125,-0.00304143014,0.00172620371,-0.003918922,0.00484583341,-0.004779043,-0.01674234,-0.0127886776,0.00544905569,-0.0160997454,-0.0007407193,-0.0100008175,0.00679149525,0.009189564,0.00472804252,0.0153373955,0.00677098939,-0.0138009517,0.00391049171,0.009860705,-0.0106301149,-0.0165667236,-0.006072929,-0.002268804,-0.0191344246,0.008986286,0.0120183425,0.000837641535,0.0119724935,-0.0265886467,-0.008849523,0.00540473359,-0.0203874987,-0.00376589876,0.00776634831,-0.00591403758,-0.0004280745,-0.00271571218,-0.004051881,-0.00287861,-0.0180969257,-0.00152431719,-0.0114232255,0.00170264393,0.00214208965,-0.0102214552,-0.00303208921,0.0123308422,0.0108905537,0.0199103765,0.008031751,0.00532776071,0.0145713007,0.00712501723,-0.00019246999,0.0139320577,-0.000211348379,0.006351894,-0.006879698,0.008420006,0.0115039218,-0.004375299,0.008339995,-0.00355786039,-0.00132274162,0.0132972011,0.009849943,0.00383516261,-0.0124884062,-0.008012319,0.0101586645,0.0184682459,0.008613313,0.007965538,-0.0114400936,0.0101732165,-0.00348251453,-0.0212359577,0.0136936866,-0.006993347,-0.009168314,0.0167671032,0.007738402,0.026155524,0.00652042776,-0.0156621188,-0.0100371279],[-0.003154708,0.010122152,0.0174870752,0.0175255165,-0.0119216247,-0.0223775953,0.00327590783,0.005325396,0.009029159,0.0134739354,-0.007984745,0.0190986972,0.009141862,0.00724696,0.011543991,0.02072447,-0.01696192,-0.0104504768,0.0102705834,-5.10362E-05,0.00618214253,0.0029162236,0.0164272878,-0.0128289536,-0.009346264,0.00748732546,-0.00429251,0.00204476062,0.0106293038,-0.00732509838,-0.0131268837,-0.0101751564,-0.00200322736,0.0261212569,-0.0321275033,0.00562750362,-0.004793295,0.00490015326,-0.005251199,0.0203378368,0.0147440778,-0.0129680969,0.00818890147,0.01008661,-0.00374053186,-0.0243931264,0.0107818339,0.009298002,-0.00476808939,0.0116889337,0.00501630129,-0.00338904047,0.0012556375,-0.02413065,0.01410671,-0.007773916,0.0030338536,-0.006155298,-0.00829294,0.00539361639,-0.00624936866,0.0146632791,0.00672427751,0.0101492852,-0.014748767,0.0215577427,-0.02136174,0.00286423322,0.031885542,-0.009952122,0.0299369749,-0.009709279,0.004417588,-0.00237941486,-0.00309512252,-0.0243478473,-0.0168689266,0.00730250869,0.0110043343,-0.00162828,0.00327628385,0.004264584,-0.000136789458,0.0112678632,0.00116650679,-0.0223753229,0.006736537,0.00708793243,-0.000684708,0.0262124874,-0.0284887031,-0.0282941423,-0.011336701,-0.006735138,0.0202435274,-0.01025492,-0.00377570279,0.003419736,-0.00948047452,0.0215401966,-0.01327778,-0.0265960228,-0.02150549,-0.009726044,0.0207590573,-9.43830237E-05,0.00337462965,0.009173598,-0.0201138649,0.0038014967,0.0211266465,-0.006852559,-0.00634002546,-0.0246642884,-0.0167337768,-0.0307420734,-0.0188109651,0.007553721,-0.00230757054,-0.0171810314,0.022218341,0.0234008245,-0.024189299,-0.0259012971,0.0168073736,-0.0123126246,0.00717922,0.0105134789],[0.005788496,0.004412513,0.008950194,-0.00192975916,-0.00478515262,-0.0130276689,-0.0048001227,0.00570110371,-0.00323784281,0.009003023,0.0003531939,0.00390629424,0.00107103353,0.0231456,-0.000815730833,-0.0114643285,-0.01241943,-0.011132421,-0.00379253458,-0.0055583166,-0.0107864887,0.002207432,0.0286251288,-0.01174808,-0.00173389411,-0.0154578136,0.00167654827,-0.0004827267,0.0123134749,-0.0295699667,-0.00393044436,0.006511963,-0.009605803,-0.0041318736,0.00446154457,0.02207922,0.000406887964,-0.0152744576,-0.00534516247,0.0225851778,0.002768621,-0.00554179167,0.004310469,-0.00711886957,-0.00341765629,0.0143717295,-0.015675392,-0.0255489424,-0.02524365,0.00140605692,-0.0185696278,-0.007112712,-0.007791092,0.005742797,0.0146651966,0.008509626,0.0132891685,-0.00444440963,-0.0120465122,0.01833263,0.0118432511,-0.003824602,-0.0181863923,-0.00119991438,-0.009241677,-0.018315969,-0.00499802642,0.009864352,0.009495882,0.0061083273,-0.0345818736,-0.009897733,0.0181273166,-0.0264611784,-0.0128678093,0.004068973,-0.00137445307,-0.0005069302,-0.0144408429,-0.01168672,-0.000287391333,-0.01988107,0.005803494,0.0103859436,0.00323229469,-0.00926331151,-0.0169481542,0.0143316425,0.00562210474,0.0227503479,0.0129579306,0.0006815176,-0.004209637,0.0226456542,0.00486581167,-0.004509514,0.0128997136,0.006449619,-0.008002063,0.0131675806,0.0116192345,0.0136612039,-0.00218585227,0.007898361,-0.00562491454,-0.0123844473,0.01598934,0.0125679914,0.0114362705,-0.0274079386,-0.00427289261,0.007940324,0.008725004,0.00434172247,-0.00472378545,-0.0178788044,0.0185272489,-0.0038090006,-0.02433744,0.01979597,-0.01692654,-0.00545679033,0.00349859218,0.0026675954,0.0355846547,-0.0111375917,-0.0292934347,-0.01856073],[0.011068807,-0.005999226,0.0114227356,0.00320980186,0.00173179689,-0.0128802508,0.00320532359,3.8782433E-05,-0.00417814963,0.0134339612,-0.00274864375,0.0005939779,-0.00497132028,0.0228118226,0.003906476,-0.003670111,-0.0188744646,-0.021476347,-0.00133783289,0.0030129517,-0.0139595624,0.00396704534,0.0331343859,-0.009077156,0.00289755128,-0.0176597945,-0.002950804,0.002194385,0.01922067,-0.0220598374,-0.00267599477,0.005697425,-0.009035493,0.00383747183,-0.007899048,0.0263321511,0.0005656238,-0.0107907029,0.00204983912,0.028926529,0.00449368125,0.00230182474,0.0108741894,-0.00258444343,-0.0130520128,-0.00549280271,-0.002383307,-0.0218140837,-0.02560702,0.00591835426,-0.0135099934,-0.00170496106,-0.004651166,-0.0005306475,0.0116255628,0.00584889529,0.0131341256,0.0034650485,-0.01362158,0.0110551976,0.005907354,-0.008960534,-0.009048848,0.002150498,-0.0136198811,-0.013358905,0.000449836371,0.0198881589,0.009784283,0.0152323823,-0.0209940374,-0.01019414,0.014219651,-0.0269506257,-0.0162629243,-0.0127786258,-0.00340016186,0.005703409,-0.008903742,-0.0124676572,-0.0101611707,-0.02137927,0.00679635676,0.000818543369,5.246854E-05,0.00158731616,-0.0119558731,0.018449029,0.01351191,0.03334724,-0.004822347,-0.0137588922,-0.0101620173,0.013113386,0.00670449063,0.00609628158,0.0165933482,-0.00287768175,0.00198745448,0.00246376568,-0.00324782752,0.00134570384,-0.0147478618,0.00332509028,0.00609145127,-0.008244818,0.01519936,0.0174889956,0.002802726,-0.0130769331,-0.00106961059,0.00364334742,0.019341141,-0.000427557534,0.00690086838,-0.0378715247,0.0191987641,0.004278767,-0.0252235662,0.005076986,-0.00168212166,0.001473336,0.00674391724,-0.00244540675,0.03667264,-0.008877963,-0.0244288445,-0.0188117176],[-0.00470679859,0.0199815929,0.0111403847,0.0292406566,-0.0199595634,-0.0154237868,0.0127214259,0.00462604966,0.008531491,0.0100610536,-0.0139138037,0.0206903126,0.00139486976,0.0112449443,0.0188064072,0.0270180516,-0.0227490552,-0.0139827272,0.009238134,0.00308194151,0.01457866,0.00510408869,0.00724780839,-0.01507214,-0.0144389886,0.006095837,-0.003959745,0.009059041,0.00379482,0.00142039137,-0.0168086365,-0.0150029818,-0.00308277854,0.032390926,-0.0299933422,-0.000589726842,-0.0079282,0.00352351228,0.00148935779,0.0162641965,0.0156298559,-0.0128416978,0.00296332757,0.0123332,-0.005301212,-0.0279358216,0.0114382338,0.008132342,0.0009704158,0.00329887541,0.008337125,0.00594368251,0.0018093359,-0.0304994565,0.01880562,-0.005868603,-0.00277562952,-0.0102559747,0.009482865,-0.0002567102,-0.0088544935,0.0172233526,0.005163529,0.010617028,-0.0120153567,0.0272891521,-0.0192917828,-0.006322294,0.0380434133,-0.00674895477,0.0237055123,-0.0193464942,-0.00143062277,0.0009746569,0.00275393482,-0.0147995865,-0.00522575,0.00666660443,0.007260294,0.011533143,-0.009385795,0.0165702421,-0.004573396,0.0240984969,-0.00341406232,-0.0274377335,0.014909381,-0.00160622993,-0.006228083,0.0290123131,-0.0387587249,-0.0273441039,-0.005408149,-0.0006255621,0.03385499,-0.008856367,-0.00477683032,-0.00202935748,-0.0013310106,0.0230019689,-0.008353956,-0.0341709219,-0.0212820768,-0.009393017,0.0261525325,-0.00675907172,0.0060371994,0.00310527324,-0.0142004928,0.008504559,0.0225544777,-0.0100757005,-0.0202272572,-0.0284675732,-0.0268051028,-0.0287203621,-0.008171708,0.008760419,-0.00119393971,-0.014044757,0.0194433574,0.0333371721,-0.020284418,-0.0301892087,0.009642439,-0.0113317473,0.009713874,0.00326334452],[-0.007133042,0.02134186,0.0159023125,0.02779623,-0.0157924686,-0.0101790493,0.015182144,0.0119634,0.007535174,0.0108306156,-0.0117487861,0.0184515473,0.0108037274,-0.00529928,0.0146011263,0.0289526824,-0.025686143,-0.00768883573,0.00413367525,0.00458147936,0.01544896,-0.0038459145,0.00123420882,-0.016997112,-0.002837018,0.0126555692,-0.01347862,0.007958741,0.009235511,0.009958051,-0.0143654952,-0.0113822175,-0.003251712,0.0251360219,-0.03279834,-0.0067475955,-0.000895864738,0.011046255,-0.002243222,0.01755621,0.00385926478,-0.00852695853,0.00037670703,0.00138666923,-0.004799399,-0.0258848313,0.008313325,0.00685939146,-9.994223E-05,0.005706605,0.00278370338,-0.0014191058,-0.00384819158,-0.0284671672,0.00201223977,-0.01057568,0.000707416737,-0.0110787507,0.006158741,0.003701476,-0.006397708,0.0174731426,0.009151639,0.0150452312,-0.0106868111,0.03750598,-0.028122494,-0.00256778579,0.03258997,-0.00725224,0.0390905663,-0.0153715843,0.00542140752,0.00348657928,0.00652290042,-0.0114005785,-0.006590357,0.01121853,0.0110419253,0.008899207,-0.005230788,0.013390962,-0.00305702677,0.018469302,0.00205527456,-0.0160844456,0.0147625143,0.009172516,-0.009212864,0.013773595,-0.0388592631,-0.03220242,-0.0132940076,-0.006994951,0.0195903331,-0.005702837,-0.009411754,0.000180472271,-0.00384046673,0.0148911318,-0.008425624,-0.03240144,-0.0176868066,-0.009780643,0.01829811,-0.00498553365,0.00338502973,0.007793264,-0.0105931861,0.00193575316,0.0242979582,-0.00375875924,-0.0123021631,-0.0229249727,-0.0257812459,-0.0257049985,-0.0171701945,0.0043054577,0.00561629469,-0.0240741428,0.0212267824,0.03790306,-0.0279367231,-0.0266565885,0.002831791,-0.0139211416,0.003549616,0.01117338],[-0.00639928738,0.01245924,0.0136430347,0.0118019627,-0.00371979317,0.000232086692,0.00310223713,0.0148408683,0.007087252,0.00484469766,-0.00421703141,0.007670062,-6.346158E-05,-0.002802565,0.0174586959,0.0281907171,-0.0168440435,-0.00143936567,0.0100054471,0.0005829613,0.0156492274,-0.006860927,-0.0114711821,-0.0148110567,-0.00545405457,0.009629357,-0.00139144517,0.008945354,0.00484857056,0.0145046273,-0.0166480355,-0.013658856,0.008427906,0.0184329152,-0.02713492,-0.0129112722,-0.00728910463,0.00647698063,0.00469113654,0.00485446258,0.00707994075,-0.00421172241,0.00127048988,0.00521341432,-0.00515465438,-0.0263246633,0.00665798457,0.0157853123,0.0163938273,-0.00066590705,0.0143739441,-0.00124915654,0.008211813,-0.01520902,0.00614905,-0.0110646747,-0.00478912145,-0.01000679,0.0159711856,-0.008277434,-0.01281613,0.0170036238,0.006060508,0.00569724059,-4.23634447E-06,0.0260314476,-0.012903247,-0.0032458927,0.0100172553,-0.0136943031,0.0251123663,-0.0009833715,-0.0100045726,0.007174406,0.00443460466,0.000286697759,4.54407115E-07,0.00124528573,0.0142190661,0.010696209,0.00225328445,0.020321697,-0.004834724,0.0174822658,-0.00261989259,-0.01725417,0.002371191,0.00563173834,-0.0144077437,0.0044569904,-0.02765079,-0.0210490376,0.00114298926,-0.008919495,0.0162493922,-0.0122448867,-0.00923564,0.009686432,-0.005026672,0.00931584,-0.009292954,-0.0219816975,-0.004986364,-0.007082071,0.0177417938,-0.00319504924,0.00182590308,-0.00626805564,-0.0025137593,0.0111815082,0.009223806,-0.00154974812,-0.026151374,-0.0154577112,-0.0168692432,0.00285827345,-0.0152827688,0.00692436,0.011977762,-0.01406422,0.01007576,0.0248564817,-0.0147952707,-0.0231025945,-0.0137125934,-0.0106408289,0.003833105,0.008056846],[-0.00358054321,0.007588609,-0.003808288,-0.009477304,-0.0110636968,0.02524525,0.008544625,0.00314162136,0.0120504051,-1.79786446E-06,-0.00351411081,0.00259865215,0.0007099188,-0.0208472256,0.00657552,0.0008106397,0.0116713429,0.0250084884,0.003661223,-0.01353411,0.0304273069,0.005661341,-0.0366495736,0.0218373574,-0.00515078055,0.0171552468,0.00167423522,0.000954885269,-0.0139645049,0.0218729936,-0.00820345152,0.00359026762,0.0214471,-0.009047434,0.005333285,-0.01912377,0.00129427458,0.02006983,-0.004614933,-0.0278234836,-0.000108168329,-0.008396169,-0.0182030238,0.0162066557,0.0008649608,0.00357764214,-0.007989262,0.0238619875,0.03959205,-0.0119822314,0.0285800677,6.287542E-05,0.0180220287,-0.00284550642,-0.0058505,-0.011850208,-0.0103474567,-0.00626374967,0.0309789535,-0.006861441,-0.0194792561,0.009764781,0.0178683959,0.000476886024,0.0239387937,0.01460631,0.008061958,-0.0225233324,-0.0189858768,-0.00113991241,0.00996354,0.01585632,-0.0199818015,0.01630902,0.0138218915,0.018987339,-0.00407992164,0.00714395335,-0.00124233158,0.009283997,0.00571713457,0.02583093,0.00580594,-0.00367333624,0.00346765132,-0.00303620845,0.0033879343,-0.0191666372,-0.0161656719,-0.041300755,0.008899897,-0.00146851514,0.009270658,-0.027797427,-0.0109646656,-0.00533614727,-0.009938516,-0.0048185843,0.000155938513,-0.005680622,0.00279764622,-0.00110413344,0.0233478732,0.00756600127,-0.006420979,0.0101665407,-0.02159084,-0.0257768426,0.008584577,0.0213460773,-0.00575519446,-0.0149056278,-0.0262294468,-0.00557881733,-0.00770152966,0.0367946625,-0.007212636,-0.00348334,0.01800422,-0.00715337042,4.884112E-05,-0.00745438738,-0.000752253865,0.00308931037,-0.0262776818,-0.002078049,0.01166921,0.0154809691],[-0.004633038,0.0009920299,0.00217158347,0.000430869841,-0.0103865005,0.01738822,0.00709809177,-0.00196280633,0.0160451718,-0.008255964,-0.0032907743,0.00095828413,0.000788336736,-0.0186432488,0.009191604,0.01897103,0.000376109616,0.0176161621,0.00669364072,-0.0003114863,0.02325338,-0.00609451439,-0.0398949981,0.007288908,0.002693147,0.01951034,-0.00237749657,0.00553813158,-0.0133955777,0.0223443359,-0.000931609829,-0.007815134,0.01750011,0.007033461,-0.005424817,-0.0199557748,-0.00429250952,0.0126400553,-0.00423056353,-0.0251993146,0.00589726446,-0.00317226024,-0.008564624,6.55092026E-06,0.0103678433,-0.01642981,0.00632529,0.0187951922,0.03796984,-0.00017366567,0.019703323,0.000334615121,0.0206111819,-0.007114358,-0.0132136531,-0.009790784,-0.007197803,-0.004063355,0.03287787,-0.0141064841,-0.0142423762,0.0130693736,0.0125262458,-0.000837715459,0.0213543549,0.02649795,-0.00148467661,-0.0179514382,-0.0104041649,-0.0112577872,0.0245869346,0.00276856846,-0.0144148506,0.0206370559,0.0160209537,0.00277549447,-0.00606568065,-0.00133850472,0.01097416,0.00486064376,-0.006893136,0.02423186,-0.0007276697,0.00663222559,-7.59332761E-05,0.000106687381,0.0129467566,-0.011155637,-0.0172775257,-0.0215164628,-0.00292572239,-0.00131173723,-0.00227428135,-0.01723948,-0.00123325444,-0.008722241,-0.0164128356,-0.00388190034,0.007048667,-0.00296318741,-0.00274820719,-0.008929716,0.009985245,-0.004626972,0.007938828,0.007224207,-0.0116469609,-0.01804624,0.00274426071,0.02393672,0.004399115,-0.0154704964,-0.0288637057,-0.009274894,-0.0006013079,0.0250031613,-0.0215972271,-0.00146713539,0.0253839046,-0.0164696053,0.00939477049,0.0126629844,-0.0141976494,-0.0147874746,-0.036053367,-0.005643891,0.0237903576,0.0172428321],[0.0032831796,0.0152593479,0.00579378242,0.0225907359,-0.011553132,-0.00491136173,0.0071470174,0.0202032477,0.00215410371,0.0137948748,-0.0188487079,0.014610636,-0.005525467,0.004927841,0.0193129145,0.0136800846,-0.007844174,0.00509455055,0.0134684239,-0.0143489661,0.0268207286,0.0029104338,-0.0152848242,-0.009386325,-0.0107596694,0.0111833438,-0.00233098329,0.005791197,0.0035118314,0.0032053215,-0.0128856758,-0.009900892,0.000901909661,0.0267344825,-0.0231184736,0.006783075,0.00162942882,0.01029598,-0.0008576722,0.00425295951,0.018044522,-0.01789708,-0.00478325551,0.008935977,-0.003277128,-0.0167483762,-0.00485035125,0.009945229,0.00537420949,0.00182650122,0.008558384,0.002463493,0.00511632534,-0.0245810375,0.00575560052,-0.000155117566,-0.00942258351,-0.0153810689,0.0185592659,-0.003448734,-0.0107235964,0.01725639,0.00704814726,0.01034743,-0.0105815409,0.0259677377,-0.01617333,-0.005512765,0.0247166324,-0.0056061754,0.0263610017,-0.004453361,-0.00352546386,0.00134988921,-0.005083484,0.0007951478,-0.0137317088,0.008955778,-0.006799358,0.008973083,-0.0126829725,0.025686156,-0.004565481,0.01804901,-0.0052381577,-0.0164974183,0.003460978,0.00743289851,-0.0140543981,0.000700913952,-0.0309607442,-0.0242854431,0.000872035453,-0.0169135872,0.0168310627,-0.0144004114,-0.004299744,-4.648652E-05,-0.002687789,0.017689256,-0.0122992937,-0.0246357583,-0.00701842224,0.000559521257,0.0187091343,-0.009993118,-0.00257797,-0.00641758135,0.00321273645,-0.005444709,0.02126833,-0.0125028035,-0.036155425,-0.0264776237,-0.0305506941,-0.00198858883,-0.00167632871,0.00446663238,0.009230055,-0.00935500953,0.00436459,0.023051016,-0.0234508961,-0.0127328951,-0.00164606993,-0.00606803969,-0.00369800627,0.005794443],[0.004045334,0.014985824,0.0108079035,0.0176876765,-0.0145415934,-0.01535343,0.0050528734,0.00792478,0.0104042506,0.00561162643,-0.00539172161,0.008260425,0.00112160027,0.00127460761,0.0178312827,0.02185143,-0.02336737,-0.006295557,0.00208522729,-0.00113865884,0.014149514,0.0009013238,0.0006471504,-0.02225292,-0.0135329049,0.0158682726,-0.00364460447,0.009158633,0.0104200821,-0.00757112866,-0.0130825862,-0.0155032771,0.00311891246,0.0243505724,-0.03887835,-0.0037898263,-0.01093022,0.010635525,0.000629579,0.0129043888,0.0146408724,-0.0125906263,0.00786589552,0.0100628119,-0.0132324612,-0.0224204138,0.0112642292,0.0122810947,0.001927625,0.009461749,0.006855383,0.00188795687,-0.006814291,-0.0283109657,0.009773641,-0.005278326,0.00352891325,-0.01425074,0.002634247,-0.00669436064,-0.0125978179,0.0140470816,0.00257509737,0.01472488,-0.008903285,0.0366712026,-0.0258532185,0.0004841576,0.0327609666,-0.005100686,0.0270711519,-0.0109641068,0.00777344732,0.008334893,0.005954392,-0.0247610211,-0.00315139815,0.0121879037,0.0155737028,0.003851432,-0.004802261,0.0116307838,0.004439746,0.0244890563,-0.009654231,-0.0280214548,0.00253379671,0.008973198,-0.00123227655,0.020926686,-0.0356146879,-0.02256041,-0.00812313147,-0.0002943449,0.0232890528,-0.008652714,