{"Layers":[{"ClassName":"Layer","Content":{"biases":[-0.129825786,-0.00676990068,-0.0517904125,0.00620382372,-0.0253351014,-0.014679593,0.004290046,0.003277715,-0.112107061,-0.1007343,-0.0242866687,-0.008528503,-0.0467497],"useBias":true}},{"ClassName":"ActivationLayer","Content":{"biases":[-0.01386666,-0.00683732,-0.0120978151,0.000480895978,-0.0143429134,0.03903641,0.00103204756,-0.0208536182,0.0258828811,-0.0154063376,-0.00496407,-0.0109195169,-0.0113474457,-0.03849948,0.00588445039,0.00116535928,0.0078708455,0.0377898142,0.00663209,-0.0006976368,0.0126071526,0.004012794,-0.07796955,0.0333800279,-0.005621274,0.0182229783,0.00121079711,-0.0004555881,-0.0290015452,0.0535172224,0.00166441174,-0.0137497513,0.0297863837,-0.01354625,0.009195489,-0.07020671,-0.000371155038,0.01850699,-0.00112587516,-0.0736046061,0.000106549029,-0.0184247643,-0.0223112088,0.000174229,0.00648647454,0.006534224,0.0288407262,0.068644084,0.0561455749,-0.00109553128,0.03208069,0.0248402748,0.0367658176,0.0016804107,-0.0140642533,-0.0200356115,0.004566882,0.0119866775,0.04353096,-0.00606145,-0.0124007715,-0.0131801814,0.02233378,0.009469192,0.0503029749,0.008814183,0.01656383,-0.0396058336,-0.04137871,-0.0138567425,-0.00741886161,0.02772821,-0.0239007082,0.0261129234,0.0148376869,-0.009131031,0.004374068,0.0115194852,0.01885342,0.0231526885,0.01501766,0.0168533642,-0.00582695939,-0.00805246,-0.01119175,-0.004283079,0.02763934,-0.0193371326,-0.02393006,-0.0363601223,0.0300216824,0.0165153164,0.0101483986,-0.00129560358,-0.0180249661,0.004338872,-0.00601265533,-0.005508794,0.0212916769,-0.0094763115,-0.00166545052,0.0114993695,0.0257919468,0.00332092284,-0.0114489449,0.0430926569,-0.03169121,-0.05309622,-0.008018208,0.0601516627,-0.0135678826,-0.009985646,-0.0157349817,0.02129825,0.02963483,0.06782148,-0.0490962267,0.0206744112,0.0311774649,-0.00700170128,0.0328795165,-0.0206734687,0.0185268559,0.001943936,-0.05858414,0.0157434773,0.03131347,0.0299864467],"useBias":true,"func":2}},{"ClassName":"ActivationLayer","Content":{"biases":[0.0238772538,-0.0458017923,-0.26000163,0.0269345362,-0.079669565,-0.00199222472,-0.1498777,-0.158945054,0.184900045,-0.044511918,0.112532809,-0.005607316,0.233645573,0.0245325621,-0.044296395,0.0570193976,0.106117986,-0.213151813,-0.042488,0.183246374,-0.0566262528,-0.133818179,-0.00990577,-0.103078008,0.267178237,0.0152654806,0.0132587086,-0.130599082,-0.09188176,-0.160894424,-0.0158955082,0.232916325,-0.04978553,-0.00409800373,-0.180511877,-0.0808225349,0.05407402,0.025476804,0.09060792,0.164259613,0.162936255,-0.0544657335,0.0446848162,0.035750404,-0.009529106,0.2645066,-0.114411704,-0.0456713177,-0.111224912,0.238509044,0.009047645,-0.09616853,0.106501237,0.2084284,-0.101919405,0.0111115109,0.10378658,0.009064451,-0.0250602216,-0.153382763,0.07584662,-0.2004919,-0.0896828845,0.2876244,0.0503012277,-0.115068041,-0.160213828,-0.128821641,-0.0380375125,-0.06407175,-0.045504164,0.07306023,0.171200514,0.0456411541,0.0499129966,-0.221103057,-0.08525945,0.02485401,0.1268903,-0.06343692,-0.018108096,-0.119447105,0.021854654,-0.0195744224,0.0441056378,-0.02549063,0.0860029757,0.0723666847,-0.0794098452,-0.020385623,0.120044343,-0.03774456,-0.0225353353,-0.0339719,0.0528059527,0.02795756,-0.0157344826,-0.265111327,0.0298117548,-0.3159129,0.1260676,-0.02207954,-0.130158231,0.0720313,-0.0868431851,0.006842459,-0.00490681129,0.17668198,-0.137740716,0.004256891,0.042681884,-0.08346294,-0.00447745668,0.1807712,0.126238465,0.04853797,0.0885295644,-0.0460059941,0.00160389266,-0.1581479,0.0102849407,0.0243655555,0.150382653,-0.05240459,-0.0205518287,-0.188615337,-0.0213609878,0.01205666],"useBias":true,"func":2}},{"ClassName":"ActivationLayer","Content":{"biases":[0.0934574157,-0.061002735,0.372090816,-0.3005629,-0.234604433,-0.363094717,0.426938862,-0.0439163,0.261891574,0.278896153,-0.1286636,0.0893558562,0.34922,-0.207364023,0.0487513021,0.115145862,-0.175248936,0.213537946,-0.12932153,-0.269694865,0.1258715,-0.0172106959,-0.2572588,0.0743179247,0.035122674,-0.00633451,-0.0231081024,-0.202561826,0.0445561148,-0.03662601,-0.4168884,0.200193018,-0.229628935,-0.0395168364,-0.04759826,-0.319558531,-0.181008384,0.287197918,0.0988559052,0.0471568629,-0.207860708,-0.06147157,0.08502377,-0.373746365,-0.2913209,-0.144369856,0.05219126,0.11355003,-0.01547373,-0.372061074,0.05845931,-0.07600777,0.09686657,0.303331465,-0.222233489,0.355519652,-0.1801588,-0.0439242832,-0.0108020753,0.305223137,-0.118846565,0.323191881,0.0004483057,0.0703278556],"useBias":true,"func":2}},{"ClassName":"ActivationLayer","Content":{"biases":[-0.267735541,0.06414873,-0.1487228,-0.04413346,-0.364468575,-0.128527611,0.8061183,-0.273157835,-0.0246991049,-0.338907182,-0.288872719,-0.183904335,0.5251389,-0.566883445,1.39452839,-0.159592882],"useBias":true,"func":6}}],"Weights":[{"ClassName":"DenseWeightMatrix","Content":{"matrix":[[0.0447663963,-0.01826164,-0.07414063,0.0330419242,0.0131256692,0.0008329092,-0.043088004,0.0182813574,-0.0137928184,-0.02420982,-0.04159161,-0.0117578367,-0.006946027],[0.0452668965,0.157408714,-0.0296151545,-0.0479227677,-0.061866153,-0.03795504,0.0674011856,0.00135084207,0.0731514841,0.0427175,0.132215351,0.004767962,-8.151377E-05],[-0.020830676,0.0254900586,-0.0786401,0.0109493425,-0.0231988821,-0.005916684,-0.0033330638,0.008613084,0.0372811928,0.0462467372,0.0436987542,-0.0284408648,-0.0201472975],[-0.04161521,0.2600366,0.06374329,-0.0645505339,-0.0254053026,-0.04919448,0.04477888,0.02220429,0.0167247858,0.0376957469,0.09376547,-0.0390437432,-0.0100137964],[-0.0291692261,-0.0324894674,0.0288528074,-0.00438246038,0.0351807028,0.03225675,-0.0171841513,-0.00723205041,-0.04281687,-0.0428856425,-0.103442319,0.0306255762,0.0160602555],[-0.143408254,-0.009041424,-0.04670776,0.01451021,-0.019139301,-0.0356087759,-0.00408378663,-0.0631276,-0.0526315942,-0.0525578335,-0.0438566655,0.05289521,0.0181499384],[-0.05552934,0.152743965,0.0490611158,-0.0621473677,-0.03059825,-0.0377858281,0.05833487,0.0191267468,0.0237473752,0.0337854,0.0862441,0.0128542762,-0.00752254343],[-0.117751069,0.2507601,0.107625321,-0.102057807,-0.03167155,-0.00291155558,0.0765852556,0.0261279922,0.06797846,0.06386814,0.156008437,0.115460932,0.0164017733],[-0.0370815545,0.00459618447,-0.0165555347,0.06949588,-0.014065031,-0.00411327742,0.00668842439,-0.000120609067,0.000188982172,0.00647518365,0.0357586965,0.06654855,-0.01909924],[-0.0175118819,-6.03032749E-05,-0.0824278,0.0144330328,-0.0110299643,2.68414569E-05,-0.012697407,0.00203905348,0.033614222,0.0392709449,0.027694352,-0.0266639087,-0.0168849565],[0.0504507273,-0.139619187,-0.0275696535,0.0578945279,0.0243953615,0.05105574,-0.04323361,-0.008421137,-0.0353665054,-0.0305960122,-0.101178244,-0.0174546465,-0.0005625432],[-0.024305677,0.174126655,-0.0269687381,-0.0434796736,-0.0377357043,-0.0235640686,0.0439745449,0.009697335,0.08123539,0.06504307,0.1388185,-0.0194962583,-0.00134345132],[-0.0242306758,0.06366152,0.0764174759,-0.0667005852,-0.0246420018,0.0009014866,0.05816572,0.02332725,0.0254283641,0.0258865356,0.08134725,0.0341817252,0.0139356665],[0.0405598134,-0.04819541,0.0856993,0.00338673545,0.0261079464,-0.0123530878,0.000286469061,-0.0273137745,0.0497865044,0.0418536738,0.00551640568,0.0920263156,0.0164997727],[0.1217641,0.130827427,-0.0537105352,0.0127034727,-0.0421260372,-0.0359323137,-0.00385927,0.0035081862,0.0334489569,0.0153964274,0.0822985247,0.053807985,-0.0443413556],[0.0247830618,0.143689752,-0.0343634076,-0.0269863028,-0.0449425951,-0.02193636,0.06325308,0.0181176215,0.009502666,0.02638685,0.06828508,0.03389039,-0.0365075171],[-0.139403075,0.000803579867,0.01913063,0.09246115,-0.008805794,0.0124303894,-0.0184901636,-0.05812676,-0.0407775342,-0.0314220674,-0.0523352139,-0.00699901069,0.0122656645],[-0.0603430457,0.0565191619,0.005032193,0.006106325,-0.00729798572,0.0171398781,-0.008692399,-0.00269886,-0.08654985,-0.07594923,-0.0329237767,-0.00145567383,-0.015010043],[-0.06467552,0.1394536,0.0500412025,-0.07257669,-0.0264046174,-0.0380402766,0.0574480668,0.00225201552,0.03836993,0.033366017,0.103775106,0.0281980541,0.009194309],[-0.00632473,-0.0109581,0.0409448929,-0.0108523294,0.009645807,0.008883835,0.02678012,0.0149385175,0.007467029,0.0147388931,0.0295603778,0.0317456126,0.0172584634],[-0.031959407,0.05819132,-0.08636181,-0.008959523,-0.03289362,-0.008614836,-0.001559445,0.00219154148,-0.0118281012,0.00136705372,0.0145456791,-0.138425767,4.267748E-05],[0.007826502,-0.0375629477,-0.00380191952,0.00287397718,0.0105159348,0.007036338,-0.0200494453,-0.00292526255,0.00234580436,0.00338870031,-0.0117411921,0.008545231,-0.005130935],[0.0143384812,-0.0426886529,0.11216864,-0.137662828,0.113508835,0.018751,-0.0004920329,0.00373572437,0.1256941,0.09951959,0.0184023213,-0.07239265,0.04579206],[-0.09561902,-0.093582496,0.0108853485,0.00689649861,0.02106587,0.006375018,-0.0118211433,-0.05043546,-0.0474303328,-0.027106829,-0.05545671,-0.04955852,0.02481705],[0.03541781,-0.173771083,-0.01208963,0.05672596,0.02558489,0.039456,-0.0525001436,-0.01172927,-0.0438097268,-0.0435207449,-0.116804078,0.008375313,0.0146886017],[-0.027171459,0.06318368,0.07744625,-0.0289518069,-0.0347360224,-0.009773526,0.0263924561,0.008691504,-0.004481408,0.00782567,0.0499592237,-0.120301582,-0.001370668],[-0.0517293438,0.008215171,0.006940688,-0.008278633,0.01966249,0.0130790751,-0.0226734411,-0.005744333,-0.04397046,-0.0391536839,-0.0561091676,0.0204629432,0.0197906513],[-0.0384947658,0.0323557965,0.06577428,-0.03392568,-0.00614869641,-0.010724647,0.0280261245,-0.00688573439,0.02758578,0.0290873088,0.05257276,0.0117876371,0.0167742018],[0.11104355,0.0210636649,0.00333967758,-0.0297930315,0.00763960229,0.0212891046,-0.01121704,0.0690835044,0.02379894,0.0158934351,-0.001710837,-0.01598127,-0.04066854],[-0.06490869,0.0679086,-0.08915959,-0.00299329823,-0.0396983474,-0.00705081969,0.00198439672,0.03368856,-0.06859495,-0.0531490073,0.00493941875,-0.09443412,-0.0270366],[-0.09444046,-0.1124658,0.03695932,-0.006140852,0.0313526839,0.0263144951,-0.00647689542,-0.00125155377,-0.0349572673,-0.018260397,-0.07314882,-0.06252832,0.0280408077],[0.00165040675,-0.0955619141,0.0206517186,-0.01736839,0.06722306,-0.00277313986,-0.0401944,-0.0164742358,0.008152118,0.01447572,-0.0594586357,-0.0495758876,0.0277950615],[-0.0333789624,0.109865762,-0.010261151,0.135108873,-0.0123200454,-0.01655453,-0.0282188319,-0.009129524,-0.03846973,-0.04247853,0.00263793021,-0.01975878,-0.0282350425],[-0.05586319,0.213687614,0.0584972426,-0.07917874,-0.009069104,0.00643864553,0.07895594,0.0284798481,0.0542047471,0.0437088571,0.104302235,-0.0603361465,-0.0008762653],[-0.03937798,-0.159719557,0.00200367533,0.09856713,0.0578628965,0.06398573,-0.004848398,0.0292058755,-0.04365155,-0.04889486,-0.07103424,0.03522878,0.03354859],[-0.0176269487,-0.0541982576,-0.09744109,-0.0369917266,0.0549391359,0.0129373176,-0.04337936,-0.0144028161,0.08221353,0.0717231,-0.050662782,-0.0131975729,0.0152269583],[0.0355136357,-0.120564416,-0.03217803,0.03424914,0.0254208948,0.0186173487,-0.0333467,-0.0178008135,-0.0130581688,-0.0180586465,-0.0716468841,-0.009163105,-0.005515452],[-0.0489636846,0.05307097,0.0263266079,-0.02588593,-0.03679357,0.0199916232,0.0126728974,-0.0423574075,-0.0360585526,-0.04382894,0.007553793,0.05139342,0.007770496],[-0.0872043446,-0.0152433608,0.0111202607,-0.0124602709,0.00219793478,0.00360626332,0.0139502175,0.0136767766,-0.00247361232,0.006790748,0.00207988266,0.0106758969,0.0132957725],[0.120179981,-0.007724641,0.0374125578,0.05618513,0.0174797624,-0.0190272443,-0.0212712139,0.007997795,0.100127034,0.08760513,0.08567798,0.0197930448,-0.009373746],[-0.130243108,0.263365477,0.117274188,-0.102286637,-0.0336865932,0.006576528,0.06820666,0.02621786,0.07404897,0.0587806,0.166240633,0.133035377,0.00491389772],[0.0214121975,-0.09041807,-0.004608,0.0235701185,0.0197577663,0.0400359035,-0.03387138,-0.009481566,0.00614388241,0.00656287652,-0.03599014,0.00960539,-0.002721421],[0.06470058,0.02341459,0.0175030828,0.0199537445,0.02272884,-0.04340449,0.00466538034,0.01096216,0.06035099,0.0390417725,0.0463555,-0.0320994928,-0.0267073624],[0.00938624,0.08504416,-0.0158687923,-0.0159238912,-0.03760924,-0.0437366851,0.03662795,-0.0077392906,0.0413503423,0.03692452,0.0874080062,-0.0006622343,-0.00913880952],[0.0202158,-0.009032104,0.08054085,-0.0180541221,0.00691154553,0.0007030087,0.00237172982,-0.000361639279,-0.0374138765,-0.0348496921,-0.03265408,0.0267756488,0.0175476],[-0.00335026532,-0.197273284,-0.000211905659,0.07927384,0.0256226547,0.0430399738,-0.07616725,-0.030752033,-0.0115411095,-0.0311981663,-0.07104556,-0.0416012369,0.0124475416],[-0.0260057636,0.0301785674,0.089073725,-0.054930374,-0.0397559777,0.00450079935,0.06021416,0.00529888831,-0.000695201,0.0104908161,0.08366668,0.0181209575,0.0370928645],[0.02713101,0.146207228,-0.0424614735,0.009004925,-0.0803112239,-0.0412746221,0.02477286,0.0162279718,-0.05254122,-0.05869885,0.06330458,0.0433676019,-0.0294687785],[-0.0627737939,0.06545288,0.006845538,0.00200244528,-0.0919941738,0.0228030737,-0.00103465072,-0.0299262851,-0.112890884,-0.112592518,0.008185485,0.00502914842,-0.0151199307],[0.0123904226,-0.008334902,0.0580125861,-0.01385964,0.00174122769,-0.00132599985,0.0177408177,0.009896768,0.0222589448,0.0260494668,0.02635846,0.0466033369,-0.008154145],[0.0379742458,0.169650689,-0.0531871766,0.015695354,-0.0574324131,-0.0410870165,0.0195423681,-0.00601591729,-0.04635514,-0.043631997,0.0554586872,0.0285896249,-0.0385728031],[-0.0489894263,0.005322535,-0.0214590337,-0.0201072674,-0.0157708526,0.0143164573,0.00364145986,0.0166575518,-0.03837961,-0.0308785215,-0.004518642,-0.009554889,0.00339571643],[-0.0381805524,0.0366045423,0.0047722226,-0.000831379031,-0.02462577,0.0209864471,-0.009691664,-0.0162204169,-0.07808313,-0.06746203,-0.0320753753,-0.00301058986,-0.008486743],[-0.0314214043,-0.144356981,0.0213568881,0.06638036,0.05159931,0.0344927348,-0.0544918738,0.019711595,-0.0527611934,-0.06451808,-0.09444859,0.009207767,0.007902677],[-0.0220725071,0.0140639134,-0.10059844,0.024507001,-0.007699497,-0.0137527408,-0.00372101855,-0.0124682449,0.05022266,0.0365292579,0.0418824628,-0.03549849,0.0009654962],[0.0228358153,0.007962712,-0.100521922,0.03865808,0.04483573,0.00329407142,-0.05950182,0.0246924255,-0.005258042,-0.0181175657,-0.065392,-0.0210871454,-0.0376854949],[0.06633975,-0.0230489951,-0.0837788954,0.02797798,0.008155759,0.0121735828,-0.0282114018,0.0219165683,-0.005229153,-0.01936243,-0.02179605,-0.0317977853,-0.00578659168],[0.120480262,-0.253996164,-0.106785521,0.118858673,0.0313739851,0.0103850523,-0.06789921,-0.0206933748,-0.0699501857,-0.0481108427,-0.153812,-0.08764216,-0.00171623612],[-0.0459344871,0.0494285151,-0.0901198,-0.008087546,-0.0243093651,-0.0051905415,0.004424225,0.0126050673,-0.06075302,-0.0368720964,-0.00155005313,-0.102137983,-0.00174602633],[0.1161196,0.0198531412,-0.0114958193,0.0140629094,-0.0028114256,-0.00284331734,-0.0149837043,-0.0318110548,0.003848654,-0.00700602634,-0.00174324727,-0.0149310641,-0.002113535],[0.02184598,-0.06536124,0.08113126,-0.0263623577,0.03809039,0.00306841964,-0.005328775,-0.0291298628,0.00806284,0.00306557887,-0.03350031,0.107871495,0.0316853859],[0.0217451025,0.166209221,-0.01510235,0.0184692275,-0.07835643,-0.0560545325,-0.00304711424,-0.0228178687,0.06053887,0.04838115,0.1144199,0.064759016,-0.0418416224],[-0.0151328528,0.04413932,0.03865612,-0.0543115251,-0.101724543,-0.0104697309,0.0013848535,-0.0180991478,-0.03841449,-0.0474274643,0.03166552,0.0698235556,-0.0520726256],[0.0190066323,0.08069194,-0.0217977017,-0.0354059674,-0.0368430056,-0.0590648539,0.0388205,-0.02636106,0.0244960468,0.0228960849,0.08442452,-0.00467772176,-0.004137273],[-0.0435735732,0.03926655,0.00450792769,-0.00501690339,-0.05947012,0.0196501724,-0.009499281,-0.0180783514,-0.0936655551,-0.07727755,-0.062820375,-0.00244754669,-0.0176788066],[-0.01454652,0.280065835,-0.01604053,-0.0888785645,-0.06987799,-0.0131003056,0.08683954,0.013383368,-0.005650738,0.0121422941,0.0752537847,0.0708645657,-0.01831048],[0.08037212,-0.220963448,-0.0946826,0.102933675,0.01867036,0.034640532,-0.06652817,-0.0226558112,-0.0303358529,-0.043280106,-0.09214813,0.00323548866,-0.01226437],[0.0369028039,-0.107560344,-0.004195942,-0.131408677,0.01317765,0.0150283491,0.03535611,0.01738678,0.0552840419,0.0480205864,-0.009163728,0.01546236,0.03471922],[0.0180221424,0.165962443,-0.004843131,-0.114344984,0.01265441,-0.07750263,0.0295706149,0.00646323,0.0488156639,0.05495184,0.06151437,0.00220899982,0.01689579],[0.0498959422,-0.0170381721,0.125570863,-0.057826113,0.0576359853,0.00788615551,-0.0277886223,-0.0474030748,-0.0178491827,-0.0266554877,-0.058970008,0.0586089231,0.024831377],[0.07230806,0.1725793,-0.06614373,0.0568315648,-0.0551539175,-0.0297654569,0.0334454253,0.04702047,0.009670916,0.0232587084,0.08052454,-0.05938337,-0.0439427048],[-0.125206158,-0.00333506172,-0.044461064,-0.0102961212,0.00196279539,0.0386274457,0.009387246,-0.0170424432,-0.04870199,-0.032812383,-0.0371782146,0.04972458,0.00345913414],[0.04341817,-0.09919916,0.0150164934,-0.1222159,0.02117898,0.0347613432,0.04884697,0.019110173,0.04894523,0.0334619172,0.012444065,0.008857059,0.03425155],[-0.0560195222,0.0599769056,-0.0820206,-0.0017560455,-0.0326902568,-0.0105488012,0.008507217,0.0315427966,-0.0486851223,-0.0363619141,0.008064101,-0.09588779,-0.0334120579],[-0.0516780056,0.02325789,0.04386284,-0.00706007238,-0.006148535,0.003568918,0.0237002615,-0.01887169,-0.0159852169,-0.0014684255,0.0251754746,0.0178984441,0.0144454679],[-0.04169715,-0.0482665971,-0.097328186,-0.0385991521,0.00212691538,0.0191129763,-0.04775337,-0.0219804253,-0.0358838625,-0.0130551374,-0.0568473972,0.0247278381,-0.003492346],[-0.07690505,-0.029896507,-0.008649553,-0.0313850753,0.01704134,0.0569047853,-0.006715356,0.022066839,-0.04924329,-0.0384453423,-0.07837421,0.0547980964,0.0237186868],[0.0152903674,0.07763144,-0.0178028531,-0.0305363163,-0.03564593,-0.0550344363,0.0361342356,-0.0157643557,0.0267980266,0.0220831446,0.0848171338,-0.004547511,-0.00251891371],[0.0350796431,0.07157695,0.07553108,-0.0225368664,-0.056372,-0.0175883621,0.08650456,-0.000292220124,0.0215941984,0.020764526,0.113617733,-0.06310052,0.0225343723],[-0.08811158,-0.007690111,-0.09289018,0.0844728053,-0.0499697141,-0.00530172465,0.0137736686,0.0492911451,0.0196447764,0.0300059188,0.07835682,-0.0221314561,-0.0426133946],[-0.04591941,0.00752498,-0.00529956724,-0.008172631,0.000855439343,0.0157739054,0.00232891,0.00676641567,-0.0334659778,-0.0281305183,-0.02673476,0.00704251928,0.0151511952],[-0.033747714,0.06647754,-0.09921998,-0.005539437,-0.03427403,-0.0107107516,-0.00454591,-0.0102903834,-0.01607981,0.008748644,0.0149142221,-0.148215428,-0.02094057],[0.08988704,0.011956891,-0.01485912,0.0153804561,-0.0020662318,-0.00761951972,-0.0144255646,-0.0110672228,0.00386358867,-0.0101753129,-0.0116472188,-0.01088197,-0.0100860028],[-0.105278984,0.220273778,0.1097859,-0.125954732,-0.0212914161,-0.03405328,0.0397740528,0.009446004,0.0495524444,0.0499728769,0.109947324,0.0274881385,0.00167828391],[0.07346842,0.0149024017,-0.007173153,0.008245952,0.009870861,-0.005021844,-0.0175332315,-0.0285842214,0.00366242626,0.00146703911,-0.0264257174,-0.00173889054,-0.00491322856],[-0.0242554,-0.117311366,0.014142897,0.0705316439,0.0408476926,0.0595992,-0.0200313888,0.0199987739,-0.03493421,-0.0345242433,-0.06852211,0.009733156,-0.00146982877],[-0.115412466,-0.0195176378,0.0153346574,-0.0134980641,-0.011397697,0.00189488044,0.0268908031,0.0428529531,-0.006203221,0.005846497,0.0212728661,0.00967284,-1.58047169E-05],[0.05453939,-0.0437788069,-0.053893175,0.009767087,0.02053112,0.012107959,0.0245807972,0.0152205229,0.0362279378,0.0339339972,0.0143558234,-0.05117604,0.00203107623],[0.116357289,0.0389914624,-0.000790289138,0.0268045086,0.04352312,0.0156420488,0.0258884914,-0.0116667813,0.004993745,-0.00313588814,-0.0109358113,0.00155246072,0.00033839306],[0.184153274,0.04303141,0.006078041,-0.0159644876,0.0199542176,-0.0102737825,0.0183061436,0.06450494,0.078160584,0.06618737,0.08387861,-0.0428434946,-0.0335525051],[-0.0367737524,-0.168091863,0.0410338864,0.06187119,0.0625387356,0.03123203,-0.1014483,0.004847087,-0.08093248,-0.08636767,-0.138195127,0.02197952,0.0330005549],[-0.0331857838,-0.1358169,-0.0038107126,0.07292587,0.040980842,0.0431122445,0.009801008,0.020512728,-0.0392307751,-0.0596641563,-0.07582434,0.0488735922,0.02839588],[-0.0308033954,-0.0515001975,-0.0359186232,0.03407345,0.00303856423,0.00308568636,-0.0373259075,-0.03694251,-0.06257095,-0.05085765,-0.08658403,0.009144652,-0.00147385662],[0.0599131025,-0.149836481,-0.0116837677,-0.0163706467,0.0289312564,-0.0049521164,-0.0111717358,-0.00244994787,0.0153233521,0.00239859126,-0.0190479755,0.0610348471,0.01950144],[0.171656191,0.00559300929,-0.0169838369,-0.08789044,-0.0364832021,-0.05172938,0.0008838696,-0.011895176,0.0557355,0.0474906825,0.0704590455,-0.00102066633,-0.0317877531],[0.0501263142,-0.123386122,-0.0252920631,0.0450227633,0.002436891,0.0226918329,-0.0282092653,-0.0057022986,-0.0283335578,-0.0170128029,-0.0499258824,-0.09048569,-0.00597757939],[0.0117163341,0.00146187539,-0.117708586,0.0447296165,0.03456138,0.0111571653,-0.07488485,0.0209498275,-0.0155161582,-0.0371390767,-0.0827789456,-0.0211786721,-0.0105802584],[0.06393936,-0.009815884,-0.00917783,0.007123147,-0.0167668741,-0.03153297,0.0126207909,-0.00539373,0.0480709225,0.0502948165,0.059347745,-0.0224210471,-0.016251225],[0.03479225,-0.111971542,-0.0355869047,0.0387823731,0.00617111847,0.0279426333,-0.0201334767,-0.0145742428,-0.0145798707,-0.0189452581,-0.05439074,-0.00265335036,-0.002135883],[0.128201187,0.004461658,-0.0243786052,-0.0649976954,-0.0256622676,-0.0464845672,0.00490035769,-0.0171601251,0.0471803434,0.0383932739,0.0623961166,0.00668871542,-0.0288527478],[0.09164883,0.01576339,-0.01336604,0.01157139,-0.0113718705,-0.0119901579,-0.006790826,0.0006037934,-0.005525529,-0.014041692,-0.02232929,-0.00231946958,-0.0124539472],[0.0446480028,-0.3177686,-0.06959778,0.06348006,0.03996348,0.02172983,-0.07079825,-0.0227459371,-0.0295435544,-0.0332397558,-0.119046777,0.0361217,0.00125301466],[-0.0588319562,-0.08674496,-0.0321741477,-0.0782341957,-0.0192056112,0.03657003,0.004277856,-0.0206962917,-0.05968508,-0.0531378239,-0.0664169937,0.0106268693,0.008446423],[0.0931415558,0.015452222,-0.0146082873,0.01335362,-0.00555564044,-0.0009377673,-0.0118378475,-0.009098338,-0.00496421661,-0.004656063,-0.0201265477,-0.00761104049,-0.0190573577],[0.029234495,0.121617645,-0.0119718509,-0.0681157261,-0.05468657,-0.0468478054,0.0150102181,-0.0158035,0.04600509,0.0519108362,0.0789258555,-0.01337767,-0.0169091448],[-0.07119175,-0.009581378,-0.0667851642,-0.00135457481,-0.0242799167,0.0151926028,0.016663529,0.04906721,-0.05496238,-0.05236933,0.0139755094,0.000845483155,-0.0105339941],[0.04512942,0.008513716,0.0351113,0.0135844722,0.04505069,-0.0160647668,-0.0005215488,0.0588748045,0.06931748,0.0538225062,0.0310410149,0.0390443355,0.00504254131],[0.0912374,-0.02461727,0.000905068358,-0.00484590372,0.0317988545,-0.0215235483,0.0183085836,0.0498229861,0.05778162,0.04662134,0.0192025471,-0.0515517145,0.007930444],[0.02189797,-0.0359962843,-0.08715746,0.028729029,0.0291587561,0.016630657,-0.06936586,-0.0113179144,-0.0189105161,-0.0136386482,-0.08674216,0.008820639,-0.0188066848],[-0.06337275,0.0640385151,0.00915578753,0.008799292,-0.07352268,0.0201394483,0.02387729,-0.000899230363,-0.110588692,-0.09636218,-0.0120557239,0.002517727,-0.0125390822],[-0.108684734,0.198778868,0.07984653,-0.10782937,-0.03805525,-0.0145108066,0.09070157,0.009491916,0.059607394,0.07609513,0.133123934,0.06962385,-0.00285268482],[0.03208137,0.009455357,-0.107979581,0.05110519,0.0346364155,0.0372988172,-0.0578900054,0.02156958,-0.009192104,-0.02245198,-0.0585714243,-0.02263734,-0.0082367165],[-0.0121723665,-0.168519676,0.024879951,-0.0158751551,0.08910247,0.06987352,-0.0108902622,0.02236791,-0.05321282,-0.03438053,-0.123353727,-0.11015787,0.050374236],[-0.0300002117,-0.141808152,0.0183004811,0.06527068,0.05878236,0.0405578539,-0.0311257485,0.0139887854,-0.0523239,-0.06773902,-0.09391925,0.0249799285,0.0133644613],[-0.0124370251,-0.119118281,0.02651805,0.06782978,0.0284284316,0.0600893348,-0.04276052,0.000268107717,-0.0392324738,-0.0213304777,-0.04880408,-0.0041386676,-0.00171506614],[-0.103358351,0.115444072,0.0218986087,0.00796242,-0.0501076058,0.0164616741,-0.0136300223,-0.03183628,-0.132284373,-0.11979039,-0.101609215,0.00281780981,-0.0137519287],[-0.07276526,-0.08336472,-0.0601100959,0.00387254986,0.09049781,0.00147825084,-0.112892173,-0.00119462842,0.0156063437,-0.00856396649,-0.109830521,0.123133935,-0.023926042],[-0.08879324,-0.0151468879,0.0138285607,-0.0121057555,0.00415027747,0.00629479345,0.0135069005,0.0011807254,0.000918669451,0.0073103006,0.0122353183,0.00779941538,0.0135421958],[-0.0613299944,0.0658280551,-0.07815241,0.004739218,-0.0448725857,-0.007914549,0.0074703875,0.0286927037,-0.04882879,-0.04258634,0.008209505,-0.09243116,-0.0247961786],[-0.04300808,-0.07584487,0.0591270551,-0.00408006366,0.047468625,0.00763758458,-0.0249497388,-0.00448721647,-0.0201004,-0.0267911758,-0.0492672436,0.0535186939,0.01723326],[-0.103909619,-0.0231327638,0.0258290973,-0.004944555,-0.0273563918,0.0112048173,0.0330297761,0.0118935211,-0.00438019633,0.008695421,0.0550438166,-0.00347012631,0.0311163124],[-0.0129637467,0.222941652,0.0310544726,-0.0404410139,-0.05300632,0.01796781,0.09219795,0.0205615349,0.0564809,0.057231456,0.123415321,-0.09665075,-0.00111517985],[-0.0306837372,-0.1461738,0.03964455,0.0573699661,0.0531113334,0.0263591576,-0.050495334,0.007077426,-0.0541543961,-0.07166266,-0.109346427,0.0149513111,0.00337405829],[0.0007260448,-0.20287466,-0.0620889626,0.0516286939,0.06793937,0.0117816217,-0.134508371,-0.01679019,-0.08746412,-0.08465684,-0.181536674,0.055368945,-0.0235929172],[0.07174981,-0.08088552,-0.0991684645,-0.0134701161,0.0137331933,0.02058789,0.019743897,0.0119160078,0.09254993,0.07930091,0.0289339442,-0.0699836761,-0.0133785354],[-0.08323642,-0.000464159937,0.0100927763,0.0143315177,0.03401003,0.02094975,-0.0153065389,-0.00149316038,-0.07584898,-0.06384179,-0.08448877,0.0112632234,0.0369190723],[-0.0462128557,0.06951934,0.024264589,-0.03573835,-0.0760865,0.009404868,0.03163199,-0.03983855,-0.05650864,-0.0401763171,0.03167733,0.04583809,0.03307079],[0.06037914,0.157233283,-0.0336423963,-0.0008677298,-0.07457174,-0.0154779851,0.028933946,0.00421981141,-0.0397438928,-0.0328542665,0.0553471334,0.04051882,0.00312771741]]}},{"ClassName":"DenseWeightMatrix","Content":{"matrix":[[-0.0111033255,0.02799264,0.0170149747,0.0203370769,-0.01218657,0.00235385564,0.0128585827,0.0195513554,0.0136477789,0.0110210376,-0.0119674681,0.0251932666,0.00597854238,0.00603617029,0.0262715369,0.01637621,-0.00755699771,-0.006382427,0.0124614853,-0.00230275467,0.00702847634,-0.002345968,0.00707654841,-0.0231443159,-0.0161424913,0.0206804313,-0.009268419,0.0189660676,-0.008549632,0.00387332,-0.023215659,-0.02084875,0.0155578135,0.0282970537,-0.03019384,-0.00600126758,-0.00664486643,0.00251106452,0.00630672742,0.0207997635,0.02080323,-0.005747137,0.009908083,0.0198232885,-0.00731875328,-0.0145599721,0.0266748257,0.0183037817,-0.0024640942,-0.000791461032,0.0107337749,0.0004892563,-0.004901054,-0.0242451243,0.0166819245,-0.018136546,-0.004569552,-0.0152110178,-0.00293987035,-0.0129865082,-0.00562771549,0.0295877587,0.00515591726,0.0162321888,-0.009416614,0.0246153045,-0.015876621,-0.0182325039,0.0332128629,-0.0222559534,0.0124552557,-0.00666211452,-0.0145701654,0.00402767025,0.009033491,-0.0309510324,-0.0120372893,0.0209601019,0.0261892918,0.0203378033,-0.0031561004,0.00665430631,-0.0077615655,0.0179632,-0.010891364,-0.0249847863,0.0243613739,-0.00143999036,-0.0192019157,-0.000158336959,-0.04611197,-0.02745916,-0.01223993,-0.00464345375,0.0291632935,-0.00364234322,-0.0230976362,0.00684602233,-0.00307076215,0.017961679,-0.0217576828,-0.0177952349,-0.02116954,-0.023471443,0.0192882251,0.005730592,0.00354846753,0.0102457125,-0.0234927759,-0.003136654,0.0213124715,-0.02082564,-0.0345376544,-0.0272693131,-0.0296532288,-0.0153207909,-0.0326394774,0.0185254272,0.000766228,-0.003363209,0.027466,0.03267968,-0.02972648,-0.043219097,7.44901845E-05,-0.0105393929,0.00592239,0.0133745763],[0.00763004133,-0.0140393181,-0.007130549,-0.00149429706,0.00331654376,-0.0126187783,-0.009064018,-0.010210203,-0.004844313,-0.00215774146,0.00629938068,-0.006093539,-0.000167194419,0.00773800351,-0.0143810278,-0.0190664213,-0.00784670748,-0.015076193,-0.006212442,-0.000389554247,-0.0173805077,-0.00163240719,0.020547444,0.009748334,0.00264471653,-0.0142817395,0.000151895525,-0.0065612644,0.00729701342,-0.0159149766,0.0170109384,0.006777906,-0.00686809467,-0.009976629,0.0125541147,0.011239158,-0.00150508236,-0.0129700359,-0.00102933031,0.005609061,-0.0137576032,0.00389312347,-0.00118326268,-0.0134389531,0.00279056747,0.006484108,-0.007017334,-0.01566195,-0.0248332936,0.008607246,-0.019783983,0.00167782151,-0.008757069,0.0113385059,0.0001405699,0.009114109,0.00956908,0.00852656,-0.0102916518,0.0152971195,0.0178307649,-0.01802514,-0.0172049478,-0.0128482413,-0.0107512614,-0.01950326,0.007598887,0.0121111209,-0.006757534,0.0223613679,-0.0196507256,-0.007138892,0.01674943,-0.0162150711,-0.0020638865,0.00286332774,0.00286281575,-0.0104501843,-0.0171699151,-0.01896133,0.00171018334,-0.015598651,0.00219500321,-0.00295363273,0.000318368984,0.012610455,-0.0140707958,0.00474733766,0.00980806,0.01888451,0.0111711854,0.00420803251,-0.00127590017,0.0225848053,-0.006677243,0.00109046535,0.0140266521,-0.00626891,0.005447094,-0.0109028826,0.009267449,0.00852439,0.00442314055,0.00482190447,-0.014284635,-0.0119725438,0.006695306,0.00674407836,0.00824120548,-0.0111237187,-0.00753947161,0.0145953745,0.028542107,0.01298932,0.0125907511,-0.0238241069,0.01771893,-0.009080886,-0.0115723982,0.002956386,-0.00907553453,-0.01579853,0.0186312553,0.0189801678,0.0180727243,0.00723811658,-0.0164632127,-0.0200835485],[0.000550367346,-0.0110002579,0.009674279,0.00565485656,0.000884763664,-0.0299293417,-0.00433708,-0.0121652093,-0.00596613856,0.00526798749,0.00720642274,0.00527074933,-0.00471231155,0.02138159,-0.009558137,-0.00615412975,-0.0248776414,-0.0311293863,-0.0101566976,0.00508264964,-0.0219756,0.000162206721,0.0514355861,-0.009361018,-0.004567523,-0.0161010344,-0.00227157073,0.006480439,0.0223513171,-0.03372815,0.006604983,0.008115394,-0.0113716768,0.00114205072,-0.006905178,0.02197479,-0.000342896936,-0.0212785676,-0.003907711,0.032179866,-0.004273627,0.007933532,0.0164611824,-0.0114822285,-0.00663440349,0.0019836186,-0.0146150822,-0.0308799222,-0.0493951552,0.00676228758,-0.02959897,-0.006603905,-0.0231525972,0.00497252261,0.008667581,0.0114564961,0.0124306967,0.00416371971,-0.0301391762,0.0198041871,0.0115794111,-0.0190491341,-0.025462551,-0.0101736523,-0.0392665341,-0.0183459185,-0.004775015,0.02167323,0.0281323288,0.0148339011,-0.0203592572,-0.0215615723,0.0173431654,-0.0277824942,-0.010237366,-0.02344034,-0.00761611853,-0.00653641438,-0.00423976453,-0.0167293362,-0.0068041347,-0.0288533531,0.009024115,0.005659157,0.004510032,0.00275644963,-0.0154337734,0.0158802066,0.015348319,0.0467911661,-0.009277891,-0.0101649445,-0.0153774908,0.0211882014,0.0115151433,-0.002808495,0.009835053,0.0009853255,-0.008226806,0.0106047317,0.008717868,0.0028667876,-0.0208776128,0.00197611074,0.00569555,-0.020596534,0.0281328727,0.0219034161,-0.005755205,-0.0429081619,0.00517142331,0.0120806443,0.0315947421,0.000279783766,-0.004684093,-0.0542661436,0.0205572974,-0.005322562,-0.0253338143,0.00497600762,-0.02110365,-0.0008439051,0.0122965053,0.00640969351,0.0300616287,-0.00360973272,-0.0298724715,-0.0287651289],[-0.0111789228,0.0271403659,0.0144615658,0.0177822821,-0.0106682209,0.0006156236,0.0128235053,0.016489489,0.009328201,0.0143262548,-0.0104471017,0.01937935,0.005157668,0.005764596,0.0216134451,0.0196925756,-0.005559783,-0.004509015,0.00921244547,-0.0009272661,0.012758485,-0.00389066432,-0.00133509492,-0.0238191951,-0.0152951106,0.0227350034,-0.00717323134,0.0190852266,-0.0106385918,0.00348178949,-0.026018953,-0.02203118,0.0164942164,0.0264165979,-0.0303341188,-0.00172632188,-0.000949912646,0.00766206952,0.0101821544,0.0162116122,0.02205256,-0.00469839154,0.008536883,0.0224505831,-0.0153980432,-0.0119291963,0.0226309113,0.0203773864,0.00330159813,0.00319460058,0.0185184963,-0.0023057356,-0.00378350355,-0.020897422,0.014108127,-0.0129765607,-0.00547197,-0.0187424272,-0.00289030443,-0.0198258962,-0.00912767649,0.0288539659,0.007986982,0.022634089,-0.008458876,0.0221861023,-0.0148746828,-0.015858043,0.0317630619,-0.0198331177,0.0100015318,-0.0009856831,-0.0153572261,0.000665149244,0.003983063,-0.0210998915,-0.01743026,0.0211973339,0.0272251647,0.0201334227,-0.003619931,0.0142013924,-0.00881387852,0.0188857485,-0.005556632,-0.0255647674,0.0242209025,-0.00125370582,-0.0170245972,-0.004265198,-0.03656034,-0.020102255,-0.0118797394,-0.005815143,0.0300754718,-0.00637305761,-0.0171933137,0.008373824,-0.0107052755,0.0190004949,-0.0220954567,-0.02292805,-0.02241098,-0.0177512262,0.0264013633,0.00122599036,0.0009845449,0.005541864,-0.0233679768,0.00401625875,0.02191422,-0.0128950039,-0.03999243,-0.024726646,-0.0250333566,-0.0132889617,-0.0203971677,0.0173197184,0.007858769,-0.0009614867,0.02827227,0.0276984759,-0.0288031213,-0.0309645943,-0.00352261681,-0.007847828,0.008077391,0.02088688],[0.0006994239,-0.00487386,-0.00255389628,0.0122959036,-0.006152313,-0.0177602451,0.00232269452,-0.002618769,0.00222094147,0.00833325,0.00407661451,-0.0006321136,0.0009632256,0.0204684753,0.00537274731,-0.004897705,-0.0280374959,-0.0191445574,0.00108472118,0.0026542698,-0.0114935013,0.00489132246,0.0273672882,-0.0134359347,-0.00167114008,-0.00697836839,-0.0149620781,0.00403896626,0.0186351519,-0.0183007736,-0.007127585,-0.00178677915,-0.007181473,0.008929402,-0.000618714839,0.00768198539,-0.0031588797,-0.0196162779,-0.010206135,0.0275726076,-0.007437302,-0.003486404,0.0165193751,-0.007031409,-0.00420278,-0.00259042042,-0.003855559,-0.0172311943,-0.0312331766,0.00622723624,-0.0194768161,-0.00949369,-0.014221915,0.002470548,0.007985421,0.00101316324,0.00657283748,-0.0005417333,-0.0194264613,0.0161726326,0.01146408,-0.009438489,-0.0125934239,-0.00112962339,-0.0230540913,-0.0107858488,-0.00665564463,0.0112954956,0.0131666167,0.007195354,-0.00846322253,-0.0204052944,0.0134703154,-0.014386001,-0.006896323,-0.0195128527,-0.0144278379,-0.00217979075,0.000431757828,-0.004179093,-0.008176607,-0.01956844,0.008632332,0.009711275,0.00348961237,-0.00163897919,-0.0134434113,0.009261949,0.01161474,0.03348732,-0.00330868876,-0.0108168842,-0.0169343576,0.0129348971,0.0174194183,0.00407488644,0.00375374686,0.0105389,-0.00103254837,0.0100259827,0.00330110174,0.00482959766,-0.023318572,0.0006483999,0.0006285076,-0.00734198932,0.0195160657,0.01873396,-0.003630902,-0.0305931084,0.00338594173,0.00239575468,0.01035363,0.004747925,-0.004122971,-0.0360076241,0.002453411,-0.01198008,-0.0157504939,0.005634836,-0.00294528482,0.00473481324,0.007511313,-0.0117142145,0.0237813033,-0.00433035148,-0.0189461038,-0.0137405246],[0.00320709753,0.0015750723,-0.005135031,0.008535468,-0.0106352242,-0.0185135435,-0.0005726539,-0.00332855317,0.0100437691,0.00347714,0.00293373177,-0.000360857084,0.009491,0.007059413,-0.000253760867,0.0009698272,-0.0183026157,-0.014446808,-0.00108755007,0.000819174747,-0.0126567865,0.002725159,0.0246199183,-0.009866946,-0.003283573,-0.0004626414,-0.009380035,0.0004885428,0.008660427,-0.0139539437,-0.00909377448,0.00221204269,-0.00558038661,0.00744384341,-0.00272342,0.00244348822,0.00168020348,-0.0167041216,-0.0107247308,0.0298346132,0.00451713335,0.00516417576,0.0130255809,0.00342210941,-0.00213113683,0.000537894666,0.005459746,-0.008102186,-0.0242224,0.00534448959,-0.0117062405,-0.01136132,-0.01151832,-0.004207338,-0.0007884659,-0.000583897345,0.00413813442,-0.00146896834,-0.0180388782,0.005984622,0.00412437646,-0.00651092827,-0.0143615063,0.002775108,-0.0211840924,-0.0005438222,-1.94614258E-05,0.00315448944,0.009080372,-0.0013380209,-0.006569851,-0.0162076876,0.00764059275,-0.009977799,-0.006512926,-0.01694615,-0.0173478648,0.00637984555,0.00492390944,0.00124711834,-0.0100726821,-0.0144742634,0.00371828629,0.008554653,0.004198586,-0.00259797042,-0.00186625659,0.0116662942,0.00642654859,0.0233450476,-0.00736866239,-0.00131331536,-0.01585499,0.0123261465,0.0179831218,0.0002679403,-0.004283326,0.013883316,-0.00294709275,0.0123355892,0.000334939774,-0.0018667971,-0.0142596979,-0.00196016417,0.006386677,-0.011734128,0.0155839343,0.015269612,-0.008815851,-0.0201452468,0.00611542026,-0.00257799565,0.00268411078,0.0012769911,-0.0043536853,-0.02967918,-0.010597609,-0.007962803,-0.0136093264,0.0046812254,0.007147943,0.0121302847,0.003303638,-0.0164293684,0.0227886774,-0.013421162,-0.0124485865,-0.005110642],[-2.36362212E-05,0.0123951919,0.00475301268,0.00187314511,-0.0126995239,0.00428042747,0.0005012853,0.0148964552,0.00102200639,0.003953236,-0.0139807081,0.0100046955,-0.009299023,0.00363642932,0.0179326627,0.006035767,-0.00447016675,0.00542539265,0.004677026,-0.009849434,0.007190751,-0.00597815262,-0.00413967669,-0.00653973455,-0.00583467074,0.007895376,0.000633790856,0.004983847,0.00538333971,-0.00304442644,-0.009586021,-1.58576477E-05,0.00200137845,0.0103091132,-0.01543927,0.0107006766,-0.00643996056,0.010252771,-0.00254633441,0.004871119,0.005724294,-0.00996258948,-0.00666414155,0.0120175974,-0.00302992412,0.000351067953,-0.007934003,0.00772502134,0.00270678173,-0.007009705,0.00754375057,-0.0063516167,-0.0009570498,-0.007914825,0.0101549746,0.00382875931,-0.0006859405,-0.0131081175,0.00380470068,0.008621651,-0.0002335914,0.0180055425,0.00694463355,0.01785772,0.00068510836,0.00763130141,-0.007149587,-0.003146139,0.0131917493,-0.00773716345,0.00158076908,-0.00187478343,-0.006460015,-0.004608704,-0.00166474725,0.0100805517,-0.0043354393,0.007864947,-0.00134107261,0.00381200016,-0.008773122,0.0159140788,0.00030863026,0.0118748276,0.00297342869,-0.0175566357,-0.0067077456,-0.004525697,-0.00354285,-0.00569437351,-0.0109750442,-0.009245687,0.00755527,-0.0106896861,0.008085784,-0.00597679941,-0.0005739893,0.00102090393,-0.00442169327,0.0107629066,0.00657237926,-0.003857615,-0.006759125,0.008280591,0.0154768638,0.000726297032,-0.0128578134,-0.008785662,0.007964902,-0.008107377,0.001553305,0.003084487,-0.0177144036,-0.0105329575,-0.02577566,0.005390539,0.005331005,-0.00275813625,-0.00119758106,-0.00125421386,-0.0149431359,0.00261285482,-0.0146044875,-0.00149190531,-0.00354768662,-0.0113504976,-0.0016686006,0.0106706414],[0.00647644559,-0.0125983618,-0.00315272552,-0.009648626,0.005569936,-0.00201480952,-0.00635707146,-0.00229321048,-0.013052864,0.00287031662,-0.002200257,-0.00707114,-0.008238649,0.00496527925,-0.00821813848,-0.0145761622,-0.00851433352,0.00125924242,-9.071678E-05,-0.00291079,0.000203531337,0.00394007936,0.005042044,0.00526843872,0.00522217248,-0.0147022549,0.00627128,-0.00821734,0.0112690665,-0.0114700543,0.0003541991,0.0112454966,-0.0123533169,-0.006337302,0.000866188959,0.010682554,0.0004429673,-0.00519075571,-0.0102244532,-0.0002451603,-0.00144208386,-0.00107371842,-0.0019228661,-0.00365048624,-0.0004504018,0.008246033,-0.0171570331,-0.015630288,-0.0193784535,-0.00107205415,-0.007576535,-0.008600651,-0.001709061,0.006508069,0.00327110174,0.00666517857,0.008268328,-0.0008528766,-0.00355753279,0.0121304765,0.0129773058,-0.0112026958,-0.0089999,-0.00363867148,-0.00317206956,-0.0124020763,0.005829742,0.00664057629,-0.000863152,0.008287603,-0.009491817,-0.00759817846,0.00687279925,-0.0109810475,-0.0103435563,0.0179686937,0.006784656,-0.000369845919,-0.0170515254,-0.009402602,-0.0110372677,-0.00380278658,0.0144533683,0.00296194083,0.0115914289,0.00344358524,-0.0136004984,0.0001036965,0.00510248169,0.007135718,0.0126620447,0.00203196681,0.0118690692,0.00539659848,-0.000257675973,0.0002954478,0.008835231,-0.002425149,0.00437049149,-0.00152362452,0.0138747459,0.0138956308,0.010875036,0.0171468221,-0.00773470756,-0.004044776,-0.000794195861,0.002317055,0.0140141277,-0.021700101,-0.008203731,0.013202562,0.004457598,0.0119992755,0.00421375968,-0.00625319453,0.0265924763,-0.0132290153,-0.0123965982,-0.00142530666,-0.0239954945,-0.0143511,0.0149781425,0.0212958064,0.014619668,0.0007405459,-0.02012516,-0.0107514132],[-0.0114732645,0.0118411295,0.00136764126,0.000472612359,0.005192588,0.01790608,-0.00353142782,0.0005534262,0.0107596945,-0.000286265829,-0.00133988122,0.0008329186,0.0110780345,-0.0221574325,0.000959986646,0.020340791,0.019557884,0.0179664,-0.00142407825,0.007864447,0.00748730171,0.000109200926,-0.0300527234,0.001935444,-0.00104567106,0.0128838448,-0.002030399,0.00172294362,-0.0212587658,0.0210380983,-0.00427551847,-0.0163783338,0.01388445,0.009542168,0.005202459,-0.0252729021,-0.0042832545,0.009461886,0.008417775,-0.0138348714,0.00322905625,0.004466865,-0.00108502817,0.0018550558,0.00572902337,-0.00621786574,0.0187722873,0.0194688514,0.03813724,-0.00352719636,0.0112816,0.009761441,0.0175487064,-0.00318650762,-0.0100720227,-0.01644278,-0.00684768567,-0.003876819,0.0142950863,-0.0247191619,-0.0174741354,0.0125549864,0.0123027321,0.005705215,0.01719314,0.0242061485,-0.00300321,-0.0171969254,-0.0172184072,-0.02210664,0.0297686327,0.0127645433,-0.0147214327,0.0142927263,0.00716164475,-0.00259186444,0.006301777,0.00355113181,0.0193118677,0.0155569892,0.00391805824,0.01002402,-0.0134825632,-0.00227397075,-0.0139424885,0.00667527737,0.02834076,-0.00595158152,-0.012753007,-0.0218126755,-0.0124701392,-0.000665336149,-0.00103172066,-0.01665493,-0.00297647319,0.005021581,-0.008825343,-0.004769575,0.00334853726,-0.00699863769,-0.0196806453,-0.0107981144,0.00291681872,-0.0123864692,0.00607846025,0.0164699815,-0.01839182,-0.0106346067,-0.0160949863,0.032150954,0.00250400649,-0.00655392651,-0.009108618,-0.00726519851,0.00422438839,0.0221003685,-0.022780301,0.016218897,0.021254126,-0.00349887833,0.0281650163,0.0167589132,-0.0140633574,-0.019442426,-0.0276178624,0.0009092393,0.0154427309,0.0237688478],[0.000662666745,-0.00253835367,-0.00391184771,-0.005151021,0.0037550265,-0.0007541448,-0.004346695,-0.00371934031,0.0009802807,0.005725856,0.000260388,-0.003864643,-0.000600973435,0.008479373,0.00155199051,0.000959142635,-0.00612176349,-0.00691797026,-0.000614743971,-0.00574450567,0.00296286447,-0.003901585,0.00510690641,0.00164493581,0.002704004,-0.000494702545,-0.00566818146,0.0009650155,0.00706495857,-0.00510562025,-0.004631415,-0.0008023229,-0.00341062131,-0.0004800832,0.0046782773,0.00691812532,-0.00469749561,-0.0009315986,-0.0057566273,0.0075886487,-0.0007405654,0.002878966,0.006625396,0.00311413547,-0.00468353834,0.00308243069,-0.00409830036,-0.006581187,-0.00304796873,0.001482184,0.00240834081,-0.007566816,-0.000793641142,-0.00327288522,0.000237767978,0.004901114,0.00359746045,-0.00144403137,-0.00114962854,0.00286427373,0.000353548559,-0.004826918,0.000161686039,0.00116796512,-0.003939054,0.0008351739,0.00351712783,0.00206657266,-0.00281274552,0.006756511,-0.00131415366,-0.00256369286,-0.00191921985,-0.00583493756,-0.000686841668,-0.00375282927,-7.267256E-05,0.00165885012,-0.0005301106,-0.00326008024,-0.005512734,-0.002298671,0.008147019,0.00406897,0.00736101624,-0.004205069,-0.004147354,0.000863981259,-0.00150653569,0.008138547,-0.00415732339,0.00424606027,-0.00377485831,-0.000913542346,0.0061204345,0.00035653697,0.0014084,0.00569419935,-0.00419729669,0.004136158,0.00289658946,0.002737663,-0.00679588364,0.0004895547,-0.0035430775,-0.0007285695,0.00159301225,0.002552712,0.00474043842,-0.00474466057,0.00225829566,-0.0026066713,0.00330225355,-0.0005659342,-0.00495738,-0.004560342,0.006477278,-0.008354299,-0.006423269,0.000199351634,-0.00267338846,0.002492387,0.000203769334,-0.00254174159,0.003725494,-0.002784279,-0.007711914,0.001340639],[-0.0084608,0.0030677903,-0.004592008,-0.005713728,0.00351461465,0.01773352,0.0007780441,0.00616476452,0.0005154246,-0.00707358029,-0.005546851,-0.00747342035,-0.00357659464,-0.0228987,0.003157333,0.0116161816,0.0212380625,0.0227271877,-0.00200432935,0.00204465259,0.01445021,0.0009473407,-0.0305251814,0.007339616,0.000186172008,0.0142977536,0.0035401166,-0.00449297857,-0.021707315,0.02169389,0.00326918648,-0.00947703,0.01250536,-0.0003789693,0.00293605076,-0.0118368613,-0.0007866849,0.01934849,0.00532380538,-0.0262892954,0.002374021,0.0036227887,-0.0169059616,0.00341613381,0.00359730539,0.001747852,0.00482328935,0.0130059384,0.03495027,-0.00344929146,0.0158179328,0.00638846075,0.0144243259,-0.004040051,-0.00287432037,-0.009150065,-0.00426303642,0.00162153726,0.01823927,-0.0178808216,-0.0102537833,0.010065441,0.0163364317,-0.003116056,0.0185438525,0.014167144,0.00335976342,-0.0144010121,-0.01814622,-0.009925404,0.0128741739,0.020196639,-0.01167055,0.0158358365,0.00244043535,0.008296523,0.01314052,-0.004713176,0.009783446,0.0143643115,0.0112776225,0.0131069617,-0.005816391,-0.00687520439,-0.0048022205,-0.005336098,0.0171151645,-0.00918214,-0.008464879,-0.0309350118,0.00550209451,0.00358093646,0.00499285,-0.0182193425,-0.010304383,0.00186883588,-0.00267974357,-0.005993723,5.34226E-05,-0.0114912009,-0.006160289,-0.006116545,0.008213276,-0.0125014847,-0.005345594,0.009840387,-0.01683986,-0.009912667,-0.00113624,0.02722008,0.004598538,-0.00798851252,-0.01564141,-0.00188805989,0.000891624659,0.0327293351,-0.00568192638,0.00565541442,0.0145989619,-0.00850996748,0.0185777489,0.00318872486,-0.006978204,-0.00103473291,-0.0244157929,0.00568507053,0.0217217077,0.0161888115],[-0.0005369106,-0.0112273209,-0.00206315261,-0.0127264066,0.0108290482,0.007764409,-0.008698419,-0.001407008,-0.00699696969,-0.00484458,0.009890819,-0.013714198,-0.0006236274,-0.0121712517,-0.01802755,0.00243177,0.0226144735,0.008184346,-0.00610193,-0.002566345,0.004545911,-0.0029290833,-0.0137571692,0.0125358859,0.00403588964,-0.00815046951,0.0133874435,0.004243627,-0.003907305,0.009843628,0.0138505176,-0.000383887236,-0.008489608,-0.0124308243,0.011342926,0.009862985,0.000183945362,0.004059777,0.009901027,-0.0228910483,-0.003081001,0.008372555,-0.0106079,-0.009914635,0.00628974568,0.00403836,-0.00592748169,-0.00341366348,0.00908956,-0.00300814142,0.00275821751,0.005998664,0.0128478184,0.00595407374,-0.013231189,0.0043016444,-0.0022883676,0.00653158175,0.007931362,-0.0105950749,-0.007988533,-0.0105192419,0.008482214,-0.009172068,0.0105686765,0.002555894,0.009391427,0.000179611772,-0.020407835,0.007004501,0.009088041,0.019291237,0.000455039262,0.006340904,-0.00200943532,0.0205355063,0.0221916717,-0.0119123114,-0.0143109076,-0.000156417474,0.008961311,-0.00115670078,-0.00901428,-0.009257571,-0.009447189,0.008426718,0.00675430335,-0.001658713,-0.00640728744,-0.01944559,0.0168294478,0.0161631368,0.00517526641,-0.008807185,-0.02220518,0.00918791,0.0106770769,-0.01688924,0.004748138,-0.0139415907,9.124723E-05,0.00736364024,0.0185783915,0.00294447434,-0.0022533834,0.00469042268,-0.0122121489,-0.005998124,0.008075968,0.0102046793,-0.00104617258,0.00595114,0.00786887,0.004828526,0.0117645385,0.0211107936,0.0104322461,0.000387769658,0.00340926321,-0.00401123753,-0.0002394741,-0.006907793,0.003211013,0.02221312,-0.0180914663,0.0166442953,0.00227730279,-0.0055061467],[-0.00155845936,0.006980149,-0.00121573161,-0.0118449256,0.004566026,0.02891672,-0.00251385849,0.009090401,-0.0007521872,-0.00524228951,-0.00112929137,0.002114139,-0.000444583857,-0.019086808,0.007549665,0.0136740766,0.0236040354,0.02985331,0.006808347,-0.002169542,0.017368814,0.00389639218,-0.0379242636,0.0117311794,0.00263238256,0.0151938647,0.00754921464,-0.0062001734,-0.0232126,0.0264365878,-0.0028366698,-0.00430957833,0.0128359636,-0.0032762452,0.00517096324,-0.0232157782,-0.002633905,0.021929387,0.004133397,-0.03459707,0.004753609,-0.00589609426,-0.02078889,0.011850371,0.00988468,-0.00429257145,0.0150636043,0.02978679,0.0512289628,-0.00756627,0.0215730779,0.009330645,0.0267638378,-0.008614141,-0.0058876304,-0.00717094,-0.0127319526,-0.000462530821,0.0279499851,-0.0186882112,-0.0178475641,0.0103132613,0.0217393,0.00779221347,0.0347433127,0.0193140842,0.004831037,-0.01917479,-0.0244290661,-0.0117755663,0.0177790634,0.0223157629,-0.0144351162,0.0170020368,0.004823584,0.0125667462,0.00670864526,0.004922456,0.0125897955,0.0177972224,0.009511835,0.0201143883,-0.008025041,-0.00683007855,-0.003922538,-0.000125691571,0.0210351944,-0.009046367,-0.0128001263,-0.04080496,0.0004474609,0.00716169272,0.0118499789,-0.0182406753,-0.0132892169,0.00329779554,-0.0129232593,-0.00243532,0.00736851851,-0.0156018874,-0.00504913274,0.000603177468,0.0134948744,-0.00433322275,-0.00486701,0.0197936017,-0.0236533359,-0.021861339,0.000418092881,0.043105118,0.000519317866,-0.0111562237,-0.0232903585,-0.005926637,0.008880301,0.0489862673,-0.0190061629,0.002594271,0.0248052012,-0.00450438447,0.015917033,0.00435281731,-0.0131201632,-0.00328183942,-0.035394907,0.00135058013,0.0282163247,0.0244837664],[0.004809436,-0.0209767111,-0.01236813,-0.008404246,0.00445758738,-0.00629641628,-0.00196652766,-0.009847164,0.00324604521,-0.00155361753,0.0153500447,-0.0143816778,5.010166E-05,0.00126195536,-0.01990096,-0.008480627,0.000209725535,-0.0109468307,-0.007864078,0.0142638646,-0.0164548047,0.00334242033,0.0167597476,0.00904323,0.008420657,-0.012691766,-0.004422479,-0.00366959767,0.0031632036,5.545716E-05,0.0141384108,0.008646569,-0.0127231786,-0.003631983,0.01931156,-0.008212341,0.00310019939,-0.0104813622,-0.00118837145,0.00591769861,-0.0137372483,0.0122663109,0.005555238,-0.008990069,-0.000463360717,0.00445838273,0.0045036315,-0.006329069,-0.0157014877,0.00214723987,-0.0162494145,0.004754153,-0.0094898,0.0120301107,-0.00139700924,0.00650803559,0.00532398559,0.0153139485,-0.0119095156,2.810014E-06,0.00398765551,-0.0212304,-0.008251522,-0.018619813,-0.00182698015,-0.01697254,0.00886837,0.0112817725,-0.0103774937,0.009824635,-0.0102132168,0.00410628738,0.00692979945,-0.008714964,-0.0009154422,-0.00582353072,0.00617565541,-0.0151779158,-0.00774076069,-0.0104165738,0.008705579,-0.0155084785,0.00367781357,-0.0104110967,-0.00330628734,0.0172679648,-0.00361935934,0.007466416,0.00697792042,0.0141300429,0.0136575205,0.0143051064,-0.00588100171,0.0107994257,-0.0108454172,0.0104566421,0.002476775,-0.007592237,0.009990973,-0.013896632,-0.00245016976,0.00892735552,0.00503839739,-0.00381921325,-0.0114656668,0.00141711463,0.0111507447,0.00947105,-0.00168267521,0.000162391254,-0.00618129224,0.008712979,0.0246426612,0.0134214116,0.0223527513,-0.0213147551,0.00463914545,0.003149531,-0.005783447,0.00483754836,0.00555898761,-0.00614073034,0.0100013977,0.009934489,0.0118188811,0.0066466867,-0.004285365,-0.012161864],[-0.00778670935,0.023850847,0.0113126356,0.0116428323,-0.01840811,-0.002612846,0.0105363186,0.0140071306,0.00337913539,0.00409422768,-0.01097193,0.0133928135,0.00259654177,0.004479648,0.0194903743,0.00773688452,-0.0119726332,-0.000356439123,0.0109784184,-0.003204957,0.00607555453,-0.005821157,0.00402623,-0.0194352474,-0.012966034,0.0113044474,-0.00434623,0.00526093366,-0.002642277,-0.00530296843,-0.01407278,-0.0113576669,0.0169146787,0.0183430556,-0.0182309616,-0.00236704457,-0.0101921037,0.00466865767,0.007586076,0.0209274217,0.0174176265,-0.0140130315,0.005254466,0.012821842,-0.00648227427,-0.010712699,0.0159580726,0.008978853,-0.00138316373,-0.0013527252,0.009308986,-0.00303105777,-0.00424670056,-0.0113978842,0.0146792522,-0.0104601132,-0.00303553184,-0.0164221115,-0.00484561734,-0.00755471829,-0.005960027,0.024917081,0.00514718657,0.0156328361,-0.00594011042,0.007888504,-0.0129870642,-0.00685222354,0.0277205929,-0.0147433486,-0.00117110764,-0.000564597,-0.00261056935,-0.004452084,0.000893874734,-0.0151668293,-0.02001737,0.0221449472,0.0168164223,0.00424097944,-0.00116338267,0.00774318026,-0.008480362,0.0162398033,-0.000871734868,-0.0202060249,0.01115099,-0.00267560361,-0.00615823967,0.00545195257,-0.0255287439,-0.01944476,-0.009785189,-0.00522632757,0.0170956552,-0.002399378,-0.009687184,0.0129226167,-0.0052219,0.0166568216,-0.0127840154,-0.0179938562,-0.0184102915,-0.0106441462,0.0155596733,-0.00396809354,0.00737586524,0.00293003325,-0.0111476192,-0.003084185,0.0148835741,-0.01740569,-0.02643938,-0.0147923958,-0.01761927,-0.009064887,-0.01927789,0.006253522,-0.001436217,-0.00239609275,0.0120248636,0.0191809349,-0.0148238959,-0.0206860714,0.0028406817,-0.00741355028,0.006594438,0.0130731706],[0.0135575831,-0.0251794849,-0.0165688433,-0.01335564,0.011073472,-0.0060833036,-0.008017474,-0.0184797123,-0.00345704751,-0.0129416268,0.0100837536,-0.02054094,-0.001619719,-0.003784919,-0.0326908752,-0.0204161555,0.00513729732,-0.000689581,-0.005810543,0.005577741,-0.01052393,0.00372879021,0.0193474609,0.02102299,0.00662599457,-0.0166301019,0.002234389,-0.0114568258,0.0085152,-0.008600052,0.0289908517,0.0185377281,-0.0153094893,-0.0184123386,0.0242172088,-0.00400608359,-0.00152828987,-0.0134497024,-0.009183859,-0.009235943,-0.0144595793,0.003373486,-0.00288275466,-0.0135479271,0.00778317638,0.00474761846,-0.01290627,-0.009969681,-0.009718157,0.00404144963,-0.0273976568,0.00391486753,-0.00327246659,0.023367418,-0.00733174,0.0126785422,0.0148831187,0.0186301544,-0.00668883137,0.0136597073,0.012554042,-0.0386589654,-0.0184011534,-0.0215530191,0.006549337,-0.0201157611,0.008970139,0.0119407093,-0.0306255575,0.0222497378,-0.009363881,-0.00258767628,0.0225289557,-0.006727827,0.00145816768,0.0104626808,0.01868683,-0.0227874219,-0.0159235876,-0.0193059519,0.00656160573,-0.0215386,0.007853131,-0.01335545,0.000447686645,0.0230475627,-0.0145244775,-0.000209981677,0.0209018923,0.0113351978,0.0283682737,0.0183092915,0.006179892,0.0126551287,-0.029462,0.0128522636,0.0141899241,-0.008123543,0.006254597,-0.0166506954,0.0134682087,0.009110746,0.0120025659,0.0162941255,-0.0203992724,-0.00372971944,0.005619383,0.00358751928,0.007682483,0.0032217165,-0.0157548729,0.0106775211,0.0460891277,0.0245486237,0.03150786,-0.0106801176,0.0215788875,-0.00511039,-0.00193095475,0.00342809339,-0.0167785157,-0.02223645,0.02244816,0.0287089553,0.0122857383,0.0164570082,-0.00441284757,-0.0244063251],[-0.0031612115,0.0145862624,0.00413341355,0.0009960458,-0.00181647041,0.0187681075,0.000377094169,0.0111650266,0.0104884347,-0.0018553877,-0.00279434072,0.005723499,0.006182448,-0.010654591,0.0139663657,0.0143128736,0.009194784,0.01406125,0.00830023,-0.00440208754,0.0214340929,0.00367590832,-0.0310772955,-8.711296E-05,-0.00664420845,0.0208582655,-0.002763077,0.0008309221,-0.0121652568,0.0244596619,-0.0113086849,-0.0118276877,0.0158929341,0.00608971,-0.005454967,-0.0206137635,0.00146047957,0.0176099278,0.007152325,-0.017622862,0.00424190564,-0.00166260928,-0.00466999039,0.008015285,0.000349421869,-0.00124753616,0.0085457,0.02504587,0.0370463543,-0.008176968,0.02492687,0.00107771484,0.0196842719,-0.00640542759,-0.0009906637,-0.007611112,-0.00775918923,-0.006739322,0.0199565217,-0.0187565,-0.01547911,0.0213457216,0.0224324334,0.006804895,0.0205094647,0.0164599475,-0.007547203,-0.01717215,-0.00263184449,-0.0210038964,0.0184896886,0.007050295,-0.009843076,0.0144675476,0.002502354,5.92875949E-05,0.0007584284,0.008622548,0.01779851,0.0200987514,0.001596031,0.0168913547,-0.0103426045,-0.0018151236,-0.002421804,-0.0019505393,0.0188723188,-0.00418291241,-0.0173059478,-0.0322538465,-0.00631524157,-0.00043638784,0.00393314846,-0.01680922,0.00432931166,-0.003804452,-0.0161685571,0.002744702,0.003964022,-0.0046722414,-0.0120476531,-0.002272121,0.005471191,-0.007381654,0.005923992,0.0117408643,-0.0134188011,-0.00531861046,-0.00335539272,0.0219867248,0.007901325,-0.01351753,-0.0275056548,-0.009802626,-0.00539096259,0.03466906,-0.0201850962,0.004995873,0.0146573856,-0.008923848,0.01561056,0.0134693328,-0.0101782931,-0.0110262092,-0.024620641,0.000112444344,0.0204178672,0.0157116819],[0.003729753,-0.00572918542,0.000817971129,0.00497796247,-0.00296979933,-0.02982866,-0.00382877956,-0.00696186954,-0.00185569923,0.00329159945,0.00146106735,0.00316836988,-0.000105275867,0.0155908661,-0.0070250174,-0.00718068844,-0.0235435478,-0.029583998,-0.0044221147,0.00240339455,-0.0185755268,0.00385174,0.0383384638,-0.0159574449,-2.11294027E-05,-0.0124251749,-0.00579954358,0.007081361,0.0250851568,-0.0249673072,0.00162966561,0.008722561,-0.0121708019,0.0002443194,-0.00574287632,0.016435679,0.006755892,-0.0203217063,-0.00445106346,0.0351067223,-0.006172096,0.004858789,0.0171001,-0.008667812,-0.007574351,0.0021396412,-0.00407369761,-0.0193283986,-0.040436253,0.008396387,-0.0252021737,-0.010445294,-0.0243397877,0.0127727594,0.00575055,0.00345617672,0.00336798024,-0.00181217317,-0.0236911718,0.0105568878,0.00813469,-0.0104697337,-0.0178286117,-0.000355183525,-0.03023252,-0.014671918,-0.004074329,0.0139468666,0.0184217338,0.003973427,-0.0161627363,-0.023070965,0.0150388889,-0.01813743,-0.009216938,-0.0216732156,-0.0105155753,-0.00133913429,0.00194661156,-0.0133215692,-0.007198808,-0.0186800025,0.001035533,0.00240949471,0.00894632,0.00757457037,-0.0134617072,0.0104467161,0.00887002051,0.0354849063,-0.008092008,-0.006544699,-0.0133890966,0.0134851439,0.0191827882,-0.002713742,0.008516886,0.00806667,-0.00299327914,0.008985611,0.00685515767,0.00236534141,-0.0222091824,0.007904719,0.0054787863,-0.0178602971,0.0188326985,0.024670532,-0.004675696,-0.0361936539,0.005539533,0.00749986526,0.0163167045,0.00130224577,-0.00940222,-0.0417018458,0.0123501951,-0.007756596,-0.0192349236,0.00299618486,-0.0144186551,0.005380638,0.002829229,-0.008367349,0.0239446945,-0.00449016364,-0.0255005173,-0.0168522261],[0.00453024963,0.000215349224,0.0005036851,0.0002539728,-0.008284087,-0.0135909375,-0.00211349223,-0.000743730867,0.00090366113,0.005253831,0.0008940385,0.00552707631,0.00284088729,0.0162851512,0.007925651,-0.002820201,-0.0189382769,-0.0114936521,0.006018684,-0.00105214387,-0.008290537,0.00468908,0.0185450055,-0.00759934075,-0.007262195,-0.000145138256,-0.00497418037,-2.70702985E-05,0.014227896,-0.012688295,-0.00679448,0.007580865,-0.008536845,-0.0010375072,-0.00531737553,0.008476509,-0.00240174821,-0.0105109587,-0.00430068,0.01772843,-0.00106450275,-0.008809088,0.008372693,-0.00246484787,0.0007344941,-0.0008894907,-0.00102820375,-0.00918989,-0.0241601318,0.00549355475,-0.00988643,-0.007542803,-0.0121629117,-0.000240513356,0.007876249,0.00655024452,0.0069384696,0.0008763741,-0.009552454,0.0118525121,0.0117427213,-0.004893889,-0.006442037,0.00412317738,-0.01899061,-0.008289127,-0.002649624,0.000545551942,0.0121637369,0.001191393,-0.0154849291,-0.0135559523,0.008805011,-0.008637209,-0.00177715335,-0.00627105543,-0.0120263286,0.00303304242,-0.006989078,-0.009534788,-0.0115675051,-0.00678194,0.012262811,0.00259167422,0.009552454,-0.00376112247,-0.0167422965,0.006665087,0.0105896154,0.0164016262,0.000543329457,-0.00232174853,-0.00155635527,0.009255616,0.008651447,-0.00404949067,-0.002292004,0.011159854,-0.00511987833,0.009788855,0.009571841,0.001775889,-0.00526998471,0.0108531006,-0.003464874,-0.00762156025,0.0100798253,0.00651236949,0.005375403,-0.0235157516,-0.00523149,-0.003224039,-6.49569E-06,0.00270221638,0.000250286161,-0.0206396654,0.007505296,-0.0135047,-0.0118045239,0.005726427,-0.008480589,0.000865636452,0.005583006,-0.0008079523,0.0203810558,-0.00433582254,-0.0142822564,-0.00757601764],[-0.0114003867,0.00763728563,0.003826482,-0.001805571,-0.00148759352,0.014516,0.00692704,0.00821161,0.004013066,-0.0045579006,0.00205808971,0.0018328575,0.00472957641,-0.0133931292,0.009373495,0.0152603779,0.008305554,0.0103276242,-0.0007667869,0.001858643,0.0151165845,-0.006249193,-0.0260064173,0.00255325483,-0.004883171,0.0108479615,-0.00158690591,0.009244793,-0.0139846019,0.0185243823,-0.004445711,-0.0114160841,0.0147406114,0.0102804089,-0.003787196,-0.0114446729,0.0006920635,0.0124261482,0.00565610873,-0.0154254185,0.009225325,-0.00349447038,-0.00714042457,0.004233082,0.00163435517,-0.00266150036,0.009320237,0.0212318022,0.0278626457,-0.00359685184,0.01895205,0.00531973224,0.009824069,-0.0131706223,-0.00782179553,-0.008236291,-0.0125305485,-0.0028389506,0.0173205882,-0.0176517311,-0.009416044,0.007132136,0.0168875623,0.00701723155,0.0162013229,0.0218999851,-0.0074977004,-0.01696877,-0.00705139246,-0.0162240732,0.01768487,0.0115670133,-0.0143331438,0.015322146,0.0043164813,0.0009473063,0.00467224326,0.00187697727,0.0147876171,0.0205310844,0.00584857,0.0100717144,-0.0118259136,0.001364106,-0.00360440579,-0.00612849137,0.01948625,-0.005309902,-0.0124623217,-0.0237914789,-0.0065568476,0.00412092451,-0.00296606,-0.0123476516,0.00162027171,0.00707313372,-0.0155415889,-0.005040284,-0.002591243,-0.005081823,-0.0131806666,-0.009440207,0.00316691981,-0.0125025017,0.006337768,0.0121429386,-0.0168862529,-0.0122493589,-0.008116019,0.029614076,0.00112766435,-0.004940977,-0.0201523025,-0.0109213516,6.84115439E-05,0.02344987,-0.0218500011,0.01168028,0.0223456137,-0.008067383,0.022218572,0.00704854,-0.006741229,-0.0119507024,-0.0194174182,-0.00111568731,0.0161312725,0.018281132],[0.009936374,-0.017195709,-0.00779799651,-0.002415478,0.0015739362,-0.01864494,0.00158800336,-0.006957075,-0.008768552,0.00227092043,0.0100844512,-0.007133484,-0.000454104971,0.0182952229,-0.012030066,-0.00871398952,-0.0124176228,-0.013888251,-0.002508157,-0.00113743218,-0.0247383527,0.0010612167,0.0332261771,-0.00240578386,0.00325748813,-0.0139800441,-0.000421795936,0.00200091116,0.0119364429,-0.0214658156,0.0159887,0.009984755,-0.0133111328,-0.009013007,0.00695066154,0.0163390674,0.00364618725,-0.0184554,-0.006288589,0.0120970514,-0.0131536061,0.008510541,0.008804173,-0.00664759567,-0.000367081026,0.007586372,-0.005600869,-0.0173641443,-0.03355943,0.0101485858,-0.02021064,0.00221351767,-0.0100013474,0.01178285,-0.00175202731,0.009982721,0.009969605,0.00674926769,-0.0189053621,0.0112219481,0.009856421,-0.0238472559,-0.0160763245,-0.009804996,-0.0191970859,-0.0134457052,0.00173428119,0.0178107228,0.00417608349,0.018005643,-0.0150012793,-0.00807093,0.0128131127,-0.0136982324,-0.006275424,-0.00377777,0.00213984586,-0.009998151,-0.0144558726,-0.0155388573,0.00121784117,-0.0253846012,0.007635633,-0.00507430872,0.002372669,0.00331622129,-0.01689596,0.0131159993,0.01966313,0.0222324524,0.00397420255,0.005734305,-0.002131075,0.0206081327,-0.007189327,-0.00017491472,0.009630486,0.000258552667,-0.00258588325,-0.00499001332,0.010674376,0.005674285,-0.00292422436,0.003165421,-0.000876689854,-0.00680730725,0.01813681,0.008806248,-0.003771504,-0.0228118524,-0.006472949,0.009407801,0.0354529247,0.008565523,0.0134704318,-0.032145258,0.0178035,-0.0049755564,-0.0114944642,0.00160032522,-0.0130507071,-0.0151113495,0.0140853822,0.008468249,0.0243014358,0.007524107,-0.0119625414,-0.0159065388],[0.00844828,0.00321324961,0.008690642,0.00114117807,0.00332542672,0.00346839288,0.00227085128,0.00626507076,-0.009093033,0.0146412468,-0.0053392034,0.000259453285,-0.0138083957,-0.00319594145,0.001322269,-0.00272824825,0.002581389,0.007956794,-0.0005171629,-0.0115293749,0.008621079,-0.0006528813,-0.005339627,0.0004271671,-0.00257085031,-0.0045409007,0.007869769,-0.001415039,0.009642567,-0.006786925,-0.00479103625,0.00438852655,0.002327804,-0.00666408753,-0.00691502355,0.02185439,0.00504556531,0.000483457668,-0.009226779,-0.0070671197,0.00352523546,-0.006727763,-0.008079274,-0.00134202314,-0.010021829,0.00747620128,-0.0234611444,-0.0079228,0.00179703778,-0.00526341051,-0.00213879184,0.00261682132,0.00152606342,0.00491248257,0.00554830674,0.0135259153,0.00201066118,-0.004889974,0.00350698619,0.005224532,-0.0007840052,0.007006245,-0.0003088918,-0.00197373866,-0.00100463536,0.00311634643,1.86754532E-05,-0.00193583965,0.00754193,0.003045884,-0.006817756,-0.002483075,0.00227826764,0.003802806,-0.00584206125,0.0211676043,0.00188415567,0.0031542338,-0.0212900452,-0.00734031945,0.000420683064,0.009770609,0.008251102,0.005718688,0.007289738,4.00710669E-05,-0.011143988,0.002919904,-0.00441000424,-0.009150649,0.01032247,-0.007158846,0.008985958,-0.00630951067,-0.001430155,-0.009171149,0.00756359939,0.00387819973,0.000401331927,0.004934287,0.007737897,0.00788225047,0.0121826343,0.0112123387,-0.000657974742,-0.00388719141,-0.00542575261,-0.00507938,0.0206829868,-0.0108798184,-0.004911745,0.00867372751,-0.00170826749,-0.00020773249,-0.006790975,0.00702273427,0.0246883687,-0.0102011357,-0.00585887674,-0.000456551177,-0.0245670937,-0.01134339,-0.00018901375,0.01432667,-0.0002572302,-0.00125739712,-0.007852959,0.002304725],[-0.00549400738,0.0169914067,0.0109609794,0.00472139241,-0.011513805,0.009063456,0.00622663647,0.01213057,-0.000878510938,0.00307932729,-0.0102024106,0.008476248,0.00215674285,-0.004749391,0.0155258654,0.009213148,0.00131909736,0.0121160364,0.011079317,-0.010952631,0.0195302684,0.000500046066,-0.0235743746,-0.006481817,-0.0113353822,0.0123924846,0.00271918369,0.00021918377,-0.00277815154,0.0121271918,-0.0136225969,-0.01151632,0.0126089929,0.007391468,-0.0140800895,0.00039915173,-0.00659827562,0.0127165439,-0.004155067,-0.004788315,0.0104085626,-0.00719300052,-0.00663843146,0.009202127,-0.006480419,-0.00438697357,-0.0034297572,0.0119329458,0.021654401,-0.000476895075,0.016472159,-0.0019145332,0.0102595426,-0.010949648,0.0003404478,-0.0104770791,-0.009938991,-0.0102966651,0.0122701805,-0.00676001841,-0.006488951,0.0291657932,0.0145567507,0.0149832191,0.009797151,0.0183557328,-0.00365090487,-0.007389101,0.0102406349,-0.0157212075,0.016166959,0.005431354,-0.0121678812,0.0044379523,-8.53447855E-05,0.004865004,-0.012228027,0.0179158449,0.00500422856,0.0139057394,-0.00231233076,0.0195015259,-0.004185618,0.007350568,0.005305373,-0.0179142673,0.00177381176,-0.0115824165,-0.009808822,-0.0194923356,-0.0137730185,-0.008474907,-0.000243349845,-0.0156758018,0.006161519,-0.00777421053,-0.009443022,0.007759025,-0.007383451,0.0076951785,0.000143444209,-0.01016818,-0.00127070455,0.000951236754,0.0105206966,0.00294401823,-0.010338082,-0.01083835,-0.00239344523,0.005007641,0.005913133,-0.005122472,-0.03208541,-0.01652795,-0.0203675479,0.0220799185,-0.0103516327,-0.000198394991,0.004812857,-0.0060291863,0.00104184786,0.0152802924,-0.0143028274,-0.0159623865,-0.008045537,-0.0041234633,0.008238602,0.0173129],[0.0007059947,0.00629039947,0.00227247621,0.007532452,-0.00393376034,-0.0092121,0.005592686,0.00747720338,-0.004693791,0.00708638877,-0.0031110514,0.003170868,0.002140159,0.0102401013,0.00606069528,-0.006539105,-0.009501491,-0.003648004,-0.00120971934,-0.00236923341,-0.00205096835,-0.0006129289,0.0120687131,-0.0101409936,-7.45050856E-05,-0.00681795366,-0.0038489704,0.0005267217,0.0137304375,-0.0100949211,-0.00712857628,0.005970539,0.00211237418,0.00555292331,-0.00353036425,0.007876072,0.00206506765,0.000882122258,-0.013606891,0.0120067652,-0.0007260489,-0.002017,-1.54948145E-06,-0.00197997573,-0.00708712963,0.003839988,-0.00577557739,-0.00337195513,-0.0168717671,-0.000647225068,-0.0012754323,-0.00555308862,-0.007087951,1.14670056E-05,0.008213385,0.00549706025,-0.000936010445,-0.004321644,-0.007827945,0.0141163841,0.009588175,0.00317416061,-0.00711499341,0.006769722,-0.00673667761,-0.00348638487,-0.004849672,0.00533489371,0.0105624925,0.004922961,-0.00300317747,-0.0126099531,0.006770026,-0.011069404,0.000117707008,0.00198382232,-0.013157703,0.003916425,-0.008518723,-0.003582743,-0.00502188364,0.000761465635,0.009341352,0.01058344,0.00909161847,-0.004693713,-0.006297493,0.00458881631,0.0007403389,0.008618612,-0.00277829287,-0.00298553868,0.004382906,0.00216751639,0.0125318188,-0.00147410482,-0.0029381928,0.00750008924,-0.00242721266,0.008310693,0.007892738,-0.00187008618,-0.00467440626,0.00704077771,0.008247483,-0.005861846,0.00507254759,0.00019842184,0.005673805,-0.0133024678,0.00443607941,0.00327204564,0.000214162588,0.0013671905,-0.0121668251,-0.007974346,0.008463954,-0.009766471,-0.0105954753,-0.00184683374,-0.0137107605,0.0005193059,-0.000850768643,-0.000841265835,0.0182067547,-0.006873993,-0.007900482,-0.004702204],[-0.00213051774,0.0129220327,-0.00592546863,-0.004236772,0.004815354,0.02366878,0.00292077521,0.00464783236,0.008975457,-0.0025797328,0.001086344,0.00271631824,0.002257369,-0.0258333366,0.008457994,0.00917656,0.0230267141,0.0235267039,-0.000934716139,0.00204178668,0.0116386348,0.0007136878,-0.03768924,0.0110444557,0.00184144208,0.015990423,0.000493624946,-0.00357893365,-0.0188042931,0.0294891018,-0.00198643352,-0.00552125648,0.0100133717,0.0033715223,0.005631809,-0.0239428263,-0.00133683218,0.0169079434,0.00641521951,-0.0308978911,0.003738237,-0.00151796744,-0.0146697853,0.00742643373,0.00636508735,-0.00317850523,0.0181008074,0.030119542,0.04444626,-0.00379567361,0.02506993,0.0128540732,0.0235574488,-0.0129345478,-0.00863061752,-0.01170127,-0.005316921,-0.00532971835,0.0282021482,-0.0199089069,-0.0198553652,0.0119404458,0.0207890179,-0.0009206142,0.0330883265,0.0167255,-0.00171897246,-0.0155034186,-0.0193765964,-0.0135531155,0.02133905,0.0194599945,-0.0127342707,0.017613057,0.00404400751,0.0141029637,0.008585257,0.00198684726,0.0162863676,0.0162091162,0.004868147,0.0142184449,-0.00637954054,-0.00495105935,-0.0103838677,-0.0017471012,0.0205930639,-0.0125778532,-0.005064985,-0.0339776427,-0.006581553,0.008799831,0.009042517,-0.0193300117,-0.0156549178,0.0006043471,-0.01260964,-0.003700303,0.00218479848,-0.0124915568,-0.0146338316,-0.010564249,0.0185891949,-0.01282479,-0.0024759993,0.0180321988,-0.0184496883,-0.0170356371,-0.00397238,0.0435266867,-0.000836891064,-0.00593067752,-0.01635609,0.000225413052,0.00761314249,0.04410005,-0.0231667031,0.0115603823,0.0270170942,-0.007503156,0.0247392245,0.009533105,-0.0133204656,-0.00818388,-0.0340363532,0.00259694085,0.02626676,0.02299576],[0.000198696624,0.0180229452,0.00745450053,0.00217591622,-0.000895831,0.006663016,-0.00194774254,0.0136798657,0.003019996,0.009430811,-0.00628362736,0.0112694418,0.001969255,-0.0116637964,0.0145495972,0.0129559767,0.005075375,0.0151117677,0.007905638,-0.00829230249,0.0215808339,0.00115992257,-0.02621841,-0.00349686132,-0.006003254,0.01375748,0.00628096052,-0.00321233366,-0.00167733629,0.009254737,-0.0116127729,-0.00139369071,0.0127785644,0.00184739765,-0.0151894763,0.00324770086,-0.007855901,0.016371917,0.00171156472,-0.009302854,0.0120786438,-0.0067471643,-0.009923166,0.0102791218,-0.006212031,-0.00737611344,-0.00415924843,0.009780119,0.0172683671,-0.008701496,0.017825976,-0.00479054125,0.00708074355,-0.0100243054,-0.000404748978,-0.00760056032,-0.010652693,-0.004772716,0.0148660364,-0.000415120885,-0.00660354,0.0172762536,0.0147332838,0.0149881672,0.0130048944,0.0103351492,-0.006626489,-0.008494943,0.011124,-0.004413305,0.0133425379,-0.000626075955,-0.01570612,0.00913173053,-5.32435843E-06,0.0128318546,-0.006530093,0.009563765,0.00329039362,0.00349140516,-0.00461476855,0.0180598032,0.000119204327,0.0063825557,0.00379018718,-0.01536237,-0.0007804392,-0.009040434,-0.0141674969,-0.0210996661,-0.0039940225,-0.009998785,0.006948844,-0.0162525456,0.00804152,-0.008129112,-0.00102821109,0.0052827117,-0.000384236249,0.00655411,0.00212063757,-0.00380315562,0.004913546,0.00445346,0.007991318,-0.000143211888,-0.012529254,-0.0106427465,0.007957997,0.009326213,0.00284825847,-0.000734403,-0.0290930942,-0.0104428111,-0.0119234836,0.0303098876,0.00129079982,-0.00293792435,0.008601581,-0.008983514,-0.00723009231,0.00533664133,-0.01491149,-0.003322084,-0.0124468459,-0.00974031,0.005307598,0.0145744709],[-0.01098788,0.0274098963,0.009723381,0.0202319045,-0.0126481419,0.000797120039,0.01179646,0.0179276187,0.005127762,0.008696455,-0.0122534027,0.0210963488,-0.000574201345,0.00541958865,0.0263701342,0.0106989536,-0.00827924,-0.00358467363,0.0136502758,-0.007967944,0.0122772586,-0.006534869,0.00235239929,-0.0199655239,-0.0161793139,0.0169158746,-0.009226259,0.015662916,-0.00190803886,0.002562674,-0.0228374321,-0.0144618228,0.0183924753,0.02145345,-0.02840006,-0.00104956469,-0.007088706,0.007032707,0.0117003191,0.009643694,0.0160947572,-0.006648256,0.00418143533,0.0184053928,-0.0110860951,-0.0131409075,0.0195159037,0.0183757059,0.00232524984,-0.00066964596,0.0203567035,0.00175149133,-0.0023349137,-0.0232414883,0.0120318113,-0.0117801679,-0.0112204831,-0.0153876357,0.00218254025,-0.00540297944,-0.004805514,0.0286730472,0.00339732156,0.0213064421,-0.013625945,0.0158655252,-0.0134366462,-0.0120792817,0.0264511369,-0.0145426784,0.00409039157,-0.001121491,-0.0156760029,-0.00163638126,0.0072395727,-0.015685495,-0.0113004949,0.0192652512,0.0245327167,0.00996053,-0.005046068,0.00724529848,-0.0128618022,0.0123021677,-0.007928497,-0.01725828,0.0193066336,-0.00210299972,-0.009915292,-0.003915745,-0.03768386,-0.0206351448,-0.001463584,5.828254E-05,0.02693721,-0.009783784,-0.011745316,0.0113231065,-0.0105412435,0.013827526,-0.0141719747,-0.0159782041,-0.0224878211,-0.0126848547,0.0201024264,0.001074413,-0.00142473157,0.00376225729,-0.0151156364,-0.00514315953,0.0102061648,-0.0188229773,-0.03591414,-0.019345222,-0.027777398,-0.0108630005,-0.0194948371,0.0109599074,0.00250254758,0.00278775021,0.0157637578,0.0163605735,-0.0212538671,-0.0323014781,0.00377025362,-0.0119261332,0.00195524725,0.01255918],[0.009367501,-0.0005212191,-0.0035154908,0.007071449,-0.00563274976,-0.0182816926,-0.000196425462,-0.004026309,-0.00092871784,0.006259324,-0.00122399617,-0.00156221364,-0.002187783,0.013943647,0.00580376154,-0.00747992657,-0.021074336,-0.0165172759,0.004509639,-0.00263033086,-0.008174248,0.00252917968,0.0281104539,-0.009889258,-0.00485430332,-0.0109201763,-0.008840464,-0.00673695235,0.0211833231,-0.01993684,0.00156084169,0.00153405184,-0.005138304,-0.00448582135,-0.00464523863,0.00723922765,-0.004478624,-0.0126110371,-0.00542952865,0.0177367143,-0.004319549,-0.003520161,0.008232039,-0.00851824,0.00343130575,0.0002684877,-0.00712312153,-0.009519928,-0.0347024947,0.009038554,-0.0172137339,-0.005379539,-0.01680234,0.0064911847,0.009521129,0.007243023,0.00840826,-0.00201334455,-0.00963117648,0.0176158044,0.009379861,-0.00395460939,-0.01131377,-0.0026490395,-0.0189451855,-0.008712038,0.00324204448,0.0134803792,0.007618891,0.005277529,-0.012730075,-0.0156839881,0.0111575807,-0.0149124963,-0.00534707867,-0.0123080229,-0.00688107265,-0.00264470279,-0.008463988,-0.0162842032,-0.005831554,-0.015609608,0.008045115,0.006274794,0.011181822,-0.0009741957,-0.0179170035,0.00731118349,0.006905502,0.0275214538,0.002248492,-0.00366668054,-0.00770289451,0.0136125628,0.0145299574,0.00177697081,0.006985759,0.0114239743,-0.00698350044,0.01393502,0.006755061,0.007758233,-0.0131282993,0.0074606007,-0.004798979,-0.0128899058,0.0137617793,0.0185391512,0.00190022553,-0.0250963643,-0.00365418172,0.00169997406,0.008894605,0.0009537623,-0.006122625,-0.02400846,0.00505886832,-0.0106203342,-0.0167021528,0.004046575,-0.0149504254,-0.00626987126,0.00537841674,0.0029213652,0.0259904582,-0.003045171,-0.0127192186,-0.0111538479],[0.011201825,-0.0313819423,-0.00537428865,-0.0193786118,0.0156645961,0.00349299517,-0.009945794,-0.0183409434,-0.009879248,-0.0121331215,0.01096365,-0.0213034749,-0.00862048753,-0.001826864,-0.0234579667,-0.014912853,0.009527679,0.0116669033,-0.005301795,0.003195583,-0.00373105123,-0.0007920216,-0.000227100332,0.0129176965,0.0152955847,-0.0199978687,0.005609199,-0.0111173717,0.00458304165,-0.00145829679,0.02263148,0.0129143409,-0.0105008846,-0.0204222221,0.02087326,0.008840194,0.0075737047,-0.002426997,-0.00770963077,-0.0228894129,-0.0182689745,0.0103434045,-0.006349659,-0.0154834287,0.008031994,0.0137568116,-0.02436616,-0.0151331825,-0.00140918675,-0.00130681717,-0.0162972026,-0.00157527556,0.00745162833,0.0150566828,-0.0192691945,0.0176098831,0.00510283839,0.0209039021,0.0014965476,0.0144924121,0.00531184347,-0.0282389745,-0.008716466,-0.02451033,0.008581793,-0.0156316217,0.0111913821,0.0172670651,-0.0280367527,0.0193546414,-0.008545385,0.00339726266,0.0107141584,0.00157757965,-0.00152613979,0.030349778,0.0157012139,-0.0243322235,-0.0241368171,-0.0159664433,0.00708382577,-0.007861066,0.00400905544,-0.0115684876,0.00267852377,0.0165117234,-0.0147804311,-0.00459979149,0.00512984768,-0.00209119078,0.0308840685,0.0213532746,0.008355312,0.00323428,-0.0294172224,0.00146436307,0.0167836677,-0.0106385415,0.00142244343,-0.0157584623,0.0130297877,0.0204486884,0.0207331832,0.0128769092,-0.0221136026,-0.00278109871,-0.008290636,-0.00350079453,0.026020484,-0.00284298137,-0.01558991,0.0213997774,0.0292794071,0.0252914131,0.0250956975,0.0118423169,0.0296825785,-0.005295977,0.00161661964,0.00395268761,-0.02464191,-0.01745361,0.0222757123,0.03440915,-0.00555813,0.00467427867,-0.004697158,-0.012666611],[-3.08648123E-05,-0.008618346,0.00187486783,0.009214397,-0.00286208256,-0.0247254036,0.000482947216,-0.009085164,-0.00248110527,0.00417914148,0.0002638253,0.00202959031,0.0005008916,0.0178039484,-0.00463803438,-0.00661209924,-0.0206669047,-0.0157333352,-0.005708979,-0.0009275887,-0.0141490763,0.005081154,0.028817011,-0.006846347,-0.00541304564,-0.0162612349,-0.00481471745,-0.00303509831,0.0186979938,-0.0229412559,0.004374144,0.00108351035,-0.009657708,-0.0006242086,0.00020554704,0.01498206,0.003812882,-0.0190016013,-0.00353129068,0.0299808942,-0.009507835,-0.00241601886,0.0156629831,-0.00671005948,-0.00613608444,0.0067516705,-0.00641023554,-0.0188322458,-0.0338316262,0.0105511351,-0.0246000923,-0.004311156,-0.0156250875,0.00413975539,0.0001168822,0.0045300005,0.009725561,0.00287230057,-0.01723978,0.0178317055,0.0152379954,-0.0166267343,-0.0213269088,-0.00392265571,-0.0279171411,-0.0135080116,0.0010481677,0.0106626255,0.01100085,0.0132740615,-0.0151486127,-0.0143885305,0.012106576,-0.020817833,-0.006177109,-0.0139622623,-0.007135112,-0.00320413639,-0.009176224,-0.0159812924,0.0005696822,-0.0194753744,0.00371754286,0.00724605564,0.00119071489,0.00779399276,-0.0162160154,0.0145823359,0.01151651,0.03007,-0.0009301823,-0.00132356654,-0.00621943362,0.0120712984,0.0122836335,0.00231387629,0.0113174589,0.008823784,-0.003660769,0.0101387976,0.0057903775,0.00139567058,-0.0190248769,0.009905268,0.00262344186,-0.0157244764,0.0206003357,0.017538758,-0.004607346,-0.0352556,-0.002101516,0.0117718177,0.0231848042,0.0009094762,0.00202134484,-0.0336584523,0.0133047933,-0.0118877506,-0.0180949215,0.00488183927,-0.0118148448,-0.000151098284,0.00426739175,0.00160594285,0.0262659714,0.00179889251,-0.018032616,-0.0201164018],[0.0136183286,-0.0339578576,-0.0101244431,-0.0229489338,0.01592977,0.0008765114,-0.005351384,-0.0190431457,-0.0148367528,-0.0131603181,0.00769464951,-0.0210088417,-0.009025081,-0.00103512174,-0.0220396873,-0.0181353372,0.0113793965,0.0122027872,-0.008194726,-0.002957603,-0.00489091128,0.000286940165,-0.00245589949,0.0203812532,0.0179620534,-0.0291123446,0.009431256,-0.0184583366,0.009700261,0.00175783481,0.023161,0.02509836,-0.0210151654,-0.0276279375,0.0302009843,0.0052812295,0.0103213964,-0.006481409,-0.0141550666,-0.0237798747,-0.017600894,0.00694128638,-0.008605438,-0.0241820123,0.0121910926,0.0173476432,-0.025323946,-0.0140326247,0.00310576451,0.00374115515,-0.0168067217,-0.000795848,0.00891738,0.0233986471,-0.016132595,0.022201173,0.004579825,0.01266274,0.008586103,0.01401196,0.005416117,-0.0307256915,-0.00389740244,-0.0250852574,0.0114277946,-0.02277285,0.0198595338,0.0165387522,-0.03181071,0.0306039527,-0.0171185471,0.005561193,0.008622633,-0.004193925,-0.0005999836,0.026727343,0.0205358341,-0.0217135642,-0.03493106,-0.0203556754,0.000339136866,-0.003236653,0.0128085539,-0.0184825212,0.0136804208,0.0213302318,-0.0223335531,-0.00186220848,0.01104893,-0.006311288,0.04539039,0.0253571551,0.00658367435,0.00242965622,-0.03365709,0.003377068,0.0170147754,-0.00264381221,0.011972242,-0.01674737,0.0266402289,0.0259479024,0.0238840785,0.0294959452,-0.0296258219,-0.002258298,-0.007828503,-0.00752792042,0.02907405,-0.003857161,-0.0169957448,0.0224680733,0.0333603844,0.0250305235,0.0298688915,0.0208008979,0.0334468335,-0.0132718412,-0.000306370523,0.00442356849,-0.03369302,-0.0292486958,0.0259491,0.0470839329,0.00136540749,0.00737297162,-0.0122508835,-0.0166829061],[-0.008733968,0.0112924632,0.00164542266,-0.00110693707,0.0032628167,0.0219564326,-0.00138406537,0.005408928,0.004668152,-0.006420315,0.000479525072,-0.003474146,0.00118666375,-0.0257597771,0.00138091564,0.008606775,0.02349898,0.0161894411,0.00175119261,0.00545526249,0.0103673991,-0.0007588694,-0.0380638577,0.005756827,0.00406537764,0.012403504,0.006060856,-0.000159550546,-0.0181061421,0.0303891525,-0.006309391,-0.005873908,0.0124943759,0.004069086,0.00645089941,-0.0207719747,0.00398648856,0.0185401291,0.0104927858,-0.0245554689,0.00323095545,0.00489624729,-0.00820022449,0.003367275,0.00434783055,-0.0107334331,0.009631996,0.02784947,0.0440945849,-0.0110618295,0.0176481754,0.00429494353,0.0200814232,-0.011817853,-0.0028114696,-0.0143965809,-0.0138308182,0.002261488,0.0238556061,-0.0243700445,-0.0159648266,0.0116958171,0.0153767588,0.00379476533,0.02598862,0.01436762,0.00279914332,-0.021775106,-0.0234410744,-0.0191042926,0.0247510523,0.0213302951,-0.0100190286,0.021294605,0.006326667,0.008437749,0.0124560734,-0.00335905445,0.01723302,0.0154806022,0.0105574671,0.0191344824,-0.00762524828,-0.00211355556,-0.003500757,-0.0009990837,0.0238410961,-0.0146284038,-0.0117793391,-0.0340824574,-0.00603877939,0.00521847559,0.00847519,-0.0197618976,-0.004202879,0.0020668807,-0.0153210294,-0.00673719728,0.00138810766,-0.008141756,-0.0127086835,-0.00399942463,0.0157876536,-0.0075881565,4.341677E-05,0.0138908885,-0.0181632638,-0.0128909107,-0.00143353606,0.0351648368,0.003731651,-0.003151604,-0.0154232923,-0.00499763526,0.000710153836,0.0383352265,-0.0210943315,0.0111004589,0.02151905,-0.0103442445,0.0270298161,0.006273884,-0.00820015,-0.0134543292,-0.03420228,0.0002282536,0.0276433472,0.0235690512],[0.00283043343,-0.0186068527,-0.005579697,-0.007886226,0.0027432947,-0.0139602013,-0.00284683029,-0.008912343,-0.00424637971,-0.000133056979,0.007438135,-0.00323402183,-0.007909157,0.007720384,-0.009102478,-0.0153829688,-0.00443666056,-0.0113865659,-0.00524088833,0.0001604626,-0.007504752,0.00109641207,0.0199898053,0.001026539,0.00645299675,-0.0104115,-0.00377608836,-0.006760211,0.011817351,-0.017187994,0.009531582,0.008078425,-0.0139629766,-0.01351168,0.0123368585,0.0117264371,0.00497233262,-0.01080136,-0.00721625658,0.00741054444,-0.0125326933,0.00203614449,-0.00337473722,-0.00448374636,-0.0007207232,0.00215276587,-0.009482864,-0.0179499052,-0.0181415938,0.00639025,-0.01823748,-0.002247794,-0.0111783175,0.008456411,0.00274278852,0.00653210143,0.0122345965,0.008855121,-0.0111131705,0.0108600659,0.009663897,-0.0181065984,-0.01790404,-0.009541345,-0.007240917,-0.0155678391,0.00669553271,0.01469506,9.13071563E-05,0.0183754172,-0.0176943988,-0.0102791591,0.0091558015,-0.0170114432,-0.00248640729,0.008440858,-0.00257074856,-0.004531271,-0.0125234695,-0.0121145826,-0.00246448047,-0.0143457409,0.004390579,-0.007337854,0.00474125566,0.004008049,-0.0161927175,-0.0009618454,0.0124031864,0.0167974811,0.0193866324,0.00649587857,0.005278827,0.0136374161,-0.000365109532,-0.000504863565,0.0149163762,-0.00154077588,0.00469970843,-0.00512600457,0.0134605644,0.00927303,0.000941201637,0.0133490907,-0.004993152,-0.007063166,0.0141634289,0.00542618427,0.007874172,-0.0178861618,-0.00680986233,0.009949066,0.023920862,0.008795482,0.00761526264,-0.0185112543,0.01482059,-0.008748356,-0.01870094,0.007111283,-0.0142834894,-0.0101949545,0.01720274,0.0151635725,0.0216854755,0.00745193055,-0.0148633122,-0.0145200742],[-0.0108158393,0.0232547726,0.0139770051,0.017570179,-0.01342801,-0.0062389,0.00429664459,0.012623542,0.0152933784,0.0103026684,-0.009875827,0.0220538415,0.0102714058,0.00403355854,0.01922283,0.0168826543,-0.006765239,-0.009457098,0.0107338568,-3.105765E-06,0.00330041745,-0.0008658275,0.008607807,-0.0166872442,-0.0126450853,0.0201935917,-0.004791934,0.00831029,-0.00302277086,-0.00245082239,-0.0191670582,-0.0165397655,0.0137619618,0.0232127681,-0.0278558712,-0.00127609726,-0.00611167541,0.00309334369,0.00337931653,0.0250590481,0.0194544885,-0.009106432,0.0124210389,0.0188794751,-0.005530405,-0.0113767721,0.0175258461,0.0159581117,-0.00224660314,0.00504634948,0.0131515879,0.000143275072,-0.00208174926,-0.022286,0.0150630716,-0.01569956,-0.00538928434,-0.0122629935,-0.007852383,-0.00739965355,-0.00732021732,0.02585235,0.00684475759,0.0184187219,-0.01357738,0.0141608557,-0.0147311287,-0.0117167579,0.0297697149,-0.0230571479,0.0113353422,-0.00172820978,-0.009821472,-0.00230029342,0.00204330985,-0.0293198749,-0.021393517,0.0154546313,0.0260891244,0.0110209128,0.003596727,0.00235519023,-0.007786236,0.009259186,-0.00497873127,-0.02133875,0.0172638167,0.00326304859,-0.008410032,0.007708765,-0.0333056748,-0.0251863766,-0.0126032569,-0.00719893,0.0214494653,-0.006995987,-0.014272959,0.005832401,-0.009051109,0.0177017376,-0.0198229365,-0.0189192221,-0.0271610152,-0.01713427,0.0195899345,0.00424635736,0.00143579044,0.0112394439,-0.0260922927,0.00049951754,0.0181485415,-0.0153657338,-0.0205114856,-0.02204526,-0.0192836784,-0.0177051276,-0.0294851512,0.0141248144,-0.000787506,-0.00479885424,0.0287845,0.01829712,-0.0230480339,-0.0337308347,0.008619516,-0.0114208823,0.00729627628,0.0158268362],[0.00633723941,-0.005778838,0.00334504456,0.000821263529,-0.00638079876,-0.02001614,-0.00151609315,-0.00118195626,-0.00158441707,0.00570384739,0.0005082709,0.0025039718,0.0005654358,0.0221999418,-0.00442230934,-0.008950126,-0.020109443,-0.0152709447,-0.00336866686,-0.004329282,-0.0100624431,0.00171826675,0.0283436552,-0.007958107,-0.00261933263,-0.013953194,-0.00127664709,-0.00107067835,0.0187918041,-0.0267251618,-0.00100823294,0.009842262,-0.009001678,-0.00648492528,0.00178973435,0.0164720919,-0.0014771187,-0.013697695,-0.0106697846,0.0210340545,-0.00293628476,-0.006711279,0.00758555951,-0.00743734045,-0.000628819165,0.009499496,-0.0173770022,-0.0225498732,-0.0342803821,0.00410041073,-0.0179340579,-0.009226453,-0.01586453,0.00603045756,0.00722953631,0.006634307,0.007908042,-0.000789318641,-0.0119308606,0.0227875132,0.0111930724,-0.00901409052,-0.0210270081,-0.0021489202,-0.0193839278,-0.0159029029,-0.00346624921,0.0100982962,0.0114860693,0.0110267382,-0.0266436953,-0.0141883036,0.0148584889,-0.023229802,-0.007683005,0.00127022539,-0.00509561645,-0.0009000689,-0.016129151,-0.0169997867,-0.00341633661,-0.0166404173,0.0116329417,0.009761305,0.00773770735,-0.00676547037,-0.022591427,0.0115772849,0.009279398,0.02767789,0.0101257609,-0.00165395869,-0.005728217,0.0199515019,0.00389681081,-0.00447174674,0.0113757309,0.007552693,-0.00770009449,0.0148798758,0.0175004527,0.0105194906,-0.004121598,0.0147960661,-0.004363783,-0.0172331054,0.0192622058,0.0121295806,0.01033471,-0.03714283,-0.002764621,0.00502361,0.0121236928,0.0043014884,-0.005621341,-0.0259661544,0.01655489,-0.0109409494,-0.0227367319,0.0123158135,-0.0230629817,-0.007470725,0.006980073,0.00728191668,0.0292991232,-0.008362303,-0.026238339,-0.0197200011],[0.008757351,-0.011166825,0.00448800623,0.00528234476,-0.00317406072,-0.0182690639,0.00354074733,-0.002945847,0.00187612663,0.00840779953,-0.00169554411,0.00204008748,-0.00203739759,0.0208485,0.000108344211,-0.005049002,-0.0230013411,-0.0236999951,-0.001183187,0.0030212577,-0.0116408337,0.00277870614,0.0308890454,-0.005839516,-0.000147003448,-0.0134576056,-0.005910667,0.00135304255,0.0212389771,-0.0201505646,-0.000865038659,0.009073324,-0.005439568,0.000163683508,-0.004670235,0.016223643,-0.0015333296,-0.0117815956,-0.004009598,0.0288346279,0.000762463431,0.000332930853,0.014440123,-0.00326110073,-0.0076629715,-0.00199798238,-0.005993254,-0.0191024318,-0.0344872177,0.007370528,-0.0134814009,-0.005109463,-0.014761867,0.00353430561,0.00582208438,0.00286036031,0.006510943,0.00275062257,-0.0125320014,0.0151019068,0.005420828,-0.0114092352,-0.014912175,0.00025122604,-0.0231859758,-0.0139405867,0.00147027569,0.0144609055,0.009415402,0.01280086,-0.0191185828,-0.0136022465,0.009702259,-0.0227549188,-0.009882562,-0.0132748634,-0.009799814,0.003748154,-0.008996057,-0.0134887006,-0.0106429812,-0.01691567,0.0107696746,0.00257187383,0.00451829424,0.00308403932,-0.0162613019,0.0145644248,0.0139941471,0.0335625336,-0.00313504157,-0.01044253,-0.0119002992,0.01233793,0.00638519134,0.0032422056,0.0116868792,0.002535222,-8.836175E-05,0.00726238638,0.004861375,0.002792722,-0.01603428,0.009451972,0.00219777413,-0.0118913278,0.01899104,0.01765903,0.00210395176,-0.0272065736,-0.000717412855,0.000186262245,0.0184261575,0.0026084797,0.004289077,-0.0399174541,0.0140701374,-0.00340898917,-0.0220932085,0.0036041236,-0.0093790805,-0.00247342954,0.0105637684,-0.00022980482,0.02947777,-0.008587284,-0.0231568553,-0.01965295],[-0.014168445,0.03435556,0.011192604,0.02563929,-0.01883082,0.00265307771,0.0110890763,0.01401746,0.01380188,0.008964908,-0.0147112254,0.02417125,0.005060838,0.00714438129,0.0278862156,0.0224318616,-0.008521793,-0.0127711585,0.0102867093,0.00303476886,0.008239193,0.000677338045,0.0009115974,-0.0209577456,-0.01720405,0.0209400151,-0.00444047246,0.0155391255,-0.0112051768,0.00388616323,-0.0247817878,-0.0227193721,0.0147007629,0.0282681361,-0.0274268966,-0.00464033475,-0.008405392,0.003327394,0.0109924693,0.0232702829,0.0216908641,-0.008260961,0.008843755,0.0229419488,-0.00809178,-0.0134852966,0.0211189426,0.0175012741,0.003683345,-0.001231753,0.0179974735,0.00770324375,-0.00153607037,-0.0285082143,0.02028758,-0.0162881762,-0.0107858079,-0.01624551,0.003823812,-0.0152381714,-0.008730867,0.0318177231,0.007721665,0.0215129331,-0.011469543,0.0191021785,-0.0130229341,-0.01986716,0.03536425,-0.0241461955,0.00524123572,-0.006069027,-0.0155260935,-0.0005562319,0.007103477,-0.0241166148,-0.0129885469,0.0172347277,0.0275613032,0.0236540027,-0.00480872253,0.01021734,-0.0139187388,0.0177429654,-0.01049179,-0.0263091251,0.0270818342,-0.003392054,-0.0156999417,0.0053752563,-0.0431950651,-0.0250463188,-0.008929278,-0.00243670656,0.032990206,-0.00575312972,-0.0172376074,0.001966702,-0.00356219173,0.0188474488,-0.0200526454,-0.024355419,-0.0285693463,-0.0205180738,0.024581518,0.00103619706,0.002398519,0.00699636852,-0.0241796877,0.00478457427,0.0196458157,-0.0195225663,-0.0348484628,-0.0259079318,-0.0279339,-0.0139087308,-0.02504209,0.0182280038,-0.000436115981,-0.000632422161,0.0308215525,0.0257182289,-0.0224264972,-0.039197,0.00299716461,-0.0109033119,0.010557903,0.0142303128],[-0.0150997955,0.03478815,0.0146141127,0.02418781,-0.0155710606,0.005808248,0.0129011422,0.0199943576,0.0131391762,0.009593389,-0.0134123266,0.02269865,0.0123007549,-0.00510662142,0.024161268,0.0236403216,-0.009985522,-0.00852422,0.00711276,0.00471842242,0.009197219,-0.00548529159,-0.003778897,-0.0214459728,-0.008928501,0.0239705238,-0.0116205281,0.0141365873,-0.007221879,0.0100223823,-0.0222667456,-0.0193144586,0.0133186094,0.0238925833,-0.0282401443,-0.008904938,-0.00357634388,0.008522565,0.007989256,0.0234613046,0.0140347127,-0.00508263847,0.006740072,0.0148648135,-0.00767007237,-0.0129194362,0.01820319,0.0156746749,0.00284918421,0.000976396666,0.0133092077,0.00202687271,-0.005886486,-0.0266806427,0.008278596,-0.0186247136,-0.00707190158,-0.01727785,0.00187289761,-0.0119284615,-0.00723953266,0.031042859,0.0105415713,0.0235141311,-0.0106096026,0.0270243473,-0.0197258648,-0.01616681,0.02938981,-0.02395369,0.0179602616,-0.003388162,-0.009574536,0.00165462424,0.008768868,-0.02074893,-0.0133216148,0.01960358,0.0291827414,0.0222068857,-0.00236314069,0.00827813,-0.01251152,0.01382835,-0.0061791,-0.0173002239,0.0264391229,0.00448563462,-0.01678103,-0.00475171,-0.0421901159,-0.02755473,-0.0152100995,-0.00727583561,0.0223927684,-0.00418701954,-0.0195671674,0.00373535976,-0.005314809,0.0127658462,-0.0196504686,-0.0237316,-0.0258537754,-0.0203652233,0.0185069442,0.00264902157,0.00113807688,0.0103745442,-0.0209171548,0.0007348131,0.0213123374,-0.0135851428,-0.0280494522,-0.0216916185,-0.025760293,-0.0115476036,-0.0302742235,0.0146815125,0.00484104268,-0.008910919,0.03159402,0.03008772,-0.0278431661,-0.0367536023,-0.00173386361,-0.013767818,0.00595660647,0.0190259311],[-0.0115163671,0.0258261189,0.0134529369,0.011546676,-0.005675288,0.009325693,0.004023607,0.0205944646,0.009886037,0.00536940061,-0.007320766,0.0128748044,0.00428193528,-0.00382067449,0.0251259264,0.02327473,-0.006399517,-0.00265735853,0.0109292408,0.00133163983,0.01072461,-0.00684015127,-0.0129085192,-0.0192367621,-0.009515987,0.0178148765,-0.00420755567,0.0121703707,-0.006045824,0.0131335137,-0.0223719478,-0.0191425718,0.01638599,0.0188150834,-0.0235724617,-0.0114397686,-0.00728426874,0.00468563056,0.009537413,0.0114391036,0.0144112539,-0.00207934622,0.0064788186,0.0144798364,-0.007211761,-0.0162600391,0.013737388,0.0199129358,0.0152373407,-0.002990542,0.0200969353,9.71095942E-05,0.004438369,-0.0168930255,0.010206623,-0.0149601214,-0.00768039236,-0.0145100132,0.0102030961,-0.0162799414,-0.0116734933,0.0285757016,0.009408962,0.01428568,-0.0006504631,0.020448735,-0.009801809,-0.0119887386,0.011640586,-0.0246114917,0.01256357,0.00347348326,-0.0160521269,0.00540733058,0.004602436,-0.007850467,-0.00650326535,0.009878648,0.0272054244,0.0202345252,0.0008847539,0.014431675,-0.0103616659,0.0130612934,-0.006371979,-0.0175221525,0.0132185444,0.00302167214,-0.0159848388,-0.00771386642,-0.0306213051,-0.01844805,-0.004712891,-0.008864948,0.02143209,-0.009227253,-0.0156150823,0.0114475945,-0.005780762,0.0101541206,-0.0163080152,-0.0171292182,-0.0138862384,-0.0145946508,0.0175662246,0.00281025469,-0.00063885795,0.0006732128,-0.0112907561,0.009749823,0.009961736,-0.007920557,-0.03562304,-0.015806824,-0.0178478528,0.009586334,-0.0241303518,0.0129190162,0.010118084,-0.005041853,0.0192045681,0.02172307,-0.0182502568,-0.0315343924,-0.0120958732,-0.0131812636,0.005761677,0.0157821346],[-0.004098114,0.0129045444,0.000944648345,-0.0105696907,-0.0032469565,0.0266688373,0.00486314064,0.00494671473,0.00319647416,0.0006261607,-0.0026486814,-0.000428942963,-0.0006342434,-0.0175802074,0.00906233,0.00296714832,0.0161867458,0.0256548841,0.00261432375,-0.0104629388,0.0219074022,0.00418090541,-0.0335417166,0.0132635394,-0.00140782446,0.013725928,0.003751273,0.00133683276,-0.01654803,0.018323198,-0.008288088,-0.003534724,0.0141005144,-0.004846586,0.00178886508,-0.0105026681,0.003138907,0.0188943073,0.00143082952,-0.0271925814,0.00162378012,-0.00482569449,-0.0183507074,0.0130604822,-0.0003660818,0.0006886419,-0.00136999623,0.0211727023,0.04449025,-0.0107662948,0.02514035,0.002558503,0.0242992826,-0.006537444,-0.00233229459,-0.007698663,-0.005322935,-0.00395029131,0.0231865086,-0.0115042152,-0.013288497,0.0139814839,0.022403663,0.00271155685,0.0306268148,0.0143477367,0.00500355242,-0.0161468368,-0.01431735,-0.00221879361,0.0102635892,0.0163422339,-0.0137281027,0.0135792242,0.008507974,0.0171235558,0.00406815857,0.00590799144,0.00348449941,0.0102657722,0.006047626,0.0185388587,-0.0010628344,-0.005120479,-0.00122401665,-0.00502681,0.009608154,-0.0154312793,-0.0148083251,-0.03925094,0.006086453,-0.000532929844,0.0107914945,-0.02157401,-0.00614007935,-0.00270688557,-0.007933196,-0.00656836433,0.001404005,-0.007142531,-0.004586289,-0.001931085,0.0214099977,-0.00116039463,-0.0020985927,0.0121530434,-0.0243567172,-0.0229823515,0.005345819,0.0328213349,-0.004514033,-0.009142511,-0.0256627481,-0.00685338629,-0.00613839645,0.04145597,-0.006787228,0.00330685,0.0152998734,-0.004343519,0.007674999,-0.00245293765,-0.006398179,0.000564927934,-0.02212558,-8.971007E-06,0.0145505639,0.01860249],[-0.0067030685,0.01280405,0.00530046737,-0.00141786318,-0.00561411865,0.0229482017,0.00329954759,0.00495898537,0.0125389323,-0.004642729,-0.00299693132,0.00205444521,0.00188087486,-0.0185813345,0.0136526655,0.01452263,0.00954376347,0.0172613952,0.0056729475,0.0005896795,0.0187444743,-0.00468279654,-0.03631561,0.00202274416,0.001978299,0.0196435265,-0.00163791864,0.005567725,-0.0195034556,0.0213840846,-0.005187328,-0.0125144022,0.0167072471,0.009080228,-0.00355591788,-0.0153225716,-0.00122130429,0.0102096871,0.00335086184,-0.0196251851,0.009927095,0.000880898035,-0.007448713,0.00424867,0.004972536,-0.0101308813,0.01129753,0.0188831631,0.04100774,-0.00329154474,0.0203260444,0.003162046,0.0222059432,-0.007857859,-0.00490464969,-0.009157707,-0.004546446,-0.005838786,0.0260381028,-0.0202864222,-0.0131175509,0.0195684619,0.0174147915,0.00329521834,0.02535222,0.02109601,-0.0004583097,-0.01759587,-0.010067407,-0.0191297848,0.0173697174,0.00758956652,-0.0139633818,0.01868577,0.00943223,0.00110037276,-0.00299923238,0.00164561556,0.0185306817,0.0145613039,-0.003605543,0.0195657387,-0.00762438076,0.001984167,-0.00468146754,-0.0008987439,0.02044258,-0.008658233,-0.0165017284,-0.0272835437,-0.005115646,0.000754514243,-0.00117933145,-0.0158232041,0.00456949975,-0.004514796,-0.0162467677,-0.00270077167,0.00659351237,-0.003482147,-0.0113441441,-0.0064943675,0.00552799739,-0.0127029689,0.00667770766,0.0144246807,-0.0159085374,-0.011917836,-0.00255092676,0.0320274942,0.00293750013,-0.0123280641,-0.0309633948,-0.008012024,1.98435282E-05,0.03221816,-0.0223789755,0.00699363835,0.023281835,-0.008643,0.0183245223,0.01273743,-0.0152052082,-0.02001236,-0.0288824663,-0.006409045,0.02139684,0.0202440415],[-0.006063612,0.0278827623,0.007599363,0.01831314,-0.0114467572,0.006620752,0.0067703356,0.0230544,0.00579523249,0.0112604322,-0.0175833721,0.0175650138,-0.000445145764,0.005032435,0.0282168947,0.0129664168,-0.00122250279,0.00113271934,0.012645076,-0.009422882,0.0154926758,0.0002372712,-0.0157950353,-0.0174365211,-0.0133389877,0.0194101688,-0.00528693758,0.0115059884,-0.00697091175,0.00224837265,-0.0218192954,-0.0180727262,0.0127775865,0.0225380789,-0.0226087775,0.00299274083,-0.000925343833,0.009582682,0.006062457,0.01314468,0.0207337625,-0.0122188721,0.00311006955,0.0178622436,-0.00543177873,-0.008136806,0.00633090036,0.01762704,0.00772772264,-0.000151045417,0.0174162239,0.00188650808,0.00212971773,-0.024270473,0.009255533,-0.008865665,-0.013151289,-0.0172619484,0.008782243,-0.0132014174,-0.007272858,0.030505158,0.0102220289,0.0195125621,-0.008967885,0.0192384571,-0.0109884907,-0.0151547128,0.0252449363,-0.0175314583,0.0106318668,0.00141512568,-0.0131677,-0.0020118237,8.251875E-05,-0.009295479,-0.0171501,0.0167738274,0.0137711307,0.0177913122,-0.0101876054,0.0150841475,-0.0105756475,0.0129092745,-0.008692134,-0.01843044,0.0143325105,0.003122712,-0.0172469113,-0.0113035124,-0.0339036733,-0.02184308,-0.004483413,-0.01192916,0.0232672282,-0.0108404737,-0.0136175752,0.00512096845,-0.00451005064,0.0175924879,-0.0189617574,-0.0177316815,-0.01629307,-0.009610502,0.0189514719,-0.00403114362,-0.00438959757,-0.00108208484,-0.00843357,-0.00363289751,0.0178797431,-0.0179227777,-0.044892922,-0.023994796,-0.02987053,0.00747223524,-0.0162577033,0.0116136977,0.004863362,0.000165544363,0.0154233724,0.0183407534,-0.0243892223,-0.0229455065,-0.0042826524,-0.008842159,0.00180269906,0.0161805917],[-0.007025658,0.0290370546,0.0108422171,0.01690733,-0.0149924578,0.00160347042,0.00556627242,0.01578914,0.015251263,0.005842031,-0.008401012,0.0148627823,0.00476576248,-2.0371448E-05,0.0257561337,0.0181499515,-0.009461883,-0.00732910167,0.00512830075,9.70599E-05,0.008295388,-0.00207920838,-0.00339168566,-0.02485605,-0.0162241254,0.02652296,-0.00437913463,0.0147912586,-0.005602719,-0.00267355726,-0.0208129678,-0.0218819566,0.0179787334,0.0221804287,-0.0328700766,-0.00681872573,-0.0104312915,0.008041941,0.009665444,0.02008296,0.020436,-0.008120947,0.0120016495,0.0201762617,-0.0136056216,-0.009820705,0.019923795,0.0192408282,0.003702281,0.00353786931,0.015703138,0.004431057,-0.007883976,-0.02612867,0.0135436831,-0.0148920193,-0.00549094751,-0.0186613444,-0.0006790303,-0.0187459178,-0.0114656994,0.02786214,0.005299575,0.0231305957,-0.009389688,0.025526518,-0.0176757388,-0.0139753474,0.0304966029,-0.0218149144,0.008459259,-0.0007599161,-0.00798424147,0.00495396927,0.00878164452,-0.0301476456,-0.0110950209,0.0200600475,0.03168867,0.0173818674,-0.00186786312,0.007004339,-0.00673152274,0.01816386,-0.014343909,-0.025867248,0.0170944817,0.00447719637,-0.0111294808,0.0008145202,-0.0395256355,-0.0208257046,-0.0107460916,-0.00218257331,0.0249508712,-0.005722029,-0.0184467062,0.009676116,-0.00610958,0.0163936857,-0.0159035865,-0.0187426042,-0.0222497545,-0.0172043722,0.0240647569,0.000448467879,0.007570583,0.00719218655,-0.0196780078,-0.000878276536,0.01389872,