{"Layers":[{"ClassName":"Layer","Content":{"biases":[-0.182148188,-0.00121667061,-0.04924123,0.0264758151,-0.008566023,-0.00832330249,-0.0173344929,6.168907E-05,-0.152423292,-0.1331806,-0.04748312,-0.00659774477,-0.05101471],"useBias":true}},{"ClassName":"ActivationLayer","Content":{"biases":[-0.013959121,-0.00162117288,-0.0148252454,-0.00315714953,-0.021987468,0.0438634157,0.000462423835,-0.0324095041,0.03232821,-0.018715525,0.00362302153,-0.0113455988,-0.0226660464,-0.04944664,-0.00301173143,0.0006272001,0.0208687913,0.0604969077,-0.00145251141,-0.00643947627,0.0199937318,0.00657764263,-0.08139824,0.03770404,-0.00499052228,0.0192080587,0.0150938937,-0.008164516,-0.0367527567,0.0639637,0.00921729,-0.01928909,0.0296405088,-0.0130335791,0.008006331,-0.07886545,0.007862346,0.019919375,0.005449961,-0.08608455,-0.0119348941,-0.0156861376,-0.02412083,-0.000790362246,0.0100062713,0.0112256426,0.0350338072,0.08111443,0.0872536,-0.010511349,0.0383426845,0.02910955,0.053495422,-0.000891563133,-0.015862707,-0.0216375273,0.002612229,0.0165989045,0.0533811077,-0.0145554608,-0.01691874,-0.0188519284,0.0270398222,0.009360422,0.05996512,0.00353019917,0.0190416947,-0.0437955521,-0.03874305,-0.0217871163,-0.007855095,0.04223755,-0.02751371,0.03567236,0.017751392,-0.01410603,-0.005738272,0.01005376,0.0116445944,0.0259220023,0.0201310162,0.0245849211,-0.0122345909,-0.00771702453,-0.0142843705,-0.00553926174,0.0366148539,-0.0214201733,-0.0260188263,-0.0351931155,0.0259206444,0.01386189,0.0249544866,4.84957527E-05,-0.0364598259,0.0126312608,-0.00692797173,-0.0175043456,0.0336717144,-0.0284152534,-0.0109325424,0.0180988386,0.0349319167,-0.00334181846,-0.009640066,0.0518224239,-0.0404062942,-0.07108993,0.00317271333,0.0705157444,-0.0235610045,-0.0114872139,-0.0243178736,0.0196396969,0.0276532527,0.0865912437,-0.0407261662,0.0295781363,0.0412706621,-0.0106820557,0.03590659,-0.0192551762,0.015020879,-0.007045152,-0.08429569,0.0221433286,0.0313614,0.02805436],"useBias":true,"func":2}},{"ClassName":"ActivationLayer","Content":{"biases":[0.0154738976,-0.0493090451,-0.313171774,0.0127651365,-0.105542794,-0.014505459,-0.164749071,-0.170046315,0.222535655,-0.0510019325,0.145465165,-0.00223539257,0.283716321,0.03601106,-0.0498292632,0.07903864,0.132464439,-0.251472384,-0.0621945672,0.210013628,-0.07451888,-0.149597451,-0.01728467,-0.118272506,0.3157207,0.0120886834,0.0015569129,-0.158359513,-0.08690485,-0.196131229,-0.009549456,0.277644873,-0.0596627332,-0.006210089,-0.219416171,-0.115920864,0.0433674,0.0152946841,0.07828285,0.197955921,0.194135651,-0.07431096,0.0355236456,0.0451933928,0.003101222,0.311489046,-0.133082643,-0.05082627,-0.126915991,0.284056544,0.0118778264,-0.09809237,0.1026017,0.239992023,-0.1355152,0.0103128487,0.125427648,0.007016514,-0.0243417155,-0.1846128,0.09658007,-0.237853378,-0.111954466,0.334703237,0.0569720343,-0.148640469,-0.192256451,-0.129116431,-0.05007302,-0.08315049,-0.0552359447,0.0853228346,0.1992161,0.047682263,0.0614455231,-0.266822726,-0.102374926,0.026328152,0.164144561,-0.08520624,-0.0312376283,-0.156579256,0.0175135452,-0.00731442,0.0507970974,-0.0243141018,0.109635323,0.09029829,-0.0822416,-0.02450608,0.117926426,-0.0539167,-0.0265052617,-0.0467790142,0.03763121,0.02988866,-0.00663060043,-0.30420512,0.04370565,-0.366616,0.165850863,-0.0365385748,-0.163867056,0.0813679,-0.123294257,0.0141648808,-0.00726953428,0.213151976,-0.141242236,0.00473162532,0.0347498059,-0.108450584,-0.0222063567,0.221734688,0.130267724,0.06257296,0.09485513,-0.0459531061,-0.00621841662,-0.19251895,0.0118713817,0.0197130255,0.192629054,-0.04083135,-0.0137707843,-0.22441563,-0.0386787765,0.019680202],"useBias":true,"func":2}},{"ClassName":"ActivationLayer","Content":{"biases":[0.1330171,-0.105233572,0.433140725,-0.3591653,-0.277991027,-0.426866174,0.4919539,-0.0424717,0.3099563,0.3361521,-0.137718379,0.124880381,0.404710978,-0.264483482,0.06892826,0.16716677,-0.1884877,0.2601364,-0.104737371,-0.321230233,0.162648141,-0.00190199167,-0.317050368,0.07995311,0.0827972144,0.0370456465,0.003567716,-0.2194696,0.0351965874,-0.0732766762,-0.484987617,0.191050008,-0.288021,-0.0411770865,-0.05365904,-0.358254284,-0.213132933,0.3397716,0.14622511,0.04662667,-0.263334841,-0.07480309,0.08811242,-0.432850569,-0.345499516,-0.177602679,0.05792416,0.129916325,-0.0179008767,-0.422759622,0.0689860359,-0.124491066,0.138363957,0.3651323,-0.243720621,0.4159802,-0.2249159,-0.0705115944,0.005950581,0.329715222,-0.137779638,0.3752376,-0.00596092362,0.0739193559],"useBias":true,"func":2}},{"ClassName":"ActivationLayer","Content":{"biases":[-0.32790938,-0.00116567954,-0.213336632,-0.109856375,-0.433149874,-0.194427535,1.08900416,-0.339099,-0.09253013,-0.4064834,-0.351593375,-0.247324556,0.8213185,-0.6310503,1.66315091,-0.224894688],"useBias":true,"func":6}}],"Weights":[{"ClassName":"DenseWeightMatrix","Content":{"matrix":[[0.08525076,-0.0348643474,-0.06401981,0.05882,0.006206161,-0.02988094,-0.0481643528,0.007494078,-0.009674829,-0.01449244,-0.0287601147,-0.003722242,-0.0117469961],[-0.0108765364,0.131835759,0.011655774,-0.00260800542,-0.0377504267,-0.0120156854,0.0126050226,0.0148569159,0.02557028,0.01132769,0.06744923,-0.029610021,-0.02032415],[-0.00667874934,0.018777607,-0.04822362,0.004936352,-0.008749402,-0.0132455723,-0.006127293,0.00635192962,0.03071964,0.0331090242,0.0231208932,0.022050431,-0.009585677],[0.0271191057,0.107071958,-0.0105552739,-0.008235537,-0.0276957322,-0.0127377007,0.02113855,0.0168996472,0.0186638664,0.02831633,0.0568232872,-0.02627949,-0.0172706563],[-0.0531376228,-0.039756503,-0.0016163257,-0.008025662,0.03830508,0.0125173582,-0.008636208,-0.0160142649,0.00154105166,-0.00141073891,-0.0513304919,0.0294860452,0.0246793889],[-0.0460940525,0.0356728248,-0.09259467,0.0596635267,0.0217445865,-0.011817636,-0.0260626748,-0.0305636954,-0.0553296022,-0.04741201,-0.02735072,-0.007893915,-0.000652659859],[0.0110251093,0.0784693062,-0.004836702,0.000223851748,-0.0265157856,-0.01436324,0.0193534028,0.0189455338,0.0137982536,0.0180405136,0.0480696559,-0.01526634,-0.0213674866],[0.00322918012,0.1118409,0.0211063642,0.0290163551,-0.02307724,0.0004842882,0.0362902135,0.00715847826,0.0615033433,0.05576686,0.0938088745,-0.0025575012,0.0147196557],[-0.0470546968,0.109753512,-0.07477807,0.08586898,0.0279503688,0.00311323884,-0.0615418069,0.0152784027,-0.0320520774,-0.01967234,-0.00256541627,-0.0168227,-0.0332204327],[-0.00359790237,0.00412713969,-0.06492449,-0.0121296179,-0.005819421,-0.006655649,-0.0158617776,0.00499799242,0.0307678767,0.0310056377,0.0147520145,0.0167684983,-0.008544965],[0.01478743,-0.0556298457,-0.05635435,-0.0573103838,-0.00250055548,0.0236550216,-0.0166439246,-0.001357638,-0.04145573,-0.03637613,-0.05958091,0.0266056042,-0.00490391627],[0.0197018813,0.09459605,-0.0205300469,0.00151712354,-0.0288822427,-0.00175654818,0.0112199038,0.0130717652,0.0396564864,0.0310082417,0.07144228,-0.0047955974,-0.0137397274],[0.0617685057,-0.0246318225,0.0440715551,-0.0287096631,-0.0470430963,-0.003163899,0.02369856,0.0233744644,0.0547837131,0.0478181019,0.0583463,-0.01817819,0.00326086022],[0.03216828,-0.0348191373,0.0182887055,0.0265880525,0.0350636579,-0.0136668766,-0.0208978169,-0.0235505756,0.06001664,0.05307586,0.00103650533,0.0201598164,0.008173288],[0.07058477,0.0615315,0.09897038,0.09958704,-0.0005811713,0.004574328,0.009947209,-0.0168826319,0.0372801237,0.0259657763,0.04428545,-0.0117089618,0.0129780471],[0.0172000341,0.07672717,-0.0179939158,0.007367921,-0.026301451,-0.0031130123,0.0307294,0.0222398527,0.00687637739,0.0150588285,0.038631212,-4.40734266E-06,-0.0284546465],[-0.0270839874,0.1082652,-0.125586614,0.0548443161,0.04919074,0.01841014,-0.07436219,-0.008891782,-0.0797751844,-0.0593243167,-0.047585465,-0.00170366163,-0.00675499858],[-0.108415343,0.0559931025,-0.02599465,0.0389012136,0.06307778,0.03988495,-0.03414183,-0.01499988,-0.140341178,-0.116145968,-0.05189088,-0.0136024784,-0.04522828],[-0.00233206665,0.0629066452,0.02781826,0.028040573,-0.0127437273,-0.0188774,0.0250913128,0.006798009,0.04118708,0.0360050946,0.0639073551,-0.00692536077,0.00174913346],[0.0577099547,-0.0319755748,-0.002224466,-0.007488995,-0.0168738626,-0.00738662854,0.00557982828,0.0117009887,0.025247395,0.02514856,0.0220378172,-0.0005451862,0.00397452246],[0.00159250386,0.07614758,-0.03901684,-0.0316933729,-0.0292428546,-0.005122865,0.006057198,0.00887625,-0.02568846,-0.01756131,0.008308339,-0.0418990143,0.000243934075],[-0.00775937969,-0.01958104,-0.003584167,-0.0126537262,0.003991083,0.00446594926,-0.005106625,-0.00247195084,-0.005277978,-0.00424364163,-0.00775064,0.008980621,-0.0006057129],[0.11958091,-0.08962738,0.0420806631,-0.03727968,0.0239944346,0.0124208545,-0.002542613,0.0207963679,0.07085079,0.06395592,0.0166592132,-0.10690368,-0.015822202],[-0.0911061,-0.018509075,-0.03966729,0.0106210234,0.04674955,4.805116E-07,-0.0170394182,-0.03069443,-0.0383030623,-0.0238507185,-0.0360427648,-0.007995526,0.008864191],[-0.0161991455,-0.09064393,0.008793432,-0.00256378832,0.0243680682,0.0106853647,-0.017542975,-0.0163398031,-0.0238345377,-0.0231263731,-0.06412382,0.01228395,0.0243631322],[-0.026474148,0.0368588269,0.0279329289,-0.008686522,-0.0175342355,-0.00832707249,0.017130319,0.000935789256,-0.00773153361,-0.00253652851,0.0227913149,-0.07960223,-0.000119304837],[-0.07322965,0.04284614,-0.0288928039,0.0492462143,0.0560670644,0.021492783,-0.0235441644,-0.0126154367,-0.0798546448,-0.06394829,-0.0517883375,0.000674461538,-0.00814672],[-0.0577681139,0.0397161432,0.07848326,-0.0357116535,0.00366163673,0.0176469442,0.03388435,0.0006192804,0.0403731838,0.0389316678,0.0378606766,0.004478993,0.0260092523],[0.0356781855,-0.0408079773,0.08175997,-0.05765048,-0.0195431523,0.0001900874,0.0153700663,0.0280457959,0.0467147231,0.0364258066,0.011057552,0.0130737508,-0.007049526],[-0.03606324,0.04271326,-0.0267563611,-0.0195623785,-0.043453034,0.00515392236,0.019366635,0.0285778027,-0.0676234141,-0.0567253157,0.00520101329,-0.0333989821,-0.0128966859],[-0.0609009638,-0.0659861863,-0.08346449,-0.0901921839,-0.00450970931,-0.00225202274,-0.007932514,0.0123027144,-0.0338080041,-0.0240375586,-0.038345322,0.0148248086,-0.0154912537],[0.002697602,-0.08972477,-0.133006021,-0.08001043,0.0192262866,-0.007391977,-0.0243464056,-0.006342934,0.02347529,0.0264294576,-0.0256578159,0.0222078077,-0.00358680752],[-0.0485284142,0.0254483558,0.122585326,0.09204088,0.034835428,-0.0124192834,-0.01823149,-0.0184795652,-0.0251999814,-0.0256134383,-0.0089548,-0.07901867,0.00372132123],[0.0431629047,0.1168032,-0.008555194,-0.004647277,-0.0225669779,0.00533612445,0.0396207273,0.0248794984,0.0265742373,0.02101745,0.0578723066,-0.0219866317,-0.0127867926],[-0.0265937559,-0.100646324,0.00018083636,0.026201617,0.0352704041,0.0199204478,-0.00345383654,0.000585876231,-0.0206118282,-0.0226909,-0.04129276,0.0150048658,0.0276272986],[-0.0275635514,-0.0135988705,-0.1270671,-0.06103867,0.0349876247,-0.00746951438,-0.0424865671,-0.009403062,0.07026695,0.06172839,-0.03056891,0.00245062471,0.00130987749],[0.007267088,-0.0451317839,0.00248494139,-0.00560711138,0.0123631014,0.0140757337,-0.00302756461,-0.012881347,-0.0290720724,-0.029298991,-0.04267726,0.0132017694,0.00584109174],[-0.0690552,0.0196544919,0.130924463,-0.00112882187,-0.00955558848,0.0135434587,0.0196220577,-0.0252305344,-0.0212086067,-0.024286652,0.00665356265,-0.0068896166,0.00665882835],[-0.0359092429,0.0440317839,-0.06845919,0.05450643,0.0291138068,0.0108653605,-0.0196693651,0.00565019343,-0.031639643,-0.0192058142,-0.0160553064,-0.0124233551,-0.00842869],[0.128316954,-0.0255937967,0.0548944063,-0.009308542,-0.08927995,-0.004899903,0.06163432,0.02173306,0.11783766,0.0934852,0.08064276,0.03084923,0.0230113082],[0.0204837322,0.113753036,-0.00259085954,0.0231337883,-0.0251923241,0.00540517,0.03177221,0.008002421,0.06417312,0.0540708229,0.09799899,0.009645255,0.0130861476],[-0.00151323818,-0.06254111,-0.0106706461,-0.0227146726,-0.00401171157,0.01674705,0.00189391652,-0.00244060112,0.000675249263,-0.0008679033,-0.0144362831,0.0156427566,0.003120294],[0.0321157128,0.0593125448,0.02299691,0.04667364,0.0162691027,-0.0342052132,-0.0276446417,0.0105326027,0.03536995,0.02310421,0.02027102,-0.04609212,-0.0178340971],[0.008764438,0.145631626,0.0289855022,0.0222368911,0.0179473311,0.0009389965,-0.01853419,0.00544803357,0.0147960121,0.02004972,0.0386633,-0.00286655454,0.0128655257],[0.000204563868,-0.0116462521,0.0565248057,-0.00118160667,0.00383815123,0.0119573977,0.007475649,-0.00420034071,-0.0332455225,-0.0295514148,-0.0176009815,-0.0258831549,0.008190479],[-0.0304147452,-0.06579737,0.02020366,0.003883258,0.0186276529,0.011716485,-0.03410442,-0.017297158,-0.01498115,-0.0235371217,-0.0395236351,0.003637909,0.0161607116],[-0.08850149,0.07032654,0.119064882,0.005803819,-0.0195224285,0.008270688,0.03991378,0.0049710907,-0.0166805368,-0.009590479,0.0421675,0.006066445,0.0238622464],[-0.0288960282,0.07559642,0.14864184,0.0557676777,-0.0310523044,0.00290786731,0.03446798,0.00102783565,-0.06736822,-0.067711696,0.0229076687,0.0113859167,0.00404420774],[-0.1089881,0.09720367,-0.0341334157,0.0101882657,0.0510163046,0.0413026735,-0.046200946,-0.018947687,-0.188289791,-0.161522582,-0.0548276,0.003028001,-0.0425041839],[0.060456384,-0.0298437085,-0.0490080863,-0.006780281,-0.03316361,-0.003965921,0.00870661251,0.0166409072,0.0448152423,0.04049509,0.0228020381,0.0472549051,-0.0142964171],[0.0205165725,0.175069571,0.053517703,0.0387346521,0.0284273326,0.005372724,-0.0284952149,-0.005624167,-0.0525229536,-0.0392819345,0.006819759,0.02982063,0.004235635],[-0.06661189,0.03570668,0.0169708319,-0.017126957,0.00222168234,0.0125601469,0.0159383453,0.001413614,-0.0344154835,-0.0278198663,-0.007373702,-0.000772827,0.0118974475],[-0.110010527,0.123392321,-0.07059703,0.0477216,0.0623153448,0.0324411429,-0.01956091,-0.0183095466,-0.110322654,-0.08609029,-0.04618344,0.05466214,-0.014042059],[-0.009874241,-0.105073489,-0.00176165684,0.00219078385,0.0326429345,0.00671577873,-0.0214027334,-0.010962178,-0.02224447,-0.0273751039,-0.05229498,0.0166796483,0.0252496619],[0.00190738169,0.0208161138,-0.0736826,0.002733673,-0.002144245,-0.01693772,-0.0111045577,-0.0041203103,0.0325300246,0.02354407,0.01917917,0.0160912629,0.0006313458],[0.05112021,-0.00669181766,-0.09698825,0.032245636,0.0253377352,-0.0212571714,-0.04934818,0.00776720047,-0.00154448429,-0.0077900067,-0.0414840467,0.00379609177,-0.0157018825],[0.07993634,-0.0588230081,-0.08364978,0.03263278,0.00758403866,-0.0118580963,-0.0369171426,0.0110404948,5.178825E-07,-0.007553633,-0.01252231,-0.0186861176,-0.0148923779],[-0.0318225324,-0.0987082049,0.0234010871,0.005014002,0.0339489579,0.0005702082,-0.02473041,-0.0206961185,-0.0445002429,-0.0323319,-0.08294725,-0.003017046,0.013629213],[-0.0265100021,0.037720833,-0.0331575572,-0.0301245134,-0.03260346,0.00468011061,0.0172342956,0.0178066287,-0.0605233163,-0.04604525,0.00119375857,-0.0369343758,0.000126076135],[0.029926626,-0.07134627,0.107118331,-0.06486341,-0.0463439263,-0.0114547489,0.04663539,-0.02114117,0.0435018577,0.02641193,0.0225642342,0.007159541,0.0175239239],[0.000169702151,-0.06779417,0.03345375,0.0224767178,0.033962667,-0.00347087765,-0.009408521,-0.0302015319,0.0146595407,0.0109090535,-0.02223395,0.03481074,0.009530328],[-0.0218172055,0.209818274,0.0384943672,0.0596413463,0.00273319124,0.00228005555,0.019795008,-0.0202956758,0.0418909863,0.0373960733,0.0485516861,-0.02171996,0.0407741442],[-0.0615935437,0.07541076,0.118452571,-0.02089786,-0.0492818542,0.0126806675,0.04248212,-0.009477561,-0.03186631,-0.0308208261,0.0183303952,0.0253165625,-0.0118427994],[0.00233422,0.133421779,0.0259462856,0.02370445,0.01840914,-0.0118965413,-0.0224866588,-0.00270432536,0.00514639169,0.0107084494,0.0349733569,-0.00538028777,0.003580554],[-0.155701354,-0.0397087522,0.1184143,0.09344665,0.0524383746,0.0483225957,-0.0227549784,-0.0281371363,-0.08065744,-0.0603856519,-0.0413715467,-0.0238008481,-0.00212055887],[0.01219006,0.07510293,-0.04471312,-0.0185013358,-0.0462387241,0.015034819,0.03903047,0.0180069357,0.007190109,0.0141686425,0.04701949,-0.00726195,-0.0224217381],[-0.0246502776,-0.101744525,0.0032856646,0.000290384167,0.0266105514,0.0101947421,-0.0285101254,-0.0216615573,-0.0217559263,-0.0274242386,-0.055512,0.0206945986,0.0123989731],[0.0687981,-0.0125785209,-0.152055621,-0.0998394638,-0.0462062471,0.00714619458,0.01524306,0.0253957547,0.0463967249,0.0391842276,0.0104388064,0.0792048052,-0.0008528511],[0.01644851,0.10471987,0.00464316132,-0.0341385826,0.00149307528,-0.0317734554,0.009284615,0.0131232645,0.0198141672,0.02053726,0.0294851921,-0.005633195,-0.00506428443],[-0.0228471514,-0.0625162646,0.0726860538,0.0371830054,0.0484190881,-0.00315525569,-0.0247938912,-0.02900913,0.0109092714,0.00542012742,-0.0306891389,0.00298114144,0.0104813008],[0.0201165266,0.0835425258,-0.0497910231,-0.0119079854,-0.03915254,0.004515562,0.0359393619,0.0369414464,0.005793688,0.0142414132,0.0524225831,-0.04382931,-0.0192873031],[-0.07594099,-0.00446652528,-0.0542590469,0.0177826062,0.0497185327,0.021421276,-0.03201592,-0.0144073451,-0.08796067,-0.06798678,-0.04388217,0.01923319,-0.00267887348],[0.0745027,-0.0206763577,-0.103072874,-0.0611124858,-0.0123646166,0.0118818711,0.00561725162,0.0290711671,0.0380330868,0.03139848,0.0131217707,0.06829867,0.00409589475],[-0.02919762,0.03766346,-0.0263735019,-0.0336874165,-0.03534078,0.001659601,0.0189966988,0.0244981181,-0.0544582047,-0.0454992019,0.004940519,-0.03072064,-0.0126880705],[-0.0499133542,0.0383124165,0.09405008,-0.00354548288,0.00422507571,0.0139473965,0.0252542831,-0.00491896,-0.0152657079,-0.004475221,0.0145261958,-0.0007167216,0.0194908138],[-0.07291516,-0.0611615553,-0.0247986224,-0.03335949,0.0179558881,0.00369060738,-0.00738620944,-0.0158258341,-0.00133844,0.009784455,-0.0196504537,0.02421375,0.00304102479],[-0.0832840651,-0.0398461074,-0.02086774,-0.0221088622,0.0334804878,0.02126008,0.0113324523,-0.00085601426,0.00642759865,0.008539408,-0.0339122452,0.0387819819,0.0257476363],[0.00634317426,0.125611112,0.0178973079,0.0207046065,0.0115570733,-0.008584637,-0.02272351,0.002458894,0.0108383289,0.0135978879,0.03910676,-0.003016023,0.00632672152],[0.0391115248,0.0720960945,0.1058661,0.114769466,-0.0166090038,-0.00265770382,0.0278311763,0.00192186667,0.0300949514,0.025612209,0.06936428,-0.008399742,0.02239215],[-0.0557882339,0.0550297759,-0.162207842,0.109416619,0.0371427946,0.00282347319,-0.0612903163,0.0253202338,-0.0200414229,-0.001033373,0.0204996746,-0.028983077,-0.0412721224],[-0.06250506,0.0246477034,0.0521279,-0.00125290209,0.0269287433,0.009447134,0.00352427759,-0.00964088,-0.0370126553,-0.0293649361,-0.020209413,-0.0404150039,0.01687715],[0.00137363048,0.09051775,-0.03985936,-0.0306329783,-0.03166716,-0.00753427669,0.004395018,0.003960753,-0.028599292,-0.0144594861,0.008950733,-0.04813615,-0.008880645],[0.0340316445,-0.0466627628,0.0687238947,-0.0523097031,-0.02619509,-0.013167752,0.0179275125,-0.004618484,0.03176062,0.0173276179,0.0111262035,0.0127731385,0.0101499474],[0.0159014966,0.107912213,-0.0110841841,-0.009222476,-0.0306770578,-0.01311856,-0.00356928282,0.0134420479,0.025364276,0.0243435055,0.0577625036,-0.01766679,-0.0255775936],[0.06532657,-0.003079109,0.00652304338,-0.00199111761,-0.009621073,-0.00602578651,-0.0040883054,-0.009701587,0.0149922753,0.012214439,-0.00567343459,0.006060354,0.001362444],[-0.0177155975,-0.07758208,0.0007179774,0.0176035818,0.0246610828,0.0173855238,-0.0129759666,-0.00676864851,-0.0150191654,-0.01243908,-0.0367031433,0.0139175123,0.011436455],[-0.0349994265,0.0718893558,-0.103363283,0.06717388,0.03466922,0.0117438324,-0.0386754,0.0267480444,-0.0458614454,-0.0284924284,-0.0142493518,-0.009365679,-0.0216011517],[0.128751621,-0.0237773936,-0.0736082,-0.00583262742,-0.01830556,-0.007700927,-0.0139398864,0.0133484444,0.02329049,0.0197910257,0.0130216014,-0.0594338924,-0.0184417441],[0.08014957,0.011064345,0.0174262952,-0.0069382186,0.008964134,0.0028246732,0.01028719,0.00173931138,0.01269892,0.007340156,0.00212657172,0.00357191754,0.00307949353],[0.102796756,0.0140496362,0.027665101,-0.0205926616,-0.00410475256,-0.00254272972,0.0139572127,0.0322522,0.0382911451,0.03066068,0.0393407,0.00740284426,-0.009450861],[0.00126146025,-0.14627488,-0.00905328,-0.00130346883,0.0472407565,0.008506172,-0.04042691,-0.0265098866,-0.03446121,-0.03650895,-0.08043674,0.027243467,0.0371999852],[-0.0282840934,-0.09100595,-0.008077068,0.0192975327,0.0298090689,0.0139019107,-0.00153267826,-0.004089959,-0.01330425,-0.02272197,-0.04009807,0.0147011131,0.0250010528],[-0.06377155,0.0378813222,-0.0568690374,0.0615678728,0.0513819531,0.00322169368,-0.0325767323,-0.0272374488,-0.09361018,-0.07452605,-0.06690934,0.0196708087,-0.0181966238],[0.00768898474,-0.088078104,0.00195998512,-0.0187412575,0.020265393,-0.00226209615,-0.008131147,-0.010930581,0.00323483744,-0.002961429,-0.0153084006,0.0169433411,0.0171133261],[0.101824209,-0.01917481,0.02819615,-0.0518739037,-0.0340216868,-0.0199605953,-0.00312274951,0.0235210173,0.0964646861,0.08061495,0.0534661077,-0.0101299286,-0.0196452588],[0.00490079867,-0.0626210347,0.01673122,-0.02599107,-0.0125059551,0.00768519565,0.00405410258,0.00118255056,-0.033703547,-0.0265506338,-0.0256349817,-0.008040926,-0.00523882965],[0.0238347035,-0.0297637731,-0.131872,0.0188873541,0.0200614259,-0.008232535,-0.05680121,-0.007294269,-0.0104832668,-0.0226741415,-0.05134483,0.007354376,-0.00620658044],[0.08995579,-0.09816512,-0.025711365,0.0311323572,-0.05786599,-0.0183492955,0.0148316585,0.015830256,0.0739178658,0.06476779,0.05318785,0.04633098,-0.0244059414],[0.0127731683,-0.02324672,0.025660811,0.003197207,0.00721787056,0.0225486588,0.00504922,-0.0103384657,-0.046476882,-0.0426592231,-0.03830766,-0.0129272649,0.0054870937],[0.06613901,-0.0539514162,0.04205754,-0.06874385,-0.0468255,-0.0224708822,0.0186655018,0.00649819057,0.0945464745,0.07594854,0.054065764,-0.0162972957,-0.005062455],[0.0503265932,-0.02943157,0.0508138537,-0.0120814145,-0.0261301417,-0.01626351,0.0152336825,0.00181933329,0.0375138447,0.02697597,0.009193811,0.0329724625,0.007272954],[-0.0383476131,-0.112568438,0.008235502,0.00201900513,0.0297865774,-0.00131577533,-0.03800762,-0.0119731966,-0.0308049079,-0.0310441069,-0.068955645,0.0145444348,0.0102859242],[-0.0543794259,-0.06354231,-0.00848402549,-0.0588367023,-0.0241813026,0.0286287852,0.0137051158,-0.009422287,-0.05297063,-0.04805109,-0.03610608,0.04098524,-0.005698258],[0.03329298,-0.05179762,0.0696811751,-0.0503827929,-0.0262174644,-0.0119721349,0.0206580944,-0.00475451,0.0287375879,0.0210172758,0.00681410776,0.0152141405,0.005793337],[0.0219741687,0.08252512,-0.00110700587,-0.0148572894,-0.0324946381,-0.0119947754,0.0118649639,0.009414071,0.0189043656,0.019632088,0.0416618325,-0.01263435,-0.0210141987],[-0.0735723451,-0.0072699,-0.04412773,0.023391651,0.0124429567,0.016071206,-0.00608367473,0.0141149778,-0.06386708,-0.0562416539,-0.004282252,0.0274473056,-0.007565537],[0.05686139,-0.006387764,-0.06383703,-0.0237999056,0.0129303355,-0.018626513,-0.0258908775,0.03852147,0.06343128,0.0539035,0.0231370982,0.055105105,-0.007298422],[0.113417864,-0.00752145,0.0190200564,-0.06111303,-0.0474422425,-0.0183972828,0.0406781137,0.0367942043,0.09794495,0.08004132,0.0373784639,-0.0268983878,0.0123114837],[0.0458818749,-0.0008381235,-0.1347799,-0.009214591,-0.003718279,-0.00289512542,-0.0512860864,-0.0101449108,-0.04713679,-0.04041818,-0.06105976,0.02636647,-0.02701879],[-0.171060488,-0.04384128,0.133471057,0.108673491,0.05008238,0.0428227521,-0.0186185669,-0.0190313961,-0.0893728957,-0.07151243,-0.0187925864,-0.0385912955,0.00391521864],[0.00686563458,0.102305964,0.009835823,0.0217428859,-0.0299355034,0.000334486336,0.0355505534,0.0110650705,0.05509468,0.05900165,0.08349743,0.000527926954,-0.00720874127],[0.049875062,-0.02141619,-0.09832884,0.0176693443,0.02536294,-0.00521951867,-0.04581131,0.007747439,-0.00357176014,-0.0114108967,-0.0333040543,-0.0069571794,-0.007319961],[-0.00651744567,-0.227400616,-0.04873659,-0.07853383,-0.01748685,0.02123165,0.05525111,-0.005017919,0.00797568448,0.00229813578,-0.0390029959,-0.0286013018,0.0161433853],[-0.02817029,-0.09529916,0.00288213533,0.0100953365,0.0355369933,0.0122079523,-0.0217770375,-0.0115817394,-0.0230530575,-0.0290448572,-0.0516191758,0.0102760568,0.0217948146],[0.007974387,-0.104081675,-0.00758634834,-0.0049601146,0.0143899,0.023954533,0.007459037,-0.01271737,-0.015152351,-0.005313112,-0.0221088659,0.012566519,0.0114231426],[-0.249987811,0.10870342,0.0348223746,0.0575189367,0.0921944,0.06360457,-0.0485136732,-0.0177604835,-0.1332265,-0.10842742,-0.08532874,0.101506956,0.009195199],[-0.0130573651,-0.0136154741,-0.1448923,-0.00280504883,0.0301694125,-0.0187448636,-0.07304011,-0.0135645866,-0.0158215314,-0.02718913,-0.0734895244,0.00758283772,-0.021201523],[-0.04534813,0.0313502252,-0.0539686419,0.0216041785,0.0217812676,0.0117040444,-0.0114985248,0.000511427235,-0.03781558,-0.0284664612,-0.0121458247,-0.0217506066,-0.00923932],[-0.0309493486,0.035268724,-0.0201622285,-0.0388398543,-0.0415493771,0.002523567,0.0202734657,0.02306622,-0.05763807,-0.0517462865,0.004058102,-0.018469153,-0.009709776],[-0.00569688063,-0.0614827275,0.0248974971,0.0118793715,0.0340619124,-0.00500033423,-0.01924555,-0.0129533745,-0.000193843953,-0.00452329125,-0.0288588982,0.0307089277,0.01254926],[-0.0971642,0.0197805744,0.09280896,-0.0297628287,-0.00780865038,0.008903466,0.0312649272,0.00258786953,-0.009911347,-0.00407534,0.02917912,-0.0337539464,0.0360637233],[0.0521663,0.128294662,-0.00476441346,0.001549103,-0.0429533571,0.0108631356,0.0524209067,0.023191791,0.0249215662,0.0251071937,0.06816055,-0.0261531044,-0.01077317],[-0.0033444732,-0.112090625,-0.00174352911,-0.00505403,0.0303476211,0.00780377863,-0.01564561,-0.0168397371,-0.02044367,-0.0283835381,-0.0584019721,0.01612493,0.0289472081],[-0.0243098754,-0.191598922,0.0006175564,-0.0572358,0.0515551642,0.00643169135,-0.0372955874,-0.038591098,-0.0273813475,-0.0270375181,-0.09874931,0.0475363024,0.0345734321],[0.1343981,-0.210781559,0.08881733,-0.0590486936,-0.09065008,-0.0224378724,0.0206526313,0.007773846,0.1440551,0.115670785,0.07324306,-0.097376354,-0.0324557424],[-0.113725804,0.08181979,-0.009826706,-0.0505645,0.025060799,0.00264910446,0.0121536283,-0.0158924814,-0.0553493351,-0.0474866256,-0.0529038049,-0.01033323,0.0398176648],[-0.108289585,0.118016131,0.05499901,-0.07815574,-0.03872868,0.0243378542,0.0518341,-0.0256071873,-0.0273954161,-0.0185132157,0.0236588418,0.0628803,0.0266921241],[-0.0452931933,0.1777644,0.029112529,0.0122019565,0.0119446535,-0.00193113589,-0.000308857358,-0.0140350973,-0.0169321354,-0.008791294,0.0202971082,0.009343208,0.0413007252]]}},{"ClassName":"DenseWeightMatrix","Content":{"matrix":[[-0.00130145811,0.017198652,0.0109740235,0.0199729167,-0.0129990708,-0.00343684643,0.0143151116,0.0164692067,0.0196782965,0.00648460351,-0.00709683355,0.019294,0.00494154356,-0.0026599546,0.0132126007,0.01142759,-0.00134416961,-0.006539428,0.008341323,0.0014538737,0.013148739,-0.00206669513,0.00333980285,-0.0110985721,-0.0161098819,0.008014131,-0.00635704352,0.009121083,-0.00217538071,0.006717366,-0.0114146359,-0.011968283,0.008175488,0.02552191,-0.0205205046,-0.00508723361,-0.00620041741,0.0014194781,0.003286146,0.0137774162,0.0172710624,-0.00380786741,0.0152470311,0.0151226157,-0.00500173075,-0.0143838,0.0108592007,0.010811842,-0.004908941,0.00596618839,0.0132811135,-0.00499950256,-0.00611677952,-0.0147797791,0.009850115,-0.00482188,0.0009080863,-0.0168563146,0.00585947232,-0.0077728834,-0.0114906291,0.0200513173,0.0005147963,0.009644549,-0.0110737123,0.0173625331,-0.0182625968,-0.008789451,0.0200785454,-0.01745357,0.020618001,-0.009582893,-0.00476241764,0.009433927,0.001924825,-0.0239105169,-0.0124650132,0.0137196928,0.0139309727,0.0187416617,-0.00580185,0.0131014176,-0.00416851835,0.02066304,-0.001505149,-0.0150666153,0.0147143947,-0.000968875131,-0.005288664,0.00580743933,-0.0244108923,-0.018373508,-0.0100982143,-0.009802413,0.0189408362,-0.00749508757,-0.007501566,0.003973373,-0.004803967,0.0120357946,-0.009200187,-0.0209058784,-0.0209586248,-0.012759828,0.0135106007,-0.00438909139,0.009206382,0.008593707,-0.012043911,-0.008869793,0.0173139479,-0.005896917,-0.0216696523,-0.0183347613,-0.01639683,-0.005675384,-0.0123398276,0.007971885,0.008308708,-0.0110260928,0.01015238,0.0287177786,-0.0171628743,-0.032547012,-0.00925574,-0.0108594066,0.00270940876,0.006800773],[0.0110746929,-0.0114947353,0.00475766324,-0.00687523652,0.00419773255,-0.0114191519,-0.009373773,-0.0126399864,-0.0202776827,0.009709957,0.004823559,-0.00719595235,0.008320566,0.00705253752,-0.0177414268,-0.0124211973,-0.023005724,-0.0255078282,-0.006131067,0.000137727926,-0.0140684247,7.638595E-05,0.0140269091,-0.000939484045,0.007088723,-0.00325750513,-0.0105524994,-0.0120520592,0.008688156,-0.0110366922,0.0183584373,0.0147767905,-0.00724201929,-0.0109713525,0.0100822439,0.01566506,0.000953515642,-0.01632733,-0.007137897,0.0153611442,-0.01269253,0.00443848129,-0.008966503,-0.0160756726,-0.008912095,0.00739669846,-0.0152263073,-0.0217002835,-0.0293636024,0.00372711825,-0.0211821441,0.005218167,-0.01383657,0.009063347,0.0111051342,0.0121938623,0.012657648,0.009627209,-0.008772286,0.0169842467,0.0137757463,-0.0247948281,-0.0117319226,-0.0139964791,-0.004930076,-0.0141834272,0.010200859,0.0113407988,-0.00634226669,0.0155221066,-0.01755846,-0.007680277,0.009895204,-0.01191226,-0.00647474732,0.006387126,0.0032833938,-0.0132490117,-0.0190970022,-0.0270439275,-0.0005525104,-0.0133933024,0.00752146868,-0.009192924,0.0002812584,0.00765029062,-0.0158973783,0.008932522,0.00570928166,0.01109556,0.009073477,0.005228404,-0.0127004562,0.0153545756,0.009957125,0.004676511,0.014833916,0.01087538,0.00305412943,0.008570917,0.008214007,0.0110263247,0.0125060594,0.008229539,-0.009271911,-0.005145067,-0.0051680496,0.009555048,0.007748,-0.00291414768,-0.0105274841,0.0158953853,0.0251400638,0.00980447,0.0109078512,-0.0277349725,0.014122528,-0.008313925,-0.01042843,0.00655435445,-0.00963965,-0.0141193615,0.0128381317,0.0174754113,0.0271261968,0.0007024375,-0.0183105785,-0.01681646],[0.01516544,-0.0118663553,0.01591844,-0.00240084343,0.00156349665,-0.02091945,-0.00614141254,0.00183952122,-0.00723674148,0.0159505215,-0.00581424544,-0.00113634963,0.01245168,0.0256973784,-0.00510082673,-0.00658342429,-0.03361992,-0.0449275859,0.003308571,0.006219761,-0.0210262015,-0.00256012147,0.0297716726,-0.0188432466,0.00375078944,-0.008987026,-0.01803731,-0.006944346,0.0149233351,-0.0320902467,0.00275423331,0.0101652043,-0.00226837164,-0.003203043,0.000256622036,0.0225131568,-0.00661638239,-0.0245014057,-0.006163907,0.0421037748,0.00874096,0.00246074563,0.00727945846,-0.0123113878,-0.0170739852,0.00380450045,-0.0260346252,-0.0319249853,-0.05533881,0.0108824251,-0.0215649176,-0.010030196,-0.0272096451,0.0076442156,0.0190692246,0.0188360177,0.0175263416,0.00502572255,-0.0288159475,0.0173154976,0.0152506493,-0.0160762761,-0.021624662,-0.0118625816,-0.03255116,-0.016489489,0.00262416084,0.0131459273,0.009835891,0.0171967987,-0.0190837551,-0.0235291123,0.006041646,-0.0279483423,-0.0139513295,-0.01129418,-0.0039248867,-0.0101705249,-0.00297018443,-0.0208346378,-0.01266519,-0.024675902,0.008005176,-0.00368295517,0.005380602,0.00331188086,-0.0123480149,0.0183979049,0.0121918172,0.03076696,0.00160522352,-0.00184916612,-0.0279121362,0.0153133962,0.0298394468,-0.0102004185,0.0168850143,0.0257521458,-0.0143607985,0.0278085135,0.00773707032,0.00597633468,-0.0125455344,0.00333747221,0.000522346236,-0.017475469,0.0239660852,0.0258640833,0.000771977939,-0.0301268026,0.0108644618,0.0196306724,0.0242582168,0.00364379981,0.00531054055,-0.05447023,0.0189195331,-0.005739068,-0.0282494985,0.0108587043,-0.0210823,-0.004043696,0.0115416124,0.0118681211,0.0358243026,-0.02229231,-0.0295507666,-0.0191268157],[-0.0033752413,0.016723834,0.00776697649,0.01817164,-0.0112104043,-0.00231366814,0.0137169361,0.0174571946,0.0201079454,0.00597540941,-0.007705212,0.0158308465,0.00229967874,-0.00115098094,0.0135580208,0.0127053643,0.003607469,-0.00107304961,0.008210307,0.001853733,0.0148336329,-0.00293067284,-0.001118902,-0.010225975,-0.0152237732,0.007426886,-0.00267244247,0.0115934536,-0.00477030175,0.004913693,-0.0154132117,-0.0143662831,0.009495624,0.023759637,-0.0202568248,-0.004088735,-0.004286562,0.00591051625,0.006767789,0.008124898,0.0201859381,-0.00380971166,0.01534877,0.0182020012,-0.0068914583,-0.0125643732,0.0113400724,0.0136409085,0.00112883258,0.00745590264,0.0184007864,-0.007743195,-0.003080732,-0.01285199,0.0062736636,-0.004237182,-0.00194037659,-0.0179820787,0.00417836849,-0.0131792119,-0.012166013,0.02266095,0.00288106967,0.014415307,-0.0107435957,0.0157626048,-0.0172003973,-0.008596258,0.019140996,-0.0154680368,0.0183524583,-0.00529777072,-0.00593162049,0.006117752,0.0009938406,-0.0186993722,-0.0139508219,0.01538724,0.016536966,0.021633327,-0.00567833148,0.01567655,-0.00620249426,0.0206090081,0.000461510674,-0.0148294838,0.0161940735,-0.00241622934,-0.005161659,0.0024476368,-0.0195792466,-0.01434907,-0.00648122048,-0.009553347,0.0159030836,-0.0104540121,-0.00684147049,0.00206067483,-0.009570451,0.009064313,-0.0106342519,-0.022697717,-0.0232015215,-0.0113379322,0.0164512061,-0.006767717,0.0110401446,0.004473189,-0.0132630011,-0.0059953304,0.0194821171,-0.004478764,-0.02620808,-0.016621286,-0.01436196,-0.0016625399,-0.007836805,0.008578383,0.010176681,-0.008712094,0.0117330477,0.0253321528,-0.0165015385,-0.0260436218,-0.0132451188,-0.00966798,0.00574510265,0.01140421],[0.011710369,-0.004575888,0.00542484038,0.00559698557,-0.00588814635,-0.0167799089,0.001129746,0.00319777336,-0.000303699984,0.0112361293,-0.00306735467,-0.0005571431,0.01260416,0.0169229731,0.00549079338,-0.0024271782,-0.02933766,-0.0314438976,0.00473685144,0.00592074124,-0.008707034,0.000485337747,0.01815468,-0.0185839385,0.000366542256,-0.00190383557,-0.0207175557,-0.00485263951,0.0151311848,-0.0162061453,-0.00640082825,0.00155118247,-0.00192326028,0.00521585532,-0.0005035852,0.009011114,-0.004422221,-0.0180549417,-0.01025692,0.0344257429,0.00259096175,-0.00220387359,0.0111210486,-0.00777071575,-0.009609757,-0.002568186,-0.0148476353,-0.0178896356,-0.03762187,0.0107858963,-0.0129873287,-0.01077271,-0.0193700716,0.00268869172,0.012301893,0.009563108,0.0116630178,-0.00136621215,-0.0153611861,0.0149393026,0.008445757,-0.006885803,-0.0125175249,-0.00570538361,-0.0219215024,-0.00687334547,-0.003129221,0.007199793,0.00582713541,0.006645147,-0.00517000258,-0.0220794957,0.00770037435,-0.0130773839,-0.0102086235,-0.0145899206,-0.0116202775,-0.00574316643,0.00306227943,-0.0110402219,-0.0119657116,-0.012869834,0.009013845,0.00395972,0.007828372,-0.00127127988,-0.0112975417,0.012746823,0.0134458765,0.0270679574,0.00084372476,-0.005743421,-0.0249426942,0.00707455166,0.0281913169,-0.00199763477,0.0101786526,0.0222242363,-0.005576267,0.0227634888,0.0073907855,0.00185083586,-0.0159223471,0.00405569654,0.000955464144,-0.011887392,0.01602045,0.02203992,0.0007777321,-0.0235172678,0.00654508,0.0105295787,0.0106103392,0.00224357168,0.00159195182,-0.0365731567,0.006418764,-0.0111236218,-0.0145374434,0.004457974,-0.0107052047,0.003709685,0.00543844,-0.00321234018,0.0236182548,-0.0164929815,-0.0181036573,-0.00937894],[0.0113597848,0.0008634885,0.00230468553,0.006396514,-0.0102559375,-0.01821794,0.002018058,0.0006587296,0.004548851,0.00620995648,-0.00179003482,0.00168469222,0.0157724824,0.006382951,0.00302515132,0.00223279116,-0.0226540174,-0.0258012954,0.00183004455,0.005029586,-0.00590951,-0.0003868252,0.0169012342,-0.01532397,-0.003092441,0.00327936118,-0.0165499,-0.00558902277,0.0113931568,-0.0101262964,-0.00737437746,0.00210315431,-0.00119867572,0.007042846,-0.00346689951,0.00327210734,-0.0008154088,-0.0145694176,-0.0112892557,0.0330344252,0.00560695166,0.00205275067,0.0115688313,-0.001091728,-0.00594847975,-0.00292262924,-0.007711001,-0.009980586,-0.03016363,0.00991052,-0.007499185,-0.0106915077,-0.0165474024,-0.00272680772,0.00521383947,0.006737782,0.009143017,-0.00390053354,-0.0107959155,0.010214855,0.00162313576,-0.00391477533,-0.0122974124,-0.00237583951,-0.0188625734,0.0005675793,-0.00257195253,0.00201128912,0.005599041,-0.0003335027,-0.0006288108,-0.0197881423,0.005663748,-0.0069911,-0.008867319,-0.0157619454,-0.01544422,4.332493E-05,0.00628101267,-0.00718449941,-0.0117871538,-0.006971353,0.007453971,0.006377195,0.00926092,-0.00325484318,-0.00608602446,0.0127895586,0.0120694246,0.0230990555,-0.003438536,-0.00296187866,-0.0229054671,0.004181661,0.0263246354,-0.00148968655,0.004279014,0.0199492387,-0.004061587,0.0218001474,0.00714046042,-0.0041014743,-0.0128122056,0.00372973527,0.00544615975,-0.0141162211,0.0114479447,0.0194472335,-0.00213348866,-0.016997356,0.005915046,0.00619262969,0.005111102,-0.00142274785,-0.000745185534,-0.0288048461,-0.00205009873,-0.0102936374,-0.009280613,0.000700876059,-0.004447945,0.0100404546,0.00121697842,-0.008947874,0.0195036326,-0.0175096411,-0.0129034668,-0.00385756418],[-0.000284555746,0.009232807,0.0005604808,0.005930904,-0.009462705,0.00161526783,0.00413397746,0.017141901,0.0113114994,-0.00122349733,-0.0125460578,0.008368065,-0.0053566,0.00371979224,0.0173821878,0.005815262,0.003921756,0.006869254,0.008497401,-0.0034880382,0.005981576,-0.004842183,-0.00312519819,-0.004237144,-0.006916986,0.0005044264,0.00148748269,0.006276882,0.00250814413,-0.003760992,-0.0130999247,-0.00711988751,0.0049479194,0.0105388137,-0.0114390142,0.00130868517,-0.00715985242,0.008503039,0.000443852856,0.00223020045,0.0126057416,-0.008290262,0.0046785255,0.0126755172,0.00114453037,-0.00332233286,-0.0005546648,0.009308082,0.003443441,-0.000150514941,0.0114692347,-0.00943439547,0.0009216574,-0.006525942,0.00202155928,0.000820271263,-0.00325060962,-0.0108713992,0.000701961457,0.00134657323,-0.002662782,0.020000061,0.0038089517,0.0140267406,-0.004019394,0.00634837942,-0.008601951,-0.004877502,0.009690498,-0.00592621835,0.005255402,-0.00322771748,-0.004910987,-0.003207436,0.0009929499,-0.0002502356,-0.00584151736,0.009479278,0.008046117,0.0100455182,-0.00714442926,0.0101724118,-0.00159199513,0.0113996416,0.004114141,-0.0108238673,-0.000181686788,-0.00413690042,0.001094416,0.0004448485,-0.00775528559,-0.007782878,0.00537853735,-0.008596679,0.0031484582,-0.009979158,-0.00230763736,-0.00120674178,-0.00657041371,0.003539619,0.00382605,-0.00742330542,-0.013524821,0.002469155,0.010257,-0.00413036067,0.00357228518,-0.00359809143,0.00142082316,-0.008879762,0.009729232,-0.00125509629,-0.0164048243,-0.008383473,-0.0154428966,0.006597412,0.00128954451,-0.00165688,-0.001262175,-0.00304021244,-0.008156161,0.00706422655,-0.009745053,-0.00570132444,-0.008191548,-0.0110379662,0.00228934339,0.009647194],[0.00615386,-0.0106169879,0.000430895831,-0.0105134845,0.00615649531,-0.00252455869,-0.008218985,-0.00320864655,-0.01310992,0.00465918658,-0.00203247927,-0.008195092,-0.000694730552,0.008798191,-0.0059942645,-0.0108052874,-0.0121700158,-0.00700966036,5.342841E-06,-0.00115175045,-0.006590806,0.00202664523,0.004376855,-0.000239253088,0.008260463,-0.00747376354,-0.00144958775,-0.007291234,0.007203744,-0.0119954748,0.00192226947,0.009406501,-0.00575732253,-0.009028178,0.004456904,0.008857752,0.000474007567,-0.00643479,-0.007352736,0.00569401169,-0.00190319389,0.000269150682,-0.004675588,-0.006903671,-0.00334322173,0.008625849,-0.0134373168,-0.0140409116,-0.0185443014,-0.000528075732,-0.009834339,-0.00406931061,-0.00481071975,0.00721065467,0.004908937,0.006020125,0.00617423141,0.005110752,-0.008335113,0.009770789,0.0123302527,-0.0117167393,-0.00564089045,-0.00568537,-0.00265089422,-0.0112918066,0.008820293,0.00427722652,-0.003856464,0.009640827,-0.0124318823,-0.005587277,0.00241090334,-0.01207902,-0.006598953,0.0120354472,0.005683562,-0.004614788,-0.0108636972,-0.0120321345,-0.00651981169,-0.008730899,0.009329553,-0.005339017,0.005296266,0.00445258757,-0.0102938917,0.00264584576,0.00246554357,0.00385819958,0.0103522027,0.00460798061,0.00143129274,0.007205564,0.00545387436,0.000753134431,0.00684698066,0.005894255,0.00108781084,0.005037857,0.008096044,0.0132710943,0.009080481,0.0106295636,-0.007055158,-0.00231179083,-0.000564299757,0.00410663662,0.008239541,-0.0106738769,-0.00626787264,0.008899524,0.007695504,0.009843502,0.006246174,-0.0115143135,0.0145042408,-0.0077954866,-0.0132823838,0.00531446375,-0.0140390992,-0.013174884,0.01144584,0.0178657956,0.0172417182,-0.00319933472,-0.0140721761,-0.008268234],[-0.0179630388,0.009777454,-0.008903305,0.00396179035,0.00228173612,0.0149199618,0.00135813106,-0.00310237054,0.0112323733,-0.0114114229,0.005653942,0.0029384587,-0.00506906072,-0.0226828959,0.00206153817,0.0119375288,0.0268747732,0.0302311219,-0.00575732,0.00131689163,0.0118546793,0.001899273,-0.02016704,0.0111798048,-0.00486940937,0.006056633,0.0120069487,0.009874557,-0.0152897369,0.02244063,-0.002983499,-0.0142269777,0.005311048,0.007709641,0.000511219,-0.02267778,0.002137228,0.0168280154,0.008711207,-0.0259633809,-0.004129009,0.0033878847,-0.000119304095,0.00677300664,0.0144050876,-0.00538315345,0.02422184,0.02378291,0.04277222,-0.007071521,0.0129202567,0.009754843,0.0205018688,-0.0045823385,-0.0172144864,-0.0192265268,-0.0125116929,-0.0047514867,0.0181987826,-0.0190981161,-0.0156236775,0.013278028,0.0141984131,0.00801537652,0.017781185,0.01754211,-0.005252664,-0.0110948235,-0.006731508,-0.0179147124,0.022500664,0.01618807,-0.00648311758,0.01839263,0.0107755912,-0.00146577414,0.00457333773,0.00714314543,0.0114346221,0.0190048367,0.009344755,0.0134152891,-0.01080084,0.004068612,-0.010206121,0.00268398481,0.0194754675,-0.0118124345,-0.0110858791,-0.0178765059,-0.009688935,-0.00193921721,0.0138952779,-0.011305647,-0.01946386,0.007884924,-0.0144449715,-0.02199587,0.00917476,-0.0202224944,-0.0139358705,-0.009283195,0.0027440316,-0.009410751,0.00402234355,0.01352967,-0.0153979156,-0.0167548433,-0.0122900866,0.02242,-0.0022094904,-0.01378768,-0.0121313445,-0.00557054859,-0.00261915033,0.032202024,-0.0187624767,0.0118981656,0.0230007637,-0.008164462,0.0236435123,0.0112579186,-0.0102435881,-0.0165242646,-0.0318268165,0.014538317,0.02058095,0.0159955751],[0.004404306,-0.000711487,0.000606602232,-0.00160840421,-0.00010012991,-0.00377997151,-0.00120975717,-0.000762944343,-2.317704E-06,0.005289055,-0.00139162154,-0.000969971356,0.00335941487,0.00594860828,0.00163263152,0.00149493455,-0.007764015,-0.009388445,0.000852247933,-0.00114173535,0.00102672912,-0.00260233716,0.004466755,-0.002886681,0.0006116534,0.000620240055,-0.00689318264,-0.00212531164,0.0063080336,-0.004433547,-0.00314807869,0.00060609146,-0.00129393372,0.0009364129,0.0011793474,0.00513016758,-0.00315653882,-0.003627433,-0.005064543,0.009823617,0.00118812325,0.0009159105,0.005199105,0.000948913,-0.00495062629,0.000298074563,-0.00604841067,-0.00629865052,-0.008348418,0.0034508903,0.000227114724,-0.005934369,-0.00413583359,-0.00232763635,0.00300295535,0.005663803,0.00460612727,-0.00181507133,-0.00208622171,0.00411454774,0.0003503167,-0.002925196,-0.00240875245,-0.000123080565,-0.005207568,0.000634888944,0.0007339206,0.00155084627,-0.000403038459,0.00357767357,-0.000352878065,-0.00528957229,-0.000139089054,-0.004434683,-0.00275688851,-0.00458468869,-0.002785053,0.0002957305,0.000543114,-0.00457632774,-0.00556657463,-0.00163589651,0.00613517361,0.002777527,0.006338913,-0.00319843227,-0.004281249,0.00330086728,0.0027023037,0.008353013,-0.002584018,0.000888081035,-0.00664091436,-0.00121325767,0.008830467,-0.00113240862,0.00350564974,0.0079644,-0.003568364,0.00725454465,0.00419314252,0.0003222201,-0.005338312,0.00214178162,-0.0005559497,-0.0034626124,0.00279386,0.005426509,0.00374780223,-0.00523565,0.002244868,0.00171897,0.00272943662,-0.001342735,-0.00245303218,-0.007555234,0.00497965934,-0.006638215,-0.00496921735,-0.0001538942,-0.005002343,0.0025618,-0.000524139847,-0.00157357671,0.00565482443,-0.00556171266,-0.007150209,0.000581003842],[-0.016355345,0.00496586552,-0.0102445884,-0.000586998241,0.002931552,0.015610571,0.002034462,-0.00159368035,0.00248592184,-0.0125825172,0.002925716,-0.002086473,-0.012880981,-0.020807581,0.000554505,0.00698980549,0.0260991957,0.03266836,-0.00566073554,-0.00268364022,0.0128337555,0.00228140084,-0.0196954459,0.01453515,-0.002790962,0.00666732341,0.01462712,0.00582587859,-0.0157211963,0.0205598,0.002926977,-0.008909615,0.00451043667,0.0009722347,0.000173883847,-0.0134491827,0.00308763073,0.0199154168,0.007092943,-0.0327766649,-0.00555542763,0.002385394,-0.009788146,0.006849521,0.0112600252,0.000346896151,0.01664471,0.0182242617,0.0401063226,-0.008575728,0.0130404364,0.009228965,0.0190751329,-0.00464287726,-0.0117039029,-0.0148463333,-0.0112615181,-2.732663E-05,0.0175826885,-0.0152511671,-0.0101872105,0.009244454,0.01557119,0.0039554243,0.01977899,0.0107214684,-0.000368241337,-0.009367233,-0.00725959474,-0.010192682,0.010539473,0.0209432878,-0.00599091826,0.016608417,0.008649816,0.006715611,0.009350665,0.00294467737,0.00416609831,0.0162588283,0.0134833418,0.012418543,-0.006888298,-0.000420049182,-0.00708485954,-0.003151785,0.0129081309,-0.013248872,-0.010399418,-0.0241087135,-0.0007902353,0.0008252877,0.017859159,-0.011138822,-0.0236958917,0.006164682,-0.0107729444,-0.02122683,0.006440013,-0.0226729568,-0.00774887763,-0.00470293034,0.00727470545,-0.009189452,-0.00201955158,0.0118756518,-0.0157766361,-0.01709693,-0.004198345,0.0216911957,-0.00257635256,-0.0142781576,-0.0143455407,-0.00224006758,-0.00415497273,0.036190737,-0.009435369,0.007049802,0.0169980675,-0.008272272,0.0188575238,0.00236847973,-0.00636554928,-0.00521884346,-0.0263566822,0.0176993161,0.0216072462,0.0115692737],[-0.009329545,-0.00764175551,-0.0034106262,-0.011818042,0.01231094,0.0131025752,-0.008982091,-0.00369707565,-0.009484591,-0.00355342915,0.007062746,-0.010554322,-0.008758092,-0.00523119746,-0.0136609823,-0.00218527624,0.0191677026,0.0165332258,-0.004422061,-0.005636808,-0.00210815179,0.000414182665,-0.009872176,0.0139978519,0.00624924945,-0.007729336,0.015350325,0.00705094775,-0.009153561,0.0046395557,0.01103672,0.0017972748,-0.00757585,-0.0130034722,0.00991032,0.007100614,0.00143203442,0.005677384,0.009766534,-0.0258753225,-0.005213989,0.005008746,-0.0148607222,-0.005304098,0.00470912,0.00707849255,0.00488261133,-0.0006330885,0.0169357136,-0.009016839,-0.00149438507,0.00878177,0.0140165156,0.00506456336,-0.008751122,-0.00386825879,-0.007203997,0.008832709,0.00197975151,-0.01032137,0.000402773585,-0.008477881,0.008377668,-0.00305355247,0.01225298,-0.00238339021,0.0104652354,0.00235542632,-0.0127373915,0.00598342065,-0.003386525,0.0209451485,-0.00105487031,0.00122785964,0.003720554,0.021296313,0.0203618929,-0.00540581346,-0.0126971463,0.00238046329,0.0105339326,-0.004767291,-0.008992999,-0.0104837716,-0.0125549911,0.00707012229,0.006350867,-0.00589773059,-0.012870268,-0.0219336245,0.009468438,0.0119904885,0.014212992,0.0005449935,-0.0252628326,0.00645988248,-7.271366E-05,-0.0162640475,0.00374941877,-0.0191511419,-0.00711262366,0.0104952734,0.0191767886,-0.00227463152,-0.004692712,0.0119132111,-0.0104294457,-0.0126244286,0.0016843864,0.0117884334,-0.00376671,-0.003377316,0.0038913514,0.0061312886,0.0060861893,0.0175473671,0.00304362155,0.006564645,-0.000130545843,0.00342925033,0.006712632,-0.0112779988,0.003423286,0.0157135278,-0.00994833652,0.0171089321,0.00545917731,-0.003623227],[-0.0153631046,0.00929811,-0.0110227326,-0.00125349907,0.00157725008,0.0203857385,0.00233765785,-0.003225929,0.00254106917,-0.0148962671,0.008143874,0.004372485,-0.0138886049,-0.0237733237,0.0031250217,0.009772577,0.0310650747,0.04217742,-0.0043123113,-0.004762701,0.0179855581,0.0043606367,-0.0230610557,0.0192809328,-0.004075004,0.008676597,0.01942102,0.006561003,-0.0154230585,0.02774003,-7.12860856E-05,-0.007495193,0.00322918873,0.00158547622,-0.0005475242,-0.0222383644,0.00444990443,0.0239277314,0.0060425,-0.0416910946,-0.008218039,-0.00171009311,-0.0100579457,0.012275978,0.017641101,-0.004366565,0.0252824314,0.0301084388,0.054160405,-0.0112415459,0.0170855224,0.0116453636,0.0278236829,-0.00900981,-0.016654145,-0.0163728427,-0.0173104573,-0.002666286,0.0269529689,-0.0161123872,-0.017571846,0.01080275,0.0196279828,0.0106450748,0.0300876647,0.0161849745,-0.00195761258,-0.0119036948,-0.00847786,-0.01476782,0.0167267453,0.0234336425,-0.00524095,0.0218493622,0.0111315846,0.00673713442,0.00407617353,0.009198118,0.006257074,0.02000523,0.0138225928,0.0196007527,-0.00735497335,0.002284717,-0.00558065157,-0.00186315831,0.0146365818,-0.0146803167,-0.0114687551,-0.0282807685,-0.005598642,0.000827407755,0.0247670785,-0.0134491092,-0.029353546,0.0100628659,-0.0180880446,-0.024803374,0.0132199265,-0.0287496056,-0.00614807243,-0.00358974258,0.009478368,-0.00439221133,-0.000384292449,0.0171491038,-0.0220461879,-0.0250921343,-0.00346975843,0.0304166265,-0.00776917674,-0.01859257,-0.0197190829,-0.00598503,-0.002773498,0.0500563346,-0.01798876,0.004544804,0.0270427652,-0.00983545,0.0186677836,0.0051277047,-0.0115370946,-0.009533096,-0.0361846648,0.0203731488,0.0277522653,0.0166226216],[0.00639626523,-0.0143961087,-0.0008643805,-0.0103970291,0.00529357046,-0.005785478,-0.00577640766,-0.0158564076,-0.0147287967,0.00655499846,0.0128163956,-0.0112184444,0.005008204,0.0001964098,-0.0209690537,-0.00730014732,-0.0138552533,-0.0174607821,-0.0102005312,0.00635910174,-0.0121603664,0.0034434197,0.0106407339,0.002006686,0.009424919,-0.00171367743,-0.008375782,-0.009174842,0.004548874,0.0007141497,0.0177237149,0.0147938393,-0.0109875659,-0.00835576,0.01385613,0.00336111337,0.005538633,-0.01247536,-0.00532246754,0.009489541,-0.0169526916,0.009736171,-0.00686775567,-0.0138147529,-0.006928739,0.006258601,-0.005982059,-0.0136014251,-0.01752037,-0.00134820177,-0.0188654754,0.00907224,-0.0104150521,0.009150244,0.00665434264,0.007816697,0.008888362,0.0129075684,-0.00621256558,0.00697082328,0.00592099642,-0.0261421241,-0.00585979456,-0.0166155715,0.00241287076,-0.0119721256,0.0108115338,0.0105013344,-0.008660538,0.008219334,-0.0115423761,0.00126237958,0.005655004,-0.00493947649,-0.0046302625,0.00266869669,0.0061031743,-0.0153303239,-0.0152463121,-0.0199258681,0.005582491,-0.0117134592,0.00647927029,-0.0124550229,-0.00307426532,0.01054664,-0.008557065,0.008464468,0.00228568655,0.00602703542,0.009779353,0.0105743567,-0.0103869652,0.009505824,0.00204009144,0.012465083,0.00667555258,0.004200233,0.008756457,0.00149946229,0.0005406721,0.0112844165,0.01500514,0.00237781135,-0.008360137,0.00404661568,-0.00614129,0.007478044,0.00304920459,0.004852013,-0.0129688717,0.0107591944,0.02291829,0.0102511961,0.0149767632,-0.0209818259,0.00590206543,-0.000476691755,-0.004072979,0.006090537,0.0006369934,-0.009878153,0.008206404,0.0118863275,0.0188581552,0.005958937,-0.009239065,-0.0122400913],[0.000968593755,0.0158933979,0.007857891,0.0145768467,-0.0159140434,-0.0064157513,0.0124400528,0.01297745,0.0114526441,0.002836294,-0.00754217152,0.01293367,0.004250664,-0.00171837129,0.0118581252,0.008146349,-0.00581979146,-0.00417836849,0.008005051,0.0009759277,0.0107990215,-0.00421266071,0.002468236,-0.0117051546,-0.0136152739,0.00544463,-0.005136422,0.00160722574,0.00200741179,0.0006800486,-0.008914445,-0.008108378,0.009922973,0.01904591,-0.0149920443,-0.00317540858,-0.007825126,0.00192379125,0.00243364437,0.0158821028,0.01500662,-0.008440492,0.0121599566,0.0108656129,-0.004397049,-0.0118851177,0.005235263,0.006131146,-0.00511775166,0.00505841943,0.0112855816,-0.006426939,-0.005573363,-0.009302017,0.008714058,-0.00114262383,0.00150358374,-0.0163797941,0.00284045166,-0.00319605717,-0.0102809584,0.0179323815,0.0004274138,0.009535627,-0.008424099,0.009262188,-0.015514167,-0.004273484,0.0180832315,-0.0127496272,0.0108783841,-0.007079089,4.871592E-05,0.00317857647,-0.00192827859,-0.0163104981,-0.0172543451,0.0140107553,0.0113558825,0.00701969862,-0.00473767659,0.0116291083,-0.00303649413,0.01796184,0.004433574,-0.0136783374,0.00622104,-0.000411329383,0.00258379569,0.009838323,-0.0154491719,-0.0148129035,-0.009508482,-0.009505397,0.0145939272,-0.0059772525,-0.00126331975,0.008186979,-0.005502807,0.0128402216,-0.00309613068,-0.0191259421,-0.01901434,-0.004738581,0.0122225992,-0.009010555,0.00957154,0.00567877,-0.0053298953,-0.00759654352,0.0132914465,-0.00478565833,-0.0172840971,-0.0124970814,-0.0112747569,-0.00400620047,-0.00655657751,0.000351519178,0.004995323,-0.008963312,0.00191791239,0.0202405415,-0.0107268877,-0.0193180926,-0.00460282,-0.009180353,0.002384021,0.008071277],[0.009226704,-0.0160247125,-0.00324888481,-0.0152464425,0.00976809,-0.00532066729,-0.0102750789,-0.023227578,-0.0249252487,0.0010008032,0.0103241205,-0.0153714865,0.00487965951,-0.00127362227,-0.0272152182,-0.0126461964,-0.0146295689,-0.01274201,-0.009679435,0.00120513618,-0.0118354205,0.003415538,0.0110295555,0.006247947,0.0101713417,-0.001965237,-0.00591444876,-0.01330447,0.007637011,-0.00413004,0.02486723,0.0191905145,-0.0122165065,-0.0184804127,0.0168755017,0.00568731548,0.004355492,-0.0137148192,-0.0104234135,0.00256500556,-0.0205956716,0.004481279,-0.014736779,-0.017176453,-0.00288303476,0.007873051,-0.0128184967,-0.0148770548,-0.0136572206,-0.00277229515,-0.0260328818,0.0115822451,-0.006736261,0.0138799073,0.00363229425,0.009110401,0.0122301439,0.0166684072,-0.00536767859,0.0155835235,0.0122943968,-0.0365010649,-0.009246085,-0.017219618,0.0101496289,-0.01416983,0.0134267006,0.0101912105,-0.0182829183,0.0153263928,-0.0161729772,-0.000293930352,0.0119931474,-0.00571536832,-0.00193868,0.0133213671,0.0131698046,-0.0190904718,-0.01911241,-0.0296740364,0.0061129923,-0.01732256,0.009726648,-0.016989449,-0.001945561,0.01276201,-0.0159977637,0.00473776367,0.008500145,0.003384189,0.0156035908,0.0128954006,-0.00463156635,0.0117646009,-0.00726397242,0.0163177419,0.0107990922,0.004775017,0.008683371,0.00065630523,0.008980876,0.0146998046,0.02297215,0.0139161944,-0.0126554426,0.00475314958,-0.0145234745,0.004181146,0.007847329,0.0107842283,-0.0203500614,0.009707485,0.03353305,0.015945904,0.0181965623,-0.01685636,0.01259112,-0.00521222549,-0.00409388635,0.007984788,-0.009164601,-0.02110088,0.0134084942,0.0238915179,0.0230008662,0.0136201866,-0.008978438,-0.0168787129],[-0.0125470711,0.0121436752,-0.00846692,0.005680387,-0.00231813383,0.0155546283,0.00440790551,0.006710601,0.0180173777,-0.0137988888,0.00206162944,0.006293723,-0.00801764,-0.0139136454,0.013804975,0.009966622,0.025174398,0.0297551285,0.00197919481,-0.0038450784,0.0179158784,0.00249756081,-0.0203087162,0.008822229,-0.008654245,0.008353519,0.01239251,0.0101493355,-0.0113501512,0.02089875,-0.011684143,-0.01568835,0.008930984,0.00759625,-0.00603774562,-0.02180016,0.002852285,0.02122468,0.009693755,-0.0268448256,0.0009968473,-0.00127351924,0.00216126419,0.011863308,0.01300191,-0.004137635,0.0193307921,0.0282726716,0.041965805,-0.006937857,0.02218307,0.00115159713,0.022209771,-0.00682813441,-0.0140856523,-0.0143175432,-0.0134835644,-0.007637168,0.01825309,-0.01834631,-0.01421966,0.0228780285,0.0174400341,0.0101546971,0.0157516785,0.013897974,-0.009104578,-0.0129379714,0.00148596859,-0.01671224,0.0175201222,0.01158419,-0.005238909,0.0158037432,0.008394995,-0.00294683338,6.45834662E-05,0.011356907,0.01562604,0.0256046336,0.00599657325,0.01598675,-0.0108831134,0.005984147,-0.00298862043,-0.00207672524,0.0172853582,-0.0106787179,-0.0114412336,-0.02069724,-0.00713008363,-0.002880465,0.0174418837,-0.0122652389,-0.0159025043,-0.000185652636,-0.0179400519,-0.0180189572,0.00662898738,-0.0200857352,-0.0101272361,-0.006700313,-0.0015859995,-0.008564621,0.00469110347,0.0086349,-0.006155658,-0.0128885284,-0.00550639024,0.0135604115,0.00448487047,-0.0176683441,-0.0234586112,-0.007773119,-0.008072909,0.0383406058,-0.0168849546,0.00662732124,0.0170226563,-0.010678635,0.015839925,0.011350574,-0.00895562,-0.0134262145,-0.03282707,0.0106679015,0.0232856,0.0143076],[0.0147227738,-0.007153997,0.008912373,-0.000327083777,-0.00227102288,-0.0214297213,-0.003927151,0.00289079943,-0.00305767357,0.0113646621,-0.00603355141,-0.0005177869,0.0127914231,0.01833052,-0.00167864712,-0.005368813,-0.02884284,-0.03944022,0.003717524,0.00539575657,-0.0154749127,-0.000207544086,0.0230883565,-0.02054685,0.0035336453,-0.00630593253,-0.01732274,-0.004551388,0.0169388726,-0.0232656542,-0.00134074281,0.008266775,-0.003969024,-0.0013329715,-0.001076169,0.0162489284,-0.000833025435,-0.0206055529,-0.006604374,0.0398956463,0.00564193632,0.00179837062,0.009372632,-0.009985699,-0.0138697559,0.0017082477,-0.0173686314,-0.02205726,-0.0455293,0.0117655639,-0.0175452065,-0.0117410608,-0.0255220532,0.009718646,0.0139201228,0.0126372809,0.0114375092,-1.32490295E-05,-0.0211690348,0.0119646192,0.009975552,-0.009133832,-0.0162545815,-0.006573083,-0.0269308221,-0.0114505282,0.000522778137,0.009370651,0.006633449,0.008102027,-0.01248739,-0.02338501,0.00719467644,-0.0186717473,-0.012382823,-0.0132121556,-0.00744921528,-0.00676337769,0.00238228147,-0.0165103823,-0.0121034048,-0.0157578681,0.004395489,-0.00227739685,0.00906294,0.004701722,-0.0108847758,0.0143450145,0.0105374735,0.02656051,0.000536723062,-0.00179946737,-0.024381185,0.009601117,0.0305450335,-0.007581469,0.0142604271,0.0243481081,-0.008810924,0.0238037538,0.00776412059,0.00307216845,-0.0141125806,0.006676103,0.00170521019,-0.0165479518,0.0179056823,0.025590688,0.000601339445,-0.026966488,0.009380336,0.0149175525,0.0152055286,0.00244164863,0.001116893,-0.0432908162,0.0130503522,-0.007771438,-0.02028097,0.006287981,-0.0171461087,0.00156481,0.00514068268,0.001351417,0.0270647258,-0.0195098668,-0.0236091446,-0.0121227093],[0.0120243924,-0.000882182561,0.005641361,0.00039120033,-0.00711466372,-0.0139390882,-0.0005878424,0.00274307,-5.847357E-05,0.008214487,-0.00353120849,0.00305545982,0.0105689475,0.013729115,0.00638544047,-0.0007952088,-0.0212605409,-0.0217845012,0.00603436166,0.00324947527,-0.00654207449,0.0006721581,0.0135515174,-0.0128563987,-0.0032295296,0.00149506074,-0.0127975559,-0.00617909245,0.0127150873,-0.0122891208,-0.005836792,0.005745522,-0.00261191884,0.0006168543,-0.00334318727,0.008178282,-0.00337979,-0.0125665627,-0.00672391243,0.0246941615,0.00393878529,-0.00503293937,0.007830625,-0.0042063226,-0.00565860048,-0.001801228,-0.0110374987,-0.0120686041,-0.0292214211,0.009105786,-0.00778735569,-0.009227004,-0.0153987147,0.000358242833,0.0104813911,0.0108947335,0.0103554782,-0.00067904155,-0.009632758,0.0116698844,0.007742477,-0.00409646425,-0.009096494,-0.00140485039,-0.0177732,-0.005153698,-0.00176575978,0.00122671446,0.00622799573,0.00288255652,-0.008340845,-0.0165916029,0.005353674,-0.009335301,-0.00662442436,-0.00810188,-0.0108198794,-0.00157329382,-0.0010524547,-0.0115679689,-0.0124340663,-0.006004696,0.0102934437,0.00115522963,0.01036755,-0.002736592,-0.0125254467,0.0102603687,0.0124103874,0.017619187,0.001388061,-0.002081705,-0.013164917,0.004397152,0.0193001553,-0.00520850765,0.005745837,0.0187487,-0.006492296,0.0183208529,0.0102433274,0.000132547182,-0.00726057263,0.008863598,-0.000699465338,-0.0107905,0.010550186,0.0135583589,0.00572032155,-0.01863762,0.0006905285,0.005918399,0.004097914,0.0007164499,0.00221494469,-0.0244512539,0.007995492,-0.0116496887,-0.0115431044,0.00380398054,-0.0123567367,0.00199913722,0.00345682539,0.0010386561,0.019642571,-0.013335282,-0.0148903057,-0.005308115],[-0.0164571982,0.007195957,-0.007299966,0.0025956782,-0.000799996138,0.0133816237,0.00615822,0.00353884767,0.0107466932,-0.0130916769,0.00495445449,0.00308811571,-0.00766699342,-0.0152996071,0.008254432,0.009129037,0.02145262,0.0253675114,-0.00316709816,-0.00134840352,0.0139467865,-0.0019139467,-0.01787682,0.01037785,-0.0062216525,0.004022632,0.0115486858,0.0131754866,-0.0120871468,0.0180392712,-0.0052152304,-0.0129535589,0.00755834,0.007972501,-0.00371924881,-0.0154572846,0.0028613992,0.0173529,0.008151432,-0.024871042,0.00191858038,-0.00147265382,-0.00153621123,0.008331184,0.0118157929,-0.00334548857,0.0183321945,0.0241603963,0.0354599431,-0.00592375547,0.0171716046,0.005281517,0.016079843,-0.00889632851,-0.0155187948,-0.0140193142,-0.0148699917,-0.004091602,0.0168329477,-0.01642928,-0.0102811633,0.012326315,0.0150299883,0.008902994,0.0149636744,0.0153376125,-0.0072612376,-0.0119543374,-0.00199728739,-0.0135171255,0.0154385408,0.0141775953,-0.007620579,0.0160589386,0.008903206,-0.000140354576,0.00363887683,0.006539421,0.0110310726,0.0228259619,0.008925841,0.0117521733,-0.0108407792,0.00551681733,-0.00485629542,-0.00324046542,0.0162054058,-0.0108405724,-0.0105075063,-0.018061,-0.006068264,0.0006862651,0.0124017848,-0.008800632,-0.0159464628,0.00623652758,-0.0168284141,-0.0202752426,0.00392466038,-0.0184021015,-0.0109560527,-0.008401454,0.000199248418,-0.0103984149,0.0038281905,0.0101280129,-0.0107730031,-0.0162797887,-0.007896702,0.0191656966,-0.000287787872,-0.0122715179,-0.0179214142,-0.007023095,-0.004026134,0.0309975576,-0.01731385,0.0100047877,0.0205402635,-0.009106801,0.0196585134,0.00641596457,-0.00602087053,-0.012025292,-0.0270554014,0.0105379215,0.0198096111,0.0136687411],[0.0150389848,-0.0131597435,0.006350916,-0.006515387,0.00233634119,-0.0154522033,-0.00346497,-0.00699786237,-0.0192590617,0.0137953153,0.00343460147,-0.00703170244,0.0104020508,0.015359574,-0.0145900846,-0.00709908968,-0.02682236,-0.0288391858,-0.00107799,0.000769411854,-0.0185647458,0.000383097067,0.0210437812,-0.009266102,0.00692097656,-0.00399642251,-0.0133483149,-0.0088589,0.01137819,-0.0170551557,0.01574033,0.0157861654,-0.00885943,-0.009301635,0.006806467,0.01957234,0.00105363841,-0.0211873222,-0.009678518,0.02277616,-0.007861237,0.005449814,-0.00161163823,-0.0118077891,-0.0126412716,0.007211213,-0.0172750354,-0.02431564,-0.03848215,0.00686619431,-0.0204918552,0.0023444565,-0.01687758,0.009217711,0.0124152126,0.014895401,0.0145482793,0.007772408,-0.0156732742,0.0150726484,0.0106585864,-0.0257687382,-0.0134718083,-0.0120777385,-0.0131729143,-0.0117380228,0.00641669473,0.01385382,-0.000726263039,0.0143546592,-0.0152262263,-0.0110130105,0.007430738,-0.0133817187,-0.0100833243,0.00159190956,0.001682086,-0.0124734025,-0.0156207569,-0.0245144051,-0.00343977055,-0.0191362835,0.0100087952,-0.009436678,0.00257567526,0.00267860014,-0.0168798268,0.0147459358,0.0121063571,0.0150595652,0.00565866427,0.005460762,-0.0160882063,0.0140385926,0.0135408873,0.0003422572,0.01444579,0.0180823263,-0.00409549847,0.0146881286,0.00943586,0.008532504,0.005189397,0.006966455,-0.00217668433,-0.00508430367,0.005298921,0.0135228131,0.00205071038,-0.0122225406,-0.005929275,0.0154464711,0.02798508,0.007131693,0.0117240474,-0.03586422,0.0153626,-0.00668903254,-0.0133322366,0.006337471,-0.0138188805,-0.0124414135,0.0106080975,0.0119472072,0.0321330875,-0.00446298067,-0.01854929,-0.0148372315],[0.00127466989,-0.00231732521,0.00140930037,-0.004287845,0.006494515,0.00551663,-0.00354424655,0.00684162229,-0.001964105,0.004893268,-0.005363748,-0.00436294032,-0.00960381,0.00517213,0.00399447838,-0.00530321151,0.00527697941,0.008009595,0.00249931146,-0.00667332532,-0.00180808012,-0.000332501164,-0.00462607,0.00198279624,0.00353945233,-0.00736794062,0.00670121145,0.00237416569,0.00136013958,-0.0100422027,-0.005774571,-4.1461888E-05,0.00327570364,-0.008358123,0.0006264329,0.009807421,0.00149404129,0.00281616976,-0.00159866887,-0.00715614669,0.005637172,-0.003802598,-0.00554008875,-0.000578911,-0.00263218163,0.008077326,-0.008568016,-0.00257204426,0.00291619077,-0.00384320552,-0.0009568846,-0.00047072646,0.003133452,0.00646821363,6.334925E-05,0.00418337947,-0.00263541518,0.0023546936,-0.005123599,-0.000443619851,0.00521707861,0.005652736,0.00189935754,-0.0005073678,-0.00106529868,-0.003175272,0.0049233865,-0.00230176537,7.060416E-05,0.006267254,-0.009803033,0.00179182109,-0.0018067311,-0.00490978,-0.000124397833,0.0144506413,0.00576146459,0.00143710338,-0.008280883,-0.000188088146,0.0008566265,-0.00132573012,0.00114478474,-0.00231149513,0.0006612968,0.003860954,-0.002844382,-0.00113797036,-0.005767157,-0.008721516,0.009120925,0.000515623,0.008643978,0.0017427702,-0.00491963653,-0.00758638373,0.00100517587,0.000569146243,-0.00193785131,-0.00133927865,0.0007178866,0.009118962,0.005981616,0.00301644485,-0.00435954146,-0.000686474843,0.00277216453,-0.005216044,0.008097736,-0.00576901436,0.00040770843,0.0007709705,-0.00173611834,0.00411858968,-0.0003512113,0.004492906,0.0105525684,-0.00206575939,-0.009701503,0.00577795738,-0.009819468,-0.0109495847,0.00394556765,0.0125641264,-2.92912646E-05,-0.00281407428,-0.00148334773,0.00105460919],[-0.00856427,0.0125048989,-0.00175126875,0.008565017,-0.008399939,0.008710019,0.00780039141,0.016379511,0.0181134176,-0.008050503,-0.009353707,0.008213891,-0.00608649524,-0.00277536619,0.019679198,0.007432087,0.0181574188,0.0218489766,0.0110035175,-0.00519373827,0.01406939,-0.00133749156,-0.0146913966,0.00110413367,-0.01097324,0.00129320414,0.0100743594,0.008753444,-0.00569973141,0.00619702926,-0.0181807149,-0.01752319,0.0112379929,0.010045181,-0.011017397,-0.0090562785,-0.00663783727,0.0153136309,0.004085456,-0.0122307129,0.0142894471,-0.007071838,0.006626808,0.0144403679,0.00576173468,-0.00608979445,0.008647676,0.0185977872,0.0242840685,0.00141693989,0.0197701883,-0.007411749,0.0130286394,-0.008515039,-0.009540836,-0.0115824658,-0.012597464,-0.010353066,0.007201492,-0.0120756589,-0.00743473275,0.0313556567,0.009599114,0.0153465848,0.00239516119,0.0127553875,-0.008276456,-0.009400062,0.00827429,-0.0113897957,0.0149613516,0.00508270273,-0.008492228,0.00366592454,0.0051663043,-0.00296762749,-0.008522715,0.017170744,0.0146853914,0.0244445167,-0.00138820847,0.0141364112,-0.008041457,0.0111616682,0.00331435539,-0.0103732357,0.009268632,-0.0116717173,-0.00464085536,-0.009967036,-0.009808106,-0.00741231861,0.0103368033,-0.0119790677,-0.007660021,-0.0104169715,-0.0117260432,-0.00729035959,-0.006465356,-0.00784435,-0.00277293543,-0.0118886977,-0.0134591144,-0.004929415,0.00749828061,-0.0009290062,0.006508921,-0.009923889,-0.00523129525,-0.00187124033,0.01221972,-0.0107034827,-0.027333539,-0.0115367081,-0.0142341722,0.0244997479,-0.009894162,0.00302449055,0.004534953,-0.0070196134,0.004172267,0.0142086726,-0.0102870679,-0.0153296916,-0.0199419465,-0.002753466,0.01305246,0.015438267],[0.007680033,0.003516128,0.00455312524,0.005398935,-0.00533222174,-0.0105092265,0.00427911524,0.007578247,-0.000225739263,0.006699754,-0.00528457062,0.00288483244,0.00752766337,0.009117699,0.00666624447,-0.001767084,-0.0119763492,-0.012071263,0.002544238,0.002040377,-0.00192447309,-0.00186010543,0.009028367,-0.0117349466,-0.00110792089,-0.00258432585,-0.009091827,-0.00372738135,0.011505764,-0.009369906,-0.00710008433,0.00293134782,0.003062581,0.00510711828,-0.003518816,0.00559734367,-0.00111694355,-0.00428305,-0.0100348983,0.0172365252,0.0044898307,-0.00223399466,0.00503853429,-0.00143460359,-0.007086019,-0.000196232912,-0.009741924,-0.00575554371,-0.020192733,0.00522972969,-0.0009957681,-0.00813445449,-0.009954139,-0.0006528747,0.008010897,0.008183025,0.004111112,-0.00419328269,-0.00722614536,0.0108671626,0.00517270667,0.00270338776,-0.0077999807,0.0022420017,-0.0101606529,-0.00156404509,-0.00428165728,0.00242267363,0.006480155,0.00324850087,-0.0005852983,-0.0140645849,0.00391431572,-0.008880058,-0.00383447786,-0.004675577,-0.0115563395,0.00122853077,-0.0006664034,-0.005146437,-0.008052184,-0.0007194209,0.00772035867,0.006789369,0.00961525,-0.00376648922,-0.005959551,0.00700146565,0.00679296441,0.0124793947,-0.0015351004,-0.003261541,-0.0063326573,-0.0002105547,0.0167609211,-0.004306851,0.00318865874,0.0126128,-0.00458843866,0.0133857122,0.008622197,-0.00303241028,-0.008163313,0.00611665426,0.005685978,-0.009340221,0.008358666,0.007760123,0.004877402,-0.01270717,0.00596042,0.00648725638,0.00121309981,-0.000852719531,-0.00546008348,-0.0128313107,0.006989944,-0.009054815,-0.0090384,-0.00119066075,-0.0131290052,0.003063244,-0.000868250558,-0.000951093854,0.0142474286,-0.0123574669,-0.009080823,-0.00215095212],[-0.0155004906,0.0116808489,-0.013674587,0.00222827564,0.00189388148,0.0179659184,0.0048321113,-0.00437437,0.008572582,-0.013988575,0.00884373952,0.004325649,-0.0120528154,-0.0266878568,0.004573149,0.007213362,0.0310396813,0.03837267,-0.007708796,-0.002331345,0.0149851339,0.00274094753,-0.023710683,0.018375434,-0.00419931533,0.008406831,0.0157972667,0.008079855,-0.0135961827,0.0288363248,-0.0006004699,-0.008768267,0.00236362964,0.004739257,5.14093563E-06,-0.0231462773,0.005065896,0.021920979,0.007451738,-0.0392245762,-0.00764771039,0.0005602151,-0.00675965473,0.0102244634,0.0162866823,-0.00386023964,0.02669753,0.0307534486,0.0503826141,-0.008935088,0.0194307584,0.0128745977,0.0259609614,-0.0106050866,-0.0182953365,-0.0186961535,-0.0136021329,-0.00515486,0.0267956145,-0.016949,-0.0181463528,0.01244214,0.01952888,0.006144942,0.02864339,0.01479306,-0.00504913274,-0.01038414,-0.00661374,-0.0152752381,0.0187142845,0.0218085051,-0.00472882576,0.02185363,0.0107415682,0.006881311,0.005278659,0.007621629,0.008790836,0.0196597222,0.0113947112,0.0165396985,-0.006869693,0.003196944,-0.008720799,-0.00218163733,0.01490693,-0.0164984241,-0.00767826475,-0.0248247031,-0.008388159,0.001966315,0.0227570217,-0.0135251181,-0.02999428,0.008126421,-0.0180407949,-0.025263967,0.0105984658,-0.02679871,-0.01106415,-0.009123709,0.0114620989,-0.008871264,0.000425037637,0.0156972464,-0.0185927246,-0.0225459132,-0.00612259051,0.0300527122,-0.007342274,-0.0158817973,-0.01660259,-0.002630747,-0.00273875077,0.0474193133,-0.0201924145,0.009180148,0.0278462153,-0.0111135654,0.0230512954,0.007639549,-0.01114067,-0.0118362717,-0.03640738,0.0198710356,0.0272542536,0.0163086858],[-0.00736254454,0.0123117995,-0.0043608956,0.005593612,-0.00171222573,0.008421083,0.00235325377,0.0154166883,0.0172775034,-0.005603093,-0.00682684733,0.008265974,-0.00679621054,-0.00583725329,0.01859487,0.008484625,0.0195610709,0.02437599,0.008667503,-0.004592225,0.0136761824,-0.0007241698,-0.0166378021,0.003097501,-0.00689451071,0.00216741837,0.0124461325,0.007577279,-0.00558068231,0.004601745,-0.0166264921,-0.0125631513,0.0112799034,0.00538946968,-0.0104656154,-0.007996031,-0.00643564854,0.01798662,0.00688540144,-0.015729405,0.0132443728,-0.006634102,0.00297345757,0.0140819512,0.006666442,-0.006074246,0.009603924,0.01813562,0.0233816076,-0.00420474634,0.0194100738,-0.007096731,0.0123620192,-0.00742204767,-0.0107521862,-0.0115671773,-0.0142092705,-0.005925257,0.007807204,-0.008671512,-0.006222619,0.024320377,0.0111105535,0.0151309408,0.00627648039,0.00786486547,-0.007914269,-0.0103086475,0.007970721,-0.004942969,0.0111947423,0.003666315,-0.0109884152,0.00529905129,0.00646732841,0.00274168863,-0.00422517443,0.01254684,0.0131353708,0.017693596,-0.00109731068,0.0120165525,-0.005820452,0.008698427,0.001405988,-0.008470099,0.0074843266,-0.0113304043,-0.008094711,-0.012528345,-0.004577073,-0.00715492,0.0149057154,-0.0110285534,-0.008151677,-0.009044963,-0.00883555,-0.009366096,-0.00190992386,-0.009341337,-0.002249197,-0.006705424,-0.00801646151,-0.00290745264,0.005393677,-0.0008309166,0.00290773716,-0.0111054936,-0.0005486598,0.00270065269,0.008957219,-0.009960138,-0.025348166,-0.007555585,-0.009746988,0.0294988826,-0.00518481,0.0020257323,0.005730304,-0.006938688,0.00152922422,0.007196968,-0.009978369,-0.00728430133,-0.0213059373,-0.00352748949,0.0125451116,0.0141473832],[-0.00218393444,0.0174505487,0.00618821,0.0193920024,-0.0126264011,-0.00309266779,0.0132418685,0.0175618362,0.0158871077,0.004068068,-0.008778193,0.0168623831,0.0005112624,-0.00117720792,0.0161089133,0.009076798,0.000156725335,-0.002142789,0.0103687728,-0.0016149123,0.0144216046,-0.00443064747,0.000851818768,-0.0098880725,-0.015598163,0.0057621114,-0.005072767,0.008861308,0.000607814931,0.004370382,-0.0141060511,-0.0105711566,0.0105616162,0.0212526247,-0.0199052673,-0.00315798423,-0.00710064126,0.00470661,0.006321457,0.00696814246,0.0168610457,-0.00493174652,0.01259905,0.0154387029,-0.00563880475,-0.0132413395,0.008877977,0.012147367,-0.00043545416,0.005458874,0.0185717382,-0.00535244634,-0.00292787678,-0.0146714393,0.006224894,-0.00276642083,-0.00396759063,-0.01627707,0.006409019,-0.004636319,-0.0101005677,0.0221265033,0.000181193129,0.0134137878,-0.0128741357,0.013110918,-0.0163608044,-0.006746475,0.0172283631,-0.0130017456,0.0146913575,-0.00601722952,-0.006296968,0.00475190068,0.00208115252,-0.0161787756,-0.0119172046,0.0139120771,0.0156790074,0.0142290182,-0.006613425,0.0120268,-0.00700398441,0.0169472,0.0001156656,-0.011613098,0.01238328,-0.00183103583,-0.0005672333,0.00375780417,-0.0208470188,-0.0151940035,-0.00266587175,-0.006874628,0.0162034649,-0.0115473447,-0.00330775115,0.00502005266,-0.009268893,0.008290317,-0.005473327,-0.0190231223,-0.0226533525,-0.007556729,0.01403636,-0.00666125538,0.008502074,0.004320066,-0.008507209,-0.009772407,0.0132259233,-0.00670433138,-0.0237222631,-0.0145241171,-0.0161298923,-0.00186653761,-0.006954632,0.004257547,0.00726697268,-0.00670888,0.004672989,0.0195975248,-0.0134583479,-0.0260158,-0.00767666847,-0.0118232081,0.00181577925,0.007844005],[0.0157558359,-0.00266459165,0.005552594,0.00216558226,-0.004682867,-0.0159760825,-0.000944923435,0.00191180827,-0.002890217,0.0111483317,-0.005681824,-0.00151175994,0.009565423,0.0149122961,0.00426574,-0.004115835,-0.02523026,-0.0281739365,0.00638425,0.00242763618,-0.008528263,-0.000550071069,0.018456623,-0.0154041089,-0.000476586953,-0.00438046735,-0.0166063383,-0.0105271023,0.0157087632,-0.0181560144,-0.0008883475,0.004282403,-0.0011257903,-0.00252430025,-0.00185956014,0.010179067,-0.00527027575,-0.0155419884,-0.007356582,0.0275158025,0.0035761178,-0.00244537345,0.00600254536,-0.008636527,-0.006776983,-9.173269E-05,-0.0163191035,-0.0151156718,-0.03824331,0.0110845752,-0.0129986033,-0.008323342,-0.01951292,0.00483719353,0.0138458768,0.0128727937,0.0124119949,-0.000872928533,-0.0119503113,0.0151141183,0.008541619,-0.00551853329,-0.0124239912,-0.00601967843,-0.019097995,-0.00696100527,0.00273666717,0.008556083,0.00298864278,0.006675903,-0.009317358,-0.0182768442,0.006110646,-0.01472791,-0.009410952,-0.009299322,-0.00697900727,-0.005766379,-0.002882977,-0.0168654341,-0.010428044,-0.0123964641,0.008228819,0.00106692256,0.0105333114,-0.000683547754,-0.0134375589,0.0117093483,0.009952345,0.0226070881,0.00349544268,-0.00168597733,-0.0183928441,0.00798596,0.02476203,-0.00343320332,0.011908086,0.02246147,-0.008993794,0.0229068864,0.008361731,0.004644265,-0.00983081851,0.00702921627,-0.002176742,-0.0131697515,0.0130899381,0.0207065344,0.00425990066,-0.0200332887,0.00233614841,0.0100516882,0.010163228,0.000923899235,0.0005060516,-0.0302661136,0.00819113,-0.009799561,-0.01649345,0.00493852654,-0.0165533163,-0.00303817657,0.00456338,0.004987123,0.0258450117,-0.0149530815,-0.0160137285,-0.008440151],[0.000421121542,-0.0194349568,-0.005314687,-0.0193298534,0.0150001291,0.006969772,-0.012792415,-0.0149114495,-0.0165032912,-0.0070568705,0.006633996,-0.0173429772,-0.006733123,0.00447280426,-0.0124216229,-0.011424846,0.00371195842,0.009721974,-0.00449171476,-0.0009077385,-0.01110907,0.0007383696,-0.000226951932,0.00730860466,0.0155333774,-0.009204929,0.0052975514,-0.00419216556,-0.0007501732,-0.005341872,0.0116672534,0.00831333548,-0.006394047,-0.0212232,0.01642527,0.006514992,0.006382315,-0.0007782534,-0.00299500255,-0.01624234,-0.0151895974,0.006248429,-0.0134450616,-0.012400589,0.00540724,0.0139434123,-0.008957563,-0.009166123,0.00361693371,-0.00670030247,-0.0154266777,0.004175588,0.00731732976,0.0108546922,-0.011260719,0.004101218,-0.00121193251,0.01936315,-0.00615776237,0.00726884231,0.0111410813,-0.0191426426,-0.00196759054,-0.0135240937,0.010062431,-0.0133499177,0.015622478,0.009011279,-0.0180162285,0.0158350822,-0.0178740583,0.008620218,0.00340441358,-0.006269251,0.00211523846,0.02419887,0.0152490456,-0.0150290178,-0.01358719,-0.014520172,0.00766966725,-0.0132123595,0.00135669683,-0.01692373,-0.00330047822,0.0116093894,-0.008856364,-0.00288096978,-0.00270616333,-0.00798579,0.017648194,0.0158091076,0.008760574,0.009275797,-0.0203712024,0.00562102534,0.00397965265,-0.006487778,0.00349184,-0.0121069262,0.00376298768,0.0216995887,0.02062922,0.00650308747,-0.01539426,0.00596278347,-0.0102620982,-0.005739477,0.012444092,0.00527932076,-0.01355351,0.00580230867,0.0187141746,0.0177402589,0.01462674,0.00472733332,0.0109554576,-0.000426474231,-0.00666801957,0.0110848993,-0.00813248847,-0.0207387153,0.0140864644,0.0274656229,0.00507158,0.007746336,-0.00141910149,-0.007167503],[0.0123247094,-0.008225144,0.0102268169,0.001488245,-0.00192654412,-0.0188171547,-0.002070041,-0.0003853152,-0.006269997,0.0128910169,-0.00575037,-0.000951045251,0.0120440526,0.0189829934,-0.00331292674,-0.00501165353,-0.02805221,-0.0311781634,0.002117184,0.002837496,-0.0136527168,0.0007078261,0.0188786723,-0.0145559078,0.0009349934,-0.007628437,-0.0162438229,-0.0100642452,0.0140965329,-0.021809129,0.002629701,0.00643286528,-0.003681389,-0.00234064,0.00195081509,0.0167889223,-0.00197191676,-0.0208476689,-0.006654305,0.0354100727,0.00170623185,-0.0018212318,0.00742077734,-0.009179603,-0.0141691407,0.0045471,-0.0183345955,-0.0229666848,-0.0413322076,0.0113616306,-0.018585071,-0.00720691867,-0.020604074,0.00498644076,0.0120421834,0.013069639,0.0144085195,0.00305399555,-0.0178747736,0.0161507819,0.0135484962,-0.0145702073,-0.0180840082,-0.007779473,-0.0240639839,-0.0112977671,0.00345678325,0.008373814,0.003402082,0.0126816984,-0.0132136391,-0.0178004131,0.005940567,-0.0198537335,-0.0107420059,-0.00777273439,-0.00538072456,-0.00735271024,-0.005722137,-0.0190988258,-0.0074559683,-0.0165116247,0.006270906,-0.000544104259,0.004511305,0.004405465,-0.0133979889,0.0162866469,0.0109704575,0.022665659,0.00319975545,0.000730841537,-0.0194728412,0.008777571,0.0255777948,-0.00409394875,0.0154932141,0.0241984576,-0.008655887,0.0232060459,0.007257872,0.00338431261,-0.0106591331,0.00830252748,0.0004675827,-0.0138748186,0.01645229,0.0210558325,0.00128307694,-0.0248728134,0.0034724935,0.01680158,0.0190203413,0.0021569638,0.005990083,-0.0384961553,0.0135403266,-0.009915815,-0.0196437519,0.00750663,-0.0154919727,-0.00189210591,0.00532259,0.00652294932,0.02992171,-0.0142091475,-0.0209319983,-0.0143865477],[0.00182329514,-0.01993216,-0.008184927,-0.021556424,0.0152177559,0.006094718,-0.0108346408,-0.0152509343,-0.0194666144,-0.008123356,0.00437438674,-0.0173954181,-0.007382415,0.00585801061,-0.0100440579,-0.0121964086,0.00494650844,0.0115007274,-0.00557978172,-0.004155621,-0.0126789892,0.0009782685,-0.0012109105,0.0100970175,0.01717291,-0.0125900274,0.00764672365,-0.00812185649,0.00193404558,-0.00465984363,0.0102487551,0.0133214435,-0.0105140777,-0.0256483,0.0205877,0.00465380773,0.007633323,-0.00287643936,-0.0063251676,-0.0168352686,-0.0147951478,0.00408087065,-0.0146130156,-0.016433822,0.007952571,0.0159057435,-0.009233906,-0.008158186,0.00669495855,-0.004843719,-0.0157221,0.004435647,0.009318365,0.01422825,-0.0102306427,0.006125903,-0.001754907,0.015783878,-0.00393026276,0.00725982571,0.0119006112,-0.0193580277,0.000289627525,-0.0130534461,0.012081583,-0.0164729636,0.0204755384,0.007649247,-0.0193255786,0.021762263,-0.023726549,0.009959287,0.00153375475,-0.0103455856,0.00269469,0.0220618881,0.0170899183,-0.0132693918,-0.017341448,-0.0176051334,0.00465068128,-0.012013061,0.00587502634,-0.0212144535,0.00256194058,0.01330104,-0.0129759908,-0.0009719223,0.0009128253,-0.009542866,0.0237562973,0.0174249522,0.008942985,0.009128248,-0.0227434523,0.00664190855,0.00370643544,-0.00301065855,0.008759951,-0.0130606266,0.0109917289,0.0253821556,0.02200038,0.0150031578,-0.0186558627,0.00633624429,-0.0102382079,-0.008151651,0.0145327654,0.005275459,-0.0144039914,0.00577306747,0.02021127,0.017309526,0.0161840785,0.009594627,0.0123260459,-0.00482602557,-0.008911993,0.0121381376,-0.0127850724,-0.0276024733,0.0151261287,0.03479647,0.009278064,0.009442753,-0.005279483,-0.00779705029],[-0.01827565,0.0105870375,-0.009561881,0.003550018,0.00130094239,0.0173107553,0.00256805355,-0.002977867,0.00678789942,-0.0153662181,0.00778477546,0.00118421332,-0.0119895283,-0.0258748941,0.00137157622,0.00677176053,0.030726742,0.0335397422,-0.005565442,-0.0005740521,0.0139019089,0.00180067681,-0.0239492133,0.01512514,-0.00286591053,0.006412403,0.0179081056,0.009563554,-0.013549868,0.0284954477,-0.00304183573,-0.008980693,0.00398176629,0.0049406006,0.000536759,-0.0211151969,0.00703701237,0.0222488623,0.009647351,-0.0350049473,-0.00676042261,0.00351030612,-0.00375161041,0.008195102,0.0147708775,-0.00746084936,0.02187611,0.0290772319,0.0490640178,-0.0122567927,0.015824182,0.00828889,0.02371013,-0.009816583,-0.0148742208,-0.0195428748,-0.01734027,-0.00138831732,0.0239700247,-0.0191727467,-0.0157441534,0.0124408053,0.01653413,0.008313069,0.02443189,0.0132871112,-0.00260123471,-0.0135013005,-0.008855278,-0.0174734835,0.0199716128,0.022276694,-0.00386074162,0.0229491852,0.0115102027,0.00430149,0.007443021,0.004858988,0.009566087,0.0192836449,0.0138405692,0.0184899718,-0.007717105,0.00431258231,-0.005471563,-0.00173000328,0.01674871,-0.0170844719,-0.0110707125,-0.0248687454,-0.007815955,0.000364674954,0.0216405019,-0.0134882862,-0.0233912263,0.008055301,-0.0188845228,-0.0257159211,0.009439726,-0.0237311777,-0.0103823207,-0.00578538,0.009914395,-0.006592208,0.00158096361,0.0134654567,-0.0175598823,-0.01993935,-0.00492675463,0.02554764,-0.004025551,-0.0139482236,-0.01601975,-0.005047399,-0.005746779,0.0432888679,-0.01882388,0.009207931,0.0243857317,-0.012054042,0.0239584278,0.005885389,-0.00837821048,-0.0140666738,-0.0358175039,0.0175230131,0.0274551325,0.0165286846],[0.00899391,-0.0130889844,0.00475572376,-0.008922087,0.00311370217,-0.0117905363,-0.0055165384,-0.009156315,-0.015638683,0.009456489,0.00361779658,-0.005047466,0.00399670564,0.0086529525,-0.011929174,-0.0100648655,-0.0187740754,-0.022232119,-0.003747654,0.000984562,-0.009326163,0.0007522505,0.0138034793,-0.00551983155,0.008112369,-0.00249793148,-0.011830505,-0.0112857046,0.0104642818,-0.0133447945,0.0115674566,0.01308047,-0.009150905,-0.0115543511,0.009183061,0.0147145046,0.00283502461,-0.014643508,-0.009172419,0.0161597077,-0.009306947,0.00252174726,-0.007407587,-0.010001542,-0.009615706,0.004528816,-0.0157988686,-0.0214302335,-0.0257669669,0.003984435,-0.0185392573,0.0007596867,-0.0144521268,0.00716784736,0.0112561835,0.0107734893,0.0132505316,0.008825658,-0.0105263554,0.0134395193,0.009725757,-0.0212836452,-0.0127678961,-0.0110446885,-0.00536611956,-0.012012545,0.008601923,0.0114341537,-0.00239241612,0.0136641944,-0.0158866625,-0.009936657,0.00556476042,-0.0136217978,-0.006477595,0.00740165357,-0.000442341057,-0.008936685,-0.0136842979,-0.0205068253,-0.003770915,-0.0128886094,0.00759508,-0.0101017114,0.00327661377,0.00309313252,-0.0154710365,0.00600981526,0.007920085,0.0111909676,0.0126640946,0.00567902,-0.008489108,0.0102997376,0.0125594437,0.0016192015,0.0147600863,0.01286451,0.00110389525,0.0103851343,0.0102193868,0.010233135,0.00728030549,0.0114672678,-0.00424088072,-0.004222964,0.002584472,0.00939242,0.00744536333,-0.008619046,-0.00756071135,0.01289031,0.02100521,0.0071071,0.007951739,-0.0245656837,0.0124355126,-0.00795016,-0.015240889,0.008377406,-0.0127432123,-0.0101427622,0.0116405664,0.0146122463,0.0272024684,-0.00119862927,-0.0169871133,-0.0126564838],[0.0003148613,0.0153172463,0.009829063,0.0182496179,-0.0141587555,-0.009262939,0.009972672,0.01079677,0.0175504349,0.006492813,-0.005589787,0.0176227577,0.008795271,-0.00358580844,0.009722704,0.0123647442,-0.004523373,-0.0108811306,0.006517872,0.002677486,0.0107989367,-0.00154099043,0.00465178443,-0.009998061,-0.014083717,0.0102147656,-0.00632356573,0.002101426,0.00235469174,0.00362047,-0.009304932,-0.00959988,0.007820348,0.02250849,-0.0197415259,-0.002746874,-0.00520207454,0.000569005439,-9.54605E-05,0.01908905,0.0145044159,-0.00544137368,0.0160407741,0.01314379,-0.004501284,-0.0126808342,0.004819367,0.009079772,-0.00690454571,0.008679013,0.01312478,-0.00430969568,-0.005878016,-0.0143838394,0.009577207,-0.002890927,0.00163193676,-0.01498579,0.00319766882,-0.00256505958,-0.0120369578,0.0168272778,0.000929161964,0.009826221,-0.0122993449,0.0124672577,-0.0171824452,-0.006202895,0.0188276432,-0.0174651258,0.0190829616,-0.008624314,-0.002781108,0.006041767,-0.00216937461,-0.02390763,-0.0184411053,0.009930599,0.0142555637,0.0101400781,-0.00258183177,0.0104038939,-0.00227800664,0.0155652557,0.00255350862,-0.0140478583,0.009059652,0.00276349252,0.0016110579,0.011397928,-0.0187908188,-0.0176961,-0.0125718592,-0.0112591581,0.0181396753,-0.00727960374,-0.002446947,0.005381295,-0.006655356,0.0147342095,-0.006339066,-0.0208021,-0.0230992772,-0.00772071257,0.0142255994,-0.00534023345,0.00549979229,0.01065485,-0.0122910487,-0.00591714,0.0137831429,-0.00236740313,-0.0134972846,-0.016165657,-0.011594872,-0.009015736,-0.0110165291,0.004017443,0.00715013128,-0.0115450257,0.009869996,0.0211155862,-0.014453602,-0.026992023,-0.00224234513,-0.0109985806,0.00215322478,0.0083663715],[0.0160604175,-0.00682967762,0.011031176,-0.00281359022,-0.0034624408,-0.016333947,-0.00330165518,0.00410547759,-0.00483196462,0.0137356967,-0.006355666,-0.0009777935,0.01154049,0.0225911289,-0.0024046246,-0.00615938241,-0.0270652175,-0.03010989,0.003835135,0.00106206047,-0.0125486618,-0.00115791126,0.0191743355,-0.0151551384,0.00263446686,-0.00685115764,-0.0141424052,-0.009436947,0.0141008841,-0.0251382217,-0.000865367241,0.0102372011,-0.00270326575,-0.00545705063,0.00267301616,0.01782177,-0.00509070838,-0.0187036283,-0.009682465,0.0309650935,0.0056391973,-0.00439409027,0.004166591,-0.009339977,-0.0116479881,0.00622076727,-0.0240634568,-0.024921583,-0.0415281653,0.008487356,-0.0152818942,-0.0105020124,-0.02024188,0.00602428475,0.01565157,0.0146942688,0.0134845218,0.00156790426,-0.0167094748,0.0179440547,0.0121813435,-0.0102408389,-0.0187355615,-0.00657671969,-0.0202503521,-0.0129535077,0.00144297222,0.007609463,0.0038447734,0.0121981082,-0.01973092,-0.0178567823,0.00684627844,-0.0224411,-0.0115070082,-0.000375082076,-0.004550398,-0.0059705656,-0.008633004,-0.01894363,-0.009863407,-0.0160578247,0.009707258,0.000391709444,0.00787951052,-0.00267404574,-0.0160510745,0.0149197588,0.0101809949,0.0218390822,0.008771216,0.0006110785,-0.0183640514,0.0127390977,0.0211751964,-0.008301732,0.01594474,0.0238650087,-0.011511595,0.0250085,0.0129949749,0.008231343,-0.00450579775,0.0102739884,-0.00306187733,-0.0148766777,0.0172587223,0.018416455,0.009297968,-0.026174698,0.00344060874,0.0135418018,0.0133710094,0.003932712,0.0021903608,-0.034754578,0.01584569,-0.009377801,-0.02338374,0.0118672159,-0.0216229055,-0.00578652462,0.00682221027,0.009904227,0.031549938,-0.019629132,-0.025550412,-0.0138268713],[0.0167953521,-0.009245755,0.0108069805,1.82663262E-05,-0.00248074927,-0.0158363171,-0.000204364318,0.00320858927,-0.00215054187,0.0140155572,-0.00668293145,-0.000765429,0.0105592106,0.02043783,0.000386847561,-0.00402899925,-0.0280491188,-0.0344126262,0.004295457,0.00506243855,-0.012085746,-0.0004491907,0.0199414082,-0.01417516,0.00313907047,-0.00641789241,-0.0163367782,-0.0076053096,0.01540639,-0.0204387363,-0.00119194889,0.009347403,-0.0012604642,-0.00143921084,-0.0007744116,0.0165137425,-0.00443630433,-0.0167669132,-0.006603028,0.0347499773,0.00725042541,-0.000434300862,0.00797080249,-0.007170404,-0.014030681,-0.000197060552,-0.0178768151,-0.0220819619,-0.0409896038,0.0104566375,-0.0124200759,-0.008424199,-0.019820461,0.0046225586,0.013946102,0.0121773491,0.012717871,0.00246427651,-0.0154228071,0.0142663866,0.00845325552,-0.0106248436,-0.0150862634,-0.005694332,-0.0222929567,-0.01114482,0.00312721473,0.009796621,0.00276607764,0.0121806692,-0.0143186273,-0.0178700462,0.004953742,-0.0206357781,-0.0125396037,-0.008499306,-0.00728747761,-0.00378668937,-0.004463418,-0.0166939814,-0.0132845091,-0.0149072232,0.009441082,-0.00214940961,0.00670736,0.00212584832,-0.0127810612,0.0161021035,0.0128189158,0.0251593534,0.002184345,-0.00397584261,-0.0219575781,0.0086515015,0.0225520078,-0.00388909737,0.0155976983,0.0204775576,-0.00683206134,0.021411648,0.006980705,0.003443275,-0.0105430819,0.00775863323,0.0003592148,-0.0127457641,0.0168401152,0.0212457776,0.00467084,-0.02170117,0.004595895,0.0109479846,0.01626862,0.00279344944,0.00699197361,-0.04084307,0.0138922567,-0.00586052751,-0.0213764757,0.006453745,-0.0145141864,-0.00241863169,0.0083547635,0.00507720374,0.0298798867,-0.0196168665,-0.0228330679,-0.0136904484],[-0.00298163341,0.02023619,0.00784929,0.0226929653,-0.01611499,-0.00320694176,0.013394882,0.0146058286,0.0205434151,0.00516277831,-0.00871909,0.0187146645,0.00402501458,-0.001829788,0.0144677432,0.0142598692,-0.0011380926,-0.008933412,0.0076014013,0.004053691,0.0137566812,-0.0005444818,0.000334602635,-0.00974897,-0.0166128259,0.007468903,-0.00358937,0.008006843,-0.00353605929,0.00638875831,-0.0126488321,-0.013117414,0.00776804425,0.0256000627,-0.0191990063,-0.004601373,-0.00731134368,0.00228167861,0.0056936373,0.0145436544,0.0185814183,-0.00500099547,0.0151839238,0.016948333,-0.0050716633,-0.0138487555,0.008440078,0.0106952908,-0.001496549,0.00591059774,0.0171059,-0.0020610746,-0.00417486439,-0.0166497882,0.0112644769,-0.00396297034,-0.002482918,-0.0173708927,0.00895349,-0.009084116,-0.0130477445,0.0217457265,0.00194618979,0.012284928,-0.01236295,0.0146577833,-0.0169260632,-0.009572124,0.0211057384,-0.0183359534,0.0173541587,-0.009315097,-0.00522766775,0.00700920168,0.00118682417,-0.0205219723,-0.0128241926,0.0120240347,0.0148411021,0.02110584,-0.006787941,0.0148612559,-0.00728142355,0.0206721053,-0.00123192207,-0.0155550931,0.016165,-0.00235359,-0.00356698479,0.008473398,-0.0226877276,-0.0171484929,-0.007917875,-0.008639104,0.0204151459,-0.009076843,-0.00477936072,0.00120046758,-0.00546350749,0.0120287538,-0.008422853,-0.0242712516,-0.0253181849,-0.0113808149,0.0159749724,-0.007095678,0.009764803,0.006706293,-0.0127016632,-0.00541490735,0.0170586538,-0.00549920229,-0.0221018717,-0.0175592545,-0.0154455984,-0.004341307,-0.00859660748,0.007872672,0.00759355538,-0.009655639,0.0117395138,0.0254172143,-0.0133777428,-0.0306042228,-0.008502651,-0.0114501072,0.00539476052,0.007161051],[-0.004531961,0.0205857586,0.008751543,0.0213665925,-0.0139603969,-0.000288309966,0.0139566716,0.0175674874,0.0207665339,0.00469968328,-0.00835154951,0.01770092,0.006474701,-0.00717715267,0.0133771375,0.0148544693,0.000196883324,-0.00436130958,0.00627677748,0.004597457,0.0133303013,-0.00363312475,-0.00240862765,-0.009289104,-0.01233261,0.008670493,-0.00559155643,0.007945441,-0.00271521322,0.008857804,-0.0121576441,-0.0121681113,0.00750671653,0.0226067659,-0.0192267075,-0.00692974264,-0.004931322,0.005335085,0.005310749,0.0124316253,0.01466052,-0.00386637822,0.0138487043,0.013892984,-0.00411787257,-0.01325844,0.00834632,0.01060674,7.52122E-05,0.006292725,0.015294807,-0.004693868,-0.004826653,-0.0159798265,0.00452565029,-0.00631915359,-0.00169190264,-0.0173617974,0.00715042232,-0.008719544,-0.01142379,0.0222565476,0.00368636451,0.0145135075,-0.0113185449,0.018261686,-0.0196748078,-0.008332777,0.0180098433,-0.01774335,0.0224190764,-0.00650035124,-0.00281709223,0.007211771,0.00269873021,-0.0185948573,-0.0121977087,0.0142381461,0.016138535,0.0214411765,-0.004974293,0.0130333873,-0.007644149,0.01820053,0.000128273852,-0.0110019138,0.0168374889,0.00104065216,-0.00494978763,0.00238080951,-0.02269297,-0.0181210954,-0.009134474,-0.0105074476,0.0129310973,-0.008573533,-0.007187346,0.0006340698,-0.00618896,0.006880641,-0.009218306,-0.0231895782,-0.0236740671,-0.0122868223,0.0128039066,-0.005478014,0.009230132,0.007279717,-0.0112874862,-0.00693421531,0.018018391,-0.00382591574,-0.0197094474,-0.01535212,-0.0148721458,-0.00181044312,-0.0121118929,0.00708663557,0.00925216451,-0.0129775889,0.0129954461,0.0266384315,-0.0163314678,-0.02917963,-0.0115370341,-0.0119587118,0.00374948839,0.0103188995],[-0.00779217156,0.0171154514,0.00321040326,0.013953614,-0.00746145844,0.006135623,0.00860439148,0.0208053645,0.02315459,-0.00291300565,-0.007326716,0.0120815625,-0.002090049,-0.004159667,0.0206681211,0.01494299,0.0106261643,0.008640722,0.0104146674,0.001946045,0.0120466379,-0.00464406749,-0.00779761048,-0.006347088,-0.0119007332,0.00449680351,0.00364766875,0.0119688977,-0.00560794072,0.008272024,-0.0188818574,-0.01739965,0.0110042645,0.0181421,-0.0167323444,-0.011425918,-0.007416673,0.007911364,0.009374597,-0.000531878439,0.0170959085,-0.00358736212,0.0139338262,0.016545061,0.001473223,-0.01396036,0.0125263818,0.01823614,0.0153999366,0.002437264,0.02095786,-0.00702129025,0.006271285,-0.0118592391,-0.0004332522,-0.009825199,-0.007292905,-0.0147724794,0.008422801,-0.0151660088,-0.0118314559,0.0280176532,0.00485620461,0.0133847473,-0.005476995,0.0149771543,-0.0135535654,-0.008888875,0.00949274749,-0.0170483887,0.01693244,0.00105063827,-0.007780085,0.00630206,0.004137835,-0.011099102,-0.00717414264,0.0123186344,0.0217087474,0.0259414315,-0.001769397,0.0140080629,-0.009756378,0.0164354946,-0.00113495544,-0.0109689813,0.0137645714,-0.00230290345,-0.00619591353,-0.00180259347,-0.0182037819,-0.0133983446,0.00346218445,-0.009906082,0.00462371251,-0.0121324621,-0.01080625,-0.001874591,-0.006728374,-0.00220064283,-0.009931498,-0.018078845,-0.019807579,-0.0120322062,0.0120238531,-0.00360353873,0.0120182727,-0.00142937026,-0.008684081,-0.00224098843,0.0148325814,-0.007257641,-0.0272067133,-0.0122808889,-0.0125771966,0.0146048395,-0.013454115,0.008505881,0.009204384,-0.009054283,0.0102292569,0.020209888,-0.0125323031,-0.025324719,-0.0207396429,-0.009885466,0.008327889,0.012143461],[-0.01430267,0.0105448943,-0.009036624,-0.0020098784,-0.00103666459,0.0201455485,0.00461396,-0.00105797406,0.00780089153,-0.0107573681,0.004242475,0.00176600763,-0.0131896567,-0.0183212589,0.006239362,0.00342699885,0.0272998754,0.0378966741,-0.00334072532,-0.008547302,0.0172371231,0.00372117781,-0.0213729981,0.0181638133,-0.00430500926,0.005772454,0.0165985469,0.009237903,-0.0132420044,0.018987542,-0.00530883437,-0.00824316,0.00630956842,-0.000289764546,-0.00116529665,-0.0147522464,0.005139739,0.0209024474,0.00612715539,-0.0350534767,-0.00498849759,-0.00206716545,-0.008153088,0.012815319,0.0111741,-0.0008848989,0.0148323607,0.02452566,0.0473810136,-0.0114090908,0.0194907133,0.005727926,0.0257533677,-0.0062618847,-0.0133495955,-0.0144775566,-0.0126113845,-0.00350634987,0.0202240348,-0.0137719875,-0.0125598181,0.014172039,0.0183919556,0.00778365461,0.0253083147,0.0117772222,-0.000532672566,-0.0114315255,-0.004747015,-0.00734374067,0.01062191,0.0192134287,-0.007077109,0.01578895,0.012036697,0.009151576,0.003753161,0.009215583,0.00323615363,0.0175458565,0.0105356481,0.015815055,-0.00542349974,0.00157591351,-0.00448628236,-0.00308287633,0.0106556229,-0.01692748,-0.0124799563,-0.0271623023,-0.000812191633,-0.00174336007,0.0232063737,-0.0135134477,-0.023783613,0.00321268546,-0.0138347046,-0.0236907341,0.00719993841,-0.02301271,-0.006773168,-0.003649109,0.01113834,-0.0043743276,-0.0002060448,0.0120993694,-0.0171807818,-0.0243118871,-0.0004012129,0.023386864,-0.00644341344,-0.0157864764,-0.02100722,-0.00513485353,-0.008225418,0.0434167571,-0.0100663193,0.00587499328,0.0177737232,-0.00706831133,0.0132369138,0.000642161234,-0.006465484,-0.005371641,-0.0285855215,0.0151247326,0.0193142742,0.0142970514],[-0.0150792561,0.0110682957,-0.008348869,0.004192783,-0.0038680532,0.0177344363,0.0055367155,0.00222060317,0.0179159623,-0.015541981,0.0031489993,0.004211837,-0.0107080285,-0.0191083085,0.0125798481,0.009800254,0.0257109012,0.032437034,-0.000550263037,-0.00167182041,0.0171130616,-0.00115742779,-0.0232472159,0.0108537432,-0.00425489,0.007999773,0.0135960486,0.0125714159,-0.0149107557,0.0207289141,-0.00757304346,-0.0154552944,0.008674572,0.008658051,-0.00474780472,-0.0196272377,0.002462505,0.01815012,0.0076744454,-0.0292936768,0.00219494826,0.0005441871,7.343427E-05,0.009706447,0.0157720242,-0.008224693,0.0213239715,0.0256099124,0.04526643,-0.005371186,0.0196173377,0.00332643976,0.0240175743,-0.00732849445,-0.0165013,-0.0156958178,-0.0121955033,-0.00682071829,0.0224120338,-0.0189515688,-0.0134549,0.0211043861,0.0158258341,0.008198754,0.0194725413,0.0163533017,-0.00529069,-0.0129020019,-0.00248620543,-0.0162791554,0.01724257,0.012769579,-0.006901536,0.0190550461,0.0121194171,-0.00201576785,-0.00134721166,0.00770306867,0.0148114506,0.0225469451,0.00435293559,0.017828146,-0.009350553,0.00756741874,-0.004539803,-0.00123875518,0.0177122168,-0.01333147,-0.0115893018,-0.01900742,-0.00639442867,-0.00196986645,0.0156632774,-0.0115962429,-0.01692698,0.0007367044,-0.0184383765,-0.0219769515,0.009163402,-0.0203501824,-0.00989508,-0.008426385,-0.000248442055,-0.0108797168,0.004725006,0.0106516657,-0.009156994,-0.0170485917,-0.005238767,0.0196174029,0.0006409437,-0.01748452,-0.0249261018,-0.006581243,-0.00530238776,0.03847411,-0.0184074957,0.007656767,0.0225196239,-0.0108724358,0.0179382768,0.0105821909,-0.0112318667,-0.0177695043,-0.0354202949,0.009079606,0.0243613683,0.0163345672],[-0.00416230876,0.0173771884,0.0006623607,0.0176349413,-0.0103658615,0.00389807019,0.00982013252,0.0242282785,0.0225261245,0.000241735979,-0.0135763828,0.0141472584,-0.003861787,0.00128377415,0.0228276551,0.009309709,0.0124385757,0.009177082,0.0124621913,-0.002843682,0.0144321527,-0.00134890666,-0.008939245,-0.00580476224,-0.0135296257,0.00400098553,0.00215802551,0.01182082,-0.00538758934,0.001614305,-0.019253673,-0.01703069,0.009787271,0.0205878355,-0.0162175447,-0.00453838566,-0.005245347,0.0103999209,0.00718775,0.00188601168,0.02271643,-0.008557671,0.0136993127,0.018276317,0.00204866822,-0.009821222,0.007974567,0.0166667514,0.00958093,0.004913399,0.0200259574,-0.007744545,0.004113525,-0.0145411352,-0.000550195866,-0.005806031,-0.00983259548,-0.0161988065,0.006962388,-0.0131404074,-0.00984511,0.02979016,0.005266616,0.0154140675,-0.0109555526,0.0139302257,-0.0143908635,-0.010523024,0.01590889,-0.01326173,0.0166640244,-0.00147932116,-0.006601708,0.00196216535,0.001778937,-0.0123690739,-0.0128204785,0.0153398477,0.015769206,0.0252924841,-0.008266142,0.0143205076,-0.0093991505,0.0166650675,-0.00160347729,-0.0109213265,0.0138861509,-0.00244473456,-0.006066335,-0.00250088656,-0.018516371,-0.014825,0.00260532112,-0.0114128776,0.00718366727,-0.0146052837,-0.00905416,-0.00371561432,-0.007576821,0.00292069,-0.010534782,-0.01889747,-0.023101002,-0.00913879,0.0122826388,-0.008679472,0.012807345,-0.00152290065,-0.007790372,-0.0101873279,0.0203917958,-0.0115976287,-0.0317901671,-0.0158711523,-0.0173988733,0.0129330354,-0.008868638,0.007230559,0.00597058376,-0.006437993,0.007397393,0.0192854181,-0.0145109287,-0.0209484026,-0.0167229716,-0.0102679,0.00625506928,0.0119011467],[0.000279855216,0.0178103242,0.007271411,0.01800839,-0.01404906,-0.00343924481,0.0103901783,0.01518096,0.02072443,0.00321993441,-0.00581020629,0.0139118591,0.003810298,-0.004875735,0.0141543495,0.0123670315,-0.00147106114,-0.005754466,0.00510233128,0.002496502,0.0131872324,-0.00199994631,-0.00195069017,-0.0120254792,-0.0158426072,0.0106202709,-0.00339722447,0.007663846,-0.0008631814,0.00278520235,-0.011399989,-0.0132156359,0.009839762,0.0220332947,-0.0218685456,-0.00584081,-0.008116994,0.00478709163,0.00503693661,0.0128547838,0.0176523216,-0.005129845,0.0164637845,0.0156187229,-0.00737467268,-0.0118086329,0.008246224,0.0119925141,-0.00103420683,0.007892081,0.0160220023,-0.00344579574,-0.00677432446,-0.0157172,0.00754731335,-0.00375792454,-0.000244509254,-0.0181356519,0.00614963332,-0.0107358536,-0.0138564911,0.020175891,0.0009958376,0.0134080863,-0.0108405808,0.01773174,-0.0187473912,-0.007236112,0.0187862162,-0.0168392733,0.0179992,-0.00638133939,-0.00200052932,0.009097581,0.00230644085,-0.0235142186,-0.0119016841,0.0135813681,0.0175360143,0.0174412951,-0.005084413,0.01267159,-0.00375311729,0.0202632062,-0.00311677367,-0.0155197317,0.0111790393,0.001513243,-0.00126527355,0.006186598,-0.0212305933,-0.0151080163,-0.008473403,-0.008249364,0.0162890386,-0.008796206,-0.005828038,0.00475651864,-0.0064268,0.0106392736,-0.006321274,-0.0209233463,-0.0219764281,-0.00968272,0.0158065055,-0.007156734,0.0117895817,0.00658689765,-0.0104572754,-0.007675077,0.0140018081,-0.00457551051,-0.0214156043,-0.0150003647,-0.0148204276,-0.00266319374,-0.009894273,0.00665037241,0.006694929,